{"num_layers": 4, "sizes": [60, 40, 20, 1], "biases": [[[-1.1065849174657667], [1.8773006935768763], [-0.05436500599939221], [1.0688714990839991], [1.183445914349845], [0.5257769351640051], [-0.37138451032969105], [0.18450666954820452], [1.0807521260202264], [1.2878293235818425], [-0.7992163766585253], [-0.06761146857769468], [0.4046360173604916], [-0.1589636500131601], [0.3963468992038333], [0.076142873111012], [-0.0729337348813321], [0.5734703480875057], [-0.8232550344802783], [0.262477560925808], [-0.9445210089413265], [1.5568664616468533], [-0.2006277636872904], [1.1864401323005906], [1.0090535206474964], [-0.3370926788845282], [-1.9227525264023422], [1.2060295865105644], [0.17966110330055432], [-0.7168265432212751], [0.5128384686528678], [0.8989551505232544], [2.143014325575724], [-0.6512791935971667], [0.5224092181930763], [0.7600799090434767], [0.13756848145937234], [0.06764593342820831], [0.06722866786738474], [1.7905561236997705]], [[-0.4847111097050167], [0.0003625230140006489], [0.3989407095303932], [-0.38306849744484733], [0.18577523389316064], [0.895253018479912], [0.9366944934668966], [-0.14548466198462814], [-0.8399653519397099], [0.4956612081469383], [-0.23739834616229255], [0.028754206770527584], [1.9480960103004912], [-0.5615952330352769], [-1.0124416489471997], [-2.2034733648890823], [0.44402165132975074], [1.0119110472597534], [-1.200863964851614], [1.8203570447251898]], [[0.04896382766959615]]], "weights": [[[-2.3241568178878254, -1.1704960936150994, 1.8275357559395287, 0.8759331278170861, -2.5683616192718595, -0.9803406485187641, -1.5971033699518051, 0.7289076248617188, 0.9271255258046359, -0.879057035389509, 1.120948274388579, 0.2868912910248899, -2.0175943321008885, 0.5556186010836608, 1.5344731546874721, 1.2908954746342372, -0.1281211180818819, -2.3418127984262234, 0.646779881575135, -0.24936744169301142, -0.18140754362883144, 0.4961103084238352, -0.7239420461195958, -1.4065098832315173, -0.13284982180896132, -0.14746681738202164, -0.047429304988390986, 0.42872870127116364, 1.06698472735318, -0.8067689220527734, 0.655130398868514, -0.8541604460472292, 0.5556142830493497, -0.8780435783048112, -0.20915116043781165, 0.5780317665208597, -0.09583720379919435, -0.045376082735131766, 0.7172203811759131, 0.3649315400070913, 0.04363741160923495, -1.6511745797278234, 1.1037919883615286, -1.114083382218392, 1.765742181556176, -1.275619341641697, -1.0858166272793188, 0.2415839912374247, 1.4719886694737725, 0.24709537012527524, 1.0695833382659055, -0.19813898460895504, 0.9970857034029036, 0.08659473279504477, 1.025322894293099, -0.156478931844772, 1.0239469163416723, -1.1231936004255845, -0.4139020195403842, -1.0355301413636226], [0.495700979355492, 1.833415337156174, -0.7226789493609254, -0.07681506008046232, -0.5775261876717307, 2.035095171952098, -1.1043870346127342, -0.7414758629461212, 1.829161902340724, -1.6559568553894468, -0.9622133250628718, -0.3724420968833017, -0.17461194034444946, 1.2189567977872264, -0.8703824898765321, 1.2794872362905023, -1.2179509422499861, -1.0707495283311852, -0.29877785655431394, -0.18478401844571474, -0.5100569010613701, 1.3780586920669664, 0.5501038620671604, 0.8117008473839591, 0.14838896397132117, 0.29225684737206836, -1.6455947515987137, -1.7294426278269033, 1.8169244811219867, -0.3376162851352702, -0.46454334832906147, 1.6065299771839097, -0.5084431639719901, 0.3154079207947445, -0.1790183563714583, 0.405130148691171, 0.2384700331092982, -1.1989821657750133, -0.2147994846189363, 0.2511829959708751, 0.24592691437394923, -0.02066039342273463, 0.2259549402118279, -0.44085364864023024, 1.2185471193947373, -1.1955484820204596, 0.755400539630301, -0.03830638425173519, 0.5987229742083737, -0.3853248760662596, -1.6132473485253913, -1.1132162919803545, 1.0990851063973779, -1.3783319749969196, 0.12305757428636137, 0.6038310835082342, 1.496009228097172, 0.49290076113624576, -0.044994310874168976, -1.8673873527695195], [-0.2965699262684781, 1.5539269593418146, -1.3909114406727014, -0.5006525116057483, -1.5455810534987464, 0.8228977654380822, -0.9374966698184783, 0.7493236684686365, 0.9063591592978921, -0.6101873862601572, -0.40997668898734396, 0.8867882479267232, 0.5739730155730486, -0.6416066388567501, -1.2659370416945956, -0.7534832698789032, -0.8034999218538857, 0.6432198307014114, -0.9940785111305748, -0.8690270889663865, -0.12127970794584199, -0.3834350789447394, 1.1350873407986453, -1.1497013817918942, 1.1835668834106687, 2.0487248893903773, 0.6869840790630637, -2.89493284727478, -0.22497203387258247, -0.4221801918807267, -0.9506113887448342, 1.0032514382483357, -0.6779873134932832, -0.6423138200915908, -1.1178927443580358, -0.022814914997758104, 0.1471459384737161, 0.8794770809113927, 0.2918207573173114, 0.05397867645586214, 0.27826479811339366, 0.29930205641452234, 0.3795831962041763, 0.24308068050421947, 0.8957592601211883, 0.8097423008696512, -0.251541927697798, 0.2594101863695752, -0.617440339966026, 0.28325771203012845, 0.33727860085773875, 0.35359688902618785, -0.05658573181349676, -1.202863706964872, 0.21059582659741513, -0.5628128531074401, -1.6188182273261165, 1.443664649315046, 0.3948110072208089, -0.8249633956857243], [-1.5512279762813996, -0.5759957197444144, 0.3979149818622057, 0.7922130231524235, -1.5071213516528745, 2.3925123141748177, -1.2282369941898825, -0.04135171455326432, 0.22999721370365028, 0.8083231266656916, 0.21561042895165333, -0.4793247946831836, 1.2470705600768048, -0.19101248505576243, -0.6811162406642148, 0.7759909373147569, 0.42370840389718417, -1.4399945751456027, 0.9220696883390908, 0.374086763487926, 2.3632887279245938, -1.068022192214037, 0.8143767868525233, -1.345484484725181, -0.6747465435992281, 0.38160059149621633, -0.3796852793849909, -0.029429179189378103, -0.12544634132382163, 0.7336403518143801, 1.2023133373906756, -1.3825007378907297, -1.5173175261342238, -0.5090011833409721, -0.6328802635703382, -1.1040613580835443, 0.6803657054234107, 2.050948001461273, 0.3767937721288304, -1.3280688707529462, -1.164577949627688, 3.2793436534489024, -0.8821952052813667, -0.7343832296932612, -0.4892544422966644, 1.6316556812408054, -0.4678146596591415, -0.21225976538533814, 0.6676693791401178, -0.16461689200354226, 0.42394744843760407, 1.0212191815448943, 2.796233229073708, -0.8408346857593925, 0.2381619337928232, 1.1318313202009438, 0.5774612940688513, -1.2309089404075606, 0.23863068360979264, 0.7483626577232715], [1.3121573731207523, 0.2720083170065686, -0.7829772921555246, -1.9071086846231737, -0.22334181037428807, 1.9120610136270542, 0.48264471285177757, -0.13252258492643762, -0.1789471249448564, 0.36209770064925645, 1.07535450854296, 0.16122767825328865, 0.9438450194717825, 0.6158994089851797, -0.750768694313429, -0.6191729422444378, -2.1135453459436944, 0.6791051232885131, -0.8324341482956362, 0.5884414902823158, 0.4596716902856551, -1.3778004939842334, -0.8042170977443409, 0.2896182320075016, 1.0890896222421764, -1.087506052962289, -0.878482569155601, -1.7580574187193343, 0.01879258190670307, 1.3026331169525591, -0.8058837989478642, -1.1103096992156583, -2.454051912138381, -0.014094182004434993, -0.7033338076405921, 0.8522781709326213, -0.22960490683656426, 0.7240298947029438, 1.1566936488604436, -0.5798883566259702, 0.24196067206777863, -0.3279926967123823, -0.6185363034797393, 0.5236913198826121, 0.5957498234287556, -1.2856127948124232, 0.5922662853782144, -0.6719018956503452, -0.1125831818115118, -1.5383048542494047, -1.0007024795425012, -2.589367685928824, 1.1936385683349775, 0.3886498441091126, -1.641187835892137, -1.0971699522721887, 1.3610666013158297, -0.7190643159522693, -1.7466861660070923, 1.6205792503467464], [-0.7196921109717433, 0.4242161382594597, -2.198805580553472, 0.9385178791265639, -0.1331273015673771, -1.2258343645825753, 0.046969255945039604, 0.5684316914970584, 0.01890809474949688, 0.954318504765123, -0.7542392595867086, -0.0627004531866321, 1.6491930627845703, 0.6152617684895297, 0.512748260591567, 0.7645816255704063, 0.11163173146994583, 0.3899550406748802, -0.9140044954562455, 2.635716899867968, 0.9555128790256188, -0.21236911287700952, 0.7835949847752969, 0.02036183980451267, 0.2100267629058235, 1.3676739645717062, 0.3874438403684124, -0.2138835767591595, 1.650093817852489, 0.8413328606178179, -0.39116987792867336, -1.2415899271758797, 1.6052087733573002, 1.7225755691287927, 1.900444245389108, 0.11251642522384395, -1.2355617616329484, 0.2855506642277984, 0.4105521329019893, -0.5454055919793006, -2.082174719621452, -1.3695276592075234, -1.6885697864640057, 1.1478092372784956, 0.05351072473407676, 1.8404052569093927, 0.8945509396888859, 0.15106509267405158, 0.4851119905833313, -0.9717146336430601, -0.16408558316864694, 1.308387874075112, 1.3381650092714235, -0.9683387176079549, 0.39625539667325205, 0.6088834987894969, 1.3221008785988475, -1.9730235110660068, 0.2608784369489356, 3.1369287556927516], [0.244580540193167, 1.3396868945362552, 1.2658643436506574, 0.2284346333300246, 0.6138072508571679, 0.07624838565452449, -0.735594997020806, 0.8576317994381674, -0.38686012556226296, 0.827426830108768, 0.578413747293728, 0.5834840877265801, -0.7389469202463378, -0.3702627606088239, -0.4936109425247429, 0.9495122068369211, -0.38522759843295107, -0.7729504429639041, -1.950322386516958, 0.7056036628564849, 1.1606796424083394, 0.8366482335509885, 0.3300663261128289, 2.312197395422872, 0.08963150124686071, -0.6567413753959357, -0.3032963919145139, 0.04089622828029202, -0.5183479981197855, -0.5816147497815429, -0.6538929061815936, -0.971251397150135, -1.37514300948157, 0.41605717078745547, 1.2494227615003264, -0.4928318535889126, 0.5743258401103637, 0.9812711952419243, -0.2754102643880179, 1.409707493208219, -1.5952350938422888, 1.506914777832641, -0.26041860722867244, 0.580697004091212, -0.20783409106103515, -0.34862325255855675, 0.986328501720853, -0.11953866919504214, -1.7056462596674045, 0.15959663666776577, 0.05108019007438602, -0.4283175834298804, -0.4969036978926465, 1.2023084391605667, -1.162604354936436, 1.0479692574983865, 1.5328192878672209, -0.08223649595127315, 0.1338436329747738, 1.1706549960459658], [0.5633275412847353, 0.2160981623136443, 2.8459660816659107, 1.2219228809213971, 0.5120290833222236, -1.0888709096413742, 1.4682642210562886, -2.0989247355611833, 0.008874298713651427, 1.2924272068997122, -0.16285694799842548, 0.9587675384086635, 0.18787563580617797, -0.44096485940087526, 0.3138401734107704, 1.444301271762706, 0.09102327656089824, 0.9710572530233489, 0.09643885542172108, -0.21145906467817752, -0.43416468800921976, 0.15656316870795955, -0.39155039872099456, -0.05266729847419924, 1.7092576088440805, 1.8807106008982415, 0.23529699407730365, 0.7712053040684741, -0.05649938226097354, -1.0843644927121254, -1.2868929390520398, 1.3462971066884877, -0.3884956699694205, -1.7225310444635213, 1.0855473254949948, 1.4263222288721573, -0.8081889040613669, 0.4725044392610095, -0.8978498027403001, -1.505711801577086, 0.36431739286388015, 1.699812173386323, -0.8424867610307184, 0.48533938024224416, 0.5139037715975788, 0.5623378803725279, -0.5360309969768176, 0.2755224295225178, 0.833417382434748, -1.324592834949538, -2.072223709922271, 0.6359610648552374, 1.1566269241528528, -0.9329887670869932, 0.2684643402243165, -0.9099868281628298, -0.4488230664479364, 2.1029387330914386, 1.0073742663559995, 0.9166415707367195], [-0.6812969057307815, 0.2136622424179676, 0.1795502936370504, 1.256408020057259, 0.12592596323392752, 1.3156319282204425, 1.1237865105617293, -0.5584993075057606, 0.1810369429419798, 0.05443078226764946, 0.365349514117968, -0.42488636361324406, 0.7178293348721768, 0.17737903030933147, 0.2304647236823307, -0.12077109600812252, -0.2714317188917107, -0.7173942849168023, -0.8529250835612706, 0.2918916576127746, -1.4250978469316264, -0.26961781899281345, -0.5592571161456258, 0.22050692043393036, -1.3270574598825857, 0.7321693522766054, 0.6094067446939485, 0.6817417310413209, 0.1336003569967006, -0.92227659239744, -0.5204553843285561, -0.4426880037294276, 1.6141063206536266, 0.43226473134026705, -1.4477000812080718, -0.21221981799523615, -0.9595864309770078, -0.38240114760253446, -1.6068797474685517, 0.8675847627053612, -1.2344389272567784, 0.3757900119733542, -0.6874488156442122, -1.249240564415314, -0.1051974801388009, -1.1935015532907018, -0.0531337225306578, -0.10353118864551995, 1.2796727312331129, -0.9382084380426527, 1.4383535176748081, -0.22494791081141782, 0.37259232658861147, -0.518921504677816, -0.07131705523855912, 2.0472691163316337, -1.2028251324605903, -0.2092590011030922, -2.726474315540768, -0.6434658894397883], [1.492889801260386, -0.23623482277604024, -0.0400363863546515, -0.380014583554205, -0.64215898950306, -0.668800188100749, -1.7000540511051965, -0.4959948337365988, 1.7867900681783502, 0.8531851284875499, 0.3704697275928138, -1.2808092194658574, 0.7761983452070548, 1.1242667847795897, -0.17647410236931907, 0.44240699931379257, 1.557277342999318, 1.1040943714794478, 0.46563265924711533, 1.368771012855548, -0.3534475476830515, -0.9884212119264336, -0.1317066633732975, -0.9191623258627377, -0.8969664108523205, 0.20270509918572002, 0.5148080990322836, -0.6569408183148325, -0.6164232904840018, -0.42664531161078606, 0.08089778509460337, -0.6414076627569142, 0.0849495691134286, 0.12452128492630406, -1.353149878243386, 0.8454822881190852, 0.33881282107059685, -0.933120956673769, 1.4744851924388476, -0.5348176149516487, -1.3402357542575298, 1.5566250220167548, 1.1017798832120358, -0.2743253645782437, -1.3265493227081364, -1.7356182681194245, -0.812498058048567, 0.3688953018254136, -1.3665071786598106, -0.24492713246572223, -2.4580901093370784, -0.7078161846017377, -0.5832553978559872, -0.2599295313587439, -0.1622881019448695, -0.011847915598917354, -1.7510155466782458, -0.6823203785847238, -0.4161081330037338, -0.9973037081909678], [-0.84055781629243, 0.17988618746419324, -0.2855195320885662, 1.6080387202595972, -0.1434949469227195, -0.10872094055591149, -2.0275685133478616, -0.34137590748232294, 0.1755500822351763, 0.6566553891147832, 1.070668130533535, -0.8235962436865162, -0.5596319362545104, 0.7260138837956768, -0.4401706269174188, 1.6417151285459173, -0.6664775484585543, -0.1472554776879584, -2.2368048063708037, 1.418384824812337, 1.1292725067585831, -0.2773384389595071, 0.7699266065002286, 0.7585370487457083, 0.6591605037079057, -0.2620207746407627, 0.11534713009946912, 0.48969431582472334, 1.1245250982150248, 0.651601283692153, 0.3968791430737409, 0.16139657437836463, -0.16221712598590077, -0.5938524698317288, 1.1968900505126085, 0.8510300570862788, 0.3398820848813676, 0.020688734139745958, -0.9085063556242753, -2.759680634162126, -1.9461407381980644, -2.635349648364493, -0.4043068271987329, 0.9670033665840643, -1.2277438324358878, -0.7350218343420956, 0.9673495015725638, 0.49235641296261484, -1.5831210298424974, 0.8955508919999282, 0.833585850656484, 0.1955002575894371, 0.7681805655817231, -0.20464540915062457, -1.8368465583484335, 1.2578371659652565, -1.6768723084331658, -0.461382652251553, 2.395759294582041, -1.8132065017899306], [-0.6167730536912083, -0.05167574558495224, 0.1843559331247944, -1.7077540575378773, 1.2260836488620483, 0.9908472213388277, 1.6619706391037061, -0.44002723419035317, 0.3806584465125884, 0.47815516049101237, -0.5734557051244711, 0.19689952383338336, 0.5023359183119053, -0.4661931233034891, 0.29163044617743555, 0.1791731114769638, -1.2697646804556666, 0.12750397097403707, 0.3726973134132819, -0.09919878052862219, 0.4701615041449324, 1.5980298093342187, 1.0453358705657423, 0.9207574901633286, 0.39228560279171737, 1.2866335671029858, 0.28938910489675773, 1.5263902509125333, -0.27054597327013674, -1.3361036036671814, 1.212359439518563, 0.8042371267611031, -0.6076541161122017, 0.1520348453530952, 0.7477301876530671, -0.5624160702239437, -0.04837963482794146, -2.3403667672482746, 0.06323022160978507, 0.43515694139431615, 0.932407697461775, 1.222551856199247, -0.6632436911868139, -0.7910187450869812, -1.077513661694086, 1.835884141237715, 0.8431143768452662, 0.5502448398518902, 0.7624322973262825, 1.1297998902469144, 0.8709464991806045, -0.6089656848516729, 1.1520218608797514, -1.640644709565036, 0.8824491806968565, -0.32507730688155606, 1.3946256508411152, -0.12633440677774035, 1.4980341249076121, 0.9842972398152408], [1.3198974388170759, -3.2613788385516984, -2.3395967882037954, -1.5090679666416693, -0.16025748977771806, -0.6573269649216282, -0.8067565796839499, 1.1601288142672115, 2.107287155280879, 1.5966129555094173, 0.11707061300088728, -0.3227128445248392, 0.44546547788779417, -0.7696564815327075, 0.6881476984056875, -1.6121636015444523, -0.4341015904811975, -0.19344042054328797, -1.076749127455752, -0.01847542286068814, -1.2453734299264025, -0.1349440432395567, -0.8211245570907344, -1.581632443644885, 1.762875903477232, 3.4143391022863265, 0.5295031934963281, 1.874861049817704, -0.299971509061493, -1.5377338997418366, -0.16997259315997265, 0.47036633652297033, -0.6688456685389305, -0.17234494729647418, -0.9759675714964549, 0.4582177629902644, 0.6062120080988552, -0.29226245062318285, -0.5216948107584318, -0.7280686776854293, -0.35250724562593055, -0.738610693421062, 0.03373974860026081, 0.946512147761463, 0.495004032125475, 0.1547594961657114, -0.5908728977759636, 2.2808310869645427, -0.7148467435235313, 0.7607155614117441, -0.5421747093673982, -0.4420814570921583, -0.5608761952658039, -0.3878403308847562, -0.546013837635258, -2.463391501828277, -1.1398752804018417, -0.7090931134071431, 0.07143806452629686, -1.1589146896399736], [1.314077111262065, -1.228550625977633, -0.06690732352829704, 0.53984855908106, 2.2660319465373187, 0.20950709247154367, 0.23854029425131054, 0.066303972156548, -0.48903759765829974, -0.029982868757996425, 0.38672315806900587, 0.7012017457988969, -0.9254291114075155, -0.7371062629953566, -2.098792411812675, -0.5473405011515448, 0.6871302146620073, 1.8815344088684443, 1.5936548317112813, 0.36966389844344955, -0.06632953619101022, 0.7736467359597267, -0.5664048182731567, 0.5542875338035204, -1.177854149423038, -0.8038210058698458, 0.6339373495978605, -1.1665973443633528, 0.33299547346862585, -0.5601788827996256, 1.3135219161015732, 0.23044878656182152, -0.5217846845329088, 2.9427931151511615, 1.1762625771475843, 0.20481921727949384, -0.23505145068403718, 0.47714899814347705, 1.7901306965165276, 0.09988994342559733, -0.21029372058037366, -0.38809311792196494, -0.3030142298782655, -0.6558817969242822, 1.2517703287302369, 1.026989824240641, -0.1899057442713124, -0.7444741899811911, 0.4562132319783247, 0.7387822240701623, 0.5515136599986102, 1.3135370574191516, -1.0578489449098076, 0.2769827036719338, -0.5144377109699104, 0.11115384281728127, -0.6791134468646454, -0.3842614294368522, -0.43800963099738827, 0.46427071236517886], [-0.017443109401285673, 0.09130773445784215, 0.4355449350470633, -1.9983247375748014, -1.1190978016058977, 0.31697830913652364, 0.7477379127971784, -0.32880090648421106, 1.0857677166350643, -0.7962964795241102, -1.7721731695331522, -0.1623213420989638, -1.775195736125923, -1.92383238495124, -0.17297122728021733, -0.299722881454921, -0.4387117088018225, -0.11166689469572826, 1.600112739058361, 0.5318502997773091, -1.705389199372958, -0.5232103063767098, 1.8435913622539772, -1.8754521153363473, -0.6875486291641092, 0.08488213376269023, 1.1806052031488445, 1.5381064888409024, -0.012319549130872473, 0.173026457605054, -0.20452939713624868, 2.7211422757471433, -1.3354805544693664, -1.9675541077923997, -1.0339994293175208, 1.1256699047151542, 0.8088648897470805, -1.0078317263086107, 0.5994115202472533, -0.33113445873113134, -0.062036730624836646, 0.04681181303068257, 0.33350999307676893, -1.7935491068776748, -0.07117414859543043, 1.2953475288362593, 0.3005361106974678, -0.11872023304901948, -0.5283560838587025, -0.9079058141687871, 0.5731935142751823, -2.720207405363758, 0.5409912778601097, 1.5187116906453904, -0.9454734814650823, 0.13223346606230224, 0.48480442068312085, -0.7296013729500537, -0.729400314292273, 0.2505196529356612], [-2.0822762225958087, 0.3673067022920504, -0.09579470196465309, -0.3079528312226739, 0.04987945763653113, -0.5588175090270571, 0.68545211560751, -1.3619628045175431, 2.069141257877569, 1.0506315576316865, 0.6368517251100203, -1.6552597570974226, 0.5635548744982802, 0.5256695839845115, 1.1164788474188452, -0.5440195667681745, 0.5838562837945657, -1.3370081461092933, 2.01698774159727, -0.6588668053627089, 0.7623086700837195, -0.7130618127030662, -1.234017209531116, -1.2863870691487655, -0.3343014455581235, -0.5033007017978115, -0.9052196254922612, 1.3119494148874873, 1.58197978496258, -1.1270636505638807, 0.8001192016241824, 0.045124992091464734, 1.0812011686161367, 0.7540813827839543, -0.749696403585564, 3.130990200169492, -2.202572232836219, -0.49689786005534897, 0.1918118487991325, 1.377018040138064, -0.27087791292083385, -2.1159679806314733, 1.6652996295966722, 1.4091966619306893, 0.6056212608359598, -1.1475962428622193, 1.6202488587222197, 0.8267666610805059, 0.13015808274630172, -0.02461462426356936, 0.46817603345739955, 1.1590687206710324, -1.3016791745617209, 1.350713007083775, 0.3667708244843285, 0.8727905701155442, -0.17653187653493485, -0.714273293640959, 1.6207391911794375, -0.4128575065492691], [1.2511635456174885, 1.6169597380871963, 1.4902144629416834, -0.8953660699139798, -0.45208454909128015, 0.8938162934653695, -1.6094657223607223, -0.41377029672041765, 2.1296450997090446, -1.3501146963769772, -1.1539518547473007, -0.8071928797774763, 1.2537391237779678, 0.08726790114051954, -0.11135515834470752, 0.9799078525274758, -0.932252160057927, 0.46261157722510393, 0.08726443977568484, -1.8381329336398142, 0.7697290334510992, 1.031732657224508, -0.3784622817657448, -0.45131177478108775, -0.8592719803971676, 0.27318697453323043, -1.0307564966191938, -0.20455406899125553, -1.543235268523113, -0.9362599961893027, 0.5273385838544079, -0.653112055002168, -0.31609070891499164, -0.6387642811394125, -0.6249409521241478, 0.2697576760374719, -1.3282586752991543, 1.1728137118321762, 0.4052764994740051, 0.1110915971111654, -0.057663509480185754, 1.7046073513436715, 1.116342496910032, -1.3849475635557795, 0.035004444056441764, -2.9667566614712104, 1.0967525867929258, -0.6046306029145361, 0.46674617939859603, 0.6380466077403801, 0.2930807008069688, -1.2867343697535194, -1.446136229213879, -0.6197397987947988, -0.027880188451764012, -1.0667190876870734, -0.3956966593230741, 0.14935324362320263, -1.4295830205670856, 0.6012543500430582], [2.5134164832857073, 0.7121971041493557, -0.16722598876941536, -1.0550571860741846, -1.0799340778751982, -0.7595090625109338, -1.3119675138938456, 0.0742705407126626, -0.09971565640434976, 1.139275097024716, 0.5533537328971325, -0.9979887330277177, -0.15322613627428391, 1.4793588611064392, -1.5409133030426514, 1.4200932082819804, 0.4916453289413808, -0.0017596542284232808, -1.0351883019871984, 0.37613200904482713, -1.9239738842852347, 0.29000446778061706, 0.06672088852853962, 0.766778730406326, 1.7936617201926834, 1.8266765615405924, -0.6988889835577851, 0.03385863661149513, -0.9434652188777284, -0.9218766503135472, 1.2188038806310264, -1.2913505377585617, 2.119736807795895, -1.2846178431637396, -0.8887072151473674, 0.3912111270851726, 0.037582735085167664, 0.8148894411535841, 0.7484305020306964, -0.4406368582981128, 0.49028029370304776, 1.6522789844483459, -0.002732081410755884, 0.407587861472111, 1.1354854677048132, -0.8483334774139208, -0.3575006299900128, 1.6396247233998058, -1.2853659864749691, 1.05060105781859, -1.4701582077057873, -0.4413461772214974, 1.510634922491398, 1.999608075049309, -1.6732275444694713, -0.9207959178296606, -1.1755015402540447, 0.6723717753448547, -1.05631697582966, 0.7138570239915666], [0.6321564524803381, -1.2171062331038789, -1.0875402056030474, -0.5842358952560902, 1.1841102229659834, 3.256765991181442, 0.7469261375592462, 0.046360642902186985, 0.8723955873760255, -1.1452481929226148, -1.2795273683267494, -0.8165333588475767, -0.22332378348178442, 1.3103687501986023, 0.697783150658429, 0.9588165739244109, -0.4705686162113734, 1.2013107859715482, -1.3656678283641104, -1.8815753620373448, 0.5889375968730152, -1.0431639793757632, 1.2524445029391553, 0.7750746113261755, 1.49715631859725, 0.6037738393564445, -0.858150076040205, -0.2697455494562036, -1.1255727387092642, -2.349989946886379, 0.6982328687255245, -0.05231968352320339, -0.8996860145750986, -0.3026994440129539, -0.7372232145504, -0.7244844218152401, 0.6337542416010535, 0.3786935582959982, 0.4440504201908965, 0.705731674667149, -0.4823893882442372, -0.5346499778340643, 0.6768400515658124, -0.20664444395844367, -2.070280330595327, 0.5107399239917733, 0.4340133618666159, -1.2049731081941333, -1.119314101957642, -0.06380206804848886, 0.6171996705903212, -0.014180709173627442, 0.6974267644298667, -0.64070582326228, -0.014447819409356405, -0.3122008249678103, -0.291894768489154, 0.1403185922731684, -0.023449490884872127, 1.4276737034629072], [0.5481339837655655, -1.0391522533082012, -0.3134052497813979, 0.8466394264415498, 1.3351324016322887, 0.981889902902001, -0.14250793253096344, 1.0944278601547792, -1.4920773411989097, 1.5526677535279567, 1.9629062514059998, -0.4850056610272828, -0.03447964503183128, 0.6730990035766781, 1.1589179163568757, 0.16698852277553117, -0.31093066020875093, 0.09934654198395061, -0.8270271553872802, 0.1819500942754486, 0.6135296466358738, 0.7143985997406198, 0.2044275167504522, 0.13576862295996908, 0.9044747368074235, 1.0615478224251425, -1.4148865431359743, -0.6935826367452806, 1.5926165559943413, -1.2502075597933195, 0.3409328799122303, -0.3248562920855219, -0.8310140568774761, 2.2282073777612768, 1.0463136714967682, -1.5293186862730455, 1.7013527011633711, -0.040993820067489396, -0.24349530829570434, -1.521453290723022, -1.2958452187832947, -0.32560553035813106, 0.6737548518604297, 0.11638420595239578, 0.08229549410316693, 0.9598732162341506, -3.2174627526245314, 0.26536574994491136, 0.8123519992842001, 1.9805681378268127, -0.6074463244348075, -0.2457676688061025, 0.7226550573171097, 0.8640791896454739, 1.576144138993463, 0.1895205691280792, -0.12274623524659457, 0.6980041311070109, -0.13718032698374855, 0.4038740200787956], [0.5527454652616502, -0.919253571771249, 0.8105786671044669, 0.3515884113984802, -0.7174551157259014, 0.8895306776427845, -0.4512409164856252, 2.1996884291782117, 0.5759894568477155, 1.2502105569676738, 0.7103095878196332, 0.57064489753794, -0.5085984269896754, -2.1785016801467445, 1.1249525196874897, -0.6782515703125364, -0.3758420538476238, 0.9127671759672367, 1.2962877146295042, -0.9024625399968069, 0.5649145646328488, 0.982627866274344, -4.346867251348115, 0.48968914974291095, 0.044588336378300175, 0.6375070102864864, 0.08850218294153005, 0.5313936206298225, -0.25908651909975333, -0.9526411929264412, -0.4272395200393625, 0.41430375710541284, 0.21533174935047147, 0.5446880077862909, 0.30564823163550214, -0.4337485212319948, 0.31565438969015736, -0.4578749957750727, -0.9755138809507533, 1.8678320852681167, 0.3836546692943223, -0.6468302109478201, -1.8724604168704038, 1.1165821004590937, 0.5730145643307039, 3.591384114400235, -0.8834299353572742, -1.0571456268217418, -0.3646999363957161, 0.29857361698562174, 0.13860382945671004, -0.5556806493198321, -0.10386732368671259, -1.655894010983264, -0.1340051716526597, 0.885099019891527, 0.35302864251929944, 1.0165082267292789, 2.0148949733031696, -0.09588676714683823], [0.6843060408286158, -1.0977492473764725, 0.46725198005579033, -1.5777369170243545, 0.9832700385363697, -1.4927065293862283, 0.12817631486682166, 1.5932543635874867, -0.7450820253590283, -0.5631153507106554, 0.7357969949446415, 0.027738766431559217, 0.8211075413439656, 1.7709790119312563, -1.3381226167720637, 0.7628065373448144, 0.4337805795501689, -0.24242752182334695, 1.276126534559182, -0.4333739830913403, 0.248923600540456, 0.8310006731754055, 1.2522921673710707, -0.49455475955332723, 1.278960989139965, -0.309300606085658, 0.7196526612723466, -0.8210203847719133, 0.5896158809581924, 1.039013724313638, -1.27144677546806, -0.5118107323463016, 1.0970768637777517, -0.7385948662615461, 0.9338331803400076, 0.5353037456078913, 1.3821503037961824, 0.5715114194193732, 1.0349398215409737, -1.6516044374243493, 0.4845070543136227, 1.3438102257631, -1.2426553223403158, 0.4731588563709035, -1.3477844938535894, 1.1987998384991072, 0.0793836119126113, -1.284175696262743, -0.17273121640707015, -0.23898933639694414, -0.9444524815696043, -0.6525599350830434, 0.8742064855895437, -0.6693789828378893, 1.2098825194199445, 0.5465016247412853, 0.34868569948194333, 0.740928874010879, 2.5795147569861454, -0.6758158629005396], [-0.7828255378608227, -1.8082362678203634, -0.03038180893902926, -0.5243506802051956, -0.7034885568432084, -0.0286850186691043, 1.6171184435966783, -0.14521984452953177, 0.5202161726344109, -0.5076382959296951, 1.1219318416714261, -1.123494620200768, -0.47015410629714455, -0.026778618049494177, 0.2689693923641165, 0.09423896392583246, 0.16499386628933388, 0.8071842665907347, -0.32982108924794123, -0.9709431132330167, -0.20369648293533352, 0.2573385382529263, -0.5067961859161678, 0.9291472433122883, 0.9928724736207806, -0.49107494941082125, 0.08280829085056383, -0.751118980219618, 0.25318042069448504, 0.17600663123289254, -0.07041713163071854, -1.5342138805490089, -0.1039147742277208, -0.0907248526228323, -1.501136031854085, 0.9730779271660338, -0.7872765730570122, 1.85749941013526, -0.34719241849469473, 0.21079355033358585, 1.7242794632139864, 0.1325286102541396, 0.7716383203310667, 0.9113413914955515, -1.7274459705147045, -1.0330414829218726, -1.516771422406352, -0.21389175751370754, 0.41490501877740615, 0.1345806219766206, 0.4023690923917324, 0.2563404804974229, -0.891419422637037, 0.16908400728501988, 1.1594820536973973, 0.7704155425085936, 1.582522646867199, -0.9338853048578734, -0.12104828392018951, 1.322207627021439], [-2.134141376551328, -0.9229733846521394, -0.4182831709916962, -1.3305526479210958, 0.8800550660003186, 1.3699124544134242, 0.3144651999757402, -0.01531200748773757, 0.48970408538974014, 0.35202007711453753, 0.6095486512406706, 0.9972430275673394, -0.8524555913023556, -0.004398994121018765, -1.192959212170786, 0.09295699051180717, 0.3345353819187207, -0.26674632404509535, -0.23049943241992685, 0.007085510432201034, -1.1920113425177439, 0.41629575997967394, 1.26408661742874, 0.6572417281917642, 0.29561901465220114, 0.27016870319966985, 1.0750404976428163, 0.13505525344523447, -0.40362577979157316, 2.6811382805481627, 1.3551107439188814, 0.19261316617634136, -1.0500918897576743, -1.4877397350548067, -0.6880184053672109, 0.785933185789663, 1.2565921466898762, 1.104106427840596, 0.17985295139906884, 1.0685048494584104, -1.5621039295700216, 2.5093113895511987, 0.5651612959512259, -0.0923123926979912, -0.4725358898884339, 1.4540189032011712, -0.9865931437899568, -1.2521991975731133, -0.20737744896405458, 0.4119750427590316, 0.32192785392308887, -1.2655136983689896, -0.5320921856800083, -1.7071945180159755, -0.6465002775791492, -0.6068108404449024, -0.11766053246236807, 0.7868247317366951, 0.7408144128280844, -0.8730477751698086], [0.42644326678000133, 0.48517539954367866, 0.18896719954379554, -0.6215603829756421, -0.35960807649283455, -0.3372264762115122, -1.108843955981546, 1.472469724440736, 1.3023790339039631, -0.5758525946759838, -0.7598363120126262, -2.8995824966946655, 1.5128232180794172, 0.12603475717740806, 0.8385232779701614, -0.43981260846250636, 2.417521229360526, -0.6485726067834092, -0.691491426718967, -1.5845611373584572, -0.9898350085310087, -0.8408514017018651, 0.5756577103897967, -2.3617662966914605, 0.3574570444178892, -0.6143603017758215, -0.8818876333406546, 0.6208792972901075, 0.4121383542019695, 0.7902340756674662, 0.7758841389012109, -1.831120136228989, -0.7290598369167128, 0.21454342303666918, -0.15283928400578592, 1.1063355989010457, -1.3976083026030304, -0.1775094166891008, -0.6016866418393418, 1.057207368129427, -0.15162385093469832, 0.289227862801432, 0.5284120796744589, -0.24131407670948518, 0.6149745202236814, -0.11769229872943819, -0.23316710500752436, -0.8858799223094735, 1.876465498382315, -0.13875759422824288, -0.2633929091476392, 0.8311143792150338, 0.5362237892933565, 0.5659603754886475, 0.2756363817660803, -0.936390061939331, -1.1828072682993118, 0.9153250972794502, -0.4433213632545579, -0.7571292112012584], [-0.29153352648645153, -0.07426659712203905, 0.7184702247019269, 1.050812490843484, 0.7795144657898454, 0.17907539757125915, -0.24731327095587366, -0.7645999063815171, 0.5637728058835338, -1.101760343649391, -0.5588971259019846, -0.377671999775648, -1.9207970569945882, -0.17946079452647234, 1.123373782368028, 1.3910313550080853, -1.2008234802313826, -0.9317092570529026, -0.8306689888929746, -0.6083081902533446, 1.1411274891907917, -1.176003758455989, -2.5352702757572807, 0.7275647680857096, -0.2577260104860744, -1.2723683285038712, -0.8661822735818084, 0.5354094331066629, 0.5698621287033652, -0.4181596549556001, -0.06315629887772628, 0.543570011795757, -1.1655864855447724, 0.6443299708936633, -0.4335610822365533, -0.6202565762033568, -0.8501516123810843, 0.31807841798075187, -0.818806841410009, 0.3311971498272701, -0.002431098760544994, -0.34296402306286133, -0.010381046354090488, 0.6502972589612248, -0.35541631337883184, 1.4108822294964523, 0.5002201165130586, 1.055007025150529, -1.9270290023807646, -0.41045376825505636, -1.6586615917206513, 0.835008263883931, 0.20876454700860195, 0.63330630934282, -0.5898789832815848, -0.22821796783946183, 0.3858101433803564, -1.85844242756213, -0.8703332609556563, -0.6098615227376265], [-0.7879905095065205, -1.4710250363479067, -0.4203182836528055, -0.4678391148448469, 1.0844064907048958, 0.2547100855957702, 0.43050902514719974, -1.7544584839619466, 0.20355076537974465, -1.295230288254707, -1.5473506927410867, 1.2953687135266096, 0.2757703455671721, -0.16453904291687557, -0.7844143789963891, 0.39639106038143995, -1.7620763937873414, 0.7628006470447682, 0.975481055238517, 0.38217950491058206, 2.507264222471428, -1.675358592208116, -0.20600098543687487, -0.8511824801716169, 1.1937600859452389, 0.5764184462952033, -0.17749050772287783, 0.013748868667065962, 1.0513759189192071, -0.8407017312299303, -0.3707130208377713, -0.5952666689574484, -0.3585324431405098, 1.6588133471964392, 0.5314545360928419, -0.5099905904553421, 0.2595977293389151, 0.780446961611633, 1.1213411620639977, -0.5536172451180958, -1.230211919383054, 0.4377095443464173, 0.8088631653372277, -0.6562387089654153, 0.7829676114297168, 0.17907678779093575, 0.6614253220087829, 0.7115808161448578, -0.3762014340675714, -1.7132248946371467, -1.5224392473876625, 0.822350298064275, -0.4059872733738692, -0.592140050876789, -0.4254728386327797, -0.997304804174963, 0.9326861487733668, 2.0367248680453387, 1.7041523248328903, -2.1205055043836816], [0.28593315471268266, -0.21325250695361023, -1.4390300405359648, 0.8162134620980894, -0.5766440209266934, -1.2085180940549447, 0.7878219655053013, 0.25220988086993235, -0.12272061466759518, -0.6028672161725068, -0.13307945589238818, -0.19165009407925407, 0.001900283884805023, -2.0025776103344715, 0.016131962273997012, -0.14556905647628948, 0.10103383831648191, 1.006307652559627, 0.5123843522189636, -0.1917803408114118, -0.47025915447271155, 0.34044051562470146, 0.6490726945347454, -1.2626875405148112, 0.7194278347427447, 0.3553539358187818, 0.44721451899395825, -1.2132265631328893, -0.7612635029351602, -1.6418037782008312, -0.7502525691109705, -1.5432196446791864, -0.7482874543195828, 1.2432018810485184, 0.06809585725553723, 0.9121949887006773, -0.9165231943547727, -0.20249881719793902, 1.981381133298961, 0.48383582824516275, 1.0904066208200531, -0.6302647428115968, -1.16867923709317, -0.9487833968477996, 0.9993201464263026, -0.31131857055415835, -0.5602747378421659, 0.4480268201293952, -0.2536993668382972, 0.911109435478792, -0.011283207505613112, -0.13212249606995785, 0.2644430995493311, 1.1837614831209495, 1.0329489991139995, -0.1793277076878437, -1.1978145708017212, -0.6744146750828247, -0.5576561322318891, -1.6515846813460393], [-1.357029337586709, -0.7026711373963525, -0.46173663609295457, 1.0342501852619894, 1.6326266243523666, 0.7052637886365091, 1.2949326107593584, 0.20685763372843616, -0.6650288208001884, 0.6921225416025995, 1.0778532434101777, 0.20561960032808232, -1.0483680089677563, -1.8819270080667825, 0.5121776697722774, -0.23015818884864053, -0.3737397572004668, 0.84917732901139, 0.2759227804312026, -0.42832906774331697, -0.9863392947689833, -0.4954790611901769, -0.09550212466489175, -0.00904747164135011, 0.17909349375880687, -0.8067969871314795, -0.33946509973716144, 0.20715422565876532, -0.4300969270432755, -0.06573358009620325, -1.3864387652311099, -0.01671675231956269, -1.6915769327035444, 1.1190201234826846, -0.7821698348825842, 0.5199421418980078, 0.43723325339917074, -2.569039689947448, -0.8034083718828425, 0.3108818014796231, 0.2922603689035606, -1.340566789860011, 0.19164856458199966, 1.0021419776404277, -2.115819006994506, -0.6232159577263919, 1.1407018246784117, -0.12269824023972009, 0.4362904473990386, 1.1879053762785523, 0.5454009286932625, 1.0822918211665487, 0.49175158788298196, 1.180680845774753, -0.9430982280368767, 0.3380074764699554, 0.5748680627753261, -0.8041619895025729, 1.227041996221072, 0.01239368111100261], [0.3744278803220592, -2.820128382542597, 1.0898856776567238, -0.9230531197141687, -0.8988500728866547, -0.37186804924167655, -1.1285386519044833, -0.6940706824949323, 0.7838344003726616, 0.21957213141073562, -0.7262405080381014, 0.22649971528891052, 1.031928763924874, 0.6561910440835341, 0.12984765674158152, -0.6471340011157247, 0.7787080647526486, 0.8493560329540527, 1.0707066714357214, -0.403305016189031, -2.9301101463670887, 0.04409250674496514, 0.08156548395610767, -0.06265814875867995, -1.131269946926519, -0.5170895813632148, -0.1391990887955473, -0.22340970878566624, -0.1507383755186424, 0.17361167243977965, 0.44036488157692205, -0.9594418425061513, 1.0425941175955329, -0.36169009276562464, 0.7826368452145227, -1.728128844836066, -0.5095316823566766, 0.1537335686083131, 1.4070217636316242, 0.11925373264089639, 0.1942948693768889, -0.6060949913059214, -0.7741033388724197, -0.4024648525808003, -0.10131178813256114, -0.5327587941718976, 0.16546162477675927, -0.03887345570943782, -0.1333209961918304, -1.1302098300007735, 0.821477348569958, -1.7109292836916983, -0.6164658139011846, -0.7084650706927814, -0.2926182567784078, 0.10299302706207306, -0.5835314114305029, -0.8947345549171728, 0.350560739381299, -2.429519481740722], [0.3247575164912703, -0.3370997314176218, 0.7827845010207065, -1.2226480473613235, 0.12781651650170742, 0.41972175095387193, 0.29894774533472646, 1.841002752895551, -0.1169394792674244, 0.32580645314507783, -1.7709319201004454, 0.7766977020886875, -0.03917749215708441, 0.5512627136315289, 0.5776203837705325, -0.46153443516248027, -0.5421459255555648, -0.4458876401345437, 1.6933843827197455, 1.3220975071695245, 0.3559572775590929, -2.073757465978212, -0.21479049578038392, -0.6557332722754987, 0.6515352078553786, 0.2040665424774602, 0.6108189326590556, 0.6387123182969445, 0.10403415059330026, 1.6042937656479157, 0.6435873151010094, -0.1852876181847737, 0.9835337404975079, -1.2967597898966852, -1.1397358836483018, -0.08808693229247064, 1.9901251059568377, 1.1498284376625836, -0.38253465035882117, 0.7677107278413837, -0.5965796086067565, -0.24940244571581346, -0.983541851491827, 1.1768924659757962, -0.6818617952448478, -1.3996594155662405, -1.0594507449999906, 0.448650223091989, -1.8085654134421725, 1.2236428084385516, 0.21744012307909752, 0.45054334936153373, -1.3961228728616626, 0.6271664915569947, 0.5704787656211694, -0.33614721855481833, -0.21975683323018252, 0.5045207561759636, 1.181501475772283, -0.33319575341713675], [0.34219327136032057, 0.6399532778229623, 0.8705845946069776, 0.6196602078303028, 0.6481720626446692, -0.7018147996099363, -0.6549149164272602, 0.9907293778608768, 0.08880389696188737, 0.42056449663480966, -0.2331030570295049, -0.0033409852287908156, 0.10780861927554752, -1.231718101753884, 0.4612015559073279, -0.242902024562601, 0.2216493013901337, 0.11695133030290487, -0.29907053951047424, 1.0562067655136074, -0.44013905546236304, 1.413993159609344, -0.03994018251189218, 0.5394111809512334, 0.19890711068241373, -1.046161306352223, 1.046922744294312, -0.4301449643543856, -1.784843519976607, 0.5901296688022177, -0.1860442962524628, 1.0235239750373348, -2.226150915137892, -0.2065556824237707, 0.27018627783555677, 2.109935175331144, 0.27427000617626984, 0.9763648401167725, -0.5141728615916832, -1.0145150820349114, 0.10530824292345967, 0.48084294042807696, -0.33088702048881313, 1.3201903822305667, 0.9165687697197794, 0.24263508220485425, -0.362560896515688, 1.29240773115151, 2.4873265806438787, -1.864672560482662, -0.07927058064420789, -1.9196222438296606, -0.037946897606360656, -1.718230235812399, 2.0978341783816754, -1.215174158280407, 0.5365061282638822, 1.462553637507728, 2.7835803458021235, 0.026074336208716808], [-1.3369498148970143, -1.3709762823126037, 0.3148016318151019, -2.0264313090037196, 1.1589070246405304, 0.4263495856792777, -0.7716612126778863, -1.3389642336703618, -0.9306588211850095, -0.0413665035786464, 1.749615783830933, -0.08327263280649155, -0.06189692755806512, 0.4882019884771882, 0.3689095948424092, -1.2654028800622423, -0.09531765448799437, 1.751348402447758, 0.9423791581702249, -1.9649403119525028, 1.2199170711983336, -0.4114428183051414, 0.5751713659165423, 0.6756035384631592, -1.2437646181128623, 1.404971457963626, -1.6091051860584822, -0.32388253250725463, -0.22263281744009322, -2.2001018456414303, -0.1099350921669057, -0.4481131308623948, -0.3445521591256462, -0.22938403476964397, -2.1645201922735793, 0.8211776222493252, -0.41996578139108637, -0.5329495976966965, 1.517280139330017, -1.6500711295665556, -0.4132792682313791, 0.513820177306922, -1.3948816414899785, 1.8263369193537935, -0.4736487841966907, -0.7237659787650401, -1.5845172303828645, 0.5047326006784592, -0.14071063837398792, 0.8292667688304538, -0.3830079353887784, 1.8329138696382614, -0.03975384336934639, -1.4551728860599513, 1.21963717077737, 1.5152029743792075, -1.4287298164767748, -1.5768432972731152, 0.24887658307580562, -0.2199564322137465], [-0.4025613942413323, 0.05023322934649917, -1.6401803445973842, 0.6090090602449324, -0.9937936209275852, -1.2610292088439163, 0.9581149379555454, -0.9369794567837278, -0.9755623457078194, 1.0055246323754916, 0.1227164738851104, 1.3530220231660512, -0.2041052081789194, -0.13345711128187138, -0.19742270712008986, 1.73639510215706, -0.4201306688470644, 0.2413034469876261, -1.3462531520330792, -0.7675559503533287, 0.14165805757943245, 0.21409908183882914, 1.1210100429295788, 0.4476721519805452, 1.1641140921964714, 0.8278049498070144, 0.4524548831051077, 1.410295947735313, -0.7115705055991102, -0.3227277783500075, -0.5287272164791464, -0.8751618601655324, 0.14083098417310042, 1.1055286018369614, -0.7466457428343469, 0.6532299689098958, 0.6063082838692211, -1.0528922270076535, 1.612295731772656, -0.07014836939231624, -1.7369970282670406, -0.18808835285313705, -0.45211576744940546, 0.4583914586906607, 0.1290656112349646, 0.610696248881821, -0.2946268560272803, 0.36129927926451205, 0.2686251947623002, 1.2511668171408554, 0.43505925946909074, -1.4482360172193829, 1.7007135126554098, -0.9328013946336436, 0.046007736932255086, -0.9828539754875162, 0.5298293358817383, 0.1704588950783191, -0.04845343715081383, 0.6354908675502049], [0.6716264437219149, 0.5846075150070557, -0.06446440267328128, 1.023214956714879, 2.4707237570727933, -0.9300205751709864, -0.20388795691420097, 0.6738664813145377, 0.35080885741089013, -0.6928904664759127, 0.9971259133582454, -0.30560771200863424, -2.226643912152185, 0.28821864928405094, 0.2219788121611499, -0.7364224154262179, -0.9483723390846304, -0.5064858631498759, -0.9290542546408914, 0.21649950021296732, 1.3534584830024585, -0.3615890604589563, 0.14008353478909955, -0.09166506031306214, 1.0361888156248595, -1.1620048964591287, -1.06204663203013, -0.8520778898032143, 0.4896774669567611, 0.3654907251767562, 2.251380040907727, -0.22883875189501443, 0.15436248807009048, 1.445552340792698, 0.8972737849522573, 0.5625740203518101, 0.1710057992066678, -0.5781957604371247, -0.35941366081387366, 0.2631952862174955, -1.6998027053939457, -0.19042628128394537, -0.14272371575164, -0.11078268610127823, 1.027246040722292, -0.2557429522940534, 1.6366097310511685, -0.5340190503743382, -0.9381275849416132, 0.23125260410036003, 0.8429553906468182, -0.6604249348704924, -0.7119551398472925, -0.9952238886253062, 1.7995668566789478, 0.760413018041652, -0.14998052909869708, -2.222537755479999, -0.30118594106511193, 1.0678611721111473], [0.8267714952634406, -1.1493813174506542, -0.7133250728806055, 1.079866884790901, 1.0735605356150866, -0.5161186785697636, 0.014830900693302852, 1.7381924255664734, 0.45909977627980186, 2.2376482464618808, -1.019038193335739, 0.6475220924889269, 0.15881707889028115, -0.4097792856089523, -0.9833540035036638, 0.6150236343858789, 0.2754430123583676, -0.24959112555176297, 1.0012907435886766, 0.13350468729916273, -1.5229182447550096, 0.5172313495245168, 2.5209013307627997, -0.16783437828283793, 0.5113382300970976, 1.5052968215261922, 2.5257541048256833, -0.6693546467411284, -0.4055732379808116, -0.6112308710943383, -0.15805223183079808, -0.5956713748362631, -0.06244658127532157, -0.9307721029602241, -1.1184430474493121, -0.16626456600545178, -1.8513866851857612, 0.43306548434835423, -2.0058619153951525, 0.8748081335840527, 1.2898546883286608, 0.876160373905079, -0.3597332671316305, 1.2062113942756907, 1.0965586295381209, 0.2746921561618378, 0.1269410714803542, -2.391585238872761, 0.8436429401001907, 0.585289098561571, 0.7753794774217229, 1.9696507344593477, 0.8863404234715188, 0.9787909376233572, 0.5001380561067371, -1.04769044722393, 0.23360659125817643, -1.0845734875680304, 0.28651634068086046, 0.9056322117437274], [-0.11639683129019122, 0.9186800409931272, 0.7754885076610271, -0.7766515679519042, -0.11482583626323244, 0.3989780442531925, 1.323269196003155, -2.008608697104321, 1.4328839271948117, 0.3912658187228797, -1.0869987109824146, -1.667460817261477, -0.43988781343116545, 0.7327729086950298, -2.6232606447389224, -0.3949439260840728, -0.8783171827827325, 1.973632250463284, 1.1474328957832498, -0.5179509737060367, 0.5570074848601866, 0.24512381045052414, 0.42215172265202444, -0.6973852192157982, -0.06536572409404094, 0.9513824359276299, -1.0830135702458186, 0.4960671935444012, -0.812172551747414, -2.4355883888700065, -0.18724007334036794, -0.48285751901554863, 0.09124600666846966, -0.7535887112738167, 1.6317562124583007, 0.02437895093551011, 0.5523524354042552, -0.5907019396131942, 1.238654479499172, -1.438986601857863, 0.1112409963642223, 0.714941088296495, 0.6281074985391222, -1.3753819833031737, 0.6908822478890271, -0.2808247892970616, -1.1334170038320033, -0.13414084987630068, -0.9347049443307229, -1.727161220257271, -1.1753010654611868, 0.5257218177217781, -0.31893903699807097, 0.18622354728202517, -2.419592864903613, 0.9232871906724249, 0.5773161450214976, 0.3705143234681495, 0.23630252337764815, -0.9012048896267814], [0.42747175111937114, -0.15644938190646923, -0.5052746587896653, 0.7862939684637026, -0.18383354527807685, 0.838695326424723, 2.323044560565244, 0.6314676014034548, 0.014984506281098823, -0.7320656470624717, 0.9516940916818714, -0.11543064008794574, -0.8511197940743408, -0.591371096218084, -1.2313426507208094, 0.06966582892437471, -1.1887918952241447, 1.4681038883762083, 2.1024913211159486, 0.025522945155183236, 0.3786362120709322, 0.5164366123015902, 0.3905140295562594, -1.4080614923618386, -1.137229963098165, -2.226103424830873, -0.6999616091517578, 0.11122849471179577, 0.6147823113526327, -0.6086379913257501, 0.07371234132370677, -1.6274243504139072, -2.05645934517855, 0.19818776850214762, -0.6211626913910812, 1.7095785701571904, -0.7086528553111219, -1.5616834140223308, -0.6324556054266826, 0.45488341428514306, -1.071248251342079, 0.09520873161628783, 0.11316098072158337, -0.7775120528468663, 0.13677577581413466, 0.6268858940419302, -0.9310741604619486, 0.6328413853117131, -0.3374852410002059, 1.3064647002612662, -0.619509686932503, -1.2299678505903011, 1.0443862290616355, 0.24969172932252515, 0.3374472887464881, -0.9258542816505066, -0.964083342027001, 2.523393395665248, -0.5872876551650575, -0.17744047614672165], [-0.19460489228764002, -0.4456557954500357, -0.16803220389065204, 0.9373047120754353, 0.17216184946206053, -0.3574660222685753, -0.7850171212692266, 0.48480299566196183, 0.015837217896070583, -0.8688117113841018, -0.2969280191602103, 0.5919430301196345, -1.115068484810709, 0.9705338219378197, 0.15178830557947764, -1.1661325473270006, -1.6110146494301614, -0.1761294651041325, -1.5309521512905688, -0.5612082750265401, 0.9858886690724292, -0.1564474360736304, -0.7395898570248277, -0.608336675562261, -0.6031952348233763, 2.1225540250714956, 0.2692716814760379, 0.2734316861391797, 0.21810281027608064, -0.03969553271829926, -0.6499591309363187, 0.24759028850297074, -1.5568662169573908, 0.523109425506041, 0.860052034279338, 0.09143912465846517, 0.6139815830533123, 0.35079861719250083, 2.0146550339586553, -1.2237991129188488, -0.18117255901281515, -0.3551359470204293, -0.2613507554271458, 0.6478546013627597, 0.9174889391991154, 1.578264323456722, -0.5748264073213197, -0.9861141595682049, 0.1965527309152494, 0.8384906420373421, 0.36975514002837345, 0.8441305636657134, -1.1387127683511564, -0.2928846360046159, 1.3349228235221424, -1.4717678945695352, 1.1221922179151216, 1.067965346171345, 0.10720534340960827, 1.007653834429014], [-0.7778741462971126, 0.2375639366490738, 0.9619043528859191, 0.8286585433194337, 0.7557370463184925, 1.4494151378634974, 1.5255078727434395, -0.5483170689375602, -0.5295175454924265, -0.5737011204192892, 1.2038015642723299, -0.7519839965909141, -0.059688837105744644, 2.2365553172433614, 0.376132932325101, -0.5566071972930112, 1.0989193033636315, -0.10795689270562443, 0.14124216123602013, 0.6881798552750477, 0.09461173382547874, 0.5229006123791834, -0.055458571808733426, 0.388814204047652, 0.34626603527659494, 1.8432337063049005, -0.20231182626977265, -0.5815853560900915, 0.06087717198078302, 1.0932896460809995, -0.5838185776011131, -0.9415145946928798, 1.7486143836557344, -0.9816181309468336, 0.13885885862715466, 0.34455707386832657, 0.8900596823011238, 1.0342938725812088, -0.5433687781159771, -1.5730869309013942, -1.7455479493905457, -0.38790465315495054, 1.9686415219842655, 1.2470482403077054, -1.9615494033271443, -2.2633079975341603, 0.9831144503194978, 0.5167767963103621, 0.006891967281065926, 0.7226140245528909, 0.49023607577412504, 1.0468319720829673, 0.1775882921522147, 0.42662237175276924, -1.277838509630382, -0.7693127834300931, -0.12001796707653062, 1.540049303578133, -1.2831355295658953, 1.7171889366362412]], [[-2.252302837007869, 0.3099666795405513, -0.3607113043039293, -1.0705368134375601, -0.8876709351589405, -0.09858179599567864, 2.037981529892423, 1.2150879467984732, -0.647532035327074, 0.5250792996264096, -0.6138354943248524, 0.1616961007446211, 0.7080056151835293, -0.05200527806894373, 0.029165807034818032, -0.0789440183313667, 1.6834081388592506, -1.3244405572233233, -0.27397577094490255, -1.079774215915815, -1.2088444146346087, -0.1927613844112386, 0.16977966048839388, -0.23995524249789812, -0.7536993217672754, -0.38508452601194426, 2.076123705078078, 0.5934192972971477, 0.27830397934468015, -1.4759070462608774, 0.7432764658653774, 0.2730358800782343, -0.004773433040482114, -1.5545568370872915, -1.6069280826129209, 1.7149823992002853, 0.5937039593372317, 0.8231929918923312, 1.079749905469027, 0.6696373911329901], [-0.649356158259594, -0.06282024872045458, -0.7624549496950016, -1.9704906007912026, 1.465148219328248, -1.4665750849183614, -0.3817920559952765, -1.5358064323549219, 0.413945551201599, -1.7111239858107423, -0.12065463826482141, 0.7789813515143816, -0.3443665921440585, -0.7808827521324135, 0.9566765395402592, -0.02564335788685844, -0.19189705086649061, -1.1440027726880588, -1.3267670390400756, 0.4238000871982103, -0.647657404446096, -0.33703174867503377, 0.8241742637577755, 0.4825966019398018, 2.055274169146961, -1.353240245043882, 0.45669074531347387, 0.22446046126511537, -0.5825486818202086, -0.842801941666474, -1.0325231815172544, -0.2721787436507904, 0.7105953562000269, 2.2218589057309646, 1.662996771938137, 1.2881323431146632, 1.7206954765931435, -0.6998212005359014, -0.40157297511154966, 0.9328651563110167], [-0.9875832709459997, -0.7086648593761348, -0.8112150527113574, -1.295008597313308, 1.6273611489114341, -1.0902047683700145, -1.8259471483876264, 0.23616866102476955, -1.526806682071648, -0.04149546469580451, -0.9604926397292928, 0.4360437542257625, -0.5377785561424256, 0.10666106209362851, 0.16799393243364466, 0.02304003842084569, -0.1675515575019856, -1.1804187983818875, -0.7382208746018359, -0.09211537517435714, -0.6002106684513588, -0.4957747970010736, -1.063511017763851, -1.177320081363706, -0.14332348802505687, 0.08516173933321143, 0.38493716975626496, 0.8304252260753721, -0.06481661045845241, -1.3284621994560861, -0.8640033341118327, -1.5508099222721645, 0.06788514608930658, 1.6449109079039725, 0.574473089635759, -0.5061600586194146, 0.03927856762434554, -0.3695332541007714, 0.17392260743341573, -0.9150988804097538], [0.5955557973656781, 0.22290616370879612, 0.048990345010035255, 1.2270562304648256, 0.5646574136198272, 0.04415356536611029, 0.6591645277924915, 1.3825678315829204, -0.19219036076722104, 0.234430497802051, 0.2910591259459749, -0.37068058752044225, 0.6987113105084926, 0.16779992152545306, -0.42415379806546, 1.0838091611852516, 1.2147953145561567, -0.004067077024473043, -1.5758523376257527, -0.12455154789913446, -0.36517161342628435, -0.23239681794560274, 1.602386037277717, -1.4297502110347562, 1.0089652115420706, -0.18321579652928324, 1.2736099096831068, 0.02367679064855118, 0.15575756706907107, 0.1543279165407117, 0.6982316412024847, -1.0349830020153092, -0.7097792081783758, -0.9012675545939729, -0.9079281596648117, 0.9748841429796132, -0.5242328675055443, 1.2573284146512242, -0.26083628174771434, 0.5246659751381876], [-0.6240696600383228, -0.3541292539242853, 1.52986795755744, 0.82726835933854, -0.05029372123337632, -1.0857467769338747, 0.7920038587669179, -0.9539757788840632, -0.28897940256776816, -0.5745824364721681, 0.12095256622817484, -1.2980735030112835, 0.761938316913519, 1.8376040779935916, -0.23370015010145986, 1.003578812961337, -1.1526645566908236, -0.12115298328530465, -0.37266714952845287, 0.30189190194419196, -1.297512060253926, -0.6789442554828349, 1.2468770486943994, 0.4245362900981009, 0.21943703168421672, 1.1443208361726087, 0.6095345045193113, 0.4336036520838259, 0.7670253582352503, -0.6835458984596021, -0.1426256062520952, -0.4597837751581234, -0.9448173019922362, 1.162816000666339, 0.6255137766368344, -1.7450314934872906, -0.5834218671338068, 0.4866017623386198, 0.3024451702106029, 1.1410887463428756], [-0.18288390517921177, 1.1910436889188407, -1.5457921514914723, 0.7902057380848292, -1.8086583324190606, -0.06147459627932055, 0.2719580988423262, 2.4100546336908555, 1.2801511125220297, 0.01795207947126631, -0.214386055664925, -0.7416195930879371, -0.7190431998274757, 0.615979544177504, 1.2532488949368188, -2.5890535362319134, 0.6514020436097182, -0.48583267524168267, 0.587061828469059, -0.11963407935999179, -0.7358279418129743, 0.211709671948554, -1.2961840679134693, -2.1978781194930153, 0.9605248180644315, 0.01915537093636169, -1.7419315395436619, 0.80112700868368, -0.224376335134717, 0.2186601759989348, 2.2484479392136407, 0.8337155955188975, 1.771171175028284, 0.3111762797127687, -0.06805268202792633, 0.028826519506695618, 0.5443981968381836, 0.4965217861662577, 0.1644627894324571, -0.6391401536381573], [-1.109904452486192, 0.3225685143217616, 2.1714208897770413, -1.1412204299666815, 0.19958465186128824, -1.475053654935265, 0.17909794714059257, 0.3306137422042392, -0.6127354701271668, 0.49066150110631135, 0.3605373634027351, 0.9882412646165856, 1.245453268667137, 1.771066420554712, -1.121790667128439, 0.25921236707059625, -2.085459782098938, -0.42042426201675387, 1.288194116280775, -2.578007521109963, -0.9205399236431852, 0.28942500821048783, -0.2907880129042159, 0.4477978222580808, 1.3025698614713368, -1.6666782401206806, 1.026898183296817, -0.014134349974087397, -2.158349925002783, -0.4591368262584773, 0.012851191875135969, 0.292971963084919, 1.429826780152808, -0.7401017952452081, -0.8523331135029223, 0.2822344317859231, -0.06482422888539513, -0.23486268704070293, -0.17718016007392587, 1.2229313235842152], [-0.1897835148434285, 0.08755916266222612, 1.293178235211234, 0.25399990054395183, -1.6413247534763833, 1.5790655085699508, -1.099234501355416, -0.8410689648093614, 1.0636567420143714, -1.399619492430636, 0.5686487664775844, 0.8374600089009936, 0.18119589705522296, -1.4255873578046871, 0.7029366670473346, -0.10526206740409533, 1.0451251102908232, 1.6050424570471098, 0.7661578574184598, -0.1513792155551465, -0.24955683698545605, 0.9788743927326736, -0.7122650308372386, -0.15834947453249062, 0.39902498513610024, 0.053679526452239314, 1.7707295278441058, 1.1531066493368916, 1.0954067216534003, -0.4583421899910906, 0.8711049281603881, 0.9408389483673821, 1.646033312156797, 1.4943833668044977, -0.5374238779803356, 0.6712421225480242, -1.3623845194010347, 0.005032043449982879, 1.2494185558117443, -0.10742625044894832], [-0.43216022483843747, 0.06171633027980596, 1.0269196235398967, -2.1947053972028283, -0.09216909869866541, 2.9591889406070715, -0.4388016210319886, -0.33281217870926605, 0.18336713369331584, 0.026438438877423608, -0.02963517282200248, 0.7976502542668151, 0.39258956537677475, 1.2433360686944175, 1.4277396855889697, 0.6064216772040143, -0.2279660787334429, -0.4371300002740222, -1.1636808958635296, 0.5490710766222979, -0.0498078935210235, 0.9952334977126511, -0.2417401349914142, -0.024672210081696896, 0.0030695821567307702, 1.3550756304118337, -0.6011518376379434, 0.541693272833564, 0.38895773701102004, 0.1880791468001805, 1.173558112713624, 0.2152136729051896, 0.742951490017015, -0.35216482389448245, 0.07780351072038147, 0.3035141686379715, 0.9211735626163098, -0.4282046864998064, -1.0038923267338804, -1.037039493643806], [-0.7463485660755589, 0.5969819914481648, -1.7343614473604958, 0.07935445035539723, 0.7963056748327705, 1.1854886889435858, -0.1822700481085326, -0.521133295983537, 0.14823831025792022, -0.03882347308323564, -1.4698194385606598, 1.619405029274711, -0.8802363073358723, -0.054058392936545484, 0.4863468484494232, -0.18183932897734628, 0.8977305276082623, -0.5179144078341107, 0.17248516673299918, 0.7358872167473958, 0.7693886139137801, -0.4642913466341703, 1.7062666632202437, -0.1202137743717722, -0.08802440717863814, 0.4552402328360763, -0.3472548898397259, -0.9599581040066256, 0.23442190556940998, -0.8413674930216768, 1.404007380729724, 0.902030347144583, -0.43363520122747273, 0.09331506326698304, 0.8380666442171844, -1.6957292614024033, 0.6447022499743935, -0.5231830377632686, -0.1482675385933457, -0.2809977037716981], [0.18483390089130147, 0.272081111863457, 0.43374837907381003, -0.7578050902219148, 1.9830783352765609, 0.932397115367977, 0.05817740091545948, 0.818560457507998, 0.37728212190660626, -1.1902691163456975, -1.21051308027642, -0.9248496985609971, 0.8246320518263709, -0.41624894335191603, 0.4408592688122837, -0.014751211087378575, 0.07170424089699683, -0.7684896930179594, -0.0549887719571171, -0.8834260035728647, 0.2262437416423884, -2.8721648186414415, 0.44146173967863883, 0.5456067265854292, -0.3392348257879195, 2.993016459275214, 0.1916584259144286, -1.9331274186581122, -1.504679272839413, -0.21583970681955283, 0.14451841723747874, 1.2095080533720481, 1.5567564459075545, -0.9326848253791014, 0.8268354253329657, 0.022361519676008326, -1.3418135624704584, 0.5709578925235113, -0.36225305128271196, 0.47385387850681143], [-0.4626061235528639, 0.4484089245071188, -1.651763756317565, -0.8261038701713169, 0.3578351920354967, -0.7353343238804435, -0.4060268250003442, -0.7865830748251937, -1.5958932922511, -0.37004709655047746, 0.3538923983810845, -2.1067342718749273, -1.0001053078977853, 1.1700545027698706, -0.7031188614362771, -1.6692340731555213, 1.363250144940033, 0.5373268513858973, -0.5658405224288227, -0.6973605440807348, 1.1462467496465192, -1.0702321768256726, 0.18474750414404295, 0.8705470018554403, 1.5666710917462707, 0.6156345485947509, -1.7615027041723443, -0.23986643857736556, -1.513658533188276, 0.668624688076936, -0.35573416427421056, -2.6292234185016317, -1.2855436757573673, 1.3081923614941646, 0.7645036932955352, -0.7056638142811084, -0.42736262999389235, -0.6177011691931757, -0.5746516227484465, 0.9899667257433702], [-0.866929472755795, 1.7079503039109913, 0.3271323441206811, 1.9316257046672594, -0.7997813005609717, -1.8531543849643142, -2.4398837258827584, -0.7795634035461602, 0.0065700844431471495, -1.2363928678246894, 0.4687751910802191, -0.7010111079817692, 0.005137450518484926, -0.07222369514584324, -1.6521923010131343, 0.32938263976279114, 0.7189391321353068, -0.6367319144766413, 0.37081242423764843, 0.8578305062000581, -0.6419812720797818, -0.48597626110581804, -0.29711937555934165, 0.6473980694470615, -0.009003549882572855, 0.7470294465971773, -0.34719558493824954, 0.4025633492955805, -1.0481106195152314, 1.4003850217482254, -0.6389553197505584, -0.44010291854063743, 0.9892064400611751, -1.6626463050510303, -0.0967385265918492, 1.077397317413598, 1.3612154032612798, -1.2382029755809778, -1.146573148920728, 0.027602841351946746], [0.7070462413116402, -0.2500827598408289, -0.28600057836745496, -0.05356309335876014, 0.7518519417069159, -0.8070950118129084, -0.10031256453911183, 0.1363445210164753, -1.629014725095967, -0.7544247179147824, -0.8570824276604548, -2.3808750692781824, 1.6984782110024852, -2.698186322755773, -0.9773838779930109, -0.5535915267962104, 2.0080163073042185, 1.400538892924875, -1.1854675730104476, -0.1893505521700021, -1.606948421689089, 1.247245941489649, -0.30573814347710965, 0.15303672195735601, 0.2661703984308503, 0.6012140143337491, 0.5776899583285816, -1.7437862986508992, 0.40544578701965767, 0.3288856708457936, 0.2873925693440462, -1.3072125367845553, -0.5144350945578282, -0.5246446131104389, -1.1540234815432402, 0.8832100157146012, -0.38380942788073863, 0.7421753840295284, -1.0244471857161745, -1.6855984038587402], [0.5791899396277036, 0.4010163455462886, 0.16017620639470592, -1.1465771228784012, -0.04750209954005403, 1.645888436017267, -0.07471169094616958, 0.07080137203224122, -0.7917752098831738, -0.21865402414677473, -0.1810719542792314, -0.6593527105935375, 0.8371787776717947, -0.4862950828293106, -0.40522410573331014, -1.37083437869142, 0.28116875855450735, 0.4848238347471992, -0.8729002205108476, 1.0270684648596349, -1.370923549808947, 0.980277995266701, 1.8839431478559046, 1.0354222944483509, -0.4024691667810625, 0.27758521933869884, -0.6265530439582535, 0.48162497368458007, 1.0591819011174042, 0.3615069909171204, -0.7713154695803013, 1.3540935925316973, -0.428389285977631, -0.28191741141379734, 1.4023531770386912, -1.2511923491429158, 1.253951137524153, 0.5840286885839059, 0.6664562061576117, 0.4279290540295254], [-1.722380828673422, -1.3193212444930886, 0.6403855842083388, -0.29657551760903567, 1.7929482817232887, 0.41572373095643367, -0.48075907379562144, -0.38097705664230386, -0.6648601080685471, 0.9379233691549909, 0.35013080738461333, 0.34706266558020227, 0.3467746992598955, 1.6245485979735579, 0.3756185317401306, 1.4977180809840402, -0.8499163542648933, -0.5771807959044162, 0.5895562920483047, -0.005820722060456051, -0.8090007021640927, 0.21668599319571774, -0.3502882011227856, -0.08432536822124095, -0.470852786408068, 0.010920763163255012, 0.3268789157600956, -0.33414095613823486, -0.16686535383870743, -0.3544172844230103, 0.2259366932883751, -1.397856053826262, -0.03714652917603852, 0.715834340604608, -1.3707009086856488, -0.5511555410003697, -0.32728070313092805, -0.8394851129468736, -0.6115114902680295, 0.760264389866464], [1.1637841568918694, 0.5601458186466027, 0.6907043338999773, 2.2309772605798766, 0.33919858512532525, -0.29778678275063014, 0.39643076628369445, -0.503677011147665, -1.545029251266304, -2.5841722275476537, -2.242632514948393, 1.3734889638845118, 1.7267155179125524, 1.0998674539556845, 1.0980291229926575, -0.17637011147950238, -0.016723272056542962, -0.26674522407324913, 1.3740383984713502, 0.3615129686207908, 0.074208918238737, -0.0025600566594928343, 1.122721742140442, 0.48136645156068936, 1.4936617712180507, 0.4571891997303067, -0.12122932793407873, -2.421094048614654, -0.2633610964700695, -0.6392075631195419, 0.02923598073738779, -0.5630028620875792, 0.9312753580956732, 1.2129649507159497, -0.8525837576825124, 0.6074129890105483, 0.9518289398079663, -0.041479893170140406, -1.3216525862724167, -0.8529853301306629], [0.4078940841643326, -0.7356661559418202, -0.910118054753011, 1.081722548001059, 0.1772777653808631, 1.6873005875348193, -2.13382125729495, -0.2042511296341592, -0.16431155805110195, 0.06853074168841375, 0.5170547084327836, 0.7520832382862402, -2.190127086211106, 0.11989602519320444, 0.888548715393152, -0.9322713671620715, -1.5034351782184063, 0.09365208388872409, -0.2913681562902823, 1.8416547276390913, -1.5211999424149845, 1.211877873755904, -2.2364029942740307, 1.0806327331647325, -1.4124920126904423, 0.17505318270198647, 0.1935950138998687, 0.8098763841661551, -1.1152974117394567, 1.0151349250733366, -0.18478143806050049, 0.9662292900164281, 0.7198664229901062, 0.18850069264986058, -1.3121731274817525, 0.45263071667640276, 0.4961382593404451, 1.466976567568239, 0.5022749213153767, -0.603581905783853], [1.1355458336868927, 0.3486468199072958, -0.20137046910216996, -0.8784987484506366, 0.4241449686408992, -2.021216278236578, -0.33887281741249414, -0.6620949499355053, 1.5811922497120847, -1.0387795319752267, -0.027832012699007678, -0.6546712505869837, -0.08681351005117431, -0.6621879115590553, -0.0376788532517716, 1.1302661009315507, -1.492095489036681, 0.26358978247210446, -1.1895833758547172, -0.20626542903708364, 1.0099255183557176, -0.9291125659385039, 0.7676130138870151, -0.7259195654412574, -0.6656979377948989, 2.4265602440465766, 1.4576056487671, 0.8008801457967532, -0.09945431394043674, 0.8608752838084078, 0.457587854849357, 1.1450193533915853, -0.7058493878952267, 2.2870429677154656, 1.0909897793535568, 1.0273527933993936, 1.628438248637601, 1.0446571245112373, 1.9098334843858584, 0.6537257742881833], [-1.590170319509823, -0.41301250294289094, -1.432801848086598, -2.24326703376714, -0.18904235270988518, -1.245247455551357, -1.1793215208596322, -0.26805874198084106, -2.0139858758306506, -0.6855893663330574, 0.6466681420307597, 1.120864477670562, -0.5567055968508524, 0.3868672023564614, 0.6593703277472807, -2.0998370876141452, 0.3912790553375477, -0.5790836133699216, -1.2293560396011347, 1.7110735967888118, 1.1572418280860448, -0.7184456925532291, 1.4294836862833327, 0.3030849447290993, 0.4352979722453188, -0.10384222408816199, 1.2587586860860365, 1.1021943949086552, -0.05756684544415205, 0.4874183594079121, 0.6887860407339481, 1.6269095273066192, 0.6902495715965898, -0.7438470304585713, -0.13920737353947293, 0.9511068841567759, -1.0944351384592506, -0.33980132697405224, 0.3137427240403312, -0.2820984581020322]], [[0.7400731092410093, 1.8129623413097697, -0.13730893450988851, -0.5833797430735063, 0.11850907744240316, 1.9731429480087175, -0.34471016437097846, -1.4878770867615656, 1.7294624363120663, 0.02509754765253401, -0.34763787779932154, -1.815581188741539, -1.6480975236886843, -0.6361747218917677, -0.9807201010657901, 0.6230713233601386, -1.1306190309044841, -0.6291188813682999, 0.7364901914137446, 1.3800138862135474]]], "ep": 0}