{"num_layers": 4, "sizes": [60, 40, 20, 1], "biases": [[[0.569364103946519], [1.4528924522394018], [0.21507250329840294], [0.8263303957219258], [0.8180188118141979], [-1.9902634565206072], [-1.0843632522977618], [-0.45463727106064195], [-0.9491486987826627], [-0.25192110572094367], [0.3395739341640227], [0.5811188777510307], [-1.29720582571655], [0.3042909279921263], [-0.25595885483604613], [-2.610262072352269], [-0.8362720649197726], [0.014201510885057807], [-0.837320021083033], [-0.7961664501091446], [-1.8351620346326913], [-1.0086881082059116], [-0.2784936147088656], [1.7845160478775584], [-0.30508074378441724], [1.5982664880865938], [-1.9532247176420574], [0.44197799655517234], [0.06778958466292323], [-1.8463182186382967], [0.659123460769358], [-0.9642187105630157], [1.0321200843744183], [0.7542559442043196], [0.2787475586171881], [-0.6350404004112342], [1.0233972558050164], [1.4109934572582719], [-1.0675962321253032], [0.6183139569314687]], [[-1.6164905757945387], [-1.1255753928928565], [1.150391955967055], [1.9251904121406023], [-1.316730137704329], [0.1366895752987532], [-0.46270804825496675], [1.084673459885687], [0.06598653329515655], [-1.808938020520372], [0.9604092271050939], [-0.07499499763544637], [0.10005973948041764], [-1.1962206715846275], [-1.2494360258958266], [-0.17020161301080788], [0.5289119257235498], [-0.7548545748613217], [0.24420829169174327], [0.16986390827676565]], [[0.3882394546464987]]], "weights": [[[-1.1415007279420173, 1.241001855927654, -1.0658179932598455, -1.8597765262273953, 1.9035672981291665, 0.7783312146015139, -0.806907366302606, -0.12881312072646464, -0.6052086034799853, 0.30287845403086155, 0.2897072238661506, -0.8804653435626304, 2.134633536827452, -0.36367867594516595, -0.37184570666017974, 0.815104227928719, -0.4832808313244129, -1.9045155369208597, 0.2401910784665762, 2.116710626010162, -0.3453734933553152, 0.39030532168239074, 0.2924346846301449, 1.3748014743571288, -0.9143620541376248, 0.19754015206393485, -0.9241726759139566, -0.13640370350032177, -0.4760038806147683, -0.15403484431908004, 0.5467795431448071, -0.3295382041607857, 2.652603560707863, 0.8736297448281924, -1.0894678690285708, 0.6383531865847285, 0.7272087005622448, -1.5355359452362578, -1.0943966549554434, 0.4931629834223037, -0.5945160937980514, 0.5235108099661195, -1.0620739030578181, -1.0917950338872677, -0.16154321822204873, 1.7366164425720918, -0.26133068178864954, -0.036057742488673064, -0.6459154182535409, -0.8181285071186043, 0.8936644079254076, -0.04937921584973063, 0.1903740116222888, -0.31069784320506955, -1.4634630133201678, -2.542364686386876, 0.46685930067098985, 0.11950496392407768, 0.43540009564763243, -1.4357772340947599], [0.5883558171444487, -0.3172331354581431, -0.0693841621170844, 1.1976827531029899, -1.0400536640503384, 0.4617354319912474, 0.6696043216733972, -0.5975101080612549, -0.18949252160891084, 0.16310827453656432, 0.7872377094523758, -0.6911969455766565, 0.1744287125630621, -1.7011861027905864, -0.4956871640013887, 0.8428257133447989, -1.2354641623209077, -1.4333438743348772, -0.15207829405708612, -0.2979795384983315, 0.28094982983887334, 0.6476715372812303, -1.2608640933534363, 0.591360778581158, -0.5118977614717011, 0.5925308712369659, -0.8397085071241325, 0.6611881222331911, -1.1642417764367041, 0.7564695562958905, 0.6327476633960504, 0.300446270201166, 1.191616162315003, -1.570749270725563, 0.9188577091834964, 0.7880274063536935, -1.3166993391110122, -0.40652011981211794, -0.16044294782392443, -0.5043989403547148, 0.9019258667187228, -1.3263902641420355, -1.0189714754521695, -0.27887189031387133, -0.5142027701839577, -1.1036388453042394, -0.7127477588357966, -1.1350583778937366, -0.10132748262207876, 0.8032724545099144, 0.8089150866866094, -0.9092357943280759, 0.014911148213011205, -0.049133692560321116, 0.02199318827686483, 0.7053075976629954, -0.19935527593503607, -0.7990490354522329, -0.2570243049316422, 0.38291833269919323], [0.0341195162478059, -0.7379005630851627, -0.14307612904980008, 0.7405713581429759, -0.5216329965921811, -1.2070695509484357, -1.416848182366338, 0.1417934720551981, 0.43113917215681424, -0.15794335771141554, 0.4280631354088897, -0.8237137536715626, -1.3553377985565638, -0.48758063361643145, -0.179735481022907, -0.052533799849390134, 1.15914460045732, -0.05836021612890831, 1.2572440375373346, 0.00980775678835365, 0.5227058628872249, 0.8524140879489582, -1.875472780484315, 0.39189716758762916, -1.1565532490592518, -0.825352532635637, -0.6969721122204543, -0.11474333111445949, 0.1268421051772143, -1.125719245395882, -0.23489148427582823, -0.4738649963196655, -0.39491781752766586, 0.3264158327770103, -1.1335024095305186, 0.2565363886922354, -0.6664609515818877, -0.5771514080594998, 0.3742919784187921, 1.934635372470566, -1.6095519372709908, 0.0784072731303262, -0.7706087085183209, 0.6143757949869415, -2.176963792651937, -0.45096555051209286, 1.0335231141619297, 0.016429695629950673, 0.986009562748474, 0.06159050637321403, 0.8684306108100932, 0.8385397350031328, -1.0472330157942127, 0.4188949297058881, 0.274020709108656, 0.7357700848772482, -0.7968372919756512, -1.324371223550986, 0.3963129735720979, -1.0498579737716685], [0.0822269331741074, -0.7341034322764454, -0.37280330976069453, -0.12190383473770484, -0.25944088929910974, -1.250383838242235, 0.3060222630503206, -1.6312393177354805, 0.07106786616622013, -0.027758421041880504, 0.04890139078995838, 1.0950221077518765, -0.8989218563393019, -0.516014408303251, -1.719449533056858, -0.9556912823213894, 0.2671259225073117, -0.05928839199057397, -1.0331418962955992, 1.1148096382057564, -1.677903815677226, -1.3502328746133958, 0.4977618177998541, -0.6796246653967666, -0.13316261551553213, 0.6090778559723173, -0.18018673518707454, 1.4619555149782661, -0.3956059899881367, -0.4010004702163229, 0.5070940009436364, 2.3815054859700013, -0.07934448954303651, -2.105782757780105, -0.857139278207191, -1.565066186948509, 0.4853590052814165, 1.2585470128733225, 0.3069701378626, -1.003423268951884, 0.5557363599771993, 1.9687389922680985, -0.4827478625887907, 0.663026071651829, -0.6793215599174992, 0.5115685302785559, -0.00937226989203461, -0.25550148837375813, 0.23637784595258127, 0.3657717952806853, -1.2605503275494485, -0.4130119140740452, -0.3556691914114052, -0.04128461988570693, -0.1962516174034621, -0.5173604266134434, -1.1943253144997439, -0.25164759451689733, 0.8025567561431792, -0.6664302916250502], [0.17127524271489986, 0.8951799307076671, 0.6648864479019655, -1.3150698020942215, -0.9183519919605847, 1.6994904555879056, 0.857125932157281, 1.3534526785566097, -0.44266332630227795, -0.8753665683189955, 1.2019030190463171, -1.1956956603349695, -0.3749338649753259, -1.624823203227056, 1.0503620359189643, -0.586836360593156, -1.1311278491499055, 0.25230094988241025, -0.5627140432101326, 0.29850962371712497, 0.036702163174836426, 2.1947176242898347, -0.4143637980036158, -0.38896374089414365, 0.40675812296662356, 0.5423157900208275, -0.22614935851469334, 0.8794774158869891, 0.94113236862035, 0.717992218941557, -1.7159960927239533, 0.4271381347917423, -1.0299042458672236, -1.7034040184688883, -0.3922051016471102, 0.5605823099822922, -0.22312600442445749, -0.3999877178160984, -0.018369252707782426, 2.040934204549212, -0.2008485190522454, 0.9705014672852024, -1.3338746380596567, 1.0285150713848397, -1.6295174532356218, 0.37751577458213353, -1.2271337339205701, -0.007391940739191257, 0.12793725979457918, 0.15057383200367763, -0.21213147773925203, 0.09567012763084601, -2.0180024620341968, -0.04369380697228066, -0.07054977930559907, 0.5130460206892417, -0.3013901563103176, 0.28216861219933187, 0.14297418174213658, -0.6452085046775609], [0.3909031584999124, -1.8811942227938467, -0.16762630177804583, -0.585467203682709, -0.14700486049818826, -1.112312587678534, -1.0558839235215505, 1.3632565635556457, -1.427298917176696, 0.24969834978300937, 1.0539512812856149, -0.7021743420786432, -0.5507279416276778, -1.998240893992849, 1.1623446151901995, -0.9918370960765006, 0.07931996446634851, -1.3561555889110248, -0.6062525466832289, -0.7429508237701661, 1.3635004562833242, -1.434408681294296, 0.21819236195579395, -0.23488861111166445, 0.561842965713622, 0.7966199736374517, 0.10618114980863023, -2.0557665914004737, 0.5042266969567154, 0.2752902179469441, -0.39225116082796063, 0.1358277316881542, -0.4629239801549886, -0.06512064197503355, -1.0252842444237136, 0.05136208161186902, -0.6822718636339756, 1.2612162277684182, -0.1401086658403567, -0.6575957380655993, 1.4585427138229692, -0.3188728357342941, -0.33866609368609724, 0.6986045121978194, -0.10359770827989873, -1.0218440235785267, 0.17552620718951212, 0.9012816467738147, 0.6636159673923628, -0.5701816443771403, 1.830967351403135, -0.439377079915679, -0.22182756677518442, -0.01041883323828617, -1.1644091635563365, -0.19744091957831233, 0.36985540445540777, 1.8255711181064838, -0.06123664922048753, -0.6866046364312914], [-0.06411640963887595, -0.5001738715706789, -0.9038566460534383, -0.6233229258995384, -1.9494867468908197, 1.9295535109090907, 0.9565323003103768, -0.006429581282766973, 0.5844025638545971, 1.557116949978506, -0.6380451112884689, -0.8749968930128895, -0.2391537930917278, 1.4799450203206894, 0.6725893321991362, -0.6155516731657684, 1.123496513145749, 0.08742531982783645, -0.6584152312688453, -0.46262315510554025, -0.7968427644457653, -1.5297813586647715, 0.8770850092625306, -1.886214718467245, -2.0114401359227814, -1.6373580844075701, 0.09418484910175606, -0.987941534042835, 0.5960980380501321, 1.2005664341486249, 0.08977908795090543, -0.06274951459680858, 0.5397169612414674, 1.266003986992579, 0.6847044916700906, 1.0299432795538117, 1.1358236942514275, -1.3619443183396724, 1.1525303201580588, -1.1483089514864326, 0.3216132674186497, 1.013809707879943, 0.9983928781853887, 0.9575918945315488, 0.5966532796867767, -0.09202033488945448, 0.8497245883007385, 0.45419976433799575, -0.8383349282697099, 0.5822481689835943, -0.012129749017884826, -0.7271640694390703, 1.0759636052837023, 1.8082205040557484, 1.3245060923006018, -0.4961726262784194, -2.197663331735769, -0.37982525002480644, 0.9508685733344446, 0.4956300086686193], [1.3045532460088676, 2.4625708750558415, -0.25008419749730043, 2.04598946802802, 0.8327632599371493, 1.080614850464626, 1.2266910692203397, 0.5271442953356996, -0.09853924987089883, -0.22693752621972318, -1.058571698158432, 0.6904152575303995, 1.3197088392031608, -0.8265829023272568, 1.004899824974599, 0.653041494350785, 0.45124601241686013, -2.793557936064007, 0.6571491631974781, 1.0254015653910578, -1.2210346733343123, -0.5675995770272286, -1.5252155833496577, -1.3213501941226833, 0.1348893310349324, -1.6503028030661488, -2.5247384078943895, -0.836031296806262, 1.1409178471045152, -0.4321564669277715, 1.2191677003916594, -0.618649466375546, 0.233593091328804, -0.025642529290426784, -1.8984138749236013, -0.34063847080437915, -0.5456121514543688, 0.07837974562485699, 0.4386576273357942, -0.031938838903527715, -0.3622621642103659, -0.9446258349771108, 0.19002041665645017, -1.8970982731104935, 0.4312992256322464, -1.546689507187328, -0.7928464024528233, -1.5327631461892715, -2.0230806072861283, 0.7732637352210503, -0.9824279911551507, -0.8233272041650134, -0.09321091923008504, 0.6468064432412974, 0.5145793535359107, 1.3144014794666925, -0.6107881852275217, -0.10305321271873252, -0.8573887938058868, -0.5101577723075715], [0.3993165325793551, 2.5482986988981784, 0.19932745756056564, 0.6822276285680023, -1.7059292185520705, -0.6924167365116777, -1.1829454978613156, 0.5306729337622728, -0.15068826089887233, -1.5380083015970927, -0.15421739624008157, -0.4948216513715982, 0.8862817539830481, 1.5885640186682168, -0.8411922590450257, -0.12435746592084648, 1.005445098086763, -0.4280495520394082, -1.1486968419073846, -1.0454404231928072, -0.08494274149063821, 0.016416575338259798, 0.9500456899587353, -1.234975160707491, 0.053980981796861796, -1.291712296511244, 1.084611531975319, 0.09448415595911934, -0.8497835439710073, 0.828412438103971, 0.002476935775039859, -0.1845760160427311, 0.6226082253478631, 0.22259638103938936, 0.25969917848027463, -0.5088908305962558, 1.1527205570473766, -0.4317475955400945, -0.627023499625646, -0.6410159093266358, 0.3667810114623445, -0.41343691126209625, 1.4275817889003417, 0.8391489930787782, -0.8445564493832413, 1.065092194448058, 0.027739221023419608, 0.19340469332019983, -0.3053325278622664, 0.06542816155472055, -0.6607619449121587, -2.4147304247032277, 0.9616209415525673, -1.2018787330384257, -0.30218524037123096, -1.7178623464443668, 0.8210902858966055, -0.2779591281530902, -1.1964426174854095, -1.7021572684321036], [1.4660232163682185, -1.2477677389942758, -0.4113761003588654, -0.22783723050448165, -1.4847652048416968, -0.30571924974212095, 1.3897272004504537, 0.5609112660647598, 1.1595781159173442, -0.4388265492760588, -0.47808348555966135, -0.2534507286114582, 0.09407211090965391, -1.4640626489306903, -0.13099906616973309, 0.8117676067989109, 1.2220177070916907, -0.1205580017014449, -0.011821647848976522, 1.2037453259899915, 1.3710586978947277, -0.019652781995895256, 2.0365277379833264, -0.4023583362337334, 0.9348356816867524, 0.6569813786391299, 0.32471302648043215, -0.23790864411177864, 0.2634456044622967, 0.5211383285458594, -0.8226000313743113, -0.38919018951831036, 0.6010017336377841, -0.1217655969510011, 1.6353059073441687, 2.0226312942541402, 1.8342022246833367, 0.047385870302568765, 0.15422409263434578, 0.3261930301937814, -1.469969888593316, 0.8492735632550821, -0.5146716505740287, -1.332415688330026, -0.10240830098974635, -0.44127384881277626, 0.8119568499858667, -0.37325229014785877, 1.685867488366676, -1.6874199071415956, -2.1790691580532746, 0.8716674455317343, 1.2138345089227853, -0.9556566518425285, -0.2860127335717278, -1.8623350319887342, -0.724498363432225, -1.5102291376667378, 1.1016657510309058, -1.1814918693273848], [1.6208328858378696, 0.3748460699198496, 1.0972544113023381, -0.41360344937411375, -0.06796526372765486, 0.3459958995630124, -0.343105813898839, 0.12489298650028205, 0.35533019996588494, -0.7044061852227618, 0.017075639389841194, 1.4342161562779434, -0.4586285700231041, -0.3267725716648972, -1.0102919857327493, 0.9734945953702318, 0.7715434197925916, -0.8354353447011952, 1.913164458529245, 0.3485126559600709, 0.7929975830111383, 1.1479992207885246, 0.6881409649716944, 0.31254070044349147, -0.526150623780464, 0.756158501549854, 0.753844178183787, -0.6028421997631916, -0.5017057220342404, -0.5690076169136824, 2.2078164587628835, 1.1256126365315022, 0.22520183739761884, -0.5636604677542174, 2.3916215975896273, 0.6960971247487796, -0.4890778421902227, 0.07411304017891694, -0.47883611403945087, 0.21459766875250233, 1.0108010522782176, -0.23860276306865988, -0.7231258819911222, -0.03984921660867986, 0.7669170215155143, -0.736042489917638, 0.42865507347602616, -1.5603722158283397, -0.07777046191149503, -0.7154076802451875, 1.1245703509689984, -0.3149734984566133, -0.6228206580542861, 1.0914944337927948, -1.098190069818229, -0.019079995738654734, -0.8811406778216793, -0.9268856395813195, 0.9747592940444364, 0.7525180511074806], [0.7940679719636851, -2.655529126851857, 1.1747479914554884, 0.36712762154974105, -0.6788340038800665, 0.31178621984001287, 0.3788940218282169, -0.34229529655995355, 0.3984107822706973, 1.378734645571183, -0.2076643451740278, -0.557665106915079, -1.2558178766258945, 1.0278630194916145, 0.14937878961008094, -1.0796711105574508, -1.5704444960448762, -0.7820974008837841, 0.23123626329997055, -1.4717107849647932, 1.6386258588320957, 0.08102242161985175, -0.8041539588526105, 0.9367680304125716, 0.004537563693624944, -2.313435664293964, -1.2995522961855666, 0.819388418287727, -0.32549420895991554, 0.390965467604434, 0.8179990060053172, 0.24655460055667813, 0.003725979093130542, 1.3742864441349287, -0.8755784979798727, 0.5858438084412595, 0.5710903281873468, -0.4980604561870474, -0.44747022085155, 1.0498315727603902, 0.42393377172908675, 1.8526477602011042, 0.740670432591419, 0.2894761975525988, 0.8997625505259216, -0.6260625542773788, -0.8783449096611649, 0.042335564273550744, 0.5487570862867819, -0.5898658039624252, -1.1347463281465786, -0.8456170645274739, -0.5220131370392581, -0.5152164474005146, -0.04087726574921509, 0.11514309796842347, 1.9763384547854188, 0.07432653258680935, 0.9029518194812904, 1.0713488888908569], [-0.5055408337803651, 0.6605774652011813, 0.39025690769951843, 0.6924843279181165, 0.5726118285358732, -0.8517628225094862, 0.5805658802499823, -1.788718521233369, 0.17384034871455575, 0.6160056902212715, -1.5230425370281646, -0.8786912496951934, -1.1653921958479652, 0.7384508729576669, 0.8225424875561997, 0.8272894877137176, -1.0228702719433778, 0.799914777799288, 0.1956410100651246, -1.407137604439571, -0.08257684083869757, 1.401510349022516, 1.8929586889800118, 0.7535558564967608, 0.5508051814164182, -0.26501995619592517, -0.865673749632624, -1.2286673558915784, 0.6307749688657952, -0.6595170864965496, -1.8297508918861127, -0.8702725159947706, -0.06270954459889261, 0.6354563745678281, 0.25325982717625944, -0.5500354251392657, 0.5412854493904814, -1.4254326181069794, 0.10429570628263693, -0.7655278981788729, -2.990615659393188, 2.277553092186242, 1.1967068865398838, 0.842762719219848, -0.9404207466709885, 1.1269670696891356, 0.6780404825990224, -0.941135002891194, 0.9222460488873395, -0.2823405823332623, -0.21794984604747666, -1.8425320683348658, -1.785211485065546, 0.3029177113489191, -0.4848381320686414, -0.15082516341284832, -1.2646703183945844, -0.1424710065117727, -0.8406495440734908, -0.2603798598866375], [0.5729237908110196, 0.009280965769514033, -0.03949188053241965, 0.4747715902138646, 1.6520794331916875, -1.2105843430654073, -1.0689611491412405, -1.463077318345687, 0.8806402711868884, -0.29623588231116565, 0.5347606248916466, 1.554562081366663, 2.3995312115585614, -0.8103357182267026, -0.9015151014804071, -0.31997364254635874, -0.2691359305943977, -0.41224363036263717, 0.8795286834035934, -2.834993505364325, 0.04342763099664487, -0.40332700584188996, 1.31329038193256, -1.2131424832408488, -0.5918520189963293, 0.22578820109909994, 1.3486384555898419, -0.32699126596020933, -0.24911474570446257, -0.5539863669232912, 1.7685321480734288, 0.5621652307823306, 0.18370717035496606, 0.42980244119474875, -0.5527145916999886, 1.1638289442209677, 1.1811803926807711, -0.1639218467590829, 2.5618590251638995, 0.038678993471660914, 1.2549637835700582, -0.7166720831560542, -0.23144620241259267, 0.691678069841275, -1.7712396478406478, 0.2077906192891196, -0.7698922872829496, -1.004412394550536, -0.9619683844735082, -0.24881179148567473, 0.2522361830212444, 0.2698598064947003, 1.0245023576143302, 0.46449140316102294, 1.671991569970656, 0.5794563792683476, -1.3572726463524667, 0.39076670675260833, 0.34903158173401305, 0.7705924986943169], [0.24615250192878615, 0.28412252771521174, 1.0850415173239574, -0.011989820384162892, -0.1084371117585876, -1.1421080497871812, 1.7661733028585056, 0.005570751172894904, 0.13411996363907422, -0.6659789727578083, -0.07857014844602205, 0.33234633156039656, 1.527738566846868, 0.941662190231305, -0.15769592118220557, -0.9250100947925731, -0.1012280553731696, 0.0035971781191990264, 0.9908545450436214, 0.7914596894803332, -0.02587528391825547, -2.3173794896962825, -0.1821883060905323, 1.6730119806736514, 0.5351859171219338, 0.44113546408534965, 1.1336363960289215, -0.04216558528515218, 2.8081961456230675, -1.5320736838143156, 0.5875662334113096, -0.6188014589683386, 1.3451739878415327, 0.946480842779651, 0.5917246016046251, 1.3072307766602491, 0.10496268044197254, 0.6602201008497431, 0.947267439662523, -0.5983605002549842, -1.2732770194818988, -0.5860934221523896, 0.7551568338514891, 1.6382175880381709, -0.45690371707812477, -1.2609208303481152, -0.17103371424234584, 0.5933556335692958, 0.0057984760177134265, -0.685181992939267, 1.137352760929058, -0.8916423885924892, 1.089086836887162, -1.2043366918972824, 0.2137590331066207, 0.30428218164629717, 0.841881846543349, -0.8976173290582736, -1.0362916114976723, -0.9815709765407301], [0.4546942173154453, 1.5806781984292184, -1.6135878020242342, 0.23111012310107104, -0.8996937825556199, -1.7141009554155904, -0.2788063012987872, -0.5325128139395648, -1.4250725351658613, -0.29297152327947223, 0.0980520124280396, 1.4805107093926415, -0.2957825610534224, -0.4712993835279156, -1.1317598022193562, 1.2689410706747923, 0.9870197008824292, -0.27363012389028624, -1.053096875889434, 1.090556305658339, -0.7159391820911328, 1.0031757471461415, 0.14247155451241444, -0.3885897176460855, -0.9620659056447641, 0.49809089768042736, 0.16404848862015683, -0.6716468564445256, -0.8152656356698791, 1.276282700880385, 1.1170658955375625, 0.6593757417513827, -0.6533596015937638, 0.11404516909367575, -1.5467780220812983, -0.4486542164510789, 0.3481357341551111, -1.388524273232691, 0.8705205257460737, -0.2502110726613658, 0.334115197975111, -1.319880247219005, 0.8995633741289155, 0.3250438222727754, -0.8764661563085967, 0.15001719401371472, -0.059250211546520194, -0.1082258327349049, 0.3391799499608642, 1.0335701145995306, 1.2266173779561738, -1.5884754210294734, 0.5560625530467896, -2.444449304167718, -1.2228232570122703, -0.0754232986877369, -0.3140608367472495, -0.6955544010561819, 0.978367496343186, 0.892012291560621], [0.3816436141693466, -0.12205348518064207, 0.6694554110916481, -1.657454804295356, -0.6636267556364331, -0.691892599320269, -0.2915856240668341, 1.4069662884553802, 1.015801238196336, 1.4260321636274587, -0.3474641643417866, -0.5851938619049989, 0.3541552356699148, -0.2900197043796642, 1.495209637364393, 0.9973755408803622, 1.2737169553058219, 0.37248235124984347, 0.5903219508599606, 1.8929159373458337, 0.4590282993504987, -0.3564857813273577, -1.1095632036696472, 1.2200706890915514, 0.23378839807795126, -0.5168510402130154, -0.12512881794661257, -1.2106880477152338, -0.6521211617043557, -1.8518439065334544, 0.9301942085459179, 0.5244757278530431, 1.1338701542613405, 0.7956947824600926, -0.018139827707832294, -0.7603692032296222, -1.3686472207684313, -0.08121112857300575, 1.20854854326895, 0.1874865897423664, -0.7708046782452377, 0.05085284723194333, 0.7140016273746858, -2.272406146902747, -1.7696146359714635, 0.565860298893996, 0.1291220923397269, 0.4165712017277989, -2.3789300462988345, -0.41821026473612966, -1.0561558069270411, -0.776654765099195, -0.2689956904829031, 0.5990825966506963, 0.7779752539938968, -0.37072894834237086, 1.1836797289103362, 0.6017687904250125, 0.6292930434801971, -1.6669223616724662], [0.24566741663688563, 0.98567352393754, -0.9513505003273819, 1.1650609889272003, 0.8598438456769338, 0.2621117727203615, -1.9444112916068363, -1.2591556568727933, -1.2406133621263737, -0.5030235842185983, -2.7916641566545684, 0.7393464475068927, -0.18453494200181422, 0.5959671774454213, -0.16516583108595137, 1.4662530956792637, 0.7205482139685121, -0.7898125633331357, 0.35516648059418904, 1.3263242774768007, 0.3443605494050502, 0.7560674724854859, 0.49649892984029453, -0.577170634076059, -0.4128360052092293, -0.639468103144998, 0.9462587070438256, -0.31952592352925946, 2.260344936181284, -2.0352807366557317, 1.0448049988692125, 0.7793493029985763, 1.2029442377312372, 0.4349183777057321, 0.06866706643664822, 1.065535326763898, 0.24780290826241855, 0.21970841916523576, 0.9733396402936755, 1.4268766169842624, 0.32071441079344976, -0.49876687480575727, 1.1941128867990551, -1.034030720793369, -1.5928243219838678, 0.1030337753096746, 2.230332494853731, -0.23590205015044272, 1.6511335310800808, -0.36475585929984594, -0.8902262840038325, -1.1672669596659089, -0.34288300784656384, -0.22775682880723255, -0.1312040342736301, -0.7860092653821659, 1.3016302363031824, -0.196846471046096, -2.2968528525210736, -0.9227707340252281], [0.46227908093683084, 1.51381493185731, 0.9860241526235649, 1.5855678420019355, -1.510368495409236, -0.15791702930593338, 1.1854826467139197, -0.3971863969839629, -0.11382634996240962, -0.647477353774362, 0.9969097425373074, -1.2307161174501908, -2.4637678711347495, 0.4623750580905442, 0.31945767860127144, -0.4908904003625078, -1.4645592069398743, -0.20484961339403251, 0.7028666965832711, 0.5609038932001155, -1.4593416490095914, 1.571899101216205, 0.12486377028662389, -0.5352206019117306, -1.498629497234073, -0.2874531110455178, 0.5317071444858438, -1.7294294041269178, -0.9126140011402093, -0.7017567947446861, -0.6118720515386108, 2.4889834579632417, 0.1687866918296206, 1.2153288022848, -1.8842582849012417, -1.7075650939289486, -0.9326935950459904, -2.6458742306997065, -0.07654972012948352, 2.6057808047910176, 0.8002927488647247, 0.06562253137484893, -0.09513547335660075, -0.7844310680519977, -0.6055369609150596, 1.616855009409624, 0.6151347945996881, 2.023018272825887, 1.157117932905403, 2.3586671272229394, -0.11059064729592769, 1.2948433534525996, -1.2600846044394303, -2.0993819918588605, -1.1433330000079462, 1.6543453193785824, -1.2321707663898174, 0.6125276307112024, -1.2533927008232004, 1.1091641445461562], [-0.38077636928823483, -0.8078081910189782, -0.5007797631624338, -1.3834435063702843, -0.2811618688414442, 1.0086782415646158, 0.5998349353444413, -0.2863856725065892, -0.23564209007343478, 0.33893650636288164, -1.4750265321658105, -0.4141979230170049, -0.007754664882480638, -0.2740742785960834, 1.081612678601916, -0.19280437811007659, 0.6027343639359481, 1.2457021759801687, 0.010285273431726017, -0.971382405464789, -0.861573429595424, 0.2050912795637843, 0.26926258519148355, -1.3804015668039633, -0.5916630310394381, 0.3995840012712202, 0.19583871165503708, 0.2919371391431614, 1.3403686033871622, 0.8838388269111944, 0.5801326308049175, -1.5825485621847866, -0.6261174609820908, -0.8011287720864858, 0.3614289069089509, -2.253293974778408, 0.5708193884375408, 0.2327714167083171, -0.7991043150582413, 0.1704639832482312, 0.16052029345115917, -0.47702727494461106, 0.2636852575190825, -0.14895602788016463, 0.11693738233600885, -0.9292309655565062, 0.9457391937197622, -0.9666405882861078, 3.1857920008371274, -0.7607666157411096, 0.917765608591204, -1.329715266846101, 1.5553004723641486, 0.053498305416356896, -1.1216716653598293, 0.18245565205801056, -0.6867340745357894, 0.37504445014134186, -0.7547962933737127, -1.3071648432023155], [0.6907862464277337, 2.294018182544504, 0.4926843431897414, -0.9907428979252898, 0.4350948363683247, 0.4297265428370813, -0.5678191497013315, 1.098035492464485, -0.8595057165782571, -1.857047253545759, 0.8161113064202835, 0.5647529997522929, -0.06310221644440556, -1.934953917880232, -2.5504074810006983, 0.044440178332408195, -1.754435985148095, 0.12577141659078064, 0.425398923729357, 0.7990583893895084, 1.0752431561171572, -0.4018328482667855, -0.9793009184984223, 0.5908108370480895, -0.26010231602396056, 0.4183947749156372, 0.3432308734835172, 0.15020044650855596, -0.25492076678169645, 0.2960335075877527, -0.5196639436765379, -2.5892242647959316, -0.011423516352332611, 0.28695380632871403, -0.4056218232229373, 0.0781486442993702, 0.839198443867374, -0.7578728196785753, 1.1158721367925941, -0.867058777395353, -0.9002166827065622, -0.36571269284243557, -0.18322372411275337, 0.44016337530644717, -2.236897026825755, 0.3704999567920878, 0.0919827757817244, -0.6221673062035193, -0.7461217841114833, -0.07406202470788574, -1.5786267340343145, -0.21700788104648908, 0.4806648440699975, -0.8514167300382655, -0.2963144433671089, 0.21182093617011807, 0.6513843379309239, 2.292716884523051, -0.7776628564691547, -0.11318883253554976], [-1.4629966663528418, -0.3533378262828724, 0.5165427962483939, -0.7235242291678677, -0.48659666404715, -1.2473442918402342, 0.783781371606869, -0.15748538970079107, 1.2528034123195937, 0.5751928929440459, 2.309175154698321, -0.04851166458140082, -0.0317522803299056, 0.368751881102118, 1.145912005595292, -0.8970977655978819, 0.731081821097536, -0.032256594391623435, -1.9886467690843412, 1.2322230067707076, -0.9623937487596316, -0.05144522036061847, -1.7810532109554653, 1.038308437555765, -0.9667445422202059, -0.8276267921878425, 0.8578770237265613, 0.44748442655125076, -0.7643624996810133, -0.5902057104165942, -1.4373547801353095, 0.8351100721346634, 0.06559372035139538, -0.27066767806836495, -0.2816385204813258, -1.6646133919370856, -0.10020423353443772, -0.24664948244818338, -0.8969992011545124, -0.6292439157843654, 1.6864285236629857, 0.5741027806809329, -0.6103909749568718, -1.1106760512486311, 0.5324280518974204, 0.5594185822475505, 1.8959101144839217, -0.520028953643486, 0.9839448330073983, 0.10863189743263527, 0.7194315075004458, 2.15577383054682, 0.38912726073349146, -0.1619960519505729, -1.2415210044075877, -2.066209722008725, 0.32613282718771053, 0.4292262171424461, 0.6248916507486626, 1.8947463356276046], [0.769215259121392, -0.24061874265945973, 1.6076132222520347, -1.0052302879585537, 0.8097135077159424, -0.07391019186106337, 0.4490257608380036, 0.2562208561823238, -1.734057670391412, -0.9092141172699768, -1.644007315928895, -0.007920424035926833, -0.6451499035600975, -0.15571381752475646, -0.356879556031346, 1.2716511801971506, -0.6756435491790669, -1.294385560257252, -0.5484200443782116, 0.4016261905696737, -0.5843025586745537, -0.6437561102322537, 0.28390949151114137, -1.3348948660615076, 0.8006261005805672, -0.17174274494058026, -0.8549269140508894, 0.1298057129750577, 0.15955245420809278, 0.34863211289419443, -0.937899728023888, -0.3375828787124555, 0.2018654782144226, -0.9677511070415771, 0.5010839830109582, -1.694741020699744, 0.2648544835881283, 0.36016831026925034, 0.5819475380428037, -0.24588311380570352, -0.33060467899978296, 0.119511973615261, -1.0282053472023256, -0.7063403388864576, -1.3438207645373628, -0.6762088763137085, 0.7720556719658072, -0.6735753668548892, 0.8116063338207763, 0.48606931920842583, -0.016947268167141104, -0.5871836803612747, 1.4484337426059681, -1.7574121891254093, -0.5461183587415543, -0.507766228844684, -1.4062079228128153, 0.5577780585355373, -0.013463373309103804, 0.19980606368844256], [-0.7420758123358302, -0.3703028090986008, -0.4861114944606338, 0.692198185855228, 0.3194518041607371, 0.31089476077998707, -0.24943255153392768, -1.5558069040559137, -0.5457803361058687, -0.6227795859662612, -0.10901063951803175, 0.5785984472617777, -0.9221977998702142, 1.2052339362063187, -0.2764136301176446, -0.5183648019098357, 0.8255754211591799, -0.29961475879624, 0.32499601590686994, 2.200184050488831, 0.30653157747762066, 0.7046992257962705, 1.1674434625825933, -0.41053549251800747, -1.8313427625894236, 1.0615293156111678, 0.5583669645790887, 1.206761550908628, -0.06476258707336789, -0.6995477803073986, -1.7093117288352704, -0.03401115129858529, 2.0383530185561, 1.5581222177181608, -1.3993586600234094, -0.048110518534140216, 1.0050840920380564, 0.5338132939388456, 0.5878570147238849, 0.22060761256855788, -0.4151422836922005, -0.8783777357600057, -0.6436361095014633, 0.6852644571699187, -0.02104886251899669, 0.7598127567848556, -1.000250645242153, -0.1569377992395938, -0.48665757453295655, -1.6940156233769819, 0.7160862509396337, -1.8886392566768844, 0.31363685899861715, 1.26189786083221, 1.212364006212766, 0.15047001314104191, -2.1746252885190547, -1.5188014750647099, -0.011189105455688768, -0.5174276286275027], [-0.027380572958894275, 0.5229290636975428, -1.224480141349563, -0.18643585303931273, -1.236922321131259, 1.9990406120297501, -0.7606378643098676, -0.6527033905830245, 2.7315026496285983, 0.11171449035559144, -0.22192318182785398, -1.6171758564573484, 0.6029172279399273, 1.0055974010315427, 0.8272120549428412, 1.7426203635408304, -2.0367589611422323, 0.6408167156476994, 1.2281905491435552, -0.08169055803340496, -0.16575234625187893, 0.7384310390249494, 0.5674600706573596, 0.013558361037394434, -0.020572556464580036, 0.25126362768832794, 0.36405276826591343, 1.063002649802393, 0.3049598331812298, 0.3035375511014079, -0.371813739960461, 1.6032068599427056, 0.08379202892665967, -0.2783075302785354, 0.6890850583326051, -0.4726978173198523, 1.754231305907274, -0.10540819141948053, 1.5440358787765491, 0.3345286148601354, 0.7240574613009788, -1.1789076984025801, -1.933778421713959, 0.13310245751884991, 0.8013096403556551, -2.1367285620628054, 0.3330331350728805, -0.9056576324769468, 0.08638499875337884, -0.7815149752514639, 0.8845569596915942, -0.5694220495707324, 1.4775786304321035, -1.8275994902678314, -0.2798272677430614, 0.4405929055334699, -0.21521404872345476, 0.40661048861248106, 0.4227760265398623, 0.4563495330126637], [-1.402531414540788, -0.889784010414137, 0.18159163314621904, 0.715067735359725, 0.39804222666777345, 1.6681238307283963, -0.7691111458334865, 1.6569358049342016, 0.3701621397296551, 0.1740597890413962, -0.7155152105175375, -0.21484282747204217, -0.8258544827276804, -0.14472996059908985, -0.9609819898561319, 0.21207933382998254, 0.5324006444797693, 0.9031491414492052, -1.0327806778625133, -1.4778636827293055, 0.18975474512634138, 0.6580936337809475, -0.24997216149354318, 0.9092899540323408, -0.6361203841638814, -0.7583487413850731, -1.0815188136607647, -0.49881991725574143, 0.9745471424579184, 1.1404402890626766, 0.20132350183074132, -1.4735642762844736, 1.2343155923358273, 0.8352674171246829, -1.0175538089473724, 0.14764629748597558, 0.26132860496390065, -1.3796703672045076, -0.18911164096365315, 0.24280685347430447, -0.29306087118839863, -0.14285986774810167, -1.8076009290935755, -0.6727496279839438, 1.1647098380095486, 0.08955906869140198, 0.5380766454922881, -0.8451470435090194, 0.12459368375074813, 0.8157395201111604, 1.2827546074980294, -1.7666549931073052, -0.18441924106542115, -1.6191439689411091, -0.7265975158621505, 0.07222890346024696, -0.5521361099909813, -1.6032981976363172, 1.170529635459524, 0.9558398425585006], [-0.3388647302736977, 0.7044125779277858, 0.7149748541677007, -0.07176459844316486, 1.3542241810453504, -0.49245302857583406, 0.14925222269337365, 0.10570918139805921, 0.25111702364538224, 2.3338197529623534, -0.09690659404600067, 0.7035528074726575, 0.05383187417324812, -2.290719157087553, 0.4684654540471252, -1.661412311004651, 0.7233902262667506, 2.099704643441064, 0.24011258786701128, -0.44280816991575156, -2.4569055937088424, -0.7501927349525059, 0.3742937982549662, -0.7976182351679045, 0.6228507158335259, -0.1625062816755183, 1.3804819927490337, -1.4260282496095211, -2.3249050526245028, 0.917178693274841, -1.3820667595563703, 2.607100912818657, 0.37321602714871316, 0.7417180892630887, -0.4632143869222858, -0.975824409470453, 0.050353811121514366, -0.2892496503320455, 0.9142934946251942, 0.582613971091836, 0.0731195070593022, 0.9559077498272122, -0.21168329251584844, -2.263852995843414, -0.4085303990491945, -0.32052622455313234, -0.903209353987579, 1.462853093027886, -0.10628115140942244, 0.38593548817330164, 0.11269338379517618, -0.08006259630635115, -0.736661560942971, -1.1522571921927112, -1.249772591010707, -0.2212285749000822, -0.986278419739898, 1.1863154233119146, -0.6700753954680385, -0.3805133165832085], [0.81734243563204, -0.2448060961177318, 0.11777173540085858, -0.26624900616046027, -0.8759584420931511, 1.137126543814755, 1.0230279895183745, -1.0830210345306706, -0.68441987480161, 0.29250622011866256, -0.7829364520935737, -0.9777636362488137, 0.37541449367225765, -0.7797289370805127, -0.2228133089621106, 0.7107104582737793, 0.3357418230436696, 0.14815845066453823, 0.30875938343084663, 0.8586441510541534, 0.05348102517114147, -0.7548299754741483, -0.8035946714304508, 1.065961784852066, 0.8573994282936802, -0.7786014692299779, -0.12661312950515327, 1.064584245784683, -1.0195304723243765, -1.4738196896507083, -1.6225434438516773, -1.1183127043664947, -1.0261460172118257, 0.9951421665534481, 0.786934064741389, -0.27901270533892564, -1.518159260159148, 0.049243965871248144, 1.4270358711633284, -0.7952190334828064, 1.3416515289734667, 2.2951889453415313, -1.224097279818857, -0.5132410795622038, -0.26352661793966387, -1.1483370005710014, -0.16877945511243192, -1.4968843713994568, 0.054732051952915806, -1.4680466274810093, 0.535588559068058, -0.9137902761861867, 0.14674239303661707, 0.8421308170611784, 1.0705186318215485, -1.3529479353139757, 0.2956222150060564, -1.0128564949863688, 0.42003058970723356, -0.11163020847212733], [1.088830522681047, -0.07235180203180687, 0.06307585023296011, 0.2379505730011438, 0.10821343973136939, -1.5431107015072303, -0.3251427167008436, -0.15076697909645065, 0.7057111968878966, 0.08240070285460277, 0.9123401940324215, -1.2649749142528546, 0.7744103878716954, 1.5896224024274768, 0.0640624001398545, 1.387582118986482, 1.8815259892459162, -2.0234277354430485, 1.8710654590523275, 2.774256618132533, -0.9388728602457387, 0.7628471213030036, -1.226995376529877, -0.671313639693347, -1.0777791200785611, -0.8090786779345747, 0.3428026215125965, 2.9843747680904373, 0.21958249540893063, 0.5032076729989043, 0.8680860667574961, -0.3331020208932198, 0.7106381410173785, 0.8621150296489475, 0.020255911899211287, 2.5589180424833566, 0.8155211884917455, 0.9248111834319961, 0.10664728308413426, -1.9538499856554732, -0.6732252475972178, -0.749032479714688, -1.6034295974959663, 0.46206874874797194, 0.05578756714285156, 0.20999040707734493, 0.050067607275068114, 0.8821994736708855, -0.4196447906881997, -0.13117758530201523, 0.3726086779745193, -0.40052144060686207, 0.6540277584395323, 0.035530005599725356, 0.037891553388830435, -0.6204664506223508, -2.6396404826509845, -0.2716764696865822, 0.4592056782540989, -0.3006806659063513], [-1.4141254610842002, -0.1688879627992725, -0.6433545332849928, -1.0227427927388073, -0.3288175754495698, 1.283517207579953, 0.3816715681793047, 0.1848281241825914, 0.0984823729911131, 0.7947603294154603, -1.713596012046974, 0.48511393147201254, -1.21629921638549, -0.627883003913575, -0.047093997936902846, 0.9456124988465097, -0.30294256761146565, -1.1265595470125367, -1.2938140173695176, 0.5539414596821369, -0.020637716105219226, -0.0646256670954413, 0.24047542745011183, -2.1539749965614283, 0.6838892098080722, -0.6456168111804201, 0.3995214398041186, -0.017410167098958092, -2.042480404482582, 0.4241599496127407, 0.09304265124941241, 0.2894731007391484, 1.679924797213425, 1.9702941584929683, -2.019007593917632, -1.331598659999519, -0.8741113430735107, -1.0612665320771342, 0.2598469836026677, 0.1452761835458926, 0.11916786118294061, 0.20873665866414948, -2.4979190701748983, 1.0745160373396945, 0.7770225332363412, -0.838055649094525, -0.21435304662641871, -0.2814092633202883, -0.6949816735957373, -1.4763162479434941, 0.05383038223672517, -0.3879105370369776, -0.8274767217857897, -0.5099628600963387, 2.05764008886028, -2.3606916948671346, -1.476845458940286, 1.0484682560568597, -0.059015127829132256, 0.42759793431584164], [-1.1017674957756751, -0.5966246071863466, -0.142634176163613, 0.7154690475670815, -0.5692759324135386, -0.6228210057192647, -0.15309518363836983, 0.1057564703411417, -0.3271348668473041, 0.29640096717752706, -0.3227254984219696, -0.6667322165212585, 0.5657224853627981, 2.1167066160238384, -0.5469377466818922, 2.465714919214306, -0.2453932984111916, 0.5327553486865159, 0.7697456701853195, -0.23724633468872142, 0.5286956640041365, 1.5947810471486856, -0.3046007841328465, 2.2656016099057896, 0.9866663764732412, -0.03120149434911419, -0.26368632160549826, -0.3000452583216726, 0.5127257673625871, -0.5679312674756484, -0.8759244778525446, 0.5676287394363805, -0.3642073373880377, -0.3123025262790753, 0.8924930578264919, 1.305032257553304, 0.4416710669097116, -0.590145545155605, 1.8269582624683771, -1.1099344736504022, -0.6444901645311055, -0.7960480092167418, 0.9823074849765432, 1.4903366415973356, -0.4420600214394863, -0.389661805190492, 0.9529349429450592, 0.8258836352950383, -1.3199336352458373, 0.7379242549106267, -1.0214932228900455, 0.8835419025551332, -1.0166163266030106, -0.8367061722458481, 0.2990308979931433, -0.6115765061263396, 0.4238395635408008, 0.41294340888169523, 0.9745579541842202, -0.3285900813551325], [-0.2347611896109971, -1.196644114828802, 0.8793364750005087, -1.223575392460264, -0.3942189875668295, -1.4914297474969862, -0.1825647576048822, 1.745879690923724, 1.1102536193284107, -1.887476895717278, -1.5238764615246523, -1.2547068601615845, -0.4384305526487416, -0.27852524300544834, 0.7892219675521053, -0.8908709626451687, -0.9752106244626609, 0.20948246418867497, 0.5903103769299938, -1.3926358946114115, -0.5979477885194028, 0.6891565349983232, 0.502107307184975, -0.6889953038334529, -0.8956225037559801, -1.5043612823153825, -0.4875434481185582, 0.4021703555882611, -0.053061449318945415, -0.958455118084694, 0.020690719998558333, -1.797722047216118, 2.3416607608721307, -2.0535529655580462, -0.18478304144798002, 1.9666977423433916, 1.937852669042624, -0.022530943214573877, -0.24617539427559254, -0.26759896784052534, 0.279355172927363, -0.877086204439169, -0.1335139937762612, -1.0192743146057945, 0.20304340734524365, 0.9896392133679364, 2.527653257618386, -0.06175139703027305, 0.740129058800563, -1.126731985075299, 1.50309749903395, -1.1925866214539242, 0.2867719148266028, -0.8035860657446732, 0.25165201144530347, 0.1963973927267672, 0.9374350647043714, -1.1676634645010726, -0.5094388157362021, -1.1091013224667325], [0.43429600608044283, 0.46117723325456905, -0.14477334753606516, -0.9591700549355174, -1.1761311179216591, 1.1552111877599895, -0.6079505630542469, 1.1787410238028648, -0.1603043131439408, 0.3875072199318223, -0.7353718756348986, 0.644449185947462, -0.7158025882152595, -0.7097445333143682, -1.0843611370434931, 1.2984700728985283, -0.17761917601471391, -0.16351206113562383, 0.16346003969084952, -1.0707434135592826, -0.7005654916158806, 1.2342997514831429, 1.0804767993064701, -1.0021744501674994, 0.35250559368025675, -1.4153799475789868, -1.1409038858490355, -0.8187895231573646, 2.010583777766378, 0.5119289792002867, 0.14970345621214737, 0.29502033999652455, -0.6976505090336751, -1.6674668566281945, -0.16317030959397333, 0.09934684602044407, -0.877746731760461, -1.443765359926017, -0.9570386194026732, 0.8077138316495447, -0.9218150412731123, -1.0942828958926145, 0.43422621705635783, -0.12327219127782532, -1.5040595597814088, -0.5662992478569462, -0.7379861714136384, -1.451879055741244, -0.9936127192713795, -0.2707612908825878, -0.4657794536104782, 0.6610885327883372, 0.7651949121891476, 1.915689881736436, 1.6644845133551884, -1.3247686615446819, -0.13686742283370493, 0.2756015570643498, -0.08319519414789814, -0.2466602342694268], [-0.5759171068401834, 1.484629207848394, -0.4480076683675338, 1.7096015138137899, 0.016427031219050765, -0.19269687401840507, 0.6974754518735427, -0.789812190072131, -1.077038041253239, -0.013381740964897509, -0.7407142902520908, -0.12676719747327433, -1.397445508749653, 0.965682996392456, -0.3353142629791355, -0.17624920928105134, -1.245285122384041, -1.2795811037136955, -0.39973827202171186, 0.12507515136959044, 0.9725738561830877, -0.33250040027552996, -1.1834509556612347, -1.7367611110059868, 0.8713831686174667, -0.7414734398212658, 2.086092815025336, -0.35251857351672994, -0.43329896486460023, 1.8947399360017956, 0.3167425218887357, 0.4347697790057121, -0.24563999045744944, 0.36592783179126714, 0.20658453896035556, -1.4464724209803679, 1.4297840562461512, -0.7398301028497853, -0.21557479237838081, -0.4433485286824267, -0.643145624988201, 0.14835315643399355, -0.1029148555660151, 0.4230334957017536, -0.6271406463716862, 0.7239565024404205, 0.875195355767019, -0.7519650403218159, 0.04750984101423462, 0.06490255389723093, 0.6326946109834285, -0.1575062118993643, -1.3103663254432472, -0.10297532676568304, -1.3608173109315767, 0.09879539476582354, -0.9956640100098929, 0.7667117064404926, -0.3596002842330112, 0.5941698347844848], [0.3379056225680799, 0.8031612973563942, -2.2521226409082917, 1.1328643651088235, 0.965229922526071, -0.04777367406976409, 0.13760085587297455, 0.2972807553982625, -0.47049620248848595, -0.18197216448412434, -1.8595317858334957, 0.7657485176995188, -0.3554947790452431, 0.5299563116254875, 1.4383523823443622, -0.11230404012148497, -0.32878650667555454, 0.2940045040406793, -0.850895045232536, -0.14227364078859747, -0.5673517384892095, -0.8679144472904812, -0.7082198363600534, -0.04008678219235771, -0.6321422948013543, -0.5176284300207766, -1.5903778088542173, 1.0847960124435394, -1.3060856697023353, -0.22856912844939636, -0.8060951493123842, 2.125630334659148, -0.8706879840716191, -1.6435102872178937, -1.7410816740361577, -1.0035652624243028, 0.10055701337683294, 0.45090698143112085, 1.3095897260476967, 1.217421157986683, -1.591535033712041, 0.5386312225882337, -0.06939687865976253, 1.8911462697403245, -1.622803686102404, -0.9599816258436826, -2.664541162537853, 1.0339685691367937, -1.4394642664338422, -0.053459556735958584, -0.3628395273876898, 0.803655928890881, 1.3033708134298139, 0.6184828655288482, -0.3244880319562259, -1.7977791554442195, -1.2116360755931166, 0.868921697791408, 0.007280302081177794, -0.28471855194979506], [2.1099268393885846, 0.2712575094406803, 1.0036945865520164, 0.8997813013047201, 0.12348722036945649, -1.5376511932325347, 0.4753290517349907, 0.380630305411619, -1.5693994875655426, -1.5073838958765173, 1.2802694569073063, -0.8470668486036101, -0.34677573514150384, 1.7840323512954186, 2.0412066047302613, -0.6504690392958494, -0.31816638297283306, 0.07682987628091802, 0.7234576481434182, 0.106345710431591, 0.3920397140462461, -0.638570834567326, -0.5792161595055513, 1.379034864621749, -1.8134315567035981, -1.881123848005982, -1.3514260094241604, 1.1083770328698779, 0.5635794281771527, -0.2878152084740744, -0.11393641334873926, -0.9139100755278884, 0.21991036796653748, -0.11702096078405247, -0.5083430542910762, 1.407240440704248, -0.012797700343476182, 2.5766456435579626, -1.1317264544716912, 0.7927458965080953, 0.5676429015756647, -1.1992011916714962, -0.4651814540843031, 0.5746414653216939, -1.0215011005173682, 1.2755100830053794, -0.06076784038651427, 0.6264528933082278, 0.8171669132245664, 1.2089922740346317, 0.6715647902132561, 0.9870444785658004, 0.4452984107494134, 0.15826055009813988, 1.0629057260404622, -0.5163584473237901, 1.8366613692709337, -0.4450414535885984, -0.837768860048396, -1.6573452996135374], [-1.2655364941423406, 1.0445699529726706, -0.5180202423646489, 0.5348524520398427, 0.15976131042328137, -0.25120170303141287, -0.8378874764780301, -0.8311350351322055, 0.838094589040358, -1.0631226287852351, -0.5012896711757898, -1.8065597562907005, -0.6314830449693012, -1.39709258366131, -2.517734460367018, -0.7198521050778641, -0.46569511248008993, -0.18135307505416667, -1.3766270113845416, 0.7188200921542908, -0.022648432978371387, 0.3431697506717764, 1.4990007762932331, 0.23638290720728272, -1.0759143289961461, -0.6537812540920073, -0.3743537094431761, -0.2102959430808334, 0.23304075875314217, 0.562517681840615, -0.35535604686062827, 0.5236397289408089, 0.6250375062953859, 0.707328652854386, -0.47357360636336937, -1.9177885320712738, -0.8171134256763549, 0.17285213062745233, -0.0013400864774803759, 0.17219555798069242, -0.5719269896410981, -0.6632000875135042, 0.27991606354025456, -0.6649741303475329, -0.7507431584513877, -1.9258553318197573, 0.22784076910566756, -0.02087560351456547, -0.13033019521704997, -0.8219232358347678, -0.37647705814273585, 0.65391129178441, 1.9867854068098547, 0.23505654631935163, 1.061992359874271, -0.28322350554232445, 0.24400574295075855, 0.930298307822808, -1.7797599240223787, -1.0839566936868232], [0.2580501493431308, 1.392865017716253, 1.0636269712651039, -0.6623482988978399, 0.24521403597026034, 0.5878918228195896, 0.2924444227217533, -0.5376044144234141, 0.6825028082565828, -0.505584760467805, -0.2107804511998212, -0.19672417296726918, -2.1044754163172033, 0.5748668769877958, -0.6480091033069179, 0.5489998530955128, -0.25979355868424775, 1.0885678690716916, 0.7702904422653089, 0.08366460417279271, -1.7090585656303416, -0.5461759292864636, -0.1506274655047114, -0.6322019916459691, -0.2938121140907057, -0.738656173552765, 2.5056614834745194, 1.4288925211607297, 0.11899323425440753, 0.5583455938232126, 0.6393666406863027, 0.8168519762166828, -0.0434089422900262, -0.10758250535044421, -1.0714876873792665, -0.7644267530042228, 1.5100955295778538, -0.4029136492563784, -0.8547270309785898, 1.3892248118388884, -1.0416246531942863, -2.0282968738079505, 1.9292274400327039, 0.26684272534471754, 1.2502075129357897, -1.1386614469852323, -0.8117171036603665, 0.3913414425037851, 0.8953403265927528, -0.1799098475814912, -2.17068190166989, 1.312016604259272, -0.378683131674628, 0.5327648677849529, 0.3392021157248174, 1.8304331514096288, -0.6170852906823399, -0.11226292311899286, -0.648636138803758, -0.5231986714328049], [0.602434586739083, 0.12647933067557077, -1.5083613071068176, -0.6305669210465775, 0.4425751336338331, -1.091522717996537, -0.3124239305420943, 0.2614838913023215, -0.36355792615304827, 0.13132629001234225, -0.2509605017653695, -0.7626794520159272, -1.481547728511583, -0.326659996527641, -0.4891972366993526, -1.1076263565935816, -1.3171876130536817, -1.6659269922489006, -1.2421293672222358, 0.05947659315846088, 1.3888376287765725, 0.784706423635135, 1.204504738533052, -1.380262699329742, -0.12081087135200996, 0.4218539450781508, 0.14801197117361875, -0.14482485832003722, 1.3454269425383953, -0.16081541142478167, 0.8279273781572001, 0.38819661561277474, -1.358746181070943, 0.3968343885075402, 0.5781000721620175, -0.4533548801705572, -0.44098737741227695, -0.19592184877461433, 0.8266019043809744, -0.5345685517725447, -1.313008940702817, -1.1245908268580753, 1.8232207672183152, 0.28914227759287003, -1.2251799374791457, 0.22766758297919396, -0.44530379984248447, 0.28661952956355075, -0.00413794790710429, -0.15781241342812266, -0.9983648408706209, -1.0189977160473387, 0.7655950703571386, 0.8246652800962033, -1.1801016788340244, -0.6219022729651199, -0.1321832441240898, -0.3811291264032595, -1.6061458052992972, 0.8424153427883758], [-0.6194832146497777, 0.15047666265345286, -0.3347979281723968, 0.1866714892933501, 0.7364384514443482, 0.10012305661080978, 0.6610130262465146, 1.3408080165526692, 0.3234379677468651, -2.1785469271478113, -0.006704763741885213, 0.04656649745598893, -0.012956703773075852, -0.3482234870788946, -1.1743701702995701, 1.0939860174108549, 3.243168372605574, -1.0868322469415916, 1.0245728861499932, -0.8170211316661408, 0.4256184684882826, 0.7758162320656738, 0.03507134379193583, 0.42821025761137, 0.6418159766350023, -1.1116412535803117, 0.47859636888441265, -0.17081498962853567, -1.5914634871697828, -0.5828231008754962, 2.3709217203305055, 0.054117145214192496, -0.6147429954619581, -0.4581798865747333, -0.6951041761573992, 0.4119298152566798, -0.3427442714941872, 1.0061608951702383, 0.9162034648095486, 0.5119604191804511, 1.432288873289587, -0.07497098710102526, -0.12980914259980375, 1.46478986573177, 0.6528634567124221, -1.0582086812378209, 0.33581770682907197, -1.4648751246000753, 0.5213856818867993, 1.3475294061619651, -0.8771704176901244, 1.182939088160486, -0.7820873707382195, 0.6020181160052687, 2.070246207276021, 0.24229737094033177, -0.6059593508666911, -0.25074302879024357, -1.2794938054554692, -1.0561797529006616]], [[0.6872090402719219, 0.1265454695169375, -0.3927499918734998, 1.9136087956643815, 1.6780180475177906, -0.40885613043738445, 0.42271840579880204, 0.6683138369327293, 1.5271417213349479, -0.24542525574800123, 0.5689520198138923, 0.0709826935593867, -2.7613943723851633, -0.23630275631509026, 0.37411278130422315, 0.4725095955905142, 1.2504620925287884, -0.4816408771119387, -0.004501936991927855, -0.016092647928550807, -1.2317841622342796, -0.8242928409039992, -0.15786452487176042, 0.37724385396356896, -1.4001543796285305, -0.7729542913312399, -1.459074595577102, 1.426835411947725, -0.5894543842183324, -1.649606365513777, -0.25390192575731313, -0.35659010463993285, 1.208934900921465, 0.5447698721491278, 1.4148251443857092, 0.5452398442108938, -0.15951497826936278, -1.0522172897405044, -1.0902123804536203, -0.998777542904592], [-0.12801042121341297, 0.22422390821715826, 0.7499017262298122, -0.4096317853593578, 0.5193773502697945, -0.5135260332660101, 0.06423127631324917, -0.22528385891685027, -1.7390756253622492, 0.5274374857586752, 1.5115998960756245, 0.007991633975471993, 0.8928478008754442, 0.24208120836210797, 0.07176126470555401, 0.5394958086806193, -1.5853025344427214, 0.4047644991670553, -0.5576172258166504, 0.01695453233243982, 0.48018811125292693, -1.1917088568967527, 0.1732430372692033, -1.0203851094466554, 0.13980082508633937, -0.07847371154586318, -1.0351690773082607, -1.033579096129835, -0.3048727861104752, 0.5258181699436111, 0.2944146922027668, 1.1733538185465304, -0.014611563712253608, 0.2774389207006767, -0.9906523266300089, 0.8398069631141049, -0.36955499728890895, 0.20646427506291504, -2.1693634104588417, -0.11388690690731305], [0.6494289233478274, -1.5202636330467372, -1.4917714101669368, 0.5484478598935092, 0.8645154146135411, -0.06334179170896319, -0.4079893379494176, -1.7943188643199648, -1.4901754193833519, -0.03941316801248967, 0.12361226889197005, -1.0731728022466753, -0.7497979297364257, -0.24363437777101005, 0.2972202182680843, 0.16119596961684055, -0.9453543650525732, -0.33455930558515795, -0.4466013717116171, 0.3045849257869901, 0.05323275452621123, -1.1528779985456563, -0.2767636843788698, -0.4458897862678045, 0.9798165121751814, -1.4032368538046922, -0.5542392843882152, 0.9289802252621995, 0.22685456994406708, 1.1773380845821457, -1.2280588835034079, 0.540756474447495, 0.8170244984177366, 0.28840663088645946, 0.581654332022575, -1.723513164781272, -0.8011548385370947, 2.4385855734237616, 1.0389654679938625, -0.0019940748734995563], [-0.6416607594221686, 0.6220975083728978, -1.6178108499773065, 1.7709905205182617, 0.40769541504910317, 0.0016171207178975148, 1.3291158401310985, -1.554512655559872, -0.9723455472679164, -0.52329192868389, -0.5119126973587709, -0.7982486888334012, -0.21003212370802446, 1.1758367407345367, -0.08574665795526343, -0.12087690810164954, 0.8896419383615256, 0.4125435207939297, -0.7518351708799147, 1.2671848838687116, -0.0276419101918172, 0.9448539711699151, -1.259855535330093, 0.7324400427024277, -0.061587490877974285, 0.5255367403210832, -0.14268740019817755, 0.71558802164498, -1.7451078479288822, 0.3497695972528435, 0.617402565159428, 0.17910244230462016, 0.5080426966262018, 0.8286691509910737, -0.43065310497796194, 0.6677861449367438, 0.40466788050523383, 1.4987148229639287, 0.4794326881213578, 0.5157793709335998], [-0.24286059546116012, -0.06637500990262366, 0.021488102352090754, 0.5048172947547758, -2.422999565755162, -1.012494667208995, 0.8994821754621145, 1.5976058688687915, -0.023498499441985655, -0.5463802592932838, 0.3233272698603218, 0.030621896371555647, -1.326118451994744, 1.4454150692767347, 0.4902143590921581, 0.0017995227586684438, 0.12772515332221623, 1.1374354038746577, 2.1661896980019417, 0.9521326642880571, 1.151895389564117, -1.0202205142882435, 0.841843744575443, 0.7282399270089212, 1.4445835510503666, 1.2437468831043301, 1.0053271076214176, 0.008386784446028982, 2.2702811002373764, -1.8138940155308951, -0.2468334254222418, -1.3546806269975522, -0.40460881028380863, -0.7748728699264065, 0.11243946799766474, 0.5442707414829688, 0.14061577873476186, 0.625511085571539, 3.3460235363319426, -0.913561367543671], [-1.5248452622479467, -0.7228368816938, 0.13487943419818127, 0.300304235799908, -0.02017991416160262, 2.2620383476017527, 1.22095592123906, 0.2524448400379193, 0.42834299259934366, -0.7285614420799212, -1.0474016396876327, 0.7552861763469517, 0.18380829801677176, -1.104725868193092, -0.15933530947842575, -0.4601009376848386, -0.5831200301169251, 0.936696001027359, 0.06512720338419663, 0.47388386872140215, 0.9509446306986614, -0.9819541747121947, -0.9403579517255083, 1.2208604932885923, -0.6067089770786992, 1.471577117661218, -1.071738084516525, -0.24164369117722737, -0.6557736564931049, -0.2643349571273762, -0.707716507863194, 0.8378122371311754, -0.34238248629761153, 0.4009503312648157, -1.2583465586459313, 0.7564406470382236, 2.171487720072742, -0.6142577811613026, 0.3810711225141299, 1.0565857538742136], [0.8492447588411735, 1.0611764983261267, -1.3457439244905867, 0.9125244055555303, -0.022838650543301718, -2.1063015243451373, -0.5052825823424439, 0.48484217567395144, 1.894879118286384, -0.5799380898235992, -0.5559877006717393, 0.1369267551305699, 0.527140725688088, -0.09142292785202413, -2.2714950175943778, 0.2725065171748189, 2.1359240821152445, -1.4547481391803498, 0.6439015415213729, -0.5989431726956002, -0.7388363316166731, 0.2768122563950301, 1.624383507586839, -0.4335900412647459, -0.9428985414410025, 0.28048459825743394, -0.3505009710986522, -0.8807248580219701, 0.7336464428581575, 0.475816833930713, -0.390476784227525, -0.6770226249823394, 0.1827224065871266, -0.17040189214608262, -0.8166456812396053, -0.7525411672713744, -0.14214799017806917, -0.9299287512450158, -0.022795914888853654, 1.2491677623845916], [1.2659164385957666, -0.3271825654987786, -0.4453378387124324, -1.8251257208890668, -1.5629986571031265, -0.5788928604786419, 0.04104926793257456, -0.4837385926042871, -0.23967333873299412, 1.2116576735938793, -0.5021487455467926, 1.4574215940343187, -0.18440605420025583, -1.2260972807247688, 0.5458403554201439, 1.514162845226463, 1.617326423618582, 0.966455281811528, 0.513326398210171, 0.12417400832095705, 2.6574556917626513, -0.8684057674814737, 1.0394711372308, 1.721933828558034, -0.8927241502467852, 0.1424675005914679, 1.3022997976040853, 1.1380359102773963, -0.8133173094848362, -0.004158325667425061, 0.344505508266255, -0.5321114446774253, -0.6646821568063949, -0.41058099168670387, -0.5481158896503162, 0.4382061416266277, 1.6098605244007196, 0.3836186537754668, 0.03054506618672907, 0.8626714437901978], [0.35446752917629526, 0.3908452479679503, -0.974329357358027, -0.7175853363065997, 1.544785306494779, 0.672931703555295, 2.4874769706624695, 0.12549795319195145, -0.55772925226943, 0.20297714049730478, -2.038558429856998, -0.7593921045860688, -2.214388535724152, 0.4752032735816525, 1.662208752672393, -0.8282753096448117, 0.8234597495184455, -0.3507029799810356, -0.13234789834047442, 0.2746651631773721, 0.14668081822318957, 0.15508530091885286, 0.30661693549015373, 1.5692272445970856, -0.28094785724944904, 0.41251666510557944, 0.007617692807488622, -0.3842065861981686, -0.22772719430132027, 0.03945895856776557, 0.3414522681807675, 1.9038616123892567, -1.389364935638807, -0.02245503000762702, 1.3528450881179155, 0.8803163921957673, 0.24797544925184886, -1.48633167437005, -0.7480680444241959, 1.0059113105180293], [1.6624541944597642, -0.0770832719327697, 0.9860355792004885, 1.6163566073107325, -0.8192064223812259, -2.5638819700813817, -1.661135091856871, 0.8857868297163527, 0.4249021324661824, -1.1171165576547522, -1.0329754077021958, -0.12559823235663295, 0.6787739255279887, -0.9183312463922294, 2.1885890754057424, 0.7241019304337705, 0.23274582594209545, 1.0687646722028648, 0.9470669786562059, 0.19389761592237856, 0.1500456108280885, -1.0330611100272094, -1.1304562698726583, -0.5262360267167738, 0.8581526019666997, -0.5612265235629349, -0.9252455007507592, 1.3693751719225744, 0.20473171582426844, 0.1908657811827309, 0.7913632645977756, -1.602517564702706, -0.22890375504775418, -1.1155971575516395, -1.0748110619983873, 0.9012932415507621, -1.1246057962226996, -0.8824772288252309, 0.36188764429451503, 1.7574200297105214], [0.9751075742231605, 0.16606204118833756, -0.05579992501954647, -0.004122234856983078, 0.5669356842363602, 0.63350817369262, 2.2481670022678086, -0.9342553246579203, 0.22560478387395155, 0.1641251731003484, 0.2685209902295568, 0.08249711881167161, 0.4871543222668536, 1.9693571194269666, 0.026717293134674497, 1.7870742600011242, -1.3214989582249757, 1.123386287281499, -0.30010305586154956, 0.22800357212714678, 0.02558809187180732, -0.36359213663296974, 0.8732104703200655, 0.40015704683992975, -0.4160771437105769, 1.0840050437810467, -0.3767139866256448, 0.5499558389398176, -0.6942702057536853, 0.8624823259766362, -0.06675759139496852, -1.2587356724038068, 1.2000126386413905, 1.3207731393243467, 0.5483583991824907, 0.9339566314468171, -1.738452486796776, 0.6060293677930944, -1.1524617047330137, 1.9286011538497525], [1.7145058559604387, -0.7782306473113555, -0.5604768415989428, -0.5565101674237102, -0.44469177080315747, 0.8156086063119714, -0.686962458625696, 0.0277630948754616, -0.05251775250343209, 1.0538746491484365, 1.1146878791610353, -0.358460495334222, -0.3439439259019453, -0.5809382110870761, -0.15330128428806036, 0.8157396750372822, -0.15128389128400366, 1.5121971736503892, -0.8606190628747333, -0.48220784709720527, 0.31575063594097913, 0.9131623427910367, 0.3732661582502011, 0.09820606622102536, 0.6927374832811792, -0.5519015527341261, -0.16849698678178754, 0.136305331352059, 1.2903820970644828, 1.1868572783228335, 0.4910926009621528, -0.12299200864663414, 1.4574144014894048, 0.5562619903587723, -2.014180368358839, 0.5493050431981776, -0.501724624308149, -0.13262237721373726, 0.9720793982177902, 0.38109707583109836], [0.24623307127218136, -0.8392107462758541, 0.3522457486972891, -0.11266248806227828, 0.8748895904556313, 0.016503488496071684, -1.237258552303195, 1.8664744115336518, -0.3838264753031944, -3.7071395993171183, -1.136787103680225, -0.4220574510653421, -0.5133446069768802, 0.8114542252661812, -0.1733629016648979, 1.6714321718118825, 0.04376057575132851, -0.4243437406286268, -0.37051607789216395, 0.5673335323416581, -1.6413760116201777, 0.6309609716216832, 0.6203091660558107, 0.5513364316811801, 1.0679947282967395, 0.5527078834338928, -0.7946246085556553, -1.256310550184179, 0.11932946845469074, -0.8134643710689037, -1.348865284495281, -0.4946437639268088, -1.3633378979548452, -1.3320636098380059, -0.452143816294062, -0.2530131182337503, 1.667674041789714, -1.1534228094024856, 0.3859442722015262, -0.25083477869518545], [-0.31233019723898076, 1.0856964161641296, 0.4203586040680395, 0.1926655278943119, 0.3418912382434109, 0.06957149846962599, 1.4082020074716415, 1.7850813404936374, 0.49923371891822255, -0.10548322632765605, 1.836642551004007, 0.3063741456617848, -0.5195967939490392, 0.18803040106776248, -1.995536895238206, 1.8706876885827544, -0.6091990721170906, 0.5208169347706872, 1.2835732419908952, 0.9163689275863014, -1.0489641112184638, -0.5775765733256875, 0.8883278377430274, -1.009920755563482, 0.25542606855815175, -1.366820575174587, 1.2859012279357869, -0.4602833473942399, -0.35676989264765463, -1.3199406445195494, 0.98308315943153, -0.09534993909332094, 1.2601156253251857, -0.8601365242536987, -1.2300781995099688, 0.2740928413511849, 1.3344243788949726, -0.32343988383304595, 1.9487407309600329, 0.9134609667095183], [0.10353522914279774, -0.5045723838464302, 0.5388457882777846, -1.3832433636866523, 0.9889106721239748, 0.01093661236503312, 0.22314721779300636, -0.6196366800213625, 0.7846789523442392, 0.03923456432020332, -0.058466748450905624, 1.3358190208805536, 0.13919719758790358, -0.45482086148313156, -0.08742941669837491, 1.8495214893798042, 1.0357300360304589, 1.148265616811624, 1.183692939014836, 0.5435403444187679, -0.4656200150003933, 2.213615240781913, 0.18425473674446774, 1.8008317513779912, -1.1951324853081742, 1.6400772282626452, 0.9467704753489266, 0.25489738537305207, -0.06889924870379587, -1.1172922597411026, -0.39974144051650057, -0.7144779998822511, 0.3861383153291264, -0.10570144033089376, 0.04455370223838306, -0.7171587422017013, 0.4437070351463807, 1.2140709988750416, -0.010780962646756959, -1.064884255970057], [0.9409603259458771, -0.5164991691226323, -0.32240699005455253, -1.1055418414525806, -0.07187485421726664, -0.09254228719332042, -0.23329152736388276, -0.690850659693892, 0.8333363113185703, 0.5379811682222186, 0.4853359325314312, 0.8011269751218322, 0.4008158414210256, 1.1925756698749492, -1.7511117697405079, 0.7020306092524561, -0.8241425400631625, -0.31078897331617716, 0.19492336421952627, 0.37410285383513586, -1.195112112693846, 0.8460033203216502, -0.9717737276606258, 0.9417157843860783, 0.37040663285725905, 1.5247268536554504, 1.491983677780165, 0.4903035187132569, 1.1051246168468367, 1.6856005335986362, 1.4853237456466206, -0.08742820301690692, -0.2872388980415238, -1.6068640572998236, -0.6938712010207175, -0.43278684855569877, 0.02321797747165866, -0.07765973511435358, 1.438037281318278, -0.21654152298668825], [0.9835684249280676, 1.8431707286151846, -0.43241998999379766, -0.6882165023038277, 0.010640119727453878, 0.47266729945734576, 0.3543950630181562, -1.21438615657042, -0.08920589022323147, 0.5293603280613227, 1.106861341552828, 0.06156717166139568, -0.4611816518514787, -0.5151902375090601, -0.11132138177491432, 0.047026178498144826, -0.6470509985294088, -0.509991976194451, -1.7060949822866773, -0.534467665632024, -0.451851537884999, -0.7443498026217972, 1.0136519089881115, -0.9836210289043232, -0.4891516593503991, -1.9576250361380403, 0.053699521508339794, 0.7918609508256862, -0.035903201299489, 0.3140985048745194, -0.03033866851496062, -0.1352610546583646, 0.10354165696257779, -0.570538501300408, -1.23689429753479, 0.44517268409683913, -0.6826227752136681, -0.7796598428325875, 0.6318227504564928, -0.06649815930021752], [-1.494812223006091, -0.19798633991010708, 1.1735717082298713, 0.7526525713459067, -0.4355294212249023, -0.43450627331207603, -0.22336709033893745, 1.17651834381363, 0.6362933838852052, 0.7856533751531545, -0.561158533754912, 1.272817548536563, -1.2983070484554255, 0.25966786710844914, 0.5854937495189869, -0.06078672699948206, 1.0533090123784694, 0.5068583433322182, -2.0791927775235637, 0.40899481262834286, 0.07195915879770924, 0.8837049874877213, -0.38403759762379425, -2.0597821208986855, 0.15770306524746946, 0.48471514642260743, 0.49999380191132975, 0.6068163049329314, 0.49972223589024156, 0.6054332596068267, 1.2204131741682527, 1.5635155593015617, -0.13559399859338261, 0.5510153956527689, -1.3904556240854105, 1.2727922589994314, 2.179341485315695, -0.4758522832966037, -2.7243197624668203, 1.2716807671282429], [-2.4132906444260844, 0.37805827701210953, -0.9640899929737714, 1.1450920879951387, -0.5719015519160144, -0.5910932248660836, 0.92077583772524, 1.5472238327503147, 1.367848840220139, 1.0734520647235655, 1.5441420463723499, 1.038564198476336, -0.7830357621957963, 0.4738236339299575, 0.42233396314963106, -1.6507175199805355, -0.6693464845090972, -1.035984433360604, 0.2602434281978059, -0.2678764232350086, 0.741826914182302, -1.610317962580301, -0.024823809864985034, 0.3100152222842894, -0.4757988665597417, -0.3501552342251593, 0.2859253102366579, -2.9653107404325763, 0.8824265775362575, -0.049373333455498214, 1.3766370003440362, 0.9030731777944383, 0.17283687260806935, -0.1610158751379948, 0.01472178908153608, 1.1636542296859596, -0.5244267835254847, 0.8236677037413989, 0.5782494274876795, 0.34616469008691975], [0.6121050633586801, -0.5365081737508519, -0.5696486122361244, -0.6119051522466524, -0.9653018091083824, -0.7993405580830195, 0.6173821997122925, 0.19161928204305173, -1.4704777845052857, 0.2808059447455063, 0.6578212790675037, -0.7999212918655421, -0.22008383129420123, -0.563160223883522, 0.14522084093446488, -0.8171911847281484, 0.0806165249440712, 0.5017114427280098, 1.0112392778465458, -0.6161853968565382, -1.0635633674252727, -1.2547121073542413, 0.2312957434829844, 0.110181770437606, 0.9314644363472236, 0.6104786622843957, -0.9666097042723182, 1.4064760874977378, 0.5545122614901267, -0.31274789271858827, 1.7351258100402844, -0.3042602002663694, 0.23951395867543737, -0.6715426719039183, 0.2885547005942959, -0.30667348728305144, -0.18652289101719774, 1.0242129078423865, 0.5350896059509525, -1.0438267368346512]], [[-0.7690411199933134, -1.3043045758261695, 0.23243035121451394, -0.7405250011045228, -1.31826581435426, 0.5159879584945931, -0.4981502398769024, -0.7575627515060688, -0.5775863782722472, 0.7107238238528168, 2.1524556143754827, -0.05689702605649171, 0.33044600481650593, -0.29699529594845675, 0.30496848954905426, -0.33658305750574136, 0.7049272845208909, -0.666510930957578, 0.9168871182732043, 0.6741805715545635]]], "ep": 1000}