{"num_layers": 4, "sizes": [60, 40, 20, 1], "biases": [[[1.0253984068008832], [1.47936476760819], [-0.2728022450267236], [1.6865604431294552], [-0.7386514183686513], [-0.5604193924838775], [-0.6676452148746678], [-0.13880771764975408], [0.7352492321424248], [-0.8302979089184847], [-1.0770451819746472], [1.5492303065963737], [1.5214580069096681], [0.4327154905663008], [-1.4368569984786022], [1.588004592302335], [-1.2017735810445755], [-0.18871985840101835], [-0.6484492842940034], [-0.9656644374549235], [-0.8121621998105727], [0.588725946736437], [-0.6182291111052687], [-1.2005758368542019], [1.2298149517324792], [-0.19436842573720328], [-1.3584849593359078], [-0.7471824356072161], [-1.4979382704895432], [-0.61961602565753], [-0.018974485501640843], [-0.47433902008197365], [0.09048439421245914], [-1.4893481864443576], [-0.6570943768741238], [1.108466908716854], [0.6357683946156072], [-0.4901992000028854], [1.5451379652641204], [0.14037706391500723]], [[0.29984213061175474], [-0.33285743351413394], [0.7515777849897636], [2.118324293357239], [1.1078130140508788], [0.3465358601967484], [0.9621148672819422], [0.9057447931658221], [0.832189016235454], [0.5630586393934159], [-0.0564338669372928], [2.4435467055652387], [-0.9933233353108933], [0.058748928474183254], [0.12377729082635684], [-0.33126285963612395], [-1.2974148523554963], [-0.9687888589285262], [0.8592720535641134], [1.5547384442803094]], [[0.5018857236202774]]], "weights": [[[-0.40961947364801926, -0.41257500210095166, 0.19248567702674613, 0.15359469791178454, -0.9056368577987693, -0.04607051340870481, 1.3820976156847673, 2.6259814772793524, -1.6833502819979125, 2.1602586813209235, -0.9129934651432013, -0.6670958772908931, -0.4992801833685421, -1.1707878925294848, -0.4892912286679624, -1.2284007552798346, -0.6292189696278446, 1.644502356336938, 0.5537987209563291, 0.25927680946186243, 1.4952479425271026, 0.6642874690780874, 1.7277894704056385, 0.2107209289998638, -0.27563778099450376, -0.12231097239094965, 0.7359226252838249, 0.34732570436603416, -0.07085086407594711, -0.2969905652617312, 2.6658793533486693, 1.8004102254558985, 1.115797612609368, -0.16423330361689867, 0.6404692640501842, 0.21318805021882786, -0.07280943876225587, -0.143283568548838, 0.48473866769455914, -0.4681507923698846, 0.7845375821363167, -0.05837434707444153, 0.7733651761284877, 0.6015568107030959, 0.3139626202249389, -1.7590638384098587, 1.1595358092297698, 0.2158655600897002, -0.04830740468949391, 1.0829724177330795, 1.5209428305900612, -0.47812916566702185, 1.6366733331470993, 0.14026894938428913, 1.2838544373661298, -0.008099929397874395, -0.1465584807759136, 0.25718656744464524, -0.08602493842773426, 0.8018062308167212], [-0.5947807891405381, -1.3002912873036538, 0.24174173434300986, -2.534430854333752, 0.9633310957402501, 0.387052009945054, -2.001086775195644, -0.3462808363944483, 0.0466026323034043, 0.5236274359235537, 0.494192668330667, -1.2819489197717926, -1.7220686085837864, -0.43465422348168525, 0.5572694099121044, -0.7387581207247494, -0.13709007258244915, -1.1339435913718148, -1.1903192827494826, 0.8741513853874443, 1.1906409202725157, -0.738623778258018, 0.7558362849172003, -0.1656524683241435, 0.5728943158636822, -3.1632742379434298, 0.6408676977364793, 0.8256242263638843, 1.098235108456697, -0.5191423692746429, 0.534918056153805, 0.5985793291214008, 0.4869613103856108, -0.22083560518681658, -0.07854094002267151, 1.926511111845413, 0.27383255486303637, 0.5261169270567421, 0.09034302529913628, -0.8251121055522997, -1.6756040583484306, -0.4986474170110792, 1.0337190490485126, -0.31163532020795837, 0.6607649541948456, 1.7476913868570696, 0.5186929593627687, 1.0506319379633218, -0.12677776631533755, -2.956579928697596, 0.8902044983253946, 0.8009585372648841, -0.41239210054143516, 0.7154931245717817, 1.0514564507076323, 3.293750391969763, -0.21875597494849583, 1.198369155724481, -0.038316598003648616, 0.17707114581731637], [-0.004004173210374551, -0.41553079301322293, -0.2828796523565223, 0.07224018850642815, 0.4321548885250111, -0.5081140855503364, 0.47932624320008926, -0.4206136406023526, -0.08952982845299781, 0.4615695809341241, 0.29881429466719095, 1.0582310404973698, 0.11896675572881864, 0.13764145340232467, 0.5577583226174472, 0.13328560347966953, -1.202577947011994, -0.5627387177449238, -0.13324253975010666, -0.9872294634826698, -0.7357285064357996, -0.47250420663631515, 0.6747039900801112, -0.5358275354556573, -0.2969771427299544, -1.2804879439923733, -0.895587848799263, -0.09327372663492552, 0.6846272448747152, -0.6131653724592673, -2.208061367536142, 0.33257160398539365, -0.6030729455435739, -1.130690031454803, -0.4722187199431507, -0.09535989152258001, -0.08618328375198475, 0.03277895801517843, -0.4088393248554834, -0.6803096425146837, -0.3390413020869856, -0.5642536734992588, -0.1657565707722837, -0.5447267792265623, 2.682850462735169, 0.09420645802260576, -0.022776741792226995, -1.1107823824381293, -1.6324697087227038, 1.0196688134114367, -1.199750054433258, 0.30275148863439566, 0.866686155142423, 1.1990717376532973, 2.3135017612708757, -1.7478911016048033, 0.5534068027077297, -1.4640659098163618, 0.21823910584688558, 1.4081576616597882], [-1.026274266053763, -0.3212057392977369, -0.07430971948463895, 1.6138523372264355, 0.4149334430569807, 1.0133502869103226, 0.5979735219431379, 0.771094452338892, 0.6024824371648364, 0.23541367568487437, -2.799753900165126, 0.38181594711341893, 2.674386369971786, 0.5661260619246548, -2.1994297065029205, -0.5978777764256894, 0.4478351310310927, 0.1869943981296432, -1.5654129327925195, 0.5004456538518809, 2.09012384357909, -0.12956333231962514, 0.21106900648916285, -1.8669868936916265, 0.8572623720067875, 0.3059626392637147, -0.9453345300733355, 1.1243693815159268, 1.5921962790523723, 0.4571821848491414, -1.1193290697852807, 0.23998790843983667, 1.015358410896593, -0.005666611361828671, -0.9172844380167368, 3.0727901239269575, -0.7905135786197205, -0.5708270185179212, 1.010098239518659, -0.12456143896763595, 0.06849154340384359, 0.6389904451066126, -0.3114716220208161, -0.7047146071990815, 1.2313676710877755, 1.255617430502269, 0.9696946320764682, -1.891035739855126, 0.7328467093746796, -0.40887806160850665, 0.047931123766287644, 1.0243895362642281, -0.8452831635278353, -0.2254743867377039, 0.9997265725000113, 0.42828184078115367, 2.368832165316903, -0.18350321946358233, 1.513895989863148, -0.13989852152653706], [1.479923317029689, 0.7151242732419582, -0.8218998257562368, -1.0993135726090126, 0.41853116025127546, -0.3702330783302665, 0.9108518339620657, 1.3476920060343385, 0.22127073597529578, -1.2937652221471596, -0.7156204331358099, -0.15110867661905858, -0.287812108748649, 0.11535892896286151, 0.9557983537909, -0.4780637174342191, -0.9862664389571167, 0.5042614460632997, 2.007344552472997, 1.0394790312304394, 1.3487354266487568, 0.10786290897608461, -0.5434345270285842, -0.1787650446796725, -0.35397052456088396, 0.7171056569118817, 1.6606357923497717, 0.4515949462761626, -1.2082033570551862, -0.6446636484354563, -0.3238751607010724, 0.3265877741073764, 0.18013911562584728, 0.504861704862832, 1.5039579880466964, 0.3236828556375145, 2.4942131529021885, -0.272392709595357, -0.34782328380879163, -0.25890324685294897, -1.3106928323770635, -0.364359087197516, 1.2760767938367565, 0.8261939521301664, -0.2479339191900534, -1.100264114668693, 0.8530974298361497, -0.34329542645698885, -0.8454360799014912, -3.218606052273369, 1.921680813947663, 0.3890198369746299, 0.5813530224896073, 0.5838581354223106, 0.18276018453236148, 0.2296506756716359, 1.0569381636970734, -0.08049681928527891, 1.5630006280310798, 1.4628759396724935], [0.900822999271091, -0.12393170830631543, -0.3875463213385725, 1.2533296149374655, -0.3597519577157485, -1.201582668456787, -0.7060826512575321, 0.3388208767357874, 1.25355101832299, 0.7781413479514908, -1.0742432392358907, 0.07011297994082608, 0.5715048106484264, -0.19080856396909274, 0.5255396579483534, 0.9367270597854944, -0.16402979304528834, 1.4288716831928385, -0.26035413771148647, 1.2805198439064367, -1.827065664026893, 0.22809003961789354, -1.2051338697815754, 1.8871728227060127, -1.4271032148176483, -0.2434055342431339, -1.4907282376855127, -0.34299781129498147, -0.2494236061791532, -0.3676280774690456, 0.10058741980684532, 2.158307580542077, 1.501804979227928, -2.939354454087853, -0.0685171842066923, -0.8837201541839106, -0.2977712363418969, -0.2842510513565737, 0.8606913886616964, 0.1408185038443733, -0.1488892830456401, -0.40008745843612736, 1.2310458721872424, -0.5220989080404098, -1.4335434313560609, -0.3537482824311158, 1.342416046258906, 0.47160113635697365, 1.5424023678107108, 0.31209274059883885, 0.7127006671862083, 1.277692912343847, 1.7183167218440387, -0.30936177196201997, -1.848633446533829, -0.3030913798379921, -0.330422244601012, 0.543855245903611, 0.06325794997320859, -0.12630606757472831], [0.26154247261428, 0.15571551304249454, 0.6696249185397798, 1.44294813698093, 0.5026209847675321, 0.31645250432728916, -0.45135639938002875, -0.10592222639820222, 0.6920178471278826, -0.5652631145688848, 0.9046676376322285, 1.4687506220969144, -1.1016944879195094, 0.22135538479107464, 0.8480867211794914, -0.20838607451525606, -0.9513223044638563, 1.5397955605307811, 0.5999178006483147, -1.113561271256277, -0.42271106839105754, -1.971517483923114, -0.9978884006582179, 0.03424649583063415, -0.8265427599859625, 1.3945097404088593, -0.25055508900088047, -1.0479456596694836, -0.8012091774205075, 1.865462434781025, -1.0887557880495036, -0.14350625345262974, 0.24493831608992686, 0.9186637024944257, 0.2684008246921377, -0.7103539488381724, 0.26937822881503687, 0.17653026911036507, 0.049708117944111965, 1.2005636140322276, 0.804854106090149, 0.7287843691322974, 0.19279993307382035, -0.5950744583618475, -2.4111101367514793, 1.4158982439287886, -0.7849330672331732, 0.22746626448437557, -0.5053806524592904, -0.10584078406147333, 0.01869566958869472, 0.40677623079590447, -0.7372164415186738, 0.014458872227354926, -0.8121427482120511, 0.5344368512202967, -0.6445441598775079, 0.11200332514580166, -0.39644089034341995, -0.059949688903254805], [-0.6573706722015621, -0.15937839501645948, 0.4138090642828717, -1.1228123555733838, 0.23379482379409963, 1.1299548034134277, 0.5068404380110859, -1.079727559926663, 0.4144158865679702, 1.4212880556147385, -0.7293873484447483, -0.9373228085600581, 0.39181948910261816, 1.402157507631878, 1.028782611435133, 0.9526349625973067, 1.8281668897865255, 0.05039740648386297, -1.354428911695841, 2.0116066076905836, 1.5584594810119299, -1.4454871649997851, 0.4000207420186231, 0.10582474714475619, 1.8482823071197674, -0.581855319260904, 0.10989899040521438, -0.23438920985497613, 0.6361739337322841, -0.2583529254498289, -0.38583993109759396, 0.2896836875407597, -0.3656423516739495, 0.44613699944897584, -0.8027286754883807, 0.31218571796072353, -0.3078814060470701, -0.13118432347997575, 0.26334070669899223, 1.3498897425224161, 2.141863855968979, 0.06480495047916753, -0.7567329256365269, -0.837669177645888, 1.5424001086821522, 0.7509740530006462, -0.6106651348768832, -1.7521803221063508, 1.206583037280725, 0.07666369703304696, -0.714643341395648, -0.9630039298748144, -0.266696111075664, -1.016196070220641, 0.9361457549311275, -1.5973485811423835, -0.434616221179464, 0.8300185302961817, 1.5984902606942772, 0.358774571738479], [-1.2742245662736904, 1.2167458280710752, -0.98702030800561, -1.7775304785926906, 0.22323758550700784, 1.6930406753621992, -1.2954241378611069, -0.6916865528831213, -1.290749628272495, -1.399754964427764, 0.6959172249824178, 0.9166801434567001, -0.8640705904634678, -1.2951690335683848, -0.44189768909492844, 0.3671222557995228, 1.2076256274062052, 0.5029642879623608, -0.08559307001582235, 1.5215288668606193, 1.3548661117540246, -1.2027954077598635, -0.39485435481346814, -0.11250842265992299, -1.082384934935929, -0.9455228317965801, 0.18281851976322847, -0.3740267204440892, 0.5210406679023097, -1.5289853889861564, -0.6638371033717438, -1.3707688941925826, 1.1759113940211143, -0.673615281692837, -0.0035308673958546056, 0.6879315901874115, -2.51388054810631, -0.8101753631049141, -0.7220818589237283, -1.3794095431346605, 0.7933684184834309, 0.7155071936683796, -1.6303401747293504, -0.21564432180730894, -0.9213508075232798, -0.10060589162897768, 1.0358609338243001, 0.18386022335762545, 0.2290656973182833, -0.30532896335924403, 1.2150919681762147, 0.05687546711830926, -0.0073195822873791325, 1.0782902457069334, -0.39532460368024613, 0.1630878656563755, -0.2274558563690037, -0.4901836089507178, -1.1604726343147265, 0.9246200284927822], [-1.4195611510580415, 0.6988885654226455, -1.0933119087958596, -0.11501769575688113, -0.7875800412080598, -0.7565216901015185, 0.201390984375632, 0.0787815891601808, -0.33829353763898545, -0.13624988081312764, 0.010811907065054345, -0.6039095780465382, 1.0244639122789023, -2.0180866219474844, -0.3826108735440812, -0.17996544504390175, -0.20416876487759753, 0.05162100128441123, -0.015768622161934885, 0.5066753601804611, -0.4638697988777719, 2.073649045351309, 1.0477556733232416, -0.6949723374369781, -0.2798400640895453, -1.5018051103148813, -0.8396127273254509, -0.3450322023281358, 1.2027165223642489, -0.010139851668686061, -2.7289401311645958, 1.7238460178452104, -0.35658963809869665, -0.279384700385532, 0.26029266148455465, -0.0334524950858824, 0.3337649226719568, -0.7976332735204114, -1.9250930270507343, 0.08356369251130552, 0.14092517164350055, 0.43107368960862674, -1.5968859980940449, -0.5024545403824682, -0.612647965385856, -0.30049104697795814, 1.1207021643985775, -1.2184475176987883, -0.10531532237457707, -0.40662588045031217, -0.444904293537949, -0.7520501133625727, -0.11054195619956043, 0.4383509454066228, -0.02377404602962963, -0.31293827245694034, 1.0738759011576104, 0.4499258239225391, 0.21451582509433817, 0.38573162809238243], [0.3291241280297467, 0.30327983116360446, -0.5081037626673737, 0.4633106430484096, 0.9702669938578309, -0.5211039454209824, 0.32758119760517473, -0.6261424943458685, -0.7588449493601229, -1.376409567001666, 0.30063312932918007, -1.1365687651102574, 1.2157419630236346, 0.010147543540905558, -1.3816308173566556, -1.0965397602238949, -2.337944811995957, -1.7659515195309297, -1.6764885372911018, -2.1214610893011256, -0.1440594486737724, -0.8488758779245608, 0.6042635355617105, -0.477862089005903, 0.5610757976559221, -0.8661458812559617, -0.6240786896208153, -0.2741918209216075, -1.9332735625377264, -0.7168815343933848, 0.1678110449960256, 1.4016358727071094, 0.2610460942874778, 0.7811073983095068, 0.2734225816393502, -1.9321642865433197, 0.6477015103579509, 0.05960722405883128, -0.3085220628893554, 1.364001667485229, 1.3047853674660712, 0.49621349092488587, -0.5592981631415594, 0.3632972168596318, -0.6898257584453876, -0.1574713301392682, -0.2149143812853228, -0.3902898254751211, -0.27231572521343494, 0.8784174128044276, 0.06926636150577813, -1.0655025716894377, 0.1795255597108116, -0.07112215623218425, -0.5904755095022797, -0.5999444089775525, -0.9368443727266768, 0.9399825214574103, 0.42956818671223407, 0.15486787557338266], [-0.7384393719492724, 1.0047593192001687, 0.02006703923601578, 0.13576634558474202, -2.4341990119584205, 0.9092730403202919, -0.5050973377063052, -2.4014642801488133, -0.4504214540584274, 0.971863253318188, -0.48227534362165836, -2.9690186397454505, -0.8762540035662385, 0.413118982206074, -0.7470264135911137, 0.44856356160013283, 1.2018151932713514, 0.005752035997813085, -0.45425811239857256, 1.5266848927303514, -2.560031182649678, -1.5937741433534443, -0.46917000675256076, 0.5428474157997895, 0.19013120720273102, -2.3718033171146424, -1.1679139907733105, 0.017193056818235023, 0.5812117551051785, -0.007405678447400619, -1.496448851231151, -0.05882067484973158, -1.9913078781274747, -0.7559840565948441, -0.6885574638592052, -1.6924764981123728, -1.2077602143840813, -0.8429818621429893, -0.21647450336922233, -1.2751203012638608, -1.0642537712299653, -0.7430466009908978, -0.3952603335599699, 0.24115153740557432, -1.3988059972706604, 0.8681661906384327, 0.010116024723318686, 1.211846031295205, 1.2547245148088844, -0.7640438551170372, -0.7529311196954418, -0.6217134703882063, -0.11018836342609352, 0.14646572055163537, 0.857572163716688, -0.1981347737532975, -0.36499316536096854, -1.0601456339724775, -0.32524085531954017, 0.10573488036102095], [-0.7058484529956265, -1.1212233797363633, 0.4454501485271657, -1.7905569545697482, 0.22267350784198287, -0.8782884244032435, -2.0833775792090767, -0.36500418270236357, 0.16092027361092825, -0.6699081495797912, 0.022425782473303, 1.4376751766590432, 0.5722769948777683, -0.023729628898514283, -0.9199941259101103, -0.2222654193851439, 1.8993225541637837, -0.13265034123393127, -0.6498236327012246, 0.4852725669792174, -1.4933120352942202, -0.024819809304612722, -0.620831293544493, 0.9344567918358435, 0.6460685845901776, -0.8099211480243038, -0.2597173034914972, 0.1952435538122845, 1.0565098278820848, -0.04369548197114271, 2.2171630555550115, -0.25404080300872345, -0.5178448589488183, -0.49278280154941545, -0.28024292617566926, -0.059394472103234806, 0.4815556759980741, -0.5630319523153509, -0.08750501890422151, -1.5345580182960297, -0.15551581183229615, -0.7966701923433099, -0.5530463946644945, -1.0069474107836756, -0.08806852220947108, 0.06421419056595129, 2.4003465694778034, -0.5414968052565318, -0.5876198107508537, -1.5029339363806287, -1.3513792431400593, -0.7701526878503168, -0.014963682489858594, 0.22433658081783683, 0.7509427361762423, 0.5332875696788816, -1.3820386285296744, -0.17063147529838574, 1.1098407365799519, 1.231073233688221], [-0.22089326311616653, -0.7474402351224778, 0.39513119329435015, -0.5078376933666696, -0.5440124587416257, -0.414209302580681, -0.8408171911620811, 0.12837152728854392, -1.137205206015194, -1.7052564735849542, 1.3169837577443781, -0.23029642406560988, -1.0809577351194812, 0.6171596697867922, -0.6420026538127308, 0.34067584768426407, 1.1064579819714455, -0.9678156400122604, -0.4550375827578501, -0.23008292673158942, 0.860220101197388, -1.171415198445671, -0.6645071674763074, 0.24765910774458674, -0.5176667304389136, 0.6812071109781476, -2.00172557868185, 0.7905275753413205, 0.4794171094938394, 0.6056118605705265, 0.9735108002096173, -0.8028832479839882, -0.7332832043039461, 1.0155696074640883, -1.1308967218182548, 0.6763816198925646, 0.08514602059405152, -1.0570901943140285, 0.41173438448522226, -0.03503307239619213, 0.1196033550598659, 1.5716821587422851, 0.4411249223959304, -1.65098015252059, 0.6018576756738432, 0.39970401054492133, -0.7804236673363677, 1.9028458186938118, -0.7783446971165917, -0.4930796569836895, -1.9834790206158823, -0.517502731885141, -0.8749081232041757, -0.8105983081936079, -1.337852017999678, -1.3601022570742052, -0.6607503772457864, 1.012377448464797, 0.1059052433086937, 0.17547653072049593], [0.6360242628497019, -0.07953992095340195, 0.5574140145523131, 1.374103431370232, 1.6530061783712489, 0.10803814311172674, -0.9076701827113269, -1.614608781665704, 0.060018779585246616, 0.7688059514786253, 0.6394967568260893, -1.0956198560849426, 0.1309989723359466, 1.8765720727259418, -0.083439159528812, -1.093640688979693, 2.0502550618766353, -0.508016463997391, 0.8794723762369814, -0.01563360782038469, -0.10471950212857765, -0.025895704218884017, -0.9005864606101641, 1.1259952550386638, 0.9841412679811763, 0.5465764833696157, 0.8450555358101166, 0.277414369237884, 0.5073865098328049, 0.1130399560805772, -0.15946468484716808, -0.13272373808795476, 1.4746727269745474, 1.33757207634096, 0.2668446024133243, -0.6456568682991646, -0.7050559434393684, -0.7494627843555225, 0.16023384370083693, 0.01809261798183221, 1.038584369891072, 0.37226699620448017, 0.5808028293436505, -0.34552588387085326, 1.1113116524096944, 0.43573002174834813, -1.803932831430366, -1.1190947109720217, 0.9285408228575581, 0.9943227973424236, 0.5029269442532436, 0.09543730569186282, 0.12300645407633119, 1.1297717193407986, 0.4658563971757127, 1.0346391399103851, -0.34825057086902855, 0.7622922320554512, -1.5063549767481448, -1.260816535003996], [-0.959220590302929, 0.05342714117311818, 0.5704097988981742, -0.4571879980040605, 0.6498928307836683, 0.7758655262059398, 0.4348442492946508, -1.9999750792188238, -0.3817528192876757, -0.19743861482410496, 0.07325026238156652, 1.0872674377343925, -0.40962682706075976, -0.9135729723948456, 1.0414085673110858, 0.8992194050584723, -1.1859769921747179, 1.0180539800649588, -0.49930156537436887, 0.6577026109789257, 1.0840712366240812, -0.5882169127145488, -0.7554287106201212, -1.9474423578157072, 2.639869350737687, 0.4471838885535811, -0.7287354157785747, 0.5124377585857929, -0.4207879091559888, 0.8760310470728769, -0.9403828322973212, 0.2793751128410741, -1.5413216392407572, 0.9356310288468377, 0.9714490562928076, -0.6276918414712973, 1.7650867970457371, -0.2803338119039188, 0.4059924834218689, -0.009401703816206856, -0.45272454461936873, -0.7145811024590814, 1.7865682336263087, -0.02210222492998354, -0.2800554359751692, 0.9065479894920198, 0.9520419084111513, -1.7514109040026353, 0.3694807882513646, -1.5813715430645305, 0.8982843493798751, 1.1398066772893554, 1.702477117584023, -0.5412118741729057, 0.04228772778335282, -0.5600175875282953, 0.8833958389497477, -0.5002532083141734, -0.6788122504646743, 0.5265737416398344], [0.4264107028097091, 1.4303174504394278, -0.09011989704482877, 2.58449014842738, -1.0764132694571686, -1.2651672701971373, -0.3869897707533639, -1.858733026089709, -2.9914592577000674, -1.204313579322135, -0.5234312353957082, -0.3642155774336267, 1.0878978515215751, 0.11326848319522542, -1.0992254493186877, 0.33777679888862494, 1.4155292909062376, 1.4482375964894594, 0.28753974629576173, -1.2276688098637398, -0.9882527364992546, 0.9860060360544672, 0.9850107042345011, 1.4388804546160285, 0.9808623466032884, -0.5909466440167693, -1.018443256629793, 0.5049772966835904, -0.6420481956498616, 0.5674541279881763, 0.1503944454391581, 1.5760770718489312, 1.188446259726144, -0.2828304311303178, 0.06387186552513642, 0.13968682568403348, 0.33402616190820067, -0.4209211376495499, 0.6337993614068483, 0.3799118912193601, -0.23719138107424123, 0.14025640798747094, 0.2350592613572359, -0.5819680851300434, 0.6459492599352175, 0.21491506804988392, -1.2864385289905376, 0.2956797573773842, 0.2411739993886944, -1.1043028904895742, 0.9925633646554498, -0.7561137735899803, 0.02382824496582711, -1.188592164746411, 0.4188640010002571, -0.38827850776323103, -0.43436701216856705, 2.0482957360268856, -1.92489623304261, -2.020058581477603], [-0.9356178262049711, 0.19499900650574734, -0.9904930520300853, 0.6182480598427541, -0.1325386244417122, -0.5484224384617863, 1.029983179369392, -0.02271299939352302, 0.6105986851384438, -0.3022560988470392, 0.005143459484622174, -0.972255512607459, -0.9713926669879468, -0.545546304221793, -0.6792824863816954, -2.0574081028147617, 0.6206244854407288, -0.04656346263030678, -0.1385240950035147, 0.3627372589720478, -0.8048945836172987, 0.306338561396366, -0.914805718394777, -0.3182104235884325, 1.9404411131771275, 0.8129801801948454, 0.39134869068479894, -0.7553802103472406, -0.5750164079858316, 0.5243272965126274, 0.49987200141737237, -0.9934057158163169, 0.2364298931730931, 0.702482544607301, -0.3773800456718867, -0.52332753179902, 1.2725215716734257, -1.0994072284222334, -1.1883202119763276, 1.6897580269643444, 0.0794833546805064, 0.7740124433603742, 0.8633846355293788, 0.22341366292600012, 0.367626050687402, 0.29150760747944743, 1.2702192218336337, 0.6837067824035656, 0.14515788931011614, -0.7153538130444803, -0.5650172299059372, -0.5791734937543338, -1.3952498635262796, 1.0071766651786782, -2.237406166822532, 0.8226401980672351, 0.1524466322387458, 1.0831651445441677, -1.850664808046544, 1.282154037152295], [1.8708225020731375, -0.18396179157888043, -0.467725178843832, -0.40132931197104255, 0.37517491664675073, 0.3423757032913008, 0.0006792566132851384, -0.7834398478125162, -1.2602126559948832, -0.8889222272114167, 1.050729754081472, -0.3374742499906878, -0.28806166188335397, 0.5675882320767592, -0.27234212518687995, 1.4715379576747118, -0.8341484533975677, 0.31361839676565173, 0.03657708970069558, -0.5420706242979472, -1.1247391957564996, -2.3571671653751904, -1.5080802684312056, 0.3749794029242685, -1.7071038877751832, -1.0197086731855898, 0.8854922432769681, -1.1510625932109386, -0.2516510938566113, -1.9138650185099189, -1.0911438307507548, 1.3690597807941838, 0.9446588223754903, 0.5391179371675517, -1.2259093200329474, -0.48516256519431983, 0.5501028997806181, -0.5553497076573568, -0.4883068997267059, -0.7874275944573051, -0.1569243281981326, 0.25668256022799807, -1.4214834833651784, -0.8869246062702568, 0.811512828499256, -1.5844617069867175, 1.3024442378476062, -1.4041142921087064, -0.39647783648111246, -1.9444714379700683, 0.4104995136226997, -0.9733030336826294, 0.6344442413513122, -1.7700238757922797, 1.0084125705047469, -1.0384842555052816, -0.48238409673460136, -0.6119797544838759, 0.006746341949984889, 0.7934635363275043], [-1.1043515321849786, -0.40045096473522257, -0.3885203351901125, -0.7100378029349793, -0.45163703872659305, 0.08773402836821441, -1.7969171268825215, -0.7892469642989048, -0.038226684103993026, -0.2824928449626765, -1.9268447864289575, 0.16691143104692943, -1.1632533059358625, -0.6853546742722953, -1.3427672557570898, 1.5855894762163842, 1.38821238468739, -0.4230776542138384, 0.5930589928525268, -1.984728947527545, -1.310568167707801, 0.7794385787505927, -0.1513397389554804, -1.9762803361470653, 0.8401326493709853, 1.2987889844955502, -0.36405447098279436, 0.2541958352265455, 1.0903384185674123, -0.43267148846934683, 0.11349552646558354, 0.2977952087843231, 0.32635444922448076, -0.10368457008143878, 0.3967563620226498, 0.18998685304658827, 1.0507794293658637, 0.8681452965157787, 0.3717414123221468, 0.1968369044140521, 1.2637080225828417, -0.8564052934560537, -0.8839852087391074, -1.805828144805732, 0.29766431270355104, -1.9891298026294142, 0.7286149442740122, -1.6419097160121003, -0.48656639752444614, 0.08869950229376287, -0.9157241418816189, -0.8424725630094008, 0.8148782007564929, -1.4123862019414015, -2.2346270527723684, -0.4245238790363169, 1.2279920234170079, -0.4627381377209357, 0.07591651584807124, -0.38281654495014866], [-1.8587783236520545, 1.6572405263237457, 3.7648854906472815, -0.5390160046467538, 0.6758716169316306, 2.3679855076787173, -2.4709769477609442, -1.0736996341221332, 0.5919808735591197, 0.6438259718785635, -0.5297995159780761, 0.7858455652634548, 1.177609901615948, -0.3022881374896043, -0.21137653456515107, -1.6759450844446662, -0.9266487653796294, -1.2820432092929714, 0.5009206187327238, -1.0116196354087612, -0.25989588605301317, 1.7570525362157101, 0.4020137056602343, 1.994947191512657, -0.70508288270148, -0.058152344938110924, 1.7760127322061412, 0.059823371914878555, 1.2534232389730782, -1.6709855684670103, -0.4516336494688672, 1.3362270075459928, 1.6139712554031422, 0.8279270110478907, -0.7960211932066961, 0.47719602593642185, 0.576066521523679, 0.9813959315168872, -0.35973713879908964, -0.4247764683156928, -0.5545238156716074, 0.7058377444391601, 0.8080587989189417, 1.389358329702718, -2.6515529013052275, -0.5670515092464308, -0.3376297304031974, -0.6483535174896531, 0.06016826846464452, -2.0728885788655838, 0.3056231616554574, 0.17933620877863357, 0.3193416998922739, 0.838755129822436, 2.4028958571342667, -1.1767599044840136, 0.01568003542170879, -0.551755376645969, -0.6329873131854128, -0.059217846843358485], [-1.370088737710292, 0.45551298197752266, 0.2856897721563924, 0.546229154273905, -2.0921791460108627, 0.10754614316201919, -2.168095331921638, -0.7974647412413035, -0.5417235497723208, -0.912893135232486, -0.17653187323591205, -0.3286956393346102, -0.6508479705991913, 1.4325749883879342, -2.198283306916611, 0.8275773406899785, -0.8438405682681341, 0.18102839485079036, 0.6448331655627277, 1.0409869411667512, -1.4367889727871146, 0.7473377085070814, -1.2427833656161527, 1.652737150855042, -0.6339577549778949, 0.18811159471055955, 1.7187323659044123, 1.1301581175959978, 1.4979561920888347, -2.660236063514804, -1.7256621900597027, 0.09046551671595852, -0.9460777427506886, 0.3971306450078987, 0.572680363984503, -0.7066755280986061, 0.8861192680521051, 0.3818725898420463, 1.240173308233805, -1.0543983830210981, -0.7392498036868339, -1.6625192042474768, 1.5815027270117568, -0.945715642641705, 1.3016672960951248, 0.018372845268872565, -0.6921941366184218, 0.8494733967393919, -0.016124410953778506, -1.6404556633634655, -0.8402728826071317, -0.8986789885134993, 0.46840089200517426, -0.5058935519465795, 0.5864346857934256, -0.013310107997014552, -0.31159262701519586, 1.485851792720428, 0.932711759024287, 1.4842913347661597], [-0.6129099568351508, -0.28521128814408475, 0.530302741642328, 0.39147317889768285, 0.3392286231429397, -0.7793914603065281, -0.565129082632979, -1.0342370659862066, 0.44697400451785746, -0.5481575775471499, 0.24514041992922608, -1.9721773923911465, 0.5360376724169169, 2.372698652130257, 0.536837326737457, -1.4738758676596333, -2.1944010010976744, 1.6091737137430553, -1.017211979111728, -2.3176695370280234, 1.3657572875484176, -1.126177128491492, -0.8823026387770829, -0.016761709343352315, -0.6216519961543221, -0.6085453760076925, -1.2169092761843043, -1.117818862573097, 0.5762831127128455, -0.2905193390354397, 1.0219526423799519, -1.409765916934073, -0.7361260179218183, 0.030083411689007862, 0.8519487126901468, 0.3432849461802093, -0.7870850230745311, 0.0305193192547353, -0.14969072362823094, 0.30736188711639, 1.0464599980362201, 1.4991918873038637, 0.001205257384221674, 0.2276012162338973, -0.06102672883251434, 0.6890537489604314, 0.4987365953910147, 1.8286602350113392, -1.2136051068419862, 0.30875153208971934, -0.007600617269974161, -0.33238790681423364, -0.017209109853306523, 0.2431771173021054, 0.9919728126682609, 0.02608072492079044, 1.22956210069896, 1.8278086432566267, -0.24520584886116928, -2.5610441913826776], [1.8235434949015403, 0.23125912079674357, 0.2140210952822113, 0.41243128187888783, 2.569083785934748, 0.0628816867086345, 0.57258947991944, 2.1832889260327457, 0.45838496792264877, 1.5929674755622725, -0.33392044775225854, -1.2861599674076731, -0.24279362414093877, -1.0056371015212984, -0.8721149047046416, -1.5580149242511738, 1.293775688760434, 1.74956976846046, 0.06558584458187929, -0.436426765536504, -0.3428326916630662, 0.1885218790706267, 0.17241616186570835, -0.18107462754210543, 0.6469724509306172, 0.00031728957752372703, 1.6346744783458662, -0.3637981894514566, 0.5183594947154027, -0.2591771760298599, -0.41636293767384963, 1.0597253362167334, -0.23661306257982265, -1.223235599546535, -0.1907301999429332, 0.9022250387081322, 0.9331160068229565, 1.0547690538888295, -0.2635621148036836, 0.4743137731282995, -1.6713782593507234, -2.6028013170699102, 2.025654277341552, -1.2504625578468036, -1.0532487560618689, 0.4090671926036614, -0.8750709971239463, 1.0037002345785588, 3.0964247954992277, 0.3037795594147189, 0.6345874814795675, 2.2869263650910425, -1.2521212117133202, 0.9903673717498882, 0.3263765606973028, 0.39031434765351286, 0.7579896779733304, 0.15660618836957507, 2.0760654521650226, -0.08237418468084506], [-1.3651629848764877, 0.9980917694996231, -1.8538234590355418, 1.970829557295674, 0.3810074027814414, 0.16750237061667997, 0.43404995882003133, 1.386143244221044, 1.5011940240491102, 1.760652585821181, -0.3524383306170515, -1.4593010438097063, -0.18568312498021025, -0.7103147554661796, -0.22009965208297416, 0.06925953148896023, -0.6315879181380861, 0.31685735702642176, 1.2965175335957158, -0.7235429378810424, 0.482679179972133, 1.3991107174142046, -0.39588297815873597, 0.6832825903677148, 1.135489267606337, 0.2870666802836527, 1.5851413856881993, 0.17129545725654108, 1.1191676013883554, -0.1269890619127026, -0.385266633389349, 0.1939836941420653, -0.7663600936253939, -0.6468646132491966, 1.2136779387852434, -1.620945820329081, 0.14983847550763313, -0.23191463770663356, 1.135521137369645, 0.9346102123000459, 0.24555853896241533, -0.3371148604062825, 0.5371513180759606, 0.8640905909572453, 1.3332716382273444, -1.3516486592897292, 3.0564051679750484, 1.1334770345465432, -0.5179877870447849, 0.22977793065167812, 0.6935800526827314, -0.004463781831178534, 1.3182357037048367, -1.2023951955960042, 1.349157055388184, -0.955241424451569, 1.5711465125686752, 0.1738036029509987, -2.11099807695289, -0.5298564737704357], [1.7408664416343242, 0.42349454531753605, 0.7092175442212381, 0.011027912975560848, -1.234596913683224, -0.5102216232461234, -0.9439116142500653, 0.11405064884138492, 0.3086393433754447, 0.4055490647253642, 1.4339856924085068, 0.14274849122616082, -0.6096864152686441, 0.6056152651216984, -0.831519816758376, -0.39353328813435523, -0.047843131806355285, -1.1803479490937452, 0.09613108518146712, -0.3622625897595198, 0.03890257677080904, 1.58608835225873, -1.1716433282833696, 2.191867794605835, -0.42677685266613774, -0.7420078192244358, 0.07080152971777035, -0.7123256185881041, 0.5574325996909929, 0.9852392867498577, 1.244610076899219, -0.4268433132885848, -1.1646307759206649, 0.06526418399250648, -1.0996407669477384, -0.4132955307086041, -2.016524800126774, -1.4762131388340158, -0.3753487421413663, -1.8143983161684933, 0.30718063395875106, -0.7168915494280466, 0.13704212753335213, 0.6991982609224153, 1.333295079823926, -0.7322796919061401, 0.6855310763269787, -0.5369670487297887, -0.08402172642020832, 0.6212645791480521, -0.3563055547183442, 1.3838243160408383, -0.003923601435903559, 0.6347819013179999, 0.5489787562953969, 0.24283481815298766, -0.5375640741671514, 0.3636471055894976, 0.1488806105366981, 0.9681209315660161], [0.7167193133654809, -0.4139656665211353, -0.3602432613155908, 1.298118215819521, 0.2513009115772359, -0.2914575075963888, -0.4211575712598423, -0.8302495384344019, -0.24534667103312272, 0.12039982086839313, -0.15671529753333996, 0.9229688860755048, -0.44426588935293926, 0.5344629858884725, -0.04608104315831151, 0.6150975675413504, -0.7610811219305439, 0.2617051959230961, 1.1244587876695493, -0.3643154241583744, -0.459118187160406, -0.8442714669694773, 1.8204122613233749, -0.6157098288128896, -0.4235440495216486, 0.3307066045797645, 0.38244115220361524, 0.9487525640040695, 1.4145329469829582, -0.18752143253143821, -0.3761565265239919, 0.2719745392170726, 0.73602933568954, -0.02657582527930414, -0.14642770099308214, -1.0932121287873382, 0.5970763284737641, -1.516464801557726, -1.0208490127893508, -0.7376108047961967, -1.379479493334057, -0.5284574109598423, -0.8982715745002213, -0.321031328664969, 1.196181869116233, -0.606561663302981, 1.0991301931228166, 0.01926444578647662, 0.6245667184614535, -1.4649057825562437, -0.5340481710636171, 0.9836593071311136, 0.7201975670434068, 1.8997812963343068, -0.043849050612612704, 0.8438756279522753, 0.3050238413245184, 1.2285844978957792, -0.8265372285028588, 0.3596238230954479], [-0.5896175772962218, 0.5536393574811471, 0.4445586243418396, -0.2271333810214581, 0.4632940135038832, -0.10551915935546652, -0.2992781913409944, -0.23266088514578565, 0.11126248950938723, 0.39105717233274484, -0.005798277345494093, 0.9849277433061764, 1.510471866132361, -0.25498224792197344, 2.316113714106022, -0.0370549030800277, 0.5866414831792351, -0.6876538034702707, 0.33363839809732265, -0.8252127349915866, -1.5996890267488466, -1.451463419200782, 1.330457906334048, -0.45670333755158676, -0.6025051493601555, 0.2486911110859383, -0.3533883419770096, -0.89768931100775, 2.4418405819963915, -0.8301228122430905, 0.0012460644177253028, 0.8936003907773534, 0.7811754182709263, -1.3556959823590127, -0.444520162119615, 0.7164321769567137, -1.0159262184986375, 0.14062702449766698, -0.5601424828309343, 1.1979746918232477, -0.6765108052039392, 0.43387178148799005, -1.3468505803338138, 0.6880538385884309, 0.4085814653626359, -0.7080411239913094, -0.7188315907999987, -0.9756696905901056, -1.9762767394927718, 1.4680067488583284, -2.142670589285503, 0.34120102210188225, 0.7040743834652876, -1.4523133112448579, 0.7047557888961163, -3.3897073401480604, -0.3928525699720146, -0.22799131102419312, -1.664175050953958, 1.1284414210712301], [-0.35616608148633466, -1.6655584563835328, -0.5439237905644465, 0.3504050681533393, -0.3164606504741586, 1.0869258885918236, 0.26026985831456667, 0.7595557625152809, -0.14879646079320075, -1.3838311493616664, -2.204419952177233, -1.510896883694605, -0.4817290317390906, -0.3764396281337578, 0.42579975966851114, 1.3591668361015081, -0.8805267504353288, 0.12247949335815711, 1.12900021263614, 1.2012430052123362, -0.581080646927309, -1.4292290047661405, -0.217500620674363, -0.21666812476661054, 0.9759102353733502, 0.17836370810897015, -0.21859103167862026, 0.03463426104052609, -0.20377052831763556, 0.554929070169808, 0.5582898378757719, 0.06992096843663148, -0.08097547293389745, 0.8845976125789496, 0.6814043016482655, 0.47646118061805526, -0.008035344300447396, 0.22266355171642915, 0.27539938479624987, 0.40506207511970554, -0.19198474722527673, 0.9418035254717446, 1.205792056534889, 1.8162934022099528, 1.142588328651165, -0.27553252066299505, -1.51074669060001, -1.2949202415146177, 1.5415637890537863, 0.3904790208599086, -1.0695558041348345, 1.1327245862929864, -0.6646883813413069, -0.6014911111714147, 0.13069038378413078, -0.524355933969754, 0.47054178952442366, -0.7877769914278302, 0.45727936879831954, -0.5972531470705026], [0.7978912968956223, 0.40008979036120024, -0.5405212951644854, -0.028642752432337135, 0.5980954951354331, -0.3943759154816731, -0.18689340247992467, -0.9053657473508359, 0.5040337087847577, -0.8488731708513394, 0.4852809303560785, 0.46777341396329036, -1.4394552557812055, 0.5609035688488251, -0.32995053981802147, 0.38637592349786987, 0.36007760749295087, -1.235622423861394, -1.332410872326745, 0.8216276141235621, 0.05523664134548962, -0.3243066906847184, -0.3287977490286629, 0.493633606679995, -0.35511948598439463, -0.8357313747990457, 0.26216249132482045, 0.08448463609370387, 0.2985073900699148, -1.0896351668523891, 0.004712577470639454, -0.5063658234725048, 1.381599465214572, 0.07474202466830997, 1.4465890102510246, -1.3802650518080748, 0.19301196658749287, -0.5174824166524444, -2.4913568071997885, 0.5913437741877777, 0.009840583886039906, 0.6421766484523188, -0.25474363098845615, 0.09571110513598015, 0.34981569525020934, -2.713109149898222, 0.21274795317125023, 0.9863964427083582, 0.5043132493640596, -1.4360059942082846, -0.3106671608258628, -0.5182751173184035, -0.44256869737094734, 0.47473093907539554, 0.19911056156613313, 1.0254987815901957, -2.2810844572996887, 0.5955345092900094, -1.472451033650247, 0.24074175277027535], [-0.062320129345044564, 0.15488868610213588, -1.9040135159179468, -0.006699228631788365, -0.03181280470594253, 0.8981620301989702, -1.6181802549359245, -1.148783010087038, -0.9310713074138784, 0.5715817834734419, -1.7654089852669899, 0.3128840773177495, -0.1212971623453573, -0.8575583562973511, 2.243802989144374, 0.22128584228635517, -0.1142140512397803, -0.5290536551653809, 0.3672803058150707, -1.3690927737843432, -0.13024333617061104, -1.146835539727144, 0.2715213686166082, -1.2061754489131027, -0.6544986349873866, 0.3764253534365029, -0.5950800292529913, -0.8023149313511767, 0.3064039787458938, -0.013347655876636739, -0.7967797257030541, 0.447423615883243, 0.06202504202541394, -0.41833934964597136, 1.0102180933362215, 0.3222614457396448, 0.19729098641080192, -0.10151309966434388, 1.5107991187339187, 2.0608095359949035, 0.9305517677556813, -1.4786440559876786, -0.5343454209114333, -0.9921451176524705, -2.4095935902929004, -1.0564559809307468, 0.880698059282306, 0.7961130431961273, 1.7017992215717437, 0.41089842414433786, 0.6632257336627637, 1.2523234258837763, -1.5913982206051742, 1.299715332228371, 0.5003749673777458, 1.8015928875461635, -0.6133428080757091, -0.8940106981537862, 0.835027963342658, -0.5310648170143925], [-0.6224426633348294, -0.715311369600583, -0.6611123556702128, 1.710131936732629, 1.0424473774144578, -1.4218169048915075, 0.07506162779738804, -1.798071791763114, -2.09429865150418, -1.4192285539439142, -0.6889029971250806, 0.02040871282977773, -1.6719435736177952, 1.2645800351424568, 0.7488260688116007, -2.154105630342149, 1.469947143573653, -1.4783943932957986, -0.13096547526571647, 1.3142235390146177, -0.11223583112529385, 0.781001563840624, 0.4036779319665724, 0.33600867315365096, 1.9171980593836904, 0.30325354591467507, -0.5699699184735528, -0.6396869905840565, -0.42429968045516464, -0.9440452265013627, -0.15641384709138567, 0.24864178311526045, 0.05999380809518853, 1.2900545045733425, -1.3452590110499107, 0.5304243797896847, 0.17891733860843992, -1.394111685670465, 1.687235140906462, -0.15260413148238597, -0.4757534773458123, 0.06563545866786563, 0.07942218208012569, -1.8459074413243903, -0.8487047477514147, -0.5624135269796906, -0.5208023923389012, -0.9232936531674891, -0.21730530096428044, -1.3474558454210026, 1.4720414619948579, 0.4217767920222623, -0.024135347831229507, 0.6565978734757223, -0.766893783258259, -0.00940706562486081, -0.21348217863250102, -0.20704704889813366, 0.15545389747829866, 0.8385497743335585], [0.0010714505544186582, -1.3414261428950924, -0.4711881297447638, -1.1635788039071655, 0.6490412330613591, 0.24971583451320295, 1.0537040977048497, 0.8764179973917351, 0.7299036503586049, 0.4618552929995026, -1.3207772888689702, 0.27411608294266276, 0.3997367873776669, 0.4081530567690241, 2.783632295809927, -0.690379712657338, 0.14659910383615157, 0.0005895038459488039, -0.6762553035564648, -2.112537006241395, 0.9841910223359264, 0.6125161046326683, 0.13629711568957859, -1.7980563112390373, -1.7125564717153616, 0.8538317894547417, -0.953772012751287, 0.16326430793492744, 0.7963101609476968, -0.6530058443902, -0.1385497160844335, 0.8735645650616825, -1.7179847128326728, -0.5476184438482695, -1.251037910893364, 0.7898175629523397, -0.08503860100227606, 1.897988042241475, 0.7974063150572743, -0.8049095591013785, 1.0742777280100109, 0.5722332299328954, -0.13927492418790127, -1.4302746559849424, -1.071870586384439, -0.3194454957597594, 0.563295958382267, -1.4553215948553184, -1.0724836563372335, -1.2386009129307747, -1.4917403264322733, -0.49871502313306354, 1.679025533977338, 0.339097356040771, -0.29661608773282633, 1.7114523015383292, 1.5010201137601118, -0.49368389198897816, -0.796243457619464, 0.9268649787070978], [-1.3661913652800424, 0.6415856853091373, -1.4103671118786356, 1.9283262222036202, -1.0311194729638282, 1.8123864064339688, 0.9139599561139069, -1.4076506512103952, 0.6466040924117032, 1.6117063711735846, -0.29215721417442675, 1.3817819053628657, -1.2147941140322505, 0.8820818168535953, 2.424487589698507, -0.1883266406523304, -0.4722936955407784, 0.8325861996381504, -1.5163208199057618, -1.2961094686111903, 0.4327884484209119, 1.0152708212772759, 0.7877582402476232, 0.8818706488473916, 0.9279625877969284, -0.7166545435453584, 0.6810501731324887, 0.5519055504448064, 0.5632604339272699, 0.024100385487773827, -0.3036270506355818, 0.4281237607032683, -1.0259173648924702, -0.8399011906767295, -0.5749094987829506, 0.3614354981307731, -0.7904952649446894, 0.1537911666373743, 2.2550019746310075, -1.1752772342198512, 0.12538811636945618, 1.1505568548826701, 0.005985691228454358, 0.5121041464030643, -0.07211904057064712, -1.081278598905537, 1.232194026911244, -0.7385798448699432, 2.288219553721684, -0.9653790254498444, 0.9824191174283857, 1.2641082042924, 0.2720011120485889, 0.2824239009486259, -1.605671448741753, 0.7881169436277863, 0.281768611138122, 0.06495058405620548, -0.22128365514282958, 1.3438187045431411], [-1.2290382462930767, 0.5780530766502856, -0.4524750529067452, 0.7006429201326853, -0.3154164574656133, -1.6363032562061193, -0.40563050095893194, -0.3993160865822686, -0.11853900565764286, -0.5660375181564594, -0.10681362916997812, -0.6009900531936977, -1.1324918009505416, 0.5030037806259415, -0.5443344179122803, 0.11719482836045202, 0.47734324066903844, 0.12302682350648565, -0.68300809496531, -1.7860314537076583, -0.4421054628799723, -0.14678261527811862, -0.08267444710118275, -1.4905017501701954, 0.5193874401657235, -0.7770529700988124, -1.0492722926154305, -1.0260962947853824, -0.57310759636425, -0.9264955491357973, -0.003792233681418973, 0.967247925932702, -0.35369299353450534, -0.09673515688041179, -1.807818497191271, -0.8652786785105712, -0.6763107485050095, 0.728515640689765, -0.3854807299377901, -0.9354384980900328, 1.6375046919624667, -1.5037827103551378, -1.0143967385680326, -0.3197321297121009, -1.4169755155749408, -0.7239198083931196, -0.3269097840009099, 0.7672219193924071, -0.4089822770640948, -0.1534491346717876, 0.8985124033936193, 0.5738366679109368, -0.8935689988062661, -0.7639704178442626, -1.9647078556097033, 1.5061231793590073, -0.1652220996281387, -1.5369465244250446, 0.5326936566520962, 1.3755960445310897], [0.6392258582634606, -1.182809349176167, 1.2695812167800666, 1.1080241344669137, 0.12788091858408568, 0.8270818014455812, 1.0217744378370284, -1.59135463139524, -1.23638104011088, -0.6197798196734028, -2.6412719660824173, -0.12401352189670287, 0.11837759127391256, 1.6142296219909695, 0.14463598284091833, 2.017607516091361, 0.4340420488021524, 0.5551806860212377, 0.67373817396064, 1.326173617988824, -0.7027181022809582, -2.1304578208092106, 1.9374138001329018, -0.08408367993296072, -0.04215313892067883, -0.1235976545240571, -0.7629735055963838, -1.2503549204196964, -0.762039167561478, 1.5120433108225064, -0.06499761674437766, 0.05995657448947996, -0.83103952665481, 0.13809992181868339, -0.05658630591303544, 0.704439037058464, 0.11132191979898283, 0.3005507290204543, 0.05998784785431379, 0.22293984718140847, -0.775196858492282, -0.3702072783536976, 0.966486262313326, -0.8900606673031163, 1.7343983194826191, -0.7458367387613036, 2.392376368825224, -1.276876301560689, 0.6439139286520054, -0.7356641871157465, -0.9127294238075775, -0.34541088929040975, 0.8654136424528156, 0.23741595013798292, 2.269433682387686, -0.9873431686868239, 0.774384491155315, 0.9656617842653621, -0.4983176215421179, -0.803759086631154], [0.5207825801038525, 0.5595707451418679, 0.1221367834734053, 1.0064316111809444, 2.9645253752365774, -0.6571599636243325, 1.2748911278910224, 0.7413552767545286, -0.2944790624327939, 0.5048425974209415, 1.6887793252514105, -0.11543769107973113, 1.6295432736598918, 1.900160096842886, 0.7644886908145484, 0.8154894163018995, 0.4944832915901482, 0.9953454513778607, -1.8953899054225338, 0.5486261718458604, 0.06556915662771931, -1.306042052330866, -0.8371036301856735, 1.2284800476385886, 0.9145737193741388, -1.5047843234528195, 0.08184946117766263, -1.2769558542208599, 0.9727221164314885, 0.12544615298455133, -0.30278861322581296, 0.31292099823840464, -0.14748549026405416, 0.7760441837877982, -0.4579821184753382, 0.6100187526175843, -1.099287321229675, 1.133587745712343, 1.2304860898948184, -0.913830903761561, -0.769735838540061, -0.5665215794593305, -0.573324762915223, -1.8435665583855836, 0.09878550388811906, -0.5922725640078423, -0.6952774418634412, 1.6961107528428387, -0.26961236268834693, -0.28897204930973114, -1.9455850395051115, 1.3835219805911294, 0.9251521413943873, -1.050281020135387, 1.1292418449053803, -0.6362834558898226, 0.3166905874075658, 2.3280480759545514, -0.008393575918492838, 0.08525297443080002], [0.5567121727545784, 0.25666424405514904, -1.4181081501502777, -0.8273980514274014, -0.7266943910789169, 1.2336374816502635, 0.18567262231628706, -0.3789780572234591, -0.39331241510271747, -0.5535636827423772, -0.4146585290262848, 0.24125603258289482, 1.3069763237688337, 1.7565116370805969, 0.7874395012140021, -0.5809569773853772, -0.4315237081873837, -0.9478194237109128, -1.1213296309999417, -0.006553223125707015, -0.030987286206300473, -0.028663982653774348, -1.7091797915931208, -1.2950968021175602, 0.44615197940533013, 0.9192098625160203, -0.3810849173696592, -0.1401308970866337, 0.024134199278294532, -0.8360618130215812, -0.5221450083350193, 0.3216034906179722, -2.298159333373515, 1.1587138247644542, 0.8573116973266448, -1.8274868603111056, -0.5769038981364317, 0.7205940864888681, -0.06257462657451705, -0.21351333893292923, -0.8366426232310558, -1.6703470204147275, 0.2730521174192633, 0.3870555251140545, -1.2788392616471964, -1.4181380146177305, 1.6928818185635501, -0.02212174320419704, 0.20048208153287292, 0.14214088060305657, -0.39159535759829567, -1.5250894880746966, -0.4982667888991847, -2.171119240626607, -0.30924116573058236, -0.6270259554194197, 0.9934244768363641, -0.019190088233401497, -0.5223562447559338, 1.8767147994966744], [0.01041436186950438, -0.6023673473999513, -0.8034522198665366, -0.5956195479236128, 0.5481126720790791, 0.7547093339419515, -1.3741012467445843, 0.29204031303983435, -0.41744806040726645, 1.3463542018866619, 1.4090270186438452, -1.040906669056716, -1.5177759706409863, -0.3352774726048528, 2.4334076164944016, -0.2584610702553309, -0.3741738158711192, -1.3489686832249836, -1.3083944536818675, 2.1128491548602373, -1.9307786037647463, 0.44757058521682996, 0.5120450930633587, -0.2788959362666039, -0.29931742095841696, -0.5972654259129269, -1.7312525003211592, 1.160163907967535, -0.5646164620229287, 0.889067675919118, -0.82501591797422, -1.174793216715093, 2.0496673782097354, 0.13232835353982547, -1.4426864613848964, -1.0734504765794277, 1.2159851896593397, 0.1530632602750954, 0.20372145637078848, 0.4451252200795136, -1.0651667405115695, -2.6877410836506255, 1.0796056443526723, 1.2491522355102593, -0.1920979962686961, -0.48157694580975086, 1.5425363666473215, 1.3695917931018597, 0.9825026296926694, 0.752915836983329, 0.8026768802304868, 1.477631441787938, 1.1077918981999466, 0.1498166729151947, -0.665143790552457, 1.2888373850627108, 0.7837363735380677, 0.5887299318280356, -0.11190545167639203, 0.8466260113767409], [0.7994673898485926, 1.7263708109148679, -0.6721614178267278, 0.9407581887622891, 0.24870038365522465, -1.1281894858750767, 0.31231070828229174, 0.5761799518882535, -0.21940993889160806, -0.04336820858469829, 0.44909595758170656, -1.325389677960439, 0.4797508553444204, -0.07416891865572947, 0.9067714398628718, 0.025635207968384786, 0.5299876826678483, 0.45185258392146666, 0.016904218177359154, -0.5148684952765059, -0.3793236417878976, 0.7348921923316959, -0.8130978256714738, 1.4761771511624844, 1.0342891350245558, 0.015001339748996955, -1.9648761083181803, 0.3770804590533325, -1.2497139032330278, 1.775738059030583, -0.48313347172015464, -0.44436914714313847, -0.40583616607298967, -0.4216519811173792, -0.13123414742652434, 0.13709025787788626, -0.08810627842304991, -2.441693413866982, 0.7542239815696771, -0.9810114865829984, 2.0873668112720987, -1.5660181828392412, -0.0216101731805591, -0.8955495756907084, 1.8968448850276847, 0.7406509591420164, -0.34511255804998053, -0.26302067449365557, 0.3589231179311508, -0.6814129759441159, 1.4160142160157287, -1.1001563236908722, -0.3469407744497741, 0.1606045052395094, -0.45086041379867925, -0.869586604598085, 0.3638767498220803, 0.14619766874382842, 0.19697603691363383, 0.5458689366382863]], [[0.7691509061162901, -0.7854633199580947, -0.28188166415292026, 0.27826351385331966, -0.5503263246922284, -0.3516023866123973, -2.3149678515600964, 0.4171675112827882, -0.45105434434664504, -1.3641049016547144, 0.34712278603249486, -1.329221096223449, 0.20616778203150588, 1.22258238367843, 0.3605978863670838, -0.39416377348189674, -0.15530099993926846, -0.13940737556404012, -0.6824938298739197, 1.2728342885191266, -0.651834171623633, 0.6143600909120268, -0.6525842624696928, -1.7401049433831843, 0.07806215178300661, 1.166671435225395, -1.0065492693181375, 2.055036299908532, 0.4385356473511857, 0.6211914840700892, -1.1980306411650303, 0.9447778166057483, 1.4022817214553114, 0.6949569814098985, -1.0602538640330303, 1.6687188077894164, -1.9301718228413973, -1.0351256197006826, 0.7358662035145729, 0.28012409366608787], [0.553303916954699, 0.3104008839641372, 0.4945295697840096, 0.5309136450137117, -1.0875297392071257, -0.014139536740046477, 0.5657289544757298, -0.005629367025672422, 0.6189739600209467, 0.24671369127889828, -0.49103706486768295, -1.4430144648581924, -0.5535800865209433, 0.31788197412578484, -0.1644005390072723, 0.4394022114413124, 0.5453054214346682, -1.0904357572755907, 0.48602776266804326, 1.6173737753666644, 0.7388691053105395, -0.8708634971350049, -0.9346209370578452, 0.6888259185956888, 1.9936706956644201, 0.28401675853648106, 0.3943346264215345, 0.10776832406780033, -0.9680988354692439, -0.6479457897163672, -0.1400853842149584, 0.39325573323361607, -0.6094029278930145, -0.037512674201693776, 0.2805187407563822, 0.38467720131897143, 0.12638816979039624, -1.8134767027327188, 1.1336316878280075, -0.6877204294975879], [2.0731675326618615, 0.21085645252060353, 0.46272239877638127, 1.2179667519344897, 0.38409682493863795, 0.17445672605916912, -0.8837015842528007, 0.43671022853989283, 0.4634146359639797, -0.19003382909067623, -0.3998850049819019, 1.410341044563609, 1.2389094445191877, 0.6843985025576692, -0.736860170535351, 0.8816490740336503, -0.43691499488073593, -1.0849544553372015, -1.1140191304499396, -1.8184743503897485, -1.7695812212900845, -1.3028650870220735, 0.4672117101785371, 1.5232429862642118, -0.8506372432925418, 0.3889297230370976, -0.28684889735178615, 1.7212590916988992, 0.7798290486288827, 1.1176796491611622, 0.971891420919456, -1.1154106408095137, 0.8434682830262918, 0.36368437759295297, 1.535434444265266, -0.9001294029879648, -1.5023926201254245, 1.230119241472464, 0.2690826940872276, -0.0708991419952063], [0.3647113460586706, 1.483909407421033, -0.26517944855780606, 0.13434880503445545, -1.0196015611271219, -0.5380194724468765, 0.686110998775833, 0.06264039956640143, -1.4278492894354275, 1.0430804748714495, -1.3326329662035654, -1.8147348387595377, -1.1110195736016542, -1.4299752729279953, -2.197677038664833, -0.7343775137259945, 1.9417176271723489, -0.8525012212926713, 0.11032638126802066, -0.3898491696298794, 0.2867741630910151, 1.0013371944953608, -1.8804207808501998, -0.10533244872031104, -0.7240675519040757, 1.0509107052639421, -0.5282223320850512, -0.8615421772684037, 1.5097888335709428, -1.1326455090981367, 0.7805455762672732, 0.7408742898445909, 0.5981635095033666, 1.7109032109181654, 0.2449353220389895, -0.002026975141315282, -1.066771134935949, -1.4224208846392794, -1.0500654478899665, -0.3077965448139531], [0.7434670105497214, 0.2444438336435019, -0.5265487270025734, 1.6516489916153898, -0.45338749250707516, 0.5204015700831042, -0.8957478928953225, 0.6604757992451784, 0.46319094861305, -0.2615212247096706, -1.1655881082673898, 1.386033755334804, -0.27068169683394033, 0.17227313954094883, 0.9984979349841869, -1.4132337620040836, -0.21920453676300797, -1.3812679291181351, 1.172505041004176, 1.3969789814581601, -0.5589885450488338, 0.8068573032542521, 1.1883724506103697, 0.11812412709743471, 0.8371891323301318, 0.18087775863983382, -1.2487552147409455, 0.12071149748004752, -0.2232736230228637, -0.17649965906254442, -0.87924509000701, 0.5304115552455112, -1.5672949994488075, 2.1084702116690237, -0.48054837541291173, 2.0509785024971445, 1.677150725951273, -0.5853129773369103, 0.48388362226541953, 0.6882226756292217], [-1.809314516770768, 0.33359051129335193, -0.5734411047638265, 1.582820518049665, -0.34989099825899006, -0.77393181171502, 0.5392309513190323, -0.13293316860320153, -0.15920765891545285, -1.9116258498630225, 0.42134905161067504, -1.4701332848274569, -1.173013344427065, 0.8073475317516725, -0.6674760067528347, 0.8232959343848122, 0.9293877678779344, -0.09916678523353399, -1.4018949419028641, 1.531050434164167, -1.4625742542858626, 1.7040924401499395, 0.7000918421079808, -1.3148891164962966, -2.0112538338460832, 0.46740487458608876, 0.5645400052933023, -1.2370777383834926, 1.9821972517567557, 1.0161217327266017, -0.607452105591029, 1.1695634838922755, 0.052654332075934146, 0.43290002192758414, -0.3871516013168914, -0.7461336082203843, -0.16942076913341877, 0.929392993389779, -0.19191183455245844, 1.3556045021652916], [-0.4530059964632673, 1.5566387311117167, 0.32815925613487085, 0.5683852661330513, -0.6193548765204243, -0.28306503607843597, 1.007136932403441, 0.09249676486741845, -0.6764376011702443, 1.4960635981964068, -0.18109823256493626, 1.4744508266721337, 0.995340885912508, 1.9636316996640129, 0.4314537010178168, 1.627905525260804, 0.2505827172450905, -1.9742526642168265, 0.18330748849531694, -1.7061595416778803, 0.390703830543442, -2.091063028295066, 1.1247446607418263, -0.4554131979815548, 0.026521915542206363, -1.4729087314983917, 1.1176999592954053, -0.49988460925590683, -0.5607784108899583, -1.5756592764466135, 0.943337923770889, -0.7542916826637694, 0.26011058198215004, 0.5355352860613727, -1.2148877788550045, -0.33907577201852135, -1.3941095740111675, -0.3736090236266735, 0.11649406109253575, 0.5529374849565022], [-0.2940373596026955, 0.2298145085532622, -1.0238554757616518, 1.8468384619364762, -0.6252229781496819, -1.4647990693035322, -0.23359318282330466, 0.6845231887004812, -0.21047013679001936, -0.8887467862715119, 0.47942268465465254, -0.7781151746923585, 1.0513418416943798, 1.3061529285519669, 0.5051302509425967, 0.5537333371793233, -1.4350875108599397, -0.7454629916448094, -2.2206076076591152, 0.18818899301207337, -0.9476211043581092, 0.8375993068807093, 0.7766744439713353, 0.6388357980538455, 0.4363015995307243, 0.36202524125036345, -0.09277137416302525, -0.5259073993452905, 0.8086518601788819, -0.107515415113433, 0.3795523225239122, 0.23719653043436187, 0.3177653951702579, -0.11347829379647305, 1.2248402416803044, 0.03320650447097558, -1.286931362792399, 0.4769364068418564, 1.4009418955292743, 0.39049520206976307], [-1.1943929891163079, 1.3370059137573567, 0.32561368751539177, -0.356681962474264, -0.16826672363531303, -1.2817585994643153, 0.7071616555808535, -0.9697957898623295, -0.9944013725373967, -1.6626329797797823, 2.050014070101221, -0.9655071181307744, 0.7928230449574101, -1.1767333538726368, -1.1875549467768178, 0.19101461261875308, -0.3548386377941178, 0.07915793148584868, 0.29967594523661656, 0.13570138690903477, 1.0709879028573615, -0.33368771968231936, -1.1129777818351247, -1.3523578506088256, 0.20944086839996198, -0.24443045738377953, 0.08909976538898957, -0.7052231385277348, -0.02759046903100258, 0.7869157147363672, 0.5796632110961698, -1.3923615955300332, -0.29706920363658745, -0.2642571682370354, -0.9432317624013867, -1.1265479322499563, 0.5630854652212325, 0.18815042492660086, -1.0042120264699168, -0.6124395081109997], [-1.3860581372585143, -0.016559972945399504, 0.8028246236862869, -0.407475295700684, -0.6167894480038023, -0.07204583736469372, -1.8085829854464297, 0.23421630081061823, 1.6284018116948913, -0.014369896882219915, 2.046215495143859, 1.4755812144780354, 1.229506097741411, -1.0023975479004803, -0.7440770654022932, 1.293453343006751, -0.7664715035756929, 0.03357519454240873, -1.9437853763689328, -0.4781665553218076, -2.0087145095370134, -0.1372722316253061, 1.5867658575539512, -0.23323015131666316, 0.24675871739332672, -1.2444911372570757, -2.5297859492725614, -1.4176379026014247, -0.3071544932967347, -0.9183323926490924, 0.18447493902236445, -0.2599324619033057, -1.418445207646172, -1.213721166532808, 1.149530207101641, -0.30968277094438457, 2.1086631513626872, -0.6523884706682512, -0.26409224443633195, -1.4964236787585592], [-0.7905818451561292, -1.2713807327356659, -0.12972447452519043, -1.3870143094600302, 0.034322638624286, -2.6164713847044685, 0.2854906604362767, -1.7704594408011216, 1.7420591007150679, -1.2122049712708665, 0.2682347057295379, 1.0168588784970292, 0.47137446167013025, -0.21546452146317158, 0.08785465262400927, -0.5987757388697706, 2.2991886740751983, 0.3330019770802151, 0.28098230187299056, -0.18790148958883252, 0.384830820734302, 0.5564310858126797, 0.7548142670642887, -1.0930478589389379, -0.21640033762621091, 0.16818908611170896, 2.3886160136896026, -1.2960796852582537, 0.36949447247341594, 1.8592411253418026, 0.9942358489209351, -0.4618221696321344, -1.0953788402132556, -0.5741746467999451, -0.8728427148021098, 0.7312079576802877, 0.7974855322964212, -0.3242702804983812, 1.2955045299894807, 1.8150422945700886], [-0.5951738601591713, -0.019225533265898955, 0.031000474841195107, -0.0816133485055101, 0.12206083907678257, 0.1147776637892759, -0.02763806616185403, 2.041578363409593, -1.3987513384482608, 0.1677876816938923, 1.3116838399795772, 0.6772840366304693, 0.9765061253075965, 0.1512266262019525, 1.8738102554216165, 1.5577346589930454, -1.4170608765470118, 1.4834304456373535, -0.23288320156641298, -1.8609847527134158, -1.8178403016829063, -0.8052684042357574, 0.7349669156304235, -1.7904287411346183, -0.9522412633079645, -0.04460097009590681, -0.371648293492215, -0.9531428427133346, 0.8658377648196811, 0.6978183580489373, 0.08374287580053526, -0.4875653180845628, 0.46469496353322415, -0.25033877655101355, 1.7710749183312036, 2.008397728545958, 0.1669740409294028, -0.07493689249276135, 1.399438925297429, 0.1370222908306147], [-2.135163572663788, -0.6281362141355082, 0.03438872854174138, -0.3277855851385064, 0.5493023535491762, -0.2711449201874923, 0.5830034247821467, 1.4054725722290045, 0.27833338648432654, 1.0417150847935688, -0.6760884905393206, 1.0062472169811976, -0.09493008228341718, -0.29742103293076294, 1.19954360625855, -0.21853391178847534, 1.006411643127642, -0.45948555561679844, 0.08048179346362681, -1.2874202835349147, 1.3904748612144942, 0.4860258547095152, 0.01167781732246635, -0.8806282387990456, 1.8364957700332072, 1.2526408250920138, -0.640013582337977, -0.09504008882139557, 0.47006654665036995, 0.3365437072689975, 2.445125889234142, 0.7181324065226534, 0.9275704682497231, 2.759322302083065, -1.2484674333245223, 0.0938665670660535, 0.6891958701970687, 0.39541441248969705, 1.7046284756798906, -0.6643640595577148], [0.37117524008918495, -0.21928049284869672, -0.6743350433916662, -1.6278619970683275, 1.3202167763585044, -0.45124782978323474, -0.7960720105857607, 0.3791444170227904, 0.3938518083032662, -0.4163037602744703, -0.7412574806929505, 0.241896868084404, -1.1594237002203147, -1.1047312985070545, -1.1989699271798868, 0.33874886852754327, -1.5613545158314819, -0.2266837769413158, 0.5372310820428404, 0.5448989177066292, 0.7448456497470045, -0.076172344646799, -0.25539324626679755, -0.04695489422578203, 0.2603288898026684, 0.4308202425616133, 1.064512530504265, -1.9591635314645444, 0.36515043592097535, 1.3168589724440216, -0.40794747363717815, 0.4957574706617961, 0.03415237766600747, -1.0038133290909834, -0.24821473416943673, -0.5651118401087974, 0.8117091893899174, 0.46521683426281524, -1.1696768715837775, -0.38658393735884344], [-1.876768257819349, -1.098112446969969, -0.39292937641833464, 0.5029794342680667, -0.6385619998559915, -0.6906903710852359, 0.4397601607977204, -0.5258245176521101, 1.3969744987856378, 1.3115037856671394, -0.5954075939965086, -0.6710440821235875, 0.3851828104998025, -0.967233863847076, -0.581484439282098, -1.8990391290452366, 0.0290645966520127, -0.6114261475509729, -0.5636235022943544, 0.4588748415672719, -0.35815970528850943, 0.07115109736339954, -1.4857918257767457, -0.12060308913119498, -0.42528460694976894, 0.34370264517094035, 1.1140976227109278, 0.4246074850604694, -0.4975688711777274, 0.10558498706699686, 0.3991915744969881, 1.0339071472865728, -0.15334404597857074, 1.0103076129577877, 0.46116731214149387, 0.6049437990246086, -0.6879611637095429, 1.5205583842883184, -0.7362209126460125, -1.1499147141395456], [-0.08140740522539151, -1.2109153980937806, 0.3952788716645672, 1.0967786247736193, 1.7699216763240408, 1.3219313959362713, 0.46919667757357764, -0.056473373164191584, -0.9933129456374562, 1.0903911982293075, 0.8693624497811593, 1.0821398352050953, 0.9893863269145422, 1.3165701926591113, 0.6389789574818172, 0.3641331209941657, -0.4025395419722299, -0.02034961397578991, 0.24279369031715062, -1.4034329308906985, -0.7301485600753689, -0.7689058617252967, -0.777090637796684, -0.1911482441892334, -0.027476563511133492, -0.79332093409452, 0.8486477512065593, -0.6786192291255904, -1.928366996868987, -1.7850758901187445, -2.012712789915089, -0.6554988848495656, -1.1825959865171867, 0.23088622002888226, -2.2324857435753556, 1.2679243344055662, 0.05198105115323551, -1.8697117508551246, -0.9204107553917886, 1.5925251703255585], [1.1024277240917344, -1.4860538743467793, -1.166804624081, 0.7035959782306874, -0.9334731876569508, 0.05114114066913017, 0.5184086808667422, 0.9121095929221539, -0.552649117160573, 1.3539873331579226, 1.289067736852795, -0.8052919566628219, -0.5364275048839492, 1.5511297610720094, 1.3261583431343624, 0.5030190813180353, -0.5909680815112972, -1.8092527776886105, -1.6837246272040316, 0.3620158870256174, -0.46105420977196265, -0.6675171715043501, -0.5158946733102198, 1.1893921366000828, -0.942717402074663, 1.3120184926224014, -0.6691459333594196, -0.30192500682075996, 0.7757832959811823, -0.1484880597003756, 0.8338196502094782, 1.5459331443214552, 0.06091648047269229, 0.15042497483419287, -1.0039535781299445, -1.3528328244632801, -1.1222702900837231, -0.42145209075169027, -1.5847641352095736, -1.8843332582076038], [0.6755887447413743, -1.2662320925810346, -0.4057311769014973, 1.2198666844425363, 1.3290306853037883, -1.6128133182344901, 0.014256129951020118, 0.5426320337369342, 0.5419283853458914, 0.9524438939410834, -0.3504728142646158, 0.9926983654534991, -1.952970061744906, -0.4439519950608215, 1.2055635712610533, 0.14866377186032, -0.035344221287206275, -1.7745202961341373, 1.4991959469619776, -0.41614551375050024, -0.49949414860801505, -0.6040547102703747, -2.0360133227087216, 0.8886409322960601, 0.08065201401901775, -0.1854098693874479, 0.5443724645581143, 0.045301124828352926, -0.265089902173962, 0.45129850534801813, -0.4300934272493785, -0.2655987776957038, -0.25631287930449925, 0.7269813070705592, 0.6369171110753211, 0.4809095101445994, 0.3122384753396452, 0.8933891185948244, -1.124176918736928, 0.1996852530873677], [0.44080781180343104, -0.9439578151650011, -0.03120415248572328, 0.07685354976003028, -1.0329461699724212, -0.9043201076899001, 0.6353952967311276, -1.4964719006275822, 1.0608483733087422, 1.832431322281555, -1.6405208639108266, 0.6296841923450934, 0.7972078904927542, 1.234354435490182, -0.9108054354904858, 1.569933935808287, 0.2979005644646171, -1.2082360647154462, -0.983335339656525, 0.7902478659344403, -1.3571497580413046, -0.1255435937747043, -1.4681607532864143, -0.12500545578890732, 1.03082765224222, -0.07610321484167909, -1.9102621734705656, 0.22513892007304964, 0.07985804411945505, 1.277749058427271, -0.8287331279893887, -0.0928059052369576, 0.4780364875567027, -1.6952550399366733, -0.1916875468382494, -0.09617763333376816, -0.5612308867306798, 1.1328873899171281, 0.37419044822515285, -0.7017900552269903], [0.47286559958910174, 0.39463974582164685, 1.276259353397888, -0.443182787276235, -0.780082388682767, 0.12219082304624838, -0.18659308566771834, -0.018643823188718444, -0.03610971108101636, -0.31925176002558403, -0.441686506471984, 0.08111939074639307, -0.99271334803253, 1.750227451358807, 1.9395950592607014, -0.9979715774513186, -0.7311186738779669, 1.06139220304494, 2.003905234115502, -2.6002181978896197, 0.359743263147578, -0.040849893912960115, -0.32918201119514656, 0.6909136292405512, -0.3876742949873521, -1.2817497933544075, 0.18294970947209235, 1.6870948662686742, -0.6581556016140264, -1.5271261623245698, -1.4884368737461255, 0.7154060983337126, 0.49521784157942594, -0.7805630029885391, -0.1618008678706599, -0.3503437314411455, -0.6694166637199992, -1.4365190323559263, 0.7342439480196035, 0.06921553809347777]], [[0.008375915997682766, 1.4990723460960291, -1.1108160082273473, -0.3266204787928289, 1.3990742718370766, 0.08605290310695105, -0.16554330164549935, 0.6502581206380803, 0.019751094686762498, -1.3110010052687542, -0.5802018125135536, -0.8480642868269753, -1.6230511066931532, -0.7706037465113514, 1.8448083037819372, 0.024474015456115907, -0.49780968266580705, 0.5768809086551553, -2.3339888778635878, -0.5399697046026722]]], "ep": 3005}