{"num_layers": 4, "sizes": [60, 40, 20, 1], "biases": [[[-0.09960231206598338], [1.1688305483310817], [-0.12142517646793605], [-0.43199557325308446], [0.02802554572359754], [-1.8295670086725209], [-2.2878079022490754], [0.9581156263979953], [0.2029959388745709], [0.26488451456673257], [-0.38405545434568605], [0.44918246699097863], [0.3649217230696826], [0.29553756968793443], [-0.9089567077938319], [-0.4921191429637441], [-0.3474918555588708], [1.9077704069108996], [-1.283613887461462], [0.6088076854877862], [2.2823278618995713], [0.4283370683444909], [0.7123947084288385], [-0.48230642982747185], [-0.36859707153660287], [-1.172483914278912], [-0.6903900533763583], [0.25121028526490163], [-1.6782999890551769], [1.6552434735980197], [-1.3390788981868493], [-1.7773086981572015], [2.540197043467114], [-1.6210775763493894], [-1.4588705741339283], [0.7372337182139866], [-1.1780816347981016], [0.7291648117544471], [0.29328973802024016], [-0.2689259113412518]], [[1.377007636330859], [0.9420819562774869], [0.23456354664576926], [0.39700458510985187], [0.4693519687738228], [-0.6531782466702953], [0.6186760658237043], [0.7694854645834334], [0.24410532626689962], [0.8167847318727772], [-1.5833956625231898], [-0.9657433272023688], [-2.3148357416665872], [0.1998765635948546], [-0.012181103747899429], [1.446854490762494], [-0.3607584114164125], [-0.4435192163086433], [-0.01766503224077014], [-1.0871494976419587]], [[-0.6250115837646638]]], "weights": [[[1.510418178514301, -0.23589472388928875, -0.5427611479090955, -1.0499952100987493, -1.3624392635523208, 1.51313706901879, 1.1197172549215426, 1.0102816636351328, -0.631543715972576, -0.4347040260169157, 0.23481555493009046, 0.7347463978711143, -0.8641974196940365, 0.4088185388166924, -0.017630231586635903, 1.1205630459714249, -0.5662018767137392, -0.27371629835455524, 1.044415260979918, -0.43959276412835374, -0.8374985081055281, -1.0882365227551123, 0.6416411928963415, 0.3918131382185888, -0.3158748959853246, -1.5460951638684786, -0.9907285388570481, -1.720771863221236, -0.1938235404168125, -0.9112189815417305, 1.7117735031866026, 0.0017729412003909702, -0.5033972783242836, -0.25556492265875574, -0.9053917838245692, 1.0326622879292164, -1.2520421136850186, -1.2422721515717448, -1.0067111751413407, 0.4960240861098134, -1.5772944280340562, -0.06431338800979507, 0.064453569162703, -0.6871507724689853, 1.1935267890200254, -0.7613024748714821, -1.5002226139932366, -0.525718775335854, 1.2111547272500471, 1.2873597014262457, 0.15566729683832678, 0.1511708340977344, 0.17809462275837515, 0.695348660304132, -1.2914538288376507, 1.570305926681657, 1.9489384572071229, 1.8097481844984984, -1.1569225894222297, -0.08080590189932975], [-1.6886704760826685, 0.8410784258066286, -0.2740758368202185, -0.5777212578200378, 0.2551209930849678, -0.2965980122276283, -0.17340921756235825, 1.2768131906478164, 0.4775717193616736, -0.4176053547855922, -0.8161417056990731, 1.3507930805678765, -0.769968146143336, 0.07912886036692579, -0.7530091121509093, 0.32978353972399943, 1.0408719111611298, 0.43619910351313973, -0.06495524875908054, -0.6225143945703094, 0.43990612867785533, -0.57428292738542, -1.25111845623114, 0.27434931738856355, 0.7572874814928122, 0.67307117102882, 0.21054372445568606, -0.021883464004835772, -1.2377771279732896, 0.10931666600103344, 1.0117640539475183, -1.5659254076774027, 0.27415690698719974, -0.5782159014937291, 0.638986506092385, -0.9542212776330276, -1.253269208408933, 0.09471172070282019, -0.2753411990084162, -0.39058602456425595, -0.760060381345546, 1.7350630367702526, 0.9215501465505034, 0.7437509961935733, -0.37617673826193476, -2.436261804796771, 1.3620384268678074, -0.17163851100649213, -0.44359851913403375, 0.9571296446766938, -1.0126186108634012, 0.6840933532174083, -2.8766361327610337, 0.7422162817416867, 0.9927544727196992, -1.4780799614767322, -1.5340852969169418, -1.0159962211419749, -0.009025113945182885, 0.36626325457634507], [-1.4318145730151997, -0.12536292622586792, 1.8363011141280068, -0.49223111364932387, 0.3984126919956438, -0.12489115720888257, -0.7255027877952278, -1.2479047832274193, 1.035645851554696, -0.9430880591480366, 0.06041583545971982, -1.1678983718494407, 0.6254682035163321, -0.7011197971413523, 0.48279575702401345, -0.5023884075048026, 0.6609891857917027, -0.666219900471106, 0.023654931653299332, 0.6250708967971091, 0.34425911312593743, -0.9541568470690738, 0.4680535409715066, 0.8387825637476317, -0.42603830743116483, 1.080339504647415, -0.1900975964445219, -1.1297181493520545, 0.35923653983208004, 1.0738446144223366, -1.4363353479530656, 0.9520121927460538, 0.7076062523172229, -0.1542834590985302, 0.44903472969239255, 0.7984563229387079, 0.548702460373683, -0.3418895245401398, 1.1919351004526224, -0.9585629375077961, -0.8246375762057762, -0.4611215799843801, -1.3137223225801649, 0.22436353544710294, 0.47562921803518415, 0.8518853843178572, 1.1183520169199317, 1.0546399004093658, -0.27468946134370764, 0.2551301782919744, -1.1237571175547643, 0.40902079688825255, 0.00999176921074345, 0.1295353600950731, 1.0809015484070719, -1.9954766951314198, 0.7165154822670708, -0.6074374503909412, -0.909744890010768, 0.7819486505741682], [-0.10405614186028504, 0.4278458408106272, 0.4478229667794948, -1.2897596247650427, 1.7450193901466229, -2.998571428005791, 0.6678055762710645, -1.45533905251742, 0.035253409423724236, -0.18527405137403863, -0.2764244831032594, -0.6938103912602541, 0.04845939189590845, -0.08016316628397832, 0.5399084526117168, 1.0474651023021808, 0.5352054548862142, 0.5934416313483556, -0.9101970922798885, 1.142603269361685, -0.7748928922521217, -0.8075346759664708, 2.0774594484516453, -0.07573477605260737, 0.6405858910812715, 0.7891207012575854, 0.8923864715755525, -0.4058305108121422, 0.8453087800960905, -0.8371452954338684, -1.65518464091292, -1.4726331627365465, -1.015715406434888, -0.06955892959879643, -0.1182853409158753, 0.3485407402109242, -0.6911898970795989, 0.5948345625457281, -0.6118564842024089, -0.8063144054670127, -0.6965326512528807, -0.8757217374731999, -1.8282190644588245, 0.3517256626195573, 1.1835393393089577, 1.1747209004055874, -1.7143248767311143, -0.14603739732399645, -1.6196833695436423, 0.5011557836794177, 1.484808247227401, 0.27729783810825986, -1.3419598477795458, 0.8796264340816745, 0.46617278882983454, 0.5008633013314286, -1.7135396124173585, -0.7530654461811407, -1.2700490210541622, -0.5186824981897148], [1.1032626849230667, -0.24669979272202228, 1.6789412456109831, -1.261359850308139, 0.8813570075089635, 0.5319494892541439, 0.8092151893217933, 0.9217739538067251, -1.0366360670009287, 0.20054038860438272, -0.7971567701332491, 0.7943385513341318, -1.255287368786257, -0.2357015556571208, 0.28725171387430776, 0.07290322957892101, -0.1276564263309385, -0.31200815536622983, 0.15175547068471215, -0.6782505595817772, 0.6731246917654471, 2.3252579481785567, -0.431254468648004, 0.28524846795794695, 0.6590273689496631, 0.7180531073928825, -1.0309708503271728, -0.9570420094988691, 0.46416534089105566, -0.9138915198702837, 0.0847477819982453, -0.4143568624848682, 0.9163236559560527, 2.1483527183076983, 0.40667276622591847, 0.5654674465287961, 0.6400957422558545, -1.3205950788900094, -0.5056266086419189, 0.8597053526907555, -0.4905870807494692, -0.9466465137700022, -0.9644048875580029, 0.5410626352115823, 0.8785186053744123, -0.1118166361290581, -0.5708423534824971, 0.7130904461261354, -0.3025146350609405, -0.4384723222313324, -0.8915058882344873, 0.553625836453761, 1.8552360429314547, 0.6124162236364455, -0.9510389148867181, 1.231814964675276, 0.16687621712712142, -1.2833506540785447, -0.4100580305586761, 0.1969128885481007], [-1.2616607837863074, 0.07883706663845581, 2.064925202517365, 0.3234059194994487, -0.2279075134932139, 0.26534613173416177, -0.2166545261510183, 1.806478865569764, -0.7689114711310613, -0.3411518091617996, -0.610255109154687, 0.03157645315109699, -1.092140876110142, 1.752932250747619, 0.3292192349451827, 0.47009488919233705, 1.1280892758418704, 0.7860269266586558, 0.5609087157164501, 0.9260289406557518, -1.1968408392332683, 2.1404458976066336, -1.505607018407211, -1.1435310020343028, 1.8250070030503618, 0.06514908198962926, 0.5654837984095945, 0.3437179182931476, -0.4787529458949118, 0.26798527010684164, -0.4454415022554308, 0.29240333189715845, 0.5519191530496225, 1.749964283458308, 0.5558432632973598, 0.9884153985901211, 1.087685908998244, 0.4840856386501798, 0.09527335564043532, 0.48058427515952856, -0.1702063392128334, 2.370061893309958, 0.6209399620025723, 0.9847983365383147, 1.1092659638896325, 0.7019813658139927, 0.836343906023144, -1.8375377196002076, -2.026118128683197, -0.6515617655021926, 0.08464635668775737, -0.49106154889177855, 0.862851298779313, -0.5029305915464038, 0.20704650637192204, 0.6602318672066615, -0.24998514188225557, 0.044872613600621954, -1.1227817907156261, -0.07997325114643695], [-0.9919202401698958, 1.043785990508275, 2.995578405137805, 1.5125469708114267, -0.4998497516628317, -0.5636487129694683, -0.5713199354645687, 1.6402875967094699, 0.1352736756802148, 0.5905177210459991, -0.26233866425932434, -0.7630532831798278, 1.1154410699859425, 1.8388591202962319, 1.1927058181861305, 1.2440144652039493, 0.42841429563586286, -1.2230757525821312, 0.6667451545819614, 1.2317925683271966, -0.13322617244199675, 0.6427281932197624, -0.9651095806525914, 0.1120304436403619, -0.3008721352819155, 0.31710520266465986, -0.1757595884581369, 0.5638687345569676, 0.865524302271942, 1.2955174904303732, -1.4021669634720657, -1.4802365290099215, 0.19002056194769046, -1.929785237563815, 1.0432926408364966, -0.4867884365796702, -0.8610102377017278, -0.3951718209199928, -0.9636198059280519, -1.8101680521680747, 0.8345085422557094, 0.004590785341892433, -0.08254999983512827, -0.43932343101273164, 0.9740002062057808, -0.664258392778587, -0.37771567004530365, 1.5559432532930342, -0.6998308746924796, 0.10643641898259808, -0.25029851290627897, -0.21516527234484592, -0.6770309074156264, 1.0917632124125274, 1.2139281771620105, 0.3083059642838553, 0.8022321373027692, 0.42628440196216527, 0.8428737258244217, -1.9887123149854993], [0.022718834432704137, 0.8331573749417017, -1.6404894240970676, -0.9949936593225696, -0.24058340874070858, -1.0391905216571709, 0.19572589957906697, 1.6392064485300362, 0.7027531149533538, -1.5720357677580983, 0.1871160022103023, 1.5655799367281145, 0.45597419955852797, 1.5934174366738425, 1.5965567193541075, -0.20778394163992941, -0.5286389757533201, -1.620413790552713, 0.4057440665528571, -0.5515833905170148, 1.050838833928021, 0.21363547351847745, -1.5926019659678055, 0.5689520530393156, 0.09044783770144808, 1.392560458372878, -0.1667993111188123, -0.5702862354614728, -0.01603278570159245, -1.011602791348851, 0.2716557155602549, 0.15059571776663871, -1.166448053458036, -0.4191341875464931, -0.1404152725467134, -0.029498204765158197, -0.17530293183896684, 0.9234803988210301, -1.414573770268053, -1.3980849023700397, -0.6516895671360726, 0.6645098966020427, -0.5671016807278306, 0.5977475311995519, -0.3141930728859068, -0.8282319773735897, -1.3959765960333848, 0.3257153167173384, -0.09253339075665475, -0.25721640586992617, 1.74036139465701, -0.8729176862406091, 0.581843464648175, 0.8130873724998414, 1.3757226648332406, 0.5956522311101862, 0.16208757517222455, 0.29321484045983953, 2.888706161559391, 0.42752266043811316], [0.4984592847443175, -0.15318616824065304, -0.3873524374462274, -0.9743722187998448, -0.30757352634001867, -0.4057422160949147, -0.02791709238695407, -0.14672898280477065, 0.4261311753154581, 0.5764530889726623, 2.3685554126521713, -0.005254084475910821, 0.21498247821861707, -0.7388345841725041, -2.2304266966526036, -0.9074834611483091, -0.9245267891844376, 1.55691038730859, 0.5549832386628256, -0.19864800291907253, 0.23635330787298234, 0.1915826155198943, 0.25573874903794314, 0.511347936743929, 0.03593670088650902, 1.9451433557961662, 1.7536918513719968, -1.6254866529195742, -0.9254696155300103, -0.24544732629242128, -0.4168374425687748, -0.9394425909698457, 0.7132917692867508, 0.49412036506304763, -2.0816687216204866, -0.5246132635182877, -1.043094735379945, 1.918738661945234, -1.03067701111083, -0.08544581199079382, 0.24181302848425562, 1.4525773111689384, 0.6756878764663927, 0.12743619576817392, -2.2546222946800962, 0.17909306242977802, 0.3125750792004397, -0.8704309430641497, -0.014013327072704406, -1.0631911870272193, 0.8048379788295023, 0.16833191638910738, -0.1821790728761931, -0.23156402826801148, 1.1973518901474036, -0.8005239958181418, -0.4302708356071624, 0.8192901785518907, 0.4066784315934518, -0.36831096668783775], [0.454750312764992, -2.333795841844563, 1.591401385787194, 1.1390316944610646, 0.8938804179492705, -0.09815542825858749, 0.07067224457435911, -0.9284191079670052, -1.2354438342553955, -0.14524131530117437, 1.9452014723292774, 1.5615034351256252, -0.7859218565144572, -1.9329848968335874, 0.9388949568219302, 0.23100730758221802, 0.5364294631891612, 1.7516781639039394, -2.5507905321517685, -0.8876903907941336, -0.1151926508062872, -0.5671734276522685, -0.8325124530559975, 0.8782769362900054, -1.1364851092133383, -2.400053779140513, -1.0209443992102438, 0.4134757169060691, 0.11970898178355752, -0.6820390180130992, -1.864933054890975, 0.3147823558425187, -0.42652625797710153, 0.5926238818650791, 0.18146825605279096, -2.8471026378384643, -0.48723095797891863, -0.21672566467484664, -0.7766463541561854, -0.42207375548993425, 0.8745819547881412, 0.8703480077542866, -0.8078327830157288, -0.2803299699681959, -1.3380705102772372, -0.2967789707940737, -1.1930435691868302, -0.7216094928107671, 1.8129616439161993, -0.35545484834138497, 0.007169180506742509, -0.2704738714040637, -0.39267962819494573, 0.4220425971480689, 0.7943910595138016, 0.17976283807115936, -0.04890532351476892, -0.31273117618828594, -0.061266738157741994, -0.6645662805149346], [-0.7395548391916384, -0.5574870791226088, -0.022561497261758816, 0.2616592888722594, 1.287750737767522, 0.5899275605013861, -0.6582423741321828, -0.16757579531574648, 0.8396634329118857, 0.8088621247623734, -0.2903704128708335, -0.160986407632194, 0.9672332536896017, -1.441917009019382, 1.232693461454938, -1.8900646425090852, -1.2376739304441429, -0.6500162105106104, -0.876017551000364, 0.44588955703915856, 0.9209088356296651, -0.7873412855053279, -1.8667896419630925, 0.5154722906439078, 2.049117360522544, -0.40508369542862827, -1.236025639205563, 0.6402600592341124, -0.9701999688942116, -0.9077023545322668, -0.1721184747468551, -0.11092154327112755, -1.840924915837715, -1.6840021809932735, 0.46694080669017024, 0.015316399978488007, -0.9437875518926154, -0.8671884328713162, -1.8869130102073963, 0.4436986561509456, -0.471963345871199, 0.6155624966455876, 0.8909704243493002, -0.518014506151661, -0.6875950517025612, -1.7875588280179442, 0.3820289960058875, 2.1320681828018184, -0.667262173741802, -0.2529426522034009, -0.8097551724748903, 0.562264595740413, -2.109942754175537, -1.365332318916774, 1.0556329453755797, 2.2670186470757843, -0.7416899860177011, 0.0366733419983938, -0.6414596796416453, 0.3377414800955568], [-1.5255746875996339, 0.621126070825079, 0.9974251758213883, -0.5515188042507717, -0.20647927480937753, -0.7583631586497639, 1.0793303991064311, -0.9726872506938944, -0.14680911411097958, 0.9568750937726582, 0.00634201294521926, 0.06412602905588531, -0.0499032866719248, 0.17735025290074838, 0.5407552907047053, -0.01627201280739974, 1.2091223507671371, 0.11991532442799784, -1.7828834737230819, 0.6292213763365659, -0.04520668496204279, -0.18395583297207277, 1.5135650256640465, -0.03124747003787646, -0.611139047109622, 0.513522410096317, -0.6049683118655883, -0.27423302915398656, -0.5222464622281513, 0.933408891101419, 0.261848923239494, 1.039702972527214, 0.4408125833611087, 0.5874414248677307, 0.2624573979720702, -0.1884524936559806, 1.0842990961931653, 0.941648670219174, 1.2456043336163056, -1.400994251840395, -1.4837944659453581, -0.41482926514911883, -2.2922540321346108, -0.5615388758085376, -0.6423642081523938, -0.4535452359398809, 0.6302801538976166, -1.883753821423913, 2.6174248706114307, 0.3690239828192325, 0.1651157045523341, -1.3244702134997874, 1.6940944554784574, 0.4098686604172824, 0.12060298345452457, 1.2391207356997203, 0.6224627293588271, 0.13004762979089252, 0.7726891172696166, -0.18258779630573418], [-0.39566327613052615, -0.2339293262773895, 0.5910477493882299, -0.7841324952744492, -2.091343389800393, 0.7337102074396422, 0.5070345633850906, -0.75042674107474, -1.6476811186817282, 0.2665860406394528, -0.7689284786541843, 0.1735612250907086, -0.5685347009807987, 0.5339959153853184, -0.5081833942445501, -1.0996428783733667, 1.017269637831607, 0.9310491107302026, 1.0029832430785406, 0.8676445276784976, 0.3901601282509719, 0.3026147968175429, 1.3191156507387651, 1.0937365990332955, 0.047089608759676306, -0.44539272816689074, 0.3708022232092575, -3.485920662307136, -1.6828313312166419, 0.47018787807503837, 1.0114043971055295, 1.6901001624705758, 0.490645163332204, -0.914371291300251, 1.0600233969897803, 1.3737640281648702, 0.49066079825058473, 0.08251881216204049, 0.560571729689808, 1.3154960925519708, -0.8479932222493844, -1.1226813542352303, 0.22848168312960665, -0.7053753081248124, -0.6189040022500661, -1.0400544215000613, -1.9215135690309937, -0.12744611812579543, 0.1074083403266781, -0.16732326124141877, 1.346640501774513, 0.34205015509306913, -0.4255665606884779, -0.004616410124825327, 0.15553023836815544, -1.2539343089566406, 0.16635658973330483, -1.0902542206346306, -0.30590972310549597, 1.1881056511378991], [0.11983863547372911, -3.6538526302354803, -0.26188671607358777, 1.099118575962089, -1.3289263525904547, 0.3616636367632701, 1.5785421805431585, -0.33723248176698645, -0.8019007257540672, 2.0844392434101855, 2.9141831998114145, 0.11987886694302201, -1.367860336932164, 1.4096342103511759, 0.9337335457863686, 1.2631639411995306, -0.30155515222385165, -0.9553603788671442, 0.9884456582753023, 0.1912990753593215, -0.6832924994145582, 0.34214008939741986, -0.22555224563349147, -0.5000053864825027, 0.3926777145212724, 0.484181760030549, -0.5192722852307224, 1.4736735978980562, -0.6351140190539087, -0.7928293772241569, -0.5697345816133658, -1.369409085249656, 0.6913076915935013, 2.341017038571077, -0.38563827084046565, 1.2077651686849962, -0.035617741532313944, 0.7247689847536958, 1.252006367365143, 0.7715645215811665, 1.3516881189480239, 0.8474008467391446, -0.5025956343699871, -0.8925232649832785, -1.4487448334994857, 0.9009312406737285, 1.0154819408717766, -0.31145287262453974, 0.37428621437389314, -1.4766348041383657, 0.14089691040624117, -0.9999202622274646, 1.230342882933351, 0.517127370448206, -1.4392660640974928, 0.7197199861291838, -0.6229990014348257, -2.1948556804654267, -1.0310149297408613, 0.6287842808750325], [0.23789159181082337, -0.9628087240693, -0.4234012467615688, -0.16556230247552572, -0.9663552930476352, -0.34871688692193653, 0.9748278353475446, 0.6513235618972903, 1.0114755159349036, 1.2289543590745484, 0.7356709428109323, 0.4897439522907947, -0.15033479896257126, -0.7310648992722882, 2.307118978378962, -0.5595680480752878, -0.7381118334885323, -0.9330612523380836, 1.4116583467226502, 0.16238679884865873, -0.11991927657500967, -2.0911651007899676, -0.42556210824699925, 0.031650182834760246, 1.533023764337327, -0.4972289853728432, -2.4972962330682327, 0.20940104305348808, -0.10539536695467203, -1.0663004002991567, -0.6611853026486266, 1.1143270453508323, 1.375234588557073, 0.8277247289408786, 1.2629667603111943, 0.44320591981591967, -0.08480742722971399, -0.859216791120142, -0.457722318802463, -0.07086615021370349, -0.13370264642815657, -0.24567086081007278, -0.7272956409097151, 0.8155496685509277, 1.2104668607030367, -0.3640922326378702, 0.8706042220403032, 0.43740738258901657, 0.778248733876805, -0.5931053223063588, 0.6200351545035279, 1.5708503338633142, -0.0894767426270263, -0.9670189133663565, 0.30401333273492354, -0.5445023873779681, -0.867687032012886, 0.40303796170450895, 0.8098891044939615, 0.055577172633668126], [1.7014489799369805, -0.6029592959276006, -0.3783235401278347, -0.4238967289682508, 0.7693431380108271, 0.5740832130541533, -0.5430500362512286, -0.7032991622735563, 0.18351284218592556, -1.3762935979348696, 0.7089464949788115, 0.383539788725583, 1.3375655421655042, 0.06548583230123965, -1.0636537972132019, 1.223251247052228, 0.0878933540207954, -0.9737632241944256, -1.2670384900075171, -1.8512007785507198, -1.4153828096709697, -0.6767492781168328, 0.4484088659632771, -0.17575201451777317, -1.9420745409532258, -0.3444596517757042, -0.35591461549605036, 0.7890883834998024, -0.7941927488076782, -0.2542964618373864, -1.061383471460739, 0.94852174641485, -0.09111743688743301, -0.3145926708594707, -0.7136142892212467, -0.9994154204011472, -1.0887544709889854, -1.6690231781289235, 0.2748238107312217, 1.679516360656732, 0.39730681888292785, 0.9031963969729024, 0.9373901368783887, 1.2838801126529824, 0.710718029074015, 1.6514934490742796, 0.798438398058528, 0.45723766126928655, 0.43447319474289353, -0.06895124371851014, 0.00019114102258246046, 0.34347424285347894, 1.4150263431773795, -0.11784075482216257, -0.11766527906886837, -0.9734722773357471, -0.9278464046599478, -0.8892885772811715, -0.7640974674879237, 0.10290298023774506], [-0.6963270043500002, -0.24327404182722998, -0.9240193124972625, 1.489849918822817, -0.09507171178906897, -0.33398224110030844, 0.15972339237062436, 0.045257072835650496, 1.9152950151257564, -0.8496345309022678, -1.3177919152795283, -0.11417042517584859, 1.1048438663143298, -1.2678291601910956, 2.652102482932054, 1.4115003654380538, 0.6070909115371448, 0.43976265135376447, -0.8695972736172863, -1.2588020538060976, -1.1834054651123338, -0.1909647371714789, -0.011395005406236435, -0.6799125630805316, 0.2464947855627859, 0.6723152931676646, -0.37938500763351934, 0.779211693211851, 0.7678580930512865, 0.7780266237455018, 0.6370479498632219, 1.1009217665569626, 1.7084736462420373, 0.15581014769220983, -0.6393056886399225, 0.3270771069689564, 0.7844468864561928, -0.7377257353658042, 0.29199913895127155, 0.023876059062491826, -0.04040165020158392, 0.13175079250231336, 0.20035114599294104, 0.8372233598506074, 0.16063345610983756, 0.39605598476941445, -0.8001706600170405, 0.34092236359947253, 1.0184619023464783, 0.7457088432857849, -0.10866492280039121, 0.28637410377720585, -0.4385539494506626, -0.08319639052981645, -0.9739074563522427, 1.3041529077497138, -1.2361757944962206, 0.3320474453837049, -0.5487754345059959, 1.1871999894440204], [0.20864455532700876, 1.0901083423827465, 0.03909032313469062, -1.4283188494524455, 0.8284409090590881, 0.9519044361355631, 0.6244635485545413, 0.9913181224248412, 0.7744091731979839, 0.2634948881824059, 1.0372831035265682, 0.35888664790613073, 0.2925523541351494, 2.8377185680004207, -1.6579447586395248, -1.1801088441888314, 1.8486444581139083, -0.5835840403015835, -0.016330212660222537, 1.7488012449729429, -0.9469913885910622, 0.05536033411474812, 0.006485076403345589, -1.7936095373625671, 0.19447492746489906, -0.48154106009668757, -0.3741848746424928, -0.09409797772385703, 0.4659862290844625, -0.03381540524747758, 1.269375048609307, 2.1101140807194145, 0.41351420315014875, 0.49776359229339473, -0.9577138730461375, 0.0707852324208009, -0.06756566905991832, -0.20048709141977877, 0.21126118218457277, -0.26912927556969224, 1.038405401467456, -0.8077100775389234, -1.091686210508469, 0.6808839940968174, 0.5910835190006071, -2.0113701463896967, -0.3905332120007054, -1.2338510592558136, -0.24942241160507087, 2.091633499503726, 0.3902370768941409, -0.955240133661709, -0.11641871237437691, 2.3039039322115267, 0.3437235615840156, -0.11707152910816086, -1.9627732915470528, -0.4373722844678284, -0.6199946538173524, -0.5731026267026864], [-0.3212186831536103, -0.14160522924832672, 1.9813185629008894, 0.9022735912570006, 0.36196919461683097, 0.15374722088912593, 0.475904476296162, -0.7284538342573657, -0.14957594854871217, 1.983418925161575, 2.4549586143614066, -0.8708214715305146, 1.3600976970419612, 0.22772400218217836, -0.4353623353740229, -0.8330366578803449, 1.0452582866869777, 0.735268334653502, -0.2925626036205047, 0.09795805710296884, -0.32830924107488557, 0.3037124047710444, 0.7221564412346605, -1.5133969095702775, -0.1852180951040558, -0.08295431786257534, 1.3446604260665609, 1.3248934908997312, -2.469931549992396, -0.2552770238097562, -0.9431823282862812, -1.2884047472036513, -0.532371482469196, -0.900591502660818, 0.2387885814598769, -0.7956110322323743, -0.025552873426981437, 0.213314887484708, -0.7049682499104694, 0.7775455632035296, 0.13998825966658343, -1.0451765324095947, 1.4281288902118272, 1.2869164117709002, 1.568667574236181, 0.9320330280434893, 0.20823412580953807, -0.39017211597444984, -1.1976429225315364, 0.4867438408944699, 1.5371419037738407, -0.9585680708011101, -0.21426361808599914, -0.30428924349179887, -0.17017439964451664, 0.5540360717844249, -1.033732598286139, 3.2782045087047167, 0.3493776620542822, 0.8047068925248253], [0.014676195202200978, 0.3892122653673251, 0.07794838796438888, -1.03321519919939, 1.841090192328882, -0.4494212762928244, 0.07792839761714503, -1.024571938171826, -0.7330948495055191, -0.8371803001402388, -0.4608195526021844, -0.26218152871024736, -0.3428542287101464, -1.122708868959098, -1.2792431164984783, 1.546892976350045, -0.40367786801069455, 0.13718588878962387, 0.5897851409941905, -1.0741984677923038, -0.04189998789318895, 0.08949580334944827, -0.2650879353145458, -0.37495097796347615, -0.1745658474882832, -0.6836127647512591, 0.07558137053970729, 1.6432117132150144, 0.43930388754699795, 0.27890164986392846, -0.7266847270953868, -1.0495925949121678, 0.18232750277172363, 0.882556692897163, 1.0827405149222489, -0.7938216515243094, -0.6215751879450652, -0.6312669218916624, 1.5379765521447568, 0.922539906084425, -0.6965714558581956, 1.3525258576340042, 0.6006277972145323, 1.014404390153107, -0.8716761633793311, -0.8332296137803685, -0.845161622800835, 0.1257100472453334, -0.6127847561571212, -1.9995135581164978, 0.8049124994735135, 0.6655812745527807, 0.2461715093250992, 1.4353774959607415, 0.5162910004123058, 0.5380343148085971, 0.8371625475196501, 0.84943973927382, -1.539536300938744, -0.5050649634282468], [1.1362686637489035, -1.257271976705218, -0.703487334416942, 0.4048127151029773, 1.802009336116366, -0.17981983762299666, 0.2475702365903704, -0.6228914725915222, -0.27919332611330727, 1.2663554651473123, -0.36757682793427565, -0.23680156828546073, 0.6480309632180155, -1.5381353455604363, -0.6112837559293481, -0.6896105449759856, 0.6479356210398199, -0.5363621689176753, -1.9905351235635973, 0.13927582917179493, -0.5007266605545503, -1.5339872649266786, 0.24990732892577455, 0.12951073032541488, 0.4660807564885194, 1.6579676356875999, -0.5895381050506886, -0.4369791147359229, -0.561343985258044, -0.5142891047893289, 0.8251385752167311, -2.2257957292829724, 0.6609737615848896, -0.48435294297815756, 0.35321723098780095, 1.1482807864319153, -0.12415702427872123, -0.3854900671496684, -1.4551574570269832, -0.47081082023410586, 0.8637127162005942, -1.724878666261767, -0.006373633791512919, 0.4076202436265427, -0.06899490722631109, 1.7475839562014195, 0.132997317284436, -2.0709823342582885, 0.24278875156932964, 1.9718123490602484, 0.04382220005397663, -0.11703326284957034, 0.6268059813429241, -0.8951400912521957, -0.7577708868709578, -1.8250447543857484, -0.9296172614493848, -0.27759446657355574, 0.7002363556734051, -0.2739267844686869], [0.36639695521634214, 0.9757834738903661, -1.2637201126367656, -1.1064093764885585, 0.732094781339405, 0.26536041675897987, -1.2631596156735363, -1.8922056334900574, 0.9171642662910223, -0.14389285705296662, -0.0027466222866989777, -0.5735258959048382, 0.8316718935536233, 0.9888306566435954, 1.8302561922509533, 2.379284629324374, 0.3401067781600137, 0.9414326113343583, -0.4612153554277261, 1.1284422438471045, 1.602657457884058, 0.6240493231315308, 1.134202591337242, 1.2624575648283398, -1.3684147960097295, -1.6610831502847296, -0.2524693430031515, -1.889834126865534, -0.9140290111505227, 0.12615778503042893, -0.34267657939552065, -0.5083732381401839, 0.16249599347980975, 0.1270539039639619, 0.7115897778412895, -0.9085723072816263, 1.957920297489523, 1.1142295530569954, -1.4757029624712983, 1.0688993669721263, 0.668817626991376, -0.1707692811664591, -1.141255605380747, 0.7450959714808033, -0.5971723014422156, -0.01703857950023518, 0.2564927804387933, 2.050918208491679, 0.42985840133570485, 0.8167518784035421, 0.27645066501395804, -0.657847796331815, -0.25420253448492336, 0.09192793355711507, 1.1152763681125153, -2.1741999500073073, -0.041174628621444775, -0.6980882920774294, 0.08614157498597513, 0.9408325607232494], [1.0174492532872899, -0.22100893569330785, -0.6303586730809667, -0.1286195008123718, 0.5774272709305819, -1.3773645828582177, -0.45546567827983103, 1.2084577558011536, -0.16628615957239173, -1.0072496469067862, 0.06467524347719433, 1.5877207165152418, 1.0851540385692116, 0.7771664519918209, -0.14282836236308527, -0.9715465308869937, -0.20895447641536513, 0.06746078845506073, 0.04209860334357457, 0.924080841765321, 1.528222948782651, 2.2297236925533452, 0.600114459049939, -0.6332174230566275, 1.3015957314545503, 0.6983240725814313, -1.7341594776076, 0.8344363780086712, -2.602717185428255, -0.788106937255425, 0.4082340153409834, -0.6553121605223668, 1.3375832534203442, -0.7852979168880824, -1.1275108871680681, -0.5256262627521368, -1.289159921583677, -0.4338370666180151, 0.9016333601787314, 1.1569186630589077, -0.6319610493160001, 0.3570867603664354, 0.5937544900527864, 1.09644239352218, -2.580366785612753, -0.8809908682267444, -0.021609326315075346, 0.9169420707656348, -1.064457986620515, -0.878275023707505, -0.1967670718787158, 1.1453183663722397, 0.7311121413938179, 0.6509342792904602, -0.75083439404443, 0.360358532171699, 1.6725697201062621, -0.09232405409694353, -1.2455352203461827, 0.9462206209749071], [-0.24782825961305516, -0.44586019670733296, 0.44585993991672057, -0.21639333514047318, 0.0047668360547754585, -0.571411074294376, -0.8039569368670769, 1.1538691924568396, -0.29938053777661, 1.169436182442235, -0.7277619102191516, 2.5279668662084354, -0.5539149625591958, -0.18345944066919115, -0.3334297927687494, 0.3497927793102194, 0.24114440625516903, -0.6945565019840287, -0.08401695389104512, -0.5003235923910866, -1.9496473119000641, -0.19247940236383587, 0.3552706577329052, -0.7708356546242415, 0.05509521644177493, 0.5214520352316456, 1.517319672003243, 0.07358304075453923, 0.03416235624488697, 0.8674456564333001, -1.8849967695491636, -0.8157133515694331, 1.0310999753032362, -0.7147434759456999, -3.063556792613379, -0.5258475138730596, -0.24335035740060348, -1.4378586807067024, 0.9165193575332532, -0.401260154804819, -1.2542599199124116, -1.3055316876173895, 0.11471890159018248, 0.2485840303709136, -0.20123058216652773, -0.916989365462174, -0.8509057730606745, -0.8116550970331367, 0.09833043895589082, 0.040331520634208404, -0.4536197682353696, -0.5478184785732074, -0.48292912207761435, 3.8535255317374357, -0.24150456532095357, -0.12448853246034114, 1.0234938176594366, 1.5542139691458927, 1.2209543641300384, -0.7246484559158642], [-0.08243444815277831, -1.3314842319654328, 0.30002613971862985, 1.0962985071728049, -1.1161000370534448, -0.3242242676918158, -1.2407299064765573, 0.49106411316893434, 1.8141251787477748, -0.9948187495696494, 1.2263100423710447, -0.9130134764732942, -1.2097743178885065, 2.3150447943769175, 0.4878171725049735, 1.5746898160581282, 0.27860485947847635, 1.9726300319072179, -1.184616705752782, -0.11904477981462694, 1.1082740487371092, 1.05538053170562, -0.3737672806212641, 1.2060306840896993, 1.9640131711886013, 0.4989022298553163, 0.4408746270837605, 1.0769741298468423, -0.8817161509262009, 2.6406681333097413, 0.8971983045338846, -0.6207282946855551, 0.30181913607982525, 1.2090603687720347, -0.5006921214920909, 1.5100076784743777, 0.5562646906284997, -1.5574544298016944, -1.259194389648343, 2.5075917620054904, -0.7647354649690468, 1.4725779162455792, 0.8089222209207776, 0.8152315940510034, 1.2720704005469052, 2.2844032293240946, -0.391640248777659, -1.367667210536452, -0.6115681058057153, 0.5170600892023001, 0.7717753974407614, -0.6062641154118645, -0.09362699541105739, -0.2829572485073585, -0.3442532665528015, 2.7097696140755785, 1.2384544869586116, -0.9844284447831583, -0.723527760035121, 1.4005749785070545], [0.7823889089954789, -0.6491965142685017, 0.3409978267466698, -1.0736729016052158, -0.04978892341460209, 0.8918455499702731, 1.1188101100650674, -0.6682436549595249, -1.3013430038759273, 0.535680227875991, -0.2432582616450482, 2.8169422475608057, -0.4061425007173885, 1.608375011653675, -1.4000364654927415, 0.2975183663035627, 0.11559810893782015, 1.2042731420257526, -1.227157050374761, -2.2780392297592917, -1.6565399024129495, -0.02628889945961022, -1.2510093675893388, 1.1016964671857647, -0.9784856137598612, 0.1938030221522139, -0.16847846651326842, -1.15357006075429, 0.29559624161061343, 1.6370048472670846, 0.17867670752966894, -1.6814443568063606, -1.5538209804931389, -1.0948992233145018, -0.07216400882340387, -0.0833070716658605, -1.0738415508823316, 0.3412582758775706, 0.17520018687058547, 0.6500475921975171, -2.220847110676484, -0.5294654420545001, -0.9997591708823668, -0.1305643125360855, 0.8694626647736239, -1.323730820029687, -0.2397695963442199, 0.6529328961416624, 0.26273868153561186, 2.086283879347838, -0.5679470106715744, -1.2248184365463466, -0.47894276209304515, 2.022310709315263, -0.4458328675603293, 1.632279121725797, -1.933560054950426, 0.8591291774951918, -1.577444169954354, -0.3468612967976232], [1.5149024963415048, 0.4577549387403125, 0.2709208061984437, 1.3115407669316501, 0.8387024641733942, -1.2354902029143529, -1.3687897315756794, 1.119057735095472, -0.8214899506137006, -2.5052675727492977, 1.2161017188488856, -0.4643251963572131, 0.12558548811036443, -0.32347281514372805, -2.155127103564792, -0.37253531348015967, -1.8536466086144272, -0.2685523632649321, -1.0681411557028995, -0.6100080860100671, 0.4191091848294241, 0.28551125138999045, -0.34760206102094643, -1.3838171590130954, -0.4542678917378442, 0.8704507703070322, -0.378765631070797, 2.6277486885967085, -1.3195921946833693, 0.46406912283255175, 0.10508479105027087, -0.2076471912409456, -1.2861533820311875, 0.7193384047038791, 0.17280825269185274, 0.22866635662761275, 0.012572710089530875, 0.9943211032338626, -0.9707744187699578, 0.8626723809880101, -0.1506451749777264, 1.0442931495250318, 1.2794006573083179, -0.3717698689423252, 0.25663432308670386, -0.5855201472117588, -0.7601043635371953, -0.9431751983819228, -1.528346793305389, 0.1586128342930089, 0.18295661742166897, -0.9162339907065753, 0.6125386248178702, -0.257507251618209, -0.871541652424796, 0.6692943372001555, 0.4858679797134828, 1.9338808083310433, 0.46783374425836843, -0.36756843935901923], [0.28488963776368914, 0.9261216091528953, 0.3118688505466799, 2.0606368633263377, 0.5589257182540838, -1.5871841202892853, -1.6715840808672124, -0.2029642922389878, 1.2685893692210835, -0.563230454008272, 0.2927498045636408, 0.6901430097957189, 1.4514824653080947, 0.05415860428457119, 0.2191418174052979, -1.0196767530437325, 1.1139111348607058, 0.5869581318495813, -0.5098440091391027, 0.007342431476896335, -2.3279176583467884, 1.6458026895207531, -0.2797285752300478, 0.4317946221580041, 1.2865107156425377, 0.7182183017496055, 0.9490473486260228, -0.5318022024584873, 1.631906754140383, 0.5720672178764521, 0.9415281515972526, 0.6963508360714282, 1.107653633025085, 0.29899503088387175, -0.3191380873004523, -2.4029757255661877, 0.08102296778453512, -1.415488811097507, 0.8514136580797522, -0.17663741028389415, 0.8432750288203796, -0.40337172238172064, -0.4368170873549159, -0.9652332743682348, -1.0018746899147342, -0.7093844605859364, 0.47471472019280747, -0.018256609166926847, -0.059962784478166636, 0.7808742577057053, -1.6099624039981384, -1.6495646767354335, -0.8679350837947488, 0.5035090686445606, -0.14200386735015563, 1.417632328219655, 1.7212318141498941, 1.4557094613530308, -0.2997639411276882, 1.4829294115013045], [-1.1597251228925192, -0.431994282693278, 2.067419562859163, -0.7981790477828187, -1.9216289573756637, 0.14418936216575337, 0.8776579363863904, 0.05359623383629118, 0.27455409100341777, -0.018424510607155737, 0.6367099265274285, 0.6512687715402385, -1.2970298529269737, 0.21285360070798673, -0.7725382679883845, 0.6574280227965859, -0.4639725398247784, -1.0397639870648947, 0.5708363451716616, 1.347906220650263, -2.092871276645163, -1.0968881767492167, -0.3562864755629946, -0.9264760770321062, -0.7094467706821342, 0.7893126349662251, 0.9018996109771984, 0.0628007152607077, 0.7046012854465221, 0.6844665045011434, 0.9052854726684038, -0.3696356151278676, -0.3059790824533882, -1.0118579448148026, -0.9406319768143357, -0.45785670918031063, -0.6599568974661862, -1.0646994660561366, 0.3928839120319503, 0.07152418205068442, 0.7283310724872951, 0.18480958238297257, -0.06194361812189823, -0.28309842297728427, 0.025158850462391275, -0.4328831679376589, -0.052512465277347195, -0.13226175054243, -0.30577176869498474, -0.09190234502778905, 0.2932134242343806, 2.2792099544754976, -1.0280958301078984, -0.18464119853533853, 0.25754869695155946, 0.6639925713119226, 0.17946257200700447, 0.8138848030938444, -0.05745154529701756, -1.498075305137649], [0.4736056198144689, -0.4504603022926213, 2.766084118314272, -0.9008807469797312, -0.5062421964232622, -0.7224655612258798, 0.3098492279606982, -1.2880814787196144, 0.44374237413198, 0.03829910184881367, -0.18961856787356873, -0.739915431847752, 1.9312795191957681, -0.5699768165578437, -0.6936818255806857, 0.2463972922294786, 1.742747281712867, 1.0530577352026245, 1.3083914862886654, -0.5839711579119921, 0.7977578907390289, 0.10165510562939375, -0.12622633496968036, -1.8541251317378595, 0.5165311525285804, -0.16911480906560122, 0.8082824809526971, -0.5758415286041261, -1.3055784112429958, -0.1361260870084665, 0.3812644387761817, -0.571682176776484, -0.021250442490630156, 1.2147194653463718, -1.1429480494062314, -1.3012657216387118, 0.29241921433395596, 0.3523456516143949, 0.8864820831363953, -0.32618748404920417, -0.571669300011538, 1.2460285327288259, -1.2482933400821181, 0.11982663488118343, -0.5190406028799281, -0.0969066867915999, -0.997409085119495, 1.4596881160155646, -0.043878854123053306, -1.0127600465319622, 0.8943552267237292, 0.10473653110218939, -1.052349400968416, 0.04425697410718611, 0.8033882322018912, 1.0424368613983686, -0.22651934177324445, 0.21432905260784887, -0.3822571109942857, -0.3181979266432656], [-0.9555777541666466, 0.8051084061928416, 0.36772344831891207, 1.5892518310493717, 1.3942733034937043, 0.06627323589814642, -1.9617173212286996, -1.5256762742384635, 0.3818840824504117, -0.906311129118793, -0.07652783962411905, -1.3203036859625665, 0.8450380101393867, 0.8563690356146691, -0.9273296356826882, 0.21456919613670958, -1.1910295193357385, 0.31123682951858433, 1.1302439171123588, 0.21749740298947598, -1.946040057101916, 0.3736023053330415, -0.4033391467691504, -0.15496383439474348, -0.6978476930221442, 1.3825506239242855, -0.3554313928853533, -1.0750481365892341, 0.2069225893953984, -0.48421749468781033, -0.47628358801527243, 0.30877758084459966, -0.357659894753317, -1.0361714871253704, -0.2805469378308782, 0.6798108077536597, -1.2553275182199313, 0.18954408623799782, -0.2252531879386553, -0.42699204496685744, 2.1426686854084953, 0.7727910176121906, -0.061511968537866835, -0.05877474513766614, 0.6535071973348018, -1.0349586154449268, -1.1886875753865014, 0.5069732773807827, -0.7335050224346747, 0.22413534296587398, -1.042993188863496, 0.9495704683698257, 0.9213337622258445, -1.525482842456303, 0.9350014395437783, -1.1067670472209739, -0.44792173136500185, -1.0962663870686296, 0.5303284658369406, 1.2612245580883528], [0.7236598994945254, -0.6019130871841419, 0.663521512628241, 1.2067086231109414, 0.7074655556197093, -0.05508287075139983, 0.726775988063718, -0.7754712499009784, 0.8956155114578481, 0.9015169428453438, -1.4118434644838636, 1.4715695421115549, -0.11040448834956317, 1.5971598102096554, -0.8885238001827126, -1.416607829457103, -0.1224045939405065, 0.03449122916641571, -0.23539567426511235, -0.7289390434086697, -0.8452352842896055, -0.6742104556890056, 0.14291836185420337, -1.8838099286614058, -0.7165861236705271, 1.1332433932384847, -0.032855877086661024, -1.2027717917494218, 0.5327403387604144, -1.294802822543949, -0.7157957256515105, -0.43950266506148294, -0.06578753705043651, -0.09725037047849489, 0.9411022522099708, -0.37879322321672, 0.1769234046688608, 1.7882813911737054, -0.5827815691976735, 0.607519071548521, -1.329940182403511, -0.5888654010277499, -0.3863820704376301, 0.5370699954112865, -1.0820100692873356, 1.0790966750345896, -0.15969554628466692, -0.2129954274488402, -0.1530852201212996, -0.014164475289219188, -1.6438208938635523, -1.0273408837252056, 0.8022610997651648, 0.8783764032123215, -0.37066619828873554, -0.28579404141515846, 0.301608453350746, -0.07022804604037426, -1.0793127331695607, 0.21487592755650023], [1.0798427481348871, 1.2973682559793587, -0.21764238356175888, 2.6875678885653014, -1.7343343877151978, 0.021318482497469354, -1.6471116503257155, 1.6251010174634126, 1.2370841576799596, -1.213222730177114, 0.6875743833146045, 0.5917598639402051, -0.8533899954220442, -0.4251883748120618, 0.1339901021152875, -0.4152498572692588, 1.5491095834267006, -1.0568126244881388, 0.5340622192054701, -0.8479172205230554, -0.7018100175716729, 0.037153051370791085, 0.0012595499060086307, -1.0528838375865963, -0.24133344630313472, -1.4339999532107381, -1.1023308921029553, 0.564734861569747, 0.34700393857995493, 0.2566585498050846, 0.019424791720177158, 0.72034493506772, -1.3246116380728494, -0.20669069471916204, -1.3446640148067892, 0.26798062639667636, 0.5072053987939057, 1.491750395597096, -0.5886113437357654, -0.30254429376387015, 0.9033093273330512, 0.3826341378048655, -0.4497839724357469, 0.7408383845546364, 0.65045489983443, 0.5235000402448432, -0.1342400118525735, 0.1726809541694482, 0.9899434055460298, 1.5269512804420478, -0.2789921018166881, 0.021810086650680995, -0.6021567664398845, -0.7687986417901709, -1.1639078938707157, 1.1196916522657423, -1.1712199579293605, -2.046064265158301, -1.1241315800887826, -1.63789738504389], [-0.5317805243640952, 1.0208210400036153, 0.26897877667046155, 0.04681239372296271, -0.4321698797423459, 0.8266493711566533, -0.4385393561450547, 0.40332457337568606, -0.5295683469273711, -0.28488683979609025, -1.4393285404340075, 0.7854596192759845, -0.4638077982064778, -0.12749895031087097, -1.3189480708611256, -0.07183295364858051, 0.6364055045120348, -1.2092063343479849, -1.2746810253183474, -1.574712190040135, 0.7840433588503061, 0.2779944074220799, 0.35177900585302047, -0.3627126782734144, 1.663907921453804, -1.4055443514700154, -1.3102780102986693, 0.5328294964893047, 0.09748846225233526, 0.4438151167703342, -0.2243030118193962, 0.5463019799590032, -0.9288773092488891, 0.6619093018340507, -0.20318407237170752, 0.00463486132788504, -0.1792035094953237, 0.05651394756157629, 0.7709047565211563, 0.08956725077770092, -0.5303939915471008, -0.03409824862943758, 0.817676738529863, -1.4576027633400048, 0.03805263213863974, 1.0862579881555832, 0.3499625282132349, 1.2443904239157983, 0.4964229273753432, -0.20771209423505618, -1.210727331795649, 0.2820472510452879, -0.4408727583219212, -2.415329723044558, -0.06138285948916672, -0.5153756094098245, -0.6392187207969001, -0.7260109080782687, 0.28137755658388236, 2.1186264705386404], [-0.7990373008411158, 0.8793000917070001, 0.6950767925059463, 1.325198496572605, 1.8133058243909745, -0.9815401447717973, 0.35362197988403415, 0.3159530918190313, 0.9677445341220949, -1.0151652882800875, 0.4039006595369069, -1.1666837587121806, 0.18156413589397735, 0.7934729393623176, -0.5555206051751717, 0.18601544895752273, 0.19851656524109967, -0.5505833474962173, -0.2687235857158763, -1.4395062773306155, -0.4536158635582542, -0.22172635130881405, 0.9514348848965158, -0.7032881652214061, 0.716216932017052, 1.9076614877661437, -1.4032124187084751, 0.1358715837268857, -0.5724874797549057, 0.18664987717237946, -0.49754255342046655, 1.486456542767362, -1.423337658613298, 0.1634954470344745, -1.9260179065932994, 0.3029348944229073, -1.9019332282048407, -0.9891970739136046, -0.07959423748851277, 0.8843297495644711, 0.3965062739471601, 0.4951293973168722, 1.2786937432839665, 0.5198524730999193, 1.5071966352141801, -0.5404842862393294, -1.3688178750857654, -0.13321437014006288, 0.9227013597083359, 0.5225227528850808, 0.48199263695253053, 1.8739504380921814, 0.29028766028108455, -0.9947741814253273, 0.26917781063193097, -0.5200679293927788, -1.422873855513289, -1.0553421748119614, -0.6085629662427946, -1.0621305430408023], [-0.3366359583392018, 1.3708381229331728, 0.7181413479962925, 0.8554206244732989, -0.11332618376004396, -1.9627129816505033, 0.99447920798398, 1.413214773624643, 0.8762766650639849, 1.672632882229622, 0.25528195011613225, -0.3206481166522625, 0.9946167750417233, -0.9982262639747574, -1.221651894868389, -1.98280006674175, 0.17697216186577625, 1.0635578816315188, 0.34055485379705935, -0.3719976000924604, 0.5317310247300283, -0.9628738881825696, 0.7598933067819835, 0.8796176144524487, -1.422792604148447, 0.06750326140814905, 0.8744239119208335, -0.20964237230306296, 1.8470125020209662, 0.8707935768695516, -1.4679024289206908, 0.6161108862336998, -1.2113063903801728, 0.7121552195894957, 0.5926066381830329, 0.7853325352841412, 0.5237999074587076, -0.09090214180709044, -1.1859487304677918, -0.43139628090178156, -0.7008450456625852, 2.2261283539472974, -0.7593088422587935, 0.5702246535603087, 0.05099573778731225, 0.6905857107176818, -0.3096569821641222, 0.028464862813062486, -1.7078991842923736, -0.20507765216920068, -0.17155526956040443, -0.6380081607241368, -0.6379314182525883, 0.015108622280636265, 1.565073850213897, 0.46548509321139697, 0.19215299828312354, 0.7691494768637896, -0.7118603230463156, 0.35529698145630056], [1.585509544291706, 0.12072579211443775, -1.8623847208417146, 0.7425653468224738, 1.2061573481382883, 0.5155738121082973, 0.18377228804874002, -0.6088745151083553, -0.8286237748420312, -1.683407231385198, 1.713556540440185, 0.08758104003249972, 0.5042897716869384, -1.4579225072705584, -0.3023702966652222, -0.5528124112350713, -1.3006838700733185, 0.24883169090864063, 0.2429611286272346, 0.3921576886458856, 0.758202392285737, 0.6567156036321887, 0.32675482506049386, -0.06739232695394563, -2.20183017518434, 0.04555949977752396, -0.6085845208201819, -1.419625531449615, 1.3384185026345523, -0.3429282588879119, -0.6353209110050537, -0.7779323022947274, 1.0479108212396762, 0.8121095872066247, 1.3876472479842348, -0.3141485899822987, -0.6842403192924303, -0.42881039595234244, -1.0310703756593336, -1.1804749294189942, 1.1333026764825642, -0.3785622454174015, 0.5338046027550265, 1.030556689031433, 0.12981851234612418, -2.182393474214149, -0.031950609871975136, 0.23719203533983707, -0.3956538818092559, -0.27595988993396103, -2.44133649702548, -0.15114745358698328, 0.19050632405965745, -1.8347226444471578, 0.5540953238051742, 0.4392581837466568, 0.3625127759501388, -1.3579002271417806, -0.5000415518900757, -0.8125637545793936], [0.9306819604689696, 0.12070010128047337, 1.1760403136418727, -1.4805342826490688, -2.190847552559867, -0.28769284607808326, 1.2733711858676027, 0.4067862505868915, -0.03550210149762006, -0.3647529411420808, 2.1613358606295066, 0.08681008332438207, 0.2695502027499848, -1.4160367661826276, -0.03425738713056965, 1.218855614036048, 0.8067914078990152, 0.5379033409266326, 0.5759168392005739, -0.2206802004502075, 2.064934129710352, 1.0743680413321404, -1.6838773890385488, 0.8910074259606264, -1.2934113410758967, -0.18655697848876954, 0.9165173109257652, 0.9082989096201084, -0.8307001374447223, 0.361597345134414, 1.9966568146309585, 1.7586553496303872, 0.5290386170439433, -0.5094422455398216, 0.789573194847226, 1.2959004802466128, 0.08452536082893014, -0.6958782399568716, 0.566971170207949, -0.9838994897518718, 0.08310075147373508, 0.12356057559627037, -0.42491933542082455, -0.6967726767505685, 0.04095550839952702, -0.47779603779777013, 0.7322821432706419, 0.8895933405570602, 1.55540745501874, 0.8979675789073255, -2.0304986171732216, 0.7721773026822917, 0.7161761607980738, -0.6651857358954442, 0.13651474297757257, -1.233155030735666, -1.9168307095610642, -1.738529340838626, -1.1018458433188316, -1.2551747179842017], [0.22524421427020347, 0.15226586606295167, -1.0262971522087991, 1.7204017600877426, 1.3406718912158944, -0.7613732061940051, 1.7176662037270918, -1.088049403573462, -0.16991067436894422, -1.7588907511576313, 1.8233380325022825, 0.6210727268495512, 0.9227662147699943, 0.49338719492254446, -0.35935441720477357, -0.2958103590491015, 1.1615784019158868, 0.6980431921997541, -0.8697801874839322, -0.47758907717965515, 0.07290701847787942, 0.619332000505493, 0.3728594938258811, -0.6219360218777908, 0.9052070444450703, 1.3578599616218447, 0.8228969740621354, 1.663333527951548, 0.5937239704905074, 0.4984277254157159, -0.9614335571335428, -0.7338416990590626, 0.7215170588674907, -0.5462017725368921, 0.6401793077164462, 1.0295365968587527, 0.5401366842618572, -0.6055364538206046, 0.439512803444213, -0.51499714610852, -0.049982383567516456, -0.3779898418468452, 0.5041536399303159, -0.8529156144542431, -0.19496778510735713, -1.1039694122024581, 0.4606099912446572, -2.281604564517113, -0.12802735595559717, 1.2012197326274725, -2.1712970393563067, 0.3320739956219414, 1.2204161781341336, 0.7895394748371616, 0.03789324504620091, -0.7971908346980823, -1.8915324056314375, 0.01749645559419384, -0.6929741348875436, 0.9722986183088002], [0.6655068952676587, -0.9701711665910754, 1.6365256856085817, -0.1857078109225979, 1.5725203489101784, -0.06454934761298765, -0.7210702702237464, 0.3589572426503853, -0.14223870621065524, 1.2072333771086685, -0.7502073268722174, 0.8562291239801815, 1.9866574004024369, 0.8247853647474515, 0.635050032454428, -0.009258786647336283, -1.4389194717445795, -0.8713208147500302, 0.03084497808049003, -2.2746116621050607, -0.38503846637991157, 0.2851494230567996, 0.8461221167788286, -1.7323087492416291, 1.3151833235793815, -0.6446708339451422, -0.6528014223654051, 0.590252712876911, -0.1719848331884225, -1.9427211014426198, 1.4436084964474387, 0.569562076121461, -0.2741411598747808, -0.6863492832049948, -0.2689206602207255, -1.1461722816395934, 1.5560720289242984, -1.6122777225714013, 0.8790935571505482, 0.6444967997818958, -0.7010936666322292, -0.24330613138376586, 0.553214573246417, -1.0056594936230396, -0.3349849670387491, -0.6543532273771383, -0.6712817244140984, 0.11913178899508203, -1.4026933330802376, -1.3925735069353273, 0.028870575685958105, -0.09040701881273724, -2.1486092723536188, 0.012699958036722725, -0.657567023754018, 0.8107580350979156, 1.2134579467833653, -0.2555989707439578, 1.0372911522199646, 0.345730713389714]], [[-0.6414192488202919, 0.8863522062729939, 0.18116050345918636, -0.38386213775040967, 0.33279788232797497, 1.2653976089498153, 0.5298707132041415, -1.1150659396283955, 1.0620971594415036, 0.09832489782433265, -1.6599074507470135, 0.5961383801433046, -1.6166149273796566, 0.9712658597827648, -0.02808712922559785, 3.13434837462952, 0.11698505750803023, -1.2585144566188207, 0.8469411149287946, -0.007911663025349916, 0.18553748697434064, 0.13961624202040607, -1.3265945096659826, -0.09973851169785562, -1.2381823170823416, 1.4169649262228152, 0.13910265414889839, 0.06290165569172511, 0.5409891417189397, -0.8984549939752833, -0.6840160853789454, 0.6479112970388416, -1.4445030108258035, -0.26104363963234284, -1.1648711688658475, -0.07048411738487347, 1.6739484198764338, -0.39708167132318684, 1.420514427037275, -0.21014374040493092], [-0.7868469709868163, -0.6792121082556892, -0.03155315948856658, 1.3743219644975446, 0.8860216620990244, -1.9155919095756309, -0.25323959921011446, 0.8361014196704077, -1.4023569347508147, -0.06084350734812074, -0.03938711123727563, -0.35215975589785786, 0.5519783881481171, 0.7260707718254513, 0.8197454557400602, -0.32974790402162496, 0.9156838383507889, -0.5330030118907048, -0.4232197545142597, -0.1538589750489764, 1.0914989140968916, -0.34838099164731545, -0.7784488144562883, -1.2899173371573753, -1.7759907595950144, -1.70693690826774, -0.8190444210751501, -1.00747559120024, 1.1969159662843873, -1.9959700646597403, -1.971624479243965, -0.19189927299914378, 1.3290111209896893, -2.2392888967973477, 2.1203607121468506, 0.3479329791816017, 1.6413695503482109, 0.4099087202956852, -2.0431319393282648, -0.625965250664156], [0.4850777804438334, 0.9509225929754245, -1.2430042983644107, -0.033905211984538115, 0.10300190098852975, -0.4166578865749657, 0.847452517766321, 0.05589989074309063, -1.5211405581994635, -1.4694432367961117, -0.15400531568072479, 0.8005536768841172, -0.40541287267495874, -1.441261218311129, 1.075173492951003, 0.5272077975469555, -1.1990078987961854, -0.019337693920272386, 0.15514785622831007, -0.549026593080334, 0.214460914022918, -0.750668377051485, 1.94262966605821, -1.5974034931423389, -0.3085826624665385, 2.255161834067167, -0.05383367322693866, -0.5949740455347373, 1.2043754172370815, 0.13439765528379458, 0.07785763117753983, 1.7641939122279593, 0.3516999715187901, 0.08167444714308522, -0.4788654688389746, -1.1786828378540064, 0.5224851892603991, -2.1181054450603534, -1.6764392928659988, 0.6615387047409865], [-1.1377524776017605, -0.32777566371955597, 1.8369306712097653, 1.3311920030957336, 0.23569005395840387, -0.14419852406676353, -0.17491521713209332, -0.687151636740262, -1.523378071815878, -1.141962882594272, 1.3407134502783766, -0.0996621747222295, -0.08371958261607014, 1.9335365957704391, 0.5101068745659584, 1.6889968120242997, 0.7563237224940295, -0.407932806944833, 2.9010900377065303, 0.7231574221412863, -1.8344095697541567, 0.6873270571638198, 1.3394252446161177, -0.4345564987644185, -0.24953299542441026, 0.1799248743112482, 0.5107224783746853, -0.05196434493518017, 2.1235740637157794, -1.0455840738635016, -0.7271533601623353, -0.45188485948717577, -1.5955700016870897, 0.634731630064719, 0.5113239542225607, -0.5657668952086465, -0.13870901552248863, -0.521450901281121, 1.0552054708177907, 1.2454244606559681], [-0.6373109502451324, 0.5593947107345639, -0.7774337696481786, 0.32140771104649274, -0.21892567171915736, -0.20523384849983536, -0.12512322039889703, -1.4879992904164046, -0.028170059060618223, 0.3967956097288089, -1.2607848898041687, -0.10308284877167362, 0.40044356743073967, 0.47746829299959703, -0.45574524569474734, -2.535230155274488, 0.2932654581823005, 0.08633794791068773, 0.5567750799730189, 0.8984538267732827, -0.5732372207490855, 1.5365376498327723, 1.4595468745220501, 1.0878449477628473, -0.7776272953466751, 0.4583494026944839, 0.032447071965961256, 0.051385383978536175, 0.9521331503659928, 1.216741763747026, 0.1644393277105357, -0.8954240787247972, 0.5361715835392012, 0.04431510460263463, 1.0471962672488184, 1.1765494438278339, 0.9040558377148666, 1.333915218037736, -0.12525200761210534, 1.5054082108669196], [-2.0250191682050493, -0.3479646840808713, -1.2815479961490623, 0.8257934468585905, -1.1615638852568664, 0.24156075679977204, -0.7408871255871242, 0.0031537515800978506, 0.550669998690477, -1.1027429763813896, -1.9481096541260416, 0.8642129878767004, -0.8127720408898677, -0.6111231478525098, 1.9107822796358078, -0.5419112482354379, 0.6490856867862866, 1.1127797735460219, -0.023953314316859427, 0.06501437001096237, -0.7324563951564597, 0.13299085554239484, -1.031292442064041, -0.5126726034290042, 1.8575279509921212, 0.1985048888730797, -1.3133572763711743, -0.7686588135851007, -0.923507805103496, 0.9072224609886254, 1.4419275174219104, -1.7657238276311769, 0.11983982669771134, 0.1824672819639257, 2.078330426918896, 0.27644533059023246, -0.653872368032994, -0.5744296947305381, -0.16625742215146858, 2.328683159424649], [-0.9130630656497613, -1.0923030610551363, 0.4381777280199682, -1.1542525325578177, 1.222560733801112, 0.34029812549801447, -0.46383093201846237, -1.4292246965278625, 1.175967986101018, -0.41042408124921476, 1.0375601913874126, 0.9356282472228918, -1.3642308204592648, 0.5230803769418569, 1.8411318001906365, -0.8013963780169704, 0.5914847919321671, 1.5954363454905742, 0.8407321499259396, -1.6773511831176315, -0.06464789244234283, -1.2364732570826975, 0.9293241507035409, 2.149961657183921, -0.0993215097365692, 1.3198492937011657, -0.6754523303228968, -0.42488464542159754, -0.18201902283149612, -0.8597573767572984, -0.6506453461128086, -0.7006239711248897, 0.7457737748791599, -1.1128256750679995, 1.0843993793669744, 0.2750559244444987, 1.603762358932422, -1.1492597285887909, -0.9590721556688129, 0.1648661522596415], [-0.8981701743467136, -0.39904039982706063, 1.1596280406618382, -1.6038469801167239, 0.13982720208635674, -0.12819584167191542, -0.17317411108578112, -0.37196925761362376, 0.7222132617128693, 1.0090587569061666, -0.08413581684308753, -1.139590747885358, -0.5434015643912475, -0.867653638682947, -0.5263284041674398, -0.1434588506331441, 1.0160995569068791, -0.7414135185043961, 0.09725184577337728, -0.8179001865302066, 0.36729968849126277, -0.7412391956691832, 0.6675955954566746, 0.21302066351274818, -0.3547922088408856, -0.2771187694980732, -1.4184306942017753, -0.5307982240464165, -0.6797775226203707, -0.002166378183828029, 0.5545308815784289, 1.1489529244463066, 0.08912516280687056, 0.4133050232692384, -1.130847558644959, -0.47284767190839894, 1.390359336409727, -0.6166542867378761, -1.3053653823134062, -1.4015942423018508], [-0.9368072472457489, -1.2346673828279267, -0.8158946107788776, -0.9452730522303543, -0.5000307894184386, 0.3144907489681033, -0.24951079095951734, -0.6488979654317076, 0.005671820703533612, 1.023103576955706, -2.6119694353931306, 0.5407322643174387, -1.1251693379307157, -0.6180642282107209, -0.023870422813549456, -0.4149772036461833, -0.05582899304843165, 0.07453059135889825, -1.400528449768562, 0.05886600674135424, 0.8389963554616657, 2.218484333476988, -0.15716003267352424, -2.0187960131488354, 0.08015841190180968, 0.29124818774389, -0.3576185358174481, 0.39847475076765954, -0.7554501315176616, -3.1079577595756076, -0.07283293760112855, 0.31445429421427434, -0.48109857248101584, 1.0417701136327921, 1.027976836351699, 0.33261963567955044, -0.23387467293491607, -1.0139306300357294, -0.31167274980422477, 0.821832930199037], [1.482542725492552, 0.3838677287173118, -0.576407754513328, -1.0771797908552891, -0.3672574359619028, -0.20016071286541315, -0.6461561959563767, 0.4348916942238777, 0.13988342142769616, -0.39500849595989224, 0.511171381132873, -0.36256219502649745, -1.2072721370436723, -0.38728170341499585, 2.746762987284302, -0.05016458821219026, -1.4518704376371194, 0.27455252590556745, -0.6515571840122787, 0.05038114371215978, -0.05659153677890173, 0.8004070591499283, 1.024256466247753, -0.5502151541823522, -0.7230602658583792, -1.2825283524623166, 1.1241322757713275, 1.1679417419894194, -0.7411068725863372, 0.7419037371423733, -0.5996982349721987, -1.113779077939461, -1.1545603984664174, -0.2658365087226749, -0.16184689605589606, 1.6634012171146748, -0.38024480879774386, -1.6598063875659776, 1.2428150709942853, -1.4899085317910048], [-0.04903797670261989, 0.7036671298133881, -1.3309587435113726, -0.24170142709861933, 1.0377299390386492, -0.8272730602800838, 0.18677394239606113, -0.9564170549626219, -1.1015176027518072, 0.5772210249114006, 1.2998136360471975, -1.2915378980756815, -0.23529060909709915, 1.7061849921063006, -0.24880108660125919, 2.35368113530316, -0.9283405389035929, 0.8615508396082862, -0.13546003944813614, -1.0771957423522, 0.7030751832304322, -0.13209971451124378, 0.9002789908455804, 1.9056549803092833, 0.25878882440194256, 0.6952106321835058, -1.6075961833241517, -0.3073207486974604, 2.872024001369834, 0.2994532949314238, -1.2341997646161813, 0.6471328083132926, 0.5293333878469422, -0.2267365179371352, 0.2571892385180045, -1.4118224080273734, 1.0063886494750067, 1.003185636476733, -0.407891950228179, 0.40685739164597323], [-0.008600964251877495, 0.09158083738310265, -0.7913257928450309, -2.1482964374207865, -0.07112725861478664, -1.5163723683952173, -0.0904482641494969, 0.9224735412233622, -0.856268555369693, -0.3301414612517086, -0.3497123458469721, -0.5388695373467207, 0.7695366860450659, 1.740316156186357, -1.5253248824805494, 0.21570872284908474, -0.27244345857254904, 0.5529180716952078, 0.8222376177087912, -0.048363659675302276, -1.2236941770944714, 0.6970428482705846, -1.5001536407625906, -0.48408689682983597, -1.1163664766058665, -0.5796907725163295, 1.2476554291009907, 0.9735273905305831, -1.4470863171240318, 0.3944648660822793, 1.4223616922547915, -0.3871053870092289, -0.6278526298093123, 1.3518383183022, 0.48498701740748246, 1.085322343894406, -1.0258583261611331, -1.0956059976838817, -1.9066387740935387, 0.4104114553731485], [-1.941281379003287, 1.98012538182829, 0.30646053272233525, -0.29617533123112005, -0.542737794195389, 1.2568157149827577, 0.5352552854291809, -2.8579627142731856, -1.1525184298621542, -0.8222864214133896, -0.3694480428993948, -1.1362646345143483, -0.3068720160652494, 2.0492725519854846, 0.8123429780602722, -1.7884104281839976, 0.6716678635539264, -0.5383878608812196, -0.7106686403980187, 1.6284463266727078, 0.36994112459203815, 1.02782883922298, -1.5234885701761254, 1.5813860749871644, 1.4148140094065849, -0.19323966638581083, -0.6739984585516985, -0.3014346441047001, 0.26656987101919627, 2.5756251296216917, -0.3440633050023595, -1.8754296697991037, -0.12588599062257158, -0.1645684244176553, 1.6006458971020925, -0.18495616666232753, -0.5641187478224639, -0.10927933448774349, 1.092382222559742, -1.530041098228825], [-0.08077651872386711, -1.19674967412976, -1.278391272837698, 0.40296717187295444, -0.1788082722433759, -0.25781151525526164, 0.5748976427789229, 2.518652991745752, 0.17341585202496224, -0.5159884263770118, -0.09329368931196846, -0.6143308671134292, -2.677260257176248, 1.3778914530128314, -0.2892646367314182, -0.8048462515843463, -0.6671565855870322, 0.16388995562902292, -0.40870607026989425, 0.429132231573315, -1.9540276566126173, -0.039780968907035794, -0.16780184457433084, 1.551544611706689, 0.6510912011342203, 0.3835012631749611, 1.462016173543535, 1.7989292804449781, 1.2181123561564335, -1.1475310155070775, -1.792937428115752, -2.254049182401867, -0.34287389429531206, 0.9936136667580703, -0.878579792639906, 1.742089759430319, 1.5447339276962242, 0.4826157824277402, 1.3950416051169738, -0.882394891389812], [2.614385482768034, -0.31584442214816055, 0.5758063978791513, 1.3785867462930468, -0.6142613708041341, -1.0176672753545952, 0.9167266842542605, -0.22306396638071563, -0.3878385455265029, 0.08854311488406358, 0.3933338060446845, -1.7053975358620779, -0.09508744388936316, -0.6241382231497128, -0.11334513066252232, 0.6339897450359439, -0.07398198949659061, 0.4206322017966037, 0.755850123348998, -0.5307248842175766, -0.24266765420484002, -0.6621129012370386, -0.15366131250695061, 0.1314027613601671, -0.2371852695038151, 0.6959135902569442, 1.51630649389375, -1.4110809367309052, 2.386331657042136, 1.0819211495081342, 0.6825235654831276, -0.40885794493112065, -0.08349660237653375, 0.8103073576895503, -0.3637148884848301, 0.9231114364322462, 1.576314119996855, -0.5559174346460328, -0.9927410060274231, -1.3712303044152236], [-0.8036019706145245, -1.6479315085416288, 1.021941911928971, -0.06776517288122212, 0.5746078436634479, 1.1515022687995145, -0.05339525854324127, 0.8063887961012672, 0.7561604479236579, 1.2478332887606178, -0.15611553276336115, 0.1544242165409856, 1.22881953836686, 0.642464801018424, 0.08439871915840386, -0.16276958942670777, -0.8428387273506688, 0.5711118706920716, 0.24594502691714423, 1.4098049290637993, -0.5610995567624564, -1.5336905772799998, -0.405535804253733, -0.8567898117125146, 0.8647079948304732, 0.14290539325728127, -0.9863133723351781, -0.6233757352694002, -0.3997834579263723, 0.009604179361981744, 0.37417290030395356, 0.4369222479675165, -1.1448453153341358, 0.040399560645847835, 0.5376356053435742, 0.5732010374726108, 0.3679652030481399, -0.3290746050008155, -1.6501422300610151, 0.07048490492650783], [-1.0656760217119428, 1.102132741993351, 0.7056727060798142, -0.38892476595580733, -0.5620402162152126, -0.012064119645033025, -0.27886106273312206, 0.20454467535918158, 0.05322290169668264, 0.8639020753797175, -0.17953650587563796, 0.2710561001003099, 0.2594734688617381, -1.2852373003394044, -0.23800411518025574, 0.375636889217105, -0.9922761557943454, 0.5485485145298835, -1.3183529387682027, 0.3024894302263734, -0.21306910639177587, -0.49428860181245654, -0.008839176677160096, 0.0974501999713735, 2.2078676537994903, -0.5343029958205125, 0.20264417458578496, -0.6096991764192012, 0.8941067406385326, -0.6081186321605802, 0.6266383595537177, -1.2773913064910654, -0.6839441849664261, 0.7734082574497807, 1.0644332537557846, -0.3608576681653539, 0.1536145556901358, -1.2218323365428483, 0.9645202132282805, -1.501787249441468], [0.4778626354785609, -1.4665047197204755, -0.8313196843921727, 0.4006121175733015, 0.5871828992705903, 1.0180913384491765, 1.0352928260065455, -1.7442731948850219, -0.49432260389118476, -0.7456077642365041, 0.2616072300659648, -0.831251782832091, 0.9016298518215345, -0.7341012722839633, -2.7902899367194856, 0.817269186365994, -2.321504261975589, -0.05962663715753522, -1.318833866259689, 0.7029289252079496, 0.2258192755495778, 1.0066157278665107, 0.36906582011553585, 0.6653296660792624, -1.5678180279928529, 0.5486880317293915, 0.40606316225395295, 0.6400885112061881, -0.856244694788059, 0.5904171783848012, -0.21287280928790225, -0.9158240906765865, 0.2099982397223032, -0.26426281537521695, -0.40695631688306677, -0.20830833365709145, -0.27583304436918593, -1.5554631872834996, -1.0289177906767015, -1.1327796452512475], [-0.6413235622916182, 0.255320729077149, 2.0874636078938567, 0.15895910376318664, -1.147780260700942, 0.07596878938398247, 0.47279655703158563, -0.8150484235329564, -0.30560191027907696, -2.074334530828166, 0.7989608869973456, 1.3367402806882178, -0.7728977988290332, -0.19435770853495812, 1.1597005303104135, -0.27063104258833304, 0.93788243867381, 0.6392631885012656, -0.45733286932518835, 1.0647630001663961, 0.019380497314549106, -0.1843001373486823, 1.1681332083248142, 0.6279327556761751, -0.6305986974776853, 0.05650487123668675, -0.2722109928304896, 0.3885336107579977, -0.31406137257404476, -1.1869408846629481, 2.245278284714347, 0.6083459621457435, -2.4455271032886006, -0.26200974985706876, 0.22679162266734032, 1.8687597221313141, -0.5572149527354833, -0.5886044782321628, -0.8449061276230001, 0.5890324577554756], [0.03674222115019694, 1.3887812840999687, -1.0643048597011902, -1.4018657450144403, 0.3373150684337914, -1.8132287372365083, -1.0043377960722502, -0.5163658992988958, -0.46386917560086177, 1.263708622656276, -0.1854937484013062, -1.4163730057895831, 0.909273706106404, 0.8795141156862532, -0.979858537301836, 1.134976507119566, -0.5547706439483961, 0.7064344030165165, 0.7765441688266955, -1.2791019271709962, 1.2368413004088843, -0.7997391087142285, 1.94635284118895, -1.1416464294355795, 0.1253066718851785, 0.07460476370380774, -0.2639901414716099, 0.567338659247472, 1.0288586267546687, 0.463291886425314, -1.1946244499838696, 1.421133673296559, 1.3262236300514487, 1.0180982523802826, -1.1483130747401096, 0.41937657956041846, 0.9530809123719122, -0.5241151762898395, -0.3125170269276042, 1.0703343766022781]], [[1.087278186198309, -0.3029909865450543, -0.7533707791484198, -0.689096639448577, 2.44826625872857, 0.7261693348222421, -0.07884237956265687, 0.7321497643040944, -1.0800529581809009, -0.3503651375532516, 0.42615812119490465, -0.1541652691903771, -0.18297614819940777, -1.781771698956564, 0.5354820644903785, -2.9800080397421036, -0.34357510626136, -0.4261901218631455, -0.6778255237198444, -0.15160228566358516]]]}