{"num_layers": 4, "sizes": [60, 40, 20, 1], "biases": [[[-2.4316567505279765], [1.061927306356865], [-0.9107546688111777], [-1.0205977790809082], [-0.4195640413441101], [-0.6641183531996504], [0.5801333029320332], [0.5013514533368868], [0.727027864537846], [-0.6768020017993085], [-0.8575877850330363], [-1.7969707523893692], [0.025407711032159105], [0.7541696806673504], [-0.6206300161883223], [1.1220223509657308], [-1.060730405129244], [0.4631203908113914], [-1.5505926786055801], [-0.45757628229671365], [0.415321942222699], [-0.1412644057317497], [-0.2768094351484249], [-0.27955209894496613], [-0.9665564814338365], [0.14368234932155613], [2.8041022400092745], [0.19861192203505848], [0.5963200410335455], [1.6978718601419007], [-0.7158442790442557], [-0.3706900724945398], [1.1800891455869018], [-1.9279526799213316], [-0.19506930226871413], [-1.2862744678877351], [1.0476012240885257], [0.9099006375641734], [1.3611644450167415], [-0.5186998698591928]], [[2.0926523865446534], [-0.8781408175043082], [1.0975950947626174], [-1.6615543044895305], [-0.9902543278998921], [-2.375045763781641], [-1.0137915494030085], [-1.1508224023396487], [-0.5752553200906135], [-1.2365368981135803], [-0.05752808748595494], [-0.27929570601034365], [0.7049617541751753], [1.5142254486626812], [1.3949994727586932], [2.285766750837068], [-0.7228283510852849], [1.013426299260144], [1.0514691852865818], [0.4256995270872697]], [[-0.2574116408301128]]], "weights": [[[-0.30269581959442043, 0.6523022274823418, 0.14302242661074857, -0.9275627421973347, -0.9560808503480577, 0.35782228556695195, -1.3345593803187314, -0.005595385189323484, 0.5063893788925571, 0.17922768914345463, -0.35416869562449765, -0.49055825342083803, -0.016650072275854463, -0.9943053611294546, -0.45400812618828246, 0.3640649942178664, 0.16464819045533502, -0.6898659109492136, 0.5457844065324796, -0.03708642950643411, -1.6159790411342079, 0.6673973920544779, -2.4085802627968986, -0.7357965599952399, -1.1984554705440416, 1.4361641011678845, 1.006166599174375, -0.8495287041599633, 0.44163724382274544, -0.7866978343315556, 1.6510402421611183, -0.8086113157461895, -0.25852797845018277, -0.5424625624363043, 2.7127937556914166, -0.6591872818932242, -0.19555828167808242, -1.4754553763334533, -0.7570510421141912, 0.4509307931579083, 0.7664699794375704, -1.2334581890183682, 1.2090061215746781, 0.3167335717754547, 1.5481268893326439, 0.4973622183514868, 0.3083917678458283, -0.15441914745079427, -0.6408576952132007, 1.3307429229856766, 0.5020521891280005, -0.5700824510754405, -0.1324175277663189, -0.5320704513252495, 0.31040118331419775, 1.7248787566674153, -0.44836076949009906, -0.276522626901928, 0.15744672900206264, -0.5617369630999768], [-0.6169199673367024, 1.4646385134767825, -2.225368330154475, 0.8350086749454448, 0.8405548704231949, -1.7604430123525496, 0.6722455480827172, -0.5087714691751127, 0.47394900067084034, 1.7297987507197328, -0.7354883182620283, -0.10614157563948222, -1.7966022681530045, -0.02393304069129361, -1.270424816520062, -0.7322536292698834, 1.2203116919896788, -0.031087606127699455, 0.6819400180718733, -0.5863360673109211, -0.6319040740586349, 0.44604120349077714, 0.3468665355870497, 1.1532638756842848, 0.4100114751214026, 2.1364336266424604, 0.08502063178047478, 0.6095289327103288, 1.7536808113085973, -2.2519323217687406, -0.560030877929676, -1.5914623301180757, 1.805792827312157, -0.9251725784298089, 0.2546581119591066, -0.40300378188605757, 0.9481357624769161, -1.06812266783312, 0.9571992790731576, 0.5081056071980916, 0.11255101554447156, -0.7774701821647292, -0.95978312198755, 0.9837314711886589, -0.3236851327620361, -1.5620988210643945, 2.5361799652889876, 0.1766274524858453, 1.587252475055602, -0.15836534108335967, 0.5273405570078706, 0.8666733386031705, 0.34279634101908535, 1.599213716607689, 2.6149365988658464, 1.0253896892197942, 0.28385753962508103, -0.02289550395135313, 0.2851583970955491, 1.1314143518177757], [-1.3542806058560792, -1.2036007575355414, -0.6437018115623747, -0.2795926234450339, -0.9797106111675998, -0.4064393295367358, 0.7097556098857519, 1.242888445359208, 1.244405968105677, 0.9235742448540095, 0.9544861555284392, -0.8178355564156508, 0.26049435879940425, 0.9344796262877634, 0.49785956749162125, -0.8020800123801022, 1.189924175425104, -0.3068467656900512, -0.3902776505840021, -1.1179344757734346, 2.4968983154108444, -0.9636924981278137, 0.13669520734027457, 1.78923603279046, -1.8290632556796733, -0.2769152908261088, -1.517941061373016, 0.6824533687548492, -0.7515346997228953, 2.6123584195154104, 0.6146784785686195, -0.7090625528671707, 0.2631999265829376, -0.7257317930065147, -2.2229495048607735, -0.22677558757609417, 0.3367341309547945, 0.5905875208511028, -0.7326330629562573, -0.3713476457219633, -0.38592918607428234, -0.7965921162356558, 0.9243581279384725, 0.24303950644703753, -0.25492125080598593, 1.0900066313356953, -0.023887595409081582, -0.4457428164354634, -1.1674588101975674, 0.33051950764162213, -1.629168074714764, -0.24945055501396565, -1.3442482227239818, -0.3025558804575731, 0.5557019988769547, -0.04427159614292176, -1.6035925135457358, 0.9446813308526643, -0.8040503012586614, -0.8022642218261604], [1.184578856619384, -1.2747802401865747, -1.6445642865889722, 0.11508670924607917, 1.1705763006447891, 0.3193055354850078, 0.8709209284662884, 0.3157938857289741, -0.11710347836622761, -1.7458220602920032, -0.4621087275932463, -0.9291070275281498, -0.28538507675676955, -2.198920916266837, -0.09582020881406372, -0.07974966689953385, 1.9079803371117974, 0.06905922615588984, -0.5311274521703254, 1.3166745668823534, -0.11221458966430736, -0.8644995058105001, -0.944444109684453, -0.07195922243667402, -0.4695053094689551, 1.9251095030994014, 0.46963921082819965, -0.896719410267205, -0.5545266339136908, -0.03723415288645406, -0.8130399883625734, 0.3690519895953783, -0.6214238583189626, -0.7940170731609373, 0.5217135953294849, -0.9209247346050623, -0.10448816268013483, 0.9812835703745545, -0.05069827070648307, -1.0590031892986256, 1.6768417316746351, 0.15193530635938862, 0.3580077278517032, -0.9492934487673627, -1.111155512991555, 0.9160611653459977, -0.9842751379611248, -1.083541404765434, 1.041643079576038, -1.0031990272085758, -0.16622023483263101, -0.1935650405474787, -0.6100713592425929, -0.4223899079338742, 0.55774235004117, -0.2670627912454445, 0.3542968632452394, 1.2720423270851335, -1.1899962152717658, 0.17384130198929737], [-0.9323106391779258, -0.845091462054811, 0.279989002080665, 0.35452108270686217, 1.189833751293357, -1.4094217907692623, -0.28856484824278544, 1.1255806377485844, -0.6908704688449107, -0.7116784960062341, -0.9883470441772755, -1.9719311047745731, -0.10084491717492998, -0.31385806364670527, 0.33034574151092055, -3.250112211494556, 1.0631709266240554, -0.7844661962073354, 0.8811063980610971, 1.9054098435083942, 1.9233832721111328, 0.8031750159718153, -2.3145404955725524, 0.2885309607218497, -0.66711904786516, 0.920277013152081, 0.16696796493184315, 1.431932876533483, -0.09194984108668072, 1.8725739199097522, 0.9151074749330997, -0.497278955950845, -0.500536504673496, -1.2282791481739714, 1.139955801814353, -0.32716344070572884, 0.08081848985562795, 0.5295201945375678, -0.5683993099886886, -0.012137241604295584, -1.1066802508117575, -0.40408067356634286, 0.2927775169061543, 1.1979752845388691, 0.806589784009097, -1.9737499235715341, -1.4802850235918896, -1.5982921359346043, 1.1552319182813993, -0.01952437287592781, -0.3836994878091106, 0.32525214885713877, 0.596327603323488, -1.4082085354367355, 0.10567624784188613, 0.7476280742702407, 1.73934963546901, 0.6872602470935404, -0.9310890170740435, -0.1955872523587888], [1.2464869340356888, -1.249234341856133, -1.1885673002008832, 1.1560338180332594, 0.11797729593342954, -1.445442864026474, 1.38146525501312, 0.08397898519100466, 1.1288216896082166, -1.887659355582734, -1.2896107433590869, 0.6236246917944319, 1.6311988695727007, -0.9010471133962286, -0.1452552786682599, -0.17788064566615394, 0.9476402501780122, 0.7746177828006964, -1.0819539801056834, 0.1837051146337852, 0.050785393339628115, -0.3081060150561987, 0.5127276385420458, -1.2974677519375275, -0.9362323857722487, -1.6133200484033179, -2.3439405783876426, -0.7015195929277257, -0.43630223586593453, -0.4134700220469722, 0.747425319266439, -0.9870535397455494, -1.892025535848534, -1.3253021106160585, 0.06849522817956878, 0.33483839102806096, -0.4567067575066742, 2.1746747224195193, 0.5363806352355263, 0.2144344431353551, 0.4576135310594668, 1.0124565753321282, 1.3322331271489165, -0.4294828639779728, -1.0943978523154163, -0.05817387088577922, 0.8799941348731258, -1.385994563229782, 0.030644001594286725, -0.6071370676390863, 0.24057799405368477, -0.48928431656012267, 1.7498160091807926, -0.35968723211503034, 0.0004615573955124963, -1.4272248493978397, -1.4228898206849296, -0.09778630654623263, 0.9232515139190766, 0.288854277921544], [0.019882200395298658, -0.954480502022321, 1.526881500514114, 0.3929601155815034, 0.8263131771350706, 0.2732353118808769, 1.9620918829699872, -0.9820560834773228, 0.23771006188712426, -1.0249749228879643, 0.18723637135923832, -1.3746843668954707, -1.4477166747664902, -1.3827726209159938, -0.7286959692647391, 1.874348860809065, -0.5116543252725081, 0.6581118341942913, -0.8903744786746862, -0.25513325431894907, 0.4625476307852294, 0.05406640690351751, -0.6989210044308072, -1.270939467547984, -2.3264804670478734, -0.10930749462734925, 0.5788352633514107, 1.6748619897217243, -0.6330435639135435, -0.7669562493033902, 0.6948048510548682, 1.5353580517549055, 0.732745470541494, -0.6832844428432444, 0.610693601287357, 0.3877713312908061, -1.5577201472531927, -0.27303998109658234, 0.7659607380371298, -0.010723863456981904, -0.14288271323651816, -1.7705264111434027, -0.4682816958037678, -0.39017658143008244, -0.0999606774183073, -1.1936548689421649, 0.1749901132591381, 1.2405565911952823, 1.2011214491458377, -1.3184589518327914, 0.6296461378221906, -0.8190078614399553, -0.5806601100112395, 0.3997349489450478, -0.18897010602779155, -0.5505603502318848, -1.2707652886916057, -1.2828208238740608, 1.9686584340332984, 1.182248896019683], [-0.4593729959989348, 1.8809631022211717, 0.08368704848191376, -0.898362255168014, -0.03484286895968061, -0.2672911468580043, 0.9781966779088834, 1.1126055892550784, 1.1252809072743566, -0.8791419311480932, -0.18645631897437642, -1.2323508511729584, 0.5334649795838435, -1.4355052566425823, 0.6058661079419427, -0.7336479894534645, -0.21059813696943763, -0.5774180518797375, 0.627354244708505, -0.44190550566962783, -0.37996579340593223, -0.6669268139152984, 1.7826200257193547, -0.009868811268481345, 0.4153046718642493, -1.4608170794456818, -1.8279666712946188, 0.5327451572570955, -1.4590961446636528, -2.143644056126795, -2.052620473684395, 1.4435416395050975, -1.3049749571963793, 0.1679495089402946, -0.720453073511316, 0.5972227951920207, 0.2656241518675402, 0.4854577267549615, 1.5623135565339696, 0.6995439942523412, -0.8605629447717423, 0.687765863598191, -1.0722431796356806, -1.0146548624999832, -1.2470336053461453, 0.6080121014742418, -0.5216716997185918, -1.7195367744998886, 1.0525579733425798, -0.27776539119791305, -0.35715830465768783, -0.6601675411222232, -0.8435547168417775, 0.021170586041223464, -0.19095568986875022, 1.1054501239856935, -1.4242277783556512, -0.7021232820776878, -1.746101846222658, -0.29465359779743205], [0.6861897282805752, 0.8666618329664716, 0.1437671653197076, -0.1654753206954309, 1.2690731779364184, 0.010265043806749299, 1.1777447778960655, 0.759159125004267, 0.33128257488245305, 1.2731580243999296, 1.291699713668497, 1.5650003604734475, 0.5347937126991362, 0.6893922813858085, 0.8874107284435144, 1.8946549814112281, -0.3691863066326706, -0.7202193063625327, 0.5894916482867829, -0.14753630268163737, 0.11275527608112457, 0.20823284151485844, 0.3327377038849246, -0.5767378891984165, -0.20832700446676972, 0.9777697436169501, 0.07596097712001719, -0.7866626224650538, 1.0133759002985654, -0.582681346842325, 1.28474253287636, 0.29120556131714437, 0.7581820093739603, -0.06659792844674832, 0.93396420578947, -1.036860720783618, -0.954134503861678, -0.048189883513404634, 1.512511524995231, -0.6785492690218794, -0.5022545911922721, 0.2611626442744103, -0.318571950698486, -0.05778663270175107, 0.7761500907638031, -0.3075031149067863, -0.3054668357771303, 1.2194987889091462, -1.3693389504243285, 0.08636563957006282, -0.5721063136181587, -1.215619500234675, 1.257781304878396, -0.9385800808101322, 0.058339641627450096, 0.6937870297107226, 0.8637527346384352, 0.5153541135830041, -0.30197574117086695, -0.1922627946362698], [0.35492145091179605, -1.8893497356422173, -0.42180256266511745, -0.22988377391684062, -0.7407122702676368, -0.4713867365506219, 0.3544942177228044, -0.581714288666725, 0.840904224691292, 0.4048048373768511, -1.1189153112618841, 0.31030135486386634, 0.23163571967496116, -1.0972263569608622, -0.3496041338521446, 0.06963029228014553, 0.6491059445020865, 3.1358173524444237, -0.2152531504399156, 0.24335609879426054, -0.5655165591837742, 0.5823681692992908, -0.1278034672651727, -0.18350457816224336, 1.0759576300727294, 0.9657904565727312, 0.782878593265714, 0.18200458344222187, 1.4936434982087838, -0.1365356372694123, 0.4099456126443909, 1.5468593226903091, 0.21442246288289726, 1.311884493192395, -0.4444926961250833, -0.47867194272792873, -0.10415730687975285, -0.8722897729165815, 0.550876505016186, 0.17229702169908348, 0.31886348940818304, 1.190102582214426, -0.14506052672132883, -0.3605048221502701, -1.1502313822420498, -1.0441276411806704, -0.40221792753541347, 1.1058673948248856, -0.9298443313674034, -1.004088445406607, 0.6666440329299327, -0.7546523309132597, 1.9241190264060692, 0.6527449340315201, 1.61061083148821, -0.1602451158965703, -0.6668717687076641, -1.4752573540591822, -1.1134653218313282, -0.7442672179570632], [0.7495886468690065, 0.7444070217650386, 1.358401883833001, -0.9826672207231381, 0.8579713596590969, 0.26414414264844027, -0.07540163757692019, 0.743353349257772, -0.3990959844222753, -1.7468255160429746, 1.663923139217662, -0.025671975749784758, -0.06634674736103088, 0.5085953905337992, 0.3492583927746038, -0.7858830072264641, 2.0431519778751226, -1.3849155764296637, 1.416084093573826, -0.33429069703486686, 0.17404372601424842, -0.2914470868964901, 0.7609726477083704, 0.97367531675904, 0.8192198380832539, 0.004655610755927761, 0.045158472921217364, -0.9929429641129971, -0.3506592792145559, 0.3755443098750144, 0.1185241355052593, 0.39316072038350536, -0.2553346899590852, -1.3890487195446442, -0.6647471222548159, 0.10218297565419417, -0.45171736681086067, -1.1893525847707116, 0.029137753985243733, -0.4245152058123464, -0.6594331898809479, -0.08708237392694837, -0.3113521717466886, -0.5991022978683624, 0.023330801715187765, -0.9203201305098369, 1.2647603627331059, 0.03624220098908826, 0.44103923759244584, -1.0036730208840436, -0.06827423103331641, -1.3293432027599121, -1.1984250504297538, -0.19687284126604176, -0.7672886237759969, -2.011637459364824, 1.0084942150501244, 0.6088000834720945, -0.4599852692631693, -1.0905631051395663], [0.6099533794735992, -0.0032021524280762548, 1.2597694458900965, -1.8656203192213654, -1.5001226589773669, -0.8001999464175307, -0.13791201300915806, -0.7725750288411863, 0.3387107990081621, -0.6593665995654973, 0.39348833133464145, -0.5825094135217465, 1.0031051273042444, -0.20873044195714002, -0.5341958662614141, -0.62982322675465, -0.23768648858138164, -1.3635115896472767, -0.7725730006712156, 0.00534343511670532, -0.6866577358442738, -0.6393654994602749, -0.21786712331488778, 0.1556055253829543, -0.20218791418731208, -0.5624447052589495, -0.18613841737132547, 0.49401819224928667, -0.6615543776949008, -0.3022712989025716, -1.1975204523089935, 0.09036775930888337, 0.5318507587729724, 1.372528783926777, -1.1725537677701405, 0.13773988164627965, -0.4442333008593499, 0.5082252426490262, 0.4806376906397571, 1.1896451969551944, 0.45600171611626317, -0.1784453461976102, 1.3611671101005154, -0.7044473324903655, 0.5010722641652728, -0.6698522672880789, -0.8561174956157829, 2.705438360982844, 0.10901739270518458, -0.22071700261449453, -0.6624597012253721, -0.8523327253905807, -0.17924599978515515, 0.22477714669374796, 0.5540891884924983, 0.2074453605534555, 1.7703633249586284, 0.6651170062550761, 0.859655752614137, -0.7648612988778238], [1.3321854661203112, 1.061436745489341, -2.040530333850604, 0.48612808619060943, -1.4769308959080065, -1.3047060107510153, 0.19187233645144045, 0.9932243422346588, -0.4902884389544405, -0.3136025542219955, 0.8744840925657374, 1.220973437797501, -2.8049615852165584, 1.3529264675465058, 0.029315043982711054, -1.212442761178254, -0.2695081878952181, -1.8611729023144339, 0.9670164493161756, 0.3068685650815048, 0.6552254867672986, -1.8924181269724638, -0.984592229269986, -0.26467906579896, 0.5587757098626864, 0.5557228301681487, 0.5208222822274515, -0.3515622987577371, 1.2068749083870776, -0.8233474836436656, 2.4118695260297804, 0.47374464425725327, -2.7507515725449547, -1.7147662296308295, -1.339258084118927, 0.8567211263455857, -0.18772640708100333, -0.24808157821402094, -0.07682585064091352, 2.9017228846493137, 0.7352425096473173, 0.41162593463631164, 0.7037832876351667, -1.1263223847129216, -0.6855411075883232, -0.8691345226965211, -0.16349044389906175, -0.4851874730981003, -0.7784531155286321, 2.0763413480870545, -0.3741499080090225, 1.6091762503191, -0.6006129918894058, -0.24412554278948087, -1.9052205875939827, 0.43731207693419816, -0.8036273952036783, -0.27363935985017934, 0.4806517412854045, -0.1965247065273332], [1.116789941489582, 0.22424506207544442, 1.1296927660185268, -0.994014079576682, 0.25731040219420775, 0.08720093392055893, -0.7529224586775267, -0.8448838007286898, 0.7194378579641323, -0.8368665553153387, 0.3163814158061454, -0.6297367919196788, 0.9781356227759985, -1.8745581044513995, -1.0588515566845345, -0.0018265844919782127, -2.2828436948808135, -0.9296256271761404, 1.6486461627309454, -0.43826405186229783, -1.7767355820682664, -0.25342769938106724, 0.03713369869177063, 0.7421979759300718, -0.4928530615506011, -0.17077817756128852, -1.2941632969611285, -1.170754417082558, 0.08720285217379392, 1.81098412596113, -1.0392258394212495, -0.20006884040847409, 1.4291049840205632, 1.3093033309704243, 0.6309246185499353, -2.2327910363318484, -0.7345906988789723, -0.08635068834978057, 1.1034550209311582, 0.1885739658240902, -1.0450888509804923, -1.1975224172532721, 0.5177724295303793, -0.010845194176854228, -0.4903309311775833, 0.029890134607260716, 0.403475032565891, 0.2945470764243486, 0.26298703994903483, 0.4571877266509137, 1.5985170086816067, 1.6915924776378457, -1.726020549270343, -0.2613710800574681, -1.3678174858421146, 0.7605214421855508, -1.494371330360122, -0.3142854828497141, -2.105116854991863, 0.558264073453721], [1.6741470333690744, -0.9802675277068423, 0.4400154209919031, -0.6931155736214589, 1.607849073171094, -0.25931929979435514, -2.2327200267441416, -1.6930974635811198, 0.45026132793347723, -0.473710521650884, 0.8853811436536512, -0.5496359499533452, 0.43850399220124553, 0.14188295600666265, -0.14391849898041223, 0.40891937997963446, -1.8344224328977585, -0.021001134749156658, 0.30218035152331274, -0.22209445512379955, 0.1261715832179558, -1.3183456202781292, -0.23078229966696306, -0.756537086179121, 0.26208115674037813, 0.09208003262113462, 1.239118108573508, 0.8761347968209227, 1.1355729702213697, -1.7572260198593683, -1.4961613196749437, -0.5453964253990139, 0.5673606308742958, -0.3866863793689216, -0.6281080968797821, 0.012641062426997543, -0.31739184355911065, -1.0532411588681025, -0.2979188961218713, 0.057289557541772985, 0.15123204065846782, 0.18876235218114737, 0.4089074763865335, -0.9178901779041533, -0.8206238191224833, -1.316187733656987, -0.35966974476272945, 1.519601330098526, 1.062188124209371, -1.210043221495482, 1.1423662633862535, 0.9722196097640755, -0.3138978513706166, 0.07966939496766896, -0.1785954795329985, -0.347566058438289, 1.688728706471757, -0.8955013433193888, -0.74845618168051, 0.34947168530405215], [-0.16842559280342947, -0.3885428049643702, -1.2447938684435702, 0.13443450644003516, -0.34215148633909825, 0.059703431307813824, -0.7193663489594359, 0.11332842460128043, -0.1692065353039416, -0.6625506806344938, -0.5898171688229185, 0.13609263332611266, 1.2200370079015816, -0.6475746051916194, 1.1264375267765419, 0.41355526711146684, 0.9075781204735973, 0.15241991332566643, -0.3566196135348792, 1.7624428385908635, -0.012952330906995265, 0.8246302874957073, 0.37289217002818537, 0.0747950356451776, 0.40986823861033184, 0.36079238143442594, -1.608942620442376, 1.282267582520784, 1.1123439651251157, 1.398321043444089, 0.36580374530784054, 1.0851218358748667, -0.6593110343737963, 2.006329729224204, -0.07662882352898932, 0.9458502055849515, 2.241266209807813, -0.6249093859533805, 1.282347302771038, 1.1889378867287825, 1.0717413433360181, -0.39666618522372815, -3.2473983043823687, -0.1076669690103035, -0.44633625634357627, 1.7221379315891956, 1.362262498867542, -0.08455094972232165, -0.468451197631126, -0.2044265689621471, -0.22868260872998666, -0.6024426330634376, 1.6983027793846728, 0.849277113667222, 0.9646500897875446, 1.1811710972440193, 0.5274070313119639, 1.0335792231149703, -1.0196217156100014, -0.2596032888625641], [-0.39353358050158854, 2.0711899423221305, 0.6718705811261027, -0.30850080834490634, 0.10275903323218781, 0.533334498562322, 1.8810331810134444, 0.08556678245176338, 0.2874520179654527, 1.1401263121236178, 0.49938809120716776, 0.16266162582454494, 0.18812119882927195, -1.0108274174350245, -0.5612878174149326, 1.468757422158214, 0.967680431423175, -0.7852172372709683, -0.6125531320478834, 0.5346249087170427, 0.6735696375403355, -1.21822993813744, -1.0075047429248607, -0.5437375231194551, -1.1138913017485903, 0.11500735567061048, -0.007094111311147695, -1.4758025265450951, 0.07402671311986514, 0.18768923769515383, -0.15448863615395717, 0.2534589425550094, -0.11382011417230806, 2.4458810835356193, -0.9344327320569671, 1.1810790625711307, 0.996776412154616, -0.9256854624102331, 0.7983774070200843, 0.5475344021935742, -0.5452903513748105, -0.9085896160760301, -1.3396157892484455, -0.6474127072898329, 0.3263515422235352, -0.1977651185986709, 0.3044551498668317, -0.5810478787854167, -0.7618228376204427, 0.5565080839608183, 0.33510065896108576, -1.4420446134473368, 0.2720719885064981, -0.4626182975223471, -0.5851616542049769, 1.154593759876365, -1.1756559498739252, 0.7389178104049601, 1.0553062114041265, -0.23727646542779335], [-0.03603072683025634, -1.1902396532811845, -0.9980289434418326, -1.6327081101716483, 1.5739968903696087, 0.9185930414251987, 1.0487958135510602, -1.1701680812556572, 0.4687467472518287, -0.3418991260776457, 0.5885525824540102, -0.33544054488799513, 0.4310098867197218, 1.3661954404711703, 1.5234674170274927, -1.519543248696383, 1.1788405272670748, -0.31784819890457955, 0.4540396978632122, -0.5156839460095363, -0.9670150552424149, -0.8392075258647984, -1.3205060765685077, -1.8312306348061969, 2.109376390907269, -0.09616186701233942, -0.1057034754046167, -0.008392341124437316, -0.41202044312409836, -1.4056700710118504, -1.2435840035914634, 0.008000856994102691, 1.4675481882977601, -0.6269567462451562, -0.3348397355263464, -1.2222647730248146, -2.212883501475087, -0.7762068246825798, 1.7735089940866586, 1.590529817000119, 0.14407989618396783, 1.8790038351344793, 0.00925320295687661, -0.9886642235832606, 0.8692622971646292, 0.21398903160343222, -0.45619228172976684, -0.0587476700382883, -0.1130427409350303, 0.2585325360279215, 0.13368512479873035, 0.008060442487773547, -0.27615264076506574, 2.6646692135682164, 1.7667664196964696, 0.9584022230663239, 0.5247191088451675, -2.2534211688607546, -0.48784698326428, 0.7263914352476634], [0.10277868024746145, -1.0402202470631399, -0.7393514284795151, -0.6583091713925977, 0.6755976468815685, 1.5494579795758896, -0.28790739735827203, 0.07901666185854578, -1.8714789350942904, 0.3636879394909876, -0.4467834259663535, -1.0314312281891482, -0.24700016790388188, 0.2537036293938704, 0.49603487446113814, -0.098075914164512, -0.5688388088092639, -1.6906225774515204, -1.1328937274528534, -0.7810940418705948, -0.3951788282278447, 0.4244631389281927, -0.8302585909839135, 0.7340415262100455, -1.2739305207971423, -0.5598627630152836, -1.3260094656126626, 0.13380714880237093, 1.9892316348780543, -1.5939239564447647, 0.6717315458321964, -0.3126870694335628, 1.0409654626728957, -1.5626080761635113, -0.1283914663704282, -1.911827965155164, -0.7777530328182929, -0.8317611080128182, -0.22677817559330865, -0.8582495162399492, 0.2884543805634595, -1.3341080584620968, 0.5125443313530217, 0.048375270650070676, 1.1803741403761288, -0.06834070056052308, 0.3172254418100225, -0.21272014240117676, 0.9885680287454791, 2.0931408833701948, -1.6327067600649572, 1.927490294182435, 0.5549797491856441, -2.307948803659208, 0.9679934407446571, -0.21696536201650246, -1.52970488706628, -0.25858005423849023, -0.6551585480395493, -0.23196614549872865], [-0.8320427434615548, -0.8867725032283237, 0.7270088363892397, 1.0152604044181237, -0.751565230714082, -1.3543685813642725, -0.06976734874257612, 0.7620863664910879, 1.57627559719821, 1.8969093327013806, -1.4762315127593573, 0.14255775635128062, -0.7403585305576548, -0.2818555326637681, -0.6002571339540651, 0.5131892796201281, 0.8074177720342305, 0.04177464960212089, -0.48348435551200397, 0.4510710408685436, 0.1020774913503125, -0.05375573467531212, 0.9803049391713539, 0.09997448980202155, 0.6633030536012654, 2.0938025784877423, 0.30150054013465866, 0.09298161979818455, 0.6522903960565096, -1.1061694083010818, -1.3269852948104286, 1.1774954205585, -0.0989629557049027, 0.4397871462727557, 0.09861105521400297, -0.8191628666216926, -0.09383717879408948, 0.38324682292727197, 0.34829685101422775, 0.08219865302772413, -0.5345370478601917, 0.7584162944156565, 3.1934888254323774, -1.5197790952505885, -1.0140362157907197, -0.6399140899782805, 0.6018673573027913, 0.06337882400622925, 1.2705581972493036, -0.5697094126620738, -0.44932879857568925, 0.8735313497725917, -0.5692192718592433, -1.1332820802469223, -1.8129712555816664, 1.4603196754395287, -0.7623643447014717, 1.502032418145523, 0.9746358130464058, -0.6906997563098618], [-0.5155766071956541, -0.4606557158673755, 1.829856114973304, 0.6421689386867556, -1.4656732356268338, 0.296189021792932, -0.3142814750818051, -0.9791063683451846, -0.8262214323699673, 0.5193088336031614, -0.6516489652938238, -0.10352608053900345, -0.702882019576673, 0.2815315262359525, 0.6738479383294056, 0.6407367190141257, 1.573264903857191, -0.07692426334564663, 0.0963577104331297, -0.48298672966481576, 2.1200759940747553, -0.2601609962435259, 0.6401965908626884, -1.0385240459551834, 0.12131902262756288, -0.9692720102338344, -0.46900724994860044, -0.20386930345303111, 0.9818196308809964, 0.897473999084582, 0.25404251046218407, -0.5481913011425231, 0.4085296502403434, -0.12264555886274195, 1.2241003571971223, -0.7816753470632996, -0.05046657026082422, 0.5707430746935372, 2.3214794539675276, -0.36640763257408576, 0.40172767621627303, 0.4853628785979407, 0.5787317118119657, -0.7400177527552456, -2.374782212788892, 1.1501971682099146, 0.9987365831104119, -0.9526153459225073, 2.3646306584705687, 1.2619946070634604, -0.35358000668513795, -0.5598409871852204, 1.5691107659990786, 1.4336981572022367, 0.00042677492449946265, 0.8616159667853341, 0.5391778401034977, -0.06720691702889295, 1.2065164938543123, -0.8099467561750671], [-1.4223627647682318, 1.9719451159028873, -0.5050648566378495, 0.8710417072238704, 0.5271246094547178, -0.08009490545056935, -0.6241685907047163, -0.603852809321202, -1.471498465044595, -0.10576260392639751, 0.09605049234611424, -0.527134851985749, -1.4236272590859822, -0.8358410939199176, -1.2219850816003859, 0.40965982583224997, 1.4746918174239918, -0.23790183453839783, -0.23650428962523679, -0.006563665974070182, 1.0796899896354781, -0.731138769917129, -0.8443896553502309, -0.31620761308006184, -0.621569434766688, -0.8281312606801486, 0.6451035209587241, 0.03141177325564678, 0.2537026679130827, 0.916863143426866, 0.7006236869754425, 0.1327601973797253, -0.5117111369032701, -1.6336610165776333, -0.9638179015003946, 0.785848911893879, 0.4310902685386736, 0.582812852724668, 0.09260499205378124, -0.43449976707218063, 1.2011510818006206, 0.17580718304251763, -1.4467630694972338, 0.5538108031897453, -0.23644664287177677, 1.0064816580810838, 0.7988466108795641, 1.8881509173878817, 1.463406881680416, -0.15901971143263308, -0.4325423157910933, -0.21926521309590297, 0.4802075694815503, -1.277797332123363, -0.2566231052079232, -0.17767816118879062, 0.020822029703639576, 0.449607585233088, -0.8323593107547334, 0.9944498066395456], [1.0251517901064073, -1.05926146105625, 0.493018772234231, -0.9529313214917627, 0.001738192877869642, 0.7354321933230226, -0.5375703019296646, 1.3807969402351168, -0.4452860623709712, 0.9237902080227632, 1.2001815971600394, -0.903303456181054, -1.8189478573504712, 0.7014013503858011, -0.7014921343090066, 0.08523583785429086, 1.2286428523404107, 0.9362267044337873, 1.645895301544626, -0.19273478889987225, -1.0612561801495537, 0.6819336856144161, -0.019560493526793555, 0.1831585184647681, -1.133840718572998, 0.6690425494129744, 0.2841319079629054, 2.3312449248233564, -0.597003486434005, 0.48034771705563184, -1.6470114957566606, 0.019446435266249017, -0.5468516707059313, 0.34844898829655224, 0.8438555485215429, 0.4487093834269485, 2.144857683748174, -0.29685428093479593, -0.2686934564919448, 1.2663789153827374, -1.3962467098416245, 0.5885595589027974, -2.5982629213266524, 0.45701092479550376, 0.5295907825193139, -0.15815838190477766, 0.09614159694600269, 3.5404027274190386, 0.550474004651301, -0.7618124007521726, -0.09237698759338002, 2.769777525079505, 0.01761319038378671, 1.0775659290852588, 0.2202946954014433, 0.5119478623794678, -0.13605071959246434, -0.48533168586121267, -0.5312443684012225, -0.4223988150042195], [-0.4881677962809989, -1.0996546270256875, 2.4013624251404444, 0.46862983650419754, 0.0003840895122447339, 1.3508534413568185, -0.0022125715709507433, 0.6424989890713728, 2.0609063037218136, 1.5798985048806646, 0.420535270661306, -0.8548233724540245, 0.8520499221833886, -2.3824107604184723, 0.11095595286771803, -0.5166521459157843, 0.6895015965882271, 1.286105216646237, -0.6362464889203239, -0.9027533018711762, 0.15398571723858392, 0.12953389144101518, -0.6393295920789273, -1.468398487092516, -1.2721258042656365, -2.360321604221065, -0.6839159624921763, 0.7165345153709257, 1.072548487830796, -0.7825584156090962, -0.6965217794252295, 0.23199153325138677, -0.8322706234547221, -0.8616927929519337, 1.8484441314017785, 1.9196035860020535, -0.8381994039795304, 1.510913632889414, 0.2650546980098974, 0.10377462431489033, 0.35187062848319534, -1.2484388296367581, 1.279455442149179, 0.7909872078802243, -0.7143706301875979, 0.786274626890051, -0.5758456843745623, 0.23148082378618307, 0.4139625810110244, -0.5041592641665832, -0.830851966536541, 1.360584272690591, 1.4160601686155976, 1.285186554281889, -0.7311446925348951, -0.27341597769303894, 0.4167778048399934, -0.36739332912204753, -2.1374561240939003, 0.397822970146185], [-0.7823151881823083, -1.8035647203324645, -0.09071631484995084, 1.0394330460470806, 0.04126221384261849, 0.9057072293533571, 0.4847508397071767, -0.01967562788330991, -0.6959879557433706, -1.0906883617549257, 0.05755653118894944, -0.1420182741169146, 1.3331741794800265, 1.5677292789528852, -0.17596957449051845, 0.15842416065424825, 0.7421460502203835, -1.2452780779008263, -1.3576077057198987, -0.01358284538553646, -0.8274665101392138, 0.02738052377140267, -0.3712037353756187, -0.7675879148424358, 0.2836469612595375, 0.22038117352897543, -1.101854859635345, -0.29647337289670156, -1.4225967638277834, 1.519801287904854, -0.5849042944791133, -0.9940626611801909, -0.03989643291615927, 0.9661412542808914, -1.953286067431295, -2.5290583664363173, 0.8636171103263497, -1.1152904138122197, 0.7435746002484797, -1.28559822021273, 0.392323452923821, 0.4862473771116086, 0.27536004026415434, -2.894211523400581, 2.776204629527604, -0.7578585190744329, 0.18155216092638463, 0.9797534554544558, -0.39348007450619304, 0.40668569899813906, -0.5828360787295911, 1.25545585172623, 0.42991852918777357, -1.6334232430548816, -1.21446056911662, 2.3114681684879548, 0.9510421694710727, -1.141445456092716, 0.8165695285333079, 0.10838362698306502], [-0.8507048655038649, 0.11831251672026566, -0.4319679156430454, -1.6670296397559572, 0.6359113405418851, -0.859827752160854, -1.0236778785128073, 2.415386424752076, -0.6164879477022159, 1.6143023293193162, -1.029237733420105, 0.41996430432295323, 0.19292907045750113, -0.817809371729378, -1.0106086299543042, -1.541076869514483, -0.44651512573914054, 1.884455521680308, -0.7581002105530095, -0.6420479703841805, -0.20939139722270292, 1.4482579127290653, 0.7227240684234035, 0.2103097314595473, -0.4328105731587423, -1.3849856146155182, -0.2484842322247904, 0.49401401630727426, 0.005831470090163135, -0.1534007432835833, 1.3714246332730984, -1.2911859632560665, 1.8226186359913477, 1.4629547414368533, -0.29839854010547323, -0.8440874277783316, 0.5569106505403137, 1.165620346863987, 0.8537565961143601, 1.6901054096277324, 1.6479829370959642, -1.8383788202920246, -0.4425466082552793, 0.5584904317201022, 0.5267961824587654, 0.7963032706670387, -0.12281610063056775, 1.8022082631719645, 0.6953900458631674, -1.0879664669417803, 0.6502386654284857, 1.9101862179149702, -2.216274053169729, 1.7222834276904637, -1.0596495132084276, -0.9375167437561244, -0.7409784203776485, -0.9030754380959275, -0.3803506727309461, -0.582175839404002], [0.34593995954983875, -0.45521609398614415, 0.30660530991784457, 0.10616749617013926, -2.4492403606885915, -1.3842001191044921, -0.16500193431407403, 0.40993898826200975, -1.5981491071137568, 0.06777797664228172, 0.17115554821609727, 0.22988018354750206, -0.5350969964128174, 0.6917466462580825, -2.6936932257694792, -1.0191903376540001, -0.4192180713199697, -0.5255026868946463, 0.31551461388369184, 0.011535961303277912, 0.3010441092234891, 0.2694751756874817, -1.039228287422296, -2.0992685703786456, 1.0906470218242639, 0.26552434013676596, 1.7900334420090218, 0.8534160260003434, -0.3231579427895397, 1.2958699706331487, -1.7925747234395448, -0.3644371105202825, -0.09428336584920669, 0.30681837360043945, -1.188034706222097, 0.24317741290564304, -0.19096119325821875, -0.3738253619646822, 0.8022374336612065, -0.5083302599826987, -2.254756384132818, -2.1156541449056308, -0.20767216138331884, -0.12756839838813042, 0.9889637066196606, 1.0743534043430898, -0.43442947531113, 0.7899354334641017, -0.5221005926548937, -0.013071522457998653, -2.8642664066862715, 0.1414427871719793, 0.7167788202233947, -0.1857035511458152, -0.8569639010003558, -2.2534930296559295, -0.08815766782476925, 1.224331294230062, -1.304216373176384, -1.5177812175834509], [-0.9761755161444157, 0.5637048269916308, 0.13118318751751837, 1.1279230416961108, -0.06147224725723997, 0.33951076023504945, 0.4662312325766649, 0.08282806361026405, 0.0208830494189693, 0.5743473933915818, 0.34805779475278675, -0.6609282246223855, -0.7925740594696404, -2.0676326012385737, -0.7925814141913238, -0.858256660193156, 0.07472532865768489, 1.9359035797732282, 1.9497486678833682, 0.3730052369220089, 1.0717750780568642, -1.0205356611635954, -1.3783336538107698, -0.23338230028474802, -0.051875702968230734, -0.8947061498989979, 0.28578862118604054, -0.02874133115028226, 0.02734537905836001, 1.3220029768311201, -1.1935539471476686, -0.24464389618073834, -1.593613743739744, -1.7526777762025345, -0.5120099593318541, -0.16776301978797198, -1.2439389615100804, 1.3300562858026959, 0.7922046423260514, -0.22826410763778998, 0.5189730471391882, -0.13536960910561122, -0.28481263754029335, 0.7812076101833134, 0.4678837946322967, -1.1734666916233332, 0.47939649783184046, 1.2056231010063336, -1.3485614451962604, -0.38168763790823895, 1.0827731888242758, -0.724383565220988, 1.2396119892544135, 0.36896528025744985, 0.13198483433941005, 1.1623143143026482, -1.0059957989705401, 1.2250954031927972, -0.2415425940841081, -0.19402718894384707], [-0.06125723173465042, 2.246896188384269, 1.1786681287452598, -0.09624182414852082, 0.2635000276573542, 1.332533193906822, -1.0710102219476987, -0.8457024703106227, -0.9090021571295454, 0.8019520415887202, 0.25874319539969115, -2.714932514438174, 0.43986004040801907, 1.8083141543774028, -0.2929641355618545, -0.7206788414612669, 0.040627473687304426, 0.24190413352222304, -1.740461236046999, -2.595700882860565, 0.22537561665581707, 3.3058015505672773, -0.16269487740225186, -0.9616901434773245, -1.8093833708624747, -1.327757441963405, -0.4181555778714079, -0.6011910089136976, -0.05489015905088197, -0.5482097147462414, -0.583504405814816, -0.7386522521798645, 0.19867656240631903, 0.1515039687527509, -1.3364343890558215, -0.03368189049400087, 1.6996204081046362, 0.5804077229688342, 0.02614247727977316, -0.6177380908818105, -1.4054440181800523, -0.2646339619703967, 0.963585129928022, -1.5123044345685979, 0.7076556230930006, -1.1143079983724757, 0.12546461101260348, -0.9691853189316922, -0.07046982349194221, -0.12694305730696637, 0.5016374451794816, -1.213874486719663, -0.048283014764832835, 0.21466760380092362, 1.4257414699297957, -0.6426533627672288, -2.057952568309859, -0.2517941497458126, 0.3180602793064154, -0.12661394688629138], [-0.9585974180931809, 0.2781385107925077, 0.4985143260175089, 0.26019370743584896, -1.4274677869448247, 1.2692362088560087, -1.2862099160999363, -0.6095212105760694, 0.8796281761514773, -0.2879491382076078, 0.6612554400180211, -0.7881914858877498, 0.1355636717188569, 1.5131548236772978, -1.835287800303646, 0.6714111796982024, -1.4776485922093823, -0.17662971954315124, -0.4120856941621755, -0.7411416656213853, 0.3950801430324827, -0.5908558290129812, 1.61544588035811, -1.0826920296293499, 1.4140495888953604, 0.279647678361204, 1.0795615730868902, -0.7173840354098058, 0.39418467157079384, -0.35210453369148204, 1.94046854742044, 1.2872354431950226, -2.2924422609600796, -0.33641126629645896, -1.8637171533806502, -0.6718073586328859, -0.736093062540495, 0.04196615118976961, -1.4618644146821318, -0.2084527389041141, 0.4525721325697344, -1.2222990432232534, 0.14323887738344365, -1.0646418252758196, -2.6847593788022777, -0.6689244706632923, 0.3218015398072051, 0.6709752241165334, -0.34223968940364086, -1.2328278826198475, -0.9681240257447082, -0.8433778521897995, 0.275664213504708, -1.5765660742717857, -1.5231756247916843, 1.4633114091128196, 0.8017088723112771, 1.7776810760820123, 0.9377715934915011, 1.0502683568538251], [1.0202576058397335, -1.115905900046822, 1.1822338326792998, 0.46128280667595256, -0.2730288656058148, 0.5763277170158105, 2.6254202995601204, 0.4093902035133528, 0.9146266465045532, 1.8255768636217082, 1.5354898744527181, 0.4089031565586816, 0.12392975032785669, -0.9751483039900907, 0.427045599317445, -0.38497493575942526, -0.3600146420803408, 0.6028332199450861, 0.7259309278101291, 0.021702987285387842, 1.3941513044152156, -0.18074866401437178, 0.2204618250670529, 0.016752508632533483, 0.1630123484687073, 0.24105199406211072, -0.014911676936907923, -0.35954979438946183, -1.418661366606445, 0.6477677145710443, -0.2308011148722986, 1.7268918892129086, 0.8489003574957384, -0.5744589944488112, -0.4834709625361629, 1.5164958245041429, -0.11561629905097437, 1.0409345195720956, -0.3835146273037637, 1.6278042536104946, 0.06661661425291399, 0.7221625949054362, 0.2518146672853561, -0.6418109430956251, -0.6871842996239783, -0.46634435357497156, -0.9773222696421421, -0.6270491556799205, -0.12485680838772693, -0.7420400345923108, -0.7593384098374126, 0.6148102849271655, 0.8471041823201434, -0.018637824798605544, -0.20191099217228548, -1.053949703070077, 0.257046093075342, -0.6752692843117877, -0.7531118570943167, 1.9245830168962978], [-0.20805070445430934, -1.5403402975767, -2.2890404948927223, -0.8003737338913834, -0.5997205054996123, -0.6503501239728463, -0.07414097672189404, 0.44162577562668376, 1.088908690996173, 0.31876332234337174, 0.4241074916857358, 1.8143443366110716, 1.5022484787409462, 0.6151874824053346, -0.021857668609156423, -0.35499936194458137, 0.3821950599356652, 0.4893368604026025, 1.0667615888910758, -0.5134589039815596, 0.8555250992204539, -0.29966640760685126, -0.056188185584054536, 0.5410396732927069, 1.0733627040699374, -1.424600631247422, -0.9179797751449658, 2.255683856062736, 0.23985573387846812, 2.061511127553937, 2.245472089176365, 0.0674753327423083, -0.7028578830180666, -2.2238891184833594, 1.6902176066340733, 0.8898313637374501, -0.9816030202071085, -0.5883902450879791, -1.3381643217332355, 0.3977499825258924, -0.2316750832291977, 1.2858492076919357, -0.42348022809010577, -0.3950687042512027, 1.5334612463008115, 0.24427053244535898, 1.2800387860367246, -0.06897326861224344, 1.16719846184228, 1.400330830074153, 0.26890639966558544, 0.6755508539278963, 0.704827746070315, 1.5639771210903683, -1.9968142884319025, 0.19247929618653017, -0.18524504830353086, 0.40695045728819956, 0.2821035373863074, -0.9633883173097321], [1.1813405901848475, 0.2546802531789062, -1.4515162107087283, 1.0968884424422283, -0.47908832049118455, 1.3169719431264033, -0.03448849633583187, -1.2981510428749259, -1.1131483499357397, -0.9873565362397122, -0.12104680662716172, -1.936777481270119, -1.7034841854002438, -1.5249017012387487, -0.8270236425501056, -0.178410458386495, -0.29749340507159855, -1.2103715835658733, 0.003891551130376152, 0.2383083220301369, -0.3781846257891983, 1.2978200021469235, 0.2387701955057541, 0.06594960886322433, 0.43792074806993153, 0.6405885531438223, 0.602312671635209, 0.4394570854921114, 0.699381436665786, -0.7396928375653042, 0.3501163886918593, 0.03378005199527086, -0.6958571029157435, 0.39966399051121854, -0.6228894368239509, 0.7818629605408829, -0.06445466374898491, 0.3742740166437765, 0.09746842518856799, -0.9575294833144413, 1.2044286478027946, -1.046771465296262, -0.3224516513673593, -0.5211412224481686, -0.4449307956376055, -0.011165806835288691, 0.45335210568142237, -0.05490557512716618, 0.6650490137022037, 1.6913811642756809, 2.062480417717857, -1.7605330029906612, 0.053023043522810544, -0.00851533699125827, -0.023189545923308533, 1.6561273114201926, 0.6832450739788313, -0.6483785927353849, 0.5373000576148913, 1.6948713243735658], [-0.43784122166124995, -0.837698582557986, -0.8261856368425218, -1.040001716113878, 0.29911394621502013, -0.4988806594334431, 0.869897853898421, -0.7897278797600604, -0.011310834545817853, -2.170364493475659, -0.41056923207669505, 2.009950522497392, 0.2972461256847648, -0.8178638467400463, 0.09648407850146516, -1.8040874409752554, -0.18089235129133993, -1.4056176427316414, 1.7226377690085728, 1.5230624840425981, -0.04035566740483507, -0.5968912273950074, -0.14146370425776103, 0.9106963633912311, -1.2294538789232459, 0.47481344292996946, -0.02481490037253427, 0.6165153780462562, -0.21083693595626557, -0.3717246152582681, 1.006923482327603, -1.883694973755594, 0.15393795495272428, 0.6599702820685285, -1.8768989820544029, 0.8100547042197063, 0.5061745894486446, -0.8916368930939228, -1.0067515773043836, 0.3338941666156883, -0.09166054861614167, 2.234604231243632, -1.0905609691373974, 0.4061999849495994, 1.5250308255639127, 0.6612240329620894, -1.0480264595591195, 0.32962210610061804, 0.41183145171085983, -0.3100682941751426, -0.7583107772119204, -0.8163721375151318, 2.1549214613835423, -2.2936516894290007, 0.14406410676254675, 2.194390227810761, 0.9099884960295871, 0.3458994187600313, 0.08708926058242568, -0.7215321475270935], [-1.072000132409156, -0.6780854715474933, -1.6614177682215392, -1.6474491758637084, -1.4999659170748725, -1.3618290518047445, -0.7099121256579395, 0.2837865047390421, -0.14504817739613313, 0.022842869338188243, -0.3529330773700931, -0.1041009714322123, -0.8649439524070986, 1.2235257300938303, -0.48742556366985257, 0.42263962305615244, 1.7850317289995898, 0.6093199170443685, 0.4910940936764177, -0.5633444473342483, -0.2032353555859337, 0.3123159457980104, -0.3588211081337766, 1.5167626492655069, -0.283324634885975, 0.7278071610144665, 0.45572860451973285, 0.5876560086254785, 1.0227589202952738, -0.027887515989193524, 1.1296489749816505, -0.8114584313875705, 0.04536906554353152, -0.4467300640153142, 0.04549941324432436, -0.35094769748234206, -1.3457753324065544, 0.4284607279958147, -0.5508177013472075, 0.24201111135167225, -0.20236057095134555, -0.037534961756916334, -0.3209403351606635, 0.4819890041661489, -1.1658082724522316, 0.0862813768788734, 0.25057780657458867, 1.127041551899469, 0.48773347227770314, -0.5733651679589525, -0.3989558377559863, 0.15747551521068268, -0.32487204384642865, 0.8969609406206438, 0.9146467598477714, 1.0850722641048647, 0.3263923830023793, 0.014491176585082992, 0.0634638485920011, 0.15085152655287537], [-0.528016472793561, 1.2737596970820424, 0.5415406631006497, 1.5691615942288095, 0.0901588719967289, -0.006134033117777791, 1.0203334409836866, -1.171885952615343, -1.0174398236813704, -1.1053741357701505, -0.16768747632994058, -0.9298075467951845, -0.5009331405072064, 0.3420696268902716, -0.13211159685540083, -0.5602028947157238, -1.3947407438855806, -0.4418830340772935, -0.7379088293517971, -0.6542916243176844, 0.3634730805562019, 1.2653446514072193, 0.008481417566760343, 0.8487087109987576, -0.5145634593242143, -0.5287357570118155, 0.5132950080459348, -1.0846685614252936, -0.8834523387752621, 1.3867800016311118, 0.03015715498605421, 0.37048621389062675, -0.3262162717285368, -2.0375954783998003, -0.3900088262855292, -0.044765911783184606, 0.7386329787757898, -0.41019731783573327, 0.4664780567146226, -0.6547474048993894, -1.3868398003703177, -1.030945494155956, 1.3185023133683924, 0.47003497198993033, 1.1950935842408454, -0.4517638788349703, -0.5337708495213499, 0.25394359644499853, -0.5914778915508283, 0.45285556183903153, -1.0044775042463143, 0.2523895165085281, 1.107941896504092, 2.0568840978771283, -0.5726070034449948, 0.12157137499073987, 0.13768564557878865, 0.19638101258747306, 0.7364704960066683, -0.27149995260865945], [-0.3564078044131464, 0.9647381605407063, -0.10368797889211712, -0.7046844380222049, -0.665618114219665, 0.7132915419927001, 1.0617037431211607, 0.4129957497950706, 0.8727638507716274, -0.8915532685646799, 0.23832937575404212, -0.6471909412522611, -0.40371911275985284, 0.004502962170097424, 0.13731502243227914, -0.10551131448601618, 0.8617114020156234, 0.2394913225549829, 0.640117159800084, 1.2005449314071528, -0.7966517300238946, -0.85017434855897, -0.07965901086904312, 0.363500175033019, -0.022596511926342076, -1.7906483612036816, 0.39826910392270654, -0.22380659353201313, -0.7903825087987943, -0.0662457808142063, -0.5104304542949265, -1.1585294506462407, -1.5942716205033372, -0.8975279481117785, 0.5878544498374959, 0.8536994238231618, 0.013202373303059203, 1.1199193024390883, 0.5480022313127746, 1.3259527542676102, 0.07265636439794841, 0.1809643469440471, -2.138591487688637, 1.342835392639048, -0.31440250420754096, 0.24856801698552247, 0.23493781337790495, 0.23842858378985535, -1.2739069782810244, 0.8189433553838981, -0.49655572630229217, 0.8513699320546445, -1.3405052034571658, 0.49456326964966996, 0.5467786731984596, 1.5249815629561698, 0.722735652691538, -0.8518716551762027, -1.4686879701072209, 0.149181257687477], [-2.2687292280495184, -0.8858824534651508, 1.7375751493507718, -2.485900769060472, 1.7723313894350918, 0.7353276036194306, 0.2311252913630988, -1.3451053670223525, 0.562400217558232, -0.26656113336159953, -1.0999463387452761, 1.1119082738513755, -1.363555244831418, 0.7561472926227882, -1.072167398279294, -0.6147968248614286, -0.89650885986969, -2.3332000275899865, 0.2663928004179224, 1.7438424495629203, 0.7019732818171437, -0.1242257845395207, 0.7239705821025887, -1.060250561059219, -1.0972565856347163, -1.2069769115803206, 0.0809863650726848, 0.016991262589871506, -1.1755238190042063, 0.8870387947981889, 0.25464783694144455, 1.4217414424876338, -0.5771742197726097, 1.2549174129395617, -0.18354679433761448, -0.0342233118218144, -0.3597310933402084, 0.5071386344756479, 0.8790787907685728, -1.521528733254388, -0.31240102910610035, -0.8147188860096582, -0.5862287831624602, 0.7173140689855122, -2.2233341124403085, 0.4377605860970406, 0.36881582408649494, -0.9845092936555258, -1.7523974618514657, 1.06765482315047, -1.6047287029277628, 0.19551253809628108, -0.22982599253648348, 0.21945605681213315, -0.42499635857695933, -1.067562421334188, 1.7317790998280418, 0.5291316457996614, -1.382824028947222, -0.1912878647824501], [0.2793074839974961, -0.9665877301537019, -0.279569024779112, 1.0099580766411653, -0.2079494987526222, 0.5941332801020425, -1.5314459595127603, -0.11960711390408033, -1.6654772100680615, -1.1039427324640814, -0.5412888107006901, 0.709287259373775, -0.8470443672273008, -0.142565365201269, 0.13917924709070031, -0.2777716744537998, -0.464767022301783, 0.36108466250024623, -1.1325440168167311, -0.818567316683444, 1.0808544670768405, 1.0930559686540786, 0.8516618439048358, -1.731646390544551, 1.4935335577066127, 1.514942079437757, -1.4454476861505294, -1.6981406131046113, -0.28758083417337765, -1.3481208817630344, -0.07029421225796882, -0.515320077916654, -0.4580324844022828, 1.1861512513816568, 2.0005975282716966, 1.0374271541698783, 2.1185561347101176, 0.6807903983311716, 0.05149748916165406, -0.06612087241893251, 0.5498062503213439, -0.1728293215306581, 1.0350307127199807, 0.40321631270391556, -1.6013982968425453, -0.1021623561708141, -0.1777627017542997, -0.03006728649128268, -0.6131346274542383, -1.3260565203957029, -0.3231918531023247, -1.4955769047219667, -0.013551252313710209, 0.5478352351686342, 1.0648122832184386, 0.6617371653099564, 0.9747867664838257, -0.5007323325671352, -0.41851062301007097, -0.5037630906049634], [0.025789677176454674, 0.18882770620207437, 0.5214375731252857, -1.5681786554537456, -1.3587331927314912, 0.1559647022804009, -1.4844644084900374, 0.44905957652776946, -0.3917807284816544, 0.4311493651435592, 0.045979710629996735, -0.1208444167553458, 0.13068437545289652, 0.9564381649367667, 0.011555425864348217, -0.0004132785307523526, -0.18594395111460996, 0.09442900250112021, 0.08195500067999309, -1.8088029019486376, -0.4395517286312874, -1.0200434121265944, 0.2993333271068187, 0.7832764369425915, -0.07450693765663652, 2.0922460005031587, -0.1657804486296106, 0.11925330397179161, 0.9027860306669075, 0.762788996709263, 0.3922358206153578, -0.28397119597836495, -0.16882916071239343, -0.9759431660621727, 0.48234900361117916, -0.37777173032214834, 0.3427263291374787, 0.40151616624018244, -0.8891523035190392, -1.6523944002514483, -0.7172726772631194, 0.6756973050377101, 1.6889239027804765, 0.14066662451309966, -0.6012865744529351, -0.05018281636100287, -0.7769859119890759, 0.7752384587591035, 0.07918545330818799, -2.343301286031892, 0.4968515806189752, 0.9058814043967358, 0.19986795120980444, 0.2817184424344155, 0.7735108215655595, 0.4566816841251475, 0.7359060659033244, -1.783720540726325, 0.3676860087767397, -0.8524581626161588]], [[0.8142351570114978, -0.5550373051784642, 0.31138436309115797, 0.9246069759454175, 0.3071403978399002, 0.8818745210594487, -0.94822875029277, 0.20718844588560478, 1.4745561416647184, -0.4884638665048834, 1.2249028653503384, -0.32104368147995316, 0.8313317672176469, 0.7184361923274997, -0.8220033464276865, -0.1524321329380444, -0.6230690088703711, -0.14747901457599302, -1.540815500075119, 1.3493916698772677, -0.5686618243077859, 0.1174615859529663, 0.04475299213131623, -1.4354079522775927, -0.29071007089819295, -0.1557671187380494, -0.43568086741607465, -1.6805938737612856, 0.5143019869740618, 0.35627678219030184, 1.19904414740887, 1.3664733557534425, -2.5038310196118023, 0.17083301408536816, -1.1055713685502453, -0.6579801150141892, 0.5155675186888026, -0.5457624527030994, 1.0400622293880026, 1.2610416062472547], [0.751211503445731, -0.6895238117503913, 0.6738144030221541, -0.677380759770091, 1.7097503418022124, 1.612972702214679, -2.038565277833919, 0.4817085400554382, 0.46186968018710434, -0.1549055308302823, -0.9508544043687795, 0.9290496369128141, -0.963115963278083, 0.3578239251975813, -0.7518899555339975, 0.8288134878790415, 1.8105053169913088, -0.07992282202181394, -0.5942648621450736, -0.6122779335107651, 0.38176754089674547, 0.4267060957690505, -1.0045308689553194, -0.138924479771011, -1.4452731939304488, 2.25088593354535, 2.4508836963717338, 0.32223162546697065, -0.35122137401573866, 0.9760042096708195, 0.7638172455774803, -0.0021223868050886303, -0.3411390673026094, 0.015675530587416896, -0.28502763820487464, -0.6944885628922356, -0.24561176220294603, -0.8864078175164313, 0.5122900180125389, -0.057488617099518725], [0.1268221052332922, 0.7218164694367172, -0.9314909394065941, 1.4869245327387988, 1.857406329536615, 0.8327132031973848, 1.1695048305136522, 0.32416699623875334, -0.5393755487529743, 1.4186675899517274, -0.5573932290362648, -0.4892304297025766, 0.4392322300964868, -0.1651823381343642, 0.9857951296384801, 1.3690603766641556, 1.0453596729793435, 0.012783981959731575, -1.0280419819532838, -0.04352668298419256, 0.12837161674621403, 1.0855352130544862, -2.746138487982771, -1.0156180511891362, 0.37942672594478377, 0.5736936334078117, 0.2300474878353319, -1.2899976458129017, -0.5472878157658448, -0.31438363045353407, -0.1252370267151241, -0.7159251377752662, -0.566483495384002, 0.6812676043958564, 0.0953836292950801, -0.17180802321222233, -0.0002736450120055731, 1.7972185590525251, -0.001129624487349313, -1.3887648262124528], [0.528622789656032, -0.16456775306447916, 0.6683026248379622, 0.12365750886277513, 0.9145957592857668, -0.01187939712551075, 0.8615309180346931, -1.219840326953369, 0.5281368286369299, -1.1959700382569978, -0.5444107631988653, -0.8450857117522511, 0.93115206508315, -1.057880755981062, -0.10997773292183409, -1.458578755554021, 0.597032095310931, -1.3217366420765129, 1.0741964995407907, 0.007683263111215038, -0.41645282178586435, 0.19476880637287336, 1.629280296024588, -0.7141678213454252, -0.9011139856112679, -0.3938905619962461, 0.4688468243274685, 0.5472642618287077, -2.0173110077803065, -0.2062292017330881, -1.500899737990052, -0.38223827724779574, -0.23245041418281046, 1.1168317788818916, 2.118625100631831, -0.289737532921759, -0.26057745078026984, 0.4699638643194684, 0.24910012044380478, -0.6849546704630114], [0.7399733178371566, 1.338770257317559, 0.7402752511338854, -0.6193858479025106, 0.6709443461695254, -1.0406646950539749, 0.8577634164789821, -0.6914045388371082, -0.7379367050082091, 0.17310133613780732, -0.21572523756860687, 0.00599152580736794, 1.333272594173948, -0.9211013406105714, -2.8749137796928173, -0.8988608233012614, 0.7174273976011935, -0.44544595681134114, -0.827750852502815, -0.9427010142785259, -1.5250746648867228, -0.7903695088915806, 0.9825385142234063, 0.4986129774741305, -1.3417967983221801, -0.5050751205007747, 0.5283512602052592, -1.0591714396940415, 0.31661898056745463, -0.4591747037346393, 2.5836885740896314, -0.34786820809974905, 0.530223027418258, 0.05566788397917582, -0.46228696706438843, -0.7719118550024217, -1.191248712168134, 0.7076595662472094, 1.1685157779680355, 0.8753888356334382], [1.1081698983407562, 0.6951971033763803, 0.6753490664190231, 0.9005474821576179, -0.2596023116937962, 0.11081347846401804, 0.6648150863056601, -0.3896058157544558, 1.0808712936131821, -0.21298718914665296, -0.6839610135124318, -0.5749019589460975, 0.5636451822324652, -0.31946414451143146, 0.28586672776003325, 0.22260919202758128, 0.05799757115551971, -0.020277811970984664, 0.5269009355158043, -0.04957127957400918, -1.6573731747102454, 1.8072209807438633, -0.2558057660335544, -1.9192438141455086, 0.71081987461932, -0.49890450645717876, -1.7250366482491561, -0.8072492734429914, 0.13644267122295678, 0.7102622297762865, -0.5252078710679804, 1.074066125569649, -1.3864455830591096, 1.2852446075550892, -1.069548476288617, -0.4133160431598585, -1.6805598644656379, -0.05262734215614834, -0.6353142928701869, 0.04384407383523536], [0.5830668131760797, -0.23356876058579001, 0.1364751148963945, 0.9616024707127182, 0.5728575254647715, 0.8321855138957328, 1.0696254537695142, -1.4642132452783698, 0.9115035193185913, 0.19875083859183837, 0.6043833307082015, -1.0693620329124065, -0.5996408043330232, 1.21114758427033, 0.9767228381299822, -0.43352655285662345, 2.1403991723636433, 0.0983572066164814, 0.9292521233812093, -1.4402744405030938, -0.24939573900700163, 2.207306560718537, -1.0937737267787933, -1.4191697154022638, -0.18817577197850316, -0.5240500564432977, 1.309690056741151, -0.4930427653129916, -0.011396554840349436, 2.3019819667679613, -0.062274149356922846, -0.30830031361815263, 1.2485832775491843, 0.13406266297628786, -0.8761179597864823, 1.3790583763492348, 0.6360499684438808, -0.31957026017152707, 0.8778687432051111, 0.2824337231394175], [-0.8874688362410871, 0.7164099316472736, 0.0740147608449148, 0.6538596797726022, -0.927713207889001, 1.327678596997385, 2.100136774830465, 0.7564686622670678, 1.0507636482564182, -0.4816264659270686, -0.678903325948197, -0.2500529060319504, 0.034700982359823315, 0.5603757824884609, 0.3138894382324492, -0.3915921426034192, -1.2176503793587277, -0.08410905682628331, -0.8384897266942017, 1.200058214940722, -0.3692623646297389, -0.5760936659851263, 1.810625104667749, 0.37534206371604023, 0.19259341544612923, -1.407070255228107, -0.3187801545167875, -0.42138552801476253, -0.7389257248341065, -1.498908647557791, -2.399444143828252, 2.2801501195646874, -1.491131845465118, -0.9440761201008588, -0.8876058383241233, 0.40286127647230885, -1.1985404309626895, 0.47545084528649023, 0.572400717438566, 1.5301293886352902], [-1.5291472619474582, -0.29990858945441046, -0.05538721208760635, 0.07905124377545139, -0.3241030257654003, 0.07947766264560319, 0.007514497911824509, 1.2769340775182183, -0.1480542064005008, -0.5439394117890612, 0.5419551825437703, -0.22299580346002054, -1.391663019589936, -0.5447182804585584, -0.57250510552899, 1.6362039266788855, -0.10637430857322919, -0.49932425360816585, -1.9336793969904913, -2.1772529899509325, 1.781774272397016, -1.5953693118848604, -0.4621689859214476, -0.6129572809072129, 1.6087160864182677, -0.7813434372354355, 1.08473592329052, -0.3113508120056754, -0.14743464338948895, 0.21284410041271343, 0.1289787090863836, -0.23572843605226218, 0.09474982257180219, -0.5766925398530436, -0.5890948074856537, 0.7656165459061356, 0.6917429722937466, 0.7265540099299204, 0.45789366467675113, 0.9436558892906123], [1.2004030941284023, 0.17764627657125978, 0.3148347431057552, 0.22665537255293347, 1.3000355344823948, -0.11809638066695362, 1.2259282696328517, -0.7135167529205726, 0.8777287242844477, 1.8829462498650182, -0.4283651441482535, 0.5583045347722059, 1.1468257719783328, 0.8934932031796042, 0.2670983698158075, -0.9766630422836611, -0.961909749008002, 0.43206848932265346, -1.9162640923448988, 0.15576582136073636, 0.4632386635883599, 1.6702324345979127, -0.51889219119847, -0.06807022986655809, -1.2632809745057765, -0.36821884490451473, -1.911609464257425, -0.4602101792849503, 0.5408720580271165, 0.5923766748971278, 0.9231179374575815, 0.6355570192321846, 0.942785435851161, 0.5950874209650069, 0.47396202626583817, -0.3584031635706424, 0.9346865916142953, 0.10046240645577975, 0.9883939131841996, -0.14003220151142384], [0.2251889774355405, -0.798512255248683, -1.9677512205598298, 0.3377360806161901, -0.07060722122639175, 0.6050242900132065, -0.26225070075939505, -0.49711965061854546, 1.3714062657233301, 0.4545430524841369, -2.395228748488899, -1.463134467042614, 0.1730295645071806, 0.8077681182964628, -0.3262569967070146, 0.6175577585492655, 0.8706636330499176, 0.7695040864986011, 0.15070020514517057, -0.08483936867392738, -0.5611528664325887, 1.986901175639675, -0.1414195556008545, -0.24953991903831058, 1.394494658869188, 0.3488300089287714, -0.3100370109399591, -0.31100896535921807, -1.0801324989382604, -0.20231451559455194, 1.3037935208048956, 0.04463310723398973, 0.3162765907858411, -1.292755350284885, 0.9284331632689286, -0.7322766122208421, -2.370926146655692, -0.10418777080751238, -0.5276801326945467, 0.556996288722367], [0.37544792242411784, 0.3640983588669329, 0.9357162085690579, 0.5267339483106942, 0.4555907666652921, 1.1877518644996838, -0.29583569792571596, -1.2710676284316322, 1.1811624266643481, 0.10220833315505833, -0.3440737610895478, 0.35598860043784397, 0.45531799553760055, 0.3270786872748545, -0.381692295858692, 1.7981631653217516, 0.6669366978569756, -0.1715784419955203, 0.02281986705665677, 1.037539035365337, -0.018105585796997767, -2.4861227099724696, -0.8443849616118202, 0.9878872803227796, -0.33563003150567333, -0.6466610749956965, 0.8249817784890792, 0.318550353782649, 0.5531288698016467, -0.4151633379936738, 0.37821478617024307, -0.5755776300565767, 0.13750652080554462, -0.34222543322709703, 1.2986647094756016, -0.355133194926623, 0.5309071142334101, 1.703908692479374, -1.721412723679338, 1.0443254461497529], [0.4328507333454006, -2.159023973502043, -0.20212413667874563, -0.15101866373737857, 0.5758894233184723, -1.1356220686389187, 1.5694221389870298, -0.5091202211192045, 1.5425111277581904, 0.4643546294638332, -1.8969754449150216, -1.0878159586360474, -0.6177655411082993, 0.621716091264691, 1.32723802852733, -1.8565622672959496, -1.449615909284853, 0.783469793730463, -0.3461858741525556, -1.345767832283826, -1.1374726273752873, 0.828103840283685, 0.27601415165904997, 0.5867011813656701, 0.5569061488436104, 0.9778123578788663, 0.8082632524993049, -0.9246446927209906, -2.1000405682333074, -0.5117251936416012, 1.4700131776115293, -1.7167612675974147, 0.25393357567519775, -0.9334143048657502, -1.2382008636334623, -0.505728455408383, 2.184830556566782, -1.1182013344382786, -0.7365861342118915, 0.665083841258972], [-0.07052381007950141, -0.17140334849987537, 0.8781099483901043, -1.5098653289882245, 0.673522399244151, -0.3965155101909561, 1.026434492623738, 0.33418811207402077, 1.3280558420026645, 0.3541884842095385, -0.3001473917602626, 1.0594090939747043, 0.6470146700904074, -0.15342875830819513, -0.0890901748113289, -0.3479558867972482, 0.44372456931488446, -0.37745622658676836, 0.2619810691163215, -0.02709686985018652, -0.06691038485413721, 0.9817481595541933, 0.23979379587811012, 0.8981938316854161, 1.38818763702375, -1.3660806288763183, -0.19665845626788395, 0.2796698078555789, 0.9169264169756168, 1.2690956219378695, -0.08666768807167463, 1.3405147145548175, 1.5937773240041937, 1.006575481510689, -0.7012592077872273, 0.10256640332702158, -0.3882769962669823, 1.2627045998916209, -0.2836915738035661, 0.23157809991034764], [0.727029867012012, -0.3552398667044808, -1.5466432127567582, 0.06879977448133077, -1.764121804394179, 0.4511454158519287, 0.20950743261914082, -0.18981102276256204, 0.44362271850437324, -0.6766418558349918, -0.044122597756528666, -0.14144319510677913, 1.0755312348319692, 0.035458805312945395, -0.6579924456328023, -0.2325136963390812, 0.43902243532096746, -0.8960057740334161, 1.3028764941376263, 0.11525092381389969, 1.559379566573096, 1.4285203093323844, -1.0358625394806626, -0.3475224872150369, 0.08403915063825783, -1.189851945411282, -0.1199561363353939, 0.28067841189037035, -0.4737402668493064, 0.0775275617192709, 1.809645951588808, 0.18503223023425028, 0.6239230076287834, 0.3203205619615223, -0.6905140045665283, -0.5794481148407413, -0.28826386080399935, 0.8374912584002383, -1.4461685911588915, -0.14081396429716309], [-1.5379909547339643, 2.139168744535791, 0.29465799248664093, 1.6699297504022952, -0.21874638719892645, 0.4632540356027063, -0.4911901328702159, 1.1398570299631963, -0.8600258000560375, 0.37043523822959545, -0.9471708820947058, -0.13741234302991603, 0.7055857811754398, 0.9079794644346689, 1.129983344842924, -0.021440033706110907, 0.4025469963153609, -0.6899924885125253, 1.1136448402212462, 1.2520552750402547, -0.20850489470898415, -0.7754863271110655, 0.7520043384715008, 0.9192053786534718, 1.3146884616918808, 0.9399639910059544, -0.47480674402993006, 1.1033578080211572, -1.0195410982181767, -0.15799773146214285, -0.3134347910156057, -1.103373664763804, 1.6699761628588365, 0.3115208192170647, 0.8165874515382926, 0.6743071362565272, -1.6632578979223236, 0.3017498119152582, 1.903246705279234, 0.4628773979210245], [1.769697396951667, -0.585873468816802, 1.7464629585376292, 1.0488144040830039, -0.29008029497221643, -0.45525685956941536, 0.47890236469912784, -0.7419015444139831, 0.5252776517620091, 0.38698613482595634, -0.38849717564656316, -0.23677650808504075, -1.185351101513446, -0.420597982519403, -0.4280957204393631, -0.2645532585030949, 0.05432111560973739, 0.7472945781989722, 0.5099692137237583, -0.23556603525075318, -0.6865887936509624, 0.7906956795902703, 1.8963487268951429, -2.272787686323404, -0.038309854668901466, -1.122583673848192, -1.7856527910633406, -1.7728605753472266, -0.9888672948701859, 0.43872276286084194, -0.748788499060221, -0.7877378207640624, 1.099315127330385, -1.8362504199707843, -0.6270573661228611, 1.5131558437398525, 0.6256207660972583, -1.028700257861791, 1.0720134451179875, 1.3565277536491527], [1.1536292869995886, -0.002912810697481003, -0.9126023733802369, -0.3592188740026216, 0.02534151298432866, 0.4417735300436707, -0.3661829364442471, -0.49115641700534446, 0.3197061764886207, -0.3617390702863176, 0.2102429878052133, 0.5149959560272619, 1.4461978835403038, 0.9126344382837653, -1.080216594480816, -0.8007979804819649, 1.6501996078889283, -1.4948062153742303, -0.02573178947670835, -0.43524516435351157, 0.387362549076525, -0.4425387595213387, -0.5090185315834073, -0.4744844162075135, 1.8822880585358854, 0.9421955750589228, 0.7539272004467761, -0.7488438488542265, 0.8389460784459016, 1.7020043413597794, -1.8397895578791676, 0.9098120586920512, 1.3718317103184343, -1.5002434087130048, 0.8044014839286334, 0.4778441871293454, 0.23123467759571173, 0.19621149960434994, 1.0446265763121754, 1.0465635726819043], [0.7790200000000634, 0.24625507251068657, 0.06087174763208737, 0.584947968490409, 0.5367061358826495, -0.9943907142718622, -0.6081377942611944, -0.3027710496667727, 1.954401942209277, 0.6000960100730061, 0.35704158576457756, 0.3028338323999673, -0.31373041127400125, -0.30776328552250043, -1.1077636255220322, -2.5198459542698814, 1.0067776746424026, -1.2793778989730213, 0.014172791052048115, -0.366234515527155, -0.14932760318682947, -0.43916626541739723, -0.3895202254401738, 0.23531546850845828, 0.5039958976274742, 0.6254876406822641, -0.12387806273627108, 0.1487863133251442, -0.16869232485359056, 0.2366070968493902, -1.5529744331058002, -0.8086026777138129, -0.33114814156428435, -1.93208015854579, 0.06614677714420257, -0.5768587362978322, -1.011228763414684, -0.6568814528680424, 0.6270010137871048, -1.0116554335004426], [0.592438706392694, 2.172760906683467, -0.6364115170947486, -1.7665200516666877, -0.7671369085213273, -0.0028503110722006863, 0.7435408036281443, 0.6924808391699873, -0.4155262851229028, -0.8401216806508719, 0.12942531083773526, 1.0493340599195806, 0.4931959900363221, 0.40042230703342435, 0.06905119291851093, -0.3257335011806379, -4.674213820581248, 1.165549008341554, 0.16450425415756567, -0.3789441120138409, -0.9343569716030604, 1.1752660528375534, -1.1080197453408431, 0.18217029372494908, 0.18919194201105463, -0.09394972837157871, -0.5788511784720981, -1.7457011409015941, -1.183510491089034, 0.5542763041257491, 1.1033071407283142, 1.073824184941843, 0.9095260408638115, 0.5908317260167006, 0.5310934751862132, -0.13074327601745472, 0.5473192686498309, 0.7981931567704739, 0.0165477604407644, -0.09788526942156311]], [[-0.6538458719790434, 0.83101590210124, 0.005010803767919861, -0.347552889603332, -0.19146107200393997, -0.36489956303823057, -0.22812045634364325, 0.6868805296562862, -0.7933884029039178, -0.7079683858662839, 1.4647096617546524, 1.7899556009637128, -1.6353106722424893, 0.27287364261239067, -0.4379577993520638, -0.1597055516297231, 0.5785801063588398, 0.14429349332104846, 1.0188681508864337, 0.5311486568749743]]], "ep": 0}