{"num_layers": 4, "sizes": [60, 40, 20, 1], "biases": [[[0.39453262196538863], [-1.483762376681549], [0.9425805562708572], [-0.6628219988149712], [0.05100691639969531], [-0.3314570481861454], [0.07938375006902548], [1.5716334196888389], [-0.2769835035288273], [-0.5807765504891416], [0.00915342997884489], [1.2493306186477646], [0.6242682459520463], [0.2553826677440502], [1.0676962551449372], [1.1640426496768481], [-1.1836199361810362], [-0.34116725254448144], [-0.4928892313649706], [-0.7324886395648066], [-1.126668194532412], [1.0028986764694752], [-0.6378481103895187], [1.4073339196917578], [1.8147335035362109], [0.2397120875723685], [-0.8816501351501442], [-0.4423812460876853], [-1.461038189179207], [-1.3826215377912725], [0.18956218643896353], [-0.6000738897217424], [-0.27821181149703544], [-1.0794597347141262], [-1.4016452161199118], [0.6628895692025297], [0.7994646365651672], [1.5471654945111502], [-1.6835250939987199], [0.3728441742925563]], [[0.215562679100255], [-1.6404307235450377], [-1.134199678267478], [-0.5452860880995098], [-0.37481603061519325], [0.061423438417718725], [1.2525768350436668], [-1.7606452089286155], [0.547799047948404], [0.040716785190776775], [-0.2811789844091289], [-1.9205805738269477], [-0.10526738373728727], [1.8634376717266485], [0.17620766872758795], [1.1993601132639944], [0.603017454583699], [0.30024331661490167], [0.03677944555583148], [0.5455847468682115]], [[0.06582069884868816]]], "weights": [[[-1.3060863471744384, -0.9241826685347179, 0.04172832830676794, 0.006748300227643112, -0.39531571281543665, -0.14060203302363194, 1.7012236848078723, 0.4935545481220848, 0.44391022635296346, 0.5361195680706893, -2.050651120631993, 0.36374684091300247, 1.8494717220478827, 0.002025941436802628, -1.2835556495669544, -0.4663746916726495, -0.006004926236623456, 2.5304551846013044, 1.3707425004527727, -0.13042364399857612, 0.2912452333604803, 0.825357288101398, 0.014248891119587302, 0.4728867699321368, -1.020088853985368, -0.1654881797903899, 0.6183974775085948, -2.2489239155891183, -0.4437359065454979, 0.6416096446877056, -0.6155019402817352, 0.8089480300370082, 1.6448573023744517, 0.4718458780050957, 0.2538666633066581, -2.302717889421542, 1.2077258187419275, -0.9755290518839568, -0.4659088283326904, -1.6870442758067405, 0.5569965534214155, 0.41666273487463035, 0.5972934900696407, -0.1948204191503036, 0.833386844631813, 0.6981489330707187, -1.4310326795590655, 0.43540223506660786, 0.0101366736301285, -1.4754269879157842, -1.3452392402193882, 1.1921542414410187, -1.8500391341691789, -0.4081412100837815, -0.15894544207609057, -0.6638258393339825, 1.3837795676736417, 0.9400959534509166, -0.6887017026080633, -0.28269474254006605], [0.1521703377432597, 1.5651927923916722, -0.1443274167289654, 0.852104941410031, -1.541400101146828, -0.011383904493280757, -0.16649846575478675, 0.9189792884118785, -0.6354369464307328, -1.6920746386149326, 0.07313764188480307, 0.8963414960459353, 0.586189441683468, 0.7297809376960305, 0.24735217724588507, 1.109842654499804, -1.2490621375186755, -1.2476105208513435, -2.0826927463559803, 0.16847872711220316, 1.1879623082519972, 1.1529389133421764, -0.43890365576523693, -1.0008010910093146, 2.153177124336473, -1.025718786129796, 0.05168415791361206, 0.2685493048010624, 0.6656629178669601, 1.6121202129296597, 2.036003059650616, 0.43954270140943896, 0.5873001220750267, 1.459835497859097, 0.4779435256586802, -0.5858516488840483, -0.38372037509839096, 0.1695026436724882, 0.4015087338732317, 0.05654157948554568, 0.1595085375272806, -0.805586047098683, -1.307738853442403, -0.8270972859480544, -0.1828898654666321, 0.13866219566224847, -0.19239670980712933, -1.7489929474136128, 1.0582907876689316, -0.18938737423917282, -0.37325967459543274, -0.17536968547356482, 0.5685399877863238, -0.9539051920821372, -1.6343756831634577, 0.3772404287812332, -1.0046360281803675, -0.3762633964049018, -0.6295061266251817, -0.737151832876641], [1.573276053224189, 0.1463766119643566, -1.9711467136096792, -0.5726997115309649, 0.2167316652135671, -1.044140789984741, -2.237781919930418, -0.7452418903672692, -0.5648816272718916, 0.011372613032359357, -0.8006923502490979, -0.6420589667940908, -3.552314429236935, -0.7327736781794293, -1.737226197611083, -0.4142951135631599, -1.0804629159506676, -0.25520245429421407, -0.35423205111926653, -1.8478384149870568, 0.1444294506904349, -1.098325432131606, 0.9644480356205873, -1.4201398986439908, 0.9549450364512064, 0.630384310922322, -0.2956291114412756, -1.6785332982658163, -1.8614328223937968, -0.34434580320998176, -1.4705382792653527, -0.35908919591703287, 0.8120115189344661, 0.9922178550636938, 0.7671348871497243, -0.23104491767085703, -1.115332817921286, -0.3760484290035059, -1.506630278690187, 0.0856586800507175, -0.10073083773356703, -1.3232465256677668, -0.7605000765078107, 0.8510412773557071, 1.6031939669892383, 0.23722011217966874, -0.46354496352378144, -0.7573175299480267, -1.0841297513481867, -0.357439539579212, 0.26655476526828, 0.7367677516639062, -0.23205933589532515, 0.7541642517709237, 1.604061154953063, 0.7809555851488833, 0.19590960018955253, -0.2572275118667074, 1.6949056764061383, -0.09566781170387786], [-1.405824812866336, -0.08245345782249006, 0.33207444004189596, -0.34220605213753125, 0.6506692276738497, 0.797336255777629, -0.029544217800795768, -1.0426661755912612, -0.24141478806671582, 0.1503695524177245, 0.056159050217974904, 1.2671946172866881, 0.16462762563659733, 1.469311478024313, 1.6637740168770854, -0.7425912383889745, -1.383156147721164, -0.4273602129440226, -0.7381471455915787, 1.2383126101540967, -0.06635036904721557, -1.3496891563826638, 1.205175485514387, -1.0353681249041597, -1.3247221149547586, -1.302097925634618, -0.19955538085241595, 0.7677319275236741, -0.1409688780939446, -0.36442451392036057, -0.20620805465217404, -0.42247778285239984, -0.5515940202908561, 0.9957450184739248, -1.8943523113660055, -2.273812923971905, -0.1850516828562841, -0.21363569897074183, 1.0845468508226352, -0.09439742856535023, 1.6628114941975627, -0.648126444335759, 0.16301460189265518, -2.193118792435444, 0.8622589306071603, 0.2956717279745197, 0.7911824886172897, -1.44668584086857, 0.20539717371074553, -1.2991405244807535, -0.5592781858465403, 1.2345021389643387, -1.0053082158180884, 0.7026156386420348, 0.7204310479809243, -0.3388644894816739, -0.41739377586520493, 1.3825444923719106, -0.7352792802654206, -2.1374209245636737], [-0.7858133463758571, 1.987741207161051, -0.4336240715298343, -0.15911339439397282, -0.9199483241077651, -1.3610313731899668, -0.14684990225012468, -0.343962709420198, -0.002160547872847695, 0.0072566769409291255, 0.191809919128066, -1.943788083963489, -0.6597848135552783, 0.8996309099459491, -0.08388698857227508, 0.23411625892985605, 0.16004668490955345, -0.5480039313858257, -0.12474890770875892, 1.4907083389884936, -2.8334192841926122, -0.5506546328081031, -1.2890750026830564, 0.46524475951477234, -0.5705104613048786, -0.8170401553525618, -0.05018708933000637, -1.3805576638502883, -0.291029319076552, -2.0211642015974878, -0.3020999449939127, 0.34101441915244085, 0.7871679438390752, -1.5806543703484242, -1.4728336867173748, 0.21740213260536864, -1.2512009048301564, -0.06742513500154447, 0.2774770791050406, 0.4457851321348165, -1.0403707976231809, 0.374883030324286, -1.1277311099732885, 0.6680139375191, -1.118258773130164, -1.224269576097856, 0.02201503352803334, 0.4642485011402711, -1.1055191622010674, -0.6328713100487408, -0.3693366382050732, -0.8403571836001835, -0.1963648131642733, 3.2496135122426235, 0.15559132173185664, 0.8401166499017003, -0.3548854403999062, 1.2807024560206046, -0.051844057763844736, 1.3200711354610954], [-0.16514631962034634, 1.7731595030574476, -0.3537333819713202, -0.5879017199893862, -1.520273758595374, 0.8437616803152527, 1.825606398770923, -0.03693678983857897, 0.9798613705206966, 1.3709006969218789, -1.490304241488971, -0.9255618914994976, 1.5608029275536333, -0.27366881797294196, 1.4885469201971888, 0.29163541215871086, -0.8653727611561383, 0.5237668123144288, -0.4897111495789931, 1.9790393752536544, -0.9578385543292313, 1.3154342392715388, -0.04154205544177792, -0.8892718468065514, 2.3788920875450565, -1.068253211808544, -0.5817250445740081, 1.55059881563612, 0.8610454485381231, 0.9545834276541552, 0.2170187387905734, -1.8318852160148302, 0.35043331983251785, -1.7504453142485297, -0.7372705939527274, 0.40060267005291555, -0.7554739711554997, -0.6446101225065843, 0.036968570045956245, 1.3053733437361879, -0.23859679742044937, 0.5418807129481744, -1.370832002803178, -0.33898599843589755, 1.7109129092138207, -0.8968194904114232, 1.6957805643658141, 1.5371493676587664, 1.651131896704082, -1.2212485266230486, -0.6614517181715796, -0.8016217066446492, -2.6501613966178477, 0.634209170029691, 0.11431771846111075, -0.7021208207040738, -1.0080109874659404, 0.29392242267810903, -0.8444456448079217, 0.13956924968161924], [-1.2328760336956481, -0.43455731870698927, -0.367802351678867, -0.5189387827763129, -0.1466703949097995, -0.853996009316851, 0.3669722727616327, -2.3819723768969725, -1.2307050747821522, 0.5259291999085594, -0.04942014426229936, 0.6248615675153938, 1.5507384326694333, 0.852939748257673, 0.8290287362307077, -1.9840661585298194, -1.9840479878440263, 0.3923151481197136, -0.5006387125626605, -1.5564176559592604, 1.8363651618426133, -0.5469913655957968, 1.638324199456258, -0.3461048260859492, 0.8291433641334968, 0.05102754689434817, 1.0526847460210738, -1.8065380180170476, -0.6342393110807975, -0.5470316269358252, -0.34035871210263463, -0.3771431042585831, 0.5594236922763547, -1.2891496218181737, 0.7983509774584587, 1.467389760180651, 1.5647879129494926, 0.7446703783594493, -0.677298849619025, 0.009014574843752008, -0.48459746677529325, 0.007919363070105156, 1.248507170133369, -2.0728644151365656, 1.054056771642448, -0.43566570100971747, 0.5792395450588412, -1.8273277334285392, -0.14461461411083404, 0.10446447956723179, -0.7864351409936848, -0.1566490619359071, -0.4309419330824776, 1.428139352787863, -0.36004118546698494, -0.7466273481789167, -0.15036038591805165, -1.30344568446277, 0.15424840674836285, -0.0334997740276094], [2.312910458748001, 0.057892138945877705, -0.19860341256252878, 0.6582571128732605, 0.3091572826021146, 0.021791726173906, -0.10628326900283015, -1.421848375469627, 0.913969918736432, 0.6109216567785579, 1.8755292568471982, -1.2644032889905312, -0.3061423317518969, -1.5385923170245892, -1.7989953753329804, 0.930322068132473, 0.10981273974386482, -1.4187769422017702, -0.1426119206137997, 0.24998800822497994, 0.3485568757492222, 0.3054618118062974, -0.6980709295345243, -0.8434750936958273, -1.3578038366556158, 0.09462631085804324, -1.223052760261712, 0.6638642975157917, 0.6866728074124528, 2.2080118145932652, -0.36431496718767264, 0.24691505692111668, -0.5228887141289754, 0.9281502427389813, 1.9100740769563913, -0.8840226462586875, 0.6480608622690478, -0.6857566592177698, 0.2996306326444461, -1.3937615991270933, -0.1286865711530953, 0.5149949634514116, 0.5995521235412095, -0.9560043960005009, 1.211990439819159, -1.6531960576678264, -0.1094169248872037, 0.8039665396116574, -0.7293380014127762, -1.0613090409208683, 0.8570629016574915, 0.05375253204895938, 0.9050700725724269, -0.34619111148244486, 1.8112825049532129, 0.6760871793152992, -0.5952286950484641, 0.4858581503148524, 0.35810793951607733, 0.13900223337529832], [-1.593513004684363, -0.7986767096765063, -0.6338571259354798, -0.9683616870873935, -0.46008221444740677, 0.07667039476406277, -0.784751721580951, -1.1841670428752733, -0.6200254503441949, -0.8579649423358561, 0.5601399877134126, -0.8580924030332213, -1.3222945951325455, 0.11107714131065215, -0.44975587884951745, -0.5013747815350731, 0.7145713510944823, 0.4852165449360672, -0.19861822343641547, 0.7993355376806938, -0.11388378253536353, 0.7407958253810202, -0.5499531773292164, 0.03531558497208477, -1.0893716259969521, 0.08064745849821235, -0.017946570396000533, 0.4297983228113533, 0.5284007364578283, -1.1213268653837907, -1.3619529949919031, -0.9232138217599464, 0.39461850466830417, -0.9504443861914676, -1.17559538639147, 0.4759066573209411, -1.803872333921407, 0.48490799455349787, 0.37844141709038204, -0.8117183512681162, 0.7048138101802588, 0.3796706784018603, 1.4924606070357658, 1.0610133535085855, -0.99399823099467, 0.8967115515097501, -0.42804421917679963, -0.5692684861282984, -0.5582599492004613, -0.8995685831381046, 1.1359744417912039, 0.798475814920031, 0.7065695977296309, -0.31911142975267043, -0.22692675728612047, -0.16644481482675957, -1.6230591193795236, 1.244417806695408, -0.20499019875804575, -1.2782098153423749], [0.04376822092590343, -2.3814913199057663, -0.6358313226149033, 1.1209936854084264, 0.31443853243326847, -0.9019898256292747, -0.9442255985699682, -0.9531489334491771, 0.13166643943496611, -0.8130805770732761, -0.9030244823611142, 1.8068493323391606, 0.6146242944183199, -0.2754091890852428, -1.5676728121544745, 1.1368493994310098, -0.36833681796671114, 0.8611418047374626, 0.7789154959133674, 0.7461608848251571, -1.285355068325932, -0.15608423052891718, 1.473127795476837, 0.5493199242393403, -1.6987175874332447, 0.22884069792060416, 1.2030775367521076, -0.04183826194116259, 1.3921389198500058, 1.0786745513773668, 0.06591286161836026, 1.9770510819221978, 0.16554320950046417, -0.07976599615075403, 0.22473497153986202, 0.29375688795023813, 0.6830422434342617, 1.1922398089722077, 1.2810939641576844, 0.1791727684686516, -2.333052667742086, -0.9468852407448939, 0.888288378002403, -1.8465138992109658, 1.2082999084511148, -0.12389481756747722, -0.6848354259749518, -0.33679246129941676, -0.19347846214297992, 1.028133299576307, -0.17476341703579237, -0.6354263544632438, 0.6160922540533209, -0.6893865033004557, -0.7071206451618511, -0.7621514347459081, -1.4216708596733778, 0.575150080284654, 1.0164790269577808, 0.28130508905096685], [-1.2517774570164666, 0.44639364458131703, -1.3610402117053435, 0.23278739710194346, 2.245041020158086, 1.389273202612048, 1.9594652044323433, 2.0277956790987313, -0.020879305350996358, -0.6044927352662376, -0.03099784961453011, 0.5969190020765162, -0.12131115003969806, -0.7676221965006575, -1.1694714729771, 1.417783726099179, 2.8736028079655953, 0.36632021404331444, 0.306055001224004, -0.698002331704545, -0.5175883384481805, -0.3781644919374484, -0.4815067191244224, -0.30779745022824573, 1.4614970818541861, 0.6818736162501301, 2.388322417979753, -0.35798098801146844, -1.397984224974307, 0.3585245945473321, -0.7805085029452647, 1.0809606988499048, 1.3513581506172831, 0.9937795976589681, 0.6239912277875863, -0.8753438679712016, -0.6332680547056168, -1.2096181155463648, -1.2665469814422987, -1.5458348108130995, 1.579161521127491, 0.09209587105961328, 0.8160091786872645, 1.1647760438209376, 0.6190527659745239, 0.4043559802496239, -0.8344899497208794, -2.448855997328009, -0.05584329537877691, 0.8124882966494251, -0.3808263611202884, 0.0195725172027905, -1.5417275070282637, -1.317540060080688, 0.9232628249457941, 1.9996099009238912, -0.02138732946331312, -0.9611770036780654, -0.2794229432518838, -1.3656200345271052], [0.26974310789038214, 0.7387694166647132, -0.6208533264728642, -0.3784580346626775, 1.0401118299032546, 0.6103404568157778, 0.9531552779003253, -0.27010532597801984, 1.680922468294978, 0.4405116456122243, -0.20293027681647205, 0.10535836242992792, 0.30749125632413693, -0.3697688449373857, 0.8037217342820538, -0.2031005608704798, 0.666651503536895, -1.024265534896073, 0.1487725130275162, -0.8735448890586586, 1.5278604884156426, -1.248797665950365, -1.0027808544784735, 0.38833646297665103, -0.6563938538273464, 0.8149353939359238, -1.4231683950294776, 1.1343824747153666, -1.4740142457815089, -0.24322763988205726, -1.354554581986254, -0.250801908092561, -1.2885033964019394, 0.24975838834946767, 0.08525177438581526, 0.9391722570442136, -0.8665002156789461, -0.07662526726778697, 1.0281427277864517, -0.23648329433530885, 2.489326058324146, -0.11369713942168169, 0.04480663684425209, 0.9627065302081571, -0.6023246609687948, -0.587004267938606, 0.7897153272363838, 0.7975042900560777, -0.8234664249056765, 1.885714771457852, 0.20746857584466233, -1.4966186595044526, -1.5136067314097716, 0.7460897973222801, 0.7096882832134258, -1.4954944237998198, 0.3431795214113402, 1.2758615290706798, -0.0069619021045319454, 0.22798583655076704], [-1.2322371893857065, -1.184447653401984, -1.2978080168062804, 0.7679575181453608, 0.1583801400915402, -0.13842338439673108, 0.3303417252813068, -0.0001585974310339541, 0.22082487480322396, -1.2997032508129254, -1.2499398587977149, -0.444492542585596, 0.7104491224781371, 1.0781785304381117, -1.4816617307295237, 0.1979440791105185, -0.48030693327310076, 0.1482058849071108, -0.7108001572168032, 1.2058318570746516, 0.9748593979767189, -0.8693196969151847, -1.16618341893904, 0.038943668250395705, 1.4781164764681118, 0.7714614429215302, 0.28210332070855143, -0.26797887708476836, -0.7976024920980477, -0.37297559417246434, -0.72745396093054, -0.7210620698823169, -2.7852378346086883, -0.4151092579675467, 1.0420152778714826, -0.3808718241911535, -0.4459094317796749, -0.45151219271129955, 0.6108998454300116, -0.6556055493730453, -0.6278523081180876, 0.7118662470092812, -1.5052151584561897, 1.5968104100814835, -0.4505822699053532, 1.0090500647012568, -1.0629596932771996, 1.4555021665592824, -0.24720227433570138, 0.7410227202403118, -0.27205066618714785, 0.2811908046403331, -0.3574214451051528, -0.526958793685266, -0.4388681841295027, -0.2665750226697073, 0.4824839489662893, -0.6701906385652602, -0.21398645101768932, -0.8941400631712111], [-0.3816557943273216, -1.260465760382184, -0.6607698907867166, 0.39446702460930116, 0.775290607025114, -1.7914261666248683, 0.6911019703419329, 0.7805122171475432, -0.5709379216591853, -1.0491829220395401, 0.02896139417400576, -1.1052812748661471, 0.12534927001822463, 0.010094327059048983, 0.12715048626033756, -0.6772772448235342, -0.2897559279763799, 0.543651864152488, -0.6565806121926606, 0.582625426479557, 0.03473379712152375, -1.700067872319894, 0.14495547095513917, 1.9963939839115992, 1.6366991219252596, -0.30438378232172497, -0.8787587491287783, 0.3382290020657541, -0.8628445866047162, -0.6512694890545754, 1.0819056145496664, 0.9073245035446723, 1.2333186350068321, -0.11969919882516103, -0.7205825073062084, 1.8917800479649454, -0.4576023589354842, -0.17040085823367068, -0.7256779704621148, 2.5679573527356228, -1.199830456662076, 0.49537511830305475, -0.2629012634818389, -2.3172538111924394, -1.1087518139895465, -0.6888968969387715, 0.705217755171377, 0.618317351599768, 1.2241414912530377, 0.7333487815795492, -1.5626161502476854, 0.36804801279286303, -0.30640068773560425, -0.7136234440067283, 0.3861885238299736, -0.8371379711016081, -1.4669139386458414, -0.44938029421084147, -0.5080692575599539, 1.0052386391777441], [0.2426156740841391, 0.106375913012871, -0.9128336991648602, 0.022548081134465492, 1.1468577433574791, -0.9146718109772347, -0.34536328320443616, -0.4349480095384455, -2.6036866426653362, -1.386237239364801, 0.36338424552775417, -0.2712776579051921, -2.9979849448418294, 0.10262587658210633, 0.9860458033514494, -0.6178299682740775, -1.066965526391317, -0.12129911579812087, -0.6962262744448896, 0.22413900147265484, -1.5795759591425274, -1.0814884899166055, 0.07868752973331182, 1.3622604818092348, -0.5588735922998044, -0.7137213910677023, 0.518307024142613, 0.9473420723778958, -0.4589894215492379, -0.5270442858136256, 0.3691850229802392, -0.7632739514933419, -0.49770295090925354, -0.7900450177223364, 0.22457362250460203, 1.4373387922458918, 0.46592508373288216, -0.6277214006565041, -1.7524840239906354, -1.5050855124637064, -0.34480623513238373, 0.33483530164360253, 0.2818777656840704, -1.3419133875824707, 0.03725883084812316, 0.29429633837985686, -0.9497547598856998, 0.5878252091464355, 0.22686870688838462, -0.319361568950221, -1.0171622460675611, -0.6565815680218494, 0.5312778716445604, 0.7631678379339577, -0.801884535866953, 0.16999698196384805, -0.9332634303464103, -1.2902953028274926, -1.0692039227646768, -1.0295341880462354], [-1.0550188175113455, -0.6434560400123674, 0.19467666411904674, 1.4050087501717154, -1.4978560440107278, -0.17395657682924734, -0.4723913950743026, 0.7769350132566656, -1.7482665925466305, 0.2833404799794668, 0.6102918766930668, 0.9775240086775315, 0.027737938305394824, -0.7642118298782102, 0.8075148593056587, 0.7493617425365418, -0.28825183217213035, 1.4333865811866713, -0.06942771086056133, 0.08507373001232982, 0.5592035569876975, 0.5316211432059262, 0.22998241580259715, 0.01820949941737256, -0.2720368915710904, -1.9572832904003103, -0.8427520899223958, -0.8411474810321913, 0.6790230616535957, -0.003421128285261208, -1.055111791665362, -1.481645523183547, 2.594036942997185, 0.5169021212003378, 0.012867532623219075, -0.9884007439295259, 1.387039338056613, -0.722997113893129, -1.814266267648643, -2.0343303204884835, -1.6611404011921627, 0.3672370247970638, -0.6037617531873052, 0.6736758106244494, 0.9846123858823151, 1.418978942594961, -1.0905445220908518, -0.6977796023193021, -0.042147552098223476, 0.4083991318843964, 0.07527699764172907, -0.5553785313897455, 0.047495511656713306, -0.8463814129111098, 0.5231384898552052, -1.711403607684364, -0.19711945889069798, 0.4298190693352917, -0.030355262372053847, -0.8560935571681348], [0.06081698050009687, 0.5337017110763776, 0.8670580675118813, -1.0731348881419496, -0.967423511652142, 0.32006378523159945, 0.556719993563863, -0.08130536862226231, 0.16605161629602688, -0.45661989373913153, -0.632778682501471, 0.16285658463875213, -0.9886770857325734, -0.6061052706622946, -0.48211243826687517, -1.1158250738517734, 0.6313792922955456, 0.09858208038379655, 1.0124015046217836, -0.40648554164256506, 2.0265122410879037, 0.2710566023743256, -0.2617434478439853, 0.21751862843409397, -0.31768457127769484, 0.6369569452129955, 0.1795828761872419, -1.644749490196894, 0.4317440125783575, -0.046547816227363745, -1.3277994603872036, 1.0555898592104338, -0.25758231488408734, -1.7649808431400633, -1.2974867869330988, -0.101451680890404, 0.9357917609142306, 0.25257901796970483, -0.9704838149759998, -0.8450532620196731, 0.06105217265777686, -0.21567853937053869, 0.6166390613234416, -1.828573127897787, -0.2644043287068226, 2.2764265739521643, -0.5905952113509484, 1.5719958629823159, -1.1503453522395752, -1.345455400134515, -1.4249980069854584, 0.752051254031779, -2.080536580893632, -1.8972224192066776, 0.2411443220973208, -0.823711260097155, -0.8808110084716134, -0.07990812637019598, -1.0716477784694123, -0.7153175592294247], [-0.7169259001529399, -0.4987205349677537, 0.7886399544017906, 1.0913970756478908, -0.21253717547272233, -0.048228276339277204, -1.7272144921020485, -0.11745573057738821, 0.6887401683538305, -1.0542212098931318, -1.3186371591028538, 0.1957665820483369, 0.014971791474492338, 0.20589262936107156, 1.3843963523243827, 1.8814366784405119, -0.20703168393901294, -0.4718625647871479, 0.049187356829539966, -1.6478458851445317, 0.5352523450062167, 0.4000911677013146, -1.1433490426687303, 1.468039023309423, 2.1499997745534247, -0.5514624735818856, 1.7203985632449605, -2.1839337655048423, -0.007277125654429392, 0.9895198017643843, 0.3481964152131792, -1.6178563374490575, 0.697417482971175, 0.8606852165512344, 0.5641107388313258, 0.4057234954350068, -0.18216475127579643, -0.17890717405263407, -2.1869765881240566, -0.48294934871781436, -0.2887407544463932, 0.167804042477796, 1.2751997589291735, -0.7540634532907907, 0.4363798543251797, 0.30845870412477217, -0.5922928704675512, 0.14053448967494744, -2.499204913663692, -1.3018129837623118, 1.7255257235343466, 1.1942998054107037, -0.5087802777912402, 2.066312290607463, -0.7841741357112127, 1.163232524761613, 0.24234915373742041, -1.297143382599104, -1.140270197248639, -0.2964926035443008], [0.312361329670685, 0.2125246544187588, 1.4209428736681389, -0.8447222466283976, -0.013008740001508213, -0.4245019312605719, -0.8861838556259226, 1.1699304259958005, 1.704463187283105, -0.6503114767642809, 0.2955254917998579, 0.6108996591561927, -0.32117215050270864, 0.19753006239274212, -2.444369149057309, -0.8197124901805314, -0.3748918219168342, -1.6336493011078883, -0.1336514989136594, -0.1436934192853903, -1.6899611664608147, -0.5422913972474426, -0.14741102635029674, -0.3644068390564019, -1.3947331266949894, 0.4853527988772774, -1.268639194770709, 0.02402964578169152, 0.9250467451819139, 0.5983196127685927, 2.6337031317572155, 0.7311448753147898, -0.7214816935327604, 0.6610137137431378, -0.07107074641573526, 0.8289376567786213, -0.5190877089154788, 1.0110384075478323, 1.7405749653453506, 1.2322471406227027, 2.4027999724821005, 0.30583420140494944, 0.5305500635917697, 1.1724934225454295, -1.207410278112479, 0.8074834579073572, -0.6356615917365027, -1.8631566740498213, 1.3826328654572821, 1.9422331654706697, 0.552269368779124, -0.43728555002543823, -0.7378442211128194, -1.6374907925774331, 0.6558158541035207, -0.9732932535100934, 0.5893766226486234, 0.235971460019172, -0.23047974188805434, -2.009097744342501], [-0.22103668402474969, 0.04103260446506324, 0.8464943791775907, -0.9425715221221305, 0.5924339103066258, 0.6227350505665686, 2.1181646241522905, 1.1090361579315053, -1.0538556906751377, -0.6516179555508208, 1.028797049359149, 1.6153880412500787, 0.17980153757505773, -0.7151433753492825, 0.041748275062015075, -0.1567935345103495, -2.1485808550641887, -1.1768176712173593, 0.37483455835505297, 0.22886950062454842, 1.9921909724559372, 1.0015201768037878, 1.5356674766956342, 0.9923506052425917, -0.01047857900983883, -0.5424561401499577, -0.43944951420311473, 1.4451300235956959, -1.107436082300796, 0.42263297981829867, -1.1813892407514794, -0.21927369075667638, -1.2307490390707616, 0.4808406207604935, 0.7961286033473723, 0.42785855873466694, -3.328926495249061, 0.1930370254810745, 0.8564506630810748, -0.6148376972351545, 1.7650198251749531, -0.2979700808933764, -0.4503115747962066, -0.5711261376885385, -0.84101136437329, 0.12478095466816949, 1.371967314952532, 0.6430135147835222, -1.3402382372871802, -1.3629697250775248, 1.7074503700864143, -0.6474153466684072, 0.6070465114359371, -0.011244151406328793, 0.9128279582137503, 0.0014194921761136294, -0.2877700739107001, -0.07330101419782145, -0.07026235261685546, -0.47056974807012875], [-0.6807095753521359, 0.1157497166860078, 0.5683571257192707, 0.16082903636306664, -1.3096878698610415, -0.9769257364151794, 0.27780578449792526, 0.8637574455116781, 0.03706041002118536, -0.09010991506496525, 0.9889880413805804, 0.8135178435871204, -0.7587593953404148, -0.414328932803299, 0.11879422299383444, 0.3002522696275445, -0.4133881484611508, 0.8318148984718507, 0.5261774366574122, 0.9158950297219577, -0.3298006988271447, 0.3940708666776423, -2.18866506409442, -0.17491618196117467, -1.41984966395374, -0.3524027056932865, -0.6416393049121752, -0.8604316766494317, 0.21101610700387305, -1.7012908394576145, -0.9526923760509354, -0.8010498831961201, -1.51832187106931, -1.610687337830333, -0.38276260614220026, 1.5364723487763814, -0.4877996216905969, -0.41955059803440115, 0.33989407384356657, 0.9018982645978321, -0.6307842130266925, -0.06013793190696453, 0.5540341127881607, 0.08142153435394019, -1.6729322450080022, 1.350419258760275, 0.21017857528583406, 0.31616944932232416, -0.26594772141748246, 1.1821259484022046, 0.8145545307072586, -0.5193872526986243, -0.15170824281233947, 2.461127594744093, -0.39372991305297106, -0.8236888731266419, 0.9210609901750556, -2.2990248835075975, 1.0198525231283666, 0.9391523834926361], [1.053440912544715, -2.296232822699318, 0.10966884370543499, -0.7743665004415315, 0.1850182186658075, -0.7775653867097184, 0.9119189807553287, 0.4351702140699454, 2.164359398358592, -0.5107146627105601, 0.9964704186251025, -0.9395153091031309, 0.3880710105114092, -0.18662359025710742, -0.5378664777190808, -0.6621405904248753, -1.909884311785866, 1.8061568674132416, 0.019885749279518895, 0.9813856459265188, -1.0652323262258787, -0.34643993844564097, 0.35243659571548347, 0.7949711451108056, -0.06017034222034168, 0.2575129081350282, -1.796281187548035, -0.9454228356700038, -1.598592174575421, -1.0175394045370474, 1.4254247542923726, -1.4749028055114528, -1.5045272004607224, -0.5325514406358354, 0.13029272607846798, 2.2786805576145768, 0.6946981793428328, 0.10420799210654777, -0.21033821360605826, -0.7585496591274683, 0.05229348178467854, -0.6390219820672558, 0.5149247194282246, -0.17006560633724863, -1.672801599532789, 0.2282242967861664, -1.0828020263985128, -0.1606047523883799, 0.7463872352281409, 1.2389143321079594, -0.42924435233247316, -0.222213551272618, 0.8339713029059957, 1.2306303280453172, 0.06999989101335041, -0.8592982518323906, -0.964568256575857, 0.9743288732024213, -1.3163509161744888, 0.2214601571775493], [0.5702859840305055, 0.7414695938607043, 1.0327476121146413, -1.6997055758906698, 1.7969925050585556, 0.5758352164490079, -1.6991970010289712, -0.8300958637071951, -1.0722973985547561, -0.5694219784861221, 0.008127874685259277, 0.5746456550695053, 0.5649365164021923, -0.4724350856568649, 0.4433201361134173, -2.119619201689227, -1.3636330363697018, 0.13181666367822006, -0.9127678264964746, 2.2969782846238647, 0.7849314911589085, 0.08876831935772589, 0.27254198835388693, 0.7762134205932707, -0.38806967122040303, 0.16764048913033924, -0.506524038039784, 1.1164397202039225, 1.2189177846203292, 0.6751240751533687, -0.056221870958574685, 1.144319365216063, 2.2122683913908308, -0.7197798848184291, 0.7847309333291638, -0.6248496932317976, 0.2682676777363436, -0.6042418657380949, 0.5447344992634661, -1.660639621187532, 0.433768121137064, -1.6893570290478346, 1.7991942961510925, -1.6324892319059694, 0.622753915124359, -1.3934247400699449, -3.029045630238134, -1.197039434488958, -0.8256726160127208, 1.8818588567496632, 1.7121826531140725, -0.15254251945930725, -0.1836297658934697, -0.9422603662317101, 0.25018847424820306, -0.5120949318797869, -0.8705324120624335, -0.5729867485645775, 0.18401021817072577, -0.3601825907368719], [0.06649567717610705, -0.49590255528181976, -0.29659240065138165, 0.5833809960983627, -0.3327808224499325, 1.777927210550966, -1.2219454986617968, -0.15564857116156833, 1.6968732157197226, -0.08716105201977571, 0.8002739881581952, 1.4181065438690779, 0.16098831232695437, 0.4702960515573019, -0.8304795876719818, 0.3704547065123444, -0.45106931041542475, 0.37822066414496097, 0.32531914291748915, -0.3536328356683829, 1.2277739668050227, -0.818203922197224, -0.4913994881274533, 0.2214269408274975, 0.3323300948910754, -0.9476635411384132, -0.9200361014902732, -1.7248324734638247, -1.3204118897853987, 0.7598227614473093, 0.2848916732167669, 0.011782641077090731, 1.2658855666263662, 1.5498038057074195, -0.576987678486626, 0.3286599905689961, 1.1635627981592047, 0.2150397724227942, -1.1329863567267973, -0.4731065579920208, -0.5576045925432713, -0.7888013703375895, 0.3874495691461404, -1.0471459840564634, -0.15404484451965753, 0.006383875508471113, -0.5117210620852763, -1.3521396381899484, -0.34812473165691427, 0.13131387598502905, 0.008035430896279097, 0.3631415971774538, 1.198335572357082, 0.17176877908828847, 0.009852456118819566, 1.9863013198643227, -0.8351653506694933, -1.1964207814596548, -0.18968390818503417, 0.16559811584290768], [-0.5911726234047281, -0.1988356902273258, -1.4283304631953067, -1.5242286153339244, -0.7887422071267036, 0.059919518052971674, 2.5377617499382774, -1.1496058679999952, 1.118979301199703, 0.22441042941355613, -0.4331354025561382, 0.9517055624394057, -1.5537060762647839, -0.7971819694881787, 1.3072845790798753, 2.1317897812826816, -0.5704785492283531, -0.5306830311779245, -0.629884269108478, -0.22178584981703706, -0.6538763857684288, -0.2120294880929015, 0.12611173836621903, 1.1913687109929865, -1.3039129773046205, -1.4492812492184892, -2.2535659272974558, -1.0182731194513301, 0.39148718827944967, 2.037056684057953, 0.5730379749019182, -1.036464277299334, -0.4571106643715909, -1.1333413397224381, 0.45780841225061947, -0.8291636466067187, -0.134700287883925, 0.3215306625507578, 0.24626358401694115, -0.34459653920219474, 0.4310170788940809, 0.4670009199171249, 0.3273751141933692, 0.8222981616660877, 1.2240183327700853, 0.22644721239292973, -0.5196138319412308, 0.75715155040474, 1.4071949388680536, -1.1609940193193504, -0.4920861592478746, 1.1953291902447276, -2.260919812192019, -0.6503955215720619, 0.28412703829833974, -0.1181130775418381, 0.8464249840328242, 1.2175344065753517, 0.6250721590969696, 1.364707977017634], [-0.9359755146469275, -0.9013912253652752, -0.10714755343128182, 0.7856878364737162, 2.2050703444011, -2.3303619577376886, 2.1399253742641773, -0.5451173271122449, 0.5818352673512668, -2.079063155006373, -1.5571767007360784, -0.9573052054489036, -0.2977022760925526, -0.1279494920757942, 0.5891183924479593, -0.3285683034021375, 0.19414143348752977, 0.23934115511278165, 0.8471996386317293, -1.5370709521889785, 1.6628635634102313, -1.128252000694239, -0.7085974901684599, 0.28600314194612747, 0.5913537746789138, -2.1142349448733966, -2.5297629023816315, -1.2709204065730957, -0.086662048305143, -1.0603079561895317, -0.5690115028144587, 0.5227491498911202, -1.2724167463473204, -2.516701513868736, -2.1002025121234493, 0.3984139485013039, 0.6264623327074549, 0.514460516146465, 0.33673522452697624, -1.0925509602368948, -0.9398610736363636, -0.17499044856756352, -0.7438481679871771, -1.0054230216870883, -1.9115864681272134, -0.27984685053484853, 0.2509332461538216, -0.22972548240324192, -1.062444091774089, -1.879103900305487, 0.05224642419044697, -0.5012223347361018, 0.7358725780399942, 0.22487213664080485, -1.149605390567079, 0.11420320267325836, -0.6239515117441509, -1.4638124346137389, 1.0096348486185138, 1.2614557110053903], [0.08737294426039924, 0.42889257463048447, 0.38947623681547844, 1.0296229655207636, 0.25035088428741553, 0.39771589457064715, -1.712758480825629, 0.03756611013689797, -1.457956273694435, 0.9809511197974097, -0.9912866784636197, 0.662776592054127, -0.6384007399903235, -0.6145293116392936, -1.3142314547740508, 0.5907685226320047, -0.5895787741587082, -0.006326037428285402, 1.2727301118789196, -0.14257598877152355, -0.9769563243907149, -1.964006457264622, -1.0430044899030804, 1.3524588344230568, 1.5667775927004155, -0.066421132248644, 2.121332934919049, 1.3591718532082637, 0.9640625834529426, 0.8844833413425824, -0.5818993857239064, -0.2824260505906879, 0.09279068172448413, -0.28538380862913476, -1.2429494032890132, 0.7811259217364389, 0.802467223684225, 1.0564879416422925, 0.6784199364348477, 1.1479744945179278, 0.04871054669684444, 1.2478563569545653, -1.185543120470618, -1.9651487706308504, 1.4346681609136103, -0.8389456262377126, -0.15114556662092327, 0.9156233541246912, -0.12579481933971345, 0.19995100585636005, 0.5138586309986038, -2.183277915365601, 1.3943565259741753, -2.6686138851305836, 0.4641751782548005, 0.3035686848705773, -0.19209954133613533, -0.1734844928901211, -0.1003629046152548, 1.0453636209784058], [-0.07829805457991817, 0.01672112568220012, -0.04523340435796415, 0.41856026799270085, -1.100351908597925, 0.6924216470293879, 0.9837857819742816, -2.3621969133084972, -1.6615930078594856, -1.3769272080199584, 1.6735555201556385, 0.14257257398757323, 1.016583922955822, -0.7197004065852165, -0.6905777129114201, -0.10868968348011983, 1.2488527545368966, 0.4224490130429161, 1.548503665793141, -0.7909821512471803, 0.9913572968080874, -1.370334538709304, -1.346202068703293, -0.616128285192615, 0.038526755853232605, -0.6210486192549146, 0.18967471594442947, -0.2281119302428158, -2.4161970177774186, 0.40541515348342855, -0.06892442408754886, -0.21507535025943592, 0.30883610328339917, -1.5055586408560788, 0.6465464098794639, -1.0458555749503935, -1.5703829870928023, 0.3229797789985148, -1.411788724726908, 0.9564181023489347, -0.6704250642643922, 2.259488939746201, -1.611113351304724, -0.3506544768542016, -0.5995235760049681, 0.6329388964558416, 0.59540169763253, 0.31861531730716836, 0.034822176343694805, 0.6981859483623076, 0.5525408866467285, 0.18775796297487327, 0.4103970606606057, 1.5821888630468282, -0.034641311854537754, -0.9198576618078029, 0.10379509982185461, 0.9120417158527377, 0.3361236606141294, 0.4605614473037442], [0.3027072047085667, -0.8837579959459473, -1.3605744730966916, -0.6512851513997803, 0.3371025710574352, 0.7750765112890156, -0.03554519230342576, -0.4079188512485409, 1.4082939533057046, -0.4073806663057102, 1.2268991422466795, -0.0964313971493793, -1.8821265092188955, -1.9519837749544635, 0.05367027993474396, 0.07274406404897771, -1.6454485782083952, 0.3340649130271037, -0.7050366804473672, 1.420300222672757, -0.3326681427329533, -0.05836922921250236, 0.6195788756068369, -0.5429959978920426, 2.426730633616844, 0.5259221108671857, -0.5395025465643083, 0.6415994438704651, -1.4342565156745082, -0.09152911537997628, 1.4141088974023515, 1.6891094889004734, 0.7273013065394237, -0.5769305665874731, -1.399965674624159, -0.7509561130171651, -2.0820520392205473, -0.7542492841528312, -0.9535918334521325, 0.5065204182488341, -1.690842377628002, -0.10186331543502265, -2.084355320322608, -0.5812842123615245, 0.8452201129746341, -0.04194512429315128, -1.3750878716749229, -0.7735345031178681, -2.253229545219346, -1.238329553721565, 0.45465148183627496, 1.2625855320920492, 1.7390668818643333, -0.2403011308092739, 2.0338760279368366, -0.6639461424525605, -0.1174455188908232, 0.5894907168958647, -1.0969960412414586, 0.008472421835568695], [-0.34450083126892694, 1.114321220214193, -0.11741950936647497, -0.5752782202931072, 1.423543673092258, 0.572030597665196, -0.5275249171463182, 0.0909695655563221, -0.8828889874767842, -0.9779804443676762, -0.0971931392292435, -1.5321796768062674, -1.3075099495965128, 1.8788908056532434, 0.9532958086410961, 1.0058063614470445, 0.7471456467048522, -1.2069489234042463, 1.5282492768935816, 0.18220957691741135, -0.3925903555500083, -1.4069480590541303, -0.2308181827862772, 0.9238465247131047, 1.0963850909500261, -0.39059650775315147, -0.7849197001378755, -0.37410229853377797, -0.9475249287768405, -1.4243593372366026, -0.2584331699880389, 0.031546859312537, 0.551466698181612, -0.225398769459227, -0.8052007383309835, -2.0079006531320363, 0.6106803419255441, 0.5247285377715145, -0.7375276804677933, -0.4944446587465223, 0.2781736469318047, -3.0872860344623074, 0.33900969475119763, -0.008806222565637283, 1.817509196753886, -0.32171745996130185, 0.5234912433722946, 1.0778778242102274, -0.3554554799832995, 0.49677438479788555, 0.7176138762556502, 0.6480921632668717, 0.6116502338156573, 1.055387427405071, -0.6598955958470583, -0.023049570138938696, 0.10086019625045893, 0.7760545008284429, 1.260648946523419, -0.20913498117513], [0.660778100886498, 0.44591097888840925, 0.859103199042163, -1.4175737201254301, -1.3408605207437356, -0.6199296519331554, 0.11134467121722504, 0.49128202367490503, 0.38174657850180027, -0.5677091215795301, -0.38914344663751194, 0.5474020685278913, 0.6420892959749641, -0.8447850636780002, 0.4711664626646326, 1.0291531723260694, 0.749022063272711, 0.7697451431791295, -0.04132324180692973, -0.606949732401243, 0.33050078813976513, -0.36401711752037474, 0.03128799310839586, -0.4638323783202444, 0.38254968629243913, 2.17425376226783, 1.6673424957515472, -0.06713666172584316, -0.591690018421108, -0.8161824452464795, 0.8107391303531649, -0.19262921481163864, 0.7411316085543657, -2.0887867890379113, -0.6639648112828652, -2.2040613199206693, 0.19167449902965092, 0.773545060167534, -0.24737323505349312, 0.9567040913054572, -0.5622679338798376, -0.11122261915309353, -1.6491090832496769, 0.2943747728602398, -0.8998012344508052, -2.426256055834012, -0.3560532907986968, -0.8094912433742423, 2.5409995457879866, -0.02497307138996338, -0.690502049395308, -0.6095574272449732, 1.0397121552889839, -1.6077701437329617, 0.36072142244867234, 1.670719738096514, 0.15566463131198416, 0.600751302125137, 0.06963262215321117, -0.4413108688021063], [0.4818614539441281, 0.9159955618354992, -0.4364414154162745, 1.205005367130934, -0.34240025968978566, -0.37405121245367834, -0.5705100851764394, -0.8812334144775561, 0.25018383477083855, 0.011442405914505058, 1.0250023661165175, 2.680607274704821, -0.17157467051545772, -0.6151041119921349, 0.16411044947741407, 1.5339987138466622, 0.9261253132078286, -0.2577866203231763, 1.8385765229890043, 0.687684416246998, 0.7601616743131222, -1.0951074828335192, -1.448859305536241, -1.221538210475055, 0.5475013351941287, 0.9493434506835473, -1.4824648935778593, 1.3162743400806987, 0.5643780931353839, 0.0726793141243705, 0.787241323323211, 1.069256340690455, 0.3124503320056854, 1.0244783135961482, -1.566879751434538, 0.5280993607884864, 0.8813833223144225, 0.7677133611325634, 0.2540178567998574, -0.650356279806427, -0.3224509694104374, 0.20794874196811566, -0.5793112297934809, 0.11893152918844195, 0.20624765943331733, 0.38895439963348355, 1.1798908013744407, 0.5645964738736529, 1.4211062053324524, 0.3019250012036134, 0.23336934192309025, -0.6601105692168727, 0.7813842866210656, 2.49519152179924, -1.576537872325906, -0.7057491214153206, 0.7603005047665137, -0.42261215389870704, 1.1384657971707497, -0.017844801911766205], [-0.5657484843534133, -1.0536018263295268, -0.24309039242572933, 1.0052029444184842, -0.6614264037413085, -0.6995930251163408, 1.9794530188797823, 1.3315222136758478, 1.7050978483113948, 1.9104119366448582, 0.26333210516185085, -1.440096897680746, -0.6338338061724208, -1.1082124709497658, 1.5356375777534987, 0.4550190843880837, 0.27605816099707553, 1.263220887826483, 0.4648776828858687, 0.8086001599558168, 1.1678124255953666, 0.7465299058336856, 0.7633568616737526, -1.323032307183534, 0.9724607672814354, 0.737799470412545, -0.8890169722498317, 0.5741890251706303, 0.6412119923611, 1.7804515735568083, -0.4255402593993723, 1.362783776032971, 0.09638955717515561, -0.16614439031084471, -1.4965541578609134, 1.2565891116475871, 3.053675683345207, 2.1522755965031193, -1.4959323096199262, -1.7618963932308318, -1.1199325665343172, -1.01705233128175, -0.7101242796453329, 1.3122415859118373, 0.4983973925732701, -0.7033187994122344, -0.30381055238168975, -0.30352937856312373, -0.2641171977376611, -1.01232410242041, -0.40682364946816496, 0.5229091713370622, 0.12583453361808447, -0.007666064579745219, 0.6803574765531103, -0.981126866716081, -0.5827166481446756, -0.31042015601580875, -0.39069157902889395, -2.0822959004755757], [-0.3150988578886517, 0.5325052246278996, 0.2085296638170362, 1.5463549196526654, 0.19356346832831847, 1.1296272534493423, -0.05360375325456472, 0.6477491378432517, -0.08657584242983732, 0.012449640903335895, -1.18726991752193, 1.7158299968047557, -0.2852205873705369, 0.8044335833212757, 0.29495153999677476, 0.4307331123657232, -1.056430668465046, 1.3364156205227413, -0.8728889953935189, -0.9842523077616614, -0.7330362886564648, -0.5931906808957162, -1.4809762825671324, 1.8060493631697876, 0.667446150998171, 0.2690376125909176, 0.48956010188974547, 1.5468140747756025, 1.4515437733135965, -1.8694503504159343, 1.3940546121056234, -0.18235619203754527, -1.2796306061921752, -0.6383707742021729, 0.44922433764004904, 0.801518718043237, 0.8525409685226311, 0.3977948906276212, 0.42655451454575305, 3.715492560821247, 0.4243522213541813, -0.0020161874359102346, -1.7796521225980586, 0.0416354628879184, 1.0829719010347867, 1.0143763886664467, 0.17078874400489147, 0.805871923616494, -0.007012410674308732, -4.211067420481816, 0.06860237073776901, 0.35019594732312365, 0.4645924689248779, -0.5692228765441576, 0.731661148574302, -1.114716973276511, 0.9606970397128943, -0.4471554453934141, -0.876323808468644, -0.99482649787774], [-0.5875665926983453, 1.4820383390314633, 1.601221592086385, -0.7885766802847815, -0.1442064439436798, 0.7123023202294883, 0.4234624821252581, 0.4260826637117913, 1.6608043537602264, 0.4542820618722042, 0.44430986914016685, 0.7462412845904011, -0.08228665242611924, 0.42710876435355577, 0.36113522538314924, 0.7753365063543853, -1.2853746290525767, 0.953608600195336, 0.6049314621080354, 0.17729406328112732, 1.3928804953610754, 0.954336458105643, 0.5878010830901021, -1.117369730380453, -0.556168150490688, 0.6711265625216123, -1.7072755566411602, 0.10279362098948235, -0.037366609162807526, 1.5490151610562282, -0.5013380324617903, 0.2870009759924322, 0.19261358119972982, -1.6194976206646916, -0.016122935713456247, -0.1798480137889011, -0.760326117063661, -1.3721871349618586, 1.4423674399645496, 1.1560677783370052, 0.3582616520630375, -1.2581603101021968, -1.636630570843327, 1.9241249557004783, -1.5664794980886116, 0.3858651032349646, -0.8744588963654769, 1.3412974366502255, 0.1766011119742147, 0.2851983587315776, 1.3182284763162926, 0.014139266130719773, 0.027879516257552375, 1.1299795777503148, -1.7258158858621169, -0.11044042284441873, 0.7927360223044015, -0.14535437817992874, -0.3437638099318729, 0.05540483352428063], [-0.9788321369444819, 0.5142635672062529, -0.17814126312331424, 0.28375691869745717, 0.9532505682330372, 0.8263976362034556, 0.4542237303542539, -1.0725128095747418, -0.19798924910230475, 0.6250761713996543, -1.060200328134265, 0.5125890228351767, 0.5539541957588459, 0.21140840610803732, 1.1312610275196315, -0.5876507927868306, 0.29837016703732827, -0.7495597629657255, -1.485187739383971, -2.2423892511071504, -0.2909556681543162, -0.6151294458744648, -0.08225930743315052, -0.9709210576406417, 0.3402022644825676, -0.6083833321777296, -0.9635596311899186, 0.311389630130529, 0.7783070430874355, 0.4302032950870894, -0.8403384740156297, -0.6296566228762619, 0.6454894611025824, 0.78191301805588, -1.7749577099826739, 1.4238689630891654, 0.5786648430877157, -1.1853666291966498, 1.1041062833569386, 0.934743650802019, 1.118171323831825, 0.011433362563736815, -1.3127797663092136, -1.544107194402972, -0.4285573999211754, 0.6211841246157866, 0.05635664110606968, -1.7693822561247776, -0.19316602584389259, -0.09080834514232318, -0.07977601044495007, 0.027888413862121805, 0.44205792235025543, 1.7698356036886818, -0.15196574813777675, 1.5521209164993923, 0.5355157769028219, -0.2919446702126172, 0.41365647420433954, 1.685679719572145], [1.7761688307815664, 0.38920289408496495, -2.231503190558226, -1.5189535710709885, 0.1628467985156729, -0.5598679023418268, 0.20691896838667304, -1.0522666266289695, -0.3787354120693855, -0.6711692562922909, 0.7571079194058553, -1.609231004171249, 0.853485537042037, -0.238222713125107, 1.1868533141048205, -0.7471564437506065, 0.01987031395844225, -0.09867340540235843, -0.25190306918921807, -0.057768305394528215, -0.2631594441106213, 1.8622472947462347, -1.7768675839221642, 0.29746483265297546, 0.5789422405070214, -0.5237136313751611, -0.2818601751947777, -0.028889151342735116, -1.2509600283295608, -1.097631158725644, -0.9577014582634887, 1.2068735668854123, 0.49071260613810574, -1.3642480414656775, 0.7936970103153841, 0.5588476263130594, 0.7502468841585103, 1.0448936805111053, 0.3487713025561939, -0.21791502188997663, -0.7299921585732377, -0.9215024754011532, 1.345954799350234, 0.34359153456628805, -0.763496943304691, 0.8887084751147953, 1.8113205121739833, 1.0529950330998488, 1.2528380346650514, 1.030838860644462, -1.5221544312444153, 0.0808348067377412, -0.33645573279771224, 0.6797179634397049, 1.3028203695208032, 1.9743690636575677, 0.721204533459024, -0.6164171530288078, -0.2812322022691993, 0.19565524891134542], [0.5687380358989585, 0.7728583056126768, -0.6493585524482415, 1.0782113928438644, 0.6592958100554137, 2.0466658627064995, 0.29416321494876985, -0.7156623899832397, -0.795857886107524, -1.1734612497718937, 0.5048949376874967, -0.35170888332166933, 0.5310249459250422, -0.8767615820960799, -1.5304035453033578, 0.7535792461393912, 0.27286230974628123, -0.1264792846996235, -1.4922560492073993, 0.5687381855452973, -0.32972268401847116, 2.5563202388975803, 0.2218676647966706, -0.9183825784017989, 1.2868241924712303, -0.4139546101065813, 1.1805687235633098, -1.5566553541212589, -0.1999811510255449, -0.6922178125910772, 0.4078097250590854, 1.1196967199905574, -1.1836311206893886, 0.9721325934501867, -0.6379125114789881, 0.760200522932458, -1.8463738033374735, -0.44793651939143647, 0.3169070096077731, -0.4233915445058379, 1.6171962781819715, 0.027873711419232, -2.158004271419093, 0.34061414071974816, -0.6813197157303935, -0.42158831865032925, -1.3897823958142599, 0.7123268064462803, -1.9789600970451235, 0.5999768601379216, -1.8415755389563895, -1.6864209299920991, -1.5354329714068808, 0.03753768852030852, 1.5921971514216529, -1.2446808243672942, -0.15934020175591065, 2.2856681365065743, 1.017565365980889, 0.43610297210884685], [-1.4317245373925898, 0.5365614964882406, 0.12426176793719351, 0.004798803596603652, -0.6775844028406219, -0.8897964690282324, -0.33603488927467334, -2.614109939434921, -0.03306352646042955, 1.0336580705336735, -0.5547095729969148, -0.8294279758541335, 0.8337655578725935, 0.11902933649963915, 0.9865355553320392, -1.6425991335289674, 1.6105125633090387, 0.7250520956798606, -1.345530529862244, -0.127652037637358, 1.4161541614274031, -0.3949968564117001, -0.16134774214021227, 2.952929658690192, -0.520452118080916, -1.2284152523678442, 0.3150358125974478, -0.9003273234753587, -1.0961886738272992, -1.4286029472312443, 0.1846347302255964, -0.13903619429675, -0.609422858629517, -0.7383244950201316, -0.4760419124482749, 1.142645492038374, 0.15823011942401394, 0.46955275337396657, 1.5913948510373332, -1.1280361912154968, 0.3985141350700784, -0.25658896914471196, -1.0253328009623854, 1.3740717625340635, 0.4143928864383168, -0.3488643932969031, 1.621780186233818, -0.141105311573749, -0.22415199913426095, 0.996378584850848, -2.8799158406458343, 1.180055114169581, -1.2892945565148586, -0.03986462807908175, -0.8794057164735661, -0.7288430254921785, -0.7423835807604752, -1.6066368083554825, -0.31143051962437757, 1.39549327048493], [-0.6758451610213744, -0.35934643437322056, -0.08980013946218184, 0.8239603885172487, 0.9465224978256669, -0.022034192832406083, -0.9399277001339503, -1.100880935621652, -0.5417939594357288, 0.6188608241332775, 0.47036457156932854, 0.08692610235714496, -0.82667722078555, -0.5892211317298519, -0.2343087686920752, -0.29298670061012877, -0.3823634329679977, 1.0057503820037281, -0.8622485982977527, 0.08207678763334784, 0.11388029510647775, -0.16661901859691852, 1.659414442723677, 0.07554323649182496, 0.43078621999551797, -1.4534245691719871, 0.10017218976962203, 1.789543010148429, 0.7701698274217375, -0.2990409045017127, 0.4443106017549527, -2.1435159491836204, -1.8080569939158517, -0.6769224653931927, 0.15408960514516168, -0.7454026708125645, 0.0970237344533081, 0.31567485571785225, 0.6167698435296731, 0.410514225842979, 2.019837555534428, 1.0616961292478795, -1.283401794810526, 1.5780785780763484, -1.2060933114887706, 1.4049129851002375, 0.8366069816060727, -0.3123960878830382, -0.4249756030194967, 1.301069751707514, -1.442818299355011, 0.23149142924208196, 0.9029369563236477, -1.1916797768520682, 0.6465802502076948, 1.422159712176533, 1.0817916855776946, -0.44582033251340697, 0.8062884384613854, 0.0736078973248951]], [[-1.2415817093657158, 0.8811047077697344, 0.2939628989465325, 1.0802207783296003, 1.8728676776975113, 0.9484047344813483, 1.0053079324358012, -0.7583143558712065, 0.1725440343102928, 2.269983435552606, 1.454298907858778, 0.4610200483803243, 1.2003870150730969, -0.8721599552056143, 0.8222467262879698, 0.9024678066210524, -2.049340653925703, 0.17973634084110687, 0.6346093633539304, 0.45252196205886847, 0.8684264329777281, 2.10499325024877, -0.0772735642799399, -1.477102095009381, 1.2618987090679548, 0.5981639992440506, 2.339694480560482, -0.9574393343436978, -1.6511119996876247, 0.708179558418069, -0.6466989060523274, -1.8923766471276133, 0.531145148729674, -1.0219162397987869, -1.0776694552461628, 0.37859808597275385, -0.6106402921592261, 0.368194819126259, -1.283045789567183, -1.202632567003733], [0.3703894088685169, 1.1983264283672348, 0.07953398913028804, 1.3371954062255782, 1.178337871548347, 0.6457765710685044, -0.5538745446372568, -1.3760081826401567, 0.3441695451046088, 0.880166680972311, 0.41726568293999566, 0.39157817037074644, -1.4441172537405322, -0.38246152311378984, -0.38977336735005075, 1.8664097959765056, -0.718492145207291, -0.9852873840113913, -0.7450027247584889, 1.0346177656662794, -1.6949832174511512, -1.03656017748024, 0.042768727851801004, -1.614933788551394, -0.19101134089903818, 0.8193229415306297, 0.5741271406319342, -0.7055220226485196, -1.558206171762804, -1.2204149390514287, -1.2742407167378365, -0.6769709655998998, 0.8958405090557545, 0.9625543277234101, 0.1640868611829616, -1.5912779926688787, -1.639362768052343, -0.5511847938968536, 1.6459563598581244, 0.04099233532612793], [-0.006291863391180289, -0.6974401185214654, -0.9901643335827149, 1.6706580079608617, 1.2132847310010184, -1.577306593114723, -1.2287259616401887, 0.4382717480289394, -1.4205687989871303, -0.8053986715529271, -0.9786057010787799, 0.11665372728962803, 0.6293415010332529, 1.0908393201049345, -1.9154155968411175, 0.3465061849758537, 0.8380178770283825, 0.8756662902973763, -0.27385832587706876, -1.215966683155771, -0.9024382154298286, 1.4176027125905792, 0.48143435119695327, -0.2216190513227065, 0.519083261969493, 1.3016759953387995, -1.2965905466229235, 0.2137878246012922, -0.37409285548156185, -1.183191585050195, -0.1333825591761691, -1.0176181381348497, 0.5771004641795513, 1.5639978034219009, -0.09005228470279848, -0.5457854974573458, 0.11556316870428109, 0.24137463671478088, 0.30169391545336144, 0.2097889481661588], [0.7453803071396082, 0.94085856871963, -0.21378637523716562, 0.9786133715734778, -0.04743985345549878, -0.5893726617912389, 1.4397267559075888, 0.03917009592874026, 1.089873699728513, -1.138627562092793, 1.2450874888750754, -1.1902100934323863, 0.7176158032468467, -0.13632873511687346, 0.3160475389072876, 1.0256021955432928, 2.125591099395408, 0.7131016169949062, 0.8137204849550687, -0.5103205879499131, -0.5205287402900278, 0.9176038233783151, -0.877561862916886, 0.21754993584603982, -1.3761628162576327, -0.16217851713103312, -0.47306445126712543, 1.0215950595792762, -0.03140757012668302, 0.5888389377924964, -0.10096242587507663, 1.311449985023003, 0.5490841811775204, -0.15801740692506175, 0.7691853727352119, -2.0241861722911323, 1.1218140235402099, -1.007275095768727, 1.059984402938932, 0.19082135482809146], [-0.14414932459053342, 1.524170073411711, -0.6201130751786157, -0.06594576577083984, -0.41233839782723336, 0.7605603801605599, 0.5095474922266862, 0.341337281055964, 0.1806848969470639, 1.1933288300126195, -1.900935423586749, -0.581022368552789, -1.3099898069999356, 0.20130688484539622, -0.43821879397875235, 0.4705772135494499, -1.245566664324577, -0.7971661770464227, 1.5233572954426327, 1.0155996971280505, 0.5095794976097379, -0.23471981686817528, 0.8137658687953757, 0.14448000604370526, -0.3124571444985621, -0.7948347505296661, -0.24321108438119188, 0.05872735595705037, 1.2370497683749366, -0.5866410682976526, -0.3157786930764975, 0.18612976764030584, -0.07381361001163941, 2.1257670458863767, -2.608728092871247, -1.7809861199341959, 1.1375939820539818, 0.8858237408708894, -0.39623641049863745, 1.375125112132098], [1.0265724690303517, -0.4346323874015285, -1.0999654571934236, -1.989535664641727, 0.7943552920128393, -1.809423536889146, -1.999096376982264, 1.237840320076648, 0.006299429574346362, 0.05977891431245689, 0.6279196927562366, -1.9538227138933044, -0.3955658067185328, 0.3353479331770821, 1.633468040514972, -0.16607583966656236, -1.4105183628282087, 1.6447335470312079, 0.5868341679056083, -0.6178132173823592, 2.266411232540926, 0.7067117493671805, 0.8454195847964255, 0.9899380834917909, -0.27732174647336644, -0.8617711335269016, -0.8151420231664794, -0.6918099522054073, -1.3326668926660614, 0.44424800871182407, -0.13087134064602418, 0.669428745771184, -0.648939812958353, -0.37280310604005795, 0.0648521109047698, -0.804601177486175, -0.01802396521169752, 0.6638634917553148, -0.3571013759913799, -0.1569007098485888], [0.5061769796053884, -1.6427816205168342, 2.0065078138563073, -0.5673583362568712, -0.3325666187292457, 1.3896169319148124, 2.0525017921245836, -1.0199402725574507, 0.32516597391476293, -0.9764748129925006, 2.0001334070435206, -1.5034305336340366, -0.7671435939848645, -2.09982773376917, -0.8868612622776741, 2.4880876811406676, -0.6001058790990459, 0.6992734529313989, 1.0038851401121556, 2.356832003455196, 0.12430210178829466, -1.325771888737779, -0.7730064018898573, 0.2011570501180106, -1.043691301127896, -1.1717918488914085, -0.7701547170560097, -2.9438772642149753, 0.8515125024259502, -1.4223338714258402, -1.6256126231079133, -0.2527931613764009, -0.4511809995655507, 0.9473107511255558, -2.085804728793125, 2.211432414310949, -1.8426870967151563, 1.5244099153252428, -0.7638787654949152, 0.16677566840889385], [-0.07290661019663816, -0.949532286193451, 0.1563971111683568, -0.7951432929056774, -0.1332655508008419, -0.05963075598102845, 0.8649107021338415, 0.020240252598834805, 0.0860165367333812, -1.2235501749025834, 0.5689460910838529, -0.2426357707992959, 0.2756141299334779, -0.09048901348932287, -0.3258587233754364, -0.23501383436873702, 0.49859349869242303, -0.8471532970992203, -0.26961731234706193, -0.44726785339538083, 1.6026476181126887, 0.6394166548289072, 0.7245074683884606, -0.21607261124042987, -0.123332685704782, -0.35077395981997095, 0.31789009644449406, -0.2553541995672968, 0.11802161978247114, 0.16533689245230473, -0.7212020640696167, 1.1610791547259305, 0.2685084675336745, 2.00402986624596, 1.5249030249162472, 1.7371758916400906, -1.3935545084668914, 0.04414279934679328, 1.1507630438746468, -0.121719991461678], [0.21936561348568145, -1.1748504411325045, -0.00501621963117727, -0.503828158579386, -1.7070784306796594, 0.6771011998521557, -0.2408986105810228, 1.5048804668678721, -0.6301910717280649, -0.7073401867968668, -0.8178256341960715, -0.3079936191637564, 1.2188405287274153, -0.24933214200862236, -0.9016548391470761, -0.5765269010398645, -0.15553876692737825, -0.7390980221562483, -0.7497208767209727, 0.47395193901533467, -1.7861532175439794, -0.8095879809366502, 0.03773447683050386, 0.671058636439869, 1.917179315002415, -2.090315221298693, -0.3964050479036659, 0.9459074421065231, 0.27826653221206205, -0.9193771462411586, -1.2674059037416738, -0.3215841100629261, -0.20995614606797397, 0.9266340625386428, 0.6060319790497954, 2.281473401745864, 0.4385606920284202, -0.21665613763192773, -0.739640857175419, -0.7776106293143034], [-1.4731134796067196, 0.3281413665953159, 0.29195133515589394, 1.9837983034778615, -1.0389220633672358, 0.43625265966105453, 1.1405357675395358, -0.04969544292538782, -1.4355208471629786, 0.09628512735288154, 0.5152665178044268, -1.044715162969152, 0.5658410991339489, -2.2825702654488493, 2.062798127743828, 0.049436949974412295, 0.7281863217313431, -1.5280928590613614, 1.3666784681976187, -0.39897895533333483, -1.5297699072584783, 1.2359814461751453, -0.813821809832053, 1.662114614325645, -0.4223079330574349, -0.24758182744400284, -0.3296237896411894, -0.2956724583471896, -1.144129780885399, -0.05849338834019069, 1.6967754338628902, 1.5839630805075224, -0.32246593076572283, 0.3016235076116518, -2.040855625416129, 0.8468517651739604, 1.537685435250822, 0.2882077152320252, 1.1122903188407287, 0.896531594266279], [0.847317506057281, 0.7884954644506545, 0.08998774242096833, 0.23769754338518773, -1.170989343008546, -0.846447332107914, 2.5212738036835494, -0.20392975713769304, 1.1206683624665374, -0.47629994624931704, -0.973705070632385, -0.6861800782729621, -2.353069789473707, 0.3444043455519323, 1.3055067801368148, -0.8512790443090467, -2.218245409118321, -0.8033144399286366, 0.3783795559790346, 2.6122120858773643, -1.442341587682672, -1.5433962987990066, -0.4297231794504422, 0.1468858915657039, 0.9410014336652411, -0.27134544534023863, -0.7531138609035474, -0.39655805267381883, -1.124305343058117, -0.6746171757594335, 0.03712020944904948, 1.1359188985329571, 0.730730366687245, 0.28276855284712094, -0.7727825856024759, 0.8399883979477957, -0.615856525870911, -0.5768229580314037, 0.06141567571449304, -0.519360842246656], [-0.5332260115477555, 0.9572562797016192, -0.4899401106185624, -0.24407576881619072, 1.191057714159139, -0.81134193244999, 0.8272872000180398, -0.6334517774683763, 0.5716185970516255, -3.1666309185616623, 0.9122283902382213, 0.09621394526408583, -0.9597252906920608, -0.4205092941872153, 1.444479572651074, -0.4827176503206903, 1.6105587603125846, -0.6704782346823399, 0.4186663485173125, 0.6776750442882139, -0.3512094469900153, 0.013002188018335364, 0.8098532569341245, -0.18515696354733438, 1.0429785210965643, 0.477739258659418, 1.7976193083296936, 0.35497293295762206, -1.130757676548227, 0.4578457743617273, -1.3734574120082208, -1.0664334977299261, -0.43831942690504905, 1.3721753409188708, -1.775221372833292, 0.6926959545701815, -0.3109206456299067, -0.5737386357756143, -0.8576565427821403, -0.9099722822531698], [0.0327733082265811, 0.039107586522358115, -0.4804869649220376, 0.2863728021489318, 0.34733581053344115, -0.587780361279173, -0.047287518469901035, 0.33443325975147303, 0.6091858311571565, 0.218722372029915, 1.533934760249755, -0.017105172067365698, 2.2470041533999807, -0.9807420615002523, 0.21328396312191633, -0.10532822465160326, 0.30094592484407584, 1.3001021322117499, 0.5815810035198694, 0.5815269643910559, -1.1962560927290227, 0.3391760961237633, 0.017492375182015688, -1.1575791538978073, 0.35436927461595047, 0.7346036754204208, 0.5596524584467598, 0.3224712054677505, -1.4674560881286514, 1.2291934329170595, 1.0640383442379646, 0.3045481956728821, 0.9507326740666802, -0.8938992217968418, -0.5152654716522225, 0.7175480125863554, 0.05795191595326659, -1.0631287607442594, 1.2012315683775172, 0.9096606018609701], [0.7926393795384884, -0.43799275042420077, -0.5965262032419756, 2.8216083462483894, 0.8452995753891793, 0.6609736428123864, -0.07300834957172099, -1.415848569879691, -1.1744418253582833, 0.5393273248337498, 1.5126058765739288, -0.5045179119776656, 0.01975031925600036, 0.21347072086766328, 0.7018061201054057, -0.4779808014229628, 0.9255836693395396, 0.8494998393337219, 1.2174796404045607, -0.6145131210560165, 0.06866461370487696, -0.6658780763784363, 1.1096502145524862, -1.1013711467070504, -0.4764302182876042, -0.817230150767011, -0.25536558586768754, 0.4589750672728167, -0.03805317009556439, -0.984716104118191, 0.37595110691516037, 1.0105169576615451, 0.4041965433297117, -0.7074684962664519, -0.3790529683413065, 0.4340292381466783, 0.6846365351228311, 0.6370128849946673, -0.8500650396673808, -0.5459733311434484], [-1.385055591390915, 0.2872761670412147, 1.1112021042862412, 0.43186251598308145, -0.06064221396190813, 0.6745506254907725, 1.3728665959429658, 1.4826131905385376, 0.17294382481321913, 2.0771636402861016, 0.7180826131378172, 1.1858299816993192, -0.6068270475527164, 0.43957961939422063, 0.21566660943879382, 1.2010227802907656, 0.8568266472897416, -0.754370192168886, 0.5278695596655923, -0.6227932362687464, 2.1292837866871834, 1.8149475795250085, 0.43291693247774127, 0.9421757957275764, 0.4476604804501936, -0.6258639792148183, -2.7128483184210803, -2.005762149798429, 0.17718256405064542, 0.0007671590720541516, 1.18658775191828, 0.6130363902240025, -2.215769315770552, 0.05750824532519511, -2.1095294457158915, -1.7294211232782295, 1.6265165384196938, 0.7793676689923165, -2.3648344583776195, -0.8310184759580596], [0.06818224160973062, -0.4992334300787769, 0.9785691224934979, -0.5131036497030784, 0.30416594042133677, -0.8504489292203029, 1.151525749119244, -1.0165726591832704, 0.030386301219758747, 0.7670995449596777, 2.0490286555966244, 1.1912637615796355, -0.2919586583798463, 0.30600521070030823, -0.1293271226515855, -0.46499216533450105, -0.8810962379779476, 0.26056123913961343, -0.20656356266723044, 0.0184184817178392, -0.550577582773277, 1.1479870443338118, 1.9022831279406267, -1.6023462582858863, -2.1780257148951483, 1.6299688521388815, -1.2491116347098628, 0.6653901707306166, -1.279547219361626, 0.0509082619349927, 1.3067498984803296, 0.568621414445413, 1.1970333608919845, 0.02595862844134176, 0.15048419854128164, -0.7031126230664408, 0.0714312963967191, -0.6135716276212252, -2.2460044658420184, -0.4226607876497346], [0.48409071222612726, 1.093821645100574, -1.3630075749609765, 1.7127067157463076, -0.723006288523324, 0.17538745027574776, -0.17252665926952268, -0.9230797801417018, 0.4799506074410436, 0.3090209457824706, 1.7269307221416101, -2.258876767929345, 0.164286215981284, -0.833093748382358, 0.27229417272037953, -0.07128717494881952, 0.07845536567194114, -1.547036672174865, 0.04411139044213642, 0.6009569383650074, -1.5389188578312325, 1.7805556958721895, 0.1377070493746402, -1.1758699016829388, 0.9147410485200753, 1.5228979686991886, -0.022966196025112722, -0.04589369606740184, 1.1727897805118292, -0.41568235957080213, 0.9378559930406373, -1.8910508861094217, -0.755974285364537, 0.5465632805856752, 0.12602446091398564, 0.6072213182924402, 0.33672476390918277, -1.5547956496597128, 1.0185335672302114, 0.13182628903741034], [0.48175197404152764, 1.9145149609531453, -0.6605803293188816, -1.1040291063038672, -0.10204814589851802, 0.40474761124470815, 0.31703754024547437, 0.814724185165944, 0.4694318506754546, 1.3388836782204858, 0.3056899982482729, -0.9127316731281583, -0.814737029926134, -1.7293824314211794, -1.32129477419042, 1.2238228293571647, 0.7361622257634707, -1.939684611059108, 0.8278017712500121, -0.42503973294600556, -0.3916523818737064, -0.8873068978103041, 0.8631379331181531, 0.30338366337766887, 0.12674711882940692, -1.5462484455841328, 0.9375294527405827, -1.1298675165849388, 0.32955951708019565, -1.3003927512433817, 1.154328796508679, 2.431464876986197, 0.8563915716462422, -0.9593156724135706, 0.1101730737369134, 0.5172649419042415, 0.45349238314616247, 1.561484891832042, 0.4390167878425516, 0.8112457305236381], [0.2899670306030113, -1.0520620829056753, -1.2518402995191096, 1.0840415418923142, -1.0876163409454904, 0.36309202078438624, -1.0591336451752984, 0.15596411988605255, -0.5864527252317419, -0.29984497439070223, 0.32434335327473335, -0.37359100652961214, -0.35804742860464794, 0.910700357560518, 1.3479105681464048, 0.3237636791847139, 0.19676650804704066, -1.0208087424537688, 1.06302882875594, -0.30890031873073814, -1.0110931238226875, -1.6165631992447458, 0.7660102750920567, 0.5102239647917348, 0.02272449742463518, -0.24902181676507315, 1.38939214237257, -0.5821007802612732, 0.4983491581405803, -2.872668421615402, 0.766851902961638, 0.4724506441191247, -1.2136249001093864, 0.8698295188089862, 1.461199342210601, 0.2903614594164516, 1.120465070794266, 0.026083910515467306, -1.4286841889917163, -0.6524200891666603], [1.2683636361463544, -2.3031796705899916, -1.39314790053239, 0.43948972877738957, -0.5218199884371548, 0.016808880415052692, 1.8699658547574007, 0.22209204420893633, 0.9211174185199512, 0.1060150848957946, -0.9304574315154838, 1.3133725375920897, 0.34896112431537285, 1.0406143121532103, 0.335433279791962, 1.0426606376907712, 0.8210347508290546, 1.3346983159520533, 1.061405635811704, -0.5206730960537528, -0.19066557701370512, -1.2130792557299135, 0.35756743317485157, -1.5799495264519081, 0.30721016270837037, 0.36868472485066506, -1.1121521863818111, 0.3666234299515822, 1.4333273477582589, -0.22294386394996948, 0.6908957062166359, -1.3972455372511359, 0.2852716790223136, 0.13258196858757207, -1.657273587356295, -0.01895311497242958, 0.8605951289500469, -0.9540666898311253, 0.24532394564748192, -1.4059026441861242]], [[1.0083387118930438, 0.07283127350299234, 0.13804217908073266, -1.7178654243705265, 0.8866080368608817, -1.1323013010043446, 0.35859434237201293, 0.18881367079961672, 0.17408134699003736, -0.6867445622190937, 0.6030924269096735, -0.5683333368036312, -0.20242891046977082, 0.09283322739664168, -0.9128564883894659, -1.1185901844842632, 0.7631953319248431, 0.20030682893310287, -0.8827082332843992, -1.163485049182273]]], "ep": 0}