{"num_layers": 4, "sizes": [60, 40, 20, 1], "biases": [[[1.1037641470155735], [1.4972138792797638], [1.1430107033173913], [1.0811103889297389], [1.9357777437546573], [2.1127703830516453], [2.089512955674011], [1.1943798660086757], [-0.2109454577609689], [0.6140257387075695], [-1.6842062398484585], [-0.3106343454826866], [0.2922028804715108], [-1.2892474891960588], [0.03199335791482529], [-1.5286554298630615], [0.5347327354780822], [0.62237133609926], [-0.43003836482685953], [0.8751997214332371], [0.522171211005], [0.07540682525395617], [-0.7657539604248047], [0.20160591538914033], [1.3625061679997181], [-2.579481397012078], [0.10081981022180521], [-0.9016597357282622], [-0.9101869792947378], [-0.8064655666091292], [0.4314627285012989], [0.6118396240942817], [1.0215279448016772], [-0.5827731600252807], [0.11679763647357928], [0.34857496966976076], [0.7522551291040434], [0.2709663895191822], [-1.7664865823581877], [-1.1400411300123972]], [[0.14273963164761547], [1.3724091951563433], [-0.8311146474211021], [0.42400510393407126], [0.5062288142631791], [-0.63780534367571], [0.5034762157803148], [1.9672975982806349], [-0.07659739324351252], [-0.15137991852398866], [0.39541473598225607], [1.105890080361297], [0.6277077422099405], [-0.5029542271623226], [-1.5608555699558175], [0.5005003966824559], [-1.6706992462986816], [-0.0557205442125995], [0.8202891773819139], [-0.19145188172697425]], [[-0.13762180278626338]]], "weights": [[[-0.4775657941843378, -0.7730993867650877, -2.0577992749448835, -0.9577166755371552, 0.2945267026860945, 1.4959628958614462, 0.15458740091572318, 1.4757393868090507, 1.5635035711436365, 0.4590647542896511, -0.36216429723886084, 0.5629599414619312, 0.8264239239400516, -0.9312085166855291, 0.4686575399921612, 0.8895082119779045, 0.08663010918415202, -0.8056552409502495, -0.17043273974965278, 0.7689499588570212, 0.8396318806198297, 0.509331223098905, 0.7563503731702156, -0.8930948101862909, -0.43845023449971493, -0.09423645707314082, -0.17207635784579411, -0.9070799092191977, 0.5209497843583726, 1.1633029247680258, 1.32391949084839, 0.3358145664592395, -1.1730733804109377, 0.773360949155297, 0.8986652215746178, 0.8068654218636481, 0.401287515953701, -0.5533057754474087, 0.1667795316104575, 1.4164601715311846, 0.9791298231363901, -1.7238326808233855, -0.7404501925313143, 0.013480510728162434, 0.6858379102935259, -0.6097247631289563, -0.36774648513551417, -0.5194252688092434, 0.2766406434852322, -0.8859660037302686, 0.5536097800930554, -0.45643880005354914, -2.7410357971724975, 0.6443990734719293, -0.2088324807579817, 0.18049559163615428, -0.7034487626784158, 0.7188029158191959, -0.9798320412388198, 0.400161758058928], [0.6526705629564205, 0.19719216780902055, -1.8914809237145909, -0.6887756877195723, 0.6069971195616986, 1.4948504019921767, -0.3007551437560719, 0.34790680362344106, 1.564549916209298, -0.6187583915255409, 0.9099353291674709, -1.1709535206764445, -0.5177357788470516, -0.7024471966484442, 0.19366856311253294, 1.3021860908774823, -1.678888728969946, -0.43764826049050465, 1.1666379609699835, 0.2813044555477041, -0.7965444951856424, -1.4215590701312684, -1.3513659188532448, 0.4732049375266703, -0.441287453880868, 0.0629744985356168, 0.3991437466346171, -1.1709844372862002, 1.1014491970160936, 0.5115112791669663, -1.9574483041142474, 0.714405038146954, 2.0711978574714207, -1.056640701697967, -0.7227055866915213, 1.3125582679149619, -0.012808497045123794, -0.4204147099375489, 0.8578028222643509, 0.02166833431951593, -1.3059105025197955, -1.2551541495497267, 0.10388643723932796, -2.150926682463911, -0.2524630344628934, 0.35087072382575457, -2.177546381929993, 0.24426522481060217, -1.273399901386922, -0.4021888149375193, 1.1329473106934527, 0.30287841893978307, -0.8707448614841888, 1.146405733929564, 0.10736648297490245, 0.4598291756447929, -1.1414519085885682, -0.6488152019814926, 0.0057445362893506595, 1.2806378721089686], [-1.1998702032652557, 0.3831317574964497, 1.5905662142495247, 1.1605919962495048, 1.4363209927512521, 0.17154482172532154, -1.6841978614595332, -0.8001844983499342, 0.5938157176792264, 1.0946422212824034, 1.1981559959083283, 0.6393351808090709, 1.5868314163088175, 0.7003224437182143, -0.004496935622205531, 1.7844824280408171, 0.18428139192873683, -0.8156456219837419, -0.09679482640637656, -1.3953984670814676, 0.355772287640792, -0.17872502971391666, 1.0876210822311803, 0.1243914566139161, 0.1128015873020658, 0.8210275517019081, 0.5639812090411341, 0.1742983974089914, -0.9810559959765613, 0.8998126267001044, -0.4627988284734876, -0.2646791001478207, -1.5881022954730837, -1.30993560827371, -0.26044556286248105, -0.09826659025297718, 1.9588314172183603, 0.3339001602618374, -0.883647400287295, -1.0765158170011386, 0.6328971044651596, 0.40819457417285965, 0.19307730372392543, -0.7465710158180295, -0.7663543959204147, -0.3105450477968611, 0.4096554641300372, -1.8389289479221747, -0.20979119207572, 0.35363901301043327, 1.533472867493777, 0.632204295368868, 0.21074485178594063, 1.1583144046585414, -2.3958468822549794, 0.930387116613924, -0.7483047607653049, -1.2664547313257712, -2.0068700918229867, 0.06753362639680134], [0.18240940463857827, -0.6740577681064309, -0.6792066236186929, -1.0240237695978158, -1.290106008851342, 0.15065435253243217, -0.05595499469341042, -1.7438742463400112, -0.9163147512989555, -0.6687358822355138, 0.682923961675844, -0.38249357107544546, 0.13929422308770428, 0.20033951676414835, -0.2230265536945354, -1.3318150553729078, -0.4808647394472662, -0.20395326721716905, 1.7256582567826975, 0.9609765933927654, -2.1490038318418385, -1.5699702731414733, -1.4791104583313597, -0.8434941093546497, -1.8359224085960804, -1.1003076425522982, -0.6912137727034072, 0.3281189608966552, 1.1372218836733463, -0.47103966837944056, -0.07723859873354742, -0.5392055150144177, -0.4426667540322458, -1.5346797179969949, 0.558924268889501, -0.2737421744070933, -0.4078603121755335, 1.6444671739995127, 0.2927513481413699, 1.0587562674838897, -0.013737037789765877, -1.849820178806155, -1.0689131886940573, -1.7103042969584612, 0.054607255214663024, 0.0705663330086187, -0.7263939773797544, -0.22839496106499546, 0.8553052670881692, -3.3504661752828993, -0.02080599080860295, 0.2915918773903726, 0.1571840723421817, 0.1250206311048336, -0.23920164773405644, 1.2506106659708685, 0.7023096175165852, 0.17860445945113404, 0.8306947155261195, 0.3595009604052152], [1.5987106191195681, -3.439686549559342, -0.7263139967640059, -0.2869831273769964, 0.7965928590150363, -0.13597362252753858, -0.2335217885282505, 0.15916710308836407, -1.367789960023043, -0.0598237688564702, -1.672538813326689, -0.5275847589336244, -0.23179070554437803, -0.8051387244984723, -1.1487126602947522, 2.398144793912585, -0.26766648174784713, 0.607975009866959, -1.4529860656943214, -0.8555292114357971, 0.46428963927529965, -0.5951985557401887, 1.023951542511409, 1.779108481552722, 0.5015519045801097, -0.7305319327133936, 0.823671171453995, 1.1014161718905535, -0.4760815210111889, -0.41780662195738927, 0.4686539461296403, 1.4616218633183669, -1.5701122307741215, 0.03156058087972433, -1.2384141578210215, 1.8129553580168907, -0.505605854176007, -1.1198659906994308, 1.6862467992048125, 0.19651371578257143, -1.0632499003454143, -0.03780881679757221, 1.4855117061221708, 0.24098114561028458, 0.2541274528908544, -0.3700206093624659, 2.1620804737395165, 1.8293755570465142, -0.48634370923283277, 0.6793779212325015, -0.11933444908707747, 1.2117156019160509, 0.9538348947414165, -0.8179936420651316, -1.7625694252191693, 0.41845746064180006, -1.2410261926604733, 0.3757680428834375, -0.9838358015006168, 0.21293609507196432], [-0.9108984964335787, -1.045551885774138, 0.19607141886677432, -0.15908552474701293, 1.2622795086118188, 0.6361712289237239, -0.2143042106506829, -0.4212547905769448, 1.5501144373890985, 0.14415830101945337, 0.6864979504889444, -0.5960556903244024, 0.5881239041092526, -0.12563511380001216, -0.33189453822425863, 1.249796959031465, -0.2832377228196833, 1.598897446845989, 1.2631415261125096, 1.9598444749484127, -0.9336101312862823, 0.5005103228167431, -0.07841429189660566, -0.26994001107479915, 0.5212458497356574, 0.0779708431378313, 0.9483299266165113, 1.5058425424374264, 1.773484005888746, -2.819792635969637, 1.7854328617142043, -0.6739787766168843, 0.8637989725283791, 0.7554993521021539, 1.7718641666893453, 0.22336498234425628, 1.661029993207187, 0.02970995430445518, -1.554357062565555, 0.21020540430929924, -0.6518933199334563, -0.224885727151567, -0.2295563364545824, -0.10378836541950123, 0.29111295498983814, -0.10977606782862794, 1.4591567321170253, 0.2074232037470595, 0.8426858609019164, -0.936860374079762, 0.00898317298265754, -0.34462382727316604, -0.8504012539781972, 0.7646827967130049, -0.4760944538285404, 2.051654413052458, 0.8694938007948472, 0.9334417715837691, -0.8224431614954142, -1.193852721742885], [0.6033061232090327, -0.5666876050528153, -0.3467882490995108, 0.8209961908276319, -0.14758462169163059, -1.7586988133538561, 0.518621556889268, 1.3437995105816736, 0.1294136913620915, -0.15691204246751952, -1.7500396152606386, -0.11691838436015761, -1.455038169623282, 0.07125683856088169, -0.0903217593706688, 0.19711892655070515, 1.1581860429985218, -1.2686321634013984, 1.4179770537378162, 0.46425502719115824, -1.4292727468001019, 0.38590872156543415, -0.9545985971207224, 0.10413497481742913, 1.205485532685064, 1.6211364610311325, 0.9181985602798378, -0.12313823393198434, 0.5143712154334262, 0.48426973286762737, 0.3130014297192046, -0.5570579296679753, 1.3710485588132753, 0.3258193668544013, -0.5947719729443649, -1.2316974223102137, -0.0649082051790766, -0.21395178361397799, -0.3100132086759021, -0.14912144603840413, 0.2088660833123036, -0.03445588114213626, 0.28562897401981574, 0.0348442646157767, 0.9329646248271238, -1.3142830375854044, -1.2118120002152324, -0.024718837513326583, 0.06431918920106937, 0.9556425541459742, -0.42153273330950347, -0.1178497467355083, 1.8976857306957622, 0.9678606803181427, -0.33271671096253125, -0.9632121370780659, -0.7014659341539486, -0.415146094650238, -0.6061391629971765, 1.4072391899092935], [1.3299595155042483, -1.257436658021457, -1.89969116433334, -0.7553436862622404, -1.3823881878578814, -0.6928855402733143, -2.0476646006461556, 0.4097932011070398, -1.4955372017064645, 0.11392598339040916, 0.7487225264182811, -1.3639908256013786, -0.6727282781202273, -0.1478372507312459, -0.3571435921561152, -1.3786273579799813, 1.177021309966796, -0.9479391862939426, -2.1389901288918978, 2.1245159097192716, -1.0763422588925327, -0.5924893500122999, -0.7229726547396027, -0.19173753489018647, 0.6280267327326798, -0.6132844686091586, -0.38432004475114956, 1.3678066773596735, -1.485726426552056, 0.027782255525751576, 0.2420629631327831, 0.25270168995057546, 0.04442771996659295, 0.14873824846673073, -1.2854247935347856, -1.6895920905342905, 1.3089780535147815, 1.016221369162205, 0.6771568611842671, 1.3527446747813379, 0.4559874360848996, -0.3326456016641405, -0.6525660611538573, 1.4815687916676228, -0.9475713615694226, 0.38148369188031844, -0.6184314666234221, 0.7458206176624262, 0.07836675068664693, 1.297619642060567, -0.2830663487774355, -0.24260613895901606, -0.23721936578182484, 0.46333701867625104, -0.956584446664073, -0.010583890110993074, 0.010749806291034723, 0.05564413392880532, -0.4936649686085364, 2.7374760926836608], [0.7313985295106389, -0.005317740061423714, 2.6186638949242953, 0.2605188292052119, 0.396453336160196, 0.37017414752956174, -0.691940270106157, -0.2726281129518397, -0.09759489416389425, 0.7723708193220618, 0.8305010491701471, 0.7560977796858142, 1.3662653752787124, -1.7508857522147734, 0.5326882896492136, -0.12497691151107541, 0.5883823676915819, 1.2355379288115969, 0.009741208185191272, -0.9943973290367142, -0.17651020728234454, 0.40957430130075645, -0.1495610543631126, -0.6934163837604136, -0.11484732971194249, 1.25996203505242, -1.1488976000630233, 1.5466537924947004, 0.37951150263283856, 0.7163872519341902, 0.9971283525932044, 1.0829317820683182, 0.05238290369254925, 0.6088777186275329, 1.1270597349900329, -1.2395644897813796, 0.3592383527847611, -0.49401445076909056, 1.1633297198256851, 1.05574499546698, 0.129742712837587, 1.961100081712666, 1.6072581428114283, -0.8862029141668514, 0.5360138722580586, 0.6171185896672694, -1.6139663649420937, 1.2191128411847623, 0.4013667483834772, 1.174286181151579, -0.6799732776256594, 1.8302841960614633, 2.3230456914271476, -1.2744058369193825, -0.2928232154234624, -0.26711807431842033, 1.5833977143694242, 0.8959582130985724, -0.3857890616788801, -0.11415893553716785], [1.0492839411371004, -1.3102487276015284, -0.12587465422540128, 1.7854150092933403, -0.6134549876939194, 0.7318343611430279, -0.531077227843071, 0.1340852638910996, -1.8981922226818004, -0.709895298490402, -0.031447393006578735, -0.10842451553209952, 0.8909062929384923, 0.13355580664054334, -1.345491415753266, -0.2764608833698103, -0.6048578653283867, 3.8284107158454126, -1.2549324328655547, 1.1658595503892855, -0.0491594200860811, -0.008157932285068458, 1.7075691951886633, 0.21539881263078492, 0.0442365703066102, -1.1517364994109212, 0.4419825442098965, 0.484556228277169, -0.4355083963977699, -0.024817539423093997, 0.7270763463769784, 1.0804936419754871, -1.4259419110083063, 1.1227937263611303, -0.10042037922051454, 0.05639830380389342, 0.12006604509693831, 0.1960148006920051, -2.8711395489754055, -1.1020919745224962, 1.9001683178636848, 0.28384150794915924, -0.014840133135097178, 1.5024286971200502, 0.6990968748301725, 1.1532470571098208, 0.7301100782459081, -1.150584028208951, -0.8999549489023054, -0.5526882981616957, 0.4082385642350216, -1.4317286133585811, 0.1263016052784622, 0.13953187585824392, -0.3951434241100238, 1.863921270752365, -1.8759487181143712, -0.7717659397952572, 1.2937733427300278, -0.8071445682099203], [-1.723924983427076, -0.531623753600818, 1.291919373798875, -1.6606269299813707, 0.48901867264075477, -0.6702875194869041, -0.1529629600859302, -1.5485412184861467, 1.105180824431478, 0.042546911008176654, -1.8591518462275174, -0.8883770110622846, -0.13161920450627654, 1.2372507083143205, 0.9546392492183773, 0.1801775065310636, 0.9771842734317948, -0.40873012652281404, 0.03906695755525949, 0.4638660137962741, 0.9286819724039984, -0.047920360880482744, 0.6396506849293995, -0.2527895295301144, 0.523105169065896, 0.189834049082061, -0.6272418755402202, -0.3843472019117786, 0.12592512106012946, 0.10754160217675189, -0.28121583861647154, 0.708446559899787, -0.24680872587679667, -0.08642745330342085, -0.3040979010180725, -0.70250566189221, 0.2801308605898816, 1.8860128449413311, 0.5102489586452841, 0.22676639210544544, 1.8076045912638146, -1.4933469669434043, 1.4907082472504114, -1.5132886727108996, -1.8676755933350893, 1.7285786080586885, 0.13237912570401822, -0.0724896210877914, -1.2710012858412492, 0.8223268192187908, -0.7435056880171439, 0.9448720319146238, -1.003231747886244, 0.10716115184412038, -0.7720353122407999, -2.676815466215921, 1.7595160543192951, -0.20040123804358892, -0.29655268480653657, -1.5828918085680894], [-1.2466837422718335, 0.555860862818364, -0.639945202743845, 0.7128378316777583, 1.7380042124074415, 0.5915648341312866, 0.2961518374604159, -1.0639712809124382, 0.729192414193984, 0.9693782849860497, -0.178776385235965, -0.5391023511253832, -1.6939484427472284, 0.8325441792703614, -0.8945969159992267, -2.477826381496163, -0.7105251228611431, 0.3788808725964658, -0.22648807572775628, -0.5324817064499984, -0.7204942030655453, 0.7761819490225746, 1.0185499943397778, 0.385010773204568, -0.07482625714943492, 0.3866934171735929, 0.7089623238088756, -2.2788388094282626, -1.4226946307340245, 0.15716295654999052, -0.959334233681005, -0.7344472929970909, -0.7688418647208172, -0.5671209445252735, 0.27426846989024867, -0.6875898300026502, 0.4716741369020531, 1.2713018903257072, 1.2175502204231838, -1.4182584367399205, -0.2482036397715968, 0.1676091574785315, 1.8907932931287217, 0.3494846553696027, 0.39872874119732443, 0.7628839877762433, -1.00240234032435, 0.4970889101986276, 0.4778345585841741, 0.4083058729113137, -0.02503643386691239, -2.9479462804986234, 0.8322104352747683, 0.9840344150126731, 0.6260034221342344, -1.3461078799485555, -1.345580387686836, -0.2586697770501196, -1.5171607114353032, 0.5178160416601418], [1.1492822150669022, 1.1306974567015409, 2.014490167808118, -0.3049624251411712, -1.0851813498741198, -1.2377585551738508, -0.01730212006398779, 0.6844292016524063, -1.073339924159902, -0.9163443152237652, -0.9626893034668426, -0.8882113645709143, 0.5629683100545223, 1.5509840456531643, -1.430689762493159, 0.5388614536788736, 0.18776849161673473, 1.9443314114093968, -0.1507660313065763, -0.4929281617462646, 1.262050507006432, 1.4545712377357851, 0.2830759796387795, 1.2006432984182918, -0.036364357157789684, 0.7179088827469757, 0.6066507395617426, -2.5736828487110723, -0.1850711869665892, -1.0371920204470373, -0.1381809456739307, 0.0483270466651667, 0.1198062419359259, -1.8410602794169466, 0.1403127602645953, 0.5377722460389905, -0.35486050600829383, -0.5366444575044929, -0.5588490305071215, -0.7891591592153345, -1.6402235867721062, 0.5313517353429433, -0.1343719412675605, -0.9160376641636319, 0.3294115303309992, 0.9252992600527356, 0.2415345615764367, 1.2153881444719838, -1.0532026457098258, 0.9155745332867872, -0.05366290587149028, 0.41383637362831893, 0.6440858910173975, -1.0494615852784406, 0.8911255634013932, -0.26297757327846466, 0.7562802032836624, -0.3754731653944307, -1.785636041876006, -1.4010514945256347], [0.2777131372430642, -0.028611190353416305, -1.519810469278041, 0.07189191746381762, 0.5108315547833446, 0.6157239489422777, -2.2587012836313938, 0.9165369898381446, 0.34983129569419014, -1.3078812096044965, 1.7955592700552245, -1.241346435697409, -0.10163290769303088, 0.16671625832794681, -1.4907014225789548, -0.2774756042043856, 0.4107216647700467, 0.7520754457381861, 1.1084465454821435, 0.051582064707166905, -0.4997665742795252, 0.15172795153515722, -1.0222955592679634, -1.6928230465984904, 0.143061104347648, 0.10252742089125769, -0.902787456472609, 1.1036660857170753, 1.7672361936477001, 0.1840947288668984, 0.43916216141125664, -0.5035536953789163, -0.348509242022646, 1.5108079775298364, 1.8983074866244944, -1.015643405056211, -0.5091671902398435, 0.8187534794063607, 0.12179899542894788, -0.9594425653885132, 1.451054375616487, -0.3790786436448256, -0.7585350780190634, -0.8102149650296264, 0.798920368910058, 0.22262016546066332, 2.5809521449010995, -1.2849477520668713, 1.3693611820967517, 0.09588518413578513, 1.0778058658349225, 0.27709824212148476, 1.393000480151276, 1.4943605705077705, 0.327630502475092, -0.32938129536342603, 1.232789442094626, -0.814680498991647, -0.3771455056289618, 0.38449108635817647], [1.0537901910114975, 1.8178909318361067, 0.6101941569003014, -0.34912715058480903, 0.2757279418201871, 0.2776142066259488, -0.8925659278035385, -2.0706393979674473, 2.162022162328611, -0.29120640408666104, -1.9895629587223749, 0.24790787203741824, 0.5673585089099591, 0.36918779808559277, -1.0406776740751535, 1.3219894997214707, 0.9608275662855088, -1.8402417680775394, -0.06090961527154265, 0.9438136110293903, -1.8768952821847733, 2.078031452738943, 0.9834590262038916, -0.5521089216820091, 0.7836977584272876, -0.6775489944562311, 0.26222839647778096, 0.384850029919528, 0.7909909954840604, 0.04170264230096706, 0.3221870340741228, -0.007729584989191185, -1.878502023817354, -0.3334134712775467, 1.9893904615254185, -0.1969947482469634, 0.6988309182706607, 0.8184587822162769, 0.9730063398257669, 2.1510721612945254, 0.7147051609835422, 0.4668198749513647, 1.5446382608045097, 0.9037102994980553, -0.8267322186464492, 1.2047565374988045, -0.5258000109876261, 1.2153606675262678, -0.9154042935041538, 0.5448644778616535, -0.40402560454932596, -1.5432047746731887, 1.097354882691498, 0.015989878625639185, 0.0006529678206300114, 1.0896883721634012, -1.1867335892034656, 0.712941358078387, 1.0002647265763074, -0.016191349354582003], [0.2297862496979615, 0.7796266801433012, 0.288235715008025, -0.6017345979795221, 1.249365984368191, -1.396026532549972, -0.282373117556242, 0.45721534181356754, -0.1595453940743248, 1.4584524756682626, 0.49062088633687856, 1.0127756651352282, 1.0091309158632278, 0.5045713136145344, -0.9359540232715073, 0.5375962923460136, 1.043770197055087, -0.6061355685223624, -0.5037362759426662, 0.8343052752658168, -0.40220414643107033, 0.7267357922649883, 1.2864084321750286, -1.6628482722383149, 1.2234290667171461, 1.2641573308922898, -0.8449548069227322, -1.975731762716185, 0.07539045836988305, -0.3437510860384943, -0.5854592718257777, -0.09897612492408893, -0.5306191226456373, -0.7068337045805836, -0.690113750043092, 0.36001147329842076, 0.35029215344177844, -1.2810515738429034, 0.21953420957549363, -0.06255394234042871, -2.2142797641486016, 0.7452042489345065, 2.576971325257819, -0.6416439631369848, -1.809799340762518, 0.05732869162157721, 0.028796484148913677, 1.0941902036758369, 0.3049157423605746, 0.4382765471577851, -0.09668245703494048, -0.2598648523047636, 0.18160728083628702, -0.24922875593631835, -0.031677524831902885, -0.48167628346852526, 0.5429652539727718, 1.2245401546566639, -0.19810970532132313, -1.0767063631437845], [1.0936509272099697, 1.419415718568195, -0.3284728793826381, 0.4317657091578699, 0.5568698025583043, -0.4036205907583425, 1.5113739129228263, -0.2792978594174923, 0.32353876997753594, -1.0594564866489506, -0.08126109021558131, 0.1870327371648498, -1.224964904685217, 0.1499040000888505, 0.6554650849416521, -0.6265522630159994, -0.31784730121415844, -0.40772226642124987, 2.306570876870656, -0.7070162032440214, 1.3175246491661659, 3.163536176612681, 0.5780025518380006, -1.2130405945902911, 0.8378687865170013, -1.1570534450666454, 1.5633179937254496, 0.5997996623804659, 0.20794671783829285, 1.2156945317340062, -0.9151986238764481, -0.3487750434259077, -0.30115825358818904, 0.15499472378129756, 0.9420393018210442, 0.013618878333610016, 0.22493173121964083, -0.1309986777066716, 0.6552465263823885, -1.2502344284889482, -0.6624305983313821, 0.39936175668230983, 0.15951622931898052, -1.014204959420225, -0.4638477431633813, -1.2948585616216965, 0.6366655207509132, -0.25625385462980554, 0.7834924939867156, -0.5383126262936567, 0.43127510162440236, 2.0159244447757168, 0.1319064686228961, 0.3889690600447628, -2.3947642861806764, 1.5585716255653568, 0.19712428893683726, 0.7574377119240432, 0.034879868923899375, -0.858925989648783], [-0.47321564291569146, 0.8810338369049343, 0.8683695883963687, 0.3591829193038461, 1.7118863568173885, -0.21254262835200854, 0.16725235918349748, 0.6944443384040399, 1.0312575920855487, -0.1642253948843852, 0.053094001636523655, 1.66938426880021, 0.9784879417386979, -1.1661774986363964, 0.11739406908310523, -2.523913924727998, 0.262965183150795, 0.5175934059590643, 0.9703098342870828, -0.5926314892690174, 0.5176155832455476, 0.04784787971119026, -0.6845639609032874, 1.846468187759801, 0.2124335924802947, -0.450566363568696, -0.5307144657611806, 0.7412162146440134, -1.9489460925612405, -1.1463923808648255, 2.0422282454208402, 0.47573820550368884, -0.33935485900539514, -0.662384027739066, 0.05723182602826894, -1.1158809961024028, 1.169918703246278, -0.780779196509157, 0.23624245456904217, -0.8012437698397652, -0.47174079551614834, 0.7224443490074914, -0.13912239510712338, -0.6331903434127357, -0.5278547043577727, 0.6216789643504771, -1.0011460468387376, 0.6745062247432391, 2.048043360288945, 0.9105321736206581, -1.2458228860571925, -0.36203719388457756, -0.4874442933770631, 0.8071455516419739, 1.1217266318188273, 0.28866341323177086, -0.41428781003641446, 0.26780236077609765, -0.32827499616778816, -0.37594078460177366], [-0.25684094382921646, -0.903520800879469, 1.1114031208804536, -0.3083421719631852, -0.2024519305786562, -0.07117773371988478, -0.4937550176929875, 0.8233193346114429, -0.5160728832659567, -1.6473329544869002, 0.18892015809784388, -0.7957684023997108, -0.20148794105328444, 1.6079948097082837, -0.8592310132529003, -0.794746150359529, -1.1849826235747414, 1.1448742810764727, -0.1033190020327046, -1.6134563967423023, -0.6525397559745048, -0.42853529562125425, -0.6877059784106221, -0.3939822858904112, 1.4794530957977938, -0.6298390311498083, 0.6045607859081251, -0.907306201363019, 0.6222064919182073, -0.04617983963871513, 1.5514615754585217, -0.3953440367522523, 0.3226836456570333, 0.9749781948018106, -0.3257382440169712, -1.168348572520324, -1.005948582042636, -0.677476923029346, 1.484753927673838, -0.04826082475825998, -0.43325580716312045, -0.5424286120010862, 0.11549873879876463, 0.3036115987165631, 0.006476238159796123, -0.06996852292907473, -0.062104568487660876, 0.7150145190650355, -1.1514084865083474, -1.3232897283327518, -1.6901694945596817, 1.9268641970293374, 0.2254504825113738, -0.5693104036443201, -0.2781858967266914, -0.3282929805421803, 0.33941479200296265, 0.014645412735570676, 1.4602309513924292, -1.2092625913311266], [0.33574107978875334, 0.16915068537601627, 0.3360319405483061, 0.3205755390307028, -0.286742261564239, 0.37055966138054186, -1.2863236926053758, -1.0886781177765383, -0.05920939365499241, 1.2847507290018445, 0.17585692695935323, 1.417839821567683, -0.848759310510648, 2.842626172860593, 0.8243787402688638, -0.06761696046033609, 1.0407485473594464, 2.3011203986200495, 0.9456431174362014, -0.44910483178907246, 1.3246297352603422, -0.47272053612374404, -1.1518351235894204, -0.18980350652990308, 0.21928605502705384, 2.462952362824443, 0.4401876622459095, 0.24535814072521855, 1.9961198156816484, 1.1039569058689602, -0.8277097193498227, -0.16832751983566913, -0.3659669037353664, -0.6846861562476584, -3.246391783134571, -0.2497616546959627, 1.7853819694279065, -1.3867743263518209, 0.3805834529089117, 0.8070663533236031, -0.2743355363570115, -0.01666208169165233, -0.20140759784651913, -1.1988242986383966, -1.2881811177450602, 1.0677509501365783, -0.21265122237959305, -1.0468151114024484, -1.8626919619318216, -0.12194036925899487, -0.6768764516481502, -0.6724353851397602, 1.0149306992637175, 0.18363956041134194, -0.4376527238431267, -0.1260720214698938, -0.3275866692566451, -0.645181478593546, -1.3665693859279122, -0.6547041435950104], [-0.9711599016684765, 0.04318547251806793, -1.125769124603499, -0.13656545852122176, -0.5789315820008492, -1.4680281299252413, -0.15779600238273858, 0.040817736088380845, 1.1181643003285604, 0.6914436805670968, -0.727892478934658, 0.01442002274070625, 0.459969272742485, -0.17738259867786468, -0.05322885694519156, 0.4651515557550782, 0.5686334875834756, 0.7661603566772087, -0.34262226215490765, 0.27747275415099604, -0.1650632855944091, 0.1615130829307134, -1.096784315404988, -1.324884524421817, -0.15365281953043586, -0.5585922628402044, -0.3390534962751225, -0.48906193300733386, -1.3730527182796037, 1.0564482209591066, -1.1175459995508192, 0.32512886609579006, -0.82870060264196, 0.3346301665003948, 0.8382594265218045, 1.2937884657709238, -1.2451269924344313, -1.0253811973302733, 0.18623689485448255, 0.5300115388799778, 0.6328836934129692, 1.6225250723651472, -1.7338417936293913, -0.2117881784629208, 1.5556323105260028, 1.2774439240800346, -0.3622961424346254, 0.019459133195737822, -0.7252440207667863, -0.22693182973653364, 1.1100403396202387, -1.7480200043124834, -0.5488846740140814, 1.2113806059589485, 1.1786050335035316, -0.43475586238246894, -0.057356587130861975, -0.007099849852650291, 0.5764174697065741, -0.28024889776928286], [-0.5532564857460389, 1.690406792429587, 0.5441425185911751, 0.3856943424498018, -0.9786721468392355, 0.7696852068634689, -0.2739378386521331, 0.28377891232871455, -0.6049013862903767, 0.6620568047569377, -0.8276540722118119, -1.6701422475299101, 2.7891980799904292, -1.0238136309466084, 0.6808428221812585, 1.6385399783547632, 0.9439799725984672, -0.08700839143414588, -0.6836912668464382, -0.014411250382204099, -1.0989373610986948, 0.32457168142333737, 0.12710517495305634, 0.18819840300024634, -0.383956077468536, 1.1733974748240223, 1.5605089822402285, 0.625592119537861, 0.823004828301184, 0.9019272104883582, -0.1409600808027964, 0.07228739800807606, -0.5129998374881789, -0.10655250865709714, 0.1056214651031578, -0.47031479038345786, -0.07638385308030776, -0.2546623410163882, 1.4780961541782376, -0.8361765400466845, 0.11158504093585404, 0.8994180832560842, -0.15855474002257733, -1.0705899447879306, -1.589936659400873, -0.8176179015822101, 2.396655913541852, -0.1832037546136743, 0.6963282463603214, -1.1295379992542391, 1.2920682247900508, -0.8413712896542437, -1.3462777372193675, 0.6479730140653693, 0.06396261634267396, -1.5407930888075634, 0.5618549450490717, -0.0014118443878421783, -0.8674805972082897, -0.015305931389488079], [-0.8975376335843368, 0.07228343599526281, -0.4909539868911073, 2.3720021431720806, -1.5248719968725244, 0.03363706265914962, 0.03692878826226962, -0.048371875870050554, 2.6504123068766647, 0.3326822710571958, -0.8006803729018862, -2.330661783378491, 1.2086481531770792, 2.1620207887081357, -0.16808458663705156, 1.2717293616297796, -0.8853980415752666, -1.8040926058971776, -0.6658280129819945, -0.17502267220095194, 0.10725404375326461, 0.43965244919960444, -0.1982895580769707, -1.3536095606205918, -0.44277717756155, 0.18531860127961436, -2.0508649036010866, -2.2136723825936766, -0.08941966974885468, 0.4046494376191399, 0.586567493554614, 0.6930533186749042, 1.0039044809483841, -1.2554719075980267, 0.25143896844307817, 0.2856413335467361, 0.6528699647497539, 0.8523304487407807, -0.7618019720170689, -0.45899382867185706, 0.9553371225899877, 0.9493582472021648, -0.840343325611563, 0.17356644678060976, -0.8732918128804956, 1.0117560730570085, -0.8928944948915499, 0.4101981553537354, -0.6409919693870456, 0.9424500600286533, 0.35657775551717064, -0.22709321362325885, 1.2361681045782076, 1.3087934066447595, 0.7030987008342625, -0.537260360689952, -0.058698355732579754, 1.1922971295077134, 0.12742629944690628, -0.4971597323552388], [-1.0318566808053244, 0.04834319210714777, 0.18327134270799111, -1.568124825113416, -0.4239632935621192, -0.3596321046207627, -0.14328431066976632, 1.5629881049565855, -0.189396094064025, 2.5332828541001233, -0.8638932819011375, -0.18535220567314795, 1.2307441871314488, -0.20813456391834656, -1.3203021461322735, -1.4136426862542695, -1.2778788102373357, 0.20578142528430793, -1.1340216301376793, 0.22070429775072445, -1.3947097047470833, 0.09887589446398042, -0.6446428675147798, -0.8162344063564265, -0.10381430950909375, 1.2903116229892053, 0.1613821151797559, 0.22484797181225363, -0.4590188724930668, -0.3195517445108848, -0.8472619356175719, -1.9601358465456762, -0.44464894595588017, 0.3225981869276021, 0.12259121098507156, -1.7702881613084893, 0.6524190011252785, 0.2173774084322028, -0.4342681215109908, -1.1893985293301774, -0.18843784915355388, 0.46585943197711527, -1.302478106610685, -2.046436868462916, -1.5651796509069213, -0.2513200346590708, -0.7183278493146165, -0.8401762784955698, -0.5209169781934143, 2.339830701364067, -0.7109412566596346, 0.12613159881949018, 0.5779172442446627, 0.09110754828173484, -0.8907375104370134, 0.47690505743175116, 0.670119703150443, -0.16162636269187805, -1.2969719926117358, 1.186145572229983], [0.41847123873444325, -0.6690831125458045, -1.2169863260980767, -0.4924909283389163, -0.5622521392671617, 0.7949170579681013, -1.4269973488657208, -0.5203721379680729, 1.6967554697316116, 0.32466332888519006, -1.1723788273604039, -0.2522062151359839, -0.5800924428715304, -0.9078226529771961, -1.2785962117688894, 1.0379134135178036, -0.9048362471827762, 0.7649806353307582, 0.2821481357444347, 0.4499247304399568, -0.6367525763910872, 0.6722528462117209, 0.5091577019328594, 1.2988730540661362, -0.4845720365724837, 0.18752795517306223, -0.674933330438026, 0.2315412364889458, 1.2932610488751843, 0.5490203904925559, -2.075155190110598, -1.3909923403816706, -0.564848551047152, 0.9958391181803101, 1.4661091741748737, 0.2687390839024127, -1.958578310733194, 1.4368663966295487, 1.2375310050605106, -0.7476204731186221, 0.12476449255207435, -0.9108367183816835, 0.3693533461706793, -0.970695835395574, 0.26519420143136196, 0.41414265803749184, -0.12355093494871731, -0.9749015479136928, -0.4281171736729503, -1.1300438751498603, 1.1770976066505379, -1.3131608891145796, -1.0961405512476938, 0.968565564231057, 0.36681738660618596, 0.06049800925748657, 1.0349489368383489, -0.2794947121782945, -2.2912141588155355, -0.4520082914674685], [-0.7935852893420494, -0.20994166295098976, 1.2310708137435302, -0.35705621783161934, 0.2034205441876274, -0.22549011921622933, 1.0050340680010896, 0.4071621024681418, 0.4755795634992634, -2.9662434432448324, -0.3013051001423693, -1.2702972565856414, 0.2053253100895954, -0.26626906625627483, -1.013019643173959, -0.9243875547691205, -0.5372365685485059, -0.5400490952393415, -0.6580234889764117, -1.4439641445986509, -0.3091455749484074, -0.5136525564440689, -0.3309590171701739, 0.623148527807352, 0.4033499663229305, -1.2957210220888504, 0.559207119944525, 0.17182189400514652, 1.4649145367847842, -0.08319371275996787, -0.8709839554440896, -0.20351976272348055, -0.002738035805521574, 1.208267646363278, -1.76662672351842, 1.6425790386563568, 1.2126393421110835, -0.15088324493068841, 0.8208094539207211, -0.4467121453937055, 0.6798585091284249, 2.038806745595283, -0.7627891885267143, -0.6102485652563185, -1.820966408367028, -0.9167444365555695, -0.6765975482434077, -0.0027356553858993746, -0.50987736825413, 0.477327383232083, -0.7425857875783823, 1.0500493137400606, -0.7549767122835116, -2.712000250643204, 0.892193425734646, -1.2258783891082037, -0.09529967047100434, -1.658602545853732, -0.38052144110568736, -0.5297075045699262], [-0.4856787874668394, 1.673289801943194, 0.2565160559063645, -0.11047162137202411, 0.5068144839641056, 1.3260065699065717, -0.05259412548662748, 0.15615122412774093, 0.30100893084460323, -0.03456948598037455, 0.24454401362393005, 0.037885317608106726, -2.8617542943676066, 1.1002958589416343, 0.6029339196487271, -0.4473788040271989, -0.6803129738765408, -0.14670220762587463, 0.8969354252557777, 0.006770515791675823, -0.7236396824901247, -0.0443931163816412, -0.019583496597069313, 0.17395714064747092, 0.6603471906747141, 1.4514416389670912, -1.4940189583720125, 1.622553528451347, 1.2651766430740392, -0.6933894137846783, 1.4237826870262782, 0.11562549542643788, 0.16908516978148017, -2.0584043074786234, -1.336221161904103, -0.4462952686080034, -0.25526960228937895, -1.6200943536571153, -2.1326910516209394, -0.3772345576896567, 0.5410528188270664, -0.19069803125379411, -1.120279901590821, -0.1818790727414659, 0.11164611119819834, 1.088192650121884, -0.31962971755834224, -1.623183460648637, 0.6992799885994891, 0.9232058711147015, -0.5405563460838692, -0.7693407506426632, -3.351534249443057, -0.2072457592257728, 0.5526651639361633, 0.11082401094923634, 0.384912858678783, -1.054904917015857, 1.6695745293142195, 0.6147077003237985], [-0.5979542814654624, 0.5511153563322484, -0.09999065910617878, -0.2926721644914957, 0.092528712604072, -2.538002656238299, -0.7661446228695896, -1.285574321670988, 0.34547036296592126, -0.00939188817741403, 0.43793773172877254, -0.9314336830114349, 1.7643368111563391, -0.31032511427348836, -0.0363128781298954, -1.4679526210450462, 0.39191746371977126, 0.427915998080673, -0.158178046077591, 0.9453085435292429, 0.5397839692792012, 0.09943401038995846, -0.6281913823126527, -1.244867265218782, 0.8306933228727436, 0.36950956885084396, 0.12543954483754477, 2.283834856313835, -0.009549192386464326, 0.8972226724877231, 0.4604447995176232, -0.870790125407166, 0.48567229202225065, 1.4148547749041707, -0.03691818845216857, -0.6842525079720491, -0.18664129448700517, 0.7630759816897876, 0.541856525686676, -0.13758070839177336, -2.0486033339812004, 0.13968497801091642, 0.6198755252844428, -1.2680265217286435, -0.4199832023179152, -1.1607913825921266, 0.20631108949941174, -0.015790919511153308, -0.5102943273860573, -1.288028246572952, 1.603823463901683, -0.28269249400900176, 0.8440860275207309, 0.6838828494770175, -1.8600586214233221, 1.5760314645781115, -0.42146691964008254, -0.06218583556363903, -1.3289245982854656, 1.3454531807028587], [0.5501614049700194, -0.9815480290983788, -0.49806706100142023, 0.719111137245586, 0.9754289761840237, 1.6406794785389036, 1.3275670951334648, 1.4752398768583121, 0.13134574726996684, -1.59068400442802, 1.7318824472939038, -0.5208891713126984, -0.147228580590278, -0.5616548315376881, 0.2773721662724855, 0.17179841525837616, 1.3863157753727038, -0.9131166670286038, -1.7633671437270937, -0.21093199366371754, -0.07759019937183696, 0.02338069443742383, -0.5964017192119857, -0.593872320295107, 1.533924493573573, 0.6114093971364057, -0.0005152295701174242, -0.5554089901868243, -0.3698328579424005, -0.41126213163049546, 0.10058877437163422, 0.8474067127970873, 0.06466778012588584, -0.48205458063408824, 0.8640894829557001, 0.35068817967102067, -1.035691429427771, -1.9203139986488187, -2.3285198288440636, 0.09404079325626676, 2.578794439349942, -0.021102964254439027, -0.8042141795001012, -1.122039992090623, -0.33188043126196065, -0.10703340956824896, 1.1684613375552104, 0.5849954867678957, -0.09886917309861487, 0.9814182994444068, -1.8372337665378686, -0.5566096279814697, -0.5550898717842501, 0.4190789413923765, 0.18035473381833808, 0.224584320831006, 1.1558699273349107, 0.09557861040347526, -0.015654103450090145, -0.39515626559741945], [-0.0017479835156907365, -0.5721709049488194, 2.7501765258692017, 0.6717179997611362, -0.8670639822670706, 0.069691164586374, -0.15505842677133283, 0.9955972539992204, -1.2542292903220023, -0.7651588125783563, -0.4922186392722025, 0.18746720954942844, -0.6142734763572997, -0.9697548805035971, 0.841746252183912, 0.17221845924753537, -1.1107063553165584, 0.7525329444281587, -0.16937222550337322, -0.3281402686165273, 0.4252345163530641, 1.2664416449516775, 0.46311141889353014, 2.197069182803006, -0.6246577416700143, 0.6577310213013506, -0.6294005416963893, -0.3441124692818309, 1.0594637265362399, 3.0837340450808624, 1.4916299064608907, -0.5716126334047408, 0.17867699038759713, 0.3385897705409285, 0.20209594388486257, -0.761986100651305, 1.174032655172622, -1.0349041737674862, 0.07751064056163448, 0.22572995277070748, 0.5134301129250634, 0.38403448462568995, -0.14291296125160033, -1.05719343704988, 1.6040741427985592, 1.377974307256655, 0.012508592356081526, -1.5140480286301328, 0.056715394665080646, 1.2834905332724318, 1.750816446409714, -1.0811011743653902, 1.5108360600562882, -1.5895120548671995, 0.09346765961008052, -0.5551260630938978, 0.42671740183814116, 0.36728175492037096, -0.6239201409359219, 0.04547122377836671], [-0.009709714153121943, -0.3267864469667064, 2.0126490944781854, -0.2394193186042147, 0.764651904551609, 0.0049569147488549665, -0.525687836320239, 1.0142699012056988, 0.3783023577683171, -0.1329915364073336, -0.778556406279108, -0.8729734198209328, 0.701305221046029, 1.9689765915022808, -0.5149157297474655, -0.4751465243597348, 0.516641023059169, -1.6984851054439296, -1.800855299517538, -0.29368981211917683, -2.3425007747147593, 2.201554310309367, 0.13758501070991522, -1.2201521591786793, 0.8081572755340135, -0.35091520990653347, -0.416870202216299, 0.3928756813855624, 0.935945240676936, -1.1699191655900352, 0.13686443437820583, -0.49912795589264625, 0.9413267431917434, -1.1048027831161638, 1.1705070257729562, -0.2002395904457486, -1.8378954500247342, -0.9651696710683451, -0.8363703128491117, -0.9779714817241768, 0.0275043181486365, 1.7797565840630734, 0.2963961383141208, 0.7863667184820223, -0.2857691216176711, -0.3649078626042666, -0.39787887030426133, -0.8423691362484257, -1.7313638576031012, 2.517467222402433, 0.4993318986299162, 1.7387901188332755, 0.06837001055026064, 0.20539498978562892, 0.31172221790559285, 0.8552787303633929, -0.9731105201501372, 0.9136042277366768, 0.7519618401664677, -0.7909213393519879], [-0.5329897899256034, -0.43035475140035717, -1.0467215657629456, -0.6017259458264609, -1.441863202062458, 1.0242870843238452, -1.5411159399643077, 0.14404957686162742, 0.3487821113634597, 0.1497331594650202, -0.33304520706054375, 0.8110150906834532, -0.9637666418882798, 1.0586699766518364, 1.3234497173896957, 0.6365739103797837, -1.050518296151305, -1.3556760201881477, -0.9882809267415077, -0.3326211857022283, -0.26117702497213174, 0.07101912633826678, 1.0527455709556508, 1.5218319407598193, -0.0892315951899, 1.8776841225189027, 0.21937075993566826, 1.5529515395586104, 1.2381912381257185, 0.7547781484107693, 1.3598990734701901, -1.1935473893936481, 0.2325245760654041, 2.8299052140045946, -0.5986934647779593, -1.0035119621280018, -0.47555054059176566, 1.245838016759478, 0.8814719185718038, 0.8966733110890568, -1.8567640112821961, 0.05495237118562626, -0.5889052141445235, -0.6274740432181212, 0.20727043978860712, -2.0750512512973605, 1.3060606699449344, 0.5591915262520629, 0.6991147885743988, -0.8239721339669215, 0.959869709353469, -1.4725800320511844, 0.4457138208437726, 0.3881306510995089, 0.9939667776340809, -0.04342302135422275, -2.3352349659021616, 0.0019259991385003033, 1.304754853518537, -0.22074262681734352], [0.5546494035413523, -1.323424882328845, -1.3551233602476631, 0.04053007349221089, -0.16534292870633033, -0.03447230309982332, -1.6651930608599934, -0.24402811392569498, -0.2535423588127606, -1.5887474942327997, -0.14577460250345448, 0.8023879477637312, -1.337854764694078, 0.1578802868255055, 0.6809214961572613, -0.17325517888143252, -1.0815683392927957, 0.2421485519188135, -1.3985308354472197, 0.9014170824741295, -0.3562837240179034, -0.26141745468247135, -0.9073475518974, 1.0896371306247425, -0.6616643531463254, 0.5722458689652579, -0.8313290553746809, 0.29982964656395444, -0.9197056792203707, 0.6717312886789673, 1.5844238824060775, -0.7876465680581021, -0.4738758484677845, -0.871536479421333, -0.31311431117502564, 1.7531835381482068, 0.43587426551237973, 0.06412269191195444, -0.29124567696238424, -1.2413497105369569, -0.7780671143521123, 1.0158930189289332, 0.5466065794352911, 1.1465532746466127, -1.0206728921955621, -0.9494512911006985, -0.6902649812753294, 0.5313131533847143, -0.04240177364254714, -2.3740848350299255, 0.2522928919460322, 1.9708824633105788, -1.658608899742219, -0.33070281146174224, -0.12919786513505724, -0.7981067971584525, -0.194946756362876, 0.6578677898376266, 1.608256030240625, -0.3006007333356205], [2.1790646501726836, 0.8596873908468484, 0.23682398426448698, 2.0831698573998194, -1.5522587869673337, -0.9773114099269485, -1.2200752036046418, -0.8922486973166854, -1.0959237359356349, -1.0054145976330684, 1.2046913632181946, -0.7541488106669675, 1.4112607403975912, -1.5485776610138215, 0.13668294050683483, 0.4553762795306025, 0.840635131775018, 0.5956788972547944, -0.11602271370690323, 0.8412663217724097, 1.651761563214675, 1.127854042366661, -0.7559481102725282, -0.41359907002452895, 0.733650355008764, -0.6132969053041395, -0.5502723918514373, 0.22945870121685205, 0.8264018667720384, 2.0800040540302467, 0.34014858317105007, 1.3167262550229597, 0.37896269917042014, 0.6647553528649188, -0.7454936286627676, 1.2020484768123094, -0.5561156540386263, -2.199492378969148, 0.7818716598730506, 0.397677614193663, -1.0810754026740415, -1.088886808201512, -1.8656462007832697, -0.9497249059669849, -0.7211668800798964, -0.6117081027006899, -0.05801034020736379, -0.9669593523470825, -0.1819345957752926, 0.3014823751153907, -0.5522587042445395, -1.8236478072940834, 0.04565256095348446, 0.3666084137700941, -0.6098671230180204, -0.01699453944342993, 2.2949274482824693, 0.9689091482584108, 1.2836682310173035, 0.27597789561250863], [-0.49466903654384947, 0.4573647467231179, 0.13718056141790144, -0.7585773082842172, -0.2816835821295254, -1.4917250284071062, 0.06532303684588005, 0.3341722504379172, -0.9306146082355486, 1.3968983558661878, -0.29567592152625716, -0.9987817830071622, -1.3151590279060887, 0.4568222974071373, -0.5838077624497462, 1.9204928321393568, 0.8180775424147997, 1.1236464586641937, -0.5781777838795338, -0.03955577973786802, -0.007582210973335794, 0.15225153597693916, -1.1912144494345873, 0.2595282588008259, 0.29835562245415465, -1.4477732495578628, 1.005184757125426, 0.26916723191356895, -0.7691039748416967, 2.0099052269173248, -0.33391495643395813, 0.5838686240339178, -1.790185561627536, 1.655232645839862, -0.021449989903837046, -3.0223561067297955, 0.2741637668560427, -1.2609747273759966, -1.3770774280049698, 0.9490673761464636, -0.5615075121148195, -0.3124499230151459, -0.5875271201614134, 0.907152338176853, 1.8989905287612667, -0.17903852486239902, 0.8625960286328346, -0.4139648707279045, -0.19438560913990516, -0.2364461556895555, 0.9036659055760249, -1.7213202895561994, 0.949906311730305, 0.006871917386663066, -0.5649316329143232, -0.09918319750604859, -0.9120096954180646, -0.38039362594835296, -0.440111956140238, -0.5243622949503636], [1.9755184516280688, 0.7660519429963516, -0.4686835030726786, -0.66081740252811, -0.8286457782931773, -0.9478243877929643, -1.1926467008452448, -1.2240742361915726, -0.007498865287001797, 0.5934694885394696, 0.5510576193955288, -1.3628767674678017, -0.4861630338674892, -0.6564184791259492, 0.8360711712772072, 0.5183832131371042, 1.2697931514271277, -0.5420206333475498, -0.4072533027701765, 0.6764462944612091, 0.18090376272435896, 0.1466448663309972, -0.31138001668795057, -0.6991301747853028, 0.28729736811233925, -1.0991040410967197, -0.8654463265698823, -0.7827979776365672, -0.7675352388913289, 0.6207529961813292, -0.3634530048073475, -0.16747119864117727, -1.5122303722053339, -0.9136096599823269, 0.6016595674953282, -0.31156007563544175, -1.2270049745560463, 0.3420722699332645, -1.1240132578435538, 1.003914694983703, -0.8866124384994689, 0.763704339163834, 0.6418413091421676, 2.132981029433576, 0.624091901346277, -0.19109835626494037, 0.9012264537417908, 1.5152540842856348, 0.8301037596103205, 0.9185568823381909, -1.9786320888680713, 0.12296459026677602, 0.7104142201113872, -1.8629586857111164, 0.4634535114448415, 0.6498354058088517, 0.5423858070922914, 1.8282952730227449, 1.1936035015805362, -0.7462300076486085], [-0.48514941026618774, 0.6619743313559425, 0.4858300464139795, -0.04477506742943852, -1.017124602570249, 0.26101704937697423, 1.7746203201922814, -0.2290746700367815, 0.0878790815603985, 0.13043072166868533, -0.6134829557879937, -0.026559451771202232, -0.11083230406097967, 0.23261622857850323, 0.3743443940529362, 1.886370763668197, 0.06104375311312343, 0.05324766432896405, 0.6390916039363247, -0.385412619770785, -1.0692233280302834, -1.0870389990326703, 2.666497387595081, 1.3293363088772463, 0.38189034357215357, 1.0199377550143007, -2.2027904349241716, 0.614080392329653, -0.5591899110948939, 0.6733571626535918, -0.807671981689159, -0.24202098376641465, 0.3743181163641142, 0.3056889934873272, 0.31944185975041567, -0.9039011128127011, -0.05127379571822256, 0.2411613065278086, 0.07503712655527282, 0.6167297767518581, -0.3125391356201574, -0.630888848440252, 0.5332966873515343, -1.5105921411520993, -0.8448192433720545, 0.8331051647733174, 0.958737000903003, -0.9647449602014591, 0.07243529989688084, 1.46649609283695, 0.3749893310536807, -0.6842739880378287, -0.4113125877797785, -1.0131854226047463, -1.1778011223383715, 0.9976614175945527, 0.7967119785672604, 1.4797312097802315, -1.441762021241525, 0.6440173761202971], [-0.21196360427457256, -0.24383548304904445, 0.17488655566561045, -0.20685777755954887, -0.147052479685391, 0.2780845657325664, 0.43029998008634096, -3.5328958824740413, -0.22353341115035968, -0.9255132669598867, -0.9595820746985227, 0.7857133763388551, -0.3122009043097495, -0.6685317383419653, -0.4003486545651767, 0.49388310052913115, -0.1742882664270428, -1.8183618582644367, 0.1876733996299823, 1.7462808773083258, -0.7676220896339535, -0.1981896663714584, -1.2754732667450523, 0.8628289520920996, 0.8122889885652858, 1.076244259545713, 0.21443791728114978, -0.37703017737453165, -0.15880101831170298, 0.8170751246144347, -1.554214304612277, -0.7637011894891685, 0.7812738615634468, -0.8791255008971494, 0.2621911929265896, -0.305963047468882, 1.94948579891444, 0.27174597024366776, -0.026352615691579564, -0.7081460679120373, 1.3141531547538152, -0.1296856937288041, 0.5628046811881324, 0.3933294538198272, -0.7762976923545123, -0.9566895895784834, -2.1387726787769084, 1.1325349452637117, 1.2939820206857775, -0.21789196383184214, 0.5772047879259923, 0.41269233260219285, 1.140515636553148, 0.28713655165234275, -0.38351531587067, -0.710430340131549, -0.528315270295397, -0.14531602873575294, 0.16465525124012043, 0.3788528194063646], [-0.9300168543910852, -0.718340388583013, -0.7508810017806336, 0.7565766134074529, -2.0826848105499582, 0.22813823009921153, -0.7780121795837066, -0.25776610545604794, -0.4076417673666974, -0.6306557031848341, -0.10853200079914047, -0.4937467515859072, -1.6781141872709353, 0.1938945939028306, -0.07627236741254582, 1.4145948637630597, 0.8171782680272693, -1.8031147085549761, -0.13146852574459542, -1.0115955806773864, 0.9462834127263734, 0.7093289226680803, 0.2566795583653165, 1.768817605544786, -1.1368080393043891, -0.6023364927427022, 0.8499832706170495, -1.4927157106496265, -1.0265046710632584, 0.44596253157643717, -0.517253076204107, -0.4362400327812077, 0.09711148371022826, 0.07454489698577678, -1.378857883488302, 1.7085098651859116, 1.7543783619597524, -0.10373052407725396, -0.22631935003148507, 0.6586796470471494, -0.15853150772038957, -0.9532563367691642, -1.2250833111673687, -1.3222662523052395, 0.03816271380874978, -0.10204944351425076, 0.9246489358447996, -0.46506168954719773, -0.5522048638538676, -0.2721875203709188, -1.5876328351595905, 1.9919713750093448, -1.8054232265265888, -1.5510993138159272, -0.004360035453991791, -0.9185437674566448, 0.8260185372475639, -0.24677075100636284, 0.681939469021536, 0.6516735682912123], [0.9724365247524606, -1.475013583745797, -1.5834341498607363, -1.728846931404119, -1.1639621126481263, 0.8498245701115137, 0.8409924931167545, 0.04405487831182662, -1.5253375010820034, 0.6955732535740121, 1.292039629008273, 0.17414440811867865, 0.43405853621067303, -0.055195097212096485, -0.716714030010176, 1.524468377951479, 0.397570316042107, -0.8875635844602076, 0.9724623544611738, -0.08226830474208978, -0.09864299566054198, 0.0030366025732619446, -1.6108994734163984, 0.7750603638877842, 1.4871985732000896, 0.25166168916952736, 1.1538874180076624, 0.5016406930389256, -0.7992451642085567, 1.0838741832401906, 0.11647616209765137, -0.9577447955136378, 2.154275880581896, 0.6637779061566083, -1.6407352344378028, -0.591159198744774, -0.5308278446499124, -0.18419475840410435, -0.39694253794632467, 0.7257807522061541, -0.44777500024377764, -1.5336817433899226, 0.17040467357430364, -0.34299341546351475, 0.0386489622793187, 0.4074488570213249, 0.3114247375075706, -0.004440936249790337, -1.373735362903614, -0.7191142884141108, 0.9192318263309714, -0.5795656074669007, -0.09626726262817563, -1.2505652842202608, 2.5415771477921574, 1.0019449099295805, -0.523166372261092, -0.6289737515337871, -1.3308848117585432, -2.2238505646970705]], [[-0.8188443450297304, -0.24375377710411253, 0.07853789063952606, 0.4785449927201055, 1.0478385374102386, -0.5511632635623005, -0.32705435793476856, 0.26654468976853934, -0.34961598039343034, -0.5899391534697664, -0.782712579138806, -0.7440828681979303, 0.7559330251503817, 0.7532280130533908, 0.9233394493933185, -0.11495805864104079, 0.9005594607118751, 1.7233216481848175, 2.261567318078957, 3.132335631378052, 1.6781404867402938, -0.6082833543683659, -0.3577254708592328, 1.3014769605886676, -0.08710737136263398, -1.1398495433072584, -0.041858815563861666, -0.37648378208326577, -0.263077437576406, -0.06785815902944195, -0.16818389326300245, -1.5166879677886924, 1.2299450075892266, 0.03523713520998521, 0.2545627457120269, -1.7275350781629115, 0.9696400051594296, -0.08932960786970082, -0.7850668356009606, 0.18629814258449537], [0.6166342059452283, 1.1724807125289411, -0.08891655439033053, -1.3184156556944235, 0.23768268734206585, -0.8722587366059645, 0.2649788458528283, 0.02856859185808651, -0.21828838645429333, -1.0430976700896553, -0.8054547353471957, -0.10301563322990488, -1.063022373431093, -0.6468771326056278, 0.24893315416591325, -0.7120903791293689, 0.620211385223855, -0.777830232840888, 0.36464511803181615, -1.2020060728798059, -1.4294135803322523, -0.9547191982180964, 0.13206388037479339, 0.00013488942400140258, 0.9159413500858553, 0.8764095796228006, 0.5216821643801698, 0.3808133326287964, 0.6543895134525808, 0.642811447392198, 0.3036169751368562, 0.24675165470162588, 0.5628802832429726, 1.2404119276997345, 0.7643498793540178, -2.925469096303149, -0.4215211967090808, -1.0794987572752572, 0.07036994587377851, -1.5365278640269902], [-0.15642839401147066, 0.5929415136371559, -0.5771271430618262, 0.3634239469479324, 0.6524208107250739, -0.9886928011769357, -1.3068704738068537, -0.6585552759320761, -0.3707208287443273, -0.02534187392420772, 1.9921539641384411, -0.1680935664959414, -0.22364518556997104, -1.0971260526978825, 0.08028394968493721, 0.3067022599310182, 0.770405508892879, 1.5580235994115559, -0.9737382625147779, -1.085522138841901, 0.14227752994300635, 0.06730214003297193, 0.49795038965847555, -1.9306360535237206, 0.06164146322937159, 0.10394868585026568, -0.005008278555040496, -0.02886649306642557, 1.4338005827199838, -1.4080987563831948, 0.3442867518487163, -0.9112762527578664, -0.7055148602799588, -0.9215208543397317, 0.0793334076178132, -1.157373597718874, -1.2345147286713372, -1.8493864845531276, -1.293184415022168, 1.2954437214046193], [-1.5721893826382387, -1.6009469877597347, 1.0101187655930284, 1.023716547791782, -0.4084482612078646, 1.277841876658861, 0.2975881341635202, -0.9364759456698155, 0.6554118920962065, -0.3100531307941332, 0.49421488529975127, -0.1837790251152344, 0.5325358619213096, -2.843363644715254, -0.1297415440142597, -1.2965215387673619, 0.28793727784683437, -0.3451043004047842, 2.0429267361363728, 0.4678622958553237, 0.4508939401359897, -0.8207221616697773, 1.314119648241437, -0.18212889461428877, -1.3577422115323574, 1.0442510700029746, -0.7391724828538581, -0.591936278266432, -1.0705904329552833, 1.9795625012870197, -0.3256903096597097, 0.20091241500169316, 1.0504738171379786, -1.174055913428646, 1.8313633496117128, 0.3398728881062658, 0.3323710342917302, 0.7020179563764479, 0.07409277458227391, 0.6346223931001226], [-0.47306165218258234, -0.46284723047628235, -0.6105107672605397, 1.1469908340909918, 0.7690040605037243, -0.38149762961623623, -1.3419357173506412, 0.9811460715315734, 0.7161862333539043, -1.2619499911535572, -1.3555379563267402, -0.46512838955222247, -0.24467364966158864, -1.373368980951034, -1.52286712769615, 1.5186378904637308, 0.7987729743135336, 0.37082368487773687, -0.37540891992709013, 1.8913716857277239, 1.2196035317670135, -0.16072032686383897, 1.5905384697812275, -1.6449723586513958, -0.7007197572371386, 0.7546069971600192, -2.1638671027505016, -1.9218262767383185, -1.5270107478990953, -0.9859341491474842, -1.1732703826069089, -1.1317080279442027, -0.5415520083026786, 1.2332890182900274, -1.0026265904311893, -0.13468526940763453, -0.2767324356754953, -0.02121145833101135, 0.5259040847233447, 1.4981700197954337], [0.5970486735274223, -1.355917994332908, 0.4775686720119635, 1.8133772414399774, -1.203859535004263, 0.2206238267457315, 0.890158255543904, 0.7870517149689192, -0.15757514387567062, -1.9537339262172406, -0.13508143166750633, 0.8071458614783218, -1.1372757448755606, 0.07498643498427149, 1.6554621559592002, -1.3641692320357663, 0.8152547081739638, 0.7217519623274692, -0.6680071007431223, 0.638662682779453, 0.12237454502057485, 0.04117944685391045, 0.05791876869061353, -0.5246284888284083, -0.3183601704766629, 0.3685330278107764, -0.17590348240787068, 0.21157092820457074, 1.3659341307605786, 0.9598653205384126, -0.19752382014286723, 1.027862288542378, 0.9715617785963075, -1.9420152766884098, 1.511467398452615, -0.5353573961066231, 2.8218219184407536, -0.19255459635119204, 1.8138394559573234, -0.2343430278244639], [1.2474066400631763, -0.27891105465332616, 1.2787557409266643, -1.0954132627733806, -0.5600074030783319, 0.00970575811983223, 0.7691847646293914, -0.31262281250972945, 0.2352347442366294, 2.033819547315096, 0.7797946429335048, 0.4613363698929278, -0.00028459276104923184, 0.3684111875239436, 0.509003294447029, 2.1356241746253173, -1.7203773986206625, -0.4215107683176755, 0.5987922688532161, 1.4284780420530772, 0.1781534055704863, 2.216097240879386, 0.36320692872047966, 0.13431180764175266, -2.064469564690304, -1.3524619172954466, -0.4076589298694325, -0.6217949509831522, 0.4977240853771764, -0.7122693976081031, 0.7202132392874353, 0.27027157538935825, -2.8980531296224603, 0.519598542622538, -1.0567695644307962, -1.5388945796324285, -0.7322407311444327, -0.05334437126684628, -0.2917918630838443, 0.36035380575597414], [-0.199010043590146, 0.5401208519660277, 1.210282984535819, 1.2101645409508932, 1.5924776435129944, -0.6529378124547153, -0.19830562045114092, -1.3106553886181398, -1.6312827066066964, -0.16899282645297384, 0.8764071315045093, -0.584838447768384, -0.4037913086413471, -0.3326159370876124, 0.9033806898697182, 1.0974982913930669, -0.43869941601640916, -0.7564685333641511, -2.4112561830705754, -0.029810489036648912, 1.5897173994454261, -0.552617443605409, 0.7841698129496822, 0.5295848021828775, 1.561963495816355, -0.9351143741395644, -1.5720347905548584, -0.5423111914985799, 0.199949472735655, 0.3350964184786834, -0.1920917217050862, -1.1491941445371854, -0.6213965543431523, -0.7720536000218325, -0.9386252738750603, 0.5171605489983302, 0.8270679829364102, 1.3644511432320192, 0.326229349758218, -1.5637519046965176], [0.1912628734414045, -1.6053890042709327, -1.9326574491068589, -1.2829643121678351, -2.1253702211512846, 1.3974895717995157, -0.35704132829620816, -0.1163815687813357, 2.412798092997896, -0.8281104590950149, 0.8995137817438998, 0.5498533255114179, 0.41122916458349157, -0.5702175698813029, -0.8968016531339679, -0.167186393672803, -1.236339175964464, 0.28569170218549944, -1.7515025568207727, 0.5415940471032624, -0.27970365552598486, 1.7080727271188956, -0.03255711405443591, -0.9196696486196329, -2.5131559091361386, -1.3185711623704994, -1.950825535751261, 0.33193985567466733, 1.2358289987248003, -0.0518388073586067, -0.5012179830783036, -1.8346348168106477, 0.01354150372950232, -0.37112541589760617, -0.45906090508605213, -0.8873298119588312, 1.017984749232033, -0.15221821467376498, 0.2854532308675001, -1.5609522800938977], [-0.2165377521867968, 0.07522083290506944, -1.1529035164215116, -0.1576849445388735, -1.416392744036065, 0.45049150591258164, 1.2158949928704248, 1.3265897720262376, -0.4891824886792598, -0.0022218276215977026, -0.9140745904110125, -0.3193831936963704, 0.35299540848055266, 0.13085804993769978, -0.0595596197609261, 0.674402253348149, 1.1428663080446175, -0.06608159615470373, 0.6659906405628016, -0.28362643359986256, 0.2584976494381134, 1.0858657381578944, -0.6554280837071713, -0.7610346882106697, 0.9449470574035591, -2.3745220610593982, 1.5562146927846123, -0.8157435215235337, 0.9616869630017858, -0.2641743610450176, -0.11671152043948575, 1.1093698846225106, -0.6347062670104647, -1.490045737227693, 0.8478352399440897, 1.1074438133558173, 1.8463857814930342, -2.314431777491631, 0.5947587644288598, 1.284797519045588], [-1.063544446104678, 0.518451338432451, -0.923903157314977, 0.8724460385742717, -0.0762297463643031, 0.12804158242976482, 1.0050860658975096, -0.14124359361092723, 0.3437063704325495, 0.8698121217019382, 0.5862430133906121, -0.8903339022141978, -0.5072395453791583, 1.1378321940875211, -1.0001888514056254, -0.5815411681882093, 0.9925085333190602, 1.5868845620124985, -0.3005470843507717, 0.11358461352311301, -0.36683286634792717, 0.18375503810172497, 0.8763750330008753, -0.7982574008716428, -0.030184215135879072, -0.5604663607270435, -0.4407958312639864, 0.027286594288357755, 0.026961016142712405, 1.2683724916255792, -0.8190534827333967, -0.006394538808975717, -0.9335128873232766, 2.4545339322356345, -0.631870864117208, -0.29569269985145674, -2.090460929157709, -0.9608883319150913, 0.4899722039496846, 0.47775523150445004], [1.309391183231491, -0.3961575857765724, 0.017066789160730064, 0.6801898856422923, 0.062541909980078, -2.090841740698002, -0.5398264878873341, 0.1507781055827524, -0.9088282407985578, 0.5234287840935717, 0.7166322645108704, 0.49238512005655827, 0.3038380682352035, 0.29502379065919954, 0.3283628038999693, -0.025455826030171293, -0.5394888967128677, 0.6133019843853483, -0.6618448401986902, -0.8365763327917691, -0.8489287478687096, 0.6895262264761592, 0.9215801098977278, 2.8535677633049406, -0.940230219124641, -0.11311037989050757, 0.028687852854350368, -1.2504068144517346, 0.15448895538954738, 0.38313061367694506, 0.3286877435907603, 0.7194718795098214, 0.9261265586243302, -0.6675393655670663, -0.6707466359976311, -0.5636959178101935, -1.116370903800796, 0.7539162976702233, 0.03576383045816539, -0.9183677722054044], [-0.5734978747205793, -1.0622623576825827, -0.9870108038935487, -0.5511395955423464, -0.4931912175961999, -0.10900909357390737, -0.6923154742810125, -1.6639736643595369, -0.3755415717911856, 0.4667579687787354, 2.48522709884963, -1.2475636463096154, -0.31321397070292517, 0.6607407526188851, -0.09537110733065615, 2.342781545624635, -1.6027207252568674, -1.3026544472766652, 1.1564185071998494, 0.08989972823360529, 0.4049848182097381, 0.7792610200788008, 0.9844317649550278, -0.3281939588276286, -1.2500722368535293, -0.941543924605677, -0.3955192738291226, 0.6602091819533115, 1.3497596351354633, -0.3637218585999488, 1.1551635227421537, -0.37675707305748307, 1.2849224371225885, -1.2274505480155773, -0.8535407820394103, -1.5445662576657648, 0.36481683545906324, 0.6898500298101402, 1.3543645130180995, 1.159759670148121], [0.5152670135368475, 0.501358736308854, 0.5470227632267892, -0.06616563296991028, -1.3201069769208253, 0.8368191541521455, 0.6700588498912096, -1.8388836778120636, -0.15210779559430718, -1.0929442985524722, 1.8059584833114912, 0.64111916705179, -1.1794967981640994, 1.0727240386089911, 0.5986937926020971, -1.1148439393423661, 0.06675770112367667, -1.0493263753902913, -0.5584200402170469, -0.8834310543932775, 0.16158862298671975, 0.9915280431656435, -1.2577534521890015, 2.0800103233089167, -2.5910930009979127, 2.197786068133818, 1.1718949729204593, -0.5793528533146505, -0.4656650725311025, -0.6370963431154594, 0.061479706765614456, 2.2722015039985157, -2.131285729218266, -0.03503361396846705, -1.7628218414254913, 0.3678883631384918, -0.9369830104382452, -0.3618773043269664, 0.5686894202843451, -0.862467685748547], [-0.7466377763101166, 1.0974503139489937, -0.02351434754663446, -0.2385211855147725, 0.6963675472786219, 0.2003534455889223, 0.23395745229541526, -0.33363096095677247, -1.0658071508097282, 0.17677558085149062, 0.9403622871431767, 0.46497878674024223, -0.3828975817014631, 0.20090219550601573, -0.7405641145291038, -1.189964868453591, 0.22914795328290793, -2.4075800023003353, -0.9932643978881808, 0.34459931424137, -0.07337742922348633, -2.0715560910744855, -0.8658695334327003, -0.062381677779594316, -0.49181863878558035, 1.0907843094126897, -1.6848957620404068, -0.3956890949868153, -0.6474421589162045, 0.6186182003858728, -0.4044490905108635, -0.8857799883988526, -1.5331095075700771, -0.05314993696053982, -0.804936786700913, -0.9262425384598804, 0.5238175821336002, 0.4288001958810758, -0.829236021675919, 1.6429154604724743], [0.8185517494786188, 0.4229832935139167, 0.63732622929387, -0.7980570974157627, 0.38239674401398244, 0.6136246110930254, 1.9849534329614331, -0.913409611806201, 0.020105296711973704, -1.1607128375421336, -1.2439735110464087, 0.12270661010201009, 0.9959823714696577, -0.1147117039500527, -0.2458264852202722, 0.40717497210161974, -0.3738712341988904, 1.4027808441500842, 1.0643710190545315, 1.5135600775237246, -0.3712994400614391, 0.043398449675792414, -0.3382776096817793, 0.985173267050752, 3.5682994829478636, 0.46140150479588926, -0.13070399137607902, 0.7232785255603652, -0.4542952041619834, 1.0619709654852225, -1.7064032074945925, 0.5084929168753966, -0.03875259457050903, -2.3475921576373295, 1.1899728149310977, 1.3192349025525638, 0.5043618406158799, 1.2666737668314456, -1.1123337812364684, 0.2715987889699779], [0.846445065662829, 1.2394642998908139, -0.35196503008616575, 0.9349159966208777, -0.5870278885730823, -0.9879860083616637, -1.2069484664315793, -1.1240778159135931, 1.088548072174943, -0.389018663788027, -0.9937078435552725, 1.9035893306036438, 0.4764796487210105, 0.9481158884879775, 1.05880501589754, 0.8016721726693836, -1.991662353993517, -0.437054461882857, -1.3074345022806009, 0.14653956830068227, 0.27936978600901324, 1.6229512317586006, 0.11383097633922633, 1.4280589811751456, 0.07759304813030224, -1.1291461369928617, 0.6775496580940742, 0.1712240766088683, -1.019409499538608, -0.07139034672676904, 0.5966910241649839, -1.0195281103670342, 0.45782736106530586, 0.5774775135553843, -0.8092220498422916, 0.24452157521657664, -0.3897420265159096, 0.04780949167498783, 0.16305293051357755, 0.8520877705793347], [0.6436773003731973, 0.001430067917677489, 0.639005686060221, 0.3770351834150043, 0.018372449637827838, -2.2191117804709912, 0.11889118666451408, -0.813358047455137, 1.2853472852137147, 1.077723774312713, -0.31302452264865244, -0.3054242464137459, -2.0905982336370768, -0.23016437161597253, 0.42137360870781576, -0.35807093045524857, -0.41518413383695363, -0.35461800241255936, -1.3104931686640504, -0.7441561609600198, 1.5852658837625195, -0.2830231666423816, -2.0999580041992867, 0.5150766737283166, -0.296650732093274, -0.8653377272776764, -0.6335668166788114, -1.2749077181672823, 0.40602004907239214, -0.7561822300289214, 0.08798588724100127, -0.6997545344714042, -0.6622497416499328, 0.1922936096962095, -0.345219017563907, -1.1689251290708047, -1.8726171155891638, -0.8157959726866001, 0.8179962604778159, 1.043553948149441], [-1.1005785888730129, -0.7037456414420616, 1.1340647953627485, 1.3242977059501424, -0.6687861369754802, -2.5408150287658, 1.132977544126632, 0.19730928827829186, 0.3094228979361248, 1.4382468130104111, -0.36918522637396156, 0.5653745697311677, 0.7495180424545106, 1.135118961476934, -0.25837316209930655, -0.3345774036000189, 0.6733300986849646, 1.0996625946621092, -1.1134491010873393, -0.22328868869068158, 0.7629638729637818, -2.2055238089352343, -0.9402650047065669, 0.801743457607266, -1.4520066406253127, -1.3078132723686786, 0.9882012768879391, 0.4199705117326325, -2.503509353033564, -0.37731259094898567, -1.0646144049257784, -0.02614797982154159, -3.3146114643077182, 0.5895067674503679, -0.5294971923629249, -1.506938135492042, 0.013533517101271418, 0.020208477130364357, -0.20460047265727493, -0.08241624054240917], [0.7659073913012279, -0.7103000184344636, -0.008297677175651469, -1.0608632813353864, -0.5845860504098711, -0.6451871600628057, 0.8501283959035072, 0.4599399669908974, -0.6208606347883168, -0.19438987084310905, -1.8353618511743417, 0.06370546543299341, 0.6659188130129781, -0.6317672543169267, -1.4833717642425914, -0.7707583508361199, 0.33545103741102605, 0.84238301622729, -0.14548538929556415, -0.701474941506465, 1.347895884358438, 0.2672599216284519, -1.4646936668880122, -1.0664836525619454, -0.15637280133817136, -1.5471694815201575, -0.1564360566618571, 0.43445875508349346, -1.6973946600034768, -0.6389761508574505, -0.965539909048443, 1.1115613067241905, -0.06135730181678347, -0.2944946444891953, -0.7604838648655937, -0.5938537375520369, 0.4040470354942109, 0.210944297193722, 1.2418507598468354, 0.5541896884669419]], [[0.11050625554076589, 1.9296559123115553, -0.6453569683857004, 0.010196418976939937, -1.1310672032394382, -0.19883691321035377, -0.017256329377919634, 0.3628869380006795, 0.05338827556338787, 0.1029852836769642, -0.07220644253537907, -0.12171577413273167, -0.756760945144835, 0.08928857955136046, 0.22784287527906624, 0.029730455000570668, -0.016688720254050188, 0.5305317460392738, -0.04149875471217214, -1.0108717445387778]]], "ep": 380}