{"num_layers": 4, "sizes": [60, 40, 20, 1], "biases": [[[1.3051222752077345], [-0.23243150349626124], [0.7282817638144644], [1.1374315432988578], [-0.20414411372227584], [1.4163801799144988], [0.6750492212304956], [-0.7322922013259463], [0.3507519780989069], [-0.8187964291302483], [0.6685836579547061], [-0.6220231396521284], [1.052193322534051], [0.03932108328377506], [1.2281001950238652], [-1.399960153501831], [-0.48948828568677505], [0.30668641244403666], [0.38478329995193195], [1.195835564086385], [0.8769291106817722], [0.4894405873296788], [0.6136314918314599], [-0.4806684701820184], [1.928754604477674], [1.3241841384768087], [0.03336496722242659], [1.1220588233186082], [0.9798673952056217], [-0.1385318705053771], [-0.5270600329255561], [1.1914388434336876], [0.660230445575034], [1.2349079665293303], [1.8834536418829675], [-0.01682917732535599], [1.6014265660993168], [-0.7725055193709743], [2.106670779430443], [-2.4075752176876413]], [[-1.8347200678433493], [0.46948907380271016], [0.6775664747143332], [-1.7877236930353433], [0.33778160792642437], [-1.5202611110500057], [0.74277188264089], [-0.4862808730095389], [0.7894078395376505], [-0.8301533750158911], [-0.2802034893773431], [-0.9847135888507584], [0.736807361337863], [1.529199164409945], [-0.5601902944077629], [-0.2936888521289598], [0.15085152782716654], [-0.029762549771416038], [0.035167507578252495], [0.49689785257702207]], [[-0.7924880616192257]]], "weights": [[[-1.3417124740205426, 1.6061887784383955, -1.9980797460550968, -0.5802307617701281, -0.9468495265422542, -1.9113336184258718, -1.293987430926174, -0.580070155295029, 0.9117845009830198, 2.439405691140976, 1.1754102800927837, 1.8584796444354095, 0.09851607533958502, 1.0928125668608182, 0.3792723841988866, -0.8873883253829662, -0.8256028774679426, -0.09252135545449627, -1.1982401643782254, -1.4036207226205466, -0.7996897473104533, -2.268879459313034, -0.19123697363101494, 0.6291147228012196, 1.6357514725604236, 0.9498110007370454, 1.927041795928103, -1.5161048993958184, 0.688119267524713, 0.5041301915647224, -1.5690496717768845, -1.2091797402301003, 0.9928940006892141, -1.4639463061506672, 0.279282113233801, 0.6723058006688665, 0.731155419359674, 1.0434362343773498, 0.14332331414910304, -1.0446251916360512, -0.26398108856909897, -0.24610103043437814, 1.5813184367106825, 0.11902443353742856, 0.9389185869070701, 1.440994510563059, -1.063867615946664, 1.3922326252758515, 0.08990537287028252, 0.564367988816762, 0.04337282631109556, -1.1998496730185237, 0.01763958503175426, -0.7762282280382193, 1.8728870527493267, -0.6705536204025089, 0.70728852734984, -1.2319584330354705, 1.9461438876198023, -0.833308881163453], [0.21073523936853877, -0.1885324570872962, 1.1456348051848995, -1.3848416257798106, -0.7268655678682984, 0.7689209732654428, 0.174106419358454, -0.44329985433792296, 0.7207230928370458, -0.29456458969321186, 0.8405513105128533, -1.4451390220197657, -0.46071074402832835, -0.10821812058049801, -0.6674795945164061, 0.7353321461996577, 0.7397885460682301, -0.12605380264419952, 0.23256850829843406, 2.2000741731022937, 1.5675778955310093, 0.3975872543529826, 1.9217674379744742, 0.779256321009279, 1.6986886574185196, 0.5722170452079762, -0.08146803074181069, 0.13024582718229769, -0.8223306696858417, 0.593538483212312, -1.802912869961424, 0.4835225292989709, -1.448936676194078, -0.5295583037494077, -0.5494970381751421, 0.5875306085302346, 0.49242940097317345, -1.1519323175131897, 1.7594001266044452, -0.54132218391714, 0.07238516142641264, -0.3048182654558169, -0.7116708492846966, -0.9136483623571962, 0.28479286763896666, -1.1725520639443665, 0.3553562310079641, 0.34177507950812597, 0.9082076181929554, 0.03657486899032195, 1.4846031651460974, -0.5315567559322996, 0.3426622789236756, 0.6112979033836856, 0.005351155279393213, -1.2501346650230445, -1.2180642969190276, -2.0547470068675766, 0.14762562367050422, 0.12064152903792376], [0.12533874264348183, -1.296895385469512, 0.222168613885181, -0.5794264257608727, -0.8751949604977378, 0.17021110320995306, 0.11702054664952936, 1.3559574095124982, 0.856304217675002, -0.01348939876352988, 0.07219286200710251, -1.7449433548619264, 0.7419384097270819, 0.18833795242012918, 0.19135993554903122, 0.6904967307384724, -1.0219850054472326, 0.11216839166843967, -0.32892877771315565, 0.2655570408233022, -0.9645791435898732, -0.4943671786556345, 0.3248653808436062, 0.5797521941783313, -0.5112552057921209, 0.0524137904496662, 1.291364501562584, 1.5387030335198453, 1.3743416115112608, -1.1640128086690016, -0.24910988661969258, -0.8316131985967127, -0.009350649325339017, 0.36507768983911487, -0.02787199585960139, -0.8791402204188558, 0.38420285392971276, -0.42935958343493336, -2.209866959687991, 1.6198953032841195, 0.8898109355843621, -0.9902419304625317, -0.27320138904377433, -0.7967849866063531, -0.1372760797592838, -1.411732633399241, -1.6980865349822636, 1.8207782803118604, 0.03713152957773825, -0.8927262148892887, 0.4363979194979582, -1.0387607051335455, -1.5328152561160626, -1.7273991365808514, -1.0417788358103728, 0.27405997482021277, -1.295901391194147, 1.2028908964627973, 0.7199831048051643, -0.1179393329298623], [-0.43983783651613084, 2.4531038973675012, 1.0625500790530074, 1.2561732730395085, -1.200728601042544, 0.4781950361941059, 0.756555403329013, 0.9845250004283405, 1.280693312996247, 1.8662923472460775, 0.032093132988222126, -0.924360903025357, -0.3383317081715904, 0.03450221600977225, 1.052010277852801, -1.488836196511466, -0.8162604391345839, -1.3933980377957074, 1.5452665824558118, 0.6676750392978192, -0.8615903420339474, -1.2881916238482451, -0.5912263311349928, 0.0018820511707777886, 0.556860932153778, -0.09214887820509902, -2.056007784241729, -0.9742389755630761, 0.10536778889449731, -4.207998387456212, 0.7614606410955009, -1.2531881053047274, -1.7376063941502236, 1.280989940490133, 0.6120400820503338, -0.8567251091756573, 0.014318538602786153, -0.3953482553211898, -0.5080589578250598, -1.1937335895679284, -0.6183377878370958, -1.9578887414871684, -0.16002846045672517, -1.141045107963316, -1.160932317263726, 0.14091410951717923, -1.4485239333628839, 0.20488865137324855, 1.00205857438739, 1.4630243733892179, -1.0340332810523885, 1.2922668198604506, 0.7432509952911818, -0.013749326530419164, 0.4485726942530315, -1.3188930965941956, -0.7267939875872588, -0.9679845354916591, 0.527085490574977, -0.5893002701244078], [1.6304721325264222, -1.5577319721588483, -0.49942146442067037, -0.3189331461089652, -0.5726980581254781, 0.3725117692504407, 0.08628374719153956, 1.0932667704122754, 1.4517580100624796, 0.2968706070793059, -1.0012832712961106, 1.5642257792895775, -0.08786107762122325, -1.4334245454487904, -0.1659382881329431, -0.5160343450990089, 0.6618396705533994, 0.6397001912341047, -0.43585984482903506, -0.7493896959614479, -0.02358911756418999, -1.4699007407931308, 2.195222627228955, -0.2732324906291444, 0.20647134100960438, -0.10841687556728141, -1.1473055833070653, 1.0984556353411445, -0.634820125832338, -0.28525835595077276, 0.0042957881395053075, 0.6101455955594198, 0.0333689992525907, 1.4495255792248627, -0.0915619255093143, -1.0920800867465936, -2.059017493454618, -0.599695744646253, -0.8257533226759146, 1.1263950747612586, -0.07428180515754211, 0.6914064663244497, 0.2922556486138915, 0.29366978670859833, -2.4814175729519548, -0.9251761979485542, 0.5191128007184789, -0.8052320955098243, 0.9386538486875816, 0.05663664934413783, -0.8579428978569716, 1.1754973884657123, 0.873222783061461, 0.8433729269046354, -0.28725413610939593, -2.243654912758848, 0.9240268071516864, 0.21956340532479648, -0.5146023973848364, -0.08068683321008757], [-0.008628754507182184, -0.4381540967407109, -1.4216329152624256, -1.9739013894990114, 1.7054044480622073, 0.37425141091499264, -1.842337188188754, -1.2833631708778304, -0.7407819758570335, 0.3699458627122322, 0.8197684040467381, 0.6409568668598457, 0.5516028057126853, 0.3384601836331673, -0.8551441428912275, -0.10807933385736991, -0.6423003954532892, 0.04712257516638337, -1.1794583577613194, 1.7655917275244581, -0.12254661480595805, 1.525932898171951, 1.728627595395328, 0.9535074180120451, 0.13918631638552817, 0.35650790091865286, -0.5525555702797785, 0.4988520127251681, -0.5648395587887024, 1.4010220890780936, -0.11737829407183654, -1.7738336454574337, -1.4797937676157142, -1.9221227601927535, 1.031359075325034, 0.004843944969654982, -0.6216709247687822, 2.869512258406515, 2.61027716167999, 0.01359642186286832, 0.0368034333495223, -0.1771511445245345, 0.6290689839008806, 1.0902805013319907, -1.5909770645331405, -0.12385680084939404, 0.47434932201950075, 0.034716000239242116, 0.5423527550156056, 1.1476873563003485, -1.5487178210976167, 0.45337955767675736, 0.47548714428245165, -0.5290996923517155, -0.6790401365250135, -0.15010179396565268, -0.9542950703238213, -0.1498969058633708, -0.24612187771976152, 1.389962661127767], [-1.2975141858246277, -1.1518853542902676, 0.465861610346126, -0.3575947788681105, 1.367041691298502, 0.8662001674758169, -0.0813547845075628, 0.5323389936589259, -0.08907371159308389, 0.07526803216046304, -0.12838805392652936, 0.5339501822259611, -0.36273156871620854, -0.8980973677299544, -0.4548814960209006, 0.05233924583711006, -0.3588062733257538, 0.3632487756581354, -0.762089237038434, 0.5395488055561927, 0.07967243548196559, -0.5492718684422047, -0.4553284709195413, 0.2159340731281825, -0.7982006403194907, 1.5156792276802469, -0.7189513642016202, -1.2195076135691454, -0.642362104681064, -0.17255659742577825, 0.6386285429339548, -0.43125237778205694, 0.4522608956767601, 0.40578375871138883, -0.46564530809561355, 3.357661122901634, 0.7830055504238564, 0.8390379680445988, 0.5356561319659054, -0.3869187415499622, -0.49040225092967576, 0.611205245069124, 1.2912949944647103, 1.6916073736559993, -1.0684830975163027, 0.016368168912785287, 0.8446586722456992, 2.255699065140873, -0.18939499271925386, -2.321499156842937, -0.1739826144647929, 0.09311330519848783, 0.8535104053646472, 0.4417408537983426, 0.5153543574559567, -1.3756530487993228, -1.6088428477937602, -0.06394111594581663, 0.6574279899485722, 0.5299310224184766], [-1.7949340060982024, 1.4753636379619326, 1.754590854666214, -0.286324113460868, -1.68372850247864, -0.8322841929304209, -0.04671026403567357, -0.7336420533539579, 0.24885624461148928, 2.2272741178642534, -1.5026978493946528, 0.1267841393750077, 0.27858866842772, -0.21049718967744924, 1.0885874208626432, -0.230477996978722, 0.8227696218364575, -0.7772136219701644, -0.7569510407160053, -1.0289626449371911, 0.6184682788869362, -1.215023680147491, 0.5820591154079146, -0.4852268765642363, 0.04330104916759984, 0.8637763848129149, -0.6632468649024909, 0.7003642060782003, 0.8736509022676044, 1.3846912469920003, -0.46676274942552387, 0.6736106319566432, -0.3476422816659857, -0.12013938204587003, -0.2301634377049382, -0.4748073522510863, 0.24568532819646913, -0.25585010837805056, -1.2123763556885554, 0.45683754299044715, 0.019383457952399635, -0.24381946942315696, 1.2433724665338852, 0.5923768292742627, -1.1001115639482255, 1.5000697784502572, 1.802587352777399, -0.7163643705569968, 2.2641708216706022, -2.5023912345671144, -0.20375643772620783, -0.45475434431712003, -1.5748068062945124, -0.05118714841506604, 0.5715360579611507, -0.5288983742560339, 0.023366156217626444, -1.4279802376960673, -0.6164034190936838, -1.726729407179792], [-0.045432179406546376, -0.7774403372459611, 0.6436690260779503, -0.2875105700006549, -0.018446554244006708, 0.9918666978062189, 0.47383197445793745, -0.3185449298993646, -0.9888303924373935, 0.8746494139630829, 0.2548918995233385, -1.3714280304596744, -0.02431052068951175, 1.2632822360213136, -0.8380752632303916, -0.6900155579680063, -2.4045480559799577, -2.0523622698487154, 0.19721955311799305, -0.9185887763076421, 1.8055128276651158, 0.5262587855911022, 0.46655782824202824, 1.0489056851786702, 0.7051244438400641, 1.0554836940667989, -0.06550310082049679, -0.6799606878700546, -0.24205041072180603, 2.3318109540837724, -1.095973860879504, 0.10721053488675962, -1.7732353901511144, -1.6656557645300667, -0.8814415558585688, 1.306852312169909, 1.8978379905109302, 0.44447441718267494, 0.6672646669341245, 0.6841758520474376, 1.0793102494598736, -0.5071778314763203, 0.7779411093059782, -0.8185606501042202, 0.683316643023625, 2.2575008923606097, -0.19548280657426456, 1.0373510226319727, 1.5937857871174892, -1.0418161894548474, 2.6103795596817343, -0.9690285220993325, 1.2916297537736212, 0.6740071745241767, 0.41274544499142474, 1.5476151039504118, 0.6294291343664904, -0.7837530781915197, 0.03669040251990281, 1.4574902885590704], [-0.46326272660066603, -0.44923394100672054, -1.3058257170511625, 0.5402627217869675, -0.43481985536893897, -0.04655557150817324, -0.48827619548544077, 0.9000920299842479, 1.9970664431164376, -0.8757914078927418, -1.440146869281746, -2.0793914387468733, 0.5216946951283497, 0.2790591662355898, -0.33427640585398477, -0.20928118922460429, 0.07882700282107659, -0.8215347519750287, 0.18231763350480773, -0.7935390027633387, 0.6808792160959776, -0.9041748799725408, -0.49751509962065216, -1.5208905995920095, -0.6873494045356178, -2.381803898876523, -1.719597821135799, -0.22632358837881777, 0.1710409074519166, 1.5051228174825038, -1.1758405766162563, 0.9140448571440662, 0.0781956782984731, -0.7213673803642033, -0.3974434261772237, 1.2241317579229043, 0.5983491071247459, -0.42017560659302305, -0.4271371617318796, -0.6442290671215093, -0.1348166481904042, 0.3090119925485661, -0.2538857122494224, -2.0175499984571066, -1.4865899273601741, 0.979797176750034, -0.2911411613413593, -1.1924119530341508, 0.6347834575860397, -0.19924130700514908, 1.3037356298403444, 1.1267136205461494, -0.23310121666333808, -0.10753375098061224, 1.3633789775012515, 2.6594056122639156, 0.5337744772141518, 0.37170512732284067, -0.3383783190662044, -1.5231051233580628], [-0.32114309141724834, -0.2723856995130603, -0.008145326055729254, 0.7153661680722656, -0.09184355416049068, 1.4195280635446346, 1.1478882543810713, 0.11174047042401872, 1.4732444665748141, 1.1941934708127833, -1.8362938933447035, -0.07099302878383071, 1.1715134755924528, -1.790368473200584, -0.80784021973839, -0.4778513073896319, 1.2258671384958348, -2.0443005902270506, -0.5122769207198863, 2.167958085023828, -2.51163564463482, -0.6219470034299097, 0.4189704644668062, 0.0849354586812942, -0.3031423549532263, -1.0625206808866745, -1.217622423085854, 0.3193130270082249, -0.5716997584317723, -0.1796250722122857, -1.1511101809728574, 0.47756332700757315, -0.35750286669499654, 1.0080889650881046, 0.011605457472533644, -0.8072137430743818, 1.2417238591814874, 1.9973955415821325, -0.5133502543827252, -1.231161168426583, -2.8791305661923468, 0.1423684268038651, -1.1791363104215034, -0.7030776311018062, 0.7346180078828535, 1.235543388693577, 0.28468400519690074, -2.679884490999942, 1.9196427020447833, -0.2577742133468602, -0.37526530266278685, -1.0846050337665751, 0.6386041634660693, -0.6062846340977818, 0.3847653644469786, 0.572361586983642, 1.122123776397465, 0.3561907813696435, 0.906602464863083, 0.45512738292069804], [-1.6889030887758842, -0.18712554139747503, 1.0243539511983037, -0.21110317774816556, 0.9981111275171077, 1.7934437425673417, 0.8717342337542457, 1.3488835634890344, 0.34600591838367484, -0.8834992741077544, -1.5465844040747383, -0.5081329156712893, -0.10887856899521037, 0.39762248029804637, -1.3493083640882553, -0.3593087687415718, 0.121065643245648, -0.5817789680217839, -1.5196961709322954, -0.4296911629039366, -1.343953078597349, 1.9230878564441005, 0.5946275827868074, 0.896262720752978, -2.1847323088568884, 1.5266437617159343, 0.9036685335784338, 1.9710731197203648, 0.4111809411095402, 2.172570471284841, 0.7140809672808484, 1.3634511895488177, 0.5508448469833002, 0.6129097412055113, -0.3526864725462691, 0.15552993364155396, 0.7894711667969827, -0.021785010530165128, 0.6568112216756942, 0.5917623664632073, -0.5684355166056105, 0.613893762821306, 0.595737078490029, -0.8199537816145874, 1.2654061426641596, -0.3214405551921403, 0.08453041117573845, -0.4066991630642738, 0.5208521035383679, 2.1296390512808294, -0.18046437591746603, -0.03371226804267577, -0.5614972335559386, 0.931637660869038, 0.2042691305488731, -1.007372258430962, 0.8274386414270395, 0.028771400775114243, 1.2116608383279848, 0.8977736317321274], [0.7578187678066647, 0.3704853594732292, 1.5566891279506059, -0.12709205434458312, 1.0481273804573248, 1.0900377738468499, -0.23560638097028258, -0.6485840695794557, 0.02715612715921366, -0.3760418301336584, 0.6841512551299874, -0.9303772443625155, 0.24257012687614654, 0.8601797392096612, -0.013225568966299027, -2.750998519691942, -1.8787563847373263, -0.4480877663369807, -1.0450401052363607, -0.6424346444850553, 0.5997967326785308, -0.465505001238387, -0.03607018986412791, -1.5189775109126322, -1.1682480729978801, 1.0132627463143937, -0.18350103498135836, 0.43111696509582526, 0.9500167604052508, 1.384453691737073, -1.19430646495985, -0.051233180931229826, 0.9755097946155338, -0.022689409068975992, 0.7321531621384525, 0.418963569852464, -0.8742454824061988, -1.0789033095419929, 1.3230827920051556, 1.3294940990962452, -1.211398745295496, 0.08301741410681156, 1.0900086426488185, -0.5980500322903999, 1.1217784855539716, -1.411276240187199, -0.6051353577567907, -0.005795125496439395, 0.879533293997255, -1.0266250885636805, -0.37810307357211337, 0.4885898093105413, -0.9828298406366227, -1.596686988055867, 0.2492507842242775, -0.5396559495333165, -0.8151145788228408, -1.4630579175675, -0.6710158588477437, 0.6061718886782771], [-2.521132671682916, -0.04035560667595803, -1.0766626581286034, -1.0004193824777468, 0.9577240104533505, 0.18047689171613082, -0.655204415484241, 1.2908626702983614, 0.8783116245912522, -1.5390788832861508, -0.8555674617897044, 0.8891663924137649, 0.966392520135976, -0.5282173241746565, -0.17594282909592904, -0.6101502963513271, 1.5424704364487338, -0.392308167493252, 0.6686291044397801, 2.2300877307501246, -0.529675419957912, 0.3528478841677414, -0.2687161868358026, 0.2783239911966955, -0.3330804799076705, 0.1329672871973108, 0.40453607005717873, -0.7213027857855822, 1.673130495237403, 0.6941179988468188, 0.37993452833806624, -2.5271778908254707, 0.11772516498282494, 0.48856588636201587, -0.5515937730512959, 3.544607243560815, -0.6671856397544191, -0.1458297908458537, -0.961995789298923, 0.24777539999639603, 0.1258354709842604, 1.101988844404715, 1.2351580732359104, -1.1765647194570086, 1.362084768162981, 0.7946283029137777, -0.37556854188847627, 0.9759303132396695, -0.9636092462913607, -0.7926398546056379, 0.09794463716519212, -0.8581511906029574, 0.10102526092214839, -0.4817249685912118, -1.147005126766249, -0.31420837763885934, 0.018615016692237654, 0.9865356228452306, -0.2513266453745419, 0.47559955393773623], [-1.4295879457251823, 0.342904829225554, -1.0110148961327, -1.1093489906760308, -0.10075681734300924, 0.47820423134277, -0.3457273064174459, 1.7834849855136088, 0.5311661720141505, -0.10232949927902986, 0.59672987679974, 0.4260794121365546, 0.6955459605856927, 0.8781641332927489, 0.9589114681190621, 1.042881511625465, -0.1342849742383601, -0.9674350876975214, -0.9046830339138283, 0.8999039261240993, 1.3347101553524652, -0.7179318838288565, -1.5460813192962914, 0.2716279455028671, -1.4794765630729974, 1.7481158564487023, 1.1661378309954211, -0.8281898159889246, -0.21635185326327672, -0.6138712795227157, 0.10962348296470095, -0.399125003896134, -0.6991352124361941, -0.9882661868285857, -0.08682448629337342, -0.8285678985266897, -1.546672711331364, -0.39943901386815345, 1.6603247802360488, -1.2528647399436705, 1.235881856175423, -0.14629172120169667, 1.2549160023282164, 2.4916824969445455, 0.38698282312133186, 0.9262149752352674, -0.552411754506073, -0.4091033393367957, 0.008609843649525361, -0.27049494986936773, 1.4536627110089437, -1.2480686769630005, 0.6839677236289607, 1.8536393985621353, 1.1241004980699623, -1.9481721525341182, -0.2941707960680523, 0.34685050375375764, 0.5633740733166329, 0.7735761623913956], [-1.0455068463183086, -0.3073130450459963, -0.1722784590161898, 1.1515188677712906, 1.8051242774671357, -1.1054426346164277, -0.4904317044966769, 0.3277475651725924, -0.08407151124492442, 1.1435263978426755, -0.24580810117591967, 0.12194265873103555, -1.2480949960943062, -0.6768851954242309, -1.1100147757210992, 0.5637201220972603, -1.5501874179770962, 1.9151009955938068, 0.22862267387763374, -0.6241897130359607, -0.6041610771658698, 0.43922108241531405, 1.1045732221307722, 0.052718445312813986, -0.639249231056611, -1.0040841745808613, 1.5131453251792264, -1.3090037708476188, 0.24709094519633726, 1.9914095833679197, -2.2225090036012065, 0.8560484918593537, -0.1838585599820949, 1.6973071465229923, 0.5635824682002597, -0.1137729414360209, 0.8950688325096925, 0.35677778005592664, -1.0279515938159582, -0.6321779738957376, -1.0215582854713507, -1.7553863846305908, -0.39972394754281526, -0.6504519834195561, 1.4470602471864138, 0.31779380325177287, 0.9517506080528891, -0.4457290900807645, 0.07847599566246546, 0.6619309806928083, -0.23315329865914305, -0.38542208577988035, -1.2094818183568066, 0.41296306755706985, -0.532237537965366, -0.38358092728531346, -0.3729649312761784, -1.0728683093325722, 2.9958371316696413, -0.20452288926950815], [0.9458330747110707, 0.40677571777512644, -0.4763228311935272, 0.43847213432859283, -0.2511312810579147, 1.7620715722142146, 1.7256288253609717, -1.4977788790234288, -0.030178662689222445, 0.9131897584972026, 1.5761476993837105, 2.1386021985596813, -1.244000212314557, -0.5953632774511549, 0.5069674025620805, -0.3021089019594457, 0.5941732758694874, -0.8085172849014146, 0.0008244493726563117, 0.32477828057574526, -1.8535157325129443, -0.8685471481853986, 0.8429333536511214, 0.1478318530571525, 1.572770282231218, -1.9015623066499692, 0.28712358924402054, 0.628110079995283, -0.06339745103951115, -0.32967895502763395, 0.09252021186820066, -1.7171371603449832, 0.32192551663148516, 0.3182871403254982, 3.207213308986855, -0.08941108142518712, 1.2086639640154426, 0.8449196157835085, 0.5255775889594329, 1.5048466150190714, -0.5867614754173882, -0.1820285463024333, 0.11133515427484397, -0.7850482412055674, 1.8992864263271543, 1.6271065192752374, 0.951561938384231, 1.1354895047576785, 1.059186793869064, 0.4702491892602645, 0.8996393765409106, -1.5023197114295586, -0.3011421289911167, -0.3079953858139418, -1.3775525487286107, 1.3601961062492058, 1.0279814469045567, -0.46941087900578443, -1.9961075474224277, 1.6454532152119372], [0.7869814179929547, 1.3299985740845297, -0.33333363300034025, -0.6585344909126545, 0.10762440261336974, -0.0026780019221616298, 0.8224093939144071, 1.244969687317799, -0.8215110453187886, 0.06877598250970031, 0.15695803157595292, -0.5088098900123145, -1.8988645581832106, 0.21736253853743068, -0.22509839898193004, 0.6554724999758654, -1.2170080573001802, -2.3385821462658707, -0.4153064265850602, -0.5090863307256389, -1.0783345832739475, 1.0563209706053602, -0.13231048942051585, -0.42204046890518165, 0.06460664114042781, 0.6923438322852399, 0.5563899310766266, 1.4557256034751642, -0.6197220610548737, -0.5049048430638661, 0.006943979074655634, -1.962987264665388, 0.21454914533914632, 0.9930541139563046, 0.9226253316837324, -1.755163033250569, -0.6683445420592741, 0.8619380309989839, -0.17088176396948077, 0.4837185491867883, 1.0577936336886595, 0.4869116009550239, -0.7051739363291721, 0.33061673586580936, 0.41841664173471643, 2.222515636017743, 0.06749365227733273, 0.8473712384119363, 0.00525715501188304, 1.5700758093124854, 0.9793504250709358, 1.0407621028689993, 1.1780497845397893, -1.2399577280254466, 0.22897673818398429, -1.488297583589121, 0.6267315951054283, 0.4990337843294356, -0.4012318261740897, -0.6232572651556657], [-1.9897961501507249, -0.4114676465858144, -1.0483245868156996, 1.6268726969508203, -1.8093173760277517, -1.4495117099313861, -1.2555744721667383, -0.6691316983762322, 0.4791170823755724, 0.6556978138912876, 0.4719062615409759, -0.18634328225138586, -2.253231630236781, -1.2653004888563189, 0.1884891615480131, -0.7186628693955772, 0.22397961255249157, 0.6267040760671381, 0.01704491017275325, -0.9321940970818412, -0.3185996026347802, -1.4812549837249764, 0.43379378668957363, 2.1166111872591684, -0.727487094627138, 0.777988007175479, 1.200694132277925, 1.3592660860979464, -0.40602718655960585, -0.49724291894712386, 0.368565756143352, 0.5334460013273229, -0.09167069831352444, -0.666909658981773, 1.6449889149752506, 0.9655655106523842, -0.7280855337166559, -0.6799057480712947, 1.6945639452218861, -0.22876228896804862, -0.2762844498069231, -0.30869834445847855, 0.15374832772575245, 0.7071581046086384, -1.0203433424518624, -0.3460602497429675, -0.5088163725363406, 0.5745195446137359, -1.6833814592572467, 0.5702421810171572, -1.036655962397536, 0.36472378675414274, 0.2292667274053847, -1.2739692106016711, 0.7246265265011628, -1.1270849655539705, 1.5287480787233632, 0.8941829978265515, 1.1354457470758939, 1.1074076555397394], [0.4869911999422651, -0.16157644453584466, -0.8605811629790062, 0.523314554691264, -0.7964029386476104, 1.1767702545681864, 0.24467049751942224, 0.0990962900678017, -0.3526287416300261, 0.1328368803257409, 1.074698297045596, -1.0976654839407682, -0.4265993003409718, 0.5569781502866723, 0.28322466620727493, 1.2700241356435473, 0.7141905265543302, 0.7082739342694698, 0.1942298186242237, -0.2773045981425443, -1.1922889612624499, 2.1620039869836214, -0.2933490888314707, -0.6087709975651249, 0.6829969592846177, 0.5528298836924569, 1.1214242084374961, 0.5037772510688031, 1.7204533227082452, 1.1605715993156853, -0.7997463762121557, 1.906127302710581, 0.21534599539793076, -1.020823357154817, -0.10554275007158756, 1.891140709197819, -0.25809909896559385, 1.9210228841533852, 0.47245383163410315, 0.37552839879809113, 1.7714299580768615, -1.144825153858163, -0.8578401590228578, -0.3222939246688424, -0.6372116681951068, -1.6410035112931227, 1.4375814827026114, -0.8567014142974526, -0.2802820252608941, 0.6410588804680079, 2.005001629096091, 0.03311682125435281, -0.5210865469069749, -0.03865067741083572, 0.48414338852555105, 0.7791103848725501, -0.19731442508202351, 0.2201230376715801, 0.48439103769546044, 1.1208001097359082], [0.054104075874875986, -1.810617946605319, 1.1118156363257705, 0.4687736590987951, 0.7032726235770426, 1.1247020720685037, -1.6096109006522346, 0.3051356083841427, -0.9265677698215475, 1.1696023660194, -0.11321990949611202, -1.0291368477828082, 0.6279582047923691, -0.9995911939237765, -0.6553261065321915, -0.20062351119093547, -0.9250358341384088, -0.1631589825574307, 1.448125356762452, -0.8040194334187594, 0.711208935284085, 2.4964510780875906, 1.1026655056445207, 1.2906761888701612, -0.9358756149992284, -2.3515111381900025, 0.26850958610064085, 0.9048491885084562, 0.4324907681648935, -0.5546283914048377, 0.425486133820502, -0.6299150661624737, 0.7369249316333152, -0.3069333735331714, 1.9092563840369081, 0.23191510817808944, 0.5860497049927941, 1.130000063447505, 0.9465527246288069, -0.006447523101795432, -0.10100382521443901, 0.23637200524936267, 0.2610124607779856, 0.16970454576847155, 0.9092865651291391, 0.8647320595892662, -1.834315506652145, 0.06324147769189122, -0.20444256674431643, -1.7829717008216264, 1.4286875344195584, 1.534930949458897, 0.25717981764707865, 0.8335573925182823, 0.6454255927384465, -0.22767866743416423, 0.16556900827237891, 0.4261835527607204, 0.279369869297452, -1.1392531885932309], [0.9196654406589356, -0.11885971642181427, 0.28300074544237597, -0.6828302716543644, -0.26663048867936817, -0.944974974025646, 0.8101823570674141, 0.8124741511643444, -0.1241035571074008, 1.246379860395715, -0.9527025335159148, -0.43288670037331217, 0.43075120850800513, 0.02739802123743068, -1.732438132214927, -1.2509063389669053, -0.1432685668085966, 0.5373354489025727, -0.3283172444187726, -1.1624312902991139, -0.8396758381546631, 0.12766335878211812, 0.2133909031721276, 1.1497918623061578, -1.1021295716375286, -0.47392186961282423, -0.5541546372903967, 0.5337426892440237, -0.0805831342489231, 1.8174767986434717, -0.6900110971200552, -0.4723929354337794, -1.676907561947878, -0.9044689680289002, -0.16714452160024532, 0.6452850736392896, 0.16559563201995237, 1.8928738868596737, -0.1033488018364127, -0.7510198032364359, -0.625605345094309, 1.6337276249156794, -0.7838958916747372, 0.045644745848377036, 0.3515634041249581, 0.4299039757105526, 1.112418411958696, 0.11596082056676121, 0.5853571281076193, 0.3473698953176372, -0.46759121079621674, -0.6163512398708841, 0.2588686157159622, 1.0627726308085417, 0.4862831113345664, -0.3602852801299935, -0.15866306982575984, -0.5543768958965348, -1.0594040286993878, -0.6009656783330832], [-1.443287902610858, -0.37947291733387706, 0.004384182924306305, -0.8135030967797822, 0.521092288300702, 0.3978008121994838, 0.7012145847496678, -1.2291975758432487, -1.1211847590871706, 0.5551516679820425, 0.1842329677524456, -2.3746089431955255, 0.31057317559200875, 1.1024748982767236, 0.6295004451017127, 1.3344795498790412, -1.0781204682881507, -0.8352448524687097, 1.1767517817951547, 0.16003916896695294, -0.5589818011481473, -0.7850806762331665, 1.652698683097787, 0.5696004921681791, 0.45913598160636404, 0.39122296718091815, 0.18575997416355702, -0.02874453059208455, -1.5334164045239762, 0.9881290858650948, 1.0601104575061109, -0.4315531058189889, 0.7680536749001433, -1.7193674824601646, -0.11652500091912872, 0.17733672237727321, 1.181197415723717, -0.830690745240598, 0.5661329968212988, -0.05637337466882118, -0.07140447549601117, -0.9172399976443999, 0.36606306816495654, -0.27000732737264194, 0.06532696238665087, -1.2543065618904723, -0.42965735121101795, 2.531010815463236, 1.9048847367938346, -0.8289162874898128, -1.829108668312436, 0.21481107375322128, -0.2719889731211314, -1.343293606653876, -1.0070742738698748, 0.36137031907643463, 0.2431610263188029, 2.096695915604976, -0.0886012261278852, -0.5228306792205791], [-0.5135066098591883, -0.5532634124615387, -0.2590494990220115, -0.9300045373845163, 0.0962121546547977, 0.19341303583742936, 1.1799607777036876, 1.2196475152125428, 0.19196512604166216, 0.5958573114424157, -0.8745311951357192, -0.7597172009479678, -0.2800662216009164, -0.17807198366750987, -2.0663527682904803, 0.012815114835147917, 0.4041259069638421, -0.0788936802078415, -0.773301886885548, -0.2789114442655181, -0.6865987619445618, 0.46262237182318744, 0.08816994625187553, -0.7057571485979015, -1.6027388688594746, -0.7114168683076808, 1.6593326287566823, 0.2381209854376654, 0.7912501386795827, -0.08572681010055985, -0.09103952178949706, -0.5843730934502306, 0.9098420151134209, -0.08136198778871367, 0.6051941673260233, 0.4400300031076296, 0.682850602983854, 0.11981424443336564, -0.15754062960849036, -2.054594291960743, 1.449568869957233, 0.016359581065408402, 0.9416592738836058, 0.640153297038431, -0.13324716819952417, 1.452271386432344, 0.27607585525102213, -0.5470899369916782, -0.32664370394049713, -0.4518877898646905, 0.7105470914354775, -0.7562082074408626, 0.544105130107747, 0.5866552939406255, -0.4133672709083966, 0.12523628744125967, 0.8030096934857508, -0.4615856017934946, 0.6981692974930708, 0.47657828782712763], [0.37513265065745144, 0.03159813514273361, 0.11704720946362455, 0.1461476387659269, -1.3927173845256142, 1.7915684166260342, -0.4117337466482142, -0.10146630869979732, 1.1047510525649733, 1.8276724818405001, 0.1625330256605846, 0.29174491623010024, 0.49685166538283043, 0.7444364654756458, -0.40002888484869076, -1.0093089466730827, -1.5874683809387258, -0.3772008663247114, 0.10715059691340206, -0.37618059984883573, -1.0458511843536094, 0.40949201978366223, -1.1480813899197901, 0.31295292555386706, -1.12762338106022, -0.0710570070131645, 0.17630530897805383, -0.673228493229165, 0.17185252153725664, -1.0188499910225628, -1.929045439325932, 0.6259863133217596, 0.8292070172697714, -0.3366979112792189, 0.21219511326204277, 2.0306515976659987, -0.30359188591121195, -0.36850874993254845, -1.1881226514007144, -0.46331682959138043, -1.4895551708220756, -0.35776374630662233, 1.7664404370943196, -0.6693761356921307, -0.6688265865550789, 2.0037157154212344, -0.9875266395798188, 0.8416120726696136, 0.41022292126048493, -0.5741031374922387, -0.6599788840199381, -0.4550765782442686, 1.2448709672612563, 0.32608920338519176, 0.5288331305561013, -0.3337166875168967, -0.6054851877367695, 1.2737705189100383, -0.32613859205059037, -1.1332419660316986], [-1.7258793515315196, -0.353439731614312, 0.4874211327025506, 1.3932477773801812, -0.541338537428103, 0.02762520733343479, -0.07937446912792394, 1.99352183632249, 1.34612265563108, -1.5375141916915553, -0.7560071360658374, 0.8595987913881039, -0.952068522050348, -0.8913124681355779, -1.9156385152354045, 0.23793464833050476, -0.7040491575420701, -1.2584740684216265, -0.43407507099135934, -0.0003271644326006947, -1.2199039777153038, -1.6064870861079443, 0.2956616226333306, -2.438223346186838, -0.315537320158056, 0.0032831083103900894, -1.3003893068860388, 0.7727558635468845, -0.3319613502048107, -0.22053204957347594, -0.3491414181866293, 0.4973723708940431, -1.096148407091983, -1.905901991760015, -0.08708429507481207, -1.310404248565034, -0.6596385987022165, -0.24646985808010421, -1.001718457912817, -1.8817342892071247, -0.5966133041355737, 1.1632075908674333, 0.43136910813330265, -0.1818888051209738, 0.15509395672344892, 0.13238673137395135, -0.58082882258038, -0.7779182472087731, -1.8934058452578748, -0.4979578235850256, -1.718695969281187, 0.5588263495462573, -0.4284893486389282, -0.09163837734126963, 2.06410837758234, 0.15972813719354956, -0.24438286709624796, -0.0837872233568767, -0.5222322481924657, 2.2839151092970473], [-2.6176404956525605, -1.324211836949144, -1.2861798100515514, -2.0679433931448976, -0.5161359497488602, 0.20468267627655076, 1.7191645410547463, -1.4229417249010847, -0.7095034880480872, -0.21634190177872226, -1.647924634430149, 1.4029853306480102, 0.30201011204650746, 1.0097116825654782, 1.223208376020191, 0.1961713001510613, -2.6623907479794893, 0.5215866492614167, 0.6205883942056105, 2.445060679337104, -1.7710742878528112, 0.03707238824498671, -0.16387615638563924, -0.2754953723340297, 0.2852393354314922, -0.23222518244305537, 1.2355767872390115, 0.32459110757764464, 0.4773987749354838, -0.3841119018506683, 0.6984143132849621, -0.3155677791847724, -1.067202278175316, -0.8303121228861029, -0.4144089030379434, 1.8342369306351667, 0.21577993607419482, 2.2519610717505256, -0.3233345489671999, -1.4899385707534798, 0.647105352883679, 1.3191770675463026, -0.5667722190246891, -0.34646755322969475, -2.1384321688171117, 0.1934142540504805, 0.1546233961858552, -0.7519163301317409, 0.2434360674696016, -0.7914869557319422, 1.741425751743383, -0.3901610464586726, 2.1831957637245476, 0.0526839322729521, -0.9765919633474704, 0.10356096639352809, 0.6049319483878918, 0.7153999616971854, -0.3115590130049532, 0.8772548133393667], [1.1872286108063452, -0.40161450582558517, 1.191606678667645, -2.290430322823744, 0.3136759309494036, -0.8943314530462796, 1.406549079545959, 0.7699124614862176, 0.5305518825839972, 1.659397265658432, 0.1525380835318041, 0.7004842116412565, -1.0421203130329049, -0.8402593501208508, 1.664311394430608, -0.1569658809898747, -0.07793006250956051, 0.2198190344201983, -0.31248944711943005, 0.3535147848802759, 0.4008971256229874, -2.003201070649734, -0.5434284730103844, 0.6882406110927518, 0.1775646333819442, -0.4122205369909438, -0.25580225532361467, -0.5963623330935073, 1.3980303453593415, 1.3483081908862586, 0.651975451271616, -1.6524789756653802, -0.7837078511264731, 2.5966419253614372, 0.07736449224084942, 0.7934768619598975, -0.4229629802563262, 0.9757050030153234, 1.712554605286482, 0.6181524067895037, -0.4427865782039086, -0.39080597011403717, -1.7239500385717765, 0.16087567386503515, -0.20802758021408366, -0.7193879214544441, 0.12940130380435033, 1.039364216455402, -1.8334662493081608, 0.3557551649821602, 1.5284975003912282, 0.42684308376965147, -0.002873053477915757, -1.2617583158505443, 0.8493636163958763, 0.8264877039665883, 0.04513763413312061, -0.1593485134167033, 1.440635161240346, -0.051462933545783573], [0.30211625313662666, 1.2372461748050751, 1.880289975188004, 0.5469676137240894, -1.0390114907778114, -0.15369049533706702, -0.8600854617106083, -0.5931599192675491, -1.5066565975788588, -1.866434890693788, -1.4000355866567888, 0.6281452170127044, 2.359933964817535, 0.18094191697566453, 0.6962967280369937, 0.8434717399296127, 0.22799843470384368, -1.7068811231061918, 0.7612069357050066, 1.467674254003208, 1.0614103896373825, -0.22076270593092664, 0.7777835176398524, 0.1863474233639309, -1.0693099240799948, -0.5915946505518295, 0.8524284205680026, -1.432341975542605, -0.9244445119509707, -1.6950537398396082, -0.31765684032167796, 1.0605989193525183, -0.022113386349706984, -1.0685306348493524, -0.8223505164819837, -0.022668275767577635, 1.0075489798834547, -0.24523873081659295, -2.4096835378472283, 0.6915442284868385, -0.39864770823412704, 0.12959499122869525, -1.0595026282322668, 0.40381303116430356, 1.141807682581925, 0.30314528214931763, -1.2068275477021957, -0.9914199346779198, 0.7096081579526959, 0.5328810245310426, 1.297115215185985, 0.4265408730686201, 1.0917823506820246, -0.22468912013814618, -0.005282473834689346, -1.1781044794837978, 1.2098232616561173, 0.2584309784044009, -0.9198535811280872, 0.2771718222851324], [0.6636066381300342, 0.628320531229517, 0.07581322230809172, 0.2303220560853855, 0.9326974225682896, -0.6620665992234757, 0.6935438791237812, 0.3190035857011078, 0.021650852781654205, -0.634002486544404, -0.2947747024031202, 0.4714046088074807, -0.7947979081552419, -0.35046473801652844, -0.6577684189201057, -0.34011547415240057, -0.8553551587333523, 0.12075809459530841, 1.4053604374718445, -0.48332158847716233, 0.9003936695530118, -0.35648505259461777, 0.6427321301512305, 0.4656097326867003, 0.31745396333208464, -1.6136949147528397, 0.4776682496531598, 0.8149387170552157, -0.41324577749877467, 0.507049728788965, -0.48504212919072687, 0.5975838413309631, -0.7211047974010489, -0.03509717571835955, -3.0305183905906072, 0.11077151745996967, -0.27881925941691743, -0.48247080756277166, -1.4547676338592253, -1.0642431288057406, -0.30264236125589195, -1.5218217095186846, -0.4225003705965165, 0.9560614089747381, -2.264464201917131, 0.05256081325195705, 0.7810259644895308, -0.3109224752696649, 1.5708125089869984, -1.3485892552050651, -1.7444552394656738, -1.5039728396047853, -0.08083468494148216, 1.4012366387169943, 0.16226833013575767, 0.47304088516646886, -0.49548990221913836, -3.0450307634850264, 2.42731513353833, -1.464362297044774], [1.3407169183705343, -0.8983152452388339, 0.24697859046248444, 0.7789009944994987, -0.2294641456278745, -0.042163650544867134, -1.762162910144398, -1.3347327116829422, -1.7889347521932872, 0.36013280850614904, 0.587886996689286, -1.2013209901000175, -0.767549861456593, -0.20771216517073088, 1.433954793372875, -1.5710013275847832, -0.3486763631177641, -0.7362962637308473, -1.95333958680713, -0.033963119217660306, 0.07864635096701202, -2.1735485153583216, 0.8669102423496874, 0.5657556056959302, 1.2230359455600066, 2.014476719276495, 1.0783613683645712, 0.9234240571908011, 0.053391312683380626, -0.5375615463207276, -0.12533464262168362, -0.02337628156023259, 1.3000046453313834, 0.9708088596642189, -0.11859841095182057, 1.6808455856310776, 0.6454344795122208, 0.741447141144302, -1.244648757949518, -1.4479015524538061, -1.5647589645501014, -1.5032808595157887, 0.4509574703224539, -0.37148286969215766, -0.33186620959675833, -0.6806840340375621, 0.6228196053779451, 0.21794844512972714, -0.07503915366240958, 1.0375803168089688, -0.08724215394639129, -0.2019467045916929, 0.07390661155675757, 0.7556715711884437, -1.1125877949581193, 0.38051298523021054, -1.3333128385283437, 1.2041875265165276, -0.1646082080010618, 0.30081675088489157], [-1.6341993632289906, 0.3180954110310442, -0.6880819905642326, 0.030938875675312758, -0.9294851435354486, 2.6210881493452107, 0.1710465784198099, 1.0109517658635514, -0.15449939898571757, 1.0202506773776103, -0.21015939107142417, 1.0873333849024556, 0.5177119632003778, 0.31030137074692626, 0.2493248319896173, 0.9986907439091264, 0.25562281436007567, -0.9918118008676767, -0.29441196375929785, 1.905063588561238, -2.336135011552377, 2.9264357908275755, -0.7683841712572643, 0.06793201731543574, -0.7215647593532114, 0.49693226608168756, -0.6505061670233122, 0.05418032372086892, 1.0809266384150085, 1.7908162462932886, -0.030244325534734866, 1.2638049742372373, -2.0036863871402057, -0.9314450246425509, -0.34318841185320575, -1.0048132695115584, -0.10750046565800772, 1.2007168852768586, 0.8697272618835211, 0.05019798133482259, -0.8594416633454373, 0.37125294940995845, -1.34241042007069, 0.3681159278534941, -1.368720309473549, 0.540712588742371, -0.17403137911235264, 2.1113567007240994, 0.4691809905578582, -1.4203260612482587, -0.8565710221975071, 0.5611314414772925, -0.633324459481252, 1.2165086726222951, -0.4060331928816083, 0.2846689088926031, -0.15249020080128176, -0.01892937544288153, -0.5692365546955073, -0.32211680786523106], [-0.11160922148649166, -0.5485970162105482, -0.37464714117919856, -0.3379589574836097, -1.5630255653222547, 1.2591813105097607, 0.951881216624261, 1.0355015772353184, -0.7198533585514035, -0.741589376041943, 0.6201270354479387, -1.4529571979936118, 0.21890770956453504, -1.2439943715261315, 0.8739102404042507, 1.5290703617893493, -0.37333580355849844, -0.5778713574068962, 0.7637646163067483, -0.4120377231538521, -0.6698952639653701, -0.2212533278359736, 0.0694724687779951, 1.6340996915876567, -0.28300531375280974, -0.362804478144006, -0.1012838772160228, -0.8960613667610565, 0.5798393673794243, -1.51863505179924, 1.7020741453941979, -1.4446679841677417, 0.9846939074344321, 0.29898792842559235, -2.3471741908221464, -0.5358689964291204, 0.4710134985171653, 0.4021265900990054, -2.3226361012628516, 1.3971071078124713, -1.3938400373312219, -1.6834342814755092, 1.3926982876141913, 0.09937198207534835, -1.661533725477626, -1.0810339680279828, -0.0009447700174753129, 1.9307886861247348, -0.5962027893024291, 0.3057508141607328, -1.1246889585164186, -2.1454740967940764, -1.1790741796094135, -0.5798991830019158, -1.6457208310132305, -1.6791225825967646, 0.28660704214002003, 1.3441313587893426, -1.141201915349037, -0.585504208059241], [-0.4068520526348808, -0.08753131591072923, -0.7253145532714272, 0.038810671562673316, -2.061809326114497, -2.091846345499513, -0.8871670396358802, 2.4173430272964627, -2.499859359958718, 0.6412514893551863, 0.7691226337653615, 0.26253729878476595, -2.6906016885157285, 0.14755708340459184, 2.1983225625523852, 1.1944605235781771, -0.844443423967312, 1.3472499425189775, 1.3869407450493518, 0.5893526375656868, -1.4246542797155088, -0.18961551949415675, 1.159819177777915, -1.9912612846509732, 0.8774345217683408, -0.08565438718881713, -2.1279690642362583, -0.6303757736696078, -1.1640822639542667, -0.6657448139879586, -1.4204521266068997, 0.389469802282654, -0.48193018452691866, 0.32861212917644717, -0.7471775204038521, 1.2569591272588068, 1.7069954291716976, 1.4988466782248968, -1.1730697847249776, -0.5906810415734348, -0.0660417173489784, 0.35117781883603977, 0.2209122326488157, -0.306118174624101, -0.8074266889199961, -0.5321771924677952, -0.532857182790401, 1.4043529498708989, -0.8433710263103371, -1.9249745599178063, -1.026920688284679, 0.6782668668276076, -0.47832478639333526, -0.24115494911832197, 0.5972945653123183, -0.07441663531086513, -0.09308927315520886, -3.0215834433091415, -0.5813621665637815, -1.0576296555865075], [1.781667230365163, -2.183713330847382, -0.8344603428896838, -0.7642371368740815, -0.7036519982033724, 0.4183122939720025, 0.44083168099353537, 0.3160870006482799, -1.5759670951583462, 1.1717351429538863, -0.8971149871155745, 2.536701462616121, 1.4104325125597859, 0.5272328367662286, -0.9552536240265955, -0.017132024748113883, -1.5592037842299806, 1.2833569293068354, -0.14510367505322658, 0.2131801066215388, 1.0557851590165837, 0.011614237814181161, 1.9414260185124677, -1.4322092728496978, -1.6315018069385512, -1.7981516222847402, 0.06532781732223247, -0.17509055260415135, 0.7251880066995682, 0.5324300891534021, -0.5852853538111609, 0.6553305879950486, 0.19259264312382662, -0.9062191930450599, 0.06783893767261201, 0.4945515645858182, -0.5282238629992123, 0.8323431199260083, -0.6442815186540253, -0.448808022231297, -0.3701675849367028, -0.6500228795922599, -0.8793402963537376, 0.5478156215694521, -0.3074542874878318, -1.756070832021379, -0.1994947156104766, -0.38416447644148755, 0.048392555016639485, -1.2291261666947717, 0.905680297822704, -2.279700494720299, -0.7258798540830987, 0.6163473149608941, -0.21207003451074677, -0.701961113091792, 0.4657571810464299, 2.9421966087753857, -0.389694478442042, 0.3774670222069515], [0.15564835721587064, 0.5582768394691785, -1.7413823843516976, 0.668904426210826, 1.4718550850427634, 1.5906015138322012, -0.07065573567160166, 0.5318058089876686, 1.3395513933452237, 0.15014589543337273, -0.614432998424945, -0.0008759228149450106, -0.7490099947727543, 1.258829054062441, -0.763578644377164, -0.9544014814674665, 0.436135788663656, 0.7428442046579536, -0.06036699570781838, 1.5453036777267348, -0.03687770913577366, -0.06431544113072793, 0.6265572492548434, 0.12744249643688413, 0.22610106744282457, -1.5553485539743162, -1.2901166231596168, -0.060025780030034045, -1.1803798028856798, 0.1959572488676864, 1.910005662433497, 0.21404599339122518, -2.2380905947039818, 0.8593590269906468, 0.3497459665676886, -0.24776291069267586, -0.43463650868465337, -0.37522157226835867, 0.006887642372678603, -1.1416534692832225, 0.5126464275484512, -0.1057901906927499, -0.3371381132718556, 0.7639980904385973, -0.2620301314882183, 0.5787196390219932, 0.5527053002222724, 0.5729136958957104, -1.656271231162245, 0.34580549281790934, -0.7183686217627373, 0.3984410273586362, -0.6493809311769042, -0.02270562503301251, 0.05222916031768837, 0.9681017346300265, 0.9083333032900349, 1.7564989331859082, -0.5233415119246779, -0.44936186218331436], [-0.5307372265830752, 0.22115990674799682, 0.016592174561834518, -0.8166877980634557, -0.19089620959844195, -1.2603337443996998, -0.062341421277299955, -1.4001548700506437, -1.2885878927356271, 0.6068774310368044, -0.35261843086699846, 0.10261318291361043, -0.02864131114152852, 1.2515839517483565, -1.8887926859558124, 0.4510171033320522, -0.4383674073271036, 0.642420107448837, 0.1032488596435914, -1.7346182171114854, -0.27329100550443397, -1.0115160275043644, -0.20980075760282618, -0.956305474720455, 1.1881598297286977, 0.30006588465448397, -2.5142890289339976, -1.0836878317423335, -0.07617375997002988, 2.5608087886935134, 0.4535644475214754, -0.6992009886509672, 0.304231299769333, -0.6005820448800399, 1.357696837868134, -0.7244118645838965, 1.611609602947413, 0.030533220833463343, -0.13325964967343898, -1.0793068017533354, 0.04760430914366293, 0.0723711411589833, -0.6879933978530084, 0.8440019670731526, -1.813231298001561, -0.07652903986010048, -0.20726786005926595, 1.2802869835690704, -0.8943173302144267, 1.697698272992484, 0.33180245773409117, 2.507980970457317, -0.10312628196843578, 0.7923173957113172, -0.24880027652209866, -0.26853139035584683, -1.7870627693571461, -0.3465984315722716, 0.6667396938514897, 0.3278979645336264], [0.0805695714869293, 2.5207138120520405, -1.5468933642274756, 0.6262323393203844, 1.7775484787639424, -1.4455859917758522, -0.9631649645221222, -0.8808018935215582, 0.6942203267574475, 0.21656272542588872, -0.7982856569499184, -1.4460598376088267, -1.685203953154124, 0.7389551407850721, 1.3439101773919722, -1.8682324975732054, 1.048445361691782, -0.6300581504539914, 1.0149976294953924, -0.5212624872715894, 1.5424316659747115, -0.22911753942628785, 0.3324561645534058, 1.008972571441142, -0.8125078875547179, 0.13156135884928533, -1.5805879900369995, 0.860476398939234, 0.6323709795976257, -0.8384502798711068, 1.357533015425069, -0.8103350073146564, -0.3625723856859432, -0.08515825880483581, 0.2891193685151666, 0.43264714990873254, 0.39926579751451474, 0.5002660928785921, -0.5311992873877136, -1.0445537057925285, 1.4657517009532872, -1.2592635481383139, -1.5968063348368722, 1.8348441378292788, 0.8764664087259068, -0.604943831052263, 2.069879071397534, -0.3953986213445916, -0.7577366291413242, 1.0334027865846145, 0.5440479715660224, 1.7954298850018078, 0.31143261406365913, -0.854481940339528, -0.25891081795946497, -0.6167532444323339, -0.15551905510093228, 1.154531507867949, -0.838717539670812, 0.10191121975216662], [-0.2880172051262603, 1.1952590003297432, 0.2960070535161114, 1.9865277867377362, -1.3644973760958286, -1.3017541901169098, 0.873132078704106, -0.8485000431115769, -0.48156345903662934, 0.7453079405665757, 0.293528842580146, 0.1357333963242646, -0.1355843286943387, -0.3214500344098711, 0.261405534326841, 1.0713774160564529, 1.3182289986487372, -1.1579092498255878, 1.5279751281259677, 1.2245798794440264, -0.13012447531870586, 0.07689247219600628, 0.04189035137789666, -1.8847496601642018, -0.656000701099272, 0.10755220575995623, 0.8229949696357763, 1.077125528781209, 1.7263797030661634, -0.05360786078580396, -0.5355120877633975, 1.0377268966320878, 1.1944689040483225, -0.92572468515684, -1.2942477533245667, -0.45875966992361783, -0.38093067273148445, 0.8017407005900731, 1.141997343896885, 1.5088449828208128, -0.7291283523852344, 1.8505503535029193, 0.6568366131485598, -2.0194279115349647, -0.4146522116815328, -0.2554553272539634, 0.5395342162789853, 0.05972941936823722, 0.08300290716998338, -2.2928892687763134, -2.1444649129569897, -0.5026737176693431, 0.5029315050012269, -0.005011552375411517, 0.7840445549878996, 0.6013174150208861, -0.25745971022631164, -0.7939395778347974, 0.7277931165696413, 0.7552837365689006], [-0.7590806436712277, -0.927175462005265, 0.8886640401087855, -1.3413466568038779, -0.7377463528562961, 0.8106862750571902, -1.552107051590692, 0.5937706421607516, 0.15722477012686809, -0.7035466785963495, -1.3126591424997518, -0.3064917733422579, 1.0642421320166773, -0.6347203291703404, -0.6577881245239106, 0.7192041498358456, -0.6460626161910549, 0.39411882925899694, -0.4247258601321951, 0.07294106038916628, 0.2261306483169382, 0.30904427196646383, -0.764649913787607, -1.709472361319872, -0.16631175357159694, 0.9299574507006708, 1.380160315607467, -1.7464525509348514, -0.16989749130382448, 0.24664078755842597, 0.08351946782536787, 1.2302234573939856, -1.496080948794952, -0.08222935740715887, -0.6475644312720406, 1.5950574488448754, 2.849268448140477, 0.7544307586205881, 0.3151202238084199, -1.2683832007587594, 1.1105675021231167, -0.04046418558842546, 0.6245065637898805, 0.01625570264905145, 0.40900235593418127, 0.4172639713890366, 1.9712286133173742, 1.5572279352722282, 2.0840674725269133, -0.873894863285151, -1.1192676048788477, 0.3344547045075363, 0.47246807906800026, 1.1839199651343546, -1.0382020234701652, -0.4614316250080974, -0.6408006445069427, 0.15341908087775338, 1.13763605095742, 2.3702767549206145]], [[0.25538069941676045, -0.5564158064178981, 1.314571606176584, 0.6210637499745207, -0.2933446948108417, -0.542854058016717, 0.5708379324567625, 2.401887637492994, 0.5652623132820132, 1.4421473260555313, 0.9564305454861102, 0.8022120032762198, 0.3184133253571169, 1.1758420307348454, 2.358234471298336, 1.2310263944240416, 1.5236504497794725, -0.049819984390857656, 0.27697067077003884, -0.6146074992950079, -1.1123325847219583, 1.126136691256061, 0.14141321584880728, 0.15168924736709555, -2.645632094660389, -0.5986023049645055, 1.0889527156890348, -0.08673036828694403, 1.2415941093134393, -0.5920511030605811, 0.12843094684481718, -0.5499912251974429, -0.27876221695960907, 0.9782646867055431, -0.10994467832631341, 1.3069966210739896, -0.2607997119820149, 0.5772219694494695, 0.7790733794448341, -1.9968937025844697], [-0.3644127042112603, -1.9312331637972142, -0.5643530230485907, 0.09198592897018008, -2.37454192577509, -0.39342455014673794, -0.8629897808119146, -0.17010820073888272, 0.9055159490120511, 0.4640128927391031, 1.4889628821496366, 1.986422514550765, -0.16056941032565125, -0.19251941046832827, 0.29209290723083486, -0.9531340819627054, -0.8034080354887138, -0.6343223362450877, -0.44681525361583446, 0.6135432139563305, -0.8571040002630561, 0.47929903885736297, 0.49924205686300654, -1.2204457339076218, -2.0061461676360426, -2.7722775426445274, -1.9873988892198535, -0.16250046422150788, -0.08634846588101855, 0.9019050299053275, 1.0160069126914997, -0.8718584984342962, -1.2495340451279513, -1.1490534097906207, -0.757650105242279, -1.4569313022158825, -1.5060467846618615, 0.44597855965339706, -1.1524259968038932, 0.19382977882542693], [0.5660398043300725, 0.7775380749519275, 0.48294461645573983, -0.7923236123482233, -0.4186077973920172, -0.742096609675655, 0.554178328999015, 0.5720317762865789, 0.280683287934331, -0.19016129971282647, -1.1197573965936676, -0.03383349568371159, 0.7140765349811506, 0.38902563656157024, 1.5424094890469595, 1.1094939072340804, -0.20289900997148247, 1.4119662919064386, 0.21338437410606806, 0.10720030275540737, 0.27548086962376633, -1.9475511652890483, 0.3438065444732688, 0.6724054799117424, -0.7216454669635602, 0.5628589568823013, 0.4259502463210126, 1.3917171649003575, -1.0551690562902813, 0.5898305096822603, -0.9560256237258449, -0.09814778727512541, 0.7972263986995878, -0.45039335348525933, 0.5450403083766464, 0.9706399026322303, 1.905549868990523, -0.7083432894419905, -1.6395294160233425, 0.6468799943699804], [-0.6753414964527781, 2.215691659604742, 0.5892132869112846, -0.020567953675517135, 0.29827815558648463, -1.054283222576279, 0.6167257387269687, 1.8893998113021897, -0.8932513518485836, 0.5051035329168346, -0.21261924183691971, -0.5433179067001936, -0.7338204160477333, -0.4185372326308208, -0.31601943750172234, -0.2320663433992235, -0.21314379732816907, -0.40565081898718847, 0.32999453219703423, 0.38653010299524776, 0.3867560285164092, 0.1849811924091452, 1.092190052755265, 0.38488202768185903, -0.23007538146218925, 0.634513510431196, 0.34397343249129786, 1.2286169685549995, 1.379224690393352, -1.0134603213311064, 0.23909922936174252, 1.8564696843352604, -0.9188429976129391, -0.4766922173042387, 1.0227471709538316, -0.1376101378804431, -0.7360449758754691, -0.4998827606625001, 1.729857850997554, 0.32314375904401604], [0.005045492807669987, -1.4910025931838837, 1.131202963302246, 0.8423131060220974, -1.7396502811346375, -0.35277635733647356, -1.384163511701638, -1.925556741287173, 0.6203913500016179, -0.22182026690074302, -0.07398723677932101, 0.32901004102921116, -0.3738695175614256, -1.2469001560464295, 1.2108253003569989, 0.3698663213381111, -2.4117961744163425, 2.176466219626183, 1.0385687833109862, -0.056340428661957716, -1.567633487763814, 0.7440338540699043, 0.10962834506365868, -0.9386355710673884, -0.8862042050733383, -0.5560090076991695, 1.617677774069889, -0.06957049028403003, 0.8514145615878282, 0.27973075062606245, -1.0552366100763246, -0.8179907430263502, 0.8906587712561904, -0.09683626461282524, -1.1783353004163934, -0.18080175630227746, -0.2878117390117072, -0.9054217807622253, -0.6605476997183856, 2.1900743159181086], [-1.1094864354868041, -0.8060023906709143, -0.3420954041308109, 0.04149439607038759, 0.09639662433486028, 0.9567579321406184, 0.2536611291000326, 0.313357054168244, 1.5744030103423972, -1.3869302950784475, 0.5225929780846316, -0.30341004547674033, -1.2494205949504857, 0.1950895712858407, 0.7600515378089633, 0.8903018662423048, -0.723443576995876, 0.959404813742841, -0.05483244913298233, -1.9431482193119387, -0.9782617412299895, -2.188118357274125, -0.3266908564157578, -0.2883608727322369, -0.3104022516144577, 0.02455229055715932, 0.9053791726500727, -1.815294769283982, 0.45094405409734223, 0.8585856244717525, 0.0480162698112262, -1.088351860894944, -1.4233861470665572, 1.6900901238820434, -1.1882919481117007, -1.3741088451312244, -1.1632289020230109, -1.2437313378876138, 3.0403138170953534, -0.6718936323968413], [-0.06704938087697719, 0.16050940543553768, 0.047559553517571185, 0.1396456106742998, -1.3147513964715682, 0.8328512227748313, -0.428660869814508, -0.17238266379063086, 1.895702387662265, -1.169610194430895, 1.6497865899358186, -0.431282626544283, 0.772817025594961, 1.0823302292918582, -0.5870711715756168, -1.1586836447510185, 0.02029173111722402, -0.7295936938856682, -0.028828546994676595, 0.2522638558196038, 0.5696708330949249, -0.6545133431003414, 0.47012190286980154, 0.9119175461727473, 1.277751901164383, 1.4141313281784462, 0.5437887509648703, 0.5197808265170437, 0.6026199252310861, 0.7738161921421551, 0.7316022079270038, 3.291920387436713, -0.19380494009588986, 0.2231489333187368, -0.6407735930490083, -0.721756000645455, -0.09232670321979476, 0.8895371665309437, 1.184907789938377, 1.5577564005634956], [-0.3451908754494743, 1.0912811359352943, 2.0811185812428996, -0.2695770068242282, -1.1579929642348503, 0.7902189941427727, -0.3079987725254684, 0.19724770642272313, -0.04409574343298813, -0.542805084251556, -0.7464162955385165, 0.683161609435448, 0.5607129945038244, 0.7991794431718294, 0.8816751008013843, -0.32242003691908133, -0.21420903260984106, -0.0480940824618127, 0.7985350013659085, -2.7317147047825685, 1.4816400709361035, -0.20342498059323239, 0.0031911948344839403, -0.4089778178644768, -0.7703278073532123, 1.8009190885283686, 0.5788875425493526, 1.784061417903717, -1.110674753797738, 0.20170685061353202, -0.45178765549181177, 0.6939154414083283, -1.041308038798213, -1.029472252656353, -0.26206048080961086, -0.7820829590462708, 0.4185933814459766, 1.7729703892913795, -1.4667680183018097, -1.420576612542733], [-0.25525806699221043, 1.5615085769121377, -0.7020803311958712, -0.0680161326088661, -1.1966782470110238, 1.2114395090520869, -0.16627378040904447, 0.15195669509238577, 0.32312882126761644, 1.0356523872884638, -0.3365173305105221, 0.028647440642821417, 1.8874532193233136, 1.2330991456385338, 0.20299051960612347, 1.1930953863391809, 0.4303579525074835, 0.7379763123988194, 0.9510153336278997, 1.064365803957706, -1.3830894256351691, -0.9129176595661758, -1.1489508073245172, 0.6875811187123286, -0.28663304870296663, -0.2700837066228151, 0.8193602024738394, 1.5321822103343115, -1.912624314314233, -0.996856676797827, 0.8101853104082799, -0.15569858089073432, -1.8608242150168468, -1.9979636979537434, 0.7364999568775961, -0.2512078789349903, 0.9267313484521631, 1.2526835445568438, 0.14745233725093518, -0.2367991113845835], [-1.7487611284100033, -1.9912693636736667, -0.2390089546521365, -1.0302774925121434, -2.088065154634085, -0.4692539578183724, -0.687886819463071, -0.4017961256375844, -0.7811664423923937, 0.12132821972602842, 1.1908752652410473, 0.1670202625928457, -1.076952122034079, -0.4032037422277688, -1.2546232941871234, 0.7523750480792379, -0.8056730442248067, -0.35831397984065155, 0.7337906580455223, 0.13559197696264316, 1.6599427837826852, 1.0384629097075844, -0.1964481122542572, 1.242652042486537, -0.30567243820936557, -0.44726880856171053, -0.40079693312487225, 0.3435840211365488, 0.2999475955064751, -0.24706434484976778, 0.6304273846295985, -0.3162903972320903, 0.362955962909507, -2.2269234950747965, -0.37164775281390006, -0.5184457677676412, -1.0779173601268528, 0.7739090080475919, -0.5059643687269538, -2.1075609062651406], [1.070581425294608, -2.1613588504136882, 1.0663701930286644, -1.8792326921539406, -0.766512290537644, -0.39750814939265805, 0.03526609591004194, 1.0648651877965556, 2.577894022235729, 0.7515641117018425, 0.14831950090921192, 1.4225804279930045, 0.3720753715050749, 1.5072471391897186, 0.013008863552733126, 0.08933471675017672, 0.5463232460101743, -1.9295159178357202, 1.4915528934166853, 0.789135652599028, 1.014922372725217, 1.9784662347607376, 0.6402504072657854, -0.85767646957231, 0.029855761822242956, -0.002506682583014451, 1.150385798874388, 0.6651631942306437, -0.5980821168614472, -1.110573434341576, 1.5404341489145585, 0.1509492022197518, -0.32003863103082103, 1.0990161403456313, -0.4831970602507748, 0.9906866567468097, 0.620057433944584, 1.96053855569697, -1.7664445321006828, 0.10726757766725316], [2.3942934928278605, -1.516358353887559, -1.6956746589888194, -1.7601413911929313, 3.1813572182505427, 0.47345774939849955, -0.8351362901720182, 1.0297737068535884, -2.1696525346548317, 0.46870775636712547, -1.5531181778199596, -0.8580193953113581, -0.6556570056870259, 0.07725441995157428, -1.6020679232245278, -0.12487019153363133, 0.06165098432117118, -0.3803379777029966, 0.7763702042318887, -0.9043017390878275, 0.04112094658556216, 0.013628996693532023, 1.1296912969921546, 0.38767763157650814, 0.18124141426438173, -0.4553296807034518, 0.37502987935615695, -1.221634989125093, -1.5120101895562812, 0.17144333458127112, -0.889305235306087, 1.7178372870686125, 1.4105646284331261, 0.9118897373219216, 0.16261168132810028, -0.7992394855811196, 0.5886795556139658, 0.5080085653947719, -1.0104347543427648, 0.13213966481512557], [0.2765930448877861, 0.10890383629967756, 0.04846733452592943, -1.718372418630631, -0.21540362814539846, -0.648399707938592, -0.2791516684672545, -1.3658127704091125, -0.025977252861312798, -1.1428282398550735, -0.363035037612049, 0.6535976091163839, -0.8679549164878891, -1.1852241115546214, -0.7288190633744408, 0.8815267226213503, -1.0601803931902571, 0.21249187226788963, -0.29049139772578536, -1.3655197954853, 0.8743533381163179, -0.24790489186876588, 1.463804824123126, 2.3289450132192417, -1.8996781429084972, 0.863166967255951, 0.29123069709684285, 0.6769453388492955, 0.4585825466173188, -1.3870327481025095, -0.8981178763539913, 0.3924569814600247, -0.3873842967311537, 1.6247551707007202, -0.8145699309801852, 1.3003018223187748, 1.3592320209935151, 1.8562668728247484, 0.6655982769826218, 0.8585365447261489], [0.8544673026190531, 0.6825788864422502, 0.5828300352452324, 0.7137299632986814, 2.3476172596949505, -0.49119951094554154, 0.8204838479077294, -1.1196552010734073, -0.15644225931619468, 1.8645057137881673, -0.7457105446020645, -1.7190123247896032, -0.3557775534134553, -1.0499898075667635, -0.08023818237595971, 0.30616132653082834, -0.8602674964200224, -2.3846572242564013, -0.04377006608148721, -0.544378431797648, -0.6166178728231413, -0.8889939972604225, 1.0566912014894239, 1.293569871697022, -0.5031882719637275, 1.4490219142858596, -1.0398010772846702, 0.8426457996526227, 1.5284991090620081, -1.3292669520471538, -1.7705611260671446, -0.03380405980481014, -0.010104819056632122, -1.5284497636063814, -1.432151587503669, -0.8978555333828899, 0.19773308669902215, 0.48355238141709006, 1.1604025907368596, 1.48419207140788], [-0.7319304114255717, -0.09273030472793786, 0.39767708185121126, -1.1418367542913157, 0.6693189348163621, 1.9593781892965603, 1.2985108001841292, 0.373100191441249, -0.6729284623793508, 1.186297858721476, 0.8950159372258666, 1.1198547996356507, 0.8130621468311279, 1.400502677707854, 0.1411618592855549, 2.1389935510597553, 0.8158432246890819, 1.0694477461564513, 1.230233502650684, 0.2396725568699198, 1.2484586227947672, -0.6349508908602344, 1.3089630208498242, -0.741968333127074, 0.7601090932541279, -0.02561179496643594, 0.47875306262337225, 0.6162040351707312, 0.14054114859300545, 1.052000183856669, -0.5601778541349123, 2.44203518051758, -2.2705049110741884, 1.8005583450108573, -1.9080665811445412, -1.5244460169883, 2.3573411527052315, -0.8243329861151891, 0.3287986086188884, -0.2468379948934096], [0.5662332750844635, -1.3467574472975559, -0.3364990883516033, -1.3284129550870023, 0.6621863642602175, 0.82828111116833, 0.21202510837857588, -0.8630697676427906, 1.1619477085015697, -0.973188254870313, 0.47701754361631354, -0.3389490517234132, 0.9342875849362308, 1.1841527655322726, -0.5536936442879015, -0.0012666988743544447, -1.6390170673557125, -2.015362392060816, 2.2031638276101773, -1.772396344969748, -0.0927226746916024, -1.4462861356885786, -0.2829817057235618, 1.4660338195280846, -1.3778533518656388, -0.34617379634953493, 0.6910552668026863, -2.315075262815624, -0.2847287172528218, -0.9390913101994592, -0.6757295110316783, 1.0270001642372588, 0.036961295845061005, 1.7850902633115286, -0.6155321558780614, 1.3426773112590293, -0.7910228387800742, -1.2589460090923736, -0.9412340603344393, 1.2427844718963243], [-0.19199899149331554, 2.40532237454214, 2.415228250018202, 1.555165025090376, 0.6099031420172535, -0.6102958870346837, -2.2777397642027286, -1.2862209580572634, 0.12978522969603115, -0.1643271507258648, -0.7661889647007326, -0.8147797406323789, 0.6186755986912493, -1.8795174726028352, 0.5330079264555649, 0.5344610873710685, -0.05546707758237377, 0.3496015720832282, -0.9399956656416959, -0.8155714946509725, -1.1706462212015734, -0.28655505885147425, 0.839616117424156, 0.5664060020436511, -0.9869123745236132, -1.1637999482289416, 0.791273818474385, 0.384850620778651, -0.9409151846562567, 0.36133479385554196, -1.0113974788524376, 0.0008453400972523107, -0.34204455673500633, 1.1244726726352858, 0.6492673460975115, 0.8251827394673789, -0.26069564292023417, -0.4001910531616159, -1.1082269013283654, 0.8153538401545513], [-0.043227507994884465, -0.39133570956472985, 0.8026050820542897, 1.463982167656991, -0.7655208165675427, 1.0607507606458115, -1.9732615582200488, -0.7086126196116735, 0.5549827807989781, 0.2577464140687029, 0.18269652656235963, 1.1762775569662087, -0.4271072021054391, 0.22457071577306892, -0.14048742584518456, 0.3429819729972915, 1.142767782725631, 1.2624184103180878, 0.6867846960458834, -0.5105617406297713, -0.057075906378813296, 1.0961067472296913, -1.0621063299890154, 0.457977350929247, -1.2371738854420353, 0.05259473715234173, 0.6786525107492052, 1.0935068974105293, 0.7011193667231941, -1.5891028119688695, -1.0949049221171574, -0.052158101044005534, 0.6628481450601548, 0.5834718797376539, 0.20746316938839693, 0.34860551671185086, 1.3063283563037826, 1.7091639378560046, -1.0099127922648077, 1.0092269816375758], [0.39980375460388046, 0.13108146556374686, -0.14471659073154758, -0.1538246395341486, -2.9694603552085503, -0.6184298672842554, 1.386364827985627, -1.7354639248491128, -0.08600514570241205, 0.03830089557544058, 0.09099537700012723, -1.2442696967495663, -1.274087057799575, -1.1440732516801322, -0.4374586466875207, 1.6259175740952074, 0.5575872228648183, -0.412402184675504, -0.3228555892963537, 1.236867093093832, 0.618884237782039, 0.02735642101892278, 0.7655208897857011, 1.3598697315777681, 0.18404323913217088, -0.36204864277150606, -0.14084304653273794, -0.5150978221695316, -0.03908834930586641, 0.5700552536549468, 0.8940566140737085, -0.047444935512860845, 0.7550011617795145, -1.0936641745077071, 0.3883962465874354, -1.3412982375666382, -0.8601951337977025, -1.447240494364843, 1.3020512714319201, -0.9272310244318832], [-1.3561391005868175, 0.7959368404858517, -0.15870556816370182, -0.7567029321668761, 0.5056104473295825, 1.2954683476998425, -0.4680501006977484, 2.3427897881001485, -0.43232279006046953, -1.5741817685864186, 0.24779293116735354, -1.662940001951842, -1.759933226501373, -1.9555809220833782, -0.13366404423223002, 0.9168345774769732, -0.41041402097363067, -1.2500218010692756, 0.606172573514982, -0.6448023893059314, -1.4201878556041676, 0.8910715996540316, -1.7128076869030668, 1.3096856128968133, 0.5520713140755411, -0.4274385423088864, 0.04015027980242757, -0.4756333391021944, -1.973536079821253, 2.2920033599861327, 1.4028832507415978, 0.3965344744101884, -0.08179583525238107, -0.40137262168844806, 0.5395651680819826, 0.09494265827683064, 0.3835962342108408, 0.8904493483396311, 0.25763728511013867, 0.5392877372858359]], [[-0.485236358706982, -1.9991664349149068, 0.5569923554799958, -0.2675069404660823, -0.9517785379718776, -1.18718973911203, -0.6851003995718631, 0.3081897117651802, 0.28612911659972345, -0.29456430287347635, 0.7136761388018701, 0.8196164218119658, -0.051503831283400976, 0.0605489143501609, 0.876131075348484, 0.5098455963016093, 0.6285668148522573, -0.42943323683251367, -0.01471062697136394, 0.037823623238235654]]], "ep": 500}