{"num_layers": 4, "sizes": [60, 40, 20, 1], "biases": [[[-0.9571358946309267], [2.4600452371735515], [2.184808918844835], [-0.8079564243215498], [0.01244293642679907], [-0.2682710564298946], [-0.09043565767744624], [0.060069459605801435], [-1.1864338036014788], [-0.7848761232334399], [-0.4746900701823407], [0.29687392490385855], [0.10424567240531422], [-0.5370646831288822], [-0.31017770340751494], [-0.6799771739218454], [-1.8731052654011395], [-1.2902890942721181], [0.6204883629302613], [2.344896123790113], [-1.4600593713110803], [-1.153673706748814], [0.4904663122386709], [-0.8352179229363543], [2.5808175720114233], [1.265077137362419], [0.39807293724200815], [0.9147159925470222], [0.09526822072977463], [-0.36302561483326484], [0.2967944863648463], [-1.211859791380884], [2.2210285279981226], [1.5770648428738197], [-0.5249518095618936], [1.6999407828479414], [0.13767277731445673], [0.5229079531440102], [0.1394201769414205], [0.3050117514088259]], [[-1.4220742763925427], [-0.2624791882464128], [-1.6766040356845828], [0.7060982214626075], [-0.2987547775872905], [-1.2040822495164865], [1.6326236688900286], [-0.4075644612724753], [-0.6884869677565923], [0.5690120806827946], [1.7324125251864748], [-0.8173686006397335], [-0.7503753396110378], [-0.2690244117545998], [-0.36790624998218074], [0.09281388285877076], [-0.2551558333381196], [0.6777705786261005], [0.29943134084868717], [-0.17781344412944372]], [[-0.35241686066625366]]], "weights": [[[0.431296400654156, 0.36321753902790216, -0.3488713017453734, -0.0018805664185340173, -0.8962788861166301, -0.6193854239374867, 0.24272258569874214, -0.6008444575516382, 0.293282090396566, 1.3430973853839054, 0.652285024663686, 1.7083081692247155, -1.2420303665724401, 0.3466626306540499, -0.43007018260007923, 0.6458078049570497, 0.13201760972437204, 1.5554530191773077, 0.7889264803780357, 1.3182617461941115, 1.9629362277818059, -0.3954607138781586, 1.1316188461842829, -0.11686259679293562, -0.00485844290109944, -0.5366044097264405, -0.2563319376989062, -0.5005273011578183, -0.20103733521274925, 0.04018761294679335, 1.2079782170070135, 0.11811064269290959, 0.36262809050566175, 0.6376932460014954, 1.7644241735360704, 0.22675666498394692, 0.2652279251550063, 0.24270261783194125, -0.3405565842556515, 0.39342044938329845, -0.6059300627838626, -2.4513337286310377, -1.3428588180301246, 0.8868424638076889, -0.08588857788969258, -0.6085905511811545, -0.4240261655287005, -1.4746784740908707, -1.1821399440247036, -0.11886324723777561, 1.7758933222778268, 1.1001578901180225, -1.39293678703765, 0.5907857447735679, -0.050483048575232045, 0.49740580425344744, -2.256857457016446, 0.4567003633555733, -0.9201741074215796, 2.258936189880848], [-0.30286782941805157, -0.29952640353242194, 0.6589270382385537, -0.7823080782066183, 0.11784997452147537, -0.597060533926238, -1.0304331677744365, -0.21721823487141964, -0.5878819598171569, 0.7209526922131612, 0.11884291325024751, 2.306791131019672, -0.2709067458494175, -0.13405477658230272, -0.6511354127835031, 0.055690109339707375, -1.6060381140185038, 0.9192294169350221, -0.14182961893861185, -0.054215085939252304, 1.7315626421991501, -0.3668864634590597, -0.19542783022908808, 0.5129659951354775, -1.193157585417272, -0.888220490022084, 0.033029068762132005, 0.7024065703159353, -0.7819234667288292, 0.6916401417501021, 0.14273336254972985, -0.2535121808619744, -0.91351722515091, 0.5173682282330311, 1.3238807825204237, -0.27118661390835885, -0.23980249011656812, -0.5131620308319232, 0.1535999479664094, 0.3303393156621234, 0.09099845033987698, 1.153213273764502, -1.066337994940762, -1.0550966177222316, 0.01772060176110087, -0.3845098898896011, 1.2236721405767548, 0.07796952646328041, 0.655324114915818, 1.2184375436548143, 0.4646152822682708, 1.0779515099250252, 0.34590499164957617, -1.444503880498318, 1.5344277172998115, -1.0409065245157312, 0.9178359161919593, -2.0387261565334356, 1.157275865865655, 0.09336227949511354], [-0.06488420678796004, -0.5509572252069115, 0.5489437074996155, -0.4385486779226861, 1.952149863661301, -0.49369041007917236, 0.2916195981665043, 0.2850243006158925, -0.09492560896078238, 0.717915457932636, -0.6358401811646853, -0.746416122484349, 0.398272690818976, -0.080794069769785, 1.398052310185091, 1.110244017031997, -0.48272194203288854, 0.2659669445509202, 0.9982605685102853, -0.8298290404703019, 0.867336017515796, -1.0382696186178784, 0.3880724270152135, -1.6225649957986157, -0.3406809120799034, -0.14824218522629865, -1.930638234428597, 0.25613498122759015, 0.7127212023895442, -0.5259548631387125, 0.20272452227977494, 1.1600615353222394, -0.16039906108954333, -0.6457129197516779, -0.10076415005455908, -0.01521487045305338, -0.7946422111343668, 0.5995713026487519, -0.13140814985493862, 0.5833656208750483, -0.19799076544287744, 0.32709416906700034, 0.5050475130932119, -2.8186899898342466, -1.3714121286242607, -0.0397963116033157, -2.021926120109171, -1.421602320867706, -1.3525161991622676, -0.9538337414500121, 1.4005674972641207, 0.044482908171513666, 0.3485657877735745, -0.1753265209092581, -0.24212626251104574, 0.2732871460861661, -0.9720044744619063, 0.6273566465096772, -2.0294682910100055, -0.19126109018740886], [0.614063717599874, 1.196323826483003, 2.45018102262359, 2.1106557891185984, -1.5548718453431214, 0.9137509296814855, 0.049927870965324535, 0.4659966627674498, -0.6732505820657806, 1.0069910963562074, -0.5582710629533628, -0.05023116075185322, -0.09379996137044769, 0.6946993089073831, 1.7821617333986983, 2.039984082215717, -0.3853076842710679, 1.4444888929814073, -1.7389979024711397, 0.9426541605321087, -0.08058215676412998, 0.21066695733016857, -0.07622811017682843, -1.3076620715396376, -1.150506624702079, 0.2703205911249229, 0.006134799561668903, 0.5144761586759342, -0.25196128460641937, 0.8512259063296475, -0.5816056718580768, -0.24919246364144423, -0.5901651886275524, -1.0661912596975964, 0.45315088689627675, 0.944096692831229, -0.33145873687132343, -0.06889507668521946, -0.06505168047914071, 0.947279102350356, 0.4470890817977955, -0.9769820281439767, -1.7294190611675504, 0.5768137731327292, 0.4154593784720019, 0.8553479476428935, -0.10213868735823144, -0.11841650560701614, -1.6023394270980507, 1.0743430839321852, -0.3026930473137529, -1.000724013044949, 0.21543548223954537, 0.08991600196796672, 1.2984833622001628, -1.4015748762059204, 1.3396330583288087, -0.07224352243823477, 0.5601279303878498, -0.3864317532810869], [-0.013631107471053266, 0.0084871735047538, -0.3958714380725762, 0.5004983134175275, -0.2745961227516644, 0.5308126574009138, -0.36297468506709446, 0.23604584300314144, -1.4867850112872625, -1.1541674833326356, 1.1379874118242288, -0.010812172836423524, 0.04694600835610023, -0.40070117873923644, -1.2864788218374263, 1.2551357952509825, -0.6232841880527125, 0.9364991551552313, 0.29820970308763217, 0.0609447178896489, -0.7802652936890284, 1.6463065908988863, -0.6639104312982217, -1.0400785974376991, 0.8366339643529096, -1.0321093860219197, 0.05278823603853737, 0.2083723681432385, 0.23442443959509698, -0.5327579575645977, 1.990635486785313, 0.9274609867808553, 0.9981134663857065, 1.0633106856413583, -0.3961899555143275, -0.8376397059454541, 1.2719173784708262, -0.8499054112907826, -1.669086836972693, 1.4270271775794392, -1.6269729129736437, -0.4253480084846213, -1.4329616219502224, -0.2750853521249848, 1.6890931731842465, 1.1257331474153784, -0.21886409363413495, 0.032331316151322814, -0.6902626895464774, 0.302192063152832, 0.6670601722261827, 1.5171123408164622, 0.1326174515370589, 0.2317514231332175, -0.8322478257044867, -0.8878513569749273, -0.0362040188991484, -2.0902782046243527, -1.3712956301392305, 0.04963163525722711], [-2.101486318174129, 1.7691676665400382, -0.07357058652680828, 0.2739209328707396, -0.49064321524036425, -0.3530048048451253, -0.28332284096872734, -0.09291917766308352, 0.34722365539202005, -0.1297057356256081, 0.39598599424889525, 0.26683535130029284, -0.6191971582224824, -0.4925890302803124, -0.6786799920445238, -1.279845859644763, 1.9138412300284002, 2.2908352597517823, -1.272696253270141, 0.7579742194905162, -0.1394778290382304, 0.6399553871762865, -1.5293334793906679, -1.0841586870682147, 1.6314342089053755, -0.02258098280231702, 0.02252508894898216, -0.895605915025568, 1.7164391788636424, 0.18624113099188427, 0.11017128617446664, -0.9933329639154447, -0.7798053397573733, 0.6791112324386148, -1.6067502409683128, 0.26573081906064006, 0.8633768931766778, 0.6939405654446569, -1.6675743995068588, 1.2803308464632988, -0.5353597465213008, -0.6598179113568667, -0.1837191880848173, -1.1660461474608943, 1.0011108167666238, 0.8016200294328675, -0.8954596662266, -1.6163250044195936, -0.8825805609406441, -1.3110150170174841, 1.4794565554548778, -1.41095883399234, 2.7654075309918777, -1.5606584154622776, -1.4578178872132799, -3.6533342122430477, 0.40749529542174373, 1.3270415744859057, -0.8051762780613654, 1.642341685133391], [0.6066478231881913, -0.3869462591030923, 0.2517447978490835, -2.2901987315156753, -0.4821475922990248, 0.06082329314947718, 0.8033466392186072, 1.1014986535803353, -1.5123167813989753, -0.8307834213460497, 0.21404109414848835, 1.7452848294091194, -0.3550479078359486, -0.43544641156765, -0.46158288886147286, -0.24580133732633566, -0.5105525639331281, 0.4814410009868155, 1.2808938069850853, 0.3172882896105194, 0.06405147849470222, 0.8050686331359209, 0.5250145633445529, 0.10618326481013823, 0.2722884061664746, -0.06496433733368555, -0.2304486078376768, -0.5922733899531865, 1.6299745793532017, -0.8699614532007917, 0.9931612334326178, -0.0728074619686169, 0.5817482379523277, 0.11932992776264506, -0.7872403795866627, -0.916560591479571, 1.1095289687682068, 0.1202175047467331, -0.057793985128689974, -0.914925332713083, 1.5442394756664337, 1.1078454032941636, 0.09968813672548422, 0.07550520445698984, 1.1231639539151337, 0.18326665992841382, 1.0656677855141774, 0.40227439778622354, 0.1886030577370799, -0.9935944456964276, -0.7956004276938349, 1.1884654092721847, 1.5926966450864062, 1.132988769064181, -0.3906711900212827, -0.6457449985855365, -1.9354470938037376, 0.6058660539254813, 0.6223672293188157, -0.22689790241285007], [0.5290169037363536, -0.7306409432159495, 0.6505052296224604, 0.7013569791634033, 1.693107756848709, 0.5953657559849042, -0.6671444790570165, 0.18016191774402762, 0.01097062740557551, 0.4006822282541494, -1.081219754055092, 0.17315021117168497, 0.26484600507803757, 0.5393031738199959, 0.8363796829321463, -0.203255280869022, 2.7848664742323552, 1.4316203674644061, 0.09372126574443887, -1.1849225190671955, -0.8448919957986892, 0.7248046307325491, 1.3937515224582047, -0.18736443266142905, -1.6202587801888326, -0.3914028073299542, 0.011021034371189974, -0.6430726711244881, -1.659856427352239, 0.01619726818745617, -0.7546221016337782, 0.6777749368535124, -0.43254787390141847, -0.5246420286778004, -0.6065198292359567, -1.0101815585152554, 0.4403037376702643, 1.9313241202309153, 0.7089437402905585, 0.6380023483785516, 0.710938639496408, -0.3442517599259688, -0.22065504683383308, 2.6322659339058316, -1.1969052607823767, 1.0331280388487016, -0.020968628172078882, -0.06168908822349224, 0.6098557666890827, 0.7966570213248633, -1.1107026138051073, -1.4869636343057773, -0.1947935414874089, -0.02765777829278473, -0.14749198814374653, -0.35724132127653907, -0.2033335308479911, 0.07814048054642678, -1.2507016019674406, 1.4990526648527356], [1.1876573189094448, 0.9987083383761501, 0.7776348998803119, -0.6842134122368763, -1.4844831205526368, 0.34094814040026405, -0.22412969601609964, -0.46173818073003703, -0.8412700561797478, -1.7380382867701303, -0.12254302747982294, 0.028719865452441498, 0.2812586089089859, -0.42758633564723886, -0.627668864513506, 1.0175143925281454, -0.48567266108474005, 1.4878246691390768, 0.18840504687619417, 0.41748012205949203, -0.44047555936749, -1.1835696894586036, 0.04831591018609366, 0.038844190364594806, 0.021155464388230828, 0.7398186443199782, -2.6748006180151833, -0.7319204250833866, -0.8806203026850686, -1.1768865671657143, -0.9000119503190219, -0.5712701365420187, 0.23762794671341667, -0.16761277312681722, -0.13601196883307914, 1.184497184238819, -0.3088582583837559, 1.8519244623428883, -0.9446164579525888, 0.42909165979710145, -0.2505184789707401, -1.7707488426985198, 2.0155150194615623, 2.505792515679272, -0.03776503190760382, 2.0578179723285004, 1.312332963553111, -0.5599787618894373, -0.3857975096862126, -1.0660003251224819, -1.1120854048382998, -0.18059679574261792, 0.49271401439291757, 1.2351378650104692, -1.4857743903253686, 1.0563219002228454, -0.8226200883944763, -0.035786999275781974, 2.353489716541944, 0.20676843375913637], [-1.0761826422853686, 0.37498785244621335, 1.0606303318169938, 1.7319787987036896, 1.7004341508154635, -0.764627189781558, -1.1840837016152614, -0.11428908790733637, -0.7186853361254034, -0.545694257940487, -0.45197289931350715, -1.2900237140957926, -1.5079700089717594, 0.8162759180736038, 0.15280132232580693, 0.23176081027923917, -0.7194973984192, -0.7851924740875411, -1.2864690361989732, 0.055635886078065404, -0.6682008897485566, 1.3363043711037614, -0.5186199952884801, 1.2837965370166908, 1.781011077638861, -1.072862589613954, -0.92265547477305, 0.17909842412557977, 0.4198751090000766, -2.60475506619814, 1.2031572349732231, -0.2037446032266403, 0.1139921105506654, -1.2486685953332735, -0.42683322946369584, 0.9170903739616182, -0.13221007140132165, -0.22178394921363376, 0.38405704562973303, 0.4995798362234041, -0.3176856576741626, -1.7797461920788238, 0.32606148376829736, 1.6142984732341825, -0.9453164265580059, -0.07885359970650616, 0.06801089039141509, -1.971590560452784, -1.3141138967272001, -0.34936234990188836, 0.1119193809193022, -0.7676695578028966, 0.8089487114718406, -2.08728528567969, -1.0272455678264922, -0.6265770786885807, 0.26926258428960503, 1.4245828395454971, -0.8462740942670341, 0.36924755970216466], [-0.23319779360774362, -0.3742226316910606, -0.27153441213972235, 0.8169457330101254, 0.46157524241824777, -1.5259489444567427, 1.3318774397489972, -0.7299468042061251, -0.8476884337791981, -1.0395993769529313, -0.39763427963197656, -0.033024754685589915, -0.057662954813863805, 0.44706013827087315, -0.7876313080648388, 0.8310899817329049, 1.2542417248129798, 0.9982236066273336, -0.21141623916675167, 0.4359099617320284, -0.4556632840785228, -0.8152447275098691, 2.010198526146528, 0.16247361983001044, 1.3894769630465107, -0.09503474464358724, 1.2984916589325555, -1.3740387886408398, 0.6032160159944295, 0.6133551193769393, -0.6334265045451086, -1.53040063451737, 1.7241669700055742, -0.8430328874309679, -2.43370562370956, -0.4110857514067981, 1.7939799758963513, -0.1933486047903761, -0.4769602461230744, -0.25090366739685765, 0.7966975848172291, 0.633585107725454, 0.844114640155519, 0.9935317581850028, -0.06715294150301206, 0.3305569367630151, 1.4096314076465755, -0.6970737544447442, 0.22877227953049897, 0.323408031622418, -1.1497439092870239, -1.6074745657580733, -0.14115067434741968, -0.026476238969885567, -1.4667145047302126, -0.7182615637881165, 0.45791577223855673, 0.9740663280779492, 1.113497838218879, 1.111525786726975], [-2.5163193679681264, -0.4872634219125579, 1.7178336580915112, -0.38584474478918185, -0.5835101270183783, -0.7449190616471653, 1.000228600680493, -0.43144975170293015, -0.363865875218298, -1.4987194143761429, -0.5516429800154343, -0.45574844883579024, -0.216203643411689, -0.7432949091603791, 0.30384342599540737, 1.1887286285077432, -0.37167435824407574, -0.81647637360259, -0.18621970022046241, 0.3853015732273802, -0.3302069243834617, -0.6249583923466042, 0.35530702044965673, 1.3021874756379415, 0.15654888311171375, -1.2440408000209042, -0.21738317062154855, 0.55397744854577, -1.795946456741743, 1.6646158090001022, -0.15296966737250708, -0.40693116797699674, -0.8269628919426194, -0.12846298471965004, -0.49560860123720757, -1.8481902255514384, -0.36784915830482245, 0.9512470398963195, 1.0828875950661387, -0.5121261237601638, -0.7454497997978203, 0.5786842541669978, -0.8820066933919638, -0.5335358235294715, -1.5194388101391667, -2.4030100607907725, -0.9746828032113616, 0.8910210181285868, 0.9185896691251184, 0.3815340298776912, 0.2906824458163742, 1.4719551379071913, 1.0792855898053806, -0.7729517576247126, 0.2933267438017581, -0.9107871372599778, 0.03951345226586445, 0.20270231016356166, -0.13856147068828753, 1.568228180384122], [-1.5439352537826099, 1.9265882650587234, 0.22676711852376907, 0.3035037161649492, -0.4675119572175837, 0.45336068284779385, -0.8899462184648973, -0.32798686638855135, 0.05204845000937636, 0.44810246204295195, -0.09173273540479494, -1.2590952437303622, -1.4747561360517454, -1.4763876960834381, -1.4691891481791493, -0.49667961030383967, 0.34408486971614793, -0.3389946702727011, -1.0378915282776495, 0.2808064610855552, -0.04051632336769416, 0.860635405600268, 0.46802023171294305, -0.12412058938866098, 0.07492340184838181, 1.1748793743327366, -1.1915354411862347, 0.2577490007939325, -0.6968113779127129, 0.6826344290659534, 0.713153719306794, -0.6848382047872527, -0.01136271431138546, 0.7400415381678018, 0.04049134261751629, -1.3885008748699528, -0.7427606077525725, -0.8827905916075389, -0.7882112709662628, 0.2967177156790474, -0.8934440508114717, -2.297590885721196, 0.9424592111688991, 0.24121183835711538, -0.020731733084718602, 0.6333448155446385, -0.5075509114272038, -1.0462495783456547, -1.131720335014664, 0.4784509995648441, -0.7888354806849444, 1.2566504687152615, 1.374821270523396, 0.4768398058400268, 0.3681286267455832, -1.4609759859324343, 0.6905500054362177, -1.5084537178291701, 3.3761459328851573, -0.8931085991369578], [1.5954592730642152, 0.06490333377139686, 0.493093813152897, 0.1437631594933417, 0.0752329519104453, -0.997209292061915, -1.6446305011822948, 1.2104328144524938, -0.7488554641084456, -0.7476216075025285, 0.8566790130050804, 0.830192104041317, 1.0325522573527393, -1.7710725762564945, -0.6770390635615606, -0.4812065734762535, 1.3594838938178289, -0.15862387173943582, 2.0892003893345863, -0.35609096403667434, 0.2250140538301089, 1.7487004656057168, 0.022604682554383727, 1.090376600402067, -0.06448850973047013, -0.7746360421894147, 0.34959506146265373, -1.7135155849543076, -1.5538369950456477, 0.2278032652228437, 0.5238748883223094, -1.8399125786714532, -1.1268943258864121, 0.04771202368062312, -1.4906778541716492, 1.1695941014287534, -0.22746654669389035, -1.15708354895937, -2.3075865559803406, -1.0976199618335936, -0.615377299312248, 0.5271228187619051, 0.17914865592779836, -0.3075148533344033, 0.5090533881707957, 1.1015632529655295, -0.8973286130498456, 0.05018422884692975, -0.9264218416838838, 0.2852526617078733, -0.8933219177714834, -0.177083589155452, 0.12566770427609222, -0.777056390091669, 0.7787344596386708, 0.30131806514865245, 0.35234657494476, 0.7838231229415739, -2.2206336784002128, -0.8196742626031615], [-0.06390564443053, -0.2103694554936365, 1.4490343668144572, 0.6106091912447597, -0.6034872286397995, 0.09848946401596106, -2.328834641758454, -0.29788247180263, -0.5304261351975145, -0.8795769716060555, 0.05665487945373726, 0.14602094368956756, -1.450081922365162, 0.7959852400264058, 0.41800977702653097, 0.11058146179780587, -1.0102080692501223, 1.3483645013650385, 0.27159319621089034, -0.907468207532564, 0.4106260052511154, 0.2945927312406875, -0.4764840470249181, 1.0187550312802929, 0.625808308966162, -2.427425246278835, 0.09720868336014618, 0.2580727808718778, 0.9251714160475786, 1.124053853838604, -0.7854330060281881, 1.510824606983459, 1.719877233869599, 0.3975251280278606, 0.7813269904506884, -0.5211060928137169, -0.42838982255842356, 0.9833074911383474, 0.14612741078726288, 1.3689905687686592, -0.44586270981449, 1.1736871475137312, 0.5567694217863062, -1.2623286579433175, -0.5430344957922687, 0.08546720940706007, -1.3952451205568313, 2.227346129084214, 1.0666272852565566, -0.2307834141942565, 1.311507149928121, -1.2576768019705729, -0.26592168622691026, -1.3142877423311836, -0.8731783327807827, -1.4225140923752981, -0.839844175724895, 1.5745218678719617, -1.8929458043396148, 1.123974967428152], [1.0203939091551808, 0.8999343503818192, -1.2201875045798072, 0.3236884929252441, -0.5953562815031386, -0.1593129405304647, 0.43348539386769885, -0.3985858624643716, -0.43079473822300324, -0.9926773607072037, 1.2530431522302852, 1.6578282473820465, 0.9519931263923237, 2.1721248005240326, -1.5135710443182884, 0.48760377065182253, 0.2252544217982168, 0.7609467533010374, -0.5468836587153888, 2.1310376675316727, -1.102973749579764, 0.9911042609643977, -0.507526126303735, -1.965946506786644, -1.0335999240456846, -0.520536244411655, 0.4840545318368475, -0.5444433106625968, 0.9421328105255433, 0.7266234698694313, 0.5188838108155206, -0.7534367781106102, -1.3120440366045956, 0.3047126651931151, -0.37563668190744604, -0.08505259016448898, 0.017899846690907543, 0.32944244339351497, 0.9506557118378238, -0.14924981684510552, 0.4878925586621795, -0.9105372785401435, -1.353550542305034, -0.6397073926392656, -0.4758625121798796, 1.0833953988839014, 0.06213044078209869, 0.6939617891807426, -2.423429338302845, 0.4268384761139966, -0.7908648351272787, -1.801912054940546, -0.919598866575819, -1.3417553181681436, -0.8020302364672119, -1.6328880864677333, -0.3780748390496334, 0.841729045009247, -1.1197397488361407, -0.928813055417685], [0.5823098151430842, 0.3222128693069624, 0.8423182802442988, 0.2899162552934278, 0.4366606896700538, 0.27184188623197825, 1.020649615993714, -0.4774712448550164, 0.22012370836598977, -1.1437599502061273, 0.03416515530630074, -0.8192153110266507, 1.183814841214242, -0.7960871266489032, -0.6739422146997478, -0.46101348580809454, -1.0788440404274415, -1.365314064971026, -0.9022554004756049, -0.44657616705994263, -0.27205787093753436, 0.01727270931509528, -0.5698833534019323, 0.19435450242538363, 0.11677727794522194, -0.31772550109643294, -2.0383765291303324, 2.6167204595532216, -0.23555179459608533, 0.36814897796214624, -0.5701210307367099, -0.23100351586190618, -1.0934094528911076, 0.3665401108950037, 0.2913892270105657, 1.5293374274104505, 1.235198794482975, 1.550174750615383, 0.7986873021629266, 0.05802673365436351, -1.4152859780136404, -0.008493742267228288, -1.4878483162331373, -1.1932953610440367, 0.2695336216170217, 1.1622345274086314, -0.12846526646244924, 1.5542798156972857, -2.145392519313891, -0.5661677152749861, 0.7217818679077967, -0.932478358401387, 0.8426518977400244, -0.15192517199992503, 0.8700128753108491, -1.7786173635223046, -0.48374301125331115, 0.3642893040722545, 0.5362455929586112, -0.879863239002636], [0.3936199158149454, 0.047561817401148496, -0.8704195178133588, -1.279968423176271, 0.9710950987204249, 1.2427244912193296, -0.05332126696235882, 0.17171170543775602, -0.268012370572562, 1.5306868525641841, 0.8306030539542745, -1.1823358064787652, -0.850620075855503, -0.5036239779332503, -1.1860554278323874, -0.31011394499113115, -1.1337727646795706, -1.1269821715487445, 0.6788100191679224, 1.9096217608837567, -0.34385041338860545, -0.014629478403244226, 0.40137496511340587, 0.3009798486625903, 0.49085183510136154, 0.35442564459187825, 0.9652764643944667, -0.3448422440384392, -1.0216282255202678, -1.7750348462208387, 1.788446911896876, -0.3504124782685598, 0.27300602424700016, 0.3874294768404321, -0.14392903891633044, 1.4773059561981419, 1.3176239885577679, 1.3533775521544027, -1.4911342214314818, -0.4393176124167691, 0.9940871306316382, -0.16078716058781067, 0.2193508983985967, 0.4860383162687181, -0.6567100325780751, -0.8773617606838641, 0.8920339872939729, 0.4646211563964428, -0.6790147309488861, 0.014020886326838133, 0.18618736476869283, 0.19965936626783043, -0.04371754811298209, 1.5029071476025553, -1.3128971258173494, -1.2300118831469182, 0.9151834733899454, -0.009829115279379486, 0.41676934014695044, -0.8116635702779527], [0.9891948159999079, -0.09376643533961085, 1.816035802099666, 1.417073864321336, 0.036385028574813516, -0.18933811740187187, 0.3985676546425657, -0.6655227880181037, 1.597028763688766, -0.13381736048355172, 0.49471137514127944, 1.9502913768742243, 0.932448563456473, -1.019572679339898, -0.21508922461649504, -1.2959018927759052, 1.4231886864723282, 1.7988767038269955, 2.2621255021381215, -0.4882328629089355, 0.7154808914959426, -1.953511735277794, 1.5772176930508748, -0.5736001233695562, 0.07527087219339076, -0.537130447505588, -0.027987507185766126, 0.6427678470912431, 0.24522458928879376, -0.2069161633238899, 0.2168161553126917, 1.9320540054134323, -0.680144292634387, -1.3574444034624558, 0.5815712874782968, 0.6413302899039186, -0.2326285957670149, -0.9751876875235441, 0.10248294196526812, 0.13106013083054138, 1.1807738786768212, 0.22748042658411777, -1.0963115799954886, -0.5090579237492537, -0.47067630640817604, 0.5082433913045359, 1.2082296047824732, -1.2864381106789786, -0.6085907401064325, 1.650363431663902, 0.01483858634909077, 0.39840411698489786, -1.4330737278643506, 0.5048940875386211, 0.16951651201064438, -1.1666808146982972, -0.6350911465846134, -0.8282457187219159, -0.6346737581441971, 0.7675038123859734], [-0.8940941375730409, 1.4679769803327287, -1.1272965058536522, 2.2113976378030795, -1.283233421248462, 0.31139348126275934, 0.4805970527690709, 0.7295458767089616, 0.454524585041071, 1.7788857703201135, 0.3906271588254447, -0.9938721269708649, -1.385481834278977, -0.7314513687614963, 1.740336091564016, -0.7276676338555564, -0.9490771837616001, 0.8504545104640467, -1.2638441174395072, 0.03769619471711488, -0.4653970963876296, 0.6114045082768448, -0.9591498518586472, -1.463487406469441, -0.08933022808509335, -0.31376805379252554, -0.6128218407631124, 0.2537524028716678, 0.9804340956491007, 1.8703690358763159, 0.7102757256146094, 1.55381429882525, -0.09130712113080529, -0.4625422473721243, 0.6853467383799576, -0.30367394315071145, 0.6824289028921882, 0.40718804369645123, 0.1644958601965188, -1.244844254804638, -1.7484811470610555, -0.17819425947585782, -0.2777948395739312, 1.4260654349475224, 0.705985114609708, 2.237657641576194, 1.8972529471451645, 0.201558156047679, 0.2535143539370484, -1.311631710511029, 0.2782187254692337, -0.14960672973074676, -1.1256692500430037, -0.4025271442038284, 0.18906113606870745, 0.15799268984851916, 0.09149083991004527, 0.30266024452176854, -0.6884861292795982, 1.8568346539670484], [0.1996346995411792, 0.9907247648968466, -0.9215162448193369, 0.15133367326298527, 0.36962049048894674, 0.561279014894443, -2.410803041267105, 1.0105583731672034, -2.188304003180118, 0.9342932955352211, -1.3164075041942849, -0.720908161397925, 0.5642024593410561, -0.16215358355928555, -1.1159880375625253, -0.15953273174603488, 0.44834725355590227, -0.4861642184791242, 1.551404752396291, 0.7799133861470644, 1.4914752175795762, 0.7748368154663811, 0.7469850018510205, 2.557199648973667, -0.11836485202389453, -0.31808151745872887, -0.5091893506776167, -2.215697890529843, 0.614545231069974, 1.0306003212956525, 0.13434511276543454, -0.1998326646511057, 0.32688902813558113, 1.3468850829132712, -0.9637503126981483, -0.4550664180077785, 0.4330992635749492, -1.7330518900724303, 0.43080503896107253, 0.7404574533811448, -0.5453874218492691, -0.8342249000921578, -0.875320919719438, -1.3302579248057302, -0.17102131751298252, -0.3382325995028929, 0.33846131544843916, -0.48450766469607676, -0.5130764973887241, 3.054611084628196, -0.5836380889451733, 0.29314004590598874, -0.8548764180139805, -0.5177156956730534, 0.5258861351254567, -1.4416823596233304, 0.6196694624835676, 0.3717824511639407, 0.14631703293532422, 1.4747132208163025], [1.8872133662836739, -0.28663991315741594, 1.458351640487114, -0.21958754666736663, -0.4561929614788446, 0.3511602998379508, -0.3780038921817361, -0.395162689155486, -1.3465429659371857, -0.7447827442921681, 0.5660429438500435, -0.776470538463318, -0.9013733426191897, -0.2855810649233409, 1.1474560025644944, -0.7993199243819543, -0.024222503413827583, 0.7545751633313249, 1.4347891970211528, 0.05074258438966037, -1.309563129051154, -0.7604018189486934, -0.4702393676808763, -0.07340870878659649, 0.001842788288109362, 1.3069355741050115, -0.29059577028934175, -0.42905741047912516, 1.7843855254534837, 0.158237220168929, -0.47458387664834045, -0.4947917159465207, -0.5664699732175068, -1.0161799601494719, 0.47102917183498, -1.0291717321353269, -0.37860608221640546, -0.893605453192829, 0.6083015100924841, 1.039775021654442, 0.745503267405348, 1.8512390620615446, 0.44380997748011825, 1.0801451703125384, -0.2563264716388658, 0.15277692930257664, -0.5101779944512504, 0.29523914091041, 0.347766904078643, -0.05984998379774495, 1.006981005149218, 1.1383438456982091, 0.44371148356907547, -1.625509833919998, 1.8536353056090087, 0.12277493112570279, -0.47120487979952447, 0.2823594166270393, -0.47090683052630516, -1.3056446170652032], [0.5923463960287704, -0.6907219036579709, -0.1911960194931697, 1.8959773373273632, 0.025134058104231943, 0.5208284145210552, -0.291975956406442, 0.30088196364824393, 0.20240644287569143, 1.727859595520674, -0.79461291580487, 0.4129047169610909, 0.2973874053871867, 0.09646302757803982, 1.0459288311569341, 0.42891672921439106, -0.3303147433119572, -0.26629060361350476, -0.10375043026019766, -0.5082122627684112, 0.19754146185339563, -0.836454833033003, 0.6750525031472937, 0.1744244754272438, -0.003981942625441675, -0.6444824100506138, -0.9787229360473528, -0.17531102483515953, 1.2645552851337565, 2.025869117630144, 0.08333831009269548, 0.7571753718658868, 1.9045754320830464, 0.2331152183925633, 0.41280247944422044, 0.7758019632385464, 0.323793859675898, -0.39295940153409015, -0.10984133586789341, -1.4738023042590185, -0.2780669312415415, -0.1268354173888106, 1.4976266765322064, 0.38844143789110563, -0.33049974044313774, 1.4025894456977885, -0.08182598067293373, 0.11839525092613311, 1.652888024550208, 0.32958740978973505, -0.16674461994323117, -1.139768643909573, 0.06806045516138566, -0.15529737810965413, -0.39743026309991974, -0.13814813000387677, 0.4256952064635203, -0.40734128330259056, -1.670675904850967, 2.0146569177721836], [-1.6292723409122074, 1.908153548265167, -0.7425796327259562, 0.6964746901597562, -0.7127541450683864, -0.3595375827087824, -1.4715495060456412, -0.03794297965929111, 0.5183066731361418, -0.22268195572136615, -0.1302054048321896, 0.15946927497087085, 0.31565584675428066, 0.34116721936105043, 0.8122738711072206, -0.03343926873911603, -0.9671633036510429, 0.9302399512240055, -0.5330759449296372, -0.2280426332725533, -0.5409323319925851, 0.27601654294853806, 0.329766859079666, 1.982925068631831, -1.6265242517564398, 0.675386606972468, -0.7889332754768972, -2.6520517796703853, -0.13195556763025532, -1.7789134831516265, 0.6690001775336776, -1.020708894994694, -2.452053715948903, -1.2443565054240215, 0.07408328532958483, 0.5971304166479746, 0.1710635888753294, -1.0261539157016053, 1.4160687428514485, 0.0005504443446056721, -0.233676855132229, -1.0653532049948604, 0.09733550324973318, 0.892741539154317, -0.10348800697196424, -1.5842145835819288, -0.10001026279060357, -0.4645789760266144, -0.42576922831025255, -1.4413904458217552, -0.6461119185949915, -0.5996509391904861, 0.22615567214425453, 0.5602210325016812, 0.23636369101805285, -0.7801254774436439, 0.49094846128785036, 1.2276585443662231, -1.9161693097068744, 1.5632709860610001], [0.2769436381488702, 0.47008469008881903, -0.0809739532506151, 0.7789976004082213, -2.1443771777656293, 0.37363270198688103, 1.7940077139732642, -0.4053432592812461, -0.6090561368154449, 0.3107101585111926, -1.3389699639207595, -0.7707158785147382, -0.16083916408851534, 1.6893699491154601, -1.3839291165963217, -0.5324547119997058, -0.030468349262665523, -2.191959169414833, -0.744056757996445, 0.26505158529690853, 0.22526505209834244, 1.1060029465009205, -0.09871691412702265, -2.8203477460341384, -1.0268220342043515, -0.36045601790860854, -0.35947915207470726, -0.14794917056596457, -0.35656745633616876, -0.6430337942936999, 0.0454287905677784, -1.4037542437647714, 0.09801736530605908, 0.9893279619420573, -0.138671109223675, 0.046345516383858226, 0.17266383905953597, -1.757769259980721, -1.0547281403688715, -0.8462036283616327, -0.9271359700333822, -1.1217570446226988, -0.34211116446921563, 1.6390977985436694, 1.3870685183574163, 1.259216463678606, 1.503981392938015, -1.1516303851810388, 1.148484981262914, -1.3995116397599305, 0.41688944679570034, -1.548538000621451, -2.3710871653658163, 0.44054104308162456, -0.9781010050649843, 0.4368666434593712, -0.3106224212380864, -0.8285570686995919, 0.4534983145515904, 0.46616309277031487], [-1.1811010298612061, -1.557286370583682, -2.9236588548392173, -0.02213429713608126, 0.6228905686195121, 0.6557727028447514, 1.445336241680586, -0.19691219613761282, 1.0249464611877976, 0.3611999647547428, 0.7411012600134499, 1.6475986725732752, 0.7324416543740799, 0.5067106207684151, 0.03259313993285949, -0.6330302113936405, -0.37917880985590624, 2.298862374554409, -0.8380391407630984, -0.1391919247286148, -1.3343317699871147, 0.2004648419215788, 0.3768337850884485, 0.9263584221808282, 2.2755109897915142, -0.00342778700657527, -0.32562163457504173, -0.2520682431663336, 1.4352116399048667, 0.6049975769555186, -1.5728533983485629, 0.04558448451299351, 0.8582646097191708, -0.8607750395740597, -1.6594884631940563, 0.8274966838390666, 0.14156420453295204, 1.6744557657291086, -0.0067084088843484034, -0.6866122574947512, 1.4373953840562166, -0.2922171327354187, 0.2287845402385997, -1.330078407579165, 1.2159167117409018, 0.6760379824852194, 0.4284324137473228, 0.9726154555928774, 0.7557572522435364, 1.200289213937849, 0.8961846839131226, 0.6854031987868466, 0.5137904307651305, 1.232690484979035, -0.9602378927690597, 0.4521400465869051, -0.8926262070654121, 0.7909804258421059, -1.096926732243532, 0.3721310577407645], [-1.534395938260887, -0.23621810690339995, -2.9976835543605924, 0.5106078957623071, -0.5401677677403134, -1.6511759808613782, -0.09376353429412439, 0.7240055767693607, 0.9456145100367609, 2.8906748740632255, -0.3938133048537176, 0.48031743816260214, 1.338922586276775, -0.08741719679281648, -0.9958571026712443, 1.026917643695268, 1.5929121454319495, 0.22090490680845293, -1.2000468761078222, 0.4630608077231744, -0.42101943920019325, -0.08802176953725435, -2.1216732934655256, -1.5051314139878322, -0.2303738874026954, 0.5492212057693152, -0.8563966897222749, -0.4920616685994008, 0.1444317520507248, 0.8940366427295596, -1.0033136681900667, -0.8898192759903603, -0.5357440711298992, -1.3573955915933151, 0.42583307963663963, 0.4178351593425729, 0.5155411131636987, -1.0681908612039137, 0.35330733521188334, 0.3096921656430881, 0.9230029989771259, -0.6305045502404579, -0.4425373200849357, -1.5852160330352192, 0.6835997514268181, 0.3699017762685143, -0.03586430689360986, -1.7963545987043044, 0.3398028141681872, 0.6699249057191459, -0.1796713070509591, 0.005042943143847461, 1.1622571795958556, -0.0732938749908862, -1.5927911699947297, -1.0796033635371127, -1.3977015737878802, 1.3736322558625387, -2.048527879952473, -2.1646606033150637], [0.11927092919617584, -0.19196943826699853, 1.0028889130916914, 0.34117272372751883, -0.12723859332928694, -0.9570187605567533, -0.706458543948937, -0.045184167624666725, 0.18557874006837707, -0.8555087625870247, 0.2689718542564812, 0.8723279224590704, -1.1372435367301799, -0.3702884656335648, -2.2188743303983958, -0.7554337907892614, 0.44062334623714694, 0.6143097808837016, -0.13506215345485967, -0.1323480344469326, 0.4530110952281686, 0.6786593201456494, -0.5708141102646166, 2.191668761861404, -1.5593142690730588, 0.8407219044970746, -0.6270083514476398, 1.002007093755465, 0.047288109161287124, -0.8292701913924088, -1.134263333468227, 0.6714981871818104, 0.11647680744975077, -0.09023589898334969, -0.3227513930842329, 1.077096924617081, -1.1632318269273443, 0.10901973552158731, -1.2301392171266665, 0.08293803490071272, 0.006651766426869841, -0.2110692739493282, 1.8359480061032563, 0.053380065521623006, 0.3675738024970301, -0.028205941927395995, 1.9736953338512775, -0.8527167189996775, -1.5550965463319613, -0.09064312781145004, -0.7870214709370186, 0.2597762523812423, -1.2138030237325201, 0.2386257397215365, 1.3674805183839764, 0.05058751919172538, 0.6564476445374637, -0.5107708181756301, 0.4295438559632815, -0.21043623447559548], [0.4802484487508919, 0.8308198382284199, 2.3740436129193068, -0.27093371216607354, 1.381265347978809, 1.1026540563697333, 1.5545838448273521, 0.40748889695130985, -0.5173732316602886, 0.7111154784336631, -0.45700440567069456, -0.8153782005024587, -1.5204334760205935, -0.22545016404725068, 0.443150570018648, 0.3097565905569326, -1.2875364461992342, -0.49684369934051004, 0.9930105923149701, 0.2845814716458697, -0.01689401748669825, 3.2618955074545415, 0.32926330711012264, -0.705736427066263, -0.10373502845329087, -0.29972104735821553, 0.4368491142451227, 1.0211101392723552, -1.3575862938186192, 0.4967394986509084, -0.1922741881901969, 0.18404556238509934, 0.8349796925380044, -0.09749671697416268, -1.1160920964355499, -0.39073807805725225, 0.4478707272076275, 1.2291492299014621, -0.40093034033289027, -1.1336078969000016, 1.0372212594756018, -0.27137657520679187, 0.33712335625666956, 0.8804715545302819, -0.1715543785468709, 0.7193442764548331, -0.0761409544557903, 0.6327191374949226, 0.20976783177562347, 0.31979134587515706, -1.0337415660438876, -2.159474717323361, 0.43448836703811056, 0.08779624732408317, 1.6570922203505563, -0.6994382303380536, -0.21838346842854117, -2.111144173766144, -0.9968574288559418, 0.16991440390452], [-0.33664496724151033, 1.0206535990499885, 0.7140199800401528, -0.04460721207674792, 0.7114022497945937, -0.2597524046562844, -0.2037210404030137, -1.5217783232686144, 0.08618086877946819, 0.8150225522622001, -1.274250874324255, -0.545126368074841, 1.2264520084320405, -0.418126361098815, 0.29455376559301066, -0.154945779861823, -0.2892811939845049, -0.4358867791886877, -0.9901362014222544, -0.9388600683451377, 0.36215392365379934, 0.8600452552641387, 0.0580816808135491, -0.26669164294439024, 0.5280048223212144, -0.8303169676040406, 0.3389686166500326, -2.0903487776180687, 0.6538620305791111, -0.9193369121834564, 0.16504252902658662, 1.1915304831816922, 0.8942864815212886, 0.487452294407997, 0.1047612765574425, 1.9053375277551376, -0.1466590159215117, 0.7247975055892887, -1.3473180878834143, 0.15056352934794393, 1.133745446899857, 0.4365949032958745, 0.26235261473647575, 0.7038299628452054, -0.5264219166145986, 0.31591803910349026, -2.165823859706456, 0.050197654419800175, 0.3615941668285901, -1.0436095325214565, -0.9884083874422728, -1.3298713479440432, 1.2801820701971596, 0.26782417032734773, 0.0717527490456882, -1.811729167480245, 0.4821859144705342, 0.739780873485134, 0.7032058838257063, -0.08338876996708149], [1.847912289666408, 0.6590422039949128, 1.036313757091635, 0.7683471913454146, -1.3044483518215668, 0.5899114389921913, 0.8633942020769622, 1.3553793893538417, -0.0011039939102397407, -1.5240297160787544, 1.4785600936499854, -1.1512646587256938, -2.1613133564093134, 0.2795344865126993, 0.5944555841856878, 0.6812086230638238, -0.44502031354540694, -1.4545862613056737, 0.37875181547688697, 2.175663397638395, -1.1527699414151642, 0.6638574334119355, -0.4690326168653459, -1.9631692971092998, -0.9972229783046025, 2.6602304000129093, -0.4459120982343698, -2.919490749349765, -0.0964169832179881, -0.7859598502100358, 0.23639241236701045, -0.010531376429160955, 0.2447807878049572, 1.982409831710479, -0.37892242468198395, 1.1576067672331332, 0.34072572943896295, -0.22901212403095123, -0.5606802977811346, 1.8066702146120146, 0.3263465217539736, 0.5620093663262605, 1.699447795075404, -0.9811835659120663, -0.5149672597414026, -1.550566037101534, -0.6627935977944982, -0.6436460955116079, 2.1671658647145877, -0.9228087892902443, -1.2708616466034275, 0.09635269553380134, -0.7526245306558543, 0.8354652188654234, 0.9988747077454134, -0.8586858456917715, -0.03808273891394537, 0.6070361102984086, 0.03255124757764015, -1.617413042815342], [0.0470372283624262, 0.7842397137576124, 1.2828784551764356, 0.08333038010981887, -0.4443575718120182, -0.07042769263301804, -1.5077341356835563, 1.0574966176741925, -0.1637288292263982, 0.749603856891008, 1.438266507988322, -1.4637330294264748, -0.23698193846685225, 0.6825845495215414, -0.6532011276423126, 2.05339888819427, 1.0039343264393201, -1.1029856766346278, -0.8018781729347502, 0.6186698380185002, 0.5149123017141762, -0.9143172720384666, -0.5832392498382727, -0.9670229603967742, -1.0354864991117554, -0.019956065578216584, -1.3091267046086916, 0.1361500268316807, -1.6955048871627292, 0.28227356387294356, 0.17249316167496967, -0.6708469329850932, 1.4917774651949356, 0.8264202279573876, -0.17732571512989728, -1.1023510705564379, -0.5458560996818269, 0.4771283149666575, 0.017401852753266417, 0.7730450442347704, 0.574287843536415, -0.24819308421195405, -0.5173798937496852, -0.833768368045441, 2.41118676080309, 0.9084844609273349, -0.35476085495491494, -0.7127271984062772, 0.9988245442605281, -0.36533146416092876, -0.7094896274544548, -0.028904536574859446, -1.923952247701782, 0.7116661869286035, 0.556700285681398, -0.6872085215297484, -0.8442511249454963, 2.1554034817291665, -1.0537934888717466, -0.820340681534789], [1.6147527702805013, 0.33818237061075523, 0.24031425331005854, -0.021735796540710922, 1.017063281221847, 0.32683012597138145, -0.024181233530513747, -0.19877509172837438, -0.12941497073275587, -0.8789989411294703, 0.28126174745409577, -1.2512757574512121, 0.5493937060141705, -1.7264799611933401, 1.659765762727742, -1.2715168970159485, -0.9930098766080376, -1.1962809926335947, 0.49445912162587985, -0.9878282018858997, -0.002635530015592419, -0.2233400271624803, 0.7180148400178307, -0.9236122501723135, 1.5081136548054885, -2.3730162039890086, 0.014837491388307669, 0.2855638650288554, 0.9092921487016273, 0.7614266568630467, 0.8146499213584644, 0.7131091238822418, 0.05019345502757983, -1.1298047917525602, -0.17263393892321752, 1.048874764487517, -0.6290616574822402, -1.011850011861611, -0.5024658180943219, 1.245408242441657, 0.17070068374910013, 0.34026732303930984, -1.7529580067929604, -0.8156112231698563, 0.5705331005551073, -0.7725008717654491, -0.2715293426525653, 1.508569876423376, -0.24063243470475615, 1.0758005748919925, -1.5351320670219688, 1.0286083131719972, 1.734244300693272, -1.171369929040325, -0.4744749957553518, -0.4713436213037448, 1.2640355835702004, -0.3620691798829821, 1.7334768113327124, 0.3386277218516023], [0.37562969037000776, -0.5809369299391696, -0.5513904501250297, 1.8877642568883313, -0.5831492517662024, 0.2871847618060696, -0.19704842359269745, 0.029028062742695874, -0.3897586567620906, -0.14323020944224832, 0.45048876873010674, -0.7083006575296925, 2.6085409785892235, -0.6468295625915652, -0.9220822564388322, -0.7420359402312084, -1.662772007032198, -0.04762822811443856, -0.1624743839353326, 0.5791028091339184, -2.045506420760065, -0.04469035010413944, 0.11353854161935967, -1.1317682990660807, -1.2670618337711492, -0.11015613289131791, 0.5330548831347672, 2.000548053863856, 0.38036997244773235, 0.6752504233719335, -0.8713946357477097, 0.9787221908772735, -1.2288868206458452, -0.079287962492125, 0.23341901299679216, 0.38674943559250674, 2.244198283361179, -0.26296614223889425, 0.05402324823932341, -0.4327950647574004, 0.6311812100289941, -0.6779553595473917, -0.6643561480050959, 1.1099133131563104, -0.11476745771729477, 1.6510670720510168, -0.44452268328343303, -1.7295778689335388, -1.327358431679524, -0.041080813301471626, 1.089171613936966, -0.12039760186015026, -1.3434504187732637, -2.156484835409726, -0.24987869483105873, -1.2291431379324191, 0.9766050169930625, -0.5406845161539474, -0.5936194757048475, -0.3982837921046824], [-0.6398707329023579, 0.2933039373310466, 0.22746484692203292, -0.46327288223594343, 0.14552587392719785, 1.228575923984441, -0.7465506592167037, -1.7727668582164509, -0.4234816844358224, 1.036129960932983, 1.069693812857241, 0.23454007011093525, 0.10516153179534388, 2.1688984760006775, 0.3835025501313117, 0.021627637671349387, -2.166204881044202, 0.25012186931597163, -0.039533940610567246, 0.41149328797341045, 1.9650669258142317, 0.641453275721333, -0.37027815206367376, -0.4310828490872751, 0.01388556109521433, 0.0402057624706175, -0.005559747444161327, 0.17090974256794786, 0.23240085952818362, -0.4858293551454793, -1.569456524409117, 0.0657511143887491, 1.2438150872632627, -0.06698255328620652, 0.5741657368731413, -0.7431986178049226, 0.04824102545049532, 1.875970926936985, -0.13355958172544552, -0.6070196486570867, -0.14562264000646286, 1.161734636842157, 0.7475307732030584, 0.1043891348345011, -1.4471239163664482, -0.1747600976373088, 2.3979982360063774, -0.10719476451182931, 1.605797955302056, -0.761145262212958, 1.8196984204027014, 0.8980624115739394, -1.2760437770939068, 0.055337987015410484, 0.5322648535760308, -0.8801107444504503, -1.9122631761693076, -0.32474293428593054, 0.16094720075773505, 0.7745990746886481], [-1.5471789770771571, 0.9828453416197801, 0.7371696158730607, 1.379579021034398, 0.5922693677480886, 0.24716633256670834, -0.9463926877664629, -0.9660598665520796, -0.5641502986091504, 0.9899258013239716, 0.40408390821027684, 0.26725666894985994, 2.1976427978595923, 2.4056655995206047, -1.1107045672516942, -0.38828113957199595, 1.3701846632113914, 1.0958557233514088, -0.6464137419504977, -0.5880190971852801, 0.9094014485812486, 1.4329419714682456, -0.5229920608275099, -0.897722517458085, 0.16000695235105775, 0.5181515016241516, -0.1215738089336437, 0.12124109983916419, 1.9723858709230138, -1.5567190647496092, 1.1576851969701532, 0.8889372668295129, 0.6811987657285451, -0.6198016445468929, 1.2427716762058019, 1.6510366125242162, 0.6164283837194086, -0.4587068762994115, 0.2698317337228104, -0.15505649857127676, -1.0915599778564915, -0.0872599070571081, -0.3766008065114621, 1.5025765373981228, 0.10956935138785792, 1.6262928500268734, 0.12106926850759835, 0.4571331571679183, -0.2634303716308015, -0.5703644346381601, -0.5013422479045251, -0.8041705397925948, 0.3591206948784001, -1.008269167298657, -0.014008084015763743, -1.3319096203145981, 0.74288079981881, -0.5605635715905394, -1.1420059363488768, -0.7878330848545995], [-1.2211298648127928, -1.4125393029260005, 0.1977161853162268, 0.8439174493629802, -1.3187622539839414, 1.0397690754731737, -1.1834285430912286, -0.3471167461920642, -0.15280490022944956, 1.138702520957542, -0.9419795214975976, -0.1324062556353246, -1.3221186828126692, 0.3279274998529564, -0.7972245906000123, -0.014616933742595192, 0.9348273735887985, 0.33328193546526996, 1.140294594494131, 1.4191984850231274, -0.5494036053288209, 0.07900316494144771, 0.27900892495996765, -1.606314254195535, -0.18414146517256913, -0.5286771258316568, -0.2913323945458156, -0.7440343816652653, -0.09656510693455828, -2.511011717241232, -0.07042002193084743, 0.511531631345368, 0.12190244039929622, -0.5322489434489437, 0.585386860963891, -1.973042751026794, -0.32797818437236986, 0.08411182631558446, -0.014113712602702395, -0.4271223840476694, 1.0857963693481023, 0.2340643995429106, -0.9730821342105138, -0.46370892119356544, -0.022101766324077083, -1.5554199885698683, 0.07770675671558812, -0.5503906970854477, -0.14895943798375122, 0.5004336317404711, -1.0584734259599908, 1.0876666031063922, -1.0480836145333918, 1.3072415267049708, 0.09953239319745615, 0.016647267702704124, 1.58295430592243, 0.34281794223985773, -1.1361565885576468, -1.2652556907388857], [-0.2277105568314816, 0.4925273359380019, 0.5692220298975803, -0.19409807213988065, 1.3647169742718066, -1.9232039145947477, -0.500586974614617, 1.0848793051251293, -0.18865054402864068, 0.8429334283273019, 1.796618708870114, -1.5803971473660028, -0.46451070607928296, 0.830867004882744, -0.1083454252670137, 0.8908939903826207, 1.731858417262997, 0.809101520667019, 0.8139758101281771, 0.10120396662319149, -0.1615339352570686, 0.8757578962069731, 0.5840054025326316, 0.5848342949968041, 0.017171711487412512, -0.33824907803579246, 1.5928114301436025, 0.617229848582285, -1.2075142175901534, 1.4321155348344277, 2.03176700111447, 0.7585804482378636, -0.39886048526191886, 1.5996642670752412, -1.360675697522016, 1.376361697814742, 0.48739423654532393, 0.33239457169348896, -0.7473509970140583, 0.5355031350221879, -0.019663720219597138, 0.3867257051326917, -0.9904513620426911, -0.6207151285228271, 0.5968385707544451, -1.7514005933501358, -1.771841821435141, 0.5509565715294518, -0.6802240303148492, -0.2680843289643481, -0.08072590499035777, -1.1783047069980317, 1.099407577215595, 1.905700065088569, 1.621693819806901, 0.29951385671686825, -0.49729638416702354, 1.129638628226732, 0.9630164169340389, -0.43418502868706976], [-2.219451926537949, 0.0334830896151848, 1.3734172508129954, 1.0325848292497644, -0.9496149033672662, -0.2791011272209059, -0.934161796697026, -1.3198008006069124, -0.053874561036463424, -0.1285996239112862, -0.6852933565611743, 1.084636493934807, -1.137390526265175, 1.2794263433539517, 0.9017981537199116, 2.4613912895319903, 0.44149581878367705, 0.23309511285175374, -0.7245633738224851, 0.4063777416756237, -1.7771169762333203, -0.6223985962715385, -0.7188313267345833, -0.558421242544189, -1.1503617587086077, 0.07538068812226775, -0.32419997790559685, 0.8319009562123357, -0.2452243346221527, -0.5552759278747242, 0.2106951407010549, 0.05011940684335301, -1.1882869319065918, 0.9953025300045806, -0.13159294590387366, -0.3825075624853961, -0.9118637936317614, -0.792694849817842, -0.8006799698468632, -3.3096236779190167, -0.616121915119285, -0.08958899585043165, 0.4439532754757242, 1.1320470739262347, -1.6846426833537285, 1.920785726690636, 0.10311971620157909, 0.12858354495154026, -0.9331244807621513, -0.06202809989368642, 0.46113376444910714, -3.061607897892447, 0.6459342471628067, -1.2445071875327163, 0.8751190321258763, -0.4530437861740955, -0.9511472309417643, -0.8717616578647471, 1.0494049876245188, -1.5062047148502489], [-1.3755103431220943, -0.13991409921362555, -0.8810721857759339, 0.19894540093701996, 0.04892132851379267, 1.965449293576307, -1.0523704302178403, -1.0728507201260709, -0.3189939802636553, 0.6137266759285906, 0.472377958511251, -1.3294101552979074, -1.8502990859234052, 2.2356985341843005, -0.5930791382536168, 0.22688307706939678, -0.676635746129353, -0.6971988273226404, 0.35026496129683654, -1.2660224669325022, -0.4094425482538489, -0.8447738408513404, 0.27000720775753, 2.2266673336063456, -1.5091097280087356, 0.5743027772936323, 0.9375533440466762, 0.03647782515853744, 0.8995269757523886, -1.5267353915100816, 0.09012135556895526, -1.1770931656504748, -1.066385390858017, 0.0035991401969483663, -2.2437798243470626, 0.13930016136919443, -0.49855106943403527, 1.0675093633107824, -0.5052780878562031, -1.5465949582397833, 0.6866700992442966, 1.8333828530244953, 0.9972874808292135, 0.33020512973675525, -1.4154270080183664, 0.8268046440774964, -0.9200168711200564, -1.1328290307383886, -0.22446689768663433, 1.1818918150410114, 0.05244721137056482, -1.527275898793698, 0.3597701564087468, 0.5359786962530347, 0.4979057739155305, 0.04190119044097979, 0.8820672411836141, -0.7148569858028367, 0.5526469931728502, 0.7501234565987426]], [[-1.1723407854116035, 0.31497806057108874, -0.1916940103369196, -0.642753734975181, 1.3902685946596551, 0.6211624856547348, -0.9295449890128912, -0.14051197280180766, -0.6320888511561341, -2.280742539717858, 0.9172119659467081, 0.07023567113006221, 0.14876187582341174, 0.22486637845155336, -0.1005212715713685, 1.2599223779321718, -0.6686832242244203, 1.5897590615109278, -1.2019768109618347, -0.22584965239149501, 1.672792212823192, -1.6764005259007386, 0.17315112262036358, 0.26077900046593666, 0.10375823011149479, -0.3360283597095184, 0.4266063904786202, -0.3528276045132336, 1.0383605225648154, -0.33623258214087026, -0.09022376151552126, 0.6845759568820252, -0.4795321797616826, -1.7518644702565176, 1.393640814523075, -0.2962449335939588, -0.4290950751410735, -2.133551668618286, 0.3040961619940455, 0.47020461824002163], [-0.7881939085560116, -1.846605286937991, -0.1955807974501219, -0.779581270935944, 0.1484719912837543, 1.1231115548981252, 0.596623787477942, 1.2090904916126317, -0.6060514580601051, 0.6522083005431503, 0.45359700908766487, 1.3611167203464969, -1.7394605035339525, -0.8829199851198056, 1.05701770039677, 1.403911414325746, 0.06621901048390097, -0.7873873154754845, 0.5309743325425464, 0.382257958067246, -0.6955176476529765, -0.822529314039053, 1.5955522985862738, -0.15461497332986876, -0.7988636349452677, 1.796727359171497, 0.9499754232600346, -1.795268697657481, 0.12138823859804351, -0.7936642731009663, -1.5018215565557216, 0.8065598575530304, -0.6763818285747142, -1.5129601262000079, -1.1966401593261446, 0.09495659817891111, -0.7720809833151411, -1.3202066385632134, 0.10915371335700184, 0.5517754785848262], [-2.4223159321079675, 0.3549521700570737, -0.24353392391806064, 0.6637669740017493, -0.3477754136363023, 1.1251515330961455, -0.9124560481542489, -0.264115393513738, 0.3804963313643575, 0.6283979240019116, 0.18183390185564877, 0.17832797389878932, -0.3073761900282543, 0.4137642872657329, -0.5011296003058173, 1.0433100273355538, -0.8043300390294188, -0.5736015423907089, -0.43432801523247516, -0.1893807050930802, 2.337660655515054, -0.14367777698700077, -0.8489553614154096, 0.5255832092010896, 0.17030010729621467, 0.6177082177215363, -0.9537454386703463, 0.571312317263278, 2.4010915829482475, -2.471021395143957, 1.699374560225164, 0.5089083086223061, -0.7318796974912669, 0.07533098059042635, -1.9174274434882708, -0.16754227519983483, 0.3707876600249933, 0.6784568121970498, 1.2990965299593575, 1.8745144072521371], [-0.47966165457187077, -0.8199632604823717, -1.2852931867304314, -0.5793521768312105, -0.8685269754098626, 1.4954659605676246, 1.5090480440173286, -0.8513284567169332, -1.5716256799210901, -0.7236551973799534, 1.5133022542117605, -2.2713257511864566, 0.3068760279919875, 0.5445306652983224, 1.4808172937233282, 0.8356953371688474, 1.810946208870173, 1.6794045311914183, -0.24291088274400705, -1.2822622164449944, 0.8838253536744485, -1.4653864105818086, -0.15781396473127904, -0.2787583532801684, 0.533615851369211, -0.11934548228161516, -0.9836706493442648, -0.39300625620250024, -0.2907364029964723, 0.5391675286509695, -0.48370655383476935, 2.1895725002467725, 2.1299001644436584, 0.4813579941053557, -0.7694858015147132, -2.0438982562113726, 0.35201629588269434, 1.2516802353788292, -0.31357180890684183, 0.7415015353973979], [-0.36604530013587433, -0.7806344477546155, 0.4414062426693498, 1.5366781528074358, -1.0999893670649339, -0.053646743754729075, 0.576404417672356, -0.019543613245302172, -0.9151019433336604, 0.4221053102283204, -0.7643661765980972, 0.1958053981663088, -0.008855208877562516, -0.3494370316423506, -0.9916780668082579, 2.7105317610157114, -0.36792824178945877, 1.25888383291447, 1.0156549262308143, 0.3237190353116236, 0.15370115557071745, 0.47794025013620994, -0.10266897674173515, -0.05874871559067564, 0.3774633891680473, 0.892850160981691, 0.17333182394845997, -0.899619264004854, -1.2237018812320215, -0.7993560363235693, -0.504751752331673, 0.034538661364225995, -1.4385879105580366, 1.1643068985327216, -0.7987670998419506, -0.7234182032252948, -0.11677203774253042, 0.8177600692155106, 1.0277157006006232, 1.2409503759484242], [0.0691313593794494, 0.6828740084914585, 1.6540740842920403, 1.3690676129810389, 1.4128969531409379, 1.1224664815136036, 0.5706568804580114, -1.808182238672589, -0.6534487572554672, -0.3400445510656314, 0.6883925140558537, 0.3227340473549101, -1.4207809679238776, -1.1494253078329935, -1.5113317819656151, 0.20884141388419347, -0.40937818699308065, 0.669752063817434, -0.7874487841569344, -1.0563017091754023, -0.41718672865438766, -1.4848445379266317, 1.1062600323499985, 0.34574603952788596, -0.888104233747645, -0.7184672039466501, 0.4422191272880477, -1.2041429659250227, 1.103659377157472, -0.4836126263011299, 1.5603495575047202, 0.35493977106076335, -0.3175390556015986, 0.2574035771388061, -1.2998440123351913, 0.6579541594680842, 0.48073736411241796, 0.5613366417274638, 0.6312143133051653, -1.705472228159093], [0.770962053654641, -0.5594652509120339, 0.15748895679511735, -0.24266242007188818, -1.6847626195374212, -0.07087077863541585, -0.2142751035996688, -0.006866799686377562, -0.011840136783472332, -0.748502256379951, 2.058426964885202, -1.0240423975980737, -0.310806174173091, -0.16948894928712077, 0.45037857408806964, -0.007489543907402852, -1.0133587007493337, -0.21274165096453523, 0.9815821159396251, -1.4009148498655297, -0.27524811764284574, -1.040749511464185, -1.7980199555006362, 0.0721072981922898, -0.46410862394785446, -0.7154138857967302, 1.3430777390753177, 1.4500927060134836, -0.9183450473007144, -1.4682845362896995, 1.1066862623361988, -0.8632486079619784, 0.3135166885766887, 0.09792537342400161, 2.1521833746516905, -1.8115858063990011, -1.143761353181175, -0.09013066570398955, -0.18987839298272674, -0.314456090774005], [1.0855372837117025, 0.7941772871469307, 0.8447328139427879, -0.12326695120517739, 1.242337242736576, 0.41667251407142025, 0.05309016798725058, -0.000489755338111311, 0.9877299584705326, -1.185125274224091, 0.4599774456558431, -0.29956851759958286, -0.4950620574804715, 1.9633379040346677, -0.3230441027051925, -0.7022222071669417, 0.06562379732483038, -0.3938170299560259, 0.1707236555173193, -2.898682681280703, -0.08779084835310876, 0.5124203531715468, -0.3398126933342249, -0.12689100198634903, -0.5858879018699477, -1.8765762159396773, 0.4801544966066285, -0.6636213878062235, 1.473296633521835, 0.29309130926511345, 1.438183987320714, -0.4391397536740505, -1.5574701441205876, -0.49686775663570004, -1.0988348340278082, -1.396889867823824, -0.7163467095881959, 0.4630332422810974, -0.04953022370743559, -0.3904905208166022], [-0.40876483219589194, 2.8273963673374025, -0.19643944172303274, 1.2731289939632502, 1.4731189421053015, -0.5439212925291808, 0.4700277507866029, 0.25410491253641365, -2.582901326868856, 0.5129738893144427, -0.7623967496537921, 1.0052838049300286, 0.06874559350789347, -1.2268306655914738, -1.8653746661591313, -0.12827016661413415, 0.4831801154282527, -1.4919679498072214, -0.3009280553983769, 0.06985533853687258, 0.23457861676812444, 0.4156577638880257, -2.1621777579058463, -1.0433650232311038, -0.3728028117599344, 0.848628857157453, 0.12277401853423166, 1.3221437413216153, 0.3830894481670567, -0.49040859004668474, 0.03530118929023321, -1.0400355016507046, 0.33609768836432596, -0.08269479445473034, 0.7131566076114343, -1.818940198821323, -0.6551071943683097, -0.4036654952258418, 1.6601665703879935, -0.16244734246281295], [0.6959067927089831, -1.3413795439004845, 0.3096484602346017, -0.7431873406717353, -1.8364842912982253, 0.14620592451686343, 1.0468022307353555, -1.7880261477289994, 0.7771194696228806, -0.19343965735637794, 0.6884924394949686, -0.06653105582083409, 0.764793661807185, 0.2170547486172441, -0.9197694894443289, -0.009777901764931056, -0.03863990779975893, -0.00661828897834477, 0.49277676993052427, 0.3003377131846935, -0.6688383583285926, 0.016065175429382635, -1.778090403803917, 0.9218701398525438, 0.6084327091829674, 0.24321025872403676, 0.5812337626434774, -0.10260717340797769, 0.06669552140097026, 2.246541110571906, -0.2678511755037195, 0.0198816297773224, -2.1231536617139355, 0.2389236454258071, -1.3812274952136159, -0.19163040667645434, -0.026000754029258378, 0.7571524841452197, -0.02348934473322174, -0.3043159965888094], [-0.7566070381854206, 1.4323999874421258, -1.2909368181073988, -0.6083769600560172, 1.6124674942109742, -1.6293260092701132, -0.08116787347710637, 0.23345570585248912, 0.1110981495106357, -0.9190342565792499, -1.3877708007749239, -1.2972449524158538, 1.001756258473176, 0.8762447550668642, -2.237083507220505, 0.20254605365125192, 0.4418215557153842, 0.4125883793847642, 0.6997324375257822, -0.3473251319335014, -1.6876871724821136, -0.7578202415964393, 1.2515267446309908, 1.6257882831970762, 0.8902642622825021, -0.6098778232204587, 0.4943181424086876, 1.0907120804736374, -0.818118566431215, -0.9300379428818394, 0.26297346696603713, 0.6914726049701111, 0.6377623638621132, 1.314517124031105, -0.30947669602771816, 1.4213070018293947, 0.5408709730942938, 0.9641423073466953, 0.21668394124458928, -0.5482329111430971], [-0.2212849598163059, -0.202422530607774, 1.5946517908220779, -0.3444051232277418, -0.6607045819454873, -0.5613040392339411, 0.8189157293810355, -0.5453051812119458, -1.2561209118670857, -2.2517536309298607, -1.8462114227139634, 0.28423993135162684, 0.8401755977803398, -1.693028369731863, 0.22860391366357294, 0.13632711503085437, 1.026743864720601, 0.07838980921635941, 0.8454601747121551, 2.5804889727031055, -0.42767724572209587, 1.4115287782459522, 0.0753481044967223, 1.3117611597795156, -0.8643040150461464, 0.2794196178689673, -0.07506437817535246, 0.014694917400217734, -0.1646163917381436, 0.5480098053144536, -0.9794694325912128, -1.5812818668374462, -0.024919487916665123, -1.0272704836083804, 2.0181840851490356, -0.8969487495365477, -0.5598886024235284, 0.2722826234733773, -0.10249534195832351, 0.02509658887579285], [-0.580358691747629, -0.9374009956026556, -0.04760007694517192, 0.8100466095178274, -0.15943665719738875, 0.5697628878534624, 0.7088346772876709, -0.955733088479589, 1.391198255984783, -0.9384928932137393, -0.5948322772042516, 0.27952711314570117, -0.25429162055457727, 0.005163038337196748, 0.1796801197545385, 1.2274468443923952, -0.41967378714766135, 1.6007362472766729, -1.889113447144758, 0.009727543765641737, 0.6219898508730051, 0.7473338869226337, 1.2513151537073823, -1.1005300844990673, 0.8697748838660099, 0.2694055708600203, 1.438766463117806, -0.24146115568812376, -0.5318931563308351, -3.3273131196361505, 0.07813026170862003, 0.14946295655950464, 0.6564554130938213, -0.19983299704570653, -1.083077937137848, 0.4766355494218654, 0.1970341376904617, 1.958539655049545, -1.2430195237556994, -0.04156635487627826], [0.6589851981675886, -1.5167915008109478, 0.06945017471503119, 1.7703013613483851, 1.651656600005368, 0.44003078260222933, 0.43973081999841895, -0.6712115959004818, 0.48820509609337204, -2.020418958596299, -0.4031529906487061, -1.1903311891803572, -1.9697026012846435, -3.214436029076555, 0.590008829034641, -0.13526531420727733, -0.00742194992716762, -1.0248696936558364, -2.543327335414664, 0.5687454024510881, -0.1273671410207907, -0.21894450958524336, -0.23677729895928148, -0.20560401482177995, 2.1505078492494265, 0.09187461471645222, -1.3886169933921333, 0.1692460440549105, 0.20190810675523643, 0.98131683136304, 0.3445510462056839, -1.3635743102015856, 0.12051909815207752, 0.16369592042006062, -0.4456510560647105, 0.03998497519285623, -0.9145265903914824, 0.8271893338570875, 2.0141901090490784, 0.2580054536277739], [-0.4107817439103616, 0.958622969085089, 0.1345446271870346, 0.5345565003876886, -0.7963074213556584, -0.4883094096106779, -0.7589898178781982, 0.6404484707949921, -0.5130406088904698, -0.3139677462733431, -0.048686770606655605, 1.877422666909177, -0.15545888047182554, 0.9532405959226024, 0.8724121722912089, 0.788440894186564, -0.18896584236901387, -1.0609091536155528, 0.7993687315350073, 0.8959138326517674, -0.427587839720215, 1.0940298698131443, 0.4695730314916702, 1.0443065992844365, -0.2546785427016037, -1.7057841855397633, -0.5196991307922013, -2.1095142290276687, 0.03903179025461316, 0.11579376473153413, -0.038504869605459256, -0.7216196833541236, 1.4119515583697462, 0.4021973081353566, 0.08371738033463627, 2.284227569703243, -0.3551217342069021, 0.9011459606213208, -0.14611812633237303, 2.3044115326224177], [-1.542798568536922, -1.1750606240365244, -1.0036539380800225, 0.19034215437447138, 0.009073267150633491, -0.5430725895465968, 1.3150564414711337, -0.5208363223123166, -2.0505338401689883, -0.20512833424845767, 1.2685504444101268, -0.04633699591576986, -0.3966630329622887, 1.2711219261793252, 0.5476291844746934, -0.6380935287888954, -1.3998423210893964, -0.3931401873535073, 1.7831516533688325, -0.6274586768222097, 1.9133530691328398, -1.3319188301695368, 0.8750476735315363, 0.4954110078046097, -1.1902417706567465, -0.7076093333933808, 1.812680417724057, 0.4407943551031877, -0.33207296024644883, 0.21898288375075414, -1.4848861591249911, 2.154760131596689, -0.7803375445445558, 0.030928214070479916, 0.793495589999465, -1.2069118644174257, 0.23773208319301317, 0.4405894209962595, 1.0358519141685176, -1.0170761605245078], [-0.5526426201816869, -0.021632294375982138, 0.2214781913080369, 1.2644108377901262, 0.29739793705713263, 0.348218552429789, 1.0791198830576687, -0.314907496465955, 1.3371104852918203, -0.013533236067285535, -0.5619778123601621, -1.7085612245993491, 0.10981268067352769, 0.4909974599166043, 0.0722015030465868, -0.8934363181124346, 1.5488434055834972, 0.008490452349778126, 0.14200805514247747, -0.35759370565740844, 0.5421074302947256, 0.27198009979436893, -1.0275758221444322, 0.657062339057624, 1.082149906157737, 1.5065311790628098, 1.4583945612763847, 1.381996835464089, 0.060251691139082464, 0.2102458974652856, -0.28333263971508543, -1.3158874619477483, 2.091314722096808, -0.2754831945885083, 1.2948711892656384, 0.24819785554240836, 0.9585311708611853, 0.23571562851396796, 2.954097516574295, -0.4992694920126509], [1.7164325782919518, 1.9172802566679004, 2.2029004280035034, 0.003080111654981841, -0.474981684647164, 1.8482793565848368, 1.8281696853907823, -1.2776537674203332, -1.0792256604112798, -0.20943145008263847, 2.239380832680326, -1.795877331349396, 0.8836501066290631, 0.09806465446385765, 1.1740423712425203, -0.4975634623071041, -1.2038378449834402, -0.7820770154252217, -1.0782109514593194, -1.7278715969517293, -0.01852842691860389, -1.3704197047069562, -0.8337251828982396, 0.4880661361754641, 0.6586335033078451, 0.2897025936525729, 1.0581397805001034, 0.9595852541239093, 0.48679837964571354, -0.09189530641338305, -0.3397356996242909, -0.02669290285128755, 0.11046535354687737, -1.1388581047529254, 1.2107908570685464, 1.0722276146624765, 1.553690809798196, 1.3030806511147586, -1.1963847083047523, 0.00753118286644973], [-0.7404965213027522, -0.030948743177316346, 0.4488326420344004, -0.859407870702853, -0.09997051653149329, -0.7241026634108999, 1.459478250363102, -0.42133216435387605, 0.1975506589382596, -0.03979932163294184, 0.3998330880650118, 1.2087698620354288, -0.658293384671591, -1.2075236874599227, -0.39235589283772143, -0.2653891050918559, -0.1665070474017807, 0.39949990260165946, -1.4375021370530323, 2.4471824102282063, -1.3595774698156562, 0.4877840678297851, 0.7386201481203365, 0.11014325427308015, -1.1180030118817201, 0.9530376353894457, -0.037924546794252854, -0.682365844679319, -1.4790226162395355, -0.7750868234076577, -0.009504872871382797, -0.05899778438470882, -1.371080568783266, 0.4652720085369824, -0.1775117981497211, 0.7402005277105399, 0.48963581149385366, -0.7026809241599455, -0.45698002027571516, 0.8801067814867154], [1.6035431274580938, -0.649104898657697, -1.3279524472001745, 1.6321947304945903, -1.541729491562259, 0.5714824959769514, -0.5997629777220536, 0.27039681185157216, -0.5365104879602285, 0.14873575908310654, -0.26946113567319735, -0.10825016451654249, -0.3259416900180274, 0.18895207888456345, 0.9608861871542916, 0.7214798992391116, 0.8315321792291184, -0.13634470793696762, -0.4221468256748789, -1.1537226656535648, 1.839518442220594, -0.3950442998358482, 0.22732407676001107, 0.5533801493121495, 0.9904470228332637, 1.4942944730400434, -0.5949606371419479, 0.44880434584407336, -1.3215764401239198, 0.818249568125687, 1.8989286463813047, -1.0131530804035696, 0.5909283507422917, 1.7132490946550858, 0.3686212893359749, -0.4064667939261617, -0.6310443376394245, -1.5118611693241015, 0.517132383019465, 0.5729026534847759]], [[-0.7304519350023843, -1.1226351285315428, -1.049499936899681, 1.438377624350908, 0.12317526593429554, 1.443513616397381, 0.09611925473758652, -0.8295573118489723, -1.858435517289841, -0.2704643986712538, -0.4134870330762819, -0.2637037336902921, 1.4589440733778118, 0.5301688711484883, -2.2676768493769366, -1.2893996555599707, -1.7031544784569073, 0.28674321411795745, -1.973376519789732, -0.13134787831571593]]], "ep": 0}