{"num_layers": 4, "sizes": [60, 40, 20, 1], "biases": [[[0.022167162986028683], [-0.3148744409543542], [0.38742476890086486], [1.340797394845101], [-0.6178741428494854], [1.156233247282092], [-0.8166082444186976], [-1.3974168391795654], [1.0850837905872475], [-0.013946409154943572], [0.7843188603151221], [-1.1910006832300526], [0.1743760359604875], [0.5802951708610695], [1.3079640766074088], [0.6178575665095928], [1.4596447166017974], [2.0222420689614635], [-1.4975493529252748], [-0.724500222011974], [1.2860013478729395], [-1.4246361359558413], [1.167410066706189], [-1.5143988463336349], [-2.039261044990902], [0.0666850924610808], [0.3654991493135644], [-0.1115448254573046], [-0.5216797155887889], [-0.5235653127450345], [2.1065844781056273], [0.07969984498777545], [1.750071720303921], [-1.3256303435400483], [1.3158569040418897], [1.0816466894988885], [-0.16399297718919098], [0.34167926568966017], [-0.9210442697442259], [-0.029925751105961833]], [[-0.9363574807942755], [0.4792564813792657], [-0.07344477704810103], [-0.7456515991643398], [1.0175719449057408], [0.23597562189383786], [-1.8139158939142157], [1.3216262816347475], [-1.3779270404741717], [-0.3573829863841058], [-1.1900294608353785], [0.8602943986237707], [-0.2843667376561264], [-0.5573794063907956], [-2.681678778560645], [0.33050734298206685], [1.2860631875711137], [1.4738731257064481], [1.2074269916271494], [-0.46122818857839254]], [[-1.4001040110549998]]], "weights": [[[1.758446915641474, 0.5486677341077797, 1.1356936000392754, -1.4210958445436297, 0.5040233438082723, 1.2743093827664145, 0.753264975942761, -0.721068694546431, -1.1908448103045397, 0.37008497582270733, -2.5540983969061206, -0.3548293892538131, -1.5400409758010594, -0.34391889441543455, 0.034403098699451226, 2.1663309961518356, 1.4450486749816214, 0.10995991156785412, -0.7077357241585647, -1.7873147126260098, 3.282076390368044, 1.8035919083236744, 0.3124411929558507, -1.1953650148993873, 0.8393418358649171, 0.4581580952908161, 0.7970475169971708, 0.2236453221623159, -1.2842560710773716, 0.9349984054323511, 0.08823688065183563, -1.0330605626182245, 0.15370747935542656, -0.26034376021055894, 0.981741133486059, 0.7206970405924419, -0.7758766724287531, 0.4159982368512491, 0.043982718715954036, 2.0701849612349945, 0.9169234967451152, -0.7723758237313105, -0.7681629501333304, -1.6561827240560327, -0.9940599041486348, -0.5163318132394696, 1.34375945494007, 0.7245109185829791, -0.1806250058244026, -2.6377713705965666, 1.0931912940610016, 0.7382184040187264, -0.1915559767961525, 0.48936643890728543, -0.9901553002455461, 0.5128569633655111, 0.6785983162896063, -1.6943958933093155, -1.0515199025316175, 0.026008948232281965], [1.8507487376063128, -1.6527630506629134, 1.118009946496029, -0.6735032154293357, -0.9855389927710133, 0.7097292791971049, -0.6904591125534104, 0.8754568720904395, -1.749332946825304, -1.722433286510008, -0.75117810409044, 2.101438580189001, -0.06549527416773251, -0.9855736391600226, -0.8658797306352112, 0.8697677007676403, -0.5288594116910625, 0.3678283110799392, 1.7060952387220918, -1.8776893117752502, -1.4888645743310283, -0.6449112169249975, 1.8228285371845474, -1.7637297470815392, -0.9122739429835518, -0.588262591367341, -1.5880959406229687, -0.4366508157783564, -0.33058314458008353, 1.6168307852731978, -0.44378537542017904, 0.1638764873665656, 0.860806303847539, -1.0624056882824244, 0.34068393450464796, 0.42492618647796654, 0.08224027734526192, -0.7412869399720359, 0.661314066407732, 0.5534740626404161, -0.22973420707658498, -0.5453102099275952, 1.2794796878651797, -1.687385176372371, 0.7767356055370599, 0.45829724136574496, 1.5307379804310937, 1.5797586491870843, 0.07067039266321834, -0.061816655979908944, -0.2030848787202839, -0.4694837274914817, -1.5133312167543118, -1.0134352932071007, -1.091157598290781, 2.3483354876187406, 0.0446319633311029, 0.9725154271207886, -0.15976351465195987, 1.7832211812234073], [0.33231449325667867, 0.971838774786674, -0.666600642863461, -1.7564204067374412, -0.20871786905378062, 0.39881260861494755, 0.06769242302758846, -0.5959742226467946, 0.5451167325770819, 1.0016381607735094, -0.4373966468996754, 0.4454719914489209, 0.12427695753137642, -0.44990908487509923, -0.36081030893945015, 1.1427735981993055, -1.0757949296860643, 0.6918989398010927, -1.4886748753522325, -1.4407815377316642, 0.22623690972334393, -0.9887203344216626, -1.1756896021361576, 0.7853870111271628, -0.5827740029106603, -0.4601088751310017, 0.596427466221884, 0.2677364324130831, 1.9663480077051119, 0.29428860922754213, 0.1113742632590649, -0.8402758407634, -1.7519140477995234, -0.18535193741781264, 0.846188094332938, 1.438050885201906, 0.3571816187816946, 0.3257029759479289, -0.4497225040379462, 0.348407666491803, -0.10119811426592001, -1.4252746345624583, 0.44400360266468997, -0.9887427263337853, -2.0547610542350223, 0.19620544137250398, -0.08328030227174826, -1.2884104922861224, -0.29487751333319656, -0.07228136766954105, 0.5120818676692194, -0.49248513881617423, 0.7273328314364668, -0.4601983465520267, 1.0108887210812225, 0.6480996589196926, 1.2003039178017896, -1.3475498217554924, -1.1298527956317626, 1.1052897757630133], [-2.0651551369079764, 0.78737822826622, 1.3638019951645435, 0.15899039916151703, 0.5314814332981088, -0.15121222841044285, 0.6447173356595461, -0.7913065194685885, -0.7250708228042806, -1.2050212437084131, 0.747038537045607, 1.1367194808000485, -0.44413615873557183, -0.4549884411789542, 0.9588939422437385, 0.8544642177284348, -1.1548163882697486, -1.125823925889837, -0.42774290076721927, -0.11373336288922793, 0.4137623553525403, 0.6564139062811722, 0.1028124441644671, -0.039798926847340384, -0.11968792037024749, 2.1285342483490655, -0.5654183661893561, 1.0715120762663335, -2.412533009140372, 0.9904880140620527, 0.5457118059701676, 0.9942973303426972, -0.49157596992150515, -0.5375181649681284, 0.4894255493092594, -1.602667695520259, -0.5894728083823468, -0.26138965123203745, -0.03365551443783103, 0.401260543264749, -0.12230149446737303, 0.7859103220720404, -0.3020416374700428, -0.37004546273386246, 0.25801893363935047, 0.3993054903182068, 0.31963124007566823, 0.9552660248920007, -0.7454985605019293, 0.5948692124253518, -0.565814399411489, 0.3489578552077058, -0.4442738565932168, -2.505167136994446, -0.6638762364817671, 1.1791190951350436, 0.49946151548210027, -0.3423294539621324, 0.07309484251202457, 1.405271738132377], [1.620300305056445, -0.7889071229320433, 0.2457504417498844, -0.5474812719847113, 0.19272602214106077, -0.654719087515089, -0.5137003418282746, 1.066895304313074, -1.3262202262995342, -1.4562125200718903, 0.041812689549116135, 0.7800741904342398, -0.5490439174280001, -0.9182288927920976, 0.2772074046753597, 0.29956017216698794, 1.8848109824247612, -0.5543615241768031, 0.2346793151140374, -0.4131351751977301, 0.36177543724528455, -0.9329462108862917, 0.26356525091345706, -0.9049941342941548, -1.11502827159718, -1.7643659449151297, -0.10243254885487518, 0.9413355667666365, 0.9796260277452307, 0.52464687433862, 0.8300309854338865, 0.6752111756329722, -0.0013226080882044974, -0.8196105052835261, 1.9009946747834914, 0.295215548389333, -0.058102995803373865, -1.247467596665842, -0.900624927112758, 0.5306203064629521, -0.8144677929873972, -0.28027389923425894, -0.4688082848775287, -0.5824880707486688, -0.9351777212113085, -0.3556830774469918, -0.6270860867355812, 0.5118183554508485, 0.5539739499093314, 0.376660100285411, 0.8974571479670564, -0.5922479456392459, -0.7765524263914295, 1.538749727252233, 0.6909597018000907, -0.21508710344403528, 0.2129461863900955, -0.5213745531305257, 1.2036234952132596, -1.3581003516099632], [-0.7671874567969983, -0.9785841710928112, -0.2820934780957877, -1.0159477521163691, -1.957771276126781, -0.9753349389815611, 0.8089099234704263, -0.16650883162242927, -0.15256074113595572, -1.324560127457942, 0.3450827082688038, 0.318102331641293, -0.30447032671530566, -0.08148884197314771, -0.7712039688679062, 0.030647764038999284, -1.2244028000800276, -1.5519547084921872, -1.2818986058441535, 0.5787680135218308, 1.1682930887613334, -0.14189339917242408, -1.1792009207666094, -0.8115500273695722, 0.4002005353131173, 0.4044957675202932, -0.2883997625964934, -0.4514913109378643, 0.8876486028737608, -0.956064506864436, 0.9952049178906032, -0.268557555902415, -0.044720473545606064, -0.6196124798113963, 0.7857692033171337, 1.6148179567558267, -0.032819682930189324, -1.2301336655930755, 0.4980452881415749, -0.8801823823357267, -0.9657546379084709, 1.8325485548449527, 1.3619738240207158, -0.24191654753196778, 0.4258958258871814, -0.9259836004226767, 1.786780074606494, -1.3737444891054895, -0.1896222438398545, -0.6306473976791435, 0.757476798708811, 1.0447740839045505, 0.10233471394316751, 0.4750373867404575, -1.3631699217007485, -1.5526981912825404, 0.7101156164987882, 0.5154811484382212, -0.5303664434208204, 0.966072050003711], [1.019657366373489, 0.4682037214183976, -0.04114870391518983, -0.14181574557514046, 0.36816699341937065, 1.0935201340658827, -0.46528907878844245, -0.3728721930778927, 0.5457806046895429, -0.5700767841059167, -1.6612098829634123, -0.6249326560920808, 0.029462901561584025, 0.3515358034963638, -0.2937003871142272, 0.23229999267537932, -1.1135888543076715, -1.7205226204017434, -0.7345410345765186, -0.9191203395360751, -1.747565496072425, 0.20495110389785107, -0.8554781658741258, 1.4022391290228773, -0.5178842910191089, 0.23051148635226085, -1.6447004334865298, 0.0998539497667268, 0.38307476796958617, -0.9226785300783714, -0.019854660506519937, 0.39672320677111356, 0.4812533953106601, -0.4029754811280227, 1.4328685214911352, -1.0960794831248142, -1.6751968700353923, -1.0295677138242207, 0.5959345923223458, -0.9506700575014657, 0.08804208649007216, -0.4021748736559822, -0.331588234987363, -0.36394930856931085, -0.37032884117146714, 0.6134263413082784, -1.1546875316601501, -1.577595452291789, -2.652862269533718, 0.3772154505653783, 0.6671802509794043, -0.6562633803943768, -0.05716765797751335, -0.29759766350737415, 0.9170494198371647, 1.1279002037612995, 1.4365756957068483, -0.3558497109986799, -0.13500593407247732, -0.5508853800504193], [0.7420855873042107, -0.3641349061616994, 0.07460169142403736, -0.04615497932533859, 2.0096055313660526, -1.453525982917204, -0.6330213800683702, -0.2247674956405882, 1.3885792218633102, 0.1366482938860157, 0.9859174537593922, 0.7942528279404024, 1.5741219630062835, -1.2571519798363617, 0.5378344961651753, 1.921269653816857, 0.49716274915389164, 0.2424191696521984, -0.9476450976236946, 1.355827704935823, 0.652842801363801, -0.3780891815073834, -0.1514826276198082, 0.17028357027758267, -0.5287664599529311, 0.5913814704769993, 1.4358963034344956, -2.4664656248173267, 0.33643029741710917, 0.37533058874078323, -0.1687662963135871, -1.02514278369112, -1.6001419346051646, 1.1326716096977683, 0.5836006256465114, 1.3610212701702256, 0.48933246405008596, -0.80100947337009, 0.14655568492364635, 0.47192966685462157, -2.869590321945286, -0.9991720424083264, -0.2464840098238295, -1.8188591160386995, 0.37855777437580695, 0.8497996919805166, -0.1857297671684836, -0.17944806983403744, -0.031589067912011215, 0.04324750519396544, -1.0488272151715683, -1.2176376481438984, -0.9072258783460395, 0.8368373732795307, -0.4696219391820767, 1.324035667015693, -0.018354257719840842, 1.0558478589987517, -0.3871430236139626, -1.3446251904717177], [0.151024341788263, 1.4101666895471079, -0.7578601326012366, 0.12114428746374424, 0.1000915412830936, -0.8790707496805911, -0.38525309021087867, -0.23386055659637636, -2.646566412536857, 0.8287897508220246, 0.24203854769366975, -1.0249288841705342, 0.43380048381896175, 0.9513623249376999, -0.10131902189150953, 0.3113586590002016, -0.4919707171645756, 2.0271680359414215, 0.21758650192739695, -1.6447157948917293, -0.34235256754398885, -0.4579327724661976, -0.895274779870875, -1.3562051717155827, -1.3485810387031165, -1.185578185726962, 2.3803572761834575, -0.6578629781770371, -1.4334839459749966, -0.10359342228865509, -0.6243712334091989, -0.22105457846191381, -0.00822357253811102, 0.42937745885763673, -0.48615466622711145, -0.6502813259668476, -0.9008423887943771, 1.1547038556236668, -1.0864443062851095, -0.776621116603615, 0.048285504411188, 0.5440058203711835, -1.2591410922551927, -1.0067855223549464, 1.9459449944403493, 0.7506565916973349, -0.5665495529705689, -0.2660297665931502, 0.5989238083275876, -0.5866689921474278, -0.7525664655096258, -0.905495835113618, 2.120895587559765, 1.2024628076627162, -1.1758229640740279, 0.8034598567656827, 0.7626768349255857, -0.44740363752447254, -2.532796966445192, 0.014080341090775779], [0.5942798272842972, 0.5897559654351964, 0.19637053599073512, -1.6629244053371457, 1.245253422822914, -2.171260789863831, 0.9083268849515476, 0.8127649835769728, -0.3447466943537653, 1.2686597005604947, 0.7297168018816974, 0.8426854492317248, -0.31345824634848907, 1.1125092344734224, -1.4905880809765866, -1.4876108759360898, -0.2578822608321255, 0.9766886471706351, 2.278962502162853, 0.5242056447599571, -0.3994631787763697, -2.259658775197246, 0.7761834603187411, -0.5773137032839292, 0.27361286447630795, 0.978168784147978, 1.4526459815323032, 0.1792215808638642, 0.5124053198038296, 0.46721779629221927, -1.2722657280201555, 0.02143288472988411, -0.941021706691733, -0.0015091950805759741, -0.32700924364330103, -0.6911879939600359, -0.7122875473221865, -0.11410895759780855, -0.2523774603029744, -0.13269584280164257, 0.3577628910592542, 0.9169550822174037, -1.1106843078247146, 1.432359827187824, -0.5528390829828116, 0.134731811397112, -0.8453414682919803, -0.5619427084511018, -0.06384316941662369, 0.9122709979962828, -0.08016144306361479, -0.6819915220377427, 0.1643745959624861, -1.7688454959879725, -0.0573239159169816, 0.08712192277610016, 2.771790986863403, -0.14165962136986898, -0.20330105180589758, -0.5170145601568656], [-0.6691431766011691, -0.24420711551387506, -0.4082222750129288, 1.5248321205532396, -0.7878867484895564, -0.5475306416456518, 1.1179308373886756, -0.38365821042712495, 0.6729491901403734, -0.36966044108713525, -0.418088442576928, -0.06951440012661905, 1.2952233517303862, -0.19654687599115814, -0.46603853227273906, 0.4749433909088931, -1.2896697305447298, 0.6418758575160859, 0.1263698267867902, -0.5882683449428826, -0.9776166432347659, 1.168347961701919, -1.2867381718873354, 0.04528338755045819, -0.029955764900490935, -1.3309422306283183, 1.5034170812402834, 0.15090982318965107, -0.5758350165871754, -0.9657338249978866, -0.41208897060347754, 0.3391671467621988, -1.3106440474459047, -1.0437545647467745, -0.24735454384625122, 1.5578378993343287, -1.6539029123907292, 1.4521201981594343, 1.4795587610531138, 0.1697611742486531, 0.5485493857474124, 0.7683905323589045, 0.9253727696948428, 1.1327429759673533, -1.1145671888843378, -0.1662880773577585, 0.8159671772028437, 0.1305332484411177, 0.226140601507012, -0.7770363607884986, 0.3925284882846394, 0.322331566261474, 0.903577796289429, 1.3081692710180248, -1.7568857059991811, 1.541147046182263, 0.6888201136898663, -1.34086043074274, 0.5354102812550444, 0.44896184716086474], [-0.4077704792178206, 0.03371698844693429, 0.551408098340854, 2.171793209713126, 2.897010874566724, -1.4208438084503467, 1.9188026358776167, -0.04709665879228619, 0.699363809960495, -0.33431830338984514, 0.8938200899217746, -0.39115110535137454, 0.1953847283023864, 1.7122426635284698, 0.3848617658556127, 0.3213995017448483, 0.5423017507772357, 0.5100566291002651, -0.6203777055538513, -0.10436862789336862, -0.21644055334296708, -0.920192264802299, 0.17939226228765034, 0.07930701920434757, -1.2211894727541617, -0.2970317859557767, 1.0726178481497264, 1.3019630141577192, -0.261854742867248, -0.3363418955487272, -0.7423602857412931, -1.9857285920334626, 0.7066370780141131, 0.7855824221168062, 1.035471816581028, -0.6702998467159323, 0.22499269453881326, 1.2343461360717043, 2.9744061122973218, 1.2513444622116416, 1.1474981583556791, -1.3377675327429803, -0.09725554537674753, 0.28505289120442967, 0.4792912264468777, -1.1778208819896332, 1.2302255604603725, 0.05683213635437334, 1.039192754493859, 1.5050014031789711, 0.24062193284774033, 1.4138158956085125, -1.46107394271834, 0.9990391984071167, -1.0328558552774785, 0.24687750792284902, -1.7198469165655352, -0.07535879363656446, -0.08313713864247076, 1.2008627348169982], [0.9393545638143621, -0.9429842366936187, 0.7348943349981536, -0.18563044044343632, 0.668368112686958, 0.09504454281433364, 1.1130251116960959, 1.7595452470003528, 1.0226746940944096, -0.25536499822885833, -0.22637671073109922, -0.7870818430932993, -0.6028450704876775, 0.6380439248164199, -0.5855233651444012, 0.05529516899718185, 0.9379738790315914, 0.7126733131372999, 1.1362672207120934, 0.8782832154493846, -0.942436328163023, -0.23454334200930863, -1.1176932295731368, -1.2424311992523664, -0.21100872874418894, -0.9303544383905485, -1.4715440424463178, -0.04129657134080602, 0.42824091305588763, 0.39997600501831926, 0.34830102483838504, -0.06727724251241549, 0.24220975265096092, -1.5798161647026618, -0.19969494886049227, -0.1963817858577358, 1.126799741649545, 0.020821313566110073, 0.5050210857234352, -0.29511929843926626, 0.25456069917842095, -0.1523449706221676, -1.4434294625409252, -0.5356536063025964, 0.2967216006617895, -0.1189529611533897, 1.046465275866111, -0.5836469049155855, 1.2983747886252501, -1.0554793702084406, -0.8683682866141432, -0.788833373160994, -0.38609579760898877, -0.45376219026625536, -0.06326978270279973, 0.2519617759171569, -0.32895536682256127, 0.5418941841052652, -0.19818017719330105, 0.724742067716401], [0.43171812718407854, 0.25611812515516047, 0.8058808251945716, 0.915525598455382, -0.8971927408791306, -0.19089039719235562, 0.664124848826825, 0.2199074826058306, 0.26896616253531047, 0.8656897801680324, -0.1858893601168394, 1.7642378329751127, 1.1369926166600888, -0.3726686773090902, -0.6418084214500738, 0.8234779516109528, 0.0345446031693232, -0.8014095947523137, -0.4408002876867267, 0.24699936583674825, -0.05030059316627225, 0.22448628922900893, -0.22953965335009777, 1.2370812650307066, -0.00942975257010463, -1.3312472220019334, -0.551247131687374, 1.431626776083163, -1.0190109214516192, 0.8565171109902733, 0.38732596380268847, 0.8009128102309058, -1.4617468123837754, -1.5178366750523096, 1.0448709852451723, -1.9091178409032217, 0.13321087198060583, -1.3809979119016003, -0.3263941170563624, 1.7678924118552786, 1.3992874501456636, -1.1812480742090878, 1.0126790526576777, 0.031229905030121647, 1.7988980928755913, -2.056180081125485, -0.7395727042293089, -1.160231534324989, -0.7267540959466066, -1.200137925131146, 0.6674857803351311, 0.9045820306524253, 0.7135502886735942, -1.2748321349995702, -0.8769164075886249, 0.1607011954948819, -0.4442483043602192, -0.8291665881964838, -0.5680539587245734, 0.49362381772298536], [0.6068484910484658, -1.240982444053005, 1.0500374807506885, -1.3784712191544963, -0.4221246840301817, 0.40035274430300466, -0.14602527046151365, 0.7481139496891491, 0.13265635329532646, -0.40419384732631203, 0.8015881153629795, 0.5061698362778935, -0.04077190299109047, -0.18799590118629222, -1.07587405486553, -0.8260691171708261, 0.751218739106738, 0.8892903782687908, 0.7398928631541888, -1.2113769926724824, -0.9574525683397175, -0.5246838796466452, 0.4039594715531023, 0.49495265510498826, -1.5837769022956953, 0.5600371602294395, -0.8740811336414617, 1.043738838355137, 0.1865401917496722, -0.1842293982444894, -1.4092227685491852, 0.07544752847529478, 0.5084794925622351, -0.7619094499304117, 0.8630221705080208, -0.5123466728848436, 1.8183860168990202, -0.041179479496491665, 1.0883962588674783, -0.44484617357546347, 0.6960098151798698, 0.7874693870565427, 0.7328084757615388, 1.4572445603452258, 0.3832808595337321, 0.16590434974699167, -0.6422417228046665, 2.5910485325009915, 1.2697164561608818, 0.11128633086473548, 1.2396656668622354, 0.1944641111890322, -0.1334510849552387, -0.6175466126902137, 0.7146357964070273, 1.0877480467939074, -0.32008759838373957, -1.0414189055850904, 1.2215404373003589, 0.008068565253128124], [-0.05233067279721086, -1.104720618391028, -2.1897719660416217, -0.17820098557575217, -0.34580326194424654, -0.5694417773675271, 0.28486776935114133, 1.44852345426851, -0.417858388997463, -1.1035398942183463, 0.051173862535455895, 0.04476912563041321, -1.0893259750926145, 1.1586517036038613, -1.6512474304151028, -1.1652832713058374, 2.2884130554266164, 0.7058383224883896, -0.04666922187160495, -0.2258442062491302, 0.314677282628892, -0.2621039310861745, 0.1332018125963643, -0.6052406406531676, -0.1814576359491187, 0.07073959640876315, -0.8255739830344332, -0.7846379583857197, -1.2695138355307578, 2.0004166797130694, -0.7310299558432072, 0.11765794366452133, 0.2665729695366347, -1.226179008873073, 0.5729716198931564, 0.16293362271996437, 0.6629077807402133, -0.5745985300188678, -0.8280377335153566, 0.651035739563025, -1.117910050438257, -0.8842339191914522, -1.960622362436993, -0.5146022521184542, 0.23398050762396067, -1.5746851844589245, -0.7468201810831726, 0.32082040151755586, -0.4197639821107906, 0.7217985343154206, 0.9804318185758137, 1.0059153956124345, 1.2720875402620198, -0.9450282143041243, 0.7080975675103632, -0.65645642282291, -0.8595426238226479, -0.4223251554909577, -0.8816040057537863, 0.4418511082283544], [0.24847868529434267, -2.0563309945036266, 0.6513774839461829, 1.5460055486579833, 1.359235353251669, -0.3503659952081925, -0.2730379619576314, 1.193583644431854, 1.3370335808814684, 0.25600716744396607, 2.1128479867862735, -0.9293931239834943, 0.31813114794888914, 0.5417044862573656, 2.7960516960901707, 2.217759756703544, 1.3159913285518032, -0.6495878341835996, 1.6682143170700918, -0.27570128159563345, -0.9200190240331045, -2.337320629843706, -0.44057999759401134, -0.5933116340785549, -0.2564900252344838, 0.2934231850795305, 1.9253806551336714, -0.663406674043592, 0.5179691386794457, -0.32146990456900587, 0.12774013082453128, -0.828368069300584, -0.588893245502468, -1.2952408647816824, 0.44643398846254795, -0.31885719744136626, -2.166279373756098, 0.06141943636015362, 1.5487522237856264, -0.09095393963052191, 1.7201633562575878, 0.316387177593626, 0.06929568276519964, 1.1993938297393474, 0.1656556998899269, 1.343641107562997, -0.7466294502170382, 0.6221182010897, 0.4187387871072504, 1.5553507638842108, 1.2960811009883417, -1.3780616600715807, -0.02592927583808401, -0.3558297865990992, -1.159072581659223, 0.320458541404171, 0.5435180058124356, 1.131769328076096, -0.21199654613776858, -0.4656692966353651], [1.2958185533256754, 0.20278500624499285, 0.8467963637750373, -1.0035066104935277, -0.3358430963295816, 0.49647736236483775, 0.9553823188042728, 0.35316395356562047, 0.6755924766697137, 0.9489908043231051, -1.7440975041262397, -1.4281608437776223, -1.2886688369153028, -0.4003486527811891, -0.14702962787274879, -1.4921077886629353, -2.3820814053960686, 0.12157060038226083, 0.3335193027078275, 0.3178821454248101, 0.7366512615994452, -0.020043602704742928, -0.771915271012253, 0.8546563948840896, -0.1288950907178504, 0.6167177370625119, -0.8819238443864046, -0.509224236888786, -1.1600664824976856, 0.2860466945429621, 0.48150830361538827, 0.6282266277439326, 1.4934221375734542, -0.7477559351124544, -1.8121604410755017, 1.232099969085089, 0.7219494836949353, -1.5769317419455553, 1.9962572640627976, 1.5330433151732228, 0.3046186971438933, -0.9261111525888351, 1.076352679500429, 0.8492208378313096, 0.2887783647366868, 0.11362484094096925, 0.7929035400581752, 0.9844139843683108, 0.2439983076782954, -2.3613815752244474, -1.0253894144204603, -0.14390803725433274, 0.23944708115711338, 0.25438871248453226, -0.7945692374851526, -0.06045603537891829, -0.15659750795462027, 0.27962009617655603, 0.489926323659568, -0.19480114142126442], [-1.0086810056091546, 0.09034746433272327, 0.2830388068661167, 2.1931439301328175, -1.3432933955002693, 0.028292341424994687, 0.9758688099672397, 0.005306891979812465, -0.5811025929561618, 2.0280205067589177, -0.014506996316668496, -1.9367852904739917, -1.6024076832609524, 1.918485625283589, 0.5932878350253658, 0.472461050979507, -0.7043235585921782, 0.8896088308279203, -0.11022869767425462, -1.1452665190169722, 0.3543330329439443, -0.6540832083405331, 1.679410678076662, -0.056701092996818456, 0.13848338399857896, -0.9564100894918609, -1.6502772072431895, 1.4560847617847037, 2.702882779127095, 0.2864144284969423, -0.2271626697931854, -2.4749133654581996, 1.0241227395510248, 0.8781395477339399, -0.9651645513413422, 0.9157918461980309, -0.13130293710643917, -0.7589714297421849, 0.1069690248441705, 0.490950655683574, -0.4049509881810522, -0.5341292117925603, -0.4354505828161771, -1.0102124799426522, -1.1289403634001551, -0.475818304283104, 0.3785087785952087, 0.8787805190060466, -0.46374649645059746, 1.2710676500612201, 0.3561478865268204, 0.03198985881956506, 0.5835405415130421, -0.4100232350235334, 0.7509598589420553, 0.8106195178702539, -0.14850922015292764, -0.8213295747758358, 0.38425195427005227, -1.611309000156794], [-0.08814876140873373, 0.8543531452094038, -1.3258462535977136, -0.7830767914582062, 0.23639376484371677, -0.30394270425027664, 0.8044562705737546, -0.2785812051168004, 1.0208799133556057, 1.0767540047400839, 1.402831591592832, -0.6767753181843665, -0.9387529658413448, 1.5857025800598645, 2.3774344407230554, 0.7487014182025458, -0.5900525166412868, 0.04278460113562561, 0.12119509260431652, -1.981151690401074, 0.6085248767037934, 0.7128957349274929, -1.2631071994263479, -0.25433618010484366, -0.5877415202070723, -0.9596714749360011, -0.04736377215890345, 0.4258896869347124, -1.2177136136090854, 0.29690628122741514, -0.06849628260214999, 0.181064799176184, 0.9523903137060655, 0.6631194518302304, -0.11552110565135068, -0.6616820832879592, -0.2195179616934859, 0.695232112373994, -1.0284427005502084, -0.7219555179091949, 1.568012436060144, 0.8905197230035763, -0.992608137364503, 0.1472298709343629, 0.6122227361807097, -0.9104606202772663, 0.3725493802721526, -0.5197052831698397, 0.20930336243520797, 0.46014990216728696, -0.6133703618642873, -1.6345881136937532, 0.5841051857589865, 0.3324505685811125, -0.1687227703281746, -1.3825774276298393, -0.34141948892788826, -0.08152476685600135, -0.7265771138590694, -0.6891500860895592], [0.589588861644108, 0.5118297620277874, -2.1618060434143636, -0.3274657728962948, 0.6412858932277011, -2.123587681904396, 0.5297656727848213, 0.557685513374893, 0.13945616515752268, -0.8030627403098572, -1.495591870385796, -0.6417618319715961, -0.04554507550615823, -0.5034203741757187, -1.8044752709890612, 1.8038829421312046, -0.3306047772834761, 0.7458252754857668, 0.5386045763977843, 0.33800674502314065, -0.7046322424065057, 0.09951678917190158, 0.960202742466558, 0.048602400415141495, 0.5176836000506, -0.9159528892308798, 0.43455794110304874, -0.44601955634874374, -1.5691655658741326, 0.028168926393406388, -1.3919397514270229, 1.1814609185827185, -0.7209381640850807, -1.4448581084288556, 0.8642151433674434, -0.3884153048803452, -1.1187423621450874, -0.03220573853878786, 0.6229142837067609, 0.024351245626127716, 0.08287423064752772, -1.0561197207515964, -0.6022112749729828, -0.060532716157676386, 0.6489756129543423, 0.924483402223307, -0.047658738389740225, 1.5311359787805856, 1.7531288550831328, -0.4230614924238757, 0.8334129253018119, 0.49345345586230344, -0.11418051765343253, -0.9068906897012189, -2.317334723551432, 0.10771894666724066, 0.25187338818447563, 0.6896190058907927, 0.6448415004502083, -0.7179914076696423], [-1.3121387524328902, 0.9341564712881054, 0.39776103107641536, 0.6239245897737964, -1.0025623413656801, 0.864621215574194, -0.29746597361764876, -0.3782990821033799, 0.2547108802957838, 0.011357535381277756, 0.025954126394708333, 0.6452312768032372, 2.402295998175961, -0.20286721057891222, -0.2620735007290764, 0.19769297153853566, 1.0628262497566512, 1.8360400015365281, 0.1304988721946008, 0.47249086230481085, -0.4938103237250994, -0.12134379954596028, 0.8508109662112676, 0.35814882078325944, 1.8742146262844734, -0.5868161135945762, -1.2423911524739915, 2.720919702968386, -0.7494275359639236, 0.10486539500909355, -0.09839642834586113, -0.8390609162016829, 0.9206409717575181, -2.6398852114429694, 0.5622259844914511, -0.15330765592709397, 0.29922003206545483, -0.6841439352648903, -0.6673104061214855, -0.6154986632735424, 0.6356499550173605, 0.22323416574143876, -1.9843145234109254, -1.310426119582006, 0.5967056336558808, -0.47939598752729085, -0.5623657067206252, 0.7318873240552038, -0.45478700297422464, 0.31188079014172115, -0.320166387952694, -0.6237562418449462, 1.9078171163134499, 0.0008152594108621181, 0.4883638190910299, 2.473635598429157, 0.25649763442232576, -0.35468822798717803, -0.3847180187850775, 0.5580472237440631], [0.18957444789940836, -0.6372137552567584, -1.7130100321814858, 0.5366713105159752, 0.1794909601506354, 0.16943475889351053, -0.20164206713361774, 0.8043003351115983, -2.3511284191267485, 0.5544019652013015, 1.1086438122057716, -0.05320512062400372, 0.2337886546100353, 1.6483107776011598, 1.0859201610343736, -0.13651698296100687, 0.5034095192001867, -0.5469595123894012, -1.2845736252668867, 1.0997622899332855, -0.038999366575141185, -1.341533061979303, 0.5176004207972297, 2.2104758217515834, 0.06848392429721266, -0.41603821055130297, 0.29081505801784285, -1.0673689406250955, 0.06117115939524451, 0.31460636330217934, -0.9891727311600585, 1.1205524885774683, 0.8106746573582884, -0.30065254613958164, -2.1428247545249817, 1.3456385288237063, -1.0041782042827954, -0.09503678050628545, 1.3192028210294746, 1.9673875632511841, 1.4392973124801118, 1.0030349021587832, -1.6446870733908427, -0.6264073709725508, 0.8014550566076625, -0.5543651165163979, -0.46354944424087846, 2.3042406402791156, -0.9040413814256112, 0.5754184953764666, -0.6873186547001517, -0.3721588975032919, 0.26626223488113915, 1.6950478686736243, 1.1028444282640495, 1.1089612124355617, 0.2626881237115718, -0.13321064211833966, -0.7289473997093383, 0.23550622852607364], [-0.4159088571539775, 1.683607441098472, -0.10677979927499216, -0.23478792367998957, -1.1592537476141755, -0.004470189392943602, -0.057777497835950535, 0.10433171595740595, -0.4176140322924748, -0.7356616794635398, -1.0916738576807519, 1.1667410461141237, 0.6980352518372199, 1.1731366882611263, 0.6295877353557539, -1.4783051799046316, 2.010340464917156, -0.40892311439308254, -0.7825906032523215, -0.45960944885463223, 1.6807982977906941, -0.1993034803552793, -1.08093483269066, 0.9165400949281359, -0.29750283369420605, -1.2281051273869106, 0.33795299613701185, 0.12231802910237746, 0.2003432012889131, -0.4975957697982002, -0.21005331192782042, 0.5197411130011669, -0.49970198006766, -0.5152060085143297, 0.49206501891123205, -0.015453353134251502, -0.17099439241968417, 0.18174778955114756, -0.21544570064769497, -0.2646053763595321, 0.5833865344074447, -1.9880711250133571, 0.4206333284720745, 1.6814614862522588, -0.16501374125084062, 1.750329201699599, -0.003247413422064648, 1.7993235280444189, -0.006772006873241187, 0.6935490534333738, -0.5927855780347379, 0.3094027712887387, 0.5378606473834735, 1.6967092085287898, 1.0345745392383405, -0.8042497873813568, 1.3961965776077185, -1.057674637154355, 0.25077237704610955, 1.0452455204026643], [-1.1861461528055166, -2.16022166034913, 1.186615999949443, -0.7939522781102107, 1.56402826470772, 0.5012029845086752, 0.09963857613095742, 0.2712147142333581, 0.6169339334125752, 0.3356640179928048, -0.23199317672187744, 0.9500165411012251, -1.480081134060599, 0.46619705510900405, -0.06342965241840369, -0.4703600040444817, -0.7498105007166317, 0.3438286357596064, 1.7812777346506095, 0.6543764457213331, 0.20931030793087582, -0.32967216857922615, -1.1613036486246886, -0.02319292733978644, 1.2694969325537937, 1.8428417400457988, 0.8374821007230177, 1.2730442689662376, -1.0024162435725708, 0.21818202063356626, -0.06894565419836239, 1.7036328305454727, -0.8614039699718312, -0.7415696491794906, 0.9799047956546381, 0.6683422276759414, 1.0326350636638395, 1.0647770070854774, 0.9592840560630199, 1.6258903903616357, -2.092111647183921, 0.18615803189328634, -0.4891891991425086, 0.19879183373833412, 0.7444509125859409, -0.2843681715303947, 0.6490844841152812, 1.0636282684586469, -1.2745949880283958, -2.381150508712317, 1.89211370844027, 0.5187318955302447, -1.9093234567702995, 0.5169967140677165, 1.0786847841500953, -1.3032921228378538, 0.832693626424905, 0.5674016587895664, 1.114762856249718, 0.25956342031335244], [-1.6899891510619856, 0.26730740426762156, -0.35865867290130554, 1.6777589377126914, 1.3436722610728358, -0.6441267767882475, -0.6994491093485758, 0.1744849010136968, 1.1392540657465209, 0.534066462160075, -1.2232271874406804, 1.5349544241027757, -0.9659439488352385, 0.9248019404986604, 1.7649268322546536, 0.694209410530668, -0.30343086496454175, 0.841975330729544, 0.7394832048020467, 0.024494824420804508, 0.02086112783772011, -0.46005755598829223, 0.41025551727577725, 0.7646411057979438, 0.5531923168914417, -0.3666189571166996, -1.8472023389005066, 0.015544453515199548, 0.21463657877736464, 0.620190952325379, 0.19729571354818606, -1.6181178413637611, 0.3708823221228884, -1.1358848431960256, -1.6294030271396378, 0.9276803554907183, -0.026005466261822832, 1.0375287136953029, -0.8308441540946332, -0.6620281392775691, -2.3270670106080766, -0.28810712141036704, -0.03396703085781529, 0.2709152096517766, -0.4596839632669847, 1.2240114639996962, -1.5381422751483624, 0.9144287239560862, -0.8421612238517512, 2.4019500533137346, 0.4639182184216652, 0.6815329524078739, -0.3578150679616023, 0.4234355054857365, -1.3308637517083144, -1.0448451161507863, 0.18013638210072075, -0.519370799965227, 0.3361292577663868, -0.16570684877448266], [1.6007825552524217, -0.720703490108151, -0.432194513523898, 0.3253386476234014, -0.6870781652928103, -2.1534131353721166, 1.4793632883125, 1.7596055403344684, 0.4849747762248179, 2.2853361596855537, -0.6082194393874815, -0.37969341615909824, 0.0631254179492427, -0.08802341970235589, 1.1788697088569149, 0.01369253656663308, -0.8569404426945519, 1.2271967538253659, 0.7412638768712099, 0.7474589972423717, 0.37544990767474995, 0.5276922786227023, -0.47583016435402953, -0.6787904679572604, 0.3966921729260585, -1.0361910624975685, 1.0743881153027537, -0.7527109092582054, -1.8540376036146995, 1.3475115073483388, -1.1181471263245115, 0.4673178741466509, -0.8513594383538697, -1.262527101811834, 0.1503259288644573, -3.1090751317601724, 0.4214518373159536, -0.6124812167457395, 1.3252055873050559, -1.1024875571939798, -1.4796122734142854, 0.5488752972928006, -0.48080603170398806, 0.4958595198633039, 0.3337068192905291, 0.502904322368799, 0.4371557699129357, -0.031393372360812244, -1.1106659751075099, 0.19225978883064346, 0.8704581958588978, 0.32799888615915634, 1.7155108510166595, -0.7658721171585232, 1.0298971425030623, -0.3457180339896493, -0.46348145061532153, 0.10234880302467954, 0.462479653925074, -1.038977957963671], [-1.3592758570594021, -0.3646329216212984, -1.0632507186771185, 0.40105406420913053, 0.2980907592241804, 0.6847347687843821, 0.7301264287614012, 1.3675885511498205, -0.19682920356444883, -0.061714149338370515, -0.8491015851570891, -0.8861174063850069, -0.03549741565551455, -0.13630612042256102, -1.456172439341682, 0.5243096098847301, 1.0490015335425495, -1.0180057887482163, 0.48745212293781365, -0.1612111801072986, 1.837015811562146, 0.814012007130727, -1.6274048819584588, -0.9097881445756906, 0.26094051979654226, 0.07501091669261421, 1.3273620147206964, 3.143023686043248, 0.5808639983515206, -0.23182849281736856, 0.738705359596843, -1.0500542615166544, -0.42897111331364324, -1.1749945910696507, 0.9874617203827449, -0.10228980966200997, -1.7888982760391523, 1.7317139004424666, 0.3246202684302825, -0.734948816150451, -1.8162370730090207, 1.7480066859877603, 0.14227550880671208, 0.3152955313651043, 1.9571855474816664, -0.16707348592956955, -0.4297858098537127, -0.13408635379646722, 0.6341922811233043, 1.4957053930946707, 0.3274032606319976, -0.385452552908358, 0.3549877256483403, -0.6310067739269792, -0.5662627634986872, 1.5961641852112864, 1.3894954260171122, 1.535480731685658, -1.2373612616361385, -0.9082037037448333], [-1.0228917515122753, -0.6167352779840317, 1.063985737758432, 0.3618983694285097, 0.17830836613861537, -0.32207384522297144, -0.030324512393816443, 0.6392731840833642, 0.19997597233510717, -1.15698160432049, 0.41783489763263976, -1.9349668946522676, 1.1562318280686694, -0.04348137814220147, 1.1942036659895399, 1.3564931971288847, 0.9621393882449062, -0.5387475750765092, -0.9287556510849968, -0.015317816717935662, -0.2230708195630325, -0.1570713617503125, -0.5208970256180717, -0.6806050765321946, -0.3229564449444511, 1.4704699889706379, -0.9505408108953606, -0.9739985051377318, -0.18823900050810047, -0.13449513449461573, -0.0856159894646139, -0.07803164686899174, -1.4734218435984634, 0.4897770746650452, -3.8117829791281075, 0.8121435780089655, -1.545369003156991, -2.0464915815673415, -0.16567642018212245, -1.59390658952942, -1.0918220797831526, -0.22551909435213455, -0.414023380581218, -1.1932775071898176, -0.8540302970804207, 3.113076996474231, -0.1764838886071096, -0.32022986182001295, -0.06401533111153042, -1.1364596989321387, -1.5983880892936908, -1.1818993688795543, 0.1556954428028414, 1.461854579111609, 1.5437901678834636, 0.49096402386028776, 0.41295650582549964, -1.7045397427019469, 0.19625550279482823, 1.3022339349772536], [-0.2034353203219792, -0.7772739785474653, -2.471060608749142, 0.2183410691657859, 2.67010167365063, 1.0280397540048078, 0.5646578839937629, -0.04729650360867148, 0.3941341743532191, 0.4196320626337336, -0.41860448222539404, -1.0351998811127905, -0.057923678830654315, -0.9226297848582282, 0.0816930683775357, 0.5828033377498375, 0.559053279339315, 0.16321061007658308, -0.0023674884862375446, 1.4013226623424164, 0.41972141397397694, 0.23068186842671992, 0.17131736150844684, 0.02027799097447536, 0.5885469573500158, -0.7075199408588606, 1.4180101395593263, 1.7367842222272196, 0.9414021801727643, 1.2898781659883582, 0.1988020453515421, 1.2892944598221712, 0.6591982429644945, 1.0794984110460981, 0.05323624894738923, -2.090136899066889, 0.12700042728423513, -0.47725643108022214, -0.2659432053752597, -0.6384931817795967, 1.3887264183640102, -0.9682291959307028, -0.6410506856009562, 0.4935195083205761, -1.402400504302618, 0.1754572605707978, 0.3706440148159112, 0.9428844156994954, 0.09253306129215973, -2.5890194338278585, 2.0213706153453934, -1.466330054477663, -0.24180061477945056, -0.8714269215922045, 0.5809041377859898, -0.3095831327770378, -3.2991851556375025, -0.16765434976559773, 0.46716207539598686, -0.31911836896080664], [0.6273902732269886, -0.5445250904816887, 0.1898258873463565, 0.6412456395835526, -0.5280829336601731, 2.661126992961731, -0.698955338393281, -1.3609319784559133, 1.7238963042511861, 0.6290374946237817, 0.005486731480076137, -0.18320000438450654, -2.12537325497916, 0.19920803475490997, 1.0210281948161104, 1.1294044851860212, -0.3218525571682027, -0.1305512076482281, 0.4255961041694964, 0.46985713213559965, -0.7452584809987158, -0.19910120079960486, -0.3497622003610245, 0.3884896644721415, -0.012224266566005048, -0.5230518145895692, 1.4002759533716551, -0.7578692724004591, 0.8906700744074559, -0.493465623544979, -1.399480881857588, 1.5360671873930671, -0.859805601602032, 0.7605242646017126, 0.5357353596138045, 0.7891800132254458, -1.5581104541166293, -2.5147076619948083, -0.2970481863738859, 0.9963400689542542, 0.9528707006489584, 0.5273494270234039, 0.5125375741820749, -0.05451374584283336, -0.6442966309023131, 1.6626556908527772, -1.3102178644980382, 0.31053680985044135, 0.8080740652337365, 1.9273649212815225, 0.040515929762996485, -0.7342032247707934, -0.4016211237416621, -0.010339838986813111, 0.48229001518871983, 1.6005218732486561, -0.5090121220217806, -0.8414108993608724, -0.14727211563642367, -0.1275047968765007], [1.9164551728513708, 0.7027711155822053, -1.0600093222346711, 0.09389330978139732, -1.774618071684181, -0.5716392721226594, -0.20002189313081747, 0.17099729417096585, 1.803569265109554, 0.7879602430361777, -0.7791941551197518, 0.5791290630873382, 0.14524668518686995, 0.8980048452793035, 2.3167236619511264, -1.3963016824841707, 0.6913994407783207, -0.5269473551166194, -0.16257849342425693, 1.601064574429681, 1.6276035322417208, 1.755428882870212, 0.22051656096824152, 0.939435772281615, 0.8623618462294702, -0.5873602365088669, 2.5809944936986122, -0.5031499734688665, -1.003570524104196, -0.14772303060837633, 0.07643266610200368, -2.9138526168270342, -0.6284662060616537, -0.4062510942037973, 0.3190045743168417, -0.9020656261557913, 0.13157798507137503, -0.9900907600647305, 0.48587075810702784, 0.28162562885871867, 0.9424724913220768, 1.2870035053339122, -0.6058346314326309, -1.1576922975144512, 1.0147025616534702, -0.7946019912254928, -1.7632662144757592, 2.38588872853794, 2.484602278079165, 1.026978277260465, -0.7602976380259387, -0.9895004920023922, 0.48605713168120357, -0.5177370860659418, -0.38579384267744066, 0.3524309947649297, 0.5469300864564419, 0.18981387975418818, 0.37826291436112663, 0.6892463583664616], [0.7701054233411566, 0.19343704644938736, 1.3280723742874168, -1.0832425265035452, 0.9038671987644892, 0.24812784580932654, -0.7628054395694928, 0.1386513474189344, 0.1917244993549414, -0.5946361381667664, 0.9192221121415067, 0.8508893900459951, -0.018597393715384387, 0.08285576135717419, 1.3650443224411635, -0.5593960973208812, -0.3398435616598881, 0.3995203445281773, 0.19655447827142794, 1.7320876403930294, -2.4461336724024014, 0.5595538331228936, 0.4379731705091275, 1.9525478305698731, 0.0364019921420888, 0.1245323399610084, 0.6855480615020554, 0.4171193151400243, 0.07108681566228121, 0.04752341169036064, -1.120793813628535, -1.1215199739501898, 2.4050626590916964, -0.7464314348483634, -0.577021705052297, -0.9689709165404589, 0.3245405212507259, 0.8684305901737238, -2.6773445525115966, 0.23492671313217436, 1.4052314557380332, 0.23052784094592546, 1.758745581629206, -1.0718959117692346, -0.3380573884865869, -0.5831207347466953, 0.6048461101219214, 0.04976815440437247, -0.3369866847606113, 0.4014047192093268, -0.04853330654963391, -0.008385992902853228, 0.617226638134334, 0.1936704337876073, 0.035350838133816245, -0.04967048017328948, -1.1067043284612716, -0.22830597762837662, -1.3545886214189402, -0.9369749454632006], [-1.6524939449317122, 0.6877618769274519, 0.1498024529547907, -0.7896598086571867, 0.7934698522355967, 0.10973080282264168, 0.9432833304388798, -1.3058250940081249, 0.10407047528546214, -1.5555355562860096, -1.3340144904398141, 0.42925616617666956, -0.2972324357502735, 0.274191575883412, 1.2922554745935289, 0.8850922077471208, 0.8344798738006458, 0.7796337260833347, -1.338293925405235, -0.6183984428135786, 0.7276664784247339, 0.9048616258143144, -1.260402756491401, -1.0118657763598435, -1.2596660366623689, -0.3875394027716948, -2.0144922009850923, 1.6399495507344175, -0.3552657610036474, 0.48947212946856844, 1.3374843933413505, -0.05860795293822644, -1.2534551046215812, -1.3957438608291315, 0.8531204381647468, 1.438006277564265, 1.8983967125446755, 0.7860068111444978, -1.173282610248131, 0.17084636788265042, 0.9004198095401037, 0.09958806511864922, -0.943300432812893, 0.6386509123612903, 0.9806245374172379, -1.0914732122073414, 2.092238080587903, -0.14498564976791184, -0.15007820577035197, -0.5348864148126168, 0.6373984223716709, 0.1102231023099293, -1.1220444330548, 0.3875139383618313, 1.4722122204359713, 0.19469286672368197, 1.4796136274018306, -1.0355801016277937, 1.2815691797153248, -1.4012363231653029], [1.4881782343872705, -0.30923300492995914, 0.5967139738142647, -0.567506953050195, 1.2327740216831933, 1.6946943549029483, 0.8340448795128417, -1.1327018284826007, 0.505134568050573, -1.4010024366211884, -0.16481736696195184, -1.4785864561057107, -0.45674523878571877, -1.189782858210721, 1.0957081428946749, 0.14352243203655085, 1.8924544192747297, -0.5881793019986928, 0.3871341041381288, -0.27648198576148214, -0.26036367605606753, -0.12141183783914833, -0.8653600154042268, 1.4141780729365125, -0.8795332590028282, 0.7356068890493083, -0.2950438489438902, 0.17822729204898224, 0.7139216779996588, -0.4885791840963455, 0.31516369072623324, -1.3684612651785315, 2.1249323642163143, 0.40550759853954405, 1.207358465862851, -0.05887769641765243, -0.3457993150291933, 0.17359473956798724, -0.24356097804074478, -0.5736519085970052, 1.4856485725784048, 1.6091778115061859, 1.5052074729151166, 0.7386947676156767, -0.5405392014689641, 0.9342225707843065, -0.5762993462556635, 0.6636574639572699, -1.1417646667644972, -0.959750902149529, 0.9496094635808293, 0.7830333145612193, -0.08172674932622151, -1.1403068241004688, 0.2088633952925474, 0.34540572503080397, -1.2186826698205633, 1.2211782641405768, 1.590540180693001, -1.8356683811797272], [-0.22976500107900846, -0.40141756588512867, -0.7871362818675134, 0.0393911436714903, -1.1892180636017597, -0.37890920193512145, -0.4119838262890768, 1.696625557999142, -0.6388038656498329, -0.0691044502169138, -0.3061028148444061, 1.6776684543702922, -1.2624398607993814, -0.874273211603036, -0.6753828744295212, 0.9026883031603492, 0.716111960938416, 0.607393443718814, -1.255664189562029, -0.664565973816311, -0.032993278639107455, 0.9516869744451, 0.24873456086756993, -0.46560259524850894, 0.8587373825056658, -0.8923309564426275, -1.8863981868580832, 1.177713211965269, 0.3311832027256677, -0.7345808658972305, 0.22708460671456074, -0.1307123080023039, 0.4839736489631144, 1.2947017553408835, -0.006609956392697676, 0.6061897982730705, -1.3811048669438042, -0.3392761365267154, -2.83052146549457, -0.3938738478819726, -0.6896576934826655, 0.34004010388907535, 1.2060562654233382, -0.49478689385785674, 0.4990344009216008, -1.0568018794963574, -0.29782362511685057, -0.5123794725017027, 1.1922873888242151, 0.11189046716444502, -0.22016643134082114, 0.10898380728235804, -0.8933081127418362, -0.2993187463755052, 1.1421128098823492, 0.8811335216554794, 0.5387741729163636, 0.28127375020579626, 1.41559384191739, 0.7421217198325674], [0.3539394104257475, 0.9056010405597319, 0.27135894403418426, -0.6399722924579222, 0.5411472678088931, -2.480823543060169, 1.747360019904095, -0.5335912012226961, 0.8986400253555243, -0.26030459216243057, -0.1747967885383141, -0.45005352434363655, -0.354833706416259, 0.7256699103843421, 0.12024753181651042, 0.6076207530963892, -0.7694393446954052, -0.49540079364692524, -0.043016364774576855, 1.9735529065325754, -0.12683068351668647, -0.5811480642904616, 0.222613124525967, -0.7304526177786674, -0.3066097989527728, 0.010744000434349695, -1.6033727827818374, -0.4671457078672515, 0.019875541602333794, -1.4398449263145923, 0.986487362702192, 0.48081739002214063, 1.4019432330335226, -2.3455440420473295, -0.2839821209104294, -1.7472782812327692, 1.9331716114860351, 1.0656084820061444, -0.4572281381916178, -0.27088836038458985, -0.3745730311254668, 0.6204157889649188, 2.088417199350409, 0.4182973317677451, -0.5914067189768313, -0.7692865259918258, -0.49132904452277704, 0.09224523182619569, 0.3410312153646801, -0.46426813418602536, -1.6999314663165934, -0.6967316815205205, -0.3936275301765528, 1.256288774484685, -1.1605899559610648, -0.11026958124040166, -0.924223724691366, -0.15959378272441674, 0.5791003739453359, -0.6790172370655913], [-1.0168844124967669, 0.1660005887720182, 2.172680609010036, 0.8301367231299397, 0.1850484347626285, 2.478896046291054, -0.07721893348947186, 1.0596574412349147, 0.10541589326824247, 0.40860944538200195, 0.040713646371800055, 0.011801211078914502, 1.2837411846111828, 0.5899062639217953, -0.6031310944592411, 0.4065460076976424, -0.39938661310705603, -1.2166660551927928, 0.5382284642187184, 0.2719132699807672, -1.2810109079789918, -0.9877590032051162, -0.12548939707091936, -0.5126203147911897, -0.9412035934027888, 0.22324134696262224, 1.0521875723395484, -0.9782322710995874, -0.18492953468048026, -0.02994148720813397, -0.003362424587857024, 0.9871217699155573, -0.2875357967251256, -1.077435424884595, -1.1206833363290347, -1.7514983583469548, 0.7921996687435153, -0.9108802774170405, -0.7614996597950316, -0.9450491997771718, 0.2664464533561861, -0.40791308811373583, 0.24705204710670758, 0.3746188864826637, 0.025955767438879417, 0.2754616524446303, 0.8190374126896932, -0.3468744435639753, -0.27571230757115295, 0.7916142944940717, 0.18919484424411456, 0.1499979710431867, 0.6993896787271471, -1.4309531264486612, 0.648890918320287, 0.1919245756625012, 0.08025104801838878, -0.5435941651587093, -0.24671029528712088, 0.6453360105079812], [-1.1456560082236922, 0.8122062856949093, -1.9116672359132214, -0.04897250978742978, 0.20741096191788766, 0.04189297239720948, 0.1021140255794939, -0.9803297361733931, 0.6813654734390552, 0.1547106449070351, -0.2295068262553596, 0.3293701732636224, 1.5202300189063578, 0.7977848871372148, -1.229951640361505, 0.6127908004719095, 0.6339790173091832, 0.49972487132815807, 0.6672280016757243, -1.0348733062947746, 0.42276097456161393, 1.177748204359244, -0.036864894442768095, 0.7323642950614725, -0.4882468167851399, -0.3168224424519988, 0.2967128482270902, 0.4366619963982121, 0.6534676242856505, -1.8201374692820163, 0.9200319931835359, 0.15176698486120097, 0.4567272116803622, 0.31988819856766026, -2.629296803289464, -1.4352753718427027, 0.2790606231335381, 0.32542786271731106, -0.6256020826828421, 0.22495410853620293, 2.8450699990423947, -0.9600007585443543, -0.5215825322886025, 1.6301055112786422, 0.878475896674372, -0.08737819544813133, 0.16054579943135316, -1.4230807413753248, -0.226362385848199, 0.5832603543389067, 0.9856399193506754, -0.18683569827442215, 0.5804337925383761, -0.5295311322006135, -0.20132171734524978, 0.9445383629814917, -0.6315596308472308, 0.28206317259959823, 0.7210841646976562, -0.44862636560629743], [-0.43247124034105205, -0.7489953854947041, -0.21815183987838996, -0.8073762631371271, -1.5081169304500959, -1.756147490174695, 0.28857533228239773, 1.4591883341788916, -0.1370809583911802, 1.0203779012793408, 0.7482954819952968, 1.163187792785969, -0.08472398811931153, 0.606788049899267, -0.8294469291966625, -0.3988618833278554, -1.1725868211627042, 0.22385480976405617, 0.33117948688472504, -0.980909006094802, 0.8977300452236194, -0.6701866992640815, -1.9054008464207997, 0.18723449266637227, -0.018945061627566626, -0.2908161297853669, -0.5818150514991425, 1.432632597263983, -0.5709682091719757, -1.0786092738631825, -0.0672194503680196, 0.1658180987683664, 0.06662423059070843, 0.9928213081133871, -1.6295560513133562, 0.8790364702209339, -0.871319447768374, -0.5406203288994667, -0.08293955747452497, -1.067441158862317, -0.6685236811020346, -1.4195306303608897, -1.0631348762147663, -0.7463594255190948, -0.2350459649317393, -2.5616181042488053, 0.06937543203235243, -1.818789744882325, 0.37659653900071527, 0.3945101470290988, -0.4637037417078022, -0.4039106597867017, 0.2638116046749959, -0.7205755930023492, 0.436574585181877, 0.6978503968987154, 1.9301902963370696, 0.684650434678464, 0.6696172163324938, 0.40453307434211166]], [[0.6013930138259768, -1.1388162537454043, -2.1763803028177344, -1.52005780927322, 0.48259354557811157, 1.054357111780122, 1.0872422054627844, -1.9426263172473264, -0.9865848274999711, 0.12993815564777822, -0.3239770592954606, -0.749113111231345, -0.0517279201810002, 0.44123976603922205, -2.347179868694831, -0.8131874581718924, -0.619525205930747, -1.6825113436512393, -0.24581080484645007, -0.08222308650612371, 0.6967266386954343, 0.834646028617854, -0.7465356410646531, 1.2423016685805892, -0.5161964789837843, 0.40696267065365604, -1.3699530777928954, 0.7286139242860498, -0.06526404929004441, 1.6854883753988108, 1.7818501152747586, -0.5017334777056341, 0.8453046453436267, 1.3331683261462293, -0.7655056277571145, -0.4989897315134068, -0.8770371644701768, 0.5167096305395593, 2.189538704456784, -0.501189702704828], [-0.6167543903376349, 1.3350604242705482, -0.9560791040905267, -0.013289899092467599, -1.0412325634438728, -0.24671521914897768, -0.3056247220227264, -0.7020677404441763, 0.545513685716042, -1.3975244119301795, 1.4373907382541735, -2.0061093527586475, 0.10411211398579114, 1.3899412395427382, 0.866738937426686, 0.027303405931150028, -1.0176519923013594, -2.2255680884024676, 1.4171973978435122, 0.27906880537329865, -0.4345299069548905, 0.41467490823599246, 0.08741653781604271, -1.762507914169867, 0.5185674454947113, 1.8029262283763696, -0.43048118123968854, 0.46137335758454706, 0.3662171714980869, -1.4842213500164245, 0.6449396929611907, -0.8996964407072702, -0.4055307632875257, 0.4307651433192329, -1.484038066797029, 0.16924193795436843, -0.42240351280306104, -0.34950163320019717, 0.11122982052560117, 0.014265887620763825], [-0.48849031830506984, -0.22748695958545365, 0.043443904009550664, -0.20299432546018822, -0.044937049401527, -0.3948403312053159, -0.02243670125303526, 0.09475658648908422, -0.554965369341505, -0.4475560501520382, -0.6762133536604595, 0.9814595981937531, 0.4717199175619777, -0.27133798770060846, 1.8563490308907167, 0.17862476760323812, -0.4040735635861133, 1.1269453277492236, 0.193741408572836, 0.011704720981851003, 0.7256564257358702, -0.8046180268241432, -2.6486670182640557, 0.9661142346841132, 0.017563213372377224, 0.867341759090263, -1.2129243963304597, -0.014558676178250372, -0.7920537986723553, -1.2278185507008448, -0.032087382859556805, -0.039010077286473745, 1.2112766569712465, 0.6425358895274875, -1.4990749582337617, -0.016357951494437528, 0.4552713784321425, -0.01968630214450041, 1.6375700816738463, -1.6639574833320145], [0.1047460298808668, 0.215262699079187, 0.3705276847778483, -0.9154736739539269, -1.674782780222979, -0.24539503503338633, -0.9941774504993404, 0.8937067411667822, -0.0820292101816922, 0.023287581033011304, 1.3056677278802533, 1.7575181690440747, -0.6005105346427266, 2.2459547973118297, 1.3131476448246393, -0.12091917843922323, 0.7140576597953788, -2.240248270252909, 0.3935800666111906, -0.1157239860454304, 1.1714923014161793, -0.07285028840317181, 0.6031167150139518, 0.24340599579313993, 1.9842325697426015, -0.11481901803870713, -0.725981451939888, 0.009411024399235827, 1.1442187506236199, 0.5744004053921102, 0.16163972619478456, -2.3758060351832615, 0.3003880855618634, -0.7339536779723757, 0.6066894966821463, -1.9378585530647614, -1.8604391824535917, -0.33261237167811236, -0.49898228087487856, 0.8504636864224796], [-1.369552977621393, -0.5745792769697745, 1.245594250536571, 2.2281462394548024, 1.2092619200056058, -1.4093517602280874, 0.6422729815589356, 0.3066026304913846, 0.9791764656519127, 1.0496540531678626, 1.159292802794535, -0.4002668202721375, -0.6760357161771396, -0.341664617209711, 1.091109300591877, -0.8786512967993402, -1.1458260398348485, 1.133170277978011, 1.1745670504930943, 1.4065070146849326, -0.3601029742334029, 1.2771791426671046, 0.6548748133936997, -0.01725727626237324, -1.4155029999672908, -2.293398377362301, -0.9699326278937871, 0.5345817856335264, 0.19835653538280207, -0.07775179191351246, -0.5189008502172021, 1.1763094102900238, 2.6467478478004525, -0.39692333764865567, -0.36219394285815043, -0.28116592894487025, 1.2470211485833034, -0.5570661875098845, 0.2593785709542541, 2.178424467379582], [0.8914666440364322, -1.8824289156252265, 0.37884626306697256, 0.08066901361384997, 1.0380814207599578, 0.748348580342732, 0.7269334299003901, 0.3141667630826744, -0.24397852193072866, -2.0978031341726506, -0.6813732888342792, -1.9380556151822221, -0.020067870291267574, -0.0700399573891841, -0.41989785744001823, -0.13632842170187223, 0.2594456807245717, 1.4064195396497452, 1.439579543966206, 1.534967942195094, -0.9888068280369239, 0.6437352470720157, 1.0226443947010493, 0.4078748668825273, 0.5019043153544636, 0.7320737545081293, 0.0341585149611845, 0.42361067077244513, 0.1496244583549124, -0.8648121399002883, -1.967821494961692, 0.7528599604118199, 0.7432584656606811, -0.0037727773162216727, 1.105240730531739, 0.20306037477456337, 0.35925159567625936, 0.3756496504017054, -0.3752679422388247, -0.8928691125525515], [0.5455558407032616, -0.4460544322826974, 0.7170369397307099, -0.5169663144972264, 1.4868937945072787, -2.0016634113183684, 0.7146543705613, -3.025006868687799, -0.30726111406565565, 0.2775229703471975, -0.2652537442847651, 1.119005689374094, 0.7441600299583228, -0.6526197466589174, -2.3903391043963613, 0.09733297011230047, -0.3603443099585246, 0.11615751895994615, 0.9498631437489893, 1.6514251913511149, -0.12112014311859201, -0.3725414554766781, 0.4518456544695945, -0.15064611726955232, 0.7156398722438573, -0.7847131728373218, -1.4294347226682997, 0.3224637683487251, 1.9470532515534666, 0.47420651068487696, -0.32492456055371327, -1.957364826719004, 1.6270492577103914, 0.90190298054723, -0.5845380212294145, 2.993384051713667, -0.12705629842340102, 0.36894454250220043, 1.0436291384323895, 0.8446606567342535], [-0.8989179097359996, 1.20630387533303, 0.4808999286527582, -0.72125058511574, -1.0421567199321873, 0.8466240110422218, 0.22296520963298486, 0.6075833555194649, -0.47634834065726334, 1.7793501546803856, 0.5441843120011673, 1.0711592552833415, -0.20211107994908667, -0.17909335433588885, -0.05659932542500969, -1.7649994262963569, 0.34021428314720237, -0.22138263604348737, 0.36213550806205436, 0.5876444202664478, -0.3139436000416527, -1.2939039580682374, -1.6114870754960111, -0.39690402676741576, -0.10111709878707287, -0.598731590000532, -0.9206762339904182, 0.15409546638472602, -0.2487354399901391, 0.7022884841050238, 0.37725894375916913, 0.16858697447586957, -2.128417782942122, 0.07085839606823738, 0.8665946029812366, 0.6188787531062255, 0.5209107292004811, -0.6957215608317081, -0.9168039690025039, 1.4299020717801663], [1.4036769418591744, 1.488232096471285, -0.6936177415839482, -1.1501863817560416, 0.023910838845466686, 0.04299872617649157, -0.9611096298749052, -2.292336275429173, 0.6910411755124269, 0.5296463419444236, 0.8923353172374324, -0.7671573904237281, -1.1470067409447386, 0.999446584426632, 1.5921702782465534, -2.7354067787588234, 0.04649853978898341, -1.3086301136701586, -1.1449496992878851, -0.6215001091605104, 0.33045110222142915, 1.8546215158559234, -1.071478705404155, 0.6311775952483367, -0.17595680968917538, 0.2635522566513283, -1.0157508265505315, -0.0035583304537878378, 0.8631421250789882, 2.1576164017104285, -0.6892694878219836, 0.9034678951572575, 0.5901863462408098, -1.529089375489305, -0.7726112794043486, -1.3694679554087485, -1.0732045293856043, -0.750655728024842, -1.4033299273030793, 0.2279123510916256], [-1.5021146385814033, 0.2540812197071035, -0.21264652014873808, 0.47266336293655487, 0.703929191319529, 1.2802307228902474, 1.3323839247330773, -0.8139896255829311, -0.5532917472512591, -1.8260126391908567, 0.060744127412556144, 1.3605493003964801, -0.21275213645370056, -0.6863401391623722, -0.9246874172287799, 0.25880989621058337, -1.1337363143092, -0.6522518174160129, -0.7487450847981303, -0.4952733648935935, 0.6781021162455712, -0.6203566607167993, 1.0893915721515985, -1.912599987363551, 1.2865835122585747, 1.155925603033703, -0.6609124476352932, -1.5104926650125932, -0.6953663600297901, 0.16529127945139577, 0.8224059752267973, 1.661368431384583, 0.9539623964717314, -0.08736209143929183, -0.9330168194918397, -1.026284584985419, 1.3914173437952586, 1.2452165264166808, 0.7346504923010841, -0.6347041549991925], [0.9230703706898292, 0.8069805286463971, 0.9894714658267246, 0.15000977758101725, 0.37071559198437143, -0.6379360372200744, 0.4705910796719847, 0.3939987703422592, -0.46523618849369835, 0.6609084132600447, 0.27262785258936656, -0.9424531771979138, -0.33051682505713825, -0.42970474788224655, 0.08934394672015672, -0.3319727802827351, -0.5519612041637632, -1.3355801887516903, 1.7637924597745889, -0.6943842395589114, 0.42037786937478544, 0.9833882722330669, -0.20958154388874523, 0.7697386575874872, 1.148820399561747, 0.2830884761193002, -0.3024832808675363, -0.19593735383833893, 0.1157615725611342, 1.0248667414393515, -0.6750755705428874, 0.3863100772439779, -0.07697792920211026, 1.0716754687822285, -0.9426686938423308, -1.0790005056696848, 0.7044939792977345, 0.6234217820289839, -1.0238421711101464, -0.464274082986518], [0.583514938545912, -1.632634954987968, 1.6762181008472725, 1.3074211096732078, -0.22609514248757945, 0.4069221479148234, 0.7338808771033235, -0.3643817737135085, -0.6340128266264495, -0.4175049878428322, 1.2944245324110337, -0.7049986613865517, 1.0192973550308015, 0.8060158979675148, -0.38324732730852207, 0.9804954853468097, -0.41613076714750385, -1.212944687644729, 0.7074348889782061, 0.5047978791280215, -0.38895878681445517, -1.583477305444248, 0.48613285146000956, 1.1070719451018747, -0.03260657047442382, -0.7256274491651039, -0.4006183990417673, 0.9711888982220378, -1.1243991687599793, -0.7777301942191941, -0.32948126445417836, -0.3841310503643242, 0.15845533445492538, -0.7825547202634153, 0.016389990208068483, 0.7370240751451086, 1.230879043479194, -1.513779569126002, -1.8465299109652777, 1.5043506725252607], [0.8474809609192228, 0.3449147524993574, -0.7472665444495549, -2.111214289001737, -0.8309365096424113, -1.6963432693601603, -1.4184076696958894, 0.3208483308911683, -0.624539088834377, 0.15987025770058966, 0.8050654938992438, -0.6472001314403498, -0.2905016541550741, -0.32471138498293106, -0.8007479042865577, 0.22111626197545786, 0.5530540326673618, -0.042061732806200944, -1.507581117039988, 0.5427594570144606, 0.008071239874388035, 0.5159061334615745, -0.8909331533103069, -0.21800749773521727, 0.2809687892505256, -0.6987870780860707, -1.5090531344360925, 0.5541405074194927, -0.7163837035853415, 2.1779639031633398, -0.3527343703051189, -0.3681239813366111, 0.7199075971140969, 0.1018152694337871, -1.2283497480317338, 0.26636936493432095, 0.14248544397334145, -1.1266352892847045, 0.7065700720638084, -0.29786746149226095], [-1.1319274530501877, -1.094232092784969, 1.1556726229253411, 1.9086165354589684, 1.9025602853060335, -0.32293135648442667, -0.18095798971993776, 0.07374254647999937, -0.8389129661587444, -1.5126676558935017, 1.295237135235491, -0.8409161529939538, 0.09094924514138698, -0.5854529969262817, 1.5768315667258161, -0.058568039998903546, -0.8216092308272633, -0.2952968431114649, -0.27107553200825885, 0.2615920870341906, -0.7711324931186414, 0.9685308876129218, -1.583352190909196, 0.4071926094157393, -0.12108770691619021, -0.3800941729348598, 0.966016786743995, 0.30867861669373026, 1.0745043407983397, -1.0550253161444667, -2.9998078275242235, -1.6299303245495849, 0.4744227070658229, 0.4913919404650465, 0.7123630397597172, 0.801744038870817, -1.8841039167295865, -0.13553746578779355, -1.2126574781782704, -1.025423964739414], [-0.1527707056303146, -0.6441953797537691, -0.3372942026905557, 0.463817031305734, -0.40061308680780294, 0.6928954789231587, 0.6620781457280215, -0.8940469089697016, -0.16300336340976, 0.8862300441239335, -0.3096394341391556, 0.4479694104716573, -0.616476943391389, -1.6691994204744929, -1.9744006814037276, 0.649072403873631, 0.16371284592143004, 1.616236936820554, -0.29477480572000586, 0.5571914622462854, -0.9023410903233225, 0.822215243103487, -1.2740088307922348, 1.743651695061133, 1.6748514743098792, -0.5789269571444098, -2.310177062473403, -0.5521924897618624, 0.060642848102966135, 0.9548915076891199, 0.4006156673881525, 0.22091277954110838, 0.35634571306793095, -1.078131450276755, -1.0510610256463648, -0.7830953517671545, 0.7279149352493075, 3.45395749747656, 0.5893321910637784, -0.6510170868506829], [-1.1260897638787497, 0.6358730776064079, 1.7808789132366463, -0.26239146500196503, -0.04745236371280038, -1.14732301541328, 0.4517252036996221, -0.0076394198580763545, 0.5627932785476393, -0.35865526872634296, -0.5224249052236499, -0.16664942694250523, 1.2471481897234666, -0.6869563102168991, 0.03882502996480746, 0.6453245207533501, 0.5070677711364652, -0.07493004904736773, -1.1424073127241001, -0.8537405796630997, -0.4926265167663839, -1.2584695760897429, 1.3928052791968806, 0.8470954226070629, -0.24654978192283045, 1.1974307565528604, 0.967278817837466, 0.582169263109165, 1.4639129240727977, -1.1963977385390996, 0.12032567058503119, -0.5419250095379876, 1.1492607881908987, 2.5168728355384475, 0.027004126090918196, 0.6717126779986311, -0.5862583308070581, -1.4636538323368968, 1.54788614363583, 0.5578513040707193], [0.3399076959399404, 0.4105898498297329, 0.8145482135037452, 1.7039680798985077, -0.07679752865210744, 0.18244926429991987, -0.9564586259888652, -0.8637582001684938, 0.6517613273810934, -0.8055470591714466, -0.6002050678970748, -0.11299593547331571, -0.7522002655826295, -1.470858991803757, 2.5718863662572176, 0.11438596305435111, -1.5540398029433142, 0.02158967807781751, 1.0615939033876145, -1.3327944385566337, -1.815443462703698, -1.3037494365530053, -2.849492086127504, -0.0809769499876845, -0.5195515237454549, -1.3090513374127204, 1.0930258957237555, 0.37443342906300553, 1.344980390010426, 0.8393095749373553, -0.5716886406385903, 0.604527785306892, 0.07490941413432801, 1.764144230457696, 0.9294697043605095, -0.832883810363568, -0.007139267687893069, -1.6103848690768316, 1.202906048368276, -1.659542154720681], [-1.5597352698909233, -1.3420854756623968, -0.6120776336906757, -0.3953088615414612, 0.24879079918236088, -0.7808457227217588, -1.3193815559978535, 1.2040418510558526, 2.154339470624478, -0.10588460535398359, 0.033776694587726724, 0.3658794661136342, 0.22194426053020858, 0.2192034890402298, 1.0898771577688566, 0.677464121280158, 0.32797876439116375, -0.431632966388168, 0.25465087479500614, -0.28517809790116794, -0.6867038067129474, 2.7354283281133247, -0.17391338821410057, 0.29241013066114385, 0.6012653941213059, 1.0467678426483267, 0.11805255419215027, -0.5394769742368106, -0.0375785322456108, -0.12406317397337889, 0.17688024885000703, 1.805839647932925, 0.37282022320810043, 1.6666181826745106, -2.354563280424875, 0.41436911601303245, -0.3562351486757962, -0.1924785908394725, 0.001720438256342186, -0.36661063576550146], [0.1932931971082397, 1.2802421677544753, 1.017205142413529, -1.2126092814894043, 0.14357156495987658, -0.5994670009687726, -0.9661432557666317, -1.130936077319806, 0.3176748010388315, -1.3277713344080968, 1.076928470869402, 0.3482745427763657, 1.1649142055185011, 0.8886466055353477, -0.7191528618074687, -0.08235479472880385, -0.015358232988340919, 0.2481670988190757, -0.93658134703063, -1.6348738527336688, 1.1923417408890773, -1.6867298580931365, -0.183152544502115, 0.9437232326999498, -0.5378771868221323, 0.3024629755004611, 0.7778859347688627, 0.5605947684668764, 0.23732117852688495, -1.8558762273913245, -0.016575437818531644, 0.14218906436724, 1.5989253459652115, 1.4999008707714347, -1.9317195349312066, -0.6220939710384285, 0.410842166395336, -1.9490438203795173, 0.11108734017175174, -0.9603357889500592], [0.7513768174773607, -0.7665023413077763, -1.4081767637167288, 0.15066812538542504, -1.0353844680693989, 0.85956718044941, 0.8276109536960977, -0.4877824282273808, -0.4781990209599863, -1.0686222298535302, -2.1027737943897, 0.7942188565445593, 0.6864143319873452, 0.7507154597953113, -1.9179158323189736, 0.014054230383001845, -0.351206012592828, -0.4408201212479261, -1.076638303539596, 0.12833264630929558, 1.1080551480885121, 0.2849885844715698, -1.6110130633651967, 1.2613775175607598, -0.6138998505665124, -0.3853535972828157, -0.8041720128828765, 0.04095092882201641, -1.0203169723657868, 1.3991456660766215, -1.736923980373218, 0.4677096581670023, 0.23290621352444663, -1.3215213270955695, -0.26810599224770654, 1.5156532641372569, -2.019190369367652, -2.053996985408214, -0.6885418439644155, 1.5876322643354783]], [[-0.647810366643979, -0.06578496629963877, 1.3671961536593493, -0.2685923766416775, -1.1729331750077219, 1.052295510368623, 0.06075164552374822, -0.17107675091069618, -1.3044880829791248, -1.634078743358163, 0.5466309639764741, -2.02029294064953, 1.676681927857193, -1.0232867064774864, -0.17014751741061165, 0.21990509608709674, 0.44096412390621564, 2.3736027035927867, 2.0171959329081153, 2.480320375759129]]], "ep": 0}