{"num_layers": 4, "sizes": [60, 40, 20, 1], "biases": [[[0.519834518018991], [-1.423733342160248], [1.393624120815951], [0.3622543811532404], [0.6391188692891185], [-0.4024882619988123], [1.2815442489645483], [-1.046288956673246], [1.0295748010453178], [0.10030650138328918], [0.8458661374247631], [0.6834014378863883], [0.7662195893087435], [0.9175133069210318], [-0.5847352241184455], [-1.0794940085950588], [1.043075743200329], [0.2723117135731646], [1.1729308039639073], [0.6989291468827048], [-0.831802469544487], [-0.44224156158806704], [-0.20953257163596967], [-0.8418714194557784], [0.8386400967552257], [-1.0623276480056103], [-0.8899226889012456], [0.6753376930881035], [1.366581029951048], [-0.03886322281290194], [0.9588982121062145], [0.15110147995826426], [-1.9873241165600823], [-0.22367217537523754], [-0.9870054952314873], [-0.8599426938194122], [0.5458648649233244], [0.9637826189068363], [2.312498363789182], [1.0072764158415013]], [[-1.065631121866047], [0.13946099203110698], [0.988463609599678], [-0.23326968135497064], [-1.348879585252947], [0.18974891115625625], [-0.5873947281564912], [-2.104962041714368], [0.4943308707431646], [2.8357569644625666], [-0.5763896762057665], [0.08310501022896936], [-0.9374085474144214], [-0.8939070832961539], [-1.4256284417894014], [-0.7237965190033527], [-0.23128304670182598], [-0.0062575333490589476], [0.9343502893054192], [-0.799292359301004]], [[0.20188010535301718]]], "weights": [[[-0.18169134999819891, 0.12038688125879819, 0.5976247373129677, 1.5969445629797554, 0.47730528228355423, -0.9045465916315157, -1.8809662836724987, -0.18519835661968223, 1.2543066198413133, 0.5110062904064344, -0.00522235626158668, -0.180065855639152, 0.28692522253486974, -0.6747350126044952, 0.19298434902884917, -0.34914821686284214, -1.0579008403668702, -1.0332079435971608, 1.4493412730097748, -0.04800867549246866, 1.0259054113369002, 0.9062056184414151, 1.8453266853440091, -0.4436179440753458, -0.18042364131649044, 0.44902727650514823, 0.09167535169236256, -0.14708885329537494, 0.42207097605179567, -1.2604959239157993, 0.10410127054412835, 0.420485232956785, 1.3935737747384267, 0.8544033267595955, 0.7681864604314544, 0.17880426549306716, 0.19855786189543456, -1.280521558466706, 0.8045382226645625, 0.9440554329923841, -0.4592143513978367, -0.4866660633917892, -1.5515477325823934, -0.09837054744736864, 0.03127886847460692, -0.8637456883352957, 0.6561890652823451, -0.8243120258080392, 0.6195568334610752, 0.15457246181544854, -1.0548115223888779, -1.9352602452516279, -2.2780069449963785, 1.1928611882289213, -0.7807262487455039, -0.3251187117719853, 0.18818828215297032, -0.5335455560211882, -0.06431048098284484, 0.5497055850141217], [-0.5269942534393077, -0.980490850315513, -2.0903589362039656, 0.7372618969090741, -0.6078434801384641, 0.5321230378077179, 0.43521844436588775, 0.41018797693847564, 1.2443669480070692, -0.6466880508933525, 0.29884973487749256, 0.3994325369920523, -0.12912080547995333, 0.7151624355257283, -0.9749383807209289, 0.9630341886357403, 1.354315537034261, 0.27726148282877255, -0.4685395414121093, 1.9047317854659793, 1.4188028497951763, 0.14484441439836615, -1.2415224801727982, -0.3795485917681212, 0.30868606274730237, -0.5033455109005655, -0.21066738209500457, -0.2701505097589078, -0.2232669311721764, -0.4387022292184472, 0.9346329205722522, 1.4036760277238065, 0.5033170215402603, -0.6457983818322166, 0.1974277669106818, 0.9577336732543079, -1.293522131648645, -0.708186229729292, -0.7428843359484143, -0.057233108470611936, 0.8453833324732186, 0.7053037695305329, -2.0686531550885245, -0.7779456912728002, 0.18346342711180394, 0.5573943308247131, 0.48645449215768083, 0.24662540206802136, -0.8367544928000381, -1.722405131340924, -1.318951695245589, -0.3281293055763077, 0.08219599249235258, 0.2730368162713851, 1.5898175133904249, 0.9096686944104639, -0.6169702671592285, 1.737238111575996, 1.4920928557494282, 0.8713880475310921], [-0.44427144921294925, 0.4351128581409762, 0.3632738747696934, 0.8377018539959539, -0.2029226880482939, 0.8913012240940881, 0.2868602095079602, -0.3786640648567773, -0.30803576443268144, 0.7348043626814076, -1.6323134048825558, -1.7480391238688906, 0.9974375682505355, -1.017954602049604, 1.5564292870011958, 2.5462849338153664, 1.7170668212738327, -0.2304213909224256, -2.177952670695055, -1.4687286671898947, -1.4650443170697804, -0.7558565378591642, -0.20774551278570336, -0.5490880612328859, -0.32114560899600775, 0.9017906738579465, -0.2891053641613126, 1.6449714699077471, -2.1502442125993175, 0.6337278271686132, -1.242980508608025, 0.7186202970185015, 0.583603363362707, -0.399358701691706, -1.4171859591216196, -0.9365561938175807, -1.0782847899229253, -1.5836641672033325, -0.43638211176990965, 0.18517043744209558, -0.09349009013915789, 0.5995064304169482, -0.1900566173677948, 0.9706023050992831, -0.5103633949679202, 1.5344993287389905, -2.0913005215401754, 0.056953929000173216, 1.254444436425496, 0.4362475374081515, -0.8739439435741687, -0.3581072365154379, -1.0092732431642704, 0.8290951281200095, 0.29855726079488204, 0.38075827686165176, -0.5689780303850736, -1.4088865315123686, -0.10613512421716016, 0.14751435747118177], [0.19926023085956207, -0.8600239272734829, 2.288712137630148, 0.6874345896463663, 1.0497365849814142, 0.09470469563934776, 0.8594190838874222, 1.8363918118254492, -0.647856130457631, -1.9997367384699376, 0.9236748337174926, -1.8434504853731761, -0.6136826810098245, -0.952729871023535, 0.2994432626176725, -0.7433164105454326, 1.6756880234731495, 0.7965177787059926, -0.8670228716352829, 1.5083654823637305, 2.2671194025194357, 0.3696477517820816, 1.026129652558593, 0.3360057561775474, -0.4242631365331626, 0.9799731929637354, -0.22595781105432908, -1.1389548155141376, -0.12905504872317516, 1.3183051629725049, -0.5371694497992756, -2.5130442697587547, 0.5180389029674121, -1.112677255448774, -0.1364009856393095, -0.17706497878632932, -1.9761128438562094, -1.2860283705750806, -0.2783693198131827, 0.5351672216084491, 0.4349180175672873, 1.1649226586432624, 0.675923847817294, -0.5802480154573857, -0.649274318644507, -1.6560915456992986, -0.05480767755207781, 0.6552695478882539, 2.781927761481423, 0.5117525986420113, 0.3200873573609715, 0.9911965392446169, 1.1407218181935348, 0.3403179204721876, 1.824902111342613, -0.19697582679961248, 0.7781548607108619, 0.891518629044561, 1.1331140943802, 1.4847462392871509], [1.6001330470847208, -0.7051846536158719, 2.35752017215806, 0.07063460223258249, -0.1413046436885984, 0.44807578277954996, 1.398117023634326, 0.057764946547523933, 0.7011205109666491, 0.8844124959856361, -1.1040430862881492, 0.31020096056097995, 2.178783105530869, -1.3093668241137078, 1.4048498713773692, -1.1246284855911497, 0.6470665471618544, 1.0067430280275387, -0.2464082213208831, 1.276579479488864, 0.3225872807243221, 0.10606623056382981, 0.8232482771091836, 0.4909510789316067, -2.5349864393355577, 0.3274492447754818, -0.21536611254433108, -1.1122327032435153, 1.0720149082166344, -0.11833141039916131, -0.8666212400874825, -0.8930645437741662, -0.6745918197935311, 0.1749625117727497, 0.6486851488900205, -1.3984879825119836, -0.8445631822524986, 0.9043628003556549, 0.04860189072013155, -0.9166745871442019, 1.0098505748349311, 1.1357795996707396, -0.3320446578497237, 1.5985546426454096, -0.6527496927584829, -0.4624960764764794, 1.0322797006947535, -0.28686611040244714, 0.4278397698989155, 0.6283788707747613, 0.9412250166663918, -0.7965942746330871, -0.9300680257203897, 0.1917482394305165, 0.8481414526993932, 2.3698651422295707, -0.6200186901044971, -0.1948756945235971, -0.19105684952363838, -0.18396614508984072], [-0.15368765552103314, -2.3245772145615993, 0.38975487141624027, 0.6294759901839114, -1.4182177525262758, -1.0557388081684385, 0.7817490643058298, -0.6311132833425671, -1.036897254170643, -0.321522415731795, 2.5079392344715803, 1.3482689017173077, 0.4925619570712104, -0.9840888344444528, -0.7985911495866983, 0.13960386551141987, 0.4222002763956191, -0.6177548292562781, 0.15216309251673954, 0.16496859576453746, -0.44204071098903336, 1.5593073684958585, 0.44015538953118716, 0.6583459636724079, 0.13931305278334707, 0.4690739232933175, 0.2852302418567924, 0.5612282117201115, -1.9429861878208239, -1.3062045872849917, -1.409247708126236, -0.8245827170395398, -0.478420614771397, -0.125550881788807, 0.5312814306744972, -1.7908335839461107, 1.996905088242666, -0.4789897488630967, -0.687231626306961, -0.5456090878717798, -0.9404351624547769, -0.5056920574623489, 0.08301693078976405, 1.6084691257872468, -0.1629685097430482, -0.4082076018205188, 0.8615871191003317, -1.6794746067301118, -0.7965133462013476, 0.14185556765056812, 1.4568151433756935, -1.5180460368741058, -0.03413745319476398, 0.37183436888012905, 0.14631448047584938, -0.22225291622378499, 0.7269576765006156, 0.12816296852822118, 0.546585467223489, 0.06018102700522227], [2.89012888075712, 0.5276612717094236, -1.5000704231424096, -0.08753773947944866, -0.45539472499890216, 0.39060799536407, -0.8548065296256014, -0.09122953490322772, -0.8444594299461803, -0.6303731162245668, -1.0485545580877162, 0.35063020157745484, 0.0008409655346456335, -1.4809351198629068, -0.027051954748669806, 0.8906707561031868, 1.593390728355509, 1.5741235600031354, -0.38045209198162605, 0.013901266127495447, -1.1861615449368443, -0.8671515686945991, 0.0761111211398411, -2.171541708536087, 2.3540015124010774, -1.126009961366582, -0.7918005545555672, -1.449140258365815, -1.7438455393617778, -1.0108041743505918, 1.2317810569931842, -0.4997579926010803, -1.0145818591230922, -1.5213756687300144, -0.42742621870420455, 0.28070893164366845, 1.2006323659840463, -1.7253910891946531, -2.1023510777988323, 0.10566635804472925, -1.2509596237277014, -1.7294686908620451, 0.06557335312015007, -1.5602937759529958, 0.7765148046399051, -0.7670902471980092, -0.5557346215816936, -0.7288151392447224, -0.026366958191649283, -1.0274026103316316, -2.1540023491423703, 0.8251314085858107, -0.7017604440723176, 0.784647082538473, -0.45709469867370917, -0.25585602159589865, 0.4248558269381007, -0.027418131443925384, -0.11813737968704131, 0.2134330025277641], [0.004321718162228759, 0.20243761287651993, -0.30824261900167266, -1.4708350738830018, -0.1452847784049866, 0.6222276590519078, 0.14459657721374813, -0.34406240895056656, -1.1900901252156506, 0.04120241772060736, 0.0722831781889015, -0.36460893575565334, 1.0685087578494255, 0.05070667873702251, 0.2979078897769871, 0.8847510952295519, 0.36094007191105704, -0.43605728267355387, -0.014464755317734524, 0.7392314700887104, 1.386058007887202, -1.5273974903297223, 0.3424993118899004, -0.21404493790292067, -0.12450817502583547, -1.5271687108393524, -0.5072191340412971, -0.8581700374972265, -1.201681392994875, 0.7063465433304789, 0.6795164688783859, -1.2419076143715593, 1.4647674746904875, 0.5456686469052748, 0.2634140739678246, 0.641129277811041, 0.6256795180230916, -1.1772858619620907, -0.6944670163701514, -1.3562721283392372, -0.11787882850308826, -0.32909957809203727, 1.314562594624568, -0.27037804218438366, -0.05315396645769331, -0.22188779688202012, 1.5495497813126828, 0.4718184831690962, -1.343531425792947, -0.9179224022550247, -0.9280141946327682, 0.23029139489435207, -0.7744852151646582, 0.1505800411797253, -1.3140558450341728, 0.6679955102366139, -0.28757787239980503, 2.2757001011176317, 0.28116398521189334, -0.6699692902315976], [0.3101266974633197, 0.6509936854677353, -1.321417680649205, -1.600590269204531, -2.0824976896811025, 2.21049469097575, -0.8218837505989706, 0.21258776906716123, 1.7669111877666814, -0.12266820922766138, -0.6464777244713945, -0.17672637474287148, 1.0565260808164252, 1.6653776818225208, -0.3649844995251776, -0.40173416332630063, 0.7992509945609003, -0.9518844221881907, 0.2204895605840549, -3.1737029189958843, 0.27982311012596495, 0.3081644946644215, 1.6355052677271473, 0.1595392735052364, -0.04246209321272203, -1.3609287598564526, -1.8438775191779533, -0.3911670793719503, -0.4459201816617914, -1.863748182716278, 0.1184168693361561, 0.25147126275618603, -2.168853266995579, -0.24272807498958884, -0.030316184960610934, -0.047817596559988934, 0.9531869199202778, 1.3496445183936263, -0.842811994427824, -0.9737154440483012, -0.0426934884714039, -1.289323675987169, 0.3335753743098386, 2.6549178363978276, -0.5890425306987357, 0.27570232319431176, 0.7906606678420354, 1.601927610849588, 1.4479561120699707, -1.2586512324324626, 0.6834082388469226, 0.1250821876878479, 0.882419937722145, -0.02399949288381704, 0.5275197922940258, 0.9362327667331071, -1.1760709732113281, -0.1233007682522295, -1.8600956652229836, 1.2744485401787073], [0.9805547230597821, -1.8271371222755313, -0.4633317136779006, -0.8115348668407196, 0.2564926522531589, -0.005505409536112679, 0.7832589938007477, -0.7488142568688647, 0.33358800761008006, 0.7242958964658861, -0.33251432182185486, -0.13091695333645326, 1.4089260629362057, 0.7647746823135575, 1.3498176852539607, -0.6064378372612989, 0.40397279768348593, 0.29879202455274795, 0.06261640566441683, 1.199392428573817, 0.1287045607940101, -0.14766596149450464, -0.056351883073411616, -0.26726260293488474, -1.3504116248316995, 0.36207990273489515, -0.5056290318729416, -0.44936422696051914, 2.0101504950325313, -0.7753624118378523, -2.5358466292844044, -0.327479389422889, 0.7124310625865041, -0.44474258222105617, -0.16139052687848626, 0.5488951332878681, -0.35360308453622574, 1.6329588978137886, 0.6214972588809385, 1.4260978563305697, 0.660074308125369, 0.6949684409854673, 0.8320321913980993, -0.4315659999402641, 1.0074915786444825, 0.05726044436806924, -0.47466685774228295, -0.09011480680624398, -0.15788834626254133, -0.2704600007917678, 1.0114617480645032, 0.9298821153438478, -2.0033396186328107, 1.0878665006932102, 1.0443138072045606, 0.24109665019850643, -0.89367095113361, -2.357433250881111, -1.7129391254734996, -1.370575566014367], [-0.34408896910064807, -0.06600459829454305, 0.9293923499546041, 0.474616762678544, -0.5449383872948473, 1.5255425229689168, 1.7375213510599008, -1.7198038628590633, -0.185163323322193, 0.44260989388542726, -1.7149417873984183, -0.784018237106672, -2.084560975927392, -0.29474959378045146, -1.9123975503740893, 0.8238426508914191, 0.3880401330083205, 1.2680490143643262, -0.020060670344972904, 1.4932746434599484, -0.41501474979155045, -0.34616261654137653, -0.5250393732450119, 0.4862596439761248, 0.8502875146435293, -0.20156400911845182, 1.580894922099218, -0.6596908604031653, -0.916488689439878, 0.27452427978083693, 0.7856838492350083, -0.6786552031899813, 1.4950091689726799, -2.0590883583287245, -0.33852073303161684, 0.31758703376526287, 1.273146972094571, 0.8581717382235261, 0.14198132131547148, 0.08504745712303911, -0.41603802793606337, -0.39583061905272027, -0.16771980295246902, 1.5233833554145004, -2.0607380828068638, -1.5213351102110728, -0.12430902336852526, -0.028527560498784663, 1.0545445759592722, 0.34052397332481193, 0.8616022826436996, 0.4968557760228044, 0.8006592077738337, 0.99116680711028, 1.9213535303788387, 0.7658164169652264, -0.7973193753819173, 1.1373132116202143, 0.8221845795081579, 0.23575802236297763], [-1.6736440816562583, 0.6949827130402908, 0.5146151509487182, 1.2722223835303101, -0.30567204720945007, 0.759521446430074, 1.137441304139294, -1.1703054473409422, -0.4576589154925024, 0.7173327908844834, 0.4286813784019094, -0.9024311547580112, -2.2252622305309555, 0.015558424947138529, -1.0762310036849398, -0.36732304046706427, -0.19494534978575034, -0.5734018124472952, -2.040866659645979, 0.5870619094984807, -0.8015965290758227, 0.5227833922040273, 0.43958435085945713, -0.8764825077475866, 0.4411750392777054, 0.3935902359034343, -0.08311208912627632, -1.219318711540157, 0.591116892740873, -1.2748929419211856, 0.4051628531021456, 1.011522928806918, -0.8739608547047516, 0.46245168938779374, 0.31959199834925944, 0.05080776370905337, 0.5784669635150128, -0.07695625026980132, -1.110166215951204, -1.8051320399772983, -0.8671880252403604, -1.5093089505571882, -0.9812771722337686, 0.6455782816742169, 1.1594520549848664, 2.4210666508186005, -1.0047634188340324, -0.7594139922871688, 1.2147592574691957, 0.3768303727262557, -1.223059320417429, -1.1851398892422416, 0.5631927866201675, 0.4329112255355511, -1.753432271533723, 0.18171597335491557, 1.4590538552838999, -0.10348591520993654, 0.017749786030696775, 0.5305653664051156], [0.27547024684371135, -0.422508377304958, -0.8928234039324272, -0.6960236709982024, -1.6343803203799372, 0.5006712833864392, -1.7508331013505238, 0.8944496784729923, -0.5004873269389599, 1.4382585249773587, -0.671669687339816, 0.07014446644234854, -0.5352776641424807, -1.973110718820814, 0.1702406277923858, -0.35045702419444463, 0.28181298666005855, -1.6574895945976684, 0.36009595421705126, 0.39000766125827135, -0.5467697061028454, 0.7999561842507642, -1.4255837535388054, -1.6659586354249538, -1.4444270270206767, 0.43540553749999167, 1.1574942962518548, 1.1682363570545955, -0.7156962864820537, 0.27143724967085814, -0.6499873113389375, 1.032011216063331, 1.3509940145085717, -0.7557315292229004, -2.7664866646749795, -0.4977519102179882, -1.3341734418873052, 1.8938912760521411, 0.2911382722762674, -0.8566042653742558, 0.14343810832887371, 0.19605419846453556, -0.6010134910168125, 0.5777174769502924, -1.3132370610846262, -0.5068648249159627, -0.19660644984837844, -0.9237706403050852, 0.4312340456904372, -0.9780796199401598, 0.4386267781402667, 0.7522551386440094, -0.6268042748035437, 0.32208686937620146, 0.3606929932730144, -0.15524220704643477, -0.5673305882690165, 0.10897821185101395, -0.7109123452584142, 0.024388481332170243], [0.26129092579133767, 1.541838256380735, -0.1263472972532536, 0.8358173554034818, -0.5462665043537404, -0.1267018184030832, 0.4216103698200509, -0.2692010318293768, -1.7099386622230364, -0.39781043237580443, 2.232028393488724, -0.807495190386156, -1.2255603985551644, 0.19314653780834778, -0.9011935305769005, -0.9245826334583838, 1.9358240600302026, 0.808257954899245, -0.9053522670266256, 2.0077575525710727, -0.2745469443440224, -0.7424433666177717, -0.29216432565769407, 0.7083786971957287, 1.7258528404180598, -2.432580817166399, 1.1936242532444064, 0.913113185658277, 0.46181585709394224, 0.8724143158732401, -0.9250065406655352, 0.680533687331926, -0.7330388079270305, -0.481123751583843, 1.0618844559493472, 0.7209154141652506, 1.4368236123924225, -0.43770421326613473, 0.2982213442409172, -1.0437002389471535, 1.0673550516468169, -0.623185750862507, 0.3945165897256949, -0.267550190542542, 1.870910792357003, 0.4609052398048519, 0.27081590807147865, -0.7579345680009467, -1.3644525137221921, -0.29511263109175473, 1.8709792643636598, -0.5778969646514497, -0.18554494674099922, 2.460747325834998, 0.25678438095736944, -1.3090037213530417, 0.863705987887021, 0.08221223734905357, -0.715932705818364, 0.03218665887642637], [-0.4607364085920038, 0.45757729842031547, -0.5894765388122025, 0.9934652811349524, -0.1184726991803629, -0.6547811674201841, -0.46874122996580436, 0.21077467541836828, 0.3571832811552948, -0.17292857388217087, 1.2444062005464034, -1.0037407527331845, -0.8006290723712607, -1.6580705641182185, 0.9003930451859962, 2.1716747049967906, -0.3217152373261801, -0.36083633439019097, 0.9047660483619215, 1.4770305351222002, -0.22278188166113716, -1.3209869482992957, 0.1338734253736563, -0.7634451558984922, -0.1464397983915651, 0.18360910969016775, -0.041387498564050954, -1.8373266259430447, -2.404115319297923, -0.01834376815695042, 0.4216085421598027, -0.862721784136898, 0.708196038215774, 1.361282942127968, -0.6699649927555759, -1.7691211082054317, 0.16595562049741233, -0.10190212549146674, -0.390090604831428, 0.5072754140895521, -0.5917360529657377, 0.6416457090354462, 0.26836671515143373, 1.292429572522215, 0.32642226808887614, -0.5244911351812949, -1.7102109622974653, 1.7391077261591252, -0.6770022447841153, -0.36800776629907483, 1.20179001365322, -1.6581646079181023, 0.4419489304422168, 0.33334292557282585, -0.9378443079502327, -2.4567374891229576, 0.6837690186985133, -1.081848940255721, -1.6663477183974391, 0.466830174287456], [0.8778940780641049, 0.8931255518669606, -0.38594948840136384, -1.0581637988343786, 0.6065864711153661, -0.20056781858764414, -0.8941878122494507, 0.6463746823071895, -1.0391200135337997, 2.515598678333033, 1.5498185904199153, 1.2559274596862904, 1.6131492637767706, -0.08969381248336067, -1.2975889675814665, -1.1947157653499174, 0.12494100539681546, 0.7901515597347647, -1.67823912194402, 0.4045579724267175, 0.5398712125830413, -1.0006608831786237, -0.8043358388126335, 0.766407064563414, -0.7260097518881163, 0.516099743152984, -1.0177801579311831, 0.47098204450129866, -1.1622009272381943, 0.7254457752066713, 0.20449817240433926, 0.083504120299354, 0.143684155865101, -0.6930050469589155, -1.1201481708432097, 0.41211071200090116, -0.5699048821600756, 0.34164295887840923, 0.6705212130347677, -0.6406530472873364, -0.3144539692594942, 0.44186550647073325, -0.5180434710017213, -1.368364551281115, 1.3329637148009037, -0.6854610657126831, -0.4559350889572849, -2.9231209740818165, 1.386221960810772, -0.7406819414821811, 1.153500182255647, 1.0501266504628401, -0.8275974547964621, 0.870744410148642, -0.18081492012774772, -1.7966396458995983, 0.6228112293160658, 1.187684640815454, -1.8198660900574402, 0.4597596565148354], [-0.1690394564743021, 0.3859292164444553, 0.2691909682584018, -1.9399407720888555, -1.1480756625523107, 0.3534731785720039, -0.3159324546768503, -0.24082828728980968, -1.4088103061298853, -0.30732395002166335, 0.5625376797945983, 0.6292523222088107, 0.803949097879842, -0.85584445855229, -0.7904683159262421, 1.1281750978328435, -0.14812092587307235, 0.6994330383021029, 0.7105397108361612, 0.1531925765751702, -1.7071611668749136, -0.060894468421396085, -0.8407227512202728, 0.04107199814957181, 0.9687876662417173, -0.9111007702802821, -0.006495260073527662, 0.8761056999259085, 0.2878403877436326, -0.23878779947529946, -0.6428527351814127, 0.20138928755750155, 0.7047398922220897, -0.4209234617924007, 0.6532376320355152, -0.363974376183838, -1.280484045069136, 0.22540647994765065, 0.7145083128828698, -0.5319152639680332, 1.262537659118127, 0.7380067463659035, -2.3489551565887705, 0.608437722284424, 1.6855246560058805, 0.33852155880880314, 0.4598014270413196, 2.450553596282752, 0.05221198907761975, -0.06483827552753633, -0.6630326209477779, 0.44831288996230956, -0.5677038317525257, -0.14493636306285432, -0.4256185422872802, 1.2062400021995443, -1.1933944197661468, -0.09468422346558056, -0.046873936897038025, 0.7215298114424537], [-0.36998300699515524, 1.014923127676692, -1.2267915836376888, 1.3130037859471175, -0.6826779270936741, 0.4253424462108748, -0.3502771501191966, -1.02402732941142, 0.6920832479146527, -0.16737034105108514, 0.7701562989838183, 0.6401701051029053, 1.6490005935611747, 1.2566048365833187, 0.6265546918870483, -1.9463625304410181, 0.41040034428409966, -0.8280328855306693, -0.3952730482843876, -0.5171043934488114, 1.4306874429617584, -0.8044916951155583, -0.06504037351549381, 1.4809053032787358, 0.4400511085712337, -0.9274281816356104, 1.18562741778378, 1.127054412836682, -0.20970972995012552, 0.35446147311022885, 0.23109532409453087, -0.07579759334511152, -0.09456842746506215, 0.843189675375767, -0.5871849676998481, 0.04024623266525722, -0.5499110587071125, 2.1937464205537864, 1.1440037338591789, -0.2671099864547402, 1.5697344807938594, 0.35684169341155486, 0.6660371959526261, 1.4614661659884562, -2.6718574447917276, 0.3596548264557825, -0.6402999463141857, -0.25953683143281614, -1.475044037690376, -0.5619776378283344, 0.6044752827036703, -0.4839141238179967, -1.5964443238885433, -0.059040774233483986, 0.0781337157454063, -0.14070344471801458, 0.7672778437173391, 0.0024285946998640427, 1.1308053687834239, 0.09406313055314156], [-0.26317237686670764, 1.0320343632265248, 1.3244538503005208, -0.9014562242253139, -1.0648227774159524, 1.1278319807305028, -0.7741499005959013, 1.0975477856245792, 0.9888648975595452, -1.1280869119380021, -1.485910992095368, -0.45226731092324157, -1.069883869083234, -0.6940862031441254, 2.2092625738106, -0.21715500633569138, -0.4621268285709787, -1.328374633350466, -2.2814340050105724, 0.34684088272281777, 1.4962438914007714, -0.3183679878193198, 1.051795837405663, 1.6360628522762333, -0.9743851616504541, -1.0514222682387446, 3.05104752956789, 1.3700986615153348, 1.0024707934279151, 0.6494605461881195, -0.893852374118332, 1.4842707111066022, -0.056255428924236905, 1.8215356178802669, -1.488535949898016, -0.5433389344931009, 0.45200426308135294, 1.8565302261110281, 0.08175717288604013, 1.5993768557448638, -0.12223990513902427, -0.06411283881033401, 0.34201490290239583, 3.008127211633733, -0.11835372689759578, 1.1326446182562377, -1.4800002396445997, 1.6371182620847575, 1.2576698703247966, 0.21695253591811064, -0.2945736463035801, 0.683833762357958, -0.16797826250264553, 0.01230858271902511, 0.14811080272297622, -0.27077976839046797, 0.012865097272949724, 0.6650950561856275, 0.48676049238364955, -0.2778277753375874], [-1.5647270155894275, 0.3306380178075931, -0.5398141964765333, 0.8228930644065715, 0.9439314114500199, -1.4308366528502892, -0.14926220277164728, -0.489604429704868, 0.6293197852461884, 1.6004453138140213, -0.3632435436790175, 1.301763761265436, 1.0094479088464456, -1.1101671241436168, 0.8757639217126134, 0.8069472202231898, -1.9806398647866925, -1.93655634158991, 0.05743191869340093, 0.34637421219687725, 1.0829565620394082, -0.475660139601117, -0.47833172468147267, 0.7766347793411008, 1.1219762800964728, -0.12169917810456081, -0.8477530072734335, -0.401855942405127, -1.2227659374652793, -0.8635798888197547, 1.0601435869206988, 1.5377229301582136, 2.0141184303009907, -0.10437689195561409, 2.317576390615418, 1.592574730465466, -0.723275125865527, -0.6535331931719145, 0.6219333705441279, -0.7685090749269262, -0.9726561707860522, 0.32149831391763833, -0.18085104763720405, 0.4716636087670367, -0.812177446296991, 0.05652608122628171, 1.4808814781031374, 0.37244847101954615, 0.30890019624070825, 0.29453279749993444, 0.618805910563184, -0.6977094754147347, -1.1979511708541937, 1.097051362948137, -0.004067370731767282, 1.8352270716450547, -0.8270878852184423, -2.641065389047703, -0.1545509227083354, -1.6080828774483527], [1.3509902941777332, 0.442669161075631, 1.4734937865704103, 0.2519295699455297, 1.21388878098602, 1.50258411217829, 0.20662762519809755, -1.2974189490278485, -0.8107866441059006, 0.3653310426392324, 0.30771868717217576, -1.5935665419466767, 0.02930880259395913, 1.5488213753456122, 1.0553970754862658, 2.423897336806536, 0.9830742216923993, 0.7072697931577634, 0.9142761813877949, -0.28527559265331665, -0.46956630277068234, 0.3170929355497359, -0.6803005996006954, -0.8933340181652593, 0.7393269629188753, 1.182531788855189, -1.237650356493325, 0.9882385902437861, -0.9666283776021343, 0.25412362623577883, -1.9344928727328274, -0.29903643250435563, 0.047615502094513165, -0.04896972182518949, 0.518834654732823, -0.19070221886405106, 0.12484702348010882, -0.9921044145751193, 0.06860591425020889, -1.349838745483482, -1.2566833680475182, -0.6498669955298215, -0.6354362659959247, -0.4165170918033371, -0.41948206846736963, -1.7401835995070327, 1.1253309988713986, -0.47347953729654957, 1.934365637563944, -1.0694471480068954, -2.2653384918892, 0.002106655805904684, 0.42968129456151516, -0.1769427518685595, 0.754849524437013, -1.2534017377112223, 0.3774929828260684, -0.06285996255227604, -1.9684213720732913, 0.9140480069290379], [0.8756073895121992, 0.3011295105549872, 1.0578425770598985, 1.262860336781432, -1.5102601897241348, -1.2268143787290011, 1.9944513731943625, -1.3222975411305693, -0.11501219801496493, 0.5648409881620357, -0.5575586907055995, 0.7168063250317173, 2.0762834867935647, 0.45437746614976365, -0.12199063786327634, 0.6906230441464632, 0.024781317044294607, 0.13430154615488712, 2.4069242722738005, 0.4474256736985015, 0.6017237009882869, 1.2096798532301174, -0.9205395886848314, 0.14086001484252303, 1.1500955032947557, -0.43084282916891165, 0.18187150812963648, 2.4788099071677383, -1.1527454434059625, -1.211891872212702, 0.9201086696871006, 0.21112527986067925, -1.3620866432515453, -0.03180827363325901, -2.2109283057950044, 0.007744356601049178, -0.028843809924977898, -0.26009080383388894, 1.433505648190652, -0.14493502779564355, -1.734400171318507, 0.03881982257817734, 1.2649340130500757, -0.7751879365899972, 0.6739302044768458, 0.2414302925948777, 0.15155897718538994, 1.2966470786055098, -0.11290455687166422, 1.5838011908021745, -0.4484006387541104, 2.9843411068166885, 0.3831303712914833, 0.6423158945463237, 1.531107793190726, 0.12785821435309117, 0.6790577866569533, 1.8291778358911972, -0.8988413082092152, 1.2614648935419206], [1.018223897108064, -1.0669099992360382, 0.806246230532681, -0.43137813887977067, 2.5785895167466886, -0.9309655489357606, -0.055012771259077935, 1.0811576381648147, -1.1160133776659356, 0.6861495276049291, 0.2516634244280789, -1.3843912475959177, 0.2499617155459614, 0.35734000757626877, -0.2866487719133401, 0.8883969159029447, 0.04464086678042311, -0.7102007854071068, -0.06731604520616243, -0.3342731881322995, 0.6006367717683001, 0.3509076105249635, -0.6133438918214686, 0.41070396482836796, 0.8618406968303884, 1.0520572480942882, -0.4658553910089698, -0.8523554538438021, -1.9239345359583655, -0.2117730557916944, -0.7615727850944741, -0.804826221749991, -0.35396176449912214, -0.9189097908019715, 0.4540414079217954, 0.897272406464546, -1.3322463614645255, -0.33287862099421134, 1.2928318932462455, -0.648562755609186, -1.1206020597237079, 1.5454109576806794, 0.48290755101799154, 1.200850869071163, -0.2591493172769529, 2.1874311688813104, -1.6848781794659708, -0.4876092559994456, 1.8498628659046212, 0.26948063956867147, -1.0652322821133933, -1.7628762666363191, -0.24590757568175362, -1.5956823190613347, -0.04599671315226641, 0.5911549220460993, -0.26035965107136333, -0.7270292954695375, 0.6868779921165448, 0.3246682643228442], [1.974323750630059, 0.6596294199634725, -0.3298765085163165, -0.9069557228653422, 0.3316479668514874, 1.2951555094182607, -0.46658204527046526, -1.454745448939106, -1.9618275588240457, 0.4535798986765087, -0.02224654992830588, -1.8039905558263851, 0.27443165706876055, -0.4648742361361195, 2.2557610827223744, -0.933787429129023, 2.4287716115028264, 1.0853831587394138, 0.6078277628836338, -0.9043855355876289, 0.5892429971822595, -1.7791862617918974, -0.0695601075382234, -0.7234710244124618, 0.410259579414518, -0.07295164139082175, -1.7778045660575608, 1.2960826064283713, -0.34257237588765865, -0.06242224375541739, 0.11135887941977356, -0.08450037368258524, -1.1839165599638009, 1.1960226061489254, -0.9779034108660944, 0.14785131000016286, -1.3058143398082378, 1.4196622468146818, 0.443406726067157, 0.08042723000874759, 0.5506700994727609, -0.47204050611167775, 1.0319693346615226, -0.7315529234410841, -0.9416232029253404, 0.5706720425046397, 0.0827848892853578, -1.6462824061742314, -0.16853680179194674, 1.2809349642479162, -0.4558577304693916, -0.22997367627697865, 0.8282037460129144, -0.7267468373386178, 0.9452877948413737, 2.3286672463450544, -1.9494998861887103, -1.3378408302495068, -2.070631856935364, 0.8668354489490142], [-0.06416083329962197, -0.7755993662746131, -0.23851219693827083, 0.24367120076256726, -0.09854627748658301, -0.24526580489102012, -2.52879525991626, 2.3121190371443006, -0.9494289795796798, -0.48241241099037185, 1.0178169286075012, 0.045693480548019624, -0.26376180616468875, -1.0181643510804848, -1.4908929841730438, -1.4615726392056814, -0.32463043622973325, -1.4764550767410343, -0.26336498076710196, 1.310332769617541, 0.23642338975151966, 0.9895478291415624, 0.7583920071886509, -2.9799095830516373, 0.8919958100543163, 0.04245346537799408, 0.5453918554992029, -1.2688148578781768, 0.7960344079664556, 0.5141725238994291, 0.20682526625692035, 1.6910932165818482, -1.5458118466115862, -0.42861974048588775, 1.1563074071832264, 0.6220945590765754, -0.09110990866370479, 0.6673114631295414, 1.720708456722217, -0.3337514693601869, -0.2156568432525764, 1.590509213451407, 0.8884581700434931, 1.0963190011858068, 0.46848018549757736, -0.190846467183008, -0.32183499939475296, 0.41829859774846995, -1.1356581345815153, 1.195409399613255, 1.0526894220343266, 1.5321376635954418, 0.6054824362926381, 0.8414316858829711, 0.3423962952387765, -0.6212938759002034, -0.0076412487742610925, -0.8088066995282186, 0.03991744556203481, -1.4219159580739809], [0.29513059520850465, -0.9553262520212381, -0.5660763301168449, 0.02232728309624557, 0.1667975673635311, -0.5210942436475308, 0.08984517056399284, -0.44452393428822173, -1.7347715924925182, 0.2014084751023801, 0.013346069597384836, -0.4252837658991895, 0.7628996802950506, -0.08353582858761024, -1.0398414637860878, 0.4155516923335651, -0.08250326572265738, -0.8298395055482202, -0.0707098968616257, -0.05887444792791132, 0.4683505809184038, -3.423035668717064, 0.651495285449554, 0.07768765528916902, 1.2672277339812572, -1.468439939318542, 1.6079759874500337, 1.786452811806268, -0.8335896520851878, 0.43005386047935196, -0.9333708284457587, -0.529370092740288, -1.2952561674319583, -0.4385139738844936, 1.6734020239768586, 1.294398129963309, 0.5660026196872145, -0.2797304308926891, -1.5031183312960408, 0.07589203503292244, 3.0664476461725005, -0.8142837134433871, 1.0871094548498221, -1.0633493876998292, 1.9173115401632148, 0.18006535509401803, 2.5258424341426173, -1.0506025378447061, -0.767139784139676, -0.8934952000643056, -0.10422581384576085, 0.8104137862447901, -1.209445794725689, -0.23005319779177155, 1.887854873982639, -0.45150392049279897, 0.34369931426267303, 0.12064543868838551, 0.5213125645074688, 0.40316659944384303], [0.651782426166241, -0.5799064594259351, 1.2184619980237348, -0.509048796712482, 0.8458873560510916, -0.2574652089103093, 1.390401550118582, 1.124958195042751, -0.17557312516832307, 0.22430387578102307, 1.727656195543511, 1.741955712922612, -1.2507495986178787, -1.2332569795976314, -1.0256042634624092, 0.5272735228764867, 0.963623334729541, 1.6316979887050647, 0.41811763169976235, 0.29521924753724116, -2.3243920388680364, 0.9680145592736693, -0.23387780215540757, -1.6695480749922167, 0.6190317926834396, -1.3421747431496656, -2.0577538161149427, -0.1436433319616115, 0.7094512906463722, 1.040334719605947, 0.22021031756711232, -0.146165874337059, 0.0785070353209975, 0.42202373443297003, 0.8723215004251429, 0.3128248841025415, 0.9333307871574105, 0.37558238975340497, 0.7714881759597678, 0.5666134105790851, 0.39019613629736866, -2.101197124318028, -2.274968173593586, 0.6228425376359524, -0.17174993080409384, 0.8396847384382459, 1.3704923561405515, -1.4721950725403923, -0.1766839403944997, 0.5188668582720242, 0.40197594660833913, -1.655288435726439, 1.044144881129351, 0.1130519177332439, -1.2637364489702023, -0.7885593152279102, 1.5468291800677774, 0.08039447065606402, 0.27440402427578575, -1.2226696134995743], [-0.1943093502425261, -0.43698965266031303, -0.371906822496262, -1.340170040339005, -0.7436389329207523, 0.06467266572489076, -0.8000616014917611, 0.6187779118540563, -1.01149941869938, 0.3194875993248943, -0.8935926525810853, -0.5923413725194135, 0.9520813451703315, 0.106392128997699, 0.4491120885263796, 1.786950526197285, 0.8958918126450683, -0.40010744877741194, -0.748045813353854, -0.9435429571139219, 0.10240186029648657, 1.0906433172628758, 0.35090164141817587, 0.6326747192914688, 1.533021700543134, -0.5019355915293849, 1.8489002875190919, -0.124656235478534, -0.315234450478388, -0.27732021721707373, 0.6305081498627995, 0.3875582120129884, 0.4253244609019871, -1.4613737704386176, 0.819681205570528, -0.9245581066551058, 0.5936986830317554, 0.5152101934262907, -1.5449039524530557, -0.10766731536490737, 1.5110936736363836, 0.6859014059586109, -0.3315902319204848, -0.7937795942441014, 0.056098843835214, -0.2694931253221975, -1.8394752454904768, -0.009916013641052693, -0.837022133260049, 1.287112722025509, 0.29113965664965846, -1.506887312583219, 0.6904263157084757, -0.15239199849349283, 0.1595638343747601, 0.03876004105091352, -2.0401939331344323, -1.911138218530644, 0.17999563561411147, -0.5931407185447576], [0.36933034842382195, 1.759427355682142, -0.7523525343425752, -0.9577463104261306, 1.5290372111243595, 0.2836258897103158, 0.471776481106175, -0.7882753074915965, -0.3104090303670395, 1.0776201314281963, -0.036601465766553945, -0.5500685134360036, 0.35543584129110894, 0.5405892597407129, -1.663477151849471, 0.3663655895842884, -0.45068570144026465, -0.5865224207630103, -1.457859873228974, -1.0453371171306396, -1.0828494835539544, -1.1454735504155809, -0.4250521749481033, -0.8121804462036271, 0.9174688534431017, -0.03556101742225041, -0.3006405495049838, 0.13537295244686343, -0.9086836359602263, -1.2446951346087622, -1.5254320646181319, -0.09493244775899345, 0.1023132875506245, 0.060548699548712365, 0.597583126369223, 0.1982727669557586, 0.08241170000223799, 0.7236416692419559, -1.5617073082614024, 0.6858367964795846, -0.3588125750093838, -1.8887506596740518, -1.225445828048317, -0.7846849803513629, 0.5453788019157593, 0.03265437651913257, -1.1849984927759456, -1.2347546163660212, 0.8650760755598011, 0.20589984867439753, -0.13677886519200516, -0.7012902288823055, -0.20793214223980294, -0.3031074814365763, -1.665064249899025, 1.173714167810938, 0.6716478518868872, -0.7984501023798761, 0.7258802006088948, 0.19057131428022506], [1.5908693164031644, -0.4806247124987333, -0.6355889217493453, -1.0343124592388164, 0.5331433030348771, 1.6334369985833324, -0.052601678974439944, 0.08768955313512677, -0.44181080382860566, -1.1308063566672946, -1.1049048494204474, -1.0032497815763628, -0.5558529915703612, 0.748176526820795, 0.8779874303592996, -0.4378072501940089, -0.7311535147076506, -0.9738801308966271, 0.8807211366781559, 0.23078957120904714, 0.7026936446162876, -0.2891662124353372, -1.103232558351324, -0.7226326100782254, -1.471513619067729, -0.7302894929663732, -2.2422056362278853, -0.12549098919383786, -0.9919538384053243, 1.4435777085538535, -0.49342438976206693, -0.44826846722425245, -0.28774066422125805, 0.3564235997343608, 1.659490037615668, 0.4784904209597168, -1.3934308396551252, -2.0247704044943005, 1.367306518167137, 0.08854741465332984, -0.5856749039884047, 1.4824804417814295, -0.5506448315867016, 1.4387678318508506, -0.27319599458385674, 0.1790186996683592, -1.6476147090483213, -1.9326588417475339, -0.7611414716276355, 1.1814379518884053, 0.3495240632683564, -0.3475704522989856, 0.5957422834837515, -0.5974146214448597, 1.3611745193872145, 0.9738880087004751, -0.06193259224303705, 0.5853743498791812, -2.3364986485428756, 0.7726208597694835], [-0.21443672423405935, 0.9394676443769212, -0.7897859327663251, 0.010169675067089372, -0.8121638802336039, -1.3573458480839498, 0.13218090802980148, 0.13750918149082836, 0.14599087532456084, 1.056728990727465, 1.3875198548017476, 1.0625845958216422, 0.7915999664366333, -1.6197054416014438, -0.4550801383891577, -0.021679531928269567, 0.4827659099889226, -0.4440742790469177, 0.149754701587506, -0.4393187604035853, -0.6378922939882463, 0.6069616392645406, 0.3367251048696885, 0.45418188192778963, -1.5704874282100645, -0.26659425800070574, 1.4369878538176997, 0.22674041465724395, -1.1226526165795807, 0.6078537075845201, 0.4032055029672861, 0.6228902545932813, 1.7035365409148215, -0.9404352923810773, -0.3955042301473366, 2.059594653006957, 1.7857519717359116, -0.3487799703384562, -0.3046595920431492, -1.4337184040258377, 0.7911615985625299, 0.7002118908078259, 1.306756235401502, -0.07769111663069164, -0.2637191363485982, 0.011573630958446789, -0.7413134722297107, -0.8783489898767058, -0.6492374776822782, -0.2055748054551856, -1.210004861032669, -0.06946864298258529, 0.9384787506601906, -2.1949854000314573, 2.064546494855271, 0.8078225810154683, 0.24672155862521658, -0.90621328589774, -1.2627295621875076, -1.2502296087360394], [0.2322713385924816, 0.19169003942775678, 1.049023450518674, 1.7102353945626312, 0.4089159471751796, -0.5912180695679073, 0.2735632714537848, 0.14383280842574053, -2.6619425335516835, 0.009953781418065483, -0.8741104467353793, -0.0344555880426301, -0.4148278707571426, -0.5875601011763388, -0.5770145922952253, -0.29034206887513153, -1.5151343941690167, -0.6868130750322703, -0.3401695004929901, -0.024408178084001492, 0.17952879663448557, 0.8097943009332201, -0.2508891055001911, 0.6437855821914377, 1.4960040177480318, 0.03988558046730829, -0.9688586686886884, 0.07082967709435076, 0.5593703253920769, -0.6095809495246607, 0.4049765201369047, 0.8276665362980975, 0.6744270538890454, 0.16939654570579396, 1.0308523312010953, -0.10423518641313193, 0.3856716866889189, 0.30753103532793047, 0.36031223236682824, -0.29821766355148205, -0.28213611438219205, 0.693536684599554, 1.0072821754038415, 0.2415004597774122, -0.3552868332126573, 0.35623188790112864, 1.429085721257491, 0.5957894916773664, -1.4546429550837783, -0.9608660648707056, -1.1278343908882023, 0.5559445231400172, 1.0618284270280671, -0.5152616293387664, -0.8769320750714731, 0.8930482540444648, -2.3633290237999067, 0.6674729655393613, 0.5628215373618396, -0.42291450694331634], [-2.1880891880063613, 0.1374958344019489, 0.827561670041506, 1.14075658445673, -0.4626274560864767, 0.6630386051488322, -0.34303350107485214, -0.8434181877477199, 2.319235967608547, 1.4633536894753105, 0.13821155929141568, 0.21944361995546952, -1.5502039879773113, -1.0148859104920718, -0.3489434685400739, -0.5431855423380303, 0.07951023793215002, -0.17594300138699615, -0.9311603969032153, 0.5388220163466602, -0.5265428232944604, 0.032366960303392894, -1.5890626701681265, -1.4084637353962213, -0.18144142295428203, 0.13765370356558534, -0.2382525006159644, 0.05059529372831189, 0.0006121617365586028, -1.1836890920363508, -1.2779467166795195, 1.315068465095654, -1.591437364334827, 1.5549612492998215, -0.14002044779758385, 0.3166557139403718, 0.7187761526081199, 0.12758898361856152, 1.0784474895118799, 0.9760936197702846, -0.054238372151431215, 0.2221557304164395, -0.6537326523207322, -0.3804514246954926, -0.9639572661414918, -0.9019918026944946, 1.0480522159096584, -0.2712118261754708, 0.4678879481288139, 1.3007383884830355, 1.0890654601351386, 1.832204050770464, -2.442310496838958, 0.971036560895131, 0.2860578910165515, 0.7817157018040993, 0.03799897777456554, -1.4812054476771563, 1.2879165010413445, 0.5096045623183206], [0.5521684747451414, -1.1044495083885013, 0.921199923121396, 1.557789943111426, 0.851635799494085, -0.44014687554920234, -1.010874726453738, -1.634286536963132, 2.1145693460146604, 0.36812003753218125, -0.4029809299327865, 0.9358871926375607, -2.087971858457096, -1.1461644257621442, 0.18542105890913657, -1.5413972977389245, 1.3626090886235853, 0.09249366698022601, -1.1604373910313792, 0.022228836464713877, 0.18737654386011465, 0.13374952569542164, -0.8277567839883923, -0.47758042724375077, 1.7142623365664131, 0.45454552042070195, -1.3248044872181155, 1.0669919798708245, -0.7080008917033312, 1.5829683070544538, 0.3446366680683331, 0.26674507213613047, -0.8223395799288924, 0.6532093926587705, 0.3876527420944999, 0.3335657210187279, -1.1269335198722692, -0.21305305030156604, 0.2653275479989202, 1.31253176479177, -0.7093089375120221, 0.2240585140858192, 0.20534571906035995, 1.740812061683154, -0.6225214676984323, -0.3635781175396201, -0.3318613423508395, -1.9358605881854274, -0.3318923423450955, 0.9658405053511712, -1.6197086653407582, -0.7110659776009012, -1.140281188224118, -1.4596092895220831, -0.34749004480734325, -0.6449225611743173, -1.1363980730713268, 0.10588543864423647, 0.03422621517633675, 1.2413163894886519], [-0.42037134707256485, 0.8373309042366969, 0.5398917291719528, -0.5140134495712363, 0.954675774305524, 0.514305641198237, -0.07013094690056015, -0.5016086581740087, -0.10184821096901948, 0.9137424300508987, 1.203428557716738, -1.3246725416119147, 0.606915596591657, 0.38488900698956013, -1.1031511619261998, -0.14429381256432153, -0.3123988338985375, -0.12484275565267972, 0.25604017695094883, 1.651737122745244, 0.6108013105420657, 1.118034603456, 0.5589414919417968, -0.02627008137659643, 0.5692590254962014, -3.2020162600003177, 2.5038421851719033, 0.5175864239357902, -1.0543569370790553, 0.07495400013093216, -0.8021804819177754, -0.5191190035333628, 0.021782822425303175, 1.343035744875802, 0.9718046329721232, 0.19024023801252443, -0.020368127859745174, 0.041164355167771255, 0.4554069753502379, 0.17936413829086073, 1.0349687839188408, -1.31339668559011, -0.0978023923102355, 1.6194720172705166, 0.7818490943848508, 1.622959243447858, 0.3465961695419379, 0.7386683394679509, 0.2323867815634465, -0.4210960462476344, 0.6386280049419869, -1.1445421804719285, -1.7672456076498808, 0.938721141619663, -1.1214553510102967, 0.4256184712756314, 0.043345893632304185, -0.27028005135513333, 1.7977914788762275, 1.226589888798233], [-0.5250208463576448, 0.3401117592608943, -0.7603146991547044, -0.4536123560950626, 0.5034570796131438, 2.036087039245433, -0.2356307354737286, -0.14022077756976106, -1.5062124065834153, -0.7528466884252165, -1.739906343551874, 0.2730003376086123, -0.9479123059501872, 1.3637176310170789, 0.0779105569318483, 0.8197691671249171, -1.9461913349316926, -2.539258887129497, 1.372071900161026, 0.08590143226764711, -0.6648382661062939, -1.7303944796075887, -1.4200056979993527, 0.4585229141482329, 0.0537444037357024, -2.266466698112116, 0.4419095145253931, -1.19520291563382, -1.754220402812221, -1.6926538902925277, -1.4104664502966, -1.0317248191055215, -0.05610552976852663, 1.7929203408521963, 0.510952205031073, -1.1081671834046591, 0.27275089104276395, 0.8262455883401452, -2.0913150173979305, 1.0894878351737043, 1.0497571659606564, -1.4903424758571282, -0.1326505127175772, -0.22740115079500858, 0.5007869038540164, -0.24051028174393105, -0.4620576710126362, 0.23302839859331262, -0.8323487978135483, -0.17035242881641924, -0.7954993660538715, -0.023130644789896706, -1.449205330382291, -0.8925544313408927, -2.1112054364576003, 0.8049338012358793, -0.23091472882237402, -1.3468047059288597, -0.8783042399708805, 0.520988589419414], [-0.4388123739557481, -0.25166543800653474, 1.3438590413155103, 0.3318068127585399, -0.6085740659040366, 0.8840717835371312, 0.34748774234025015, 0.9990095972083292, -0.3948058113268033, -0.33768668259994034, 0.3943653865579178, -1.1871377329566912, -2.275746547452437, 0.6952475728886424, 0.5014088225952877, 0.9136882772101165, 1.1402454109079803, -0.23310135999721837, -0.3646035035557338, -1.055377951316149, -0.9489264936066703, -1.0715842172825991, 1.3490336157756524, -0.99523472526053, 1.7207147146672481, -1.4000721385315344, -0.45676112693004345, -0.015752686238835092, 1.2429130550085477, 1.0285006183497836, 0.7160456725935908, 0.9058820197141836, 0.7108373180179227, 1.215552046630961, 1.0352800540061458, 1.3299041986957227, -0.004117984923087152, 1.4702186981731933, 0.28388370976849325, 0.5182106533929517, -1.4779190401513087, 0.25373155382389373, -0.1628895743767791, 1.4174406232485084, -1.4739331642247155, -0.6609687318762236, 1.5515006839827616, -1.5954194346119417, -0.5570656636404849, -3.181961745182529, 0.8545437800316543, 0.0008575584370257566, 0.004922004399580734, -0.11936076817087894, 0.4885732345370292, 0.6589694085558738, 0.6982338754238848, 1.6431767029242565, 0.2732615628405167, -1.2614399895183463], [0.008693878819638881, -0.8431634338255019, 0.6328406855588777, 0.2836714667007612, -0.0747880726452224, -0.21510207274079055, 1.820750052109718, 0.4649336651944507, -1.1738269209545291, -1.1467503230735943, 1.4533503857365, -2.050276139284251, -0.042720047392847744, -0.5959219800904486, -0.8087284433590657, 1.3187792341701625, 0.03722224864288177, 0.9948797609607357, -0.7948412657800451, -1.6991807611758905, 1.8736444345094985, -0.466599063574925, 0.41838208650835534, 2.6921184752865654, -2.344995871841985, -0.9097291631850947, -0.2897704718298769, 1.519205059213187, 0.9312439423119879, 0.45895918544749864, 0.09312691990605172, -0.08604175802219333, 0.6115462195361681, 1.0865392845924118, 1.0467141150029016, -1.3769743396809406, -0.1504878644895232, -1.5186870260847827, 0.5943172675308164, 1.7298914215583656, 0.2458582654559214, -0.1420748033981221, 1.4492650992655898, 0.42535396885049404, -1.2258391040541665, 1.1249796830765277, 1.593952523365341, 0.06617049161611532, -1.5222185740774306, 0.17673236076689097, 1.0995688178518277, 0.27678576992464765, -1.6640633417616644, 0.27599731921556475, 0.39174999504228897, -0.012715065625106221, 0.4084028492338734, 0.30394222445852986, 1.1457559842829363, 0.32375865240745116], [-0.4101510853547071, -1.446517996313647, -0.7828139863408001, -0.5561260468653068, -0.6716802510715106, 1.0179700458010759, -1.269021309022348, 1.0220886857623, 0.5389813989817733, -1.2507717745736224, 0.4661821708972544, -0.10993129326980207, -0.9151872662717998, -1.4391337598001746, -0.3996862920148396, 0.13636656338852363, -0.20743990731586592, -1.8188028197602042, -0.3318591305906532, -0.454392895590011, 0.5479946939701007, -0.07430660548925773, 0.4630069732767939, 0.9940174109963315, 1.703302546646792, 1.613127486549558, -0.6780508757180592, 0.24635666718712806, 0.18042837458780134, -0.380523043364439, -0.6727385303526675, 0.5116205789305457, -1.0223615263296257, -0.17386792749855218, 0.2336212001340139, 0.6130975450875075, -2.2028918364972947, 0.5704557261685944, -0.3223048343376326, 0.10819440924888206, 0.5112315328928305, -1.9502209199027245, 0.7580422206058334, 1.7823976049003292, -0.26500011611254815, -1.1482315665004392, -0.449017384489492, -0.7081783384711375, -0.9412000002666071, 0.7207036692043082, 1.311733675320425, -0.158924940368321, 0.6347205018619114, 0.8280375762584153, -0.27289202588171263, -0.3531391478766713, -0.4209447066109342, 0.9173369126535842, 1.071769516491549, -1.2158633907935326], [1.5025141932111705, 0.7723861474210373, -0.6735894770218042, -0.8223167582939206, 0.6631679895583322, -1.0411543865416115, 0.9357210577011887, 0.45543471193499113, -0.4387049006519013, 2.2500917681046437, 0.8631985600028756, 0.31413885304768624, 1.3659615965679186, -0.22870655450109495, 0.7145763562805332, 0.55289292860653, -0.462041860619991, -2.150575564447332, -1.826844530215609, -0.49835099348540374, -1.3049778949063602, 0.5951930661541592, 0.8665552630904523, -0.9799560212116828, 0.22812450132215684, 0.20880023380651283, -0.3719153434691718, -0.7413537205646955, 0.9704120127517651, 0.891881792932434, 1.1698894161533262, 0.748841473594348, 0.22174985310003767, -0.7535512981483014, -0.5704020161907717, -0.4810159368344157, -0.0981713296483475, 1.1002893062857617, -1.0416994690777606, 0.16121158633115898, 1.4650982911170483, -0.8502344381308125, -1.7830671365368351, -0.9021740319970708, 0.3285949095177856, -1.0520801001473727, -0.4974768315829876, -0.7392104803759738, 0.23376216356961105, 1.6040733975864754, -0.29537238734257215, -0.04139783729030779, -1.3343410058596143, 0.5931473293476472, -0.5262258373836297, 0.9063803291043283, 1.3496197106143506, 0.2984103466463937, 1.264538304482236, 0.09162278757917952]], [[-0.35586081562166283, 0.5656245596852458, 0.5854658215315178, 0.014696111534802847, -1.019897572126981, -0.09926971863707834, 1.7864477319127217, -0.8948640385045815, 0.30991887904421755, 0.4086269986129794, -1.3063878421473376, -0.49156450385023287, -0.21955390246502132, -0.6303046385381494, 0.4173492972002385, 0.017304734932643298, -1.0668325468188402, 0.3654493974438003, 0.026438203182490003, 1.8647591372276768, -0.4066937574652142, 0.04255653615030615, 0.688236786129526, 1.1294819827105844, 1.6843925122645311, -0.2776885304820079, 0.3317930986522433, -1.437125831439126, 0.7197430526207947, -0.4058366294301873, -0.6433179541578924, -0.6808980366349013, -0.6415500015295594, 0.9874271762068401, -0.7198679083830333, 0.7672775676960059, -0.7408111261468512, -2.1949936675761887, 0.7603512695370329, 0.7802342211636464], [-0.6858422078254948, 0.02130509968870169, -0.5344027597361962, 0.016795607089025506, 0.6364885283031121, 1.078698685280219, -0.18750567290999923, -0.4196403309695742, -1.2769725137388428, -2.1214229598038687, -0.7262410962595993, 0.19189072010420474, 1.2189583661654013, -1.2037864552056419, -0.2977172135688427, -1.2649536360361178, -0.9789602818259466, 1.0742629396542975, -0.3394847238194351, 0.5564752846051604, 0.7637672990266381, -0.08014357786256847, -0.2865753943828402, 0.17601462655166333, -1.7149859342303637, -0.3601857932517873, -0.9747960842576391, -0.7698072498874831, -0.9936198915284377, -0.5734265594201385, -0.9536174955038529, 0.8727582788835048, 0.27957020302391833, 1.6154438724399733, -0.13938206751250273, -0.5141176282759597, -1.1784316308157343, 0.36620955112895465, 0.2687189460223079, 0.20208601649361235], [-0.20979375630532748, -0.05877243196855814, -0.37045063725294547, -2.0510929806709135, 0.786390860614215, 2.6157728234708197, 0.7539806403632305, -1.085210401287867, -0.1796462755411116, -0.6592303663950655, 1.5269754201035042, -1.2278368884930908, -0.8080827382164018, -0.4967979029364576, -1.754651917468994, -1.3140268294702138, 0.1312177598062806, -0.37654143087289066, 0.7241921356737647, 0.35308748753207114, -0.5161505732865276, 0.7160319829954973, 1.5443426622930296, -0.9431612762833855, 1.0337217778437755, -0.3453533034642805, 0.213680909423814, 1.116196399118453, -0.17605639778105905, -0.11924485524774953, 0.6730496379173325, -1.7152580820395378, 0.30078983588112046, -0.26905722916070535, 0.8044254494479259, -1.5053405042131347, -1.0942976906840016, 0.9463362718942087, -0.44567222088513536, -0.16212054193695594], [-0.7155915666071786, 0.7199958076562765, 0.09421923636150792, -1.202132464679761, 0.7188855972235394, 0.18962734218946417, -0.5533018439992547, 0.3616963224859522, -0.02593428522230929, -1.597998390744144, 0.33603740102139745, -1.4030294247336308, 0.21996898052020886, 0.4469368064533618, 0.28879383064292696, -0.2990204430509174, 1.0365438669616274, 1.4086876925387333, -1.3629832112373774, -1.2424950547397982, 0.2656001252507727, 0.3754035130322395, 0.3819312012760098, -1.6231747365229476, -0.28298531532598603, 0.2360362081217066, 0.9029865931788581, 0.7162139235810796, 0.3591980693721355, -0.38555099454296593, -1.2414052422297912, -2.310767988968943, 0.30614290483942586, 0.24370849083543786, -2.420758153334958, 0.9337254197727777, 1.3855448282857175, -1.1741727935586626, 0.22507493009567298, 0.6189350880962298], [0.8309489108436287, 1.4642959097663726, -0.3484301936698395, -0.8083670578710849, 0.1490213913911279, -0.5783713518912709, 0.30602662717121304, -0.7030294226892526, -0.1590178557407006, 0.00716869629599696, -1.161394082167687, -0.04851994838825069, 0.8706374335515937, 0.36233152484462433, -1.5485334689329664, 0.9374367470298527, 0.7425455948736986, -1.866494320976761, -1.307865843174451, 0.8793268715944355, -2.72340881083815, -0.7024815724103446, -0.21521537004167768, 1.0041919915813797, 1.463745629290632, 0.6464311890045875, 1.2275145485282006, -0.2475603759870042, 0.14827520110884895, 0.7232919086859211, 0.11457060282272005, -1.592983293761375, 1.1500240288333077, -1.0557323670217627, -1.1591312522194093, -0.012387532717661158, 1.1735214254256918, 0.028073129712167546, 0.4894197421664359, -0.3991043560554768], [0.4326736079304702, 0.8546698255323527, 0.5335908362955324, 0.2707020060523806, -0.2967097800050336, 0.3326324276819219, 0.1720807969407047, -1.139278608803035, -0.5889480241037907, 0.48156826534223235, -1.1610860647138925, -0.07898250517848553, 0.23614545140172477, 0.2564993693729507, -1.2826050805864788, -0.2770658928964076, 0.4430766913048618, 0.09950661617152631, -0.2503757325094544, -0.22014977513169737, -0.09887051034404039, -1.498490343241342, -0.01968360262332251, -1.1503820458452643, -0.23165411195060281, 1.0681369966756828, 0.7426802135271942, 0.893169688428402, 0.29283225248600997, 0.4770921787569663, 0.2309042751481745, 1.1900364515281219, -0.018994536587747326, -0.20624276631848182, 1.3248550928466494, 0.559793330962812, 0.2413480477988174, -0.6470392884263763, -1.061525652631267, 0.8757763142860263], [0.6588949492688057, -0.5386369557402035, 1.402851644011561, 0.40219532691941406, 0.7423957721000649, -0.8270477517078235, -1.0059557452047536, -0.5453239607471286, -0.11110412402590897, -0.5395176074402644, -1.3528497770087224, -0.9673016532567694, 0.6979464839176552, 0.08986442243704486, 0.27690734456977123, -0.24806945777437628, -0.043699974970291766, -0.8213840829605686, -1.5137492601527445, -0.5371882422988294, 0.30307478603835397, -1.1169114182553488, -0.12215533424818333, 2.46745430122336, 0.6763200370691433, 0.18335316903048185, 1.3153938901417408, 0.8918576051932625, 0.10664341033689856, -0.5776484137605742, -0.4287394347751512, -0.7976009275110875, 0.4173180692452142, -0.47325141674048626, 2.005586946993512, 0.06058431492454768, 0.7003694791487262, -1.430476377767773, -0.8328321251463378, -0.9809199600984434], [0.5820685113084271, 0.5082926973857615, 2.1608266330175683, -1.238081386826006, -0.3368220352196716, 0.4382035568908258, -0.048919667742512885, -1.503869989209372, 0.44834553987069575, 0.042763025145411304, -0.5802759286548583, -0.5294571277626897, -0.08806106479883109, -0.01627083005086743, -0.03567617445198613, 0.586702012246054, -0.1044427367294223, -0.12469838246522714, -0.5873144536076087, 0.5826218976700929, 1.4479524442813327, -0.7002551463728364, 0.38532651704408966, 1.4190342287944762, 0.10367311396733342, 0.19362902270061394, 0.28265100309193214, 0.7307831882713021, 0.6106701344680371, 0.42051022950978134, 0.7340210555823504, -0.3212956582459579, -0.778937646592973, -0.8619230211078793, 1.5220119294520567, -0.9960635491546566, 0.9855833859998218, 1.5263304131070912, -0.9685292860908592, -0.04238165742053647], [1.4306120236517614, 1.5568939531312194, 1.6783903678794758, -0.8544330620271567, -2.6761840117063405, 3.5998753493115405, 0.7200231462130081, -0.35579725876930907, 0.25438148054640575, 0.324899267427791, -0.7071808266255303, 0.8834207973865029, -0.008237254559563928, -1.6905517424433196, -0.2636353038291357, 0.4951216934109957, 0.6698132479175684, -0.4939835694542884, -0.7300139668224163, -0.40413287138894843, -1.1886258586803042, -0.9582168652818545, -0.003618834267385625, -0.6989721905422971, -0.7464847704760588, -0.19276672275442372, -1.2772139107316705, -1.2918732054498614, 0.8385199084644847, 0.08246935687683923, -1.915823282163287, 0.703386558241797, 0.8846526358878222, 0.3009299577861253, -1.069412815087376, 0.7820808763425816, -0.40448761958368445, -0.46955413301429366, -0.02726091233316738, -0.049019808422254375], [-0.3709326633036256, 0.04847542108536861, -1.4260468563621853, -0.4559274993855077, -0.8927840131853979, 0.2710846791060405, 0.9542419140340395, 1.9659743895704793, 0.8631629493262204, 0.062534237032748, -0.976717549258797, 0.1079386542175766, -0.9962593141346412, -0.16902848345240346, 0.3416492647225724, 0.0045688433843060995, -0.8111393069763276, 0.05072011459157717, 1.9744930277656916, -2.19853802002178, 0.10428412660440207, -1.9348898631224514, 0.9390481375583155, -1.1468340978318383, -0.36946468037344604, 1.3426012142192605, -0.9725021437455222, -0.6464116126900801, -0.8580957373970571, -0.0634989078276785, -0.29520989780593265, 1.1920047180135391, -0.20791118453748542, 0.009081609189927911, 0.7661094720744127, 0.19610282018087766, -2.5069753405165307, -2.517223632672221, 0.3141193252064942, -0.49031497898664567], [0.40382315523524953, -0.5457523684081266, 0.11889171812489256, 0.393280694222705, -1.160666121562666, 0.17468430561074022, -0.24930049525102746, 0.11079804273830621, -0.4627499280696854, -0.24385620586670662, -0.5771632249916276, -0.9781987172670938, 1.305437239800024, 0.2597707268544167, 0.5004125429894332, 0.5581452691281397, -1.342738386450444, 0.418393733814528, 0.25151871484854504, -0.09191983957297385, 0.8104348525860828, 1.1526114251261346, -1.7269639234552132, 0.8674593768208243, -0.40117314421182776, -0.5706484751908965, 0.35374296110455056, 0.21051263816386656, 0.31200194915416696, -0.7543498084643172, 0.6438040688716837, 0.7143815709405982, 0.7536911541798661, 1.7049663661637255, -1.5665423663642621, 2.0676786611116182, 1.7440591324843313, -2.4756354766146176, -0.0337735852113653, 0.05956966566682693], [0.6717299626158566, -1.024719294860742, 0.6562271503013625, -1.2504379724937145, 0.05367551040859366, -1.6170498530282158, -1.4283590423418273, -0.21244282578119847, 1.011241594089447, -0.16688086956724862, -0.1346163961098231, -0.5376510545235768, 0.06625870103641336, 0.3584265726098015, 1.439422899912794, -1.6596268374877226, -0.796436448509562, -1.6456122349233695, -0.7174207435984411, 0.5150060560318376, 0.4810463717378621, -1.4562902085321496, 0.48963954709150054, 1.4513200123761099, 0.9811660060005172, 1.444978109806741, -0.8954243048835735, -1.0335364744530608, -0.4074075458531582, -0.34998406477085703, -1.7240161675118109, 0.4014628027192808, -0.1025069972325662, 0.2187643749662248, 0.5280458308141897, -0.22583175372403383, -0.010343089675335003, -0.7604447008572266, 0.06728154316642311, 0.5515817780773394], [0.9168233312185832, -1.3723067980329045, -1.8473528629155225, -0.6152266842158003, 0.22463974901693126, -0.08784007266530539, -0.16935077372758425, -0.16146904720466698, -0.7285496634660905, -0.09745019020840559, 1.8680996156611291, 0.5916656967467784, 0.735253318450897, 0.15040799495192406, -0.5075856482271746, -0.3697064495041588, 1.118460384792435, 0.6407443927957815, -0.9139544855692325, -0.05933690351149136, -0.19867414594205274, 1.9390552134531023, -1.1301923987100357, -0.8934301295217921, -0.8581057602128745, -0.49013617818756755, -0.8685576224788729, -0.25907845311105343, -0.3902342083570194, 0.0509929347575469, -0.4785031078493544, 0.6124892304280894, 0.033740056251407184, 0.13995299419843565, -0.14668743060930403, 0.015549089770579677, 0.559857662356929, -0.3604059741873908, -1.3212800595684653, 1.0140530927042197], [-0.2292336955533252, 1.0434874746799394, 0.08935564335832608, -0.036551369189499125, -1.752915667713761, -0.6419109820849818, -0.4430031168734239, -0.040371059929974425, -2.5160260609357232, -0.010055831136449419, -0.436391662248883, 1.6008123251127524, 0.05501106067126467, -0.7656900019350225, -0.6854369890900962, 1.5961309051384909, 0.9838097281717769, 0.23109875768382462, 1.6303255668576253, -0.010357024965609703, 0.37599138088081774, -2.789367570666628, -0.41380457039041013, -0.2083539953382443, -0.39027350599777133, -2.147507314356003, 1.3336048173354702, 0.6507390713945608, -0.4315564757104151, 0.347374356425002, -0.6109204524224596, -1.5395667028095625, -0.553832804867158, 0.7043223427028776, -1.1110333019671332, 1.8534676043471419, 0.35195987701909026, -0.67306218490534, -0.26033325087792597, 2.359636203023232], [-0.9103513298007045, -1.1473011692034363, 0.11418287951968216, 0.5880013604636813, -0.3559374444781297, 0.27427729030431997, 0.797363362721142, -2.330925168502689, -0.4168745919534649, -1.3660078935914068, 0.6046838528046787, 0.06834373252455395, 0.9864167767590706, -2.4973268386699896, 1.0344315035460023, 0.7199893041718592, -0.9739581032928625, -0.4403145928205946, 0.2061493993681621, 0.32582567140108526, 0.07074997510893231, -0.38039795886403016, -0.08750636979506486, -0.1192540695419453, 0.40764966689308624, -0.2770854485690143, -0.4419565334389458, 0.4132792182480908, -0.38374318213743885, 0.19647702374803186, 0.00759308150444743, 1.464316076723083, 0.3038768483328978, 1.1814426685293005, 0.43893402693313044, -1.0894867041362835, -0.029989577517122817, 0.10084985051337521, -0.002754911585821655, -0.7810708040594873], [-0.9040789991960347, -2.0319931178808326, -2.0941037708758663, -0.8416628589548156, -1.1391039797284146, 0.7997227372369916, 0.3238676786490073, 1.480655332196731, 0.2569856094881201, 0.2628110338925367, -0.306670368824667, 2.2734409833193645, -0.6888288879418989, -0.22094792329918303, 0.2065982738267468, 0.6944353118716687, 0.8952673384012563, -1.187494661618289, -0.7943275263966766, -0.3996498135934757, 1.1100932793168297, -0.4804765910828131, -0.7976436263599014, 0.4252381796913789, 1.2157421793851135, -0.21090949562399577, 0.10304305393621652, -0.5047597854007354, -0.3291870914702059, -1.032575712086369, -2.068198155559251, 1.001839504831497, -0.15662872554915483, -0.3995282000621866, -1.0180282513570045, 1.1767646301711676, 1.179476524650579, -0.673911008798545, 0.13561019079256775, -0.6669029831431679], [-2.2651465972924485, -0.20939263359636584, 0.5115765602803493, 0.4196665045910476, 0.7826555007936776, -0.8141688222707653, 1.3880680102691227, 1.1259446824539474, 0.26622799094841554, -1.363154770874154, 1.5673782851015685, -0.3724705591362542, -1.0814265335332596, -0.5858095254361635, -1.0493550996776655, 1.8978328129367785, -0.2205295241852473, 0.21020429307481156, -0.502582455181305, -1.7790967406575966, -0.40609778049179146, 0.3051140167046191, 0.4956815087690435, 0.7102105466857195, 2.2974248157366377, 0.21750669602283995, 0.7904424808218664, 0.23569119266158847, -0.2986199846622376, 1.334542618104391, 0.21920980217157543, -1.6442782112967764, 1.1093599881161493, -0.6406133834927479, -0.6022414708219992, 0.19748635289709868, 0.4820389389242059, 0.26324243692746835, 0.5400756541226563, -1.1308097995539395], [-2.540004463574568, -0.5289896148272057, 1.8140866564374176, 0.1068010660635234, -1.273014939505962, -0.5045301441284828, 0.5049568296797383, -0.2296175241231742, -0.33560998223184785, 0.641262447641891, -2.967042738965522, -1.15140518352886, 0.10302487758399631, 0.9799750663890064, -1.6062570362531425, -0.3541611489262779, 0.827509972720925, 0.8850149545745539, -0.4067211927112169, 1.0984635732435837, -1.0135321682928464, 1.7565931048043777, -1.118316476535996, -0.9524386632631167, 0.21704660424246988, -1.3387183446892916, 1.1383804898776861, 0.11705449541871821, -0.4215565317801462, -0.7849106915601148, -0.8007316088983043, -0.9847131520419333, 1.0425684159753437, -1.1334665127445216, 0.27983890365907277, -0.5138967895176907, 0.5342280383388095, -0.08037045926347032, -1.8998895608057444, -0.008908318238604312], [0.6525852302837865, 1.065594817972792, -0.14146090927141333, -0.19336161125516133, 2.13220163645376, 0.14161712178156974, -1.4089413863099332, 1.3966044472384351, -1.0251896599179484, -0.03480586739675627, 0.13547768246411024, 0.08062887616382804, 0.5485512509311649, 1.4041693971513558, 0.22488789239293022, -3.113114160876127, -0.8768137926604683, 1.210653088611307, 0.2401386111701137, -1.718825581139746, -0.07998021909981677, -0.050178896965941404, -1.2544015638887005, -1.3576373966645348, -0.15214551642574498, 0.7332829211131728, 0.3202587813352749, 0.061211546410664106, -0.0744540243500708, 0.03973143491412032, -0.006459308442030413, -0.9026087879523942, 1.1619929715044852, -0.3201402675155547, 0.7451428770386923, 0.9945255948476026, -1.4718262082328943, -1.4083003496258006, 1.1700778659521411, -0.4303034400122443], [-0.07941079552052496, -1.0419383436443153, 0.6585030224323267, 0.22415718900105952, 1.2642851693222157, 0.11211216554118683, 0.14712491007314296, -0.6084543993534702, 1.239242206280128, 0.7332719689147501, 0.299468547293396, -0.19418901761407778, -0.7594178136618293, -0.7801118647342338, 0.7100626937232506, -1.2402296868752614, 0.3124519338730373, -0.1960299275490078, -0.7233251405465075, -0.5963848247225758, 0.05646882713593409, 1.7241890938247812, 2.640602840690132, 0.2461628731331994, 0.3131127911470322, -0.969656037068384, -1.2435816414882992, -1.0647861808896437, -0.93542368413956, -0.16412382024349925, 0.20734453483855395, -2.2381999269781905, -1.1763172020748847, -0.00981633647433948, 1.2023549532247548, 0.7267950043071001, -0.717039668856307, -0.3118351485569588, -0.47386991946094587, 0.7014065561128167]], [[0.01908464113465589, 0.9659592029662823, 0.00036067004294770225, 0.609105862268571, -0.03500898697596432, 0.026502358368076136, -0.5670681339982356, 0.013255483949053397, -0.6266512524009508, 0.5600678409979624, 0.0221244514207119, 0.9103417393207268, 0.02318904621726669, -0.18186956809616564, -0.21764454350474574, -0.8584907432190472, 0.006001903776057322, 0.04497495749746329, -0.03458571263269311, -0.017704863447362156]]], "ep": 380}