{"num_layers": 4, "sizes": [60, 40, 20, 1], "biases": [[[1.2564759534008585], [0.206910705793664], [0.44534868895606267], [-0.4795688116783378], [0.13613623567931088], [0.7466057555824198], [-1.5082870446672458], [-0.4761624283908815], [-1.9636681702582726], [-0.4824012082130639], [0.41826567767195666], [0.11623922607602237], [-0.9769775824430061], [-0.9810450592720521], [-0.9844307669576222], [1.8608354789456598], [-1.2169872164181976], [-0.5107625696736365], [-0.15572002779827682], [-0.44685914879006033], [0.7784843882294493], [1.552235068981515], [-1.2057843808427569], [-0.3697867401654857], [0.31060726185648874], [0.8572686961830354], [0.38417337230471277], [-0.41117479055103173], [0.3425894753968469], [-0.5483189461683398], [-0.11272737279684324], [1.1689411511014953], [-0.6515321157386985], [0.14046750997520496], [-0.09977004752414238], [0.6074532701710703], [-1.1419427616145228], [0.45966663175597433], [1.2905651288838502], [-1.5667259472705493]], [[-1.0494713544934704], [0.5316007187605026], [0.728369586458708], [1.4463983303278256], [-1.1482308564325219], [0.8461007613052465], [-0.18235979136789474], [1.628098797344266], [-0.3511245461220514], [0.566875710350672], [0.3931468670313521], [1.3049711245930586], [-0.3005469818801662], [-0.7688512708960932], [-0.653843694252422], [-0.2893509281786979], [0.4484920578228463], [-0.8800929001884028], [-0.41128551415730114], [-0.8806682063595228]], [[0.24647715059500022]]], "weights": [[[0.03046524743809461, 1.3368730639937105, 0.9183747552209262, 0.1490649263207909, 1.595196841350355, -0.852987177776761, 0.1526011284866884, 2.0190667300327365, -0.4785331573815499, -1.2902336479399348, -1.087423273666683, 2.2108616520688353, -0.8789105637616937, -0.07865225442375476, 0.4731074528200702, 0.2041114701325243, 0.9350672449150773, 0.015404431167848483, 0.024207089179439492, 1.0833444541171693, -0.9871268464976288, -1.4135293884898086, -0.1283822621573018, -0.8950639421733356, -0.9161096355348787, -1.8100132227206431, -0.12634802600961229, 1.8666867153604263, -0.2773131264351315, 0.04312448282926234, 1.1353264585574085, -0.22868206442592073, -0.6026139156817641, -1.6899157891640184, -0.4836811589703174, 0.37961836259369586, -1.0424962753380516, 1.163249780180543, 1.2801485577436953, 0.6671280322002937, -0.013329024947957156, -2.7156674851136855, -0.11873271076837574, 1.494574887929686, -0.5395739070895217, -0.9877851546190513, -0.36973189540268325, 2.0934318109269503, -0.5879681570868925, -2.182769436104909, 1.1351645570191498, -0.9710550063009447, 1.558682081778669, 0.27109865625577767, 0.6201753700702926, 1.24560153688341, 1.137118397380303, 2.0047729025122463, 0.5686824017411839, -0.9457834479592653], [-0.043610342099911416, 1.288072005791242, 0.40273321811858465, 0.12421833086031943, -0.16186612077050563, 0.4765304401259732, -0.6035301357560414, -0.3788719921302917, -1.5880185223957934, 0.6863108750003759, -0.5192027116723078, 0.09390040242666314, -0.38223929962425074, 2.075917838985812, -0.3746679193216958, 0.2807495637916335, -0.8750677725057909, -0.7063148624581379, 2.5411618554708064, -0.13351263825138648, 0.3835575981147519, 0.2782805291868611, -0.659662540498554, 0.40897721299835027, 0.28506034656299073, -0.8052165734473211, 1.3159356698712197, -0.46265775511735197, -0.8358091656187563, -0.8887669233460708, -1.0155777484485446, -0.2815908226573172, -1.747864234032612, 1.2457044930358097, -0.41130948601590656, -0.6671919773037623, 0.6271770830047558, -1.3705264495265943, -1.5326366914088654, -1.6299102774517973, -1.4667733566630194, 0.3306120747117808, 0.23782005614832952, -0.29865950575219385, 1.6166036529844514, -0.3147677599497567, 0.34782071845950013, 0.11584976567941627, -0.03467071004521546, 0.7077244748159291, 3.1438826613722135, 1.0299635641542264, 0.4785570233925237, 0.2942276238878455, 0.660357288273091, 2.19424588796779, 0.6597000308144145, -0.44848607838522275, 0.16033191095572, -0.3659837075601672], [-0.04776220069705691, -0.21666500125881674, -2.302608144362478, -1.3985086311748425, 0.9289057915084736, -2.2902914182834, 1.0743562907577278, 0.707747323107045, 0.5264828144178711, 0.0827925057611383, -0.6059671064912038, 0.39384813600756585, 1.192291095681806, -1.4134944795716713, 0.12859334188360344, 0.009276964458419768, -1.2874375780176601, -0.6881773663518173, -0.006869041465066945, 0.09300666221527357, -0.4504507209337899, 0.05442931646266177, 0.02813896341287082, 0.940056416983745, 0.3868685524343422, 0.5441868823959858, 1.128053416941946, -2.1354071923727322, 0.8943478176080184, 0.10542101569915545, 0.05961924448841486, 1.3968128923170315, -0.26043034966035505, -0.8719515711545163, -1.2878674551007059, -0.30402934561435635, 1.0076694571096478, 0.5311872079801886, 0.6590529717477445, -1.8732448632866583, 1.0721842378931858, 0.08696892301566286, -0.6745587360453018, -0.6935772165422992, -1.259482124449348, 1.7665802797122916, -0.8765301666690584, 2.0443671520697566, 0.038383820188527526, -0.3203435287606758, -2.0980938521810257, -0.8518790337433426, 0.9955427434984426, 1.7466305340570778, -0.8785248716572148, -1.3643063539616824, 1.1630781688408147, -1.550534547972752, -0.31783142111516854, 0.31795172022733714], [0.5454875039585628, 2.3389994171722415, -0.2855822999655428, 1.615634888996721, 1.7181103867964602, 0.6117204995297323, -0.8297156434922932, 0.7804204332101851, 1.0038591394346328, 0.5887172923365771, -0.6796253213844583, 0.487353814480746, -1.0910254348669683, 0.8207619800440614, -0.855856605808298, -1.176511820687397, -1.4372028107323578, -1.3122506316965514, 0.45960588819641374, 0.9963570255124343, -0.6495064908754219, 0.23247791161645287, 0.30969640911891244, -0.538350922860069, 0.33698300041640755, 1.2218496462686919, 0.3866943628236226, -1.317987788421724, 0.7757803959735268, 0.6023030451585336, -1.4198319963593478, -0.7401871921567149, 0.31809267334621394, 0.8910647488595701, 1.143730022515311, 0.8705661342769312, 0.13502334432331847, 1.9579693549760315, 0.4378155175316896, 2.819595439955171, 0.8592510091694399, -1.8971688573761476, -0.5979564091224262, 0.7716578013319257, -1.4524160340454846, 1.1530973881596243, 0.6570969872600334, -0.6535573738734368, -0.6083060815106061, 0.7591871799410286, -1.14977180957475, 0.9920130310834054, 0.9379036913169653, 1.3541979828924557, -0.31349315673858624, -0.8079212984886561, -0.7199619761865845, -1.0711771655653068, 1.2202572095026638, -0.22653055661976756], [1.5876323853711187, -0.5233291146638772, -0.22828124098898225, -1.7451521205487015, -0.49332151023431176, 0.3971084142222141, 1.6567482286861983, -0.9448829246343083, 1.4051995920803337, 0.658799091453421, 0.678208991112831, 0.227712531573886, 0.20593565870115202, -1.113509595165186, -0.597898934848835, 0.2877887658891609, 0.8586683947946099, -0.9299978498059182, 0.09961375071896797, -0.07803915511537356, 0.06947443959790778, 0.3045286972274717, 0.005699805154065784, -0.7482672240165047, 0.14809525528840176, -0.3834760079776606, -1.4153551350699838, 1.11771294199159, 0.04296932246681955, -0.036845111944060885, -0.50735860533561, 1.5106219423887617, 0.1008145474077602, 0.5671612015421639, -0.549584280641518, -0.4323181145070941, -1.119678213487122, 0.021155424490400785, 0.19383340092131807, 0.28920539627162556, -0.3332797567355006, -0.1768154381208407, -0.09242283412244988, -0.2133807241791168, -0.9112247613148701, -0.08189206199421137, 0.6969771481530262, 1.2753936727602777, -0.13369219473819224, -0.8771540028984584, 1.3639697794179833, 0.24536375809220773, -0.1658085260354458, 0.03575937574478496, 1.8242265911658988, 0.5248965036856621, -0.8891810818193517, -0.6692961633269583, 0.5947737645871884, 1.1155444015611635], [-0.502224060581396, 2.0453647660649636, 1.4187009855866117, -2.173244972187786, -1.2997176053627886, -2.1192794857838386, -0.7820670626232218, 0.6906687116598059, -0.560775976596084, -0.47436024849517255, 0.20024627501497977, 2.1579173672085865, 0.809949052982161, -1.136539256427067, 0.2032884277096555, 0.28342005938420944, 0.839814382210453, -2.65783839237734, -0.17777688826248178, 0.20068385344923867, -0.670885144712898, -0.548940331641719, 1.0054132151398587, 0.31990960420967335, -0.2621524286798274, 1.5945653474027823, -0.09996930060021353, 1.4075959784771546, -0.8792986507843294, -0.42961923881472885, -0.24400881563559412, -1.8626030326223968, 0.9461360873826756, -0.1285355534710334, 0.28831109965551066, -1.6083047665177443, 0.6938667733302979, 1.61156785078003, -0.9574628429789277, 0.19171456326831648, 0.48730357265560703, 0.3970052115751432, -1.267985044009531, 0.2687592642208506, -0.43727122336378393, -0.3040613806739719, 0.15317987038459907, -0.9181555358092788, 0.605978057516988, -1.4772838873036747, 0.02204851274782094, 0.9261096408614224, -1.2657356515071065, -1.962381110964833, 0.6926219008517619, -1.1291528839624692, 2.0585339579824122, -0.2613699830806496, 0.11192986858126318, -1.6287625907600407], [0.5339338678137533, -0.15685061411522377, 0.08879683674736401, -0.04716071540925741, -0.276308495728779, -0.012077685071688023, -1.5317905583342106, 0.3688060006424196, -0.7372301747925324, 0.5872058173040638, -0.4761180797308591, 0.3131801215963491, 1.0613066565663665, 0.6640332280029697, 0.08361391187481637, 0.02868615394281943, -0.17421463553735664, -0.31511643474089546, 0.40562355236305997, -1.731923436920402, -0.4826501171981169, -1.3989877246767015, 1.1732231281407826, -0.6833797701737486, -1.2125271518795568, 0.246950936649073, -1.0071439135575933, 0.7397552754815295, 1.7409153285000243, 1.3984650651114514, -0.4773767824961819, 0.15416906434791386, -0.5440248540900133, -1.6586893105775937, 0.8941061936008765, 0.309131387207817, -0.6679546908526547, 0.06340390816016313, 0.038069432696096805, -0.36075375255660463, -0.1826864472866154, -0.20459006943763072, -0.7322428181506384, -0.9679975224845284, -1.2486400781060705, -0.5777485822716577, 0.6072341446608606, -0.7477938627613878, 0.2505848065674233, -0.008151752606926323, -1.097538302351443, -0.6724904596284804, 0.683650026438031, 0.6220492536239112, -0.33106464504202765, -0.41875522210002414, -0.4110249392509018, 0.1157963736533554, -0.19013095722847848, 0.15054362729243156], [1.1803638696938699, 1.1269383840989067, 0.922221003379748, 0.7903163912295132, -1.2505064056842228, -0.29971295264434444, -1.404498886285078, -1.1924864867437335, 1.686193050697371, -0.7719075994617305, 0.007006648404670968, 0.6206521838842527, 0.607144488050205, -0.7214169440603773, 0.001726348939384906, -0.17095067524741117, -1.326822764432387, -0.5595287538961294, -1.2951953528544442, 1.0737482027884913, 0.2581821044304364, -1.8562094315317317, 0.5793228309855498, -0.5809166234634725, 0.2887855284648625, 0.4713145559747382, -0.12608214705258722, -1.643593304302882, -0.6080579866728998, -1.3879397672548512, 0.2757993958034388, -0.9703124889890942, 0.7746381255227889, -2.5786673712477675, -0.39626638027648214, -0.19011398242020539, -0.5544136033686538, 0.3821017816586403, -1.2053368059326452, -1.758695239583896, 0.8430496859916485, -1.6865851314922276, -1.501419417284052, -0.7410948604827851, 1.4758161401903027, 1.8802673662967901, -0.028240980650020283, -2.6015904563758063, -0.5845014321874032, 0.0345262460243603, -1.1290731918235561, 0.21513494327205987, 0.3642827180378358, -1.104943169167108, -1.3325110492123748, -0.8333390246255411, -1.1778345462492927, 0.9162574572409354, 1.3715489236093943, -0.33519419929563427], [0.710883339982308, -1.8051103892980882, 0.41599568964715705, -0.5065300217676659, 0.23196073172490317, 0.4517575060324991, 0.8053699306812158, -0.0170393104288683, -0.032101399156615536, 1.1742491831453101, 0.1958821237109539, -0.15541409535109213, -1.9422662363044008, -0.4700070831455011, -0.7031888726444699, -1.8585031218828418, -0.610157661837204, -0.5357876528980349, 0.17630729718735078, 1.4228472982327194, 0.30644011913710156, 0.19064574820951527, 0.19072718377344788, -0.03666297119232628, -1.0703025644477075, -0.9691251037899798, 0.2198156231495211, -0.48896769897604325, -1.4510874299042669, -1.4355691001475803, 0.3235862820003167, -0.5157459621738225, -0.4238202971400519, -0.7378149434792869, -0.06010925309154054, -0.45776619227572857, -0.40859246632352736, -0.0015182323934016283, -1.3266242204938867, 0.6801778701506268, -1.5446503184125984, -2.0002980285222667, 0.5928542621318986, 0.22381954115194375, 0.046878262744875186, -1.107967272367698, -0.3331237036208556, 2.1168866116215432, 1.3636423235621289, -1.3651738900769448, 1.4716597866286207, -0.6883948615283547, 1.8380856692489178, 0.21673378650139524, -0.19969568710787525, 0.39667408611226157, 0.3067744602292916, 1.3008157892752572, -1.0030635073129461, 0.8262965793249788], [-0.8491582982856306, -0.4880881111119132, 0.03739120844677211, 2.2797988040093875, 1.1999622602358477, 0.16670518953647753, -0.6136915016916485, -0.7772693235819996, -0.9840998999808422, 0.7441508183923888, 1.5359076875541402, -0.6307046102664702, 0.3483936721423453, 0.8039826877753619, -0.27156952231039516, 0.8884184793784509, 0.6480881172728592, -0.3470728143393016, 1.4597386810690636, 1.6963306465884835, -0.2633120232285267, 0.14137136696964647, -1.3288512645286892, 1.0801016521551654, 0.3956863562792841, -0.26874133668551276, -0.39521249709657924, 0.4928769106033022, -0.7644344772181161, 0.20494966273487408, 1.7273267947000488, 0.3458384782686316, -0.3853619412957358, -0.435700634930195, 1.3082437606931299, -0.9765910744544748, -0.5899419535508144, -0.6818339788451073, 0.9491040032684408, -0.09870117931814791, 2.443955822812225, -0.4541468491564464, 0.35055127108112866, 0.17114772981199047, 2.0429325121669737, 2.718721269877831, 0.11121066390759027, -0.6548515370468395, 1.4738392742083943, 0.9496443233465722, -1.0866253953287546, -0.178557345316609, -0.803463550821324, -1.3605874456637528, 1.4285532752066876, 0.16461207636473343, -1.1857841238051776, -2.0537573883436013, -0.6217371060737944, 0.027957149382946914], [0.8440443144590735, -1.1619112785580439, -0.650237386807075, -0.07870619802833302, -2.0981862177899067, 1.522796341424394, -0.2217964342903682, -0.1803043665945639, 0.4814996155533101, -0.5081899671577891, 0.22752841079809583, -2.314816343167562, 0.27195585364086167, -0.39614169509387626, 0.10847309322468869, 0.48419290838361073, -0.3152676286929251, 1.478792263940744, 1.9472289700885443, -1.1550652963463313, -0.03038513237285338, 0.9949100645275165, -0.22825615715374883, 0.10178623949127343, -1.674423759078036, -1.3491701688416955, 0.033920358750900194, -0.417623788683225, 0.04345156974096823, -0.7102497235898728, 0.753138233260619, 1.8748101320794242, 1.5857136581606726, 0.5657539708031649, -0.15401544700446496, -0.3785254458234391, 1.011660259012184, 0.09003427988393052, -0.09927548554091203, 1.2425137971154314, -0.20619495938100113, 0.73304287612438, -0.23725453747756628, -0.5346075765488941, -0.2704357887561611, -2.2562750041216204, -1.0284659741552307, 1.8211936292809634, -0.7089986563383212, 0.6776576460399238, -2.6058993440050817, 0.16487885103437913, -0.05551023000492142, -0.6354846513595194, 1.1837262151446428, 0.02004199263896695, 0.16471335398541345, 1.368691915973236, -2.142584682829805, 1.1787437833336682], [-0.8141569099704437, 0.7659912989685042, -0.26166514093460885, 1.4651466258724393, 1.0928440908338517, 0.028471557691996625, -0.9709770670224752, 0.18998786855803682, -0.3732945786480582, 0.2092328758201498, 0.4070265316956664, -0.5058679920135934, -0.8000627902578089, -0.6388277751398092, -0.34035043256381226, 0.4323458976424935, 0.18288047126398146, 1.0181307414830325, -0.5332900609774716, -1.1111026995972546, -2.2601389099793847, -0.12769289190466404, 0.15623510133113544, 0.9326469918237004, -0.7504338238937716, 0.2470230957269274, 2.353256569174363, -0.11009246923124755, 0.47216356850736174, 1.3107568562444587, -0.6000845778009413, -1.0102021963583658, -0.2938087569012393, -1.7663320189154748, 0.013890268046161414, -0.7652151367356161, 1.6362396417093361, -0.4241070647129609, 0.9140878654184214, 0.3984786536574785, 0.5867893804482197, -0.6856543991683526, -0.8428320714328486, 0.12010071394950492, -0.09631347023092132, -0.6128908929345486, 1.2841363984902663, 0.6821223354915995, -0.033913887393780776, 0.7844427907405583, 0.2951683145139506, -1.2187894127896675, -2.170933360340621, -0.6930075415412948, 0.4443669372071925, 0.9022477376110466, -1.008437586333615, 1.9903972671592907, 1.7637086702119753, 0.32375704483023526], [-0.593048645795657, 0.23576026310192122, 0.14248021035735342, 0.6231106024717106, -0.03867462603231628, -0.7060688649867991, -0.4108307069809114, -0.5412241835580619, -0.09129338500589963, -0.8285413883276146, -0.6806084220874162, -0.7833905690490355, -0.6243724418722574, -0.11727049004154115, -0.5523545049033298, -0.20576583996322112, -1.2833751912952718, 2.1521731512907003, -0.11498624463338909, -0.7713502497893346, 1.2123038564647937, 0.009399936557479258, 2.261274937714608, -0.20668405792645939, 1.0848996659910333, -0.01469443839178776, 1.1862451444942468, -0.20162417177592273, 0.6423820711525213, 1.5154827920592517, -1.138301045662942, -0.6988135385754974, -0.6160999913571727, -0.18446567378617656, 0.6623855308542584, -0.02974576262264583, -0.9124991798159923, 1.0149111685711871, -0.04958421697483994, -1.0382608101126598, 0.6147012044070427, -0.0526525429214041, -1.1223323464671262, 0.5346749051375319, 1.1127404526737639, 0.9951024420478544, -0.703927791956457, -0.627518040190316, 1.7783985778679834, -3.1748875761155224, 0.25837995159365035, 0.4107518865752262, 1.546992073504367, -0.10909863952914026, -0.005038743621177991, 0.1868763027472038, 0.11804355393053396, 1.738031614938323, -0.04678387513613964, 0.23046240838750598], [-1.3912547180408332, 0.5336936278730561, -0.22706099204455313, -0.16188753509477463, -0.9428729007504568, -0.684932446388085, 1.1636340769232416, 0.37841982944147917, 0.733807408491485, -0.2091846052383267, -0.8945044048784059, -0.9441906514514332, -0.8778690984564593, -0.34289979617617716, 0.13815020489590968, 0.9730643593786308, -0.41543938784890033, -1.201637435714394, -1.5225736108948393, 0.329017501563952, 0.5736594767409745, 0.8880490132391494, -0.5983260278686054, 1.401608938354187, -0.5194187921701445, 2.089184772278958, 0.26973746019262146, 0.5579260904143435, -0.4727483441982624, -0.40416025965969343, -0.6019436025363383, 0.42851152987151364, -1.1435944557116842, -0.7551565087029105, 1.8205653089491476, 0.637694446631709, 0.8115209888904902, 1.1973865293411643, -0.4962251326917814, 0.1038586320727807, 1.0797952840201195, 1.4648018024851428, -0.30619910800047745, 0.2795185556876209, 0.6744849683484847, -2.971171594842977, 1.3106689505722469, -1.8617955636241756, 0.971788591924269, 1.9421176142649754, 1.1500153525480008, 0.47275902596622627, -1.829315004988675, -0.34467784466748436, -0.29586969305865646, -0.5713620783075568, 1.129563309063619, -0.3049906730565283, -0.236990801846771, -0.6106934223143243], [0.5878839084423801, -0.11436524282187635, 0.9321073339749619, -0.5221067995217448, 1.529733454237302, -1.8746659162197772, -1.0977191946343179, 0.5662526851645949, 0.8433919442045203, 0.928748635359276, -1.0114719699029524, 0.05075186848801023, -0.46211169663908247, 0.8003744818733433, 0.24855437934527433, 0.5074613964377636, -2.3566130752718237, 0.5775064017694943, -0.01508114382816008, -0.43367030445850824, 1.4922611430846064, -0.009324591353918624, 0.3710847082570495, 0.7258988618294674, -1.9437527115307038, -2.0983825151384226, -1.4552933753197215, 0.9808575429033548, -1.192549341343394, 0.9107217841572203, 0.471864107785866, -0.3313083534206474, 1.1080333656377537, 0.7973835881954576, 1.482352044680185, 1.2005703737634297, 0.5471291802383599, 1.4870083835673265, 0.8518034972036855, -0.5359628813978478, -0.17142375923222236, -0.04513114634768131, 1.7754817839492694, -0.5926894681232606, -1.7464258273345592, 0.6983397044940347, 0.3959178617335875, 1.5015102547025359, 0.5128309759874702, -1.2001780749115174, -0.4614508100146977, -0.9822980878939747, 0.56279450231765, -0.4597203572211717, 0.6320267243569734, 1.2380186084413844, -0.47995318883218807, 0.08108606967377448, 1.2480654802274704, 1.19292126351294], [-0.025101233714145965, -0.5339214399068946, -0.39888413658605243, 0.8088472805224316, 1.2016683744759677, -0.23514311911469638, 1.6845582183326437, -0.6489344924985953, -0.820201088591189, -1.1976853240154086, 0.03212668371926346, 0.0267493481583709, 0.3810822426594669, 0.2958388826112504, 0.3402036972924452, 1.9487305668421364, -0.6567401714342513, -0.42073309446382484, 0.6306008965552405, 1.0448621976167403, -1.090530528081655, 1.1344197881623217, 0.3299939689283639, 0.7943886759345177, -1.5371189664223608, 0.09183056329452956, -1.4704674194099236, 0.13388568108703164, 0.6697060741670187, 0.9971381546359717, 0.8823032119714084, 0.15856296095842903, 0.21734860086431698, -1.230465225996757, -0.8774323670612664, 1.2967986954378208, 0.06803271153078533, 0.023788960459941694, -0.34630029199982165, 0.9569570527403709, 0.19840564023286522, 0.21404178771196838, -0.15481369759549507, 0.02715677229921215, -1.9649178405735281, -1.6085303856742292, 1.140030016432982, 1.3649520475008703, 1.897081895105584, 0.10119960074396549, -1.1856251006013228, 1.1197785728238696, 2.0654181458949474, 0.7516108991426923, -0.6721898273468953, 1.641520469053098, -0.27060245916741604, -0.4483102618063717, 1.2347592474696891, 1.3273227592360637], [-0.205004137594273, -0.41620388372250455, 0.21846356583507862, -2.1179080460516633, 0.49818742594353055, -0.5210086846313068, 0.21631973348887293, 0.46539053955634285, 0.15585205970794808, 1.3651919465266034, -0.8597882231381379, 1.324881889226038, -0.20407970299292064, -1.3119940384656543, 0.23853992614884983, 0.6171884583796674, 1.9163985765282967, 0.2510905067181603, -0.27460219918157586, 1.1939146582237887, -0.31205460679278807, -0.7506290187936402, 0.5594454441839982, 0.39590199997365394, -1.2108032311557904, -1.2881148466872163, -0.7749447143312711, 0.16736759611868682, 0.9386963101114676, 1.488971238392647, -0.7294864657517641, -0.7752531244028706, -0.8094484865056172, -1.393268760531672, -1.6175494501297418, 0.8375083853502674, 0.5154475865721831, 0.24568517029111925, -1.6527601292938934, -1.3427753678152956, 0.835477899005989, 1.0567952928853936, -1.0969865761257267, -0.9026958531561821, -1.4940971716501634, -0.09047989550502361, 0.6872541578918303, -1.786319678956079, 0.6425212756467306, -0.7265277869267416, 0.34304028350635263, -0.06875507654168479, 0.09638452296567573, -0.3056080056219669, -1.2306399040187173, 0.49029944106562867, -0.5345225978454559, -1.536249959240204, 0.14504212596332966, -0.31707773034813014], [-0.3362394607183511, 0.4481216818654418, 1.14666580282344, 0.21493447338723437, 1.1869260768543284, -1.1480201253504192, 0.36273825244193825, 1.923222422410751, -1.332649172598594, 0.7008593771689011, 0.6234117509378478, 0.34311171566744164, -0.48472140832284316, 0.8790754848849294, 0.15953857184127093, -0.7429653636594725, 2.048341491028572, 1.0818972842913455, 0.11234600953168557, -1.1564436862614598, -1.5821544425080853, 0.14029652072275187, 0.11128685159651987, -0.9603077551999538, -0.4050131011021174, 0.9408893862620152, 0.3507788440449432, -0.03683382679378221, -1.7634671041668064, 0.33492795937483916, 1.4530132851381727, -0.08222179406016412, 0.7398927692366929, -0.3157998874314333, 0.7538694940940885, -0.5741027569997391, -0.030493892136460674, 1.0577840981933642, -0.19706673296025887, 0.7577097324112555, -0.5530214878780296, 0.2729949096409104, 0.5320649475265016, 0.06940019375394849, -0.3156639963651226, -0.486698610822701, 1.0671080215256292, 0.7101939473364018, 0.3806533663724826, -0.8583815817032936, -0.5790401400394615, -1.2557212879955406, -0.6685870512415666, 0.2940887427635971, 1.9289013389868528, -2.8137606063621323, 1.116701464266658, 0.14576898922893913, 0.004874139144117269, -1.39984186756877], [0.06622969007302497, -0.9328041385715372, -1.508682835811381, -1.6993621243636934, -1.2858896747834854, 1.1277735433193208, -0.8924896595307927, -1.2868380160876762, -1.7227293176156253, -1.1296528858461579, 0.8354019793629145, -0.72641094795083, -0.2729988369413452, -0.40879065859962616, -0.17422932109872985, -0.12756596620236227, -0.5191827945767328, -0.6454182130795391, 0.4021351539056726, 1.6648042981658135, 0.6155453615995734, 0.8229283620031667, 0.4052156306892726, -0.4860229292088493, 0.16352174506131306, -0.6393232430680474, -1.2052180977370397, 0.8745113099433132, -1.791330351894458, 1.063949483227693, -1.0237281697227811, 0.22729743427263424, 0.8688929982282283, -0.19028239718384404, 1.2805167593229085, -0.13977222297196695, 0.8825215917516954, -1.2613537589558421, 0.7716325309449462, -0.4753209481641961, 0.3735454957776528, -0.9754447960141467, 0.8066936380967918, -0.07492714177282762, 1.7825744675943667, 0.23698022950596304, 0.5835975703811453, 2.3591614489486896, -1.672309246781447, 0.5572171510136198, 1.3212338653857765, -0.44149706840311165, -0.3056893936055716, -1.4896231625705174, -0.2652785586454012, -0.08652957653790444, 0.3915546546809275, -0.17451533833270572, -0.7478191538142845, 0.2801542294148138], [1.874996663022748, -2.1363264663804604, 1.9872163645939358, -0.719609106540918, -0.18515894522436915, 2.8554309629400194, 0.3023290390345653, -0.13099760089430254, 1.766382466721562, -0.5515391456672116, -1.0842640565795882, -0.5181951113740944, -0.5302532218500626, -0.44913897018128707, -2.245186169659479, 0.5256338541099369, 0.5216807434421818, -1.7584905167286204, -1.0026372449897132, -0.16628898408834444, 1.3042125200409087, -0.21234889184423228, 0.1171189744779757, 0.4158701092181747, -0.3127907226538692, -0.9946132921742663, 0.20920833710043552, 0.5379246182251355, 0.6355260828549222, 0.1901858304078018, 2.6569166884114623, -0.4825469375982984, -0.7700839575351007, 0.111383511669541, -0.22292350968315267, -0.597471755834404, 0.6873863605447862, -0.37647369249355395, 0.7491084694176636, -0.4901721145133695, 1.063948108986378, 0.5099888944166061, -0.6064209191119111, -0.5320245700330832, 1.5594585794908369, -0.9700025743368721, -2.050797165434791, -1.6463583609864367, 1.239849926637011, -0.5643341459727232, 2.63159139918553, 0.34286097414019, 0.401833682785371, 2.0099324563078143, -1.075064483111438, -1.095342211969835, 0.1858584642944439, 0.5384949596890127, 1.4408616081321866, -0.3751369594624005], [-0.997571220012371, 0.3117574262598879, 1.1777246762588018, -1.2035785588023644, -0.07334281096147982, -1.5978877336353023, 1.1759004399222042, 0.3354025717968732, 2.399377749575252, 1.4168670689310117, 1.2283855243210402, 0.9219648667101416, 1.7248092848627505, 0.17046334077471, -1.4535504300373285, -0.8641470435361456, 0.5233623867266246, 1.884460478827343, -1.2184178337622842, -0.47653615550582284, 1.3787364491185259, 0.09303403280257086, -1.196593514769844, -1.1612316218508258, 0.3618574036492971, -0.47126572198073235, -0.5082242239300749, 0.654437931674886, 0.30081827673368455, 0.5840751640628136, -0.584794596264235, -0.3021342482770721, -0.5299754588113589, -0.6289584380559096, 0.3851592340928031, 0.2074347673043163, 1.3222336224835185, -0.6605252760336185, -1.16869911727043, 1.5312713819957233, 0.03715323233428035, 0.8435312277054604, 0.8191956739102763, -1.7666077093276749, 0.40993904531218595, 1.3442737890254228, -1.137919263752639, 1.1280280563901082, 0.11947454746173207, -0.7965865417595144, 0.483139934704432, -0.4063702006659837, 1.1602048483925282, 1.2864935066667336, 0.9852278271140856, 1.2909783647086572, 0.6484808142608477, -0.9318335419830487, -1.7805309205247728, -0.005286812401124416], [1.5017690445269396, -0.43195673688270037, 0.6658494187779801, -0.13680973303568392, 0.27440050619868017, 0.9665741141612322, 0.29390982543749583, 1.8063673398799243, -0.443925102491869, -0.27154824321510695, 0.32224651178374947, 1.4996110546719494, 0.12247903984590705, 0.7490285041348933, 0.6170194270820393, -0.31068415576400704, -0.46848623800581685, -1.5781434011310622, 0.07562349175926124, 1.7214216858306042, 0.0625212383968543, -0.019477198254635793, 0.9469350766118967, 0.0326711489922531, 0.613981594576777, -0.21410735636254993, 0.6566868523775735, 0.3226004624633563, 0.07352498144133422, 1.0050618205078619, 1.1227009004030053, -0.4415528546770219, -0.6214694539491717, 0.5754697863411294, 0.12664879781672875, -1.6801057052742603, 0.5649630431245833, 1.7917960207888817, -1.6080480665777457, -0.5525653495166826, 0.05090957047027142, 1.138620785246945, 0.30935709183611637, -0.531013511167566, -1.4520021128711502, 0.1501013378208396, -0.751495784734107, -0.0197986864276747, -0.42309068633228547, -2.3878671349134994, -0.918685641991406, -0.2710848321557199, 0.09499008075760647, 1.0043596657450697, -0.4027058120046333, 0.8050386892723733, 0.018961065091731427, 0.561563022451823, 1.9681995199002917, 0.7980156271433092], [1.7937185912831164, 0.7213384876133218, -1.2566209997713342, 0.38128380627291625, -0.5247829934991677, 1.7783976603909788, -1.0187654802862474, -0.1578909248622186, -1.5271841157974546, -0.45627486420448626, -0.5363549987404352, -0.41655311385601657, 0.35441391403292005, 1.3913196765613323, 0.05656924558056675, -0.6901966039017203, -0.7464396493047754, -1.5479541995872899, -0.31709822029398826, 0.13809970793952947, 0.7056468982056787, -0.6608138776144068, 0.43618596597119413, 0.3898979944096, 0.14676478262310133, -1.6059993446335505, -0.17722521881674927, 1.952357606473896, 1.1382844409738722, -0.48362980373366765, -0.9347993470576083, 0.9133770370416777, 0.5776781387113036, -0.07540888066534858, -0.08526572803396353, -0.2418457478141625, -0.2504651601327502, -1.1402124955358215, 0.27581093084170316, 0.22264131035724574, -0.4173524658301051, -0.3218332722518077, -0.29429698992259334, -0.4708506967246762, -0.7425268226281591, -0.48770006552577816, -0.09457556207100537, 0.6609702065487587, -0.4123282135703517, -1.1984137185202932, 0.23220484111444037, 0.9402291473151324, 0.7505413509299343, 0.6275857770104212, -0.5033343346714768, -1.804524402113426, 1.5359555400131029, -0.5345219788027497, 0.010164251537943888, 1.736895339470379], [0.29207520410343113, -0.012477987685459336, -1.00556889704612, 0.8869331163120455, -1.8763399692726042, 1.7758507306380702, 0.3925950596522049, 0.42182793766406596, -0.35443020693734323, -1.1766689856020847, 0.26064444214481247, -0.6751550444606317, -0.4490079363440604, 0.7120638353483546, -0.33975821632190845, 0.593478562837873, -2.112184803920944, 0.6669375260693667, 0.526231683248684, -1.2237617094854742, 0.2340949905169031, 0.2634644167039417, 0.3426132087046153, -0.06026505822939172, 0.11601100877589902, 0.5711505711169178, -1.3669579266676726, -0.024058743294720405, -0.46041176466730566, 0.6600414911416683, -0.9077960924557152, 0.04886830352536829, -1.461029472121294, 2.4260758136722975, -1.4402370420470474, -1.0973399531641488, -0.43640027102738743, -1.183197967204441, -2.0443168921548507, 0.7995969388644486, -1.2940380054203002, 0.6776719273535745, -0.2724791476881882, 0.055392526289796275, -0.32012043781154903, -1.0563203470572007, -0.5830028650399026, 2.0116528365066535, 1.2507103094965706, -0.11391209820864313, -0.7533458190494327, 0.940996314732946, 1.8348407489861969, -0.28581294256462053, 0.5880884276544518, -0.9453004853536563, -0.005780868520308973, 0.8991680536078986, 0.05511586156779795, -2.1621493096982274], [0.9096838474029395, -2.2344454857947293, 1.05139851958228, 0.801138450906831, 0.7678538800533798, -0.8662426558354076, 1.0183452810382296, -0.5565280175743401, -0.7978683392678629, 2.6283103441235127, -1.352536821773206, -1.6162807687454115, 1.2862856313371351, 1.740786632295661, -0.20280630459661197, -2.088027303886415, 2.0391455473915765, 0.5965997051150294, -0.09650041592349948, 1.166986758627506, 0.5930086838788877, 0.8117565058857574, -1.8970840852391206, -0.03346824006796248, 0.19425922431903886, 0.5782640099099244, 0.5043603771614803, -0.5128651481655274, 0.668387611514541, -2.0555898932399153, -1.360281178130885, 0.28852732364712635, 0.19271827110249878, -1.1473120104410863, 0.9531248371008846, -2.302728672875138, -0.6305057376134873, 0.2734565566203146, -1.5477457420780292, -0.5629703380692996, -0.3341971256336617, 0.17817407925868683, -0.260906278109522, 0.3523432090306026, 0.403906253844309, -1.6175296398505152, 0.8030995710421402, -0.27697867648040725, -0.4164227669372831, 1.106503436780607, -0.10469662755766528, -0.5469394570264119, 0.6772034562194568, 0.7177591932563894, -0.5180848718949538, -0.10327698196969182, -0.33370700742982967, -0.3160239287203113, 0.11244454565256792, 0.059573242040671284], [-0.5592779607393499, -0.553281208823903, 0.30349113599026184, -0.4014291079665083, 0.8255459837444533, -0.05453980739691726, 0.02784454148852305, 1.3364136758544762, -0.9048292230464522, 1.5756827812052656, -1.0775897088188817, 1.8039403232656588, -0.027487671171005014, -0.44096911743989226, -2.229697102455431, 0.6240089420372026, -0.8132900335609059, -0.48055559787907653, -0.4476713039239144, -0.5320158050775178, -0.18104259471042866, 1.664941012038377, 0.4273852785031998, -0.13037951972250364, 0.3196220130798187, 0.7881816970119573, -0.018505944237165714, -1.3791717241564316, -0.36014711054014387, 0.14739871478125885, 1.3645568650346038, -0.3425788134020885, 0.026049371181977945, -0.3793013004652945, 0.8196187388776737, 2.4679264266986576, -0.6115782923707738, 0.8200088917457707, -0.6209580742714478, 0.6231439026341627, -2.007622196304826, 0.10232980656108057, 0.652113089956572, -1.6209787984287691, -0.7596014921490135, 0.2296742675720292, 1.3035462646892924, 0.8536693865935135, 0.7743133015835328, 0.022736105779342423, 0.8188660727669655, -0.7403234668313373, -2.235023106215508, -0.29030197647356765, -1.3312629974369237, -0.5242715196708257, -0.1270707272743724, -0.10302301252133086, 0.8201591969798081, -0.28913871275933334], [1.2701588920191667, -0.4018280432426936, 0.15780014375893792, -0.8499083099680997, -0.7083459616634754, 1.0016721823692956, 0.5874879915657092, 0.17216325012517505, -1.4615735034584088, -0.5556605827493166, 1.5627965944174165, -0.11855868790157309, 0.7653505228048254, -0.7609431388771928, 0.22922570284216578, 1.4295631160772855, -0.1459748100321367, 0.28079652967677193, 0.8277927585595497, 0.6736990437791016, -0.2299671962507644, -0.16483453547158555, 0.980511863737645, 0.9908422450826314, -2.078248885856467, -0.2713137189792714, -0.4682246546178494, 0.46564368211446966, -0.4266542890448668, -0.1311304504503331, -0.4217894584912748, 0.4286782257957067, 0.6989154379507797, 0.707941658870937, 2.7792189490683548, -0.29531413192283384, 3.82059230407275e-05, 0.8368120966936343, 0.6069416893928367, -0.8808380592499359, -0.5180344769656673, 0.752065644396421, 0.4754967160176078, -1.0956556997833375, -1.3319924564977161, -0.30255202219128347, -0.41855121406146095, 0.08426362464020883, -1.0665004592313274, 0.26941247479243413, -0.7735136053011269, 1.0352214405508857, 0.23577227811893425, -1.172101467685, -1.8209949460902284, -0.6816665868918201, -0.7208213767449195, -0.11004627494247593, -0.8732495145291789, 0.9028602825025422], [-0.7915306584585831, 1.7894015384741349, -0.3469226354726577, -0.13989537847449873, 0.7949411929093422, 0.18657586044197755, 0.5438472585130192, -0.4994688230862043, 2.2509641516850114, 0.023183700220399246, 0.14518650474212386, 0.41907860811049147, 1.7982158019158985, -1.4394988854115822, 0.7952804661900622, -0.8476607656770894, -0.0911017404067453, 1.691157631423685, -1.5267310151020705, -0.06340555604819359, -0.7477640803192885, 1.1194717251262019, -1.3438814170220077, -1.2437273029724187, -1.003797486206682, -0.81063223829111, -1.6600076058849804, 0.24479590861795356, -0.6376387599877732, -0.6067053486450823, -0.46884877331804614, 0.3517824501790973, 0.02301752567421552, -0.2371010793604123, -0.6216164284248519, -0.48347427870163756, -0.9421148010241999, 1.764240146672606, -0.424804685935493, -1.5870806767859058, -0.03929081838209454, 0.6252656818222324, 0.2443216459979891, 1.5164783195023284, -0.015461673931963446, 0.06348976845069128, 2.1225666981051226, -0.45770037568287747, 0.23490640143128155, -1.56167371787233, 1.9276244363792097, -0.2952717713167694, -0.9808685754188174, -0.5346958918185604, -0.45314909958877836, -0.219358469551019, -1.144293282948289, 0.3856970584044013, 0.2888336411510967, -2.238582629334711], [0.7803478923026661, -0.8250444543632888, -0.15367107386744466, 0.09864079376498842, -0.7730087093267709, -0.3863262973703383, 0.30969074422868914, -1.0633276975641632, 0.20425507463494744, -0.10899807003663943, 1.4851828297330558, -0.5236048044415954, 0.44676777121271344, 1.1116998500298996, 0.9446761965612447, 0.8904278274210149, -0.2612765195568231, -0.1432168229456942, 0.5726537359025206, -0.4917027595994005, -0.4565113669058443, 1.410348965716025, -0.19795023819725932, -0.006987918297806155, 0.21272571601368254, -0.08722171009434555, 1.1310102868301388, -1.9004830069494159, -0.9971829848887024, 1.110949476181303, -0.3676865301785954, 0.21367571597213358, -0.27760415176290554, -0.8949269204808991, 2.2319840434754568, -0.25109638821578534, 0.4797854679810474, -0.3411828106494625, -0.14519616118670634, 1.6861955270597786, 0.40822106048007095, 1.311532973269504, -1.3066257776877324, -0.773774907507161, -1.071393814199041, 0.9263862369194829, -0.7610744732714756, -0.0974850150085666, -0.2781838025647329, -0.41584296661105635, 0.7542278021416693, 0.27226999920601686, 1.8281562671665648, -0.26287251888901453, -0.386715213173701, 1.567443863511101, 0.05047285619823459, -1.761197341000099, 0.8135959974610495, 0.6100872315022079], [-0.9737378263015216, 1.9324317448278794, 0.005888409658241891, -1.0254114654084534, 0.08820154106885164, -0.500699742142783, 1.7711473961862398, -1.8197010303666508, -0.21688305417013812, 1.0467888337738187, 0.05962007470952761, -0.7017382646589827, -0.5790838774407291, -0.7300967682998395, -0.3022243294851829, -1.9277674580038635, -0.6871022778045046, 0.5548977875779725, 1.3011599656976658, -0.7931458046859495, 0.34649132565777707, 0.46981074537513856, -1.1927408610175905, -0.8416350531957948, 1.213809565232683, -0.45181482887107294, 0.3214183174782979, -0.8207556473414369, -0.6509394771446768, -0.9490142204143983, 0.7212810283799431, 0.548272882613161, 0.7128466440521352, -0.9867504452547476, -2.3429846881118244, 1.1777213914926037, -1.6143206395198155, 0.8803696013495729, -0.47937690466070104, -0.5827824779107138, 0.6263200908644213, -0.520021962985818, 1.1991611419971164, -0.45917128556660636, 0.902209061724306, 0.7718705356125263, 0.5007491037140958, 0.4370846276002115, -0.7987093011347993, 0.37547875642670675, 1.5012548413142623, -1.1065522030509927, -0.2667586060353046, -0.14149438246464197, 1.5131581410859398, 1.7900614862694484, 1.5372085769095567, 1.3997883437142256, -0.7543846287260265, 0.6246974348876808], [0.8333394006616546, -0.8881251150930368, -0.7153246654144905, 0.5282887696931842, -1.1028297872133686, -0.5741161537477246, 0.22722211347663862, 1.2618430401922573, -0.8932055908654539, 0.8901120241642179, -0.1920639557392031, 1.0705012389768536, 0.6626788658916353, -0.4602779441755188, 0.31367873561907145, -1.0443703558563489, 0.6598599489037035, 1.283740491178127, 0.13328806737416887, 0.6036615281852116, -0.14914463602826528, -1.5452947590824568, 0.136438765388968, 2.179271667434317, -0.9359204103131779, 2.0601388467979085, 0.486274725104464, 0.031757200861499184, -0.28750378818322897, 0.6449829348397197, 0.21897809734762805, -1.0848758956133293, 0.33719505238013425, -0.2073931388907384, 0.1616536035628646, 1.100551729251166, -0.39389750948917956, 1.9391608371910727, -1.226153958445113, 0.32723240179574464, 1.7957360137684002, -0.6993173169302574, -0.8282464037906029, -1.1651314547683378, 0.9513105951134918, 1.8730741264738586, -0.41302994791920633, -1.249836538514142, -0.3059757484156174, -0.006353506013015652, 1.0604424649293003, -0.45912570348792187, -0.5184382316588301, -0.8395715221751335, 0.8891481544635843, 0.9693963962552022, 0.7716793740766343, 1.1845794923170068, 0.4704933404403379, 0.8169642263635046], [0.2391752097740429, -1.0579668246762022, -0.928638645268571, -2.2937660930744608, 0.5573494986522274, -2.2875350382080204, 0.3551206195992967, -0.99595430077865, -0.6153422001731019, -1.6664513702321995, -0.9232112855237937, -0.28675522288599276, 1.4241030992343597, 0.06185136016134832, -1.1149678203342601, -0.23475392591142014, 1.623095010234815, -0.7153320390681787, -0.5574317469070312, 0.3876793334863369, -0.32295950745602314, -0.4466551776577819, 0.6420664208943294, -0.4307811326041565, 0.7452375090834407, 0.9685169835502253, -0.5629062547895616, -0.06976940154365807, 1.8306349124644785, -0.8407567327280749, 0.3211788824496839, 1.6028641007409554, 0.8274415808482605, 0.6611781279893053, 1.5835221252947775, 0.07554436136077594, 0.20707962919836065, 0.8424749336743808, 0.5438650881268522, -0.7987935322642302, -0.20914849860276646, -0.38507952018295477, -0.78182417853098, -1.3212889520393392, -1.3509753665784079, -0.8850754594615774, -1.0798822894965225, -1.6308976565478346, -0.34531587708279243, -0.655753650966426, 0.32599371231696933, -0.21900536453214345, -0.6129037775996318, -0.9359542460566513, -1.1125450149826681, -0.6490375251369316, 0.43215820316932796, 0.1863005452041459, 0.5949511468870566, 1.0472384846789407], [0.37129775345248506, -0.692087529953218, 0.773859587778019, 0.9715076142559873, -0.6875731547963725, 1.1759837672405635, -2.1817343265717737, 0.3589831788807413, -0.3892511040670562, 0.03728100273019983, -0.36976984274719643, 1.6909252122142733, 0.1094020562648959, -1.0152421026131664, 0.31966497762083285, 0.6925898790913844, -0.08427196251234234, -0.2693309161456487, -1.015636479213945, -0.14611212777797505, 1.092120329831693, 1.0682911220126907, -1.2434887359763174, -0.03721791655735956, 0.5898050466764426, 0.39447019066498157, 1.30054522188239, -1.094906476403925, -0.14869301144384062, -0.1475668202448165, -0.07869454004936285, 0.5204081303949063, -0.9020272025617252, 2.224877719072143, -3.596374958735104, 1.5961572502329748, 0.23163338128599864, 0.9121585315022256, -0.8289901982355349, 2.000674800796773, -1.3951422397106712, 0.8466205773741129, 0.46730013457306363, -0.05612244429267789, 0.320928509016613, -0.6042800211831402, 0.4762690252865391, -1.1526486238047653, -0.044598529172912516, 1.0010553576804821, -1.3503008838870256, -0.8448835478970983, -0.8079375679574733, -0.19498280616291436, -1.084552008739432, -2.3078296291546256, -0.05847906503787617, -0.2930501050988953, 0.2663500013271425, 0.4220473620157571], [1.3732357042912995, -0.13841640468308636, -1.1303624332739806, -1.5909399026314726, -0.3449637251509544, 0.42720291971607605, 0.5775621481457484, -1.5798507990215995, -0.1791685471305194, 1.476391382218216, -1.95226265148676, 0.8134970958320494, 0.44048904067493316, -0.05076588022903524, 0.23596962766542615, 0.8401317375830016, -0.7952274099708234, 2.3014774811335847, 0.39455625257659804, 1.069686593433699, 1.0988482441309442, -0.4360936485914339, 0.21906954769948447, 0.9659088865675084, -0.9148566359301725, 0.21667570511887163, 0.008571621784423996, -0.11742571460387623, -0.6640427441811969, 0.7852370597908345, 1.1295091221335127, 0.22336122612729276, 2.8738170176330424, -0.4685048570205553, -0.2274259799794229, 0.7090231034274453, 2.150665988034591, -2.1214134636949717, -0.6430150171618974, 0.09650356765697268, 0.30814956983572966, 0.0072305575452786, 0.14150871384291525, 1.1251515557156018, -1.1705351200115726, 0.7502187128683532, 2.2147803272276705, -0.4537235697513186, 0.2776297156123157, 0.6171437150098881, 1.2286272173134247, -1.6005668411934568, 0.8339344946818446, -0.7739741115096759, -0.7131497321765058, -0.10073056143902359, 0.002913981301461447, 0.4157565419027188, 0.24803484763081698, -0.3607105910638591], [-0.8114111593879764, -0.9910066063359666, 0.5181143880785098, -0.4391103487476949, -1.2523437263114068, -0.9077198853007619, 1.3382314169162202, 0.847337206486455, 0.9744993263114321, -1.513453207969079, 0.2870989575766207, 1.7804747429961394, -0.04819875336042525, -0.7890298371995923, 0.9548888449071377, -0.953542350394631, -0.6833080390255833, -0.8843587164726774, 0.9376895938242841, -0.24586464778873493, 0.6584459099590972, 1.1502114672905153, -0.7867774862391529, 0.07298068743215505, -0.15536670247340298, 0.06345225246968281, 1.560251591584835, 1.3430052961408403, 0.73591462685811, 0.1502369181063923, 0.2277902705751015, 0.059825807628664275, -0.02939458960361942, 2.6121351917819986, 1.489187240639519, -1.3499269737633606, -0.17901048023753924, -0.04426281073315574, -1.5031442791044995, -0.024502488228905057, -0.43729248444006713, 1.2379740234646328, 0.8119034248667516, -2.306625164923134, -1.2664016548695518, -0.09255022200741672, 0.6723930155559162, 0.226734779916261, -0.4277128851768185, 1.5226967852069289, -0.4922726062741482, -0.22931582646648893, 1.6394498773930084, -1.564933574677862, 1.5581876189310215, 0.31106990378588856, -0.5225881664794801, -0.6031647534434396, -0.10457479782355648, 0.10232989536990358], [-1.0172089439178784, 0.5331153965174131, -1.0790450721342064, 0.16663274222487695, 0.2617749509372647, -1.1297734424916703, 0.6233010012237974, 0.9109726359349278, 0.06288025044385853, 1.5335406950270605, 1.4629714546046457, -0.8190398154135231, -1.2731957403478673, 0.8543058653518044, -0.29964979709522993, 0.27514293994539074, -0.8361110738881846, -0.9252633042961472, 1.3317442233320085, 0.04713236566831361, 0.47418738426278745, -0.8010235219033481, -0.9477802000722638, -0.3836417490947901, -0.15190143053466398, 0.01891889077938783, 0.8822883588527447, -0.37475413211849534, -0.58497923046942, -2.233144282686269, 0.1286428610389185, 1.1186883312099771, 1.319609949349516, -1.8262953615089301, 0.7317568668241834, 0.30494466217770716, 0.7183123309250079, -0.47927634823695436, -0.31046790203838587, -0.7405487237128282, -0.8616565746274283, -0.3932658795200561, 0.2597336234997419, 0.5130054683134979, -0.8810238278053146, 0.5084791107801777, -1.3653473575683546, -1.6566294651541065, -0.4217682008498074, -1.2762241571048873, 0.1214068950868116, 0.6665903536761826, 0.650471214916388, -0.19962290718302067, -0.9181018468893147, 1.257657604639509, 0.12399770085135202, 0.23841333364437928, -0.24339952162895365, 1.0740935387484742], [-0.9295505815796747, -0.9976604570592756, 1.1234313738516053, -0.6151604221358217, -0.26027746134380686, -0.535571370754087, 0.7906624949776544, 0.6756070623173173, 0.7455949524770574, 1.2098108989907, -1.3528847954283916, -0.3668835301892386, 1.2554788822572158, 0.49056681097032195, 1.1723838162042317, -0.5543440989932374, -0.9337585832353382, -0.17124029509306474, -0.298914328313077, 0.12720661479892656, -0.2830122480360519, 0.10074851611722765, -0.5409803801011549, 0.10497631646614793, 1.4320907487648382, 1.1574067594623774, -0.2246977094080288, 0.5221478685514729, -1.2214449139004793, 0.11128892982739864, -0.11215034204769868, -2.035120804273364, 0.3590259617756399, -0.682914833072833, 0.004159923159999201, -0.03845606637878534, 0.650162956773698, -0.6668525421645713, -2.064322660900548, -0.17581072396366904, 0.1238946858586839, -0.48725768186966234, -0.3720219049535109, 0.6704903079098338, 0.2965620596119412, 0.24006400017886728, -0.25286587938249044, 0.2604672011699454, -2.38877728134919, 1.6232885652706281, -0.5819273651469656, -0.05021060772608709, 0.0029385030027047334, 0.2346004540303481, -0.7113247665602788, 1.0055550940855111, 0.004992839198750908, 0.88498099941241, -0.47083403405631363, 1.1015699717195517], [0.37135540486724944, -0.5984701378210052, 0.6178875015094846, 0.8659175157602591, 0.17375225120544777, -0.6500036377233797, -0.819062343097072, -0.8610113611351575, 0.8911192895248424, 0.44915232170577724, 0.8773618488239892, -0.5477463063550628, -0.639279336545774, -0.8098913865202013, 0.26263027917330656, -0.42963413795956906, 0.20809267395716785, 0.5439023718346713, 0.9765480409353253, 1.2372296392462878, -0.1970316338827708, 0.220295249969379, 0.3186800911849769, -0.5378940018485215, -1.4047931784901604, -1.157942923711854, 0.40554421309151995, -0.9645624956511778, 0.4907410980780983, -0.38736795468910995, -0.00971122582362145, 0.6793459216980617, -0.7180974170331546, 1.2726455341821414, 0.6830522740095294, 0.7430599178736275, 1.321346963090668, 0.0375669441684296, 0.792253469832595, -1.11195310501766, -0.3268366406931804, 0.6494473241622284, 0.3834252413356399, -1.927019459011373, -0.28972749253271063, 1.0502780496256232, -0.9730937013379436, 0.3015008872820264, 1.7319383393275511, -0.24376095448775062, -0.10873307349650471, -0.17216781994423508, -1.12714646529427, -0.9456053553281536, 1.172018279502539, 0.4622564093210605, -0.236184378249201, 0.08371644241819208, 1.992369160725424, -0.7407342847868366], [0.6271139691252977, -0.361799848794591, 0.16863689816117264, 0.8554323066478158, -0.8493246830415587, -0.14450574624808016, 0.6737821245640769, -0.7878775386712785, -0.1313968854263813, -1.0047083047763756, -2.067595168221391, 0.5576430434911961, 0.7778109226741184, 0.12831707914503318, -1.132227135121608, 0.3423124725085597, 2.353660350456113, -0.24164681201374058, 1.190746368593007, 0.673012730793688, -1.3327242757293503, -2.0731601578559133, -1.1821293619082696, -0.8799702473280814, 0.8220537594507906, 0.720209728816951, 0.2830297565845548, -0.803239026431023, 1.3330213602790875, 0.36071700597849266, 0.9754760255569198, -1.3361882027454728, -0.9424619491116176, 0.8607147280608088, 0.37969020574569884, -0.20177021615548926, -1.6881857969313026, -0.15885692876809737, 0.2418394289031118, 0.31301276658056787, -0.6265385755359225, -0.23664552745462766, 1.4227823916731104, -0.26479347354084243, -0.4511948960253237, -1.814670329952214, 0.1042660199578731, -0.8233654845185534, -1.0909085804131236, -1.6688390413841254, 1.1794016513998584, -2.4522863520640175, -0.39570339636146784, 1.5812571182335078, 0.5664376914734294, -0.7000338240494733, -0.13637621018193524, 1.4272665801456759, 0.9388483535620004, -1.164741856398265], [0.8060309179884104, 0.2025701777579344, -1.3760764368840497, -0.3738664557211533, -1.4266641669959867, -0.2036811426560411, 0.10906484047424345, -0.5466628636175668, -0.3226480111257117, -0.682656995513825, -0.2653506737645311, -0.8014490090571119, -3.2775696679043205, 0.4862606455874985, 1.024983472141675, -2.1991448351660603, 0.30699303364073355, 0.2959566336967137, 0.11934208785070242, 0.21594510035090375, 0.6226847569606386, -0.259814129236735, -1.2207843338791813, -2.2466196890148913, 0.26806153723201465, 0.34025418560925635, -0.32415311723286705, -0.2258355148405383, -0.6488134841710825, -0.3475819381808375, -0.7811542897523328, -1.0665894886347362, -1.8172673953245029, 0.13782941319266354, -0.22733735714865402, 1.0059023115034889, -0.4134290797543464, 0.020358313409595766, -0.9222678910176743, -0.1532104597679705, 0.6266689029563196, -0.6816472722002724, -0.5064140768829972, 0.24131293258978898, -0.5855808410909304, 0.20131165691611014, -0.865351275042563, 0.14103056844232864, -1.0679876885112973, -0.6907973771700178, -0.4732584881824293, 1.0150815627781689, 2.215152226451446, -0.9559762772621363, -2.438751184466526, 0.050625218366451535, -1.65630806084639, 1.117139602920757, 0.4274685968521856, -1.3352755986580913]], [[0.047988126353868794, -1.3294237565691176, 0.6328699547218691, -0.20208148212030025, -0.7565271363244108, -0.21468593196189809, 0.7334813273396312, 0.6180140291612529, 1.3858468031406679, 0.7033623150761851, -0.24517348330325262, 1.371143927987032, 1.1829037824694513, 0.21699238376998975, -0.8140325712109867, -1.489998558100251, -0.17132258057635064, 1.0824955367122464, 0.6584342221042668, -0.2786580536484962, 0.4757514571374782, 0.19458263382356486, 0.752993263153037, 1.311938979585424, 0.0021687622680769255, 0.3089452012081773, -1.2787081144116148, 0.2129422575607792, -0.6468732480563308, -0.6778330274857352, -0.9859850446017189, 0.1874620454496746, 0.8013512641850368, 0.03937155834442115, -1.0320137645752985, -1.5716391634685984, 1.4256506419108275, 2.0771426512780486, -0.6471090967472007, 1.7542470356850088], [-0.24258687272777332, 0.4081081354576878, -0.9050472899474732, -1.090029068412442, 0.7017001065203344, -1.1227569304755414, -0.29721020414578886, 0.4547589233473367, -2.227152540015409, -0.509434574582108, -0.016001650475915657, -0.7956263478388342, 1.1933097949651676, 0.1529460998476308, 0.5469012513231516, 0.8719566146070192, -1.0674951744742807, 0.3527989627670458, 0.4327729545019157, 0.8956572657497233, -0.23666048429017153, 0.3292040251406421, -1.0239906620786143, 0.3300315614298908, -0.29264741311728926, -1.0043093075176934, -1.0923713373570267, -0.8368945486662712, -0.48381648903386326, 0.5750111743070809, -0.4677280507522575, -1.1290590848347137, -1.4571469514941384, 0.7392982974393676, 0.532907845448315, -2.510399753594771, 1.7333700823784963, 0.5495299124526343, -0.08713089449816334, 0.4183430615566927], [0.8465554168635331, 1.2679812547654363, 0.1742381688071622, 0.9657179172784895, 0.4922402275848527, 0.45720902250413176, -0.8746931470613716, 1.581422104462631, 1.0533326155925467, 0.381335717957601, 0.14912142164423803, -2.14915613877001, -0.12407429022930244, -0.6027368157054624, -0.3312629858197229, -0.2630568218458284, 0.33261350333341694, -0.5985394543330803, 0.8500593157034627, 0.23799049657967464, -0.03539295665184479, -0.2288982638302519, 1.2203960982161302, -1.7318140352557232, 0.9151336047374176, 0.49822836351049427, 0.4221288791072862, 0.17131873205754575, -0.4654605719413021, 2.573898313280848, 0.5968526254154426, -0.35584979165029984, -0.30579652037134364, -0.7600723645133997, 0.1308025680497437, 0.422620023103772, 2.131549849781267, 0.1548820449274236, 0.19795188434122696, 1.690892380481685], [1.6435837799608637, 0.6017219595432695, -0.36865692461822436, -1.5874423505048265, -1.0948283097758813, -0.45323838566835667, 0.1321768650974341, 1.4586574147203668, -1.0006854755674146, 2.3417723287097125, 0.012804634679674845, 0.25956918903417264, -1.5956284985797269, 0.6400922330946482, -0.15377722335647612, -0.30554872919740034, 0.7364862712808916, 0.48323004982614, 2.562870268809695, -0.11157048449542202, 1.370449702031005, -0.5528405996064814, -1.12419593520999, -0.21102880861314, -0.03674939774231922, 1.2106727965276733, -1.060277907938698, -1.0586109531399543, -1.8143484493749682, 1.0634883217755242, 0.634431816498311, 0.7326835732409479, 0.12931421513943334, -0.10131497800542845, 0.1773513824701543, -0.5863498709301664, 0.5337065697096454, 0.17022012410341814, 0.13154840925105965, 0.5796159925381623], [-0.19197865651201088, 0.609818384383438, -0.9612989322908262, 0.7623285980078748, 1.376210783667578, -0.3474123262343059, 0.5236573326736851, 1.0881010303999328, 0.2754555178372555, -1.353058826317376, -0.1963523239636376, 0.6116634924750506, -1.7722659700075274, -0.625134120524435, 0.6803687339887475, -2.089189614976967, -0.7883496316219631, 1.1538101639427394, -0.47309518417390917, -1.1694860262967264, 1.1451379644076012, 2.388331369792953, -0.13999781234005526, -1.0166189268321404, 1.377570564274312, -2.0633550945717123, 2.2659213115022605, 0.8850164050074518, -0.913494315409874, -1.1657824213035402, -1.1401571439527913, 0.7414201157219972, -0.523970667043612, 0.12313458313585438, 2.676193672630477, -0.005125328844487657, -0.2150973484093054, -0.3384535043324013, 1.3550668829247654, -1.0815772816119014], [-0.2270463386675483, 0.9895781460874427, -0.17747501379049213, -1.5788824396538883, -0.38372865421860197, 0.24075333972929666, -0.6405557588429143, -0.0007877360106391911, -1.57875109001672, -0.822626641557927, -0.43058593447885607, 0.24837818608020462, 0.2657869810848386, 0.04284096723520617, 0.32845921838237385, 0.9774871550970178, -0.6568811065681399, -0.553411921323503, 0.7558299939284099, -0.11577116318381626, -0.17998587989117196, 1.3831822568677923, 0.5289514504595911, -0.6759427619291658, 0.19328874609677998, -1.0314103922414968, 1.3292091153578889, -0.03974076557722787, 0.4676178772435257, -0.0622450416647407, 0.1579360888706787, 1.6954538402565975, -1.3822526143618834, -1.5383466414542482, -1.6209953078352481, 0.5206661914770001, -1.245295463253432, -0.3525370198109969, 0.8651046848421637, 0.9165388621917487], [-0.8259768237854135, -0.6060984830306991, -0.42347723509822266, 0.700790909093745, 1.4193341541795734, 0.6475170227569936, 0.7731622790031617, 0.03065894210612149, -1.8606074163396715, 0.49135805431325263, -0.07123381319833029, 0.673061389986599, -0.5468245374151066, 0.9935782052096029, -0.7745617602749036, -0.2632777310639114, 0.04530734104803478, -0.19195801130481727, -0.23222595459641454, 1.0207239110677706, 0.5647618006419374, 0.7046458793872459, -0.954443498573743, 0.16796245773409246, 1.035713257263529, 1.6311868333114907, 0.8849914171136369, -0.15623970758132597, 0.6063206526169337, -0.9555127219188315, -0.4563065112130014, -0.2528611485454943, -0.12810562643015944, 1.1173279676222636, 0.5182055156474193, -1.6029768675624139, 0.7306234926475216, 0.5537238640468859, 0.9993683547585673, 1.715387342808437], [0.421551330057332, 1.6198208365631404, -2.0756319559290213, 0.7750677598503567, 1.673357189780394, -1.2024576409632497, -0.31347922885381824, 0.4757798533983729, -0.1304146964657292, 0.5324996046337351, 0.6554647093463482, -1.1264334308765482, -1.3128961491999034, 0.7449553874572262, 2.03234529608972, 0.31224331037512065, 0.10841732525148508, 0.4716788148330808, -0.8326131939234377, 0.2823202898879565, 0.16977945772944822, -0.413309098299604, -1.331936777693524, 1.5406214273712342, 0.6857537552293648, 0.5026958585470381, 0.32621876746914114, -0.027014944634304604, -0.04527370668108055, -2.657356411981869, -1.4049797503315702, 0.3641285444338708, -2.2321403924711722, 1.7405383032650996, 0.48392865520034345, 0.22259016449078517, -1.6038927028480943, -2.98521503111192, -1.0713341897445297, -0.28110230109399403], [0.42172123006606005, 0.21478735075097635, -0.4217634223092467, 0.12938692192483375, 0.0602017085470571, -0.553697084274123, -0.12867434360390118, -0.5025482492328827, 1.3031136976476916, -0.8153932921885996, 0.685025260342237, 1.1894088746985954, -0.5405719307839794, 0.08316128254763315, -1.877673673143897, 2.0886825280477312, -0.23631404995081115, -1.3851403266097633, -0.052710903106969145, 0.2269513440273182, 1.3773050908508846, -0.2566211346642478, -1.5282130443999247, 0.7041572192871218, 0.14134879026892033, 0.1355889569318068, -0.15321352922937456, -0.8319763456372947, 0.05504993869848818, -0.4259816468972147, -0.07221065499603553, -0.8446811187518776, -0.9919469534278372, 0.7152037448554612, -1.9201761829581556, 0.9068879605196845, 0.046038923179496295, -0.2702312681048958, -0.4744344145195613, -0.8759110547303961], [-0.4857746827795502, 0.6313245749806523, -0.46892493454162965, 0.226666466052429, -1.027605096214903, 0.3168021874112868, -0.4717893489642031, 1.6394840294542443, -1.7046211631267336, -0.7664546794785612, -1.368085642867304, 0.7364952178572978, -0.8296917453341072, -1.0854645485420602, -0.29187750946730195, -0.3940103389238813, 0.9316490880112679, -0.527397551305621, 0.8042015584635779, 0.6145508509613873, -1.9953068987675993, 1.5864579205870766, -0.9590402113088256, 1.0079308014027637, 0.1305830790626946, 1.1963887623658316, 1.1692262465109118, -1.2400068646037614, 0.33820676169264846, 0.7993011709817509, 0.4163593606480608, -0.295419800904438, -0.32522130788378184, 0.18137086365327137, -1.0815642789789435, 2.2730401449393147, 0.4371083705296302, 1.1895190139730099, 1.2854698334690824, 0.3313951226012236], [1.340266105385141, 2.4591016574140205, 0.06685381981116321, 0.11679422028684355, -0.9711876888694799, -0.718071163479643, -1.3906496617397874, 0.2857560221801438, 0.6635496910858177, -0.3302073144057126, 0.5479403899028578, 1.479004758217103, -0.42245858156982685, -0.803556760314626, 0.36430524498697403, -1.9643718340849379, -0.3443673506543607, -0.35772274282027644, 0.5852257671227845, -0.7611871988020518, 0.7011686634940462, -0.49193229046667825, 0.602164357563241, -0.05746766495421014, 0.02997771404070967, 1.7086780832535433, 0.5791454763448317, -0.2028857724155394, 1.178842620610328, -1.2105928671978634, -0.3802793981422686, -0.6350657950267263, 0.2763435792610092, -0.0383563504017511, -1.3495306635414936, -1.461041474836875, 0.2876655032098636, 0.8256726992964635, -0.13090867199553327, -0.9419456642453821], [-1.0991258188133675, -0.18376456813062642, 0.5009830883042722, -0.006916525173616358, 1.2663787268415547, -1.1740365097988192, -0.7200041005951947, -0.09262614430592948, 0.45753091006020613, 1.6935084627323234, -1.7518258795395114, -1.1408063268492834, 2.571014917457669, 0.9812955405681725, -0.5080162273744964, -0.46425065922504316, -0.727852125324857, -0.10839493159615915, 0.3913295875494794, 0.20168208799131038, -0.6067751106689171, 0.6303448663058386, -0.2419463544718786, -1.554318093895936, 0.415846247816447, 0.7447045618197587, 3.0144659777179856, -0.40147745116004907, -1.4162264794903847, 0.6662965757241028, -1.2418846871443723, 1.5658573024560745, 0.05434844589335538, -0.7153335046625499, -0.9186535872046817, -0.26541412601548114, -0.616721625873152, -0.34317183940466806, 0.8161149860107301, -1.621127943776044], [-0.8622125381180291, -0.34911684606498133, -0.36602474683454533, 0.24658347445570403, -0.8158447160383967, 2.388044398692606, 1.220742979524701, -0.8893389546391376, -0.4166739232566838, 0.2834434698188654, 1.1113871967972386, -0.23711769867588445, 1.8093078578062163, -0.9268958656407589, 0.46401640294080504, -0.3500627469533697, -0.8784536178133912, 0.6935589559646604, 0.08524578208826547, 0.27191979512640196, 0.0005128614526319987, 1.3118464891655721, 0.6835831660759062, -0.9571387193069651, 0.18821590995445042, 0.5676325843836092, 0.7206711175685885, -1.55425523768457, 3.0822405725836646, -0.2622196961701226, -0.8670685865226212, 1.7082004280092515, -1.1349337702195983, 0.7143396082373045, 1.1384899449949248, -0.48993746798462434, 0.9038095467650152, -0.6606889390923145, 0.24739080082097353, 0.9819715582060953], [1.1470123614145145, -0.28470139619491397, 0.35707739501408714, 0.9883265953019045, -1.1182061228242695, 0.025984161424651642, -0.9461042558779232, 1.5775508522888984, 0.15762063464231932, 2.077648056632467, 1.0661941046096461, -0.07546333973159658, 0.2574082734160673, -0.2579032795384055, -1.078324477030414, -1.0251755891891405, 1.2441791449244664, 0.5698352911401199, 0.0859515040480762, 0.28610013283067487, -2.0029542588063407, -1.3646226029389226, 0.6454505649641539, -1.190886421816775, 0.3658690900295152, 0.611720801877565, 1.3426818809950354, -1.196193943186522, -0.9091631383620362, 0.4437394817415567, 0.05356706569354888, -0.7670996025453702, 0.5246477571452399, -0.511936020770769, 1.3906450831240724, -1.4171768472689255, -0.36341321979108226, 0.37627515611359785, -2.3518912239183787, -0.23957315499924783], [0.21264541727001846, 0.014370317440838018, -1.3307975640898224, -1.1110824717703296, -1.3689843906106467, 0.839033822843985, 0.5320674641107512, 0.6729819616873163, 0.4875026923083529, -0.39197291991854927, -1.011521620991384, -0.9198373116381197, 1.3377123430885456, 0.5163747321119768, 0.14100169494469572, -1.0713639201658225, -0.10089825018321152, 0.19973298213398447, 0.27544375382184483, -0.3922891012435818, -1.3649063945303597, -1.7777590950656685, 1.4353099297165088, -0.8115397038354, 0.18893022463892134, -1.2061715935521469, 0.6291730843889107, 1.6030517101165582, -0.6874847694752395, -2.8682022112424983, 0.5196314938140167, -0.5393731493951298, 0.46367087297147386, -0.21270426542763166, -0.5582890530761803, 0.532978284949381, -0.43507341393289595, 0.5085636860758113, -0.7832805797089158, -0.13911294878515756], [0.1032549348472201, -1.180837124473029, 1.1693251929833295, 0.3813343540914792, 0.157854811243739, 1.8190369606770644, -1.3502903656634506, -0.19302342931672734, 0.0023636047285188018, -1.260396499011818, -0.2617540110323445, -0.4668924344947585, -1.0526844661400168, 0.672997694780655, -1.285072874959955, 0.8813874758970315, -0.4467359693243182, -0.166461000508667, 1.866100673840666, -0.7736007099833648, 0.8856816315496505, -0.8092635785698825, -0.6234968031106145, -0.6665360461500328, -1.227872118096692, 0.2791388750324517, 2.0625568229657607, 0.3820611382267008, -0.2285381890814441, 0.8723459628552699, 1.9428298572681324, -1.0762142677591309, -0.07780941066920494, -0.291589776140454, -0.1811997520333331, 0.9757343827037724, 0.5514298505928743, 0.5571217148146977, -0.3265308709200121, 0.8441874145364255], [-0.8525897765668056, 1.2598845527155815, 0.8792994431942762, 1.2426627684070595, -0.6035929142924878, -2.4449807030457658, -1.294922199433322, 1.4392472408870876, 0.5483735204795629, -1.8284452571504128, -0.7018548112952814, 1.1907015766205231, -1.0216335806897203, -0.33543903147827137, -2.2363157166083996, -0.10039160546877621, -0.11741795186211752, -0.5243393518965513, -0.16328483574441796, 0.9212731119615643, 0.34666034008377006, 0.7581275311165705, -1.0846829449651736, -0.06807793457907221, 0.6370508301832838, 0.13924346291586315, -1.725471449454729, 0.49977266129486153, -0.7269684824192952, -0.08920812023469225, 0.36671645124969376, -0.532920890449088, 0.6625890035373004, 0.05285951250016827, 1.3097095089447663, -0.09536676439664507, 1.1012034056269355, 0.5632439388794404, -0.1529672713956307, -0.3430119142576585], [0.6234238042780545, 0.22769571288115317, 0.22313861414009287, 2.070417645165794, 0.24557283780426334, 0.7044463330539511, -0.037158924319730204, -0.014538433259038976, -0.5183703677395723, 1.572560190966258, 0.14050067370409164, -0.29938782893261534, 2.110736210606856, -0.48810329712976236, 0.9457032374537929, 1.1929159117149037, 0.27071432625913483, -1.0294032091319103, 1.4527600246828873, -0.4938099669443536, 1.3787881844703278, -0.3895521407863377, -1.2985566585607289, 0.3330351180908987, -0.7595503506831306, 0.46761153375354797, 1.3033931003112151, -0.6704812101907801, -0.470079549996419, -0.6873576008770153, 1.3806331840658248, 0.6854268153170119, -0.5897607093891128, -0.4691928222376703, 0.454426122231413, 1.742528612372633, -1.6184899519888676, -0.26093907770031616, -0.33477690189188825, -0.0020758303755901856], [0.2203222255102276, -1.3402626786406242, 0.6514951948675024, 0.2118124092623494, -0.27279455875468417, -1.1812676649201512, -0.09230392057335667, -2.1165935702196754, 1.020486865124723, -0.6245723999330067, -0.12791505884445525, -2.051127064878567, -0.2643731886776976, 0.3335033474960814, -1.1436867253500356, 1.162615997938676, 0.2864464851024976, 0.6780449383230632, 0.5332999928472796, 2.049820124400391, 1.4134340547440496, 0.591675711845951, -0.9169642047751321, 1.0131973282432332, -0.6227505748956111, 0.7651232671914675, 0.7348790518026925, -0.2424077536612783, 0.19570280612852162, -0.184159893802046, 1.1308397796585383, 0.46607423871425746, 0.38278071304873756, -1.208368973156432, 1.3559357362476743, 0.20051022635415025, -0.5526248248141101, -0.10353023325573493, 1.0025759720665268, 1.12557946764266], [0.933295095867304, 0.10123358774788128, 1.8201800487258515, 1.3447262962466264, -2.118789158900247, -1.8189516752636552, -0.9072576869794865, 0.014351286220338072, -1.0450596268586667, -0.18149006041124494, 1.5286139146590771, -0.9002005875895791, 1.3547118582391624, -0.3217168480445042, 0.5920273563492848, 1.6429466935522123, 0.6274124334193797, 1.239359574500876, 1.0557047290212456, 0.3179480025748763, -1.0939680820164401, -0.5190894878229578, -1.643309610595604, -0.7805872119345834, -0.13549636692499847, -0.47942407037300233, 0.19122140084648626, 0.25086985554456975, 1.2182184896916808, -0.19406472836923133, 0.09733849290862207, -1.1492123187446879, 0.5567541586013289, -1.391598754678985, 1.5645016219057333, 1.5112035963652646, 1.512210409581144, 0.9762478632999152, -0.11710162908417893, -1.2077747282356859]], [[-2.0382561318316474, -0.7549211934528199, -1.11806804913955, 0.16545293616839166, 0.44819083534464793, -0.8828178621231317, 0.07155624664504809, -1.506992495045917, 0.790073874141059, 0.4116168503897783, 0.9595619880799222, 0.023193634858875416, -2.3403049626182804, 2.0553051480654183, -0.2834802432257604, 0.6924842363975616, -0.7222098008950016, -0.3054262998732666, 1.276541296344873, 0.1786065283246401]]], "ep": 0}