{"num_layers": 4, "sizes": [60, 40, 20, 1], "biases": [[[-1.2015285455163578], [0.5758253291170798], [-0.10710532524989626], [0.3824916599562338], [0.9460585544819023], [2.1437146465838826], [0.3794814852111768], [0.09281044104620859], [0.055521535469885835], [0.5969954362916877], [-0.8146632031081641], [0.15197801688109877], [-0.4663048414887307], [-0.3744180246105781], [0.25989626503773633], [-0.3572395847967196], [0.3833901752540838], [-0.3935518507904686], [0.18906071795017768], [0.5284755933343123], [-1.458605341335401], [-0.5245812403519551], [-0.04139937367914431], [1.2962290969167332], [0.6477083552095111], [0.49828156787500344], [2.1459432028506527], [0.500172458185405], [0.8393398728429119], [0.35023227054298384], [-0.35323661600519535], [0.1326614806898838], [0.3568072666570322], [0.1514657692697456], [0.34565421257372697], [-0.06408796539181891], [-1.0258060566938882], [-1.9667514059559963], [0.1283228138852069], [1.0022860647970786]], [[-1.481468204642211], [0.5642872559623092], [0.6655517544533701], [-1.196239661498582], [-0.4800055612235857], [-0.09910369078726437], [-0.7977086117892459], [-0.18182867012141923], [2.419761400611613], [-0.2646752447723229], [0.4053706411579684], [-0.2927812941037551], [-0.8751346736433109], [2.7735765512575576], [-0.8006090837012746], [1.5767383471069112], [1.0119735144732978], [-0.6677889798014783], [1.1845147924476618], [0.8850353184183634]], [[0.472231100157324]]], "weights": [[[0.3388295979267939, 1.297767466517598, 0.2967973791579808, 0.8111039251465376, -0.890722586254342, 0.01661320742756659, 2.155923346953191, 0.9169154218362896, 1.4959401830427843, 0.3276970291131037, 1.0087503830371647, -0.18508362461398462, 1.212377148051114, -0.015505947924800102, -0.9547478727021231, -0.2675345622065781, -0.8561684371450267, -0.14418395736023942, 2.4536095716470334, -3.1824016010692664, -0.7352000499042398, 0.7479070571615325, 1.2890248389312033, -0.0465760284117306, 1.7531500552755923, -0.24399845862767386, -0.17392214930502092, -0.09556132629502885, -0.6291310485864714, -0.5797657892471293, -0.4608465469611103, 0.34714831196871265, 0.8476337044148492, -0.37521076566237876, 1.1315783167466977, 1.086891447681137, -0.6968479705302986, 1.3117496210149593, -0.030614296805892456, 0.08256322142167014, 0.6828478105246935, -1.1266318268619606, 0.5026354377201111, -0.7565302513444635, -1.4642012432164537, -0.731538697231082, 1.8336921450816257, 0.37332322095839, 1.8188316185060056, 0.8621611001958027, -0.9952974059426034, -0.357209553010247, -0.42800984426847716, -0.3304195083917668, -0.30443937065281435, 1.966830299761933, -0.22100521107805748, -2.343968190084806, 0.8200700019867099, 0.20074634289943996], [-0.22584261182133747, -1.0209153866630971, 0.30076312506307745, 1.3321796310256102, -0.7041830579065101, 0.7914634741929839, -1.1159105245278564, 0.9051035336701101, -0.8489993751305467, 0.13695927664712162, -0.1242661091462757, -0.7601262921499023, -0.6751626059263275, 0.30781062726200237, 0.4073041573335164, 1.342984626363178, -0.8679010444072339, 0.7497506188317075, -0.28215270037178763, 1.6165151627104208, -0.8279687161125255, -1.7537893611761664, 0.555075504708562, 0.5599788767115786, 0.07382715378209892, 0.22419687665072063, -0.5165816777398445, -1.5364592149628808, -2.411704930730036, 0.18253231040914414, -0.028131533086408967, 0.28520550845838566, 0.8830735270565817, -0.691662931282562, -0.1223327896844249, -0.3686567188341738, 1.1789244970688821, 0.4433267382656559, 0.07372270953112071, 1.0214683521126116, 1.2441969037968068, 0.07538661111244517, -1.241116008472712, -1.00071105871811, 1.103847859329821, -0.9010748733093857, -0.6248157056046594, 0.29158621302105386, -1.2456454288933683, 0.37705542266361364, -0.3703009680488839, -0.04343140362059387, 0.796690514704189, 2.6650401633413456, 0.717336507754237, -0.9486940383792571, -0.3773026694305586, 0.26176586186756706, -1.0191470432519139, -0.6404449519000212], [-0.41126530805357625, -1.2377578072915483, 1.2469623214496193, 0.056150809750954926, -0.5041513554180025, -0.7385283746791454, 0.28821799582275603, 1.118554308811755, -1.4954997159667924, -0.7703232972159468, 0.14657112202483064, -0.9110644315659994, -0.6906013434209808, 1.5526872123314928, 0.4373158307218904, 0.32943597452302387, 0.06093609563590569, 0.6508102691392622, -1.4886697022597908, -0.07454843023978075, -1.5122397651828485, 0.13779760446914902, 1.379745905138852, 0.6317768183275965, -1.495296140141616, 0.8230024302532344, -1.0052570563583711, 0.15987850285822278, -0.4244420490182284, 0.09924440438298376, -0.5235572578778296, 0.8079145894065466, 1.8048208813853919, -0.8274296262081903, -0.8464979450332853, 1.3591721850398446, 0.1448216539688489, -0.042865541540872534, -1.7686332834902985, 0.48005219312003083, -0.23680454563692244, 1.4553937610147756, 0.7681399556651556, -1.218551877103458, 0.0009331941571231201, 0.5964706780343625, 0.8694460516495932, -1.0198690626472329, -0.15774722292095214, 1.5944673323978589, -0.7265769014152406, -0.8080141323085288, -0.2894438030311727, -0.19649449743953834, -1.842396595969836, -0.9926579875452226, 2.036141595338263, -0.03989549495047527, 0.828435337956727, -0.9870727988838746], [-3.5605233093805344, -0.998426288908343, 0.4842276285794297, 0.6673058760324556, 1.0851387021021695, -1.7080989851980606, -1.2090137096108464, 0.45738903703452494, 0.42549665444050494, -2.1031763604412608, -0.18660457915925382, 0.22369331483856095, 0.3239784525640772, -0.9177028098779373, 0.11527417246385778, 0.9995650338407847, 0.6388117620162566, -1.747770051078789, 0.4694043042458774, 1.2234026076165436, -0.5795728878251375, -0.49370360149107423, 2.5747125956214396, -1.130511679619745, -0.9640172166160227, -0.9900177323050117, 1.0363880693989576, 0.3848711558737226, -1.0005235570183686, -1.7260293740860182, -0.027954930968589444, 1.4614274319700709, -0.47985664451221993, 1.0776005215849758, 0.5690699493850007, -1.848669975616697, 1.1123267183202379, -0.6898551403575486, 0.07165983338797106, -0.6588503866898299, -2.1226905551730275, -0.5880112920622186, 1.188741707618395, 1.4770548535027177, 0.27900711525204913, 0.33594900118964477, -0.3407695741415335, -0.7332829718962329, -0.17506044900162848, 0.542502758327059, 1.0756691873601543, 0.5127827766832078, -0.9284386221481322, 0.18433265795439416, -1.2586055679884787, 0.21148269071053033, 1.0026279183294147, -1.942903037537828, -0.5291885531497829, -1.369206891510845], [-0.739320916001388, -1.354028935781327, -0.17112948583198667, -0.43994272003240287, -2.305101719437421, -0.707121829452227, -1.6582860085500233, -1.3732918071090316, 0.8547263807336916, -1.180357886922801, 0.3980587139285313, -0.5004126281451854, -0.4610827277939366, -0.2704594993854648, -0.7824057654718003, -2.3502036502862986, 0.7629442152449772, -0.8640310860517606, 0.28254290353320005, 0.2167901918582021, 0.46659919940876565, -0.9803777493090325, 0.7000043990921756, 0.468587533766251, 0.2802521487532546, 0.926362049762541, -0.3525887865507409, 0.39738031198355134, 0.24621011858550232, -0.9809547744000268, -1.8421818360731734, -2.239824007672812, -1.6183997483740538, -0.22644137865950204, -0.33016109926650666, -0.9886677187262173, -0.8676534094108793, -0.5638506037611756, -2.08429598301793, -2.9290564375401837, 2.019632260078807, 0.4680468720420676, -0.08301114928628933, 0.2013155263184528, 0.7482323249255952, 0.3843879037703653, 0.49894651982192556, 0.28434663156800943, -0.1633780549987845, 0.3384748106564167, -1.4015680101075134, 1.1174866397896388, -0.19526573204203482, 0.9583963179467795, 1.2625177188418322, -0.3035058328941586, 0.2914807857342201, 0.5826841704832848, 0.45185006970627517, -0.8615751162633088], [0.2502978074628329, 0.9831121910757415, -0.3872006104264427, 2.1941925708485135, -1.1028471193701417, 1.5394061366195908, -0.777258424922316, -0.12101811180675869, -1.1505667907291521, -0.2531949575931268, 1.1946378602201855, -1.3949326829373316, 0.8655072619594124, -1.0228025508224314, 0.15702893980400276, 0.9185489396863352, -0.041095336863270826, -1.6694960091725846, -1.6835280729763726, -1.2040267535921834, 0.2655845585620077, 0.5170699919972429, -1.3616726524624752, 1.382412602015377, -0.26578161853049503, 1.3199359667681787, 1.495335155506318, 0.5772323863249811, 1.0714880089729257, -0.5914659568667742, 0.06143464464637971, -1.8538434159853336, -0.2590384311268461, -0.057043008852812695, -0.8096680045989519, 1.1079118812309994, 0.3003289964108384, 1.4151405402317867, -0.8429900924333794, 0.18475094183329258, 2.684024301210581, -0.128542742296584, -0.30693422418646427, -0.1964566396589596, 0.575650620641019, 0.5500708898480278, 0.3369923001602892, -2.1274804395752662, -0.11276927777374324, 1.6414851180880399, -0.26167600749111064, 1.3060283356353346, -1.0705652756675292, 0.8974754198201778, 0.405354916892489, 1.999908189307318, 0.23890902288408797, 0.20564396838122354, -1.294488236002565, 0.8214943878644476], [-1.7326839271910115, -0.6153610696202926, -1.0768641507049643, 1.7076379469301854, -0.42858363138358063, 2.4605237877486585, -0.3254410241417913, -1.0604419070392261, 0.8256459532943033, 0.868349173549756, -1.8933245218148702, 1.0588699125165255, -1.012681142844504, 0.20465566032904922, 1.2047482402508725, -0.25326074433821516, -0.19109500784120026, -0.9176520106247681, 0.05284757104524546, -0.407640795870297, 1.1825549686992962, 2.048735432412425, 1.530807456598462, -0.4305147041857088, 1.3153368921252835, -1.5350456157396328, 1.5477191131432937, -0.033681008338308234, -1.2742393094624331, 2.262044596015136, 0.5539823678023278, 0.28814309207052125, 0.5628788379721533, -0.6622776880454816, 1.2392413854719402, -0.5082453791055646, 0.38101179411136704, -1.0303475030253646, 1.2458314604065206, 1.2698021077059394, 0.5364026187928135, 0.7496293302070116, 1.472608973572874, -0.8065639644421106, -0.681448525144053, 0.19754757327777064, -0.21594487436791784, 1.7332895246968103, -1.9845349932669067, -0.4468142950896753, 0.6447880252400657, 0.6844377107327166, -0.8725775529093943, 1.4628047387490057, 0.9938885741914104, 0.5295621493408386, -0.9023939268121911, -1.347183417958986, -0.17878031811470374, -0.7139436169109724], [0.24914613837443703, -1.3689243652105059, 1.3464372197496184, 0.6394921509798231, -0.392720899705655, -0.4971036437638747, -2.122982611768934, -0.06120958035675504, -1.0083273459657416, 0.9173888228526885, 0.6920910842052866, -0.5154716221217092, -0.44602311622673024, -1.01871157981014, 0.5128412690166904, 0.8872653237830886, -0.5586039375811015, -0.5855143964743317, -1.0576637703727978, 0.26371184373501844, 0.001662602746925079, 0.7403608101337197, -0.030025149831770813, -1.072503524727815, -0.619394173003301, -0.785719327193833, 0.34874279634286226, -0.17968420146316383, -0.16270547740014185, -0.28860705962705235, -0.12176987083275266, 0.8860742583991374, -0.03961327078223673, 1.3703554842653922, -1.0471570213453392, -1.124059774801059, -1.1877234036398372, 0.37151624736782396, -0.6797334483828987, 0.5298963060278351, -0.6223581978722387, -0.814505678599648, 0.7814957729682751, 1.8284759746455796, 0.15915569541142868, -0.7126291863879637, -0.6783143373088443, 0.3554223120584608, -0.23904909592911514, -0.19622060836819005, -0.6045003837625611, -0.3788247229399335, -0.9604121885850812, 0.004959748925382106, 1.2418254901158938, -0.7046776500177508, 2.7634742777402246, 0.37627628551311526, -1.6516309958797473, -0.0015343525882825062], [0.37525176609441935, -0.14376390732288938, -0.41498623913724025, 1.1798029084902828, 0.9971677058057015, -0.35630614573904806, 1.1951530150013454, -0.5779906526969331, 1.6730312846523934, 1.585508226325759, 0.49383118510281876, 0.557310307699281, -0.3172000941428821, 0.396419207468248, 1.3612558373154915, 0.29339645597574104, 1.8041954686767077, 0.260257194003965, 1.8166090662567052, -0.15872240286837472, -0.8115622204669344, -0.686998917280467, 0.6942212331860367, 0.0086737057587817, 1.3246882922457668, 1.7766611487282036, -0.0795405476431103, 1.0881961219527085, -2.6881819804848677, -0.053489072070185426, -0.4348988467678664, -0.031197228014855135, 0.5316737195421259, -0.5360202777042435, 0.2803392768979919, -0.058783993747699145, -0.6393819727917103, 0.02870194500590368, 1.0690159341891732, -0.5182489253737347, 3.0991301006345955, 0.6698580377372345, 0.3751926596435762, 0.774764481239967, 0.25175259120025306, 0.8925688525775836, -1.784427626314882, -0.3020346433587317, -1.5110618656729375, -0.4213751649884578, -0.11792216135918021, 0.1872086626385814, -0.04688912040655779, 0.18336238768443497, -0.6813596989228331, -0.3950942505106381, -1.3926185182846438, -0.3301243085675861, 1.0915834454170266, 0.2507545182209874], [-0.8587982428093198, -1.5218375030180005, 0.4939061310140862, -1.2170668001785416, -0.4053089930522793, -0.16473691251399142, 0.2796349734535742, 1.255801959946352, 1.5768148087048852, -0.9034837255280554, 1.059721971327574, 0.18171810168114372, 1.351859239972312, 0.7878507892161065, -0.7243096026148083, -0.14313331034057997, 1.3282365472358781, -1.8101475408639247, 1.5656421169003594, 1.6240651627604255, 0.5426217494418093, -0.12550032271211536, -0.7110054176670139, 2.1268948667058636, 0.6621040300251441, 0.16737512596205917, -0.5875153436413817, 0.21588972319092223, -0.9147382120647738, -0.7432068061473984, 1.1123275607486942, 0.545457607046578, -1.8392205994062485, -0.2098145402376458, -0.19472398865258364, 0.05451963995868757, -1.057823515395931, 0.2998625891247714, -1.0217642155796285, -0.3395331709184345, 1.03464946471674, 1.4065198219123858, 1.3246895891724533, -0.06905644945341291, 0.04713367587535806, -0.5049851397362688, -0.2384757505861924, 0.0734945396908387, 2.1968464321071624, 1.2033257489695355, -3.155909680179196, 1.4328361395037772, 0.20273173847860332, 1.5627177117425728, 0.31757078815960205, -0.6195889415400206, 0.49770022801546815, 1.1065200750701187, -0.8223279524705457, -0.8301463634637481], [-0.20398821726959881, 1.1578062594879102, -0.9994773192079085, 1.4167478488056753, 1.9480873847397902, -1.0592573360820945, -1.1838384215849882, -1.864786817370136, -1.767284757575787, -0.24122529697890255, -1.0839830452100985, -0.05565576743491055, -0.4677656133597753, 1.5722194152072457, 0.5950694413017379, -0.3659244316375136, -0.09591511317385898, -0.4074747453432722, -1.3653931065835323, -0.7059064044978649, 0.29347955186378555, 0.15274062914361825, 0.4497269798869725, -0.5058433184753799, -0.7996034790327953, -0.5676429459095387, -0.683772098455175, -1.076244924490066, -0.02592861981797187, 1.6734333673766622, 0.30339758136189254, -0.8626861618295341, -1.7609677986527645, -0.08472361358972401, 1.0031826355760491, 0.33222244244964433, -0.6252793179939121, 0.2945633023853936, -0.4289179766345352, -0.9746632720618994, -0.5703929686216649, 1.4812831339707304, 0.8130087794550932, 1.2688444552707503, 0.6198454058181171, 0.07157023414255385, 0.8913834224464613, 1.5101241539486425, -1.3564427707718965, -0.4890956761792639, -0.4238065822576617, -0.022826026884660452, -2.1937093703712964, -2.1423610654765985, -1.5578345396476458, -0.2926695694454359, -1.089382063760915, -0.06193051725559705, 0.051621258735820394, -0.9217525781637175], [0.04320490744229385, -0.8500435646804188, -1.4793931892954748, -0.7100492427178219, -1.1793509125739858, -0.49803859454452276, 0.5022404360916674, -0.31663309622873737, 0.09703165002537718, 0.5577938630899532, -0.4579973760429719, 0.6881490505845702, 0.7383317603547808, -0.3223346370517274, 1.3604637157681039, 0.2626331288766162, 1.028457813162124, -0.008358592530975551, 0.5887471438176338, -1.3069954497257121, -1.9912036707210696, -0.7794142566313328, 0.06965793853581763, -0.6329430922904973, 0.8025123092315233, -0.8082198240234517, 1.352348877078889, 1.3917961717545884, -0.22404733879417957, -0.2987695604255951, -0.3085945705401293, 0.807993070283695, 2.1070548080863563, 0.8265866425232617, -0.9389229089348582, -3.262311627780842, 0.4453616430271202, -0.4710620796507228, 0.2438207977441144, 0.48977340274297954, 0.5355883024047613, -0.020559060754335567, -0.4192862066470323, -0.023665499337636665, 0.6930308964407357, 0.3738677501115982, 0.641857621342942, -0.2578309193022375, -0.9659873444281625, -1.567228019031768, -0.18165527358385317, -0.006088787726385485, -0.6467909066967442, -1.2684621498143194, 0.815371015147218, 0.34440040777561115, 2.531202258156081, -2.220325124360748, 2.240791365118832, 0.7163928413236078], [-1.4555144538089515, 0.9989768316157832, -0.4357070184686018, -0.3146166685482865, -1.1057895500312835, -0.5579049640026782, 1.6336226536845722, -0.6576905769958731, 0.8840618289038951, -1.8016527126440962, 0.7468892132914002, -0.814656687355195, 2.183786175370685, 0.37560853663984084, -1.8784442801401677, -0.5675707322912614, 2.230847944876966, 0.204199611037098, -0.5765189936206718, -0.8951670114808227, -1.4070760622052823, 1.0897844981715936, 1.0219244196654584, 0.4376289736001073, 1.3707507134282748, -1.5939211666218902, 0.14608685725167128, -0.2524950401202282, -1.3009407909260955, -0.5570873110797354, -3.2484376131594472, -0.8251854027104651, 1.5015520101788467, 0.7873693976581091, 0.4358532122057134, 1.2573132954151656, 0.012243146853343406, -0.3187760825057046, 0.41786376141026293, 0.4757003070860677, -0.20019247215399893, 0.940830908378981, -1.3623481669928512, 0.3472047556628319, -0.09637405943316028, -0.16631911313856332, 0.3624176796768767, -1.8295216840023554, -0.33994615425505936, 0.01997961015773029, 2.263227147632673, -0.4749199859013701, -0.3277788691678687, 2.156126352215012, -0.14828000155802123, 0.4030159139215084, -0.588540476816967, -0.7449925348740631, 0.4857981174094065, -1.8997517010533238], [0.4493428709447953, -0.10119755245990397, -1.7534752331456596, -0.2539186888561146, 0.5353735723066102, -0.17742481466999335, -1.8346167997093068, 0.2814030940707114, -0.10684858397321086, 0.4121971784747413, -0.08090407606567548, 0.5781971899350272, -1.0549067334730553, 0.04091925396768436, 0.2694145324544659, -0.10845420699727897, 0.5336593659450634, 0.23962210320076494, -1.5146747453908778, -0.7416349154537173, -0.6963609756897565, -0.23645682327820391, -0.14937051846851784, -0.19603886054113634, -0.4344501243316555, 1.0759362341070018, -0.42407479969691986, -1.1647026322576022, -0.08172082987054433, 0.6137232418468006, 1.871966993557318, -1.198515444833341, 0.563136980393645, -0.5465302709807249, -0.8806420336952857, 0.2270977213087129, 0.4166354966613693, -0.13003589373137953, -0.7964326899926736, 0.07018592676616547, -0.7609425376679807, -0.6240249842824892, -0.02996219096373777, 1.12592091980906, -1.7136120408580326, -0.1323151051406029, -0.045301489223525525, 0.09328258050169061, -1.006749682963032, 0.9077763551767442, 1.811497828849655, -1.0264321289469827, -0.611560847121972, -0.90440579210156, -0.2573592499178222, -0.6551213367864421, 0.38290988822285765, -0.04233352228325341, 1.2390758895387959, -1.976009850096446], [-1.2074566230251444, -0.18100167616119486, -0.06833109219919484, 0.8247254637487429, 0.4949996130509127, -1.465773750293155, -2.349513680411983, 1.2359584509962571, -0.87281839175055, 0.73384088807697, 0.5886946692324915, -1.451391018251047, -0.6554557580860273, 0.4471249766607067, -0.1175279128730837, 0.09521202394174223, 0.6945278331008742, -0.4932265169977134, -0.12472022768805373, -0.13446632259624286, 0.8504719548114904, 0.37233837169849393, 1.0569605203189476, 0.8959928358421206, -0.028577088073649056, 1.135677373034733, -0.1985136810829948, -1.2454435569589382, 1.0377496172595981, -0.5225076107684559, 0.006265228558774844, 1.8783368327357484, -0.92862111966191, -1.031203143463451, 0.21283150745316304, 1.3438088741617868, 2.2029722876146676, 0.6485542881947105, -0.9388440354644878, 1.5170037447861089, -0.20994374612210032, 0.16727706425120686, -0.5656508294834452, 0.689324070596199, -2.4630412464228373, -1.3498928577113936, 0.9156277772156117, -1.8568614113874944, -0.28632280185482295, 1.539326922695341, 1.9992728175369072, 0.5275745210035918, -0.734428775717858, -1.023502641319269, -1.1249286149809337, 0.1108523044237741, -0.663681317744807, -1.9974526433082564, 1.2064535592898509, -2.0661618525901155], [-0.3712218605309709, 0.7101560761206367, 0.11470747988841061, -1.116948246855643, -0.7584636229158445, -0.20203935403161669, 0.5708552224700525, 0.36126234479039115, -2.2506098239110135, 2.0393536025052454, -1.1032108919748023, -1.0293995267412643, 1.242303315107139, -0.41440426281336773, 0.42558422285798675, 1.367351654355022, -1.802580674482185, 0.6431755328563752, 0.4742669831626622, -1.1909298994569586, -0.703084159181913, 0.4016479290483368, 2.3667005161720125, 0.27639058815348105, -0.9266393870434902, 2.0257270490690775, -1.6145428971824252, -0.2598913436275898, 1.5007615755775057, 0.44765449057208573, -1.0236507396757086, 0.04605327375085216, 1.6933607228411645, -0.3319530470155599, 1.8778597351941937, 0.8695387568499556, -0.6553236898305183, -2.062559613600079, -0.7928957148425743, 1.2651654457475912, 0.7960695340563052, -0.869284931186086, -0.7347383803549294, -0.34697251949436225, -0.5700486290620835, 1.7945370250092496, -0.4300856614132531, -0.814244787044596, 0.1347559669154155, 0.09631792730843575, 0.935335101144039, -0.6414905666378308, -0.17764836173304024, -0.37168868032216335, 0.4997071371582225, 0.1582487916669378, -0.2875734815862387, -1.0546764189260027, 1.0087521243587134, 0.6919188816254987], [-0.9433233061009605, 1.3917641775636602, 1.032559422323763, -0.33252871150475294, -0.0823861592771817, 0.63016898344697, 0.9077030004960837, -0.3611479350282237, 0.19495807869042575, 1.2215282616886451, 0.29081679701389385, -0.3150939702130391, 0.29764399046519163, -1.9558321308358582, -0.44313214989900185, 1.7883447801549788, -0.7575523174422372, -1.1690996205633803, -0.01735331721851254, -0.3211894363233786, 0.5376204882358457, -0.2135673102350719, 0.8368736644241942, 0.22829236187522103, -0.9263827344938189, 0.06193895188660999, 0.3356845583068809, -0.7529865820686691, -1.8050697148999182, -0.3019029553486287, -0.2717009819682932, 1.2364650052721868, -0.39560970690342684, 0.2927009269136851, -0.6641142508956441, 1.6779160578325691, -0.454538528131435, 1.1499980308304931, -1.1096022628760933, -0.21831243139472564, -1.7793504119154755, 0.3725760050739025, -0.844734527633283, 0.9262204838633696, -1.1937016982620194, 2.432282056604314, 0.48414893674552945, 1.054678952519346, -0.011602009874318616, -0.6164251036681295, -0.15244269916914963, -1.364962770544895, 2.614339550482999, 0.8544835589198382, -1.7662571593130725, -2.209924453197919, 0.2738526327743842, 0.8377249089993307, 0.804043550662058, 1.2658078329954563], [0.8596888637907685, 0.49842826369576737, 0.47278248469684364, 0.25763593946143415, 0.2933887204332402, -0.32575958676108374, -1.4974619427267883, 0.8724337428053173, -1.4431254740242476, 0.14008209515989833, -0.432377383998376, -0.8658869251032401, -0.2983664727218029, 0.4289469330965649, -0.6074766166093142, -0.4440320271729402, -0.1986752614952679, -1.3276947044258602, -0.5597782188419687, -0.381329806177211, -0.26838567915931644, 0.9472052515749174, 1.402491152658016, -0.09182557645699221, 0.5012501453369258, -0.972392657092525, -1.3199320863590673, 0.13641736804586113, -1.8133963061219311, 0.17955540811673024, -0.928265065173661, 1.316978908258705, 0.7899770296214862, 0.20008702056178668, -0.955507694702398, -0.504350275816259, 1.370985572953628, -0.9390648185557618, -1.7609996516957989, 0.7157662467676347, -1.7053460963837228, -0.7117452768069792, 1.6791246047921695, 0.11537330414849235, 3.2949337913766907, -1.105982197584839, 2.59976883626774, -0.737926282956438, 0.002994239063016353, 0.44649156807544765, -2.35791023722398, -0.26712962043446514, -0.37808134299582075, 3.6258679201998385, -1.91528393823211, -0.17872960356826864, 0.5531689800187082, -1.4426037402877334, 1.512133770748042, -0.14146265606332867], [0.4708637980995574, 1.304475665437803, -2.2435465073177125, -0.6383027933631003, -0.04669077124270767, -0.8983246415797244, 0.3542372231730371, -0.6454015111991016, -0.0805187174146458, 1.7369759759513437, 1.5191735230336383, 0.6404003018496859, -0.5992804648004889, -0.44906947760187527, -0.5517230980877004, 0.1996910510893331, -0.8253942367732363, -0.5362324948825842, 1.2617735359352975, -1.3637687683478503, -1.1169427527020734, 0.1885154764744066, 0.9650424119788702, -2.1425602419675096, -0.742486179892039, 0.926461537890469, -0.5259897050039968, -0.41004002456532634, -1.751773729331371, 0.07856575869330112, -0.21216693648470628, 1.1520430287958265, -0.8317866993983855, -0.21587267728079268, -0.9317800300690131, -1.7420637624529196, 0.6833969444614646, 1.9945523689680826, -0.5022506542674439, -0.5562434113055738, 0.5174245305925362, 1.361242808131748, 0.8900535340180072, 0.6809733645276678, -0.5950164293423484, 0.06215609647996239, 1.578959945937102, 0.43073536107918, -0.19947873550911202, -0.38705144996945734, 1.4700208813857383, -0.4532987299538719, -0.33252972560955457, -1.4919405121843181, 1.0750099000240414, 1.1524128078747207, -0.7448902078449229, 0.15715849838094348, -0.7639343446218346, 2.041438084255816], [1.3795581038790647, -0.8543137568377315, 1.7648563780950968, 0.6192960899799758, -1.5323795537149287, 0.059334963320423206, 2.0501731151823837, 1.3267411331396315, -0.6958747265134909, 0.19461600470078408, -0.4491261866232041, 2.744875946670437, 2.4273166774919397, -0.8588979494239127, 0.8414348854818376, -0.7380664401381759, 0.5098397905781571, -0.3437615824128779, 0.3816250367268897, 0.7350199031098323, -1.7772680031376198, -1.4627231869708515, 0.10768244874599663, -0.6042884211545756, -0.12499813917958735, -0.8298280468446713, -1.5440178242272933, 0.6501753380853644, -0.5026728395082171, 0.3385889196290795, -0.3575249840006456, 0.8379321024669701, 0.30722198966613573, 0.1716864353593455, -1.130631519762471, -0.4164335135189719, 1.0601385745180925, -1.0775059005796168, -1.03311562217867, 0.009454917541210441, -1.3360910834506279, 0.8969811336656438, 0.3968270565174908, -0.0351634890200966, -0.8309041936499539, 1.4376301931671416, 0.93686903321866, -1.145013815409627, -0.26843949034203457, -0.6526151180250241, -0.3609264774366357, -1.9813094644580487, 1.81444931305038, -0.3073177702272439, -1.1029278956925903, -1.3301706587683029, 1.3315839211849, -0.5069047615347212, -0.021224249067797085, 0.8649216530107895], [-0.5392732533011584, 0.9952868041938384, 0.8726128530450337, 0.19450011215580892, 1.1708336004329727, -0.9186901994053092, -0.11856122889679017, -2.5100790833603566, -1.0416974515917374, 0.3200159373992192, -1.9483011320527837, 0.635613098895257, 0.21508641749224705, 1.8403380865964751, -0.885326974670747, 1.4257735552464172, -1.049269798058131, 1.7668138753862586, 0.8764811154296052, -0.16786062774753638, 1.1391753721863183, 0.09992540066061999, -1.2452495015887033, -2.308129556475784, -0.34414038790468476, 0.12212181476576213, -1.617051141677189, 2.7178179644460747, -0.6119807270273163, 0.6039785755054959, 0.022810942619030907, -0.4477857478623563, 0.5858618541711649, -0.023540461896122054, 0.5388782051894238, -0.03778316283235937, -0.005035845931213014, 0.10175683485922146, 1.0855081453272792, -0.6967777119111752, -0.7395229860384577, 1.0941912717231452, 1.0543887391081976, -1.6629762246344402, -1.993942137756375, -0.7039864895892425, 0.1633763308837231, 1.8384459164534832, 1.2660660732665399, -0.6614985646302315, -0.24360890390012094, 1.9605462854155915, 0.04059455397771547, -0.9726921474818906, 0.5488890312432319, -1.731462081905062, -0.004343615133187405, 0.21897428067193103, -0.7818169214053182, 0.12122679450563056], [-0.40507177499038755, -2.2152070530983856, -0.8597276572411152, 1.3651364580097152, -1.290239455074083, 0.07778684348231113, 0.23608412449556887, 1.5176661715050683, 1.9716771763700551, 0.8567696608079954, -1.4216110335627095, 0.04556868635633393, 1.0630718107580566, -1.561590562533929, -1.1210845278723673, 0.7139233567319498, 0.8815391279706662, -0.7773801024542721, -0.2512551751908858, -0.7486576850599836, -1.5251680672288122, -0.6924220468380647, -2.3302281612550826, -0.37640942781428305, -0.5021803117086694, -0.46539135376796814, -0.09037178902022831, -0.5457932289595586, -0.7747075806483004, 0.6809778365344964, -0.9449124278267985, -0.5434985873016615, -0.9636959095967648, -0.595651299501091, 1.4141760541412278, -0.547273320922456, -1.309867103691574, 1.193765201042895, -1.0501496800977306, 1.0158364502433272, 0.7650085558040229, -1.5908168204482622, 1.6798329503683982, 1.7877858208912736, 0.4360303895488125, -0.6568818256275448, 0.9879073833214335, -0.9042999004531714, 0.619894891252206, 1.2399510085487586, 1.376310736650212, 0.23305927921711914, 0.9741309703107509, 0.22576856579705323, 0.1387455856236693, 2.3973223608222045, -0.23151493498504155, -1.7908720526084352, -0.6860781339471017, 0.3696745783670346], [0.09046653989059562, -0.629454301006627, 0.84138253958756, 2.021814013612424, -1.4161965708408415, 0.8341710303498563, 1.308139472792876, -0.5817799369801998, -0.5853568057051052, -0.0326672530181203, 0.8241473072460054, 0.4043831258356786, -0.965426210330901, -0.2954882436541715, -0.77298595471355, -0.27759606940838666, -1.619204455142275, 0.5027869842045554, 0.4629534658392654, -0.7050519058966997, -0.8781723914229036, -0.7096888823748257, -2.3140610282772673, -1.4961021121110747, -0.04501758552439712, 1.096322500081027, 0.3262196684601272, 0.07268799177705317, -0.10232174677719576, 0.09077839873044699, -1.820328042416488, 2.267221710288082, -0.29933859681719366, 1.0427766213993717, 1.3319148127219231, 0.8845263212197768, -0.6810383404339166, -0.08735092491110429, -0.38067689002055577, -0.7400987738659152, -0.0786393203466114, -0.5149602171034685, -0.10197455382043934, 0.3220791594462613, 1.395870742199413, -0.35599586777909675, 1.1849060145264116, 0.7836561998062004, 0.0310119693082286, -0.3213309184986707, -0.47587732346195627, 1.6754087828801036, 0.47810477032002224, 1.8507301084720098, 0.5949037563939843, -0.31748686213235816, 0.07915137163496093, 1.2004124757002907, -0.797572804305752, -0.5794868492136781], [-1.0573901746645695, -0.1593614337288373, -1.3155017903740305, 2.3530006360239324, 1.02638083131164, 0.5119746931550365, 0.12539031674328488, -0.21682889777263598, -0.37002472413187926, 1.021720128994481, 0.07494104060250778, 0.01873268294501133, 0.4843004965074021, 1.8720340479394773, -1.2638460888366614, 1.0244393870614463, 0.6121953523705752, -1.186610768234431, 1.5942288142602679, -1.7442177145300688, 0.2801247849700664, -0.6021976588379978, -0.26584099284725976, -2.041978086022461, -1.5920398178591777, -0.1519265381566794, -1.0126720704315266, 3.2700748896231846, 0.8657161708480227, 0.3586780544047788, 0.06878257756357645, -0.5424222373130045, 1.1809686582320673, -0.5719484854135154, -1.2819586147972923, -0.08494277489398049, -0.1944881725711016, 0.34082608659886243, 2.2523199266669782, -0.7341676960468041, -0.3378462522670785, 0.2992789134887403, 0.4309619381195482, -0.5469864462270118, 0.9886854525356163, -1.4173006891306312, -1.1049094752549566, 0.3318121060485837, 0.2741209436716528, 1.0793257840844461, 0.8531977326462754, 0.9854656543001407, 0.14962446930492304, 1.8480647738428104, 1.289749556785447, -0.5507769605992128, 0.14932741814912115, -0.7244906832700998, -0.10262826709466095, 0.3798870193466153], [0.3506304518908494, 0.5116935718889923, 0.6661077660761574, -0.3718129263687255, 0.5076435602488174, -0.07443568648851613, -0.7267012204932374, 1.3713972792967954, -0.10424017409829207, -0.1191828949567711, -0.7706966884013855, 1.6542768948006257, -0.880816980900021, 0.9598895826341951, -0.628729309497478, -0.16818338306044223, 0.3727636461085477, -0.013047598025005014, -0.5735559060430873, -1.5989166768189782, -1.026635937137291, 0.46408253928606663, 1.6083174456363911, 0.17864531075267312, -1.6757486991907202, 0.5553322335510993, 0.529246080670516, -0.9471638035967416, -0.5311636338708723, 1.1470812950620215, -1.2179328771451416, -0.6438103400683458, -1.9736290686774136, 1.519879350136043, -2.150117839645541, -0.5598833881762191, -1.9900992513966445, 0.4109113710371096, 0.44673645987434085, -2.5788049825168295, 0.1310591147824104, 0.626017648815465, -0.7116103478099196, -0.4778633975949947, -2.0360181935314126, 0.06483486366642949, -1.9401673857723145, -0.07996620098291435, 1.0992656435848922, 1.2756332394581955, 0.06164744375592038, 0.030423468550631882, 2.3682174433539536, -0.06518919697537974, -1.2773085187512792, 1.0770180501114452, -0.06895133669440284, -3.5585661349012665, 1.539076040312556, -1.6332656346981755], [0.637561446062513, 0.4844033301531267, 0.3986592408507038, 0.3710833319815149, 1.0524068586784379, -0.23118267872310877, 1.1947402379742378, 0.06634612517028433, -1.3848027810438273, -2.375280340080698, -0.02954255633130258, -0.1791569969119501, 1.0432734554878635, -0.11446255866891111, -1.4189259947677375, 0.615748093980104, -0.13406928347214267, -2.1072931327700894, 1.4230678935280099, -0.571137143074985, 0.2427369872264708, 1.0423173927347573, 0.7763680017451884, 1.2245864610444548, 0.5610749787521088, -0.6368450153894393, 0.36208502561029027, -0.6183802341829394, -1.2052906366566287, 0.08265621432842983, -0.607263446111017, 0.2949303361314719, -0.9247373848058072, 0.20412635694242318, -0.22666716618286217, -2.210300501680215, -0.05426881359721754, 3.215282170817736, 0.780699695473531, 1.5460793277090699, -2.9820323887813824, -1.6730443157665338, 0.802057362208072, 0.2215410009552017, -0.5033001715678042, -0.5766149693341469, -2.5301140787663257, -0.7750042943519511, 1.1361490399040526, 1.8960328982936685, -1.699639181640827, -0.16441900871494475, -1.0795315865749069, -0.20761645086506822, -0.02015634975908886, -1.5984477792646317, -1.0582351500722371, 0.6015847513115555, 1.2109921373311159, 0.5944443180050376], [-0.16645167350897874, -2.2879011525446624, -0.33773826058959766, 0.19675791799147097, 1.4117908090059295, 1.516880745301543, 1.6763178899384563, -1.6992233884119734, -0.6772174450573115, 1.8791467071187717, 0.6349461332661787, 0.06058311833217482, -1.3030576623969947, -0.12836460754013682, -0.3851712334088943, -0.8192599603872196, -0.8621076727714524, 0.80681390753043, -0.6014481410211417, -0.25600894500548277, -0.3613709255468262, 0.4362251685924052, 0.6045820881583298, 0.5004037325901414, 1.0243214273183514, -2.59182451280515, 0.953939426705344, -0.27446226793423684, -0.544125696244296, -0.30517774244988777, -0.8356377303116937, -1.347457342009746, -0.7814006660438855, 0.9026895597731059, 0.5454324660776023, 2.5529507426048403, 0.9391963453349504, -0.3480419198314481, -0.20588571336417502, -0.30451732316213354, 0.3836165920721079, 0.49545408548849296, 1.3821249108559492, -0.6935214746074139, 0.37830003891948866, -0.27072543804070937, -0.06632884004916328, -1.03800774705083, 2.0230310675205643, 0.5904980305405928, -0.228021910405347, 2.6338425916690373, -0.22428392380819218, 1.5549845035106473, 0.19451167198463035, -1.730622081025777, 0.5629982912265584, 1.3221658116876398, -0.34411212282783177, -1.4756444898673138], [-0.20588601853452249, 1.0666587251968596, -0.246020967335108, -1.3894478288635543, -0.4582147204262058, 1.1148963322589391, -0.18154800610340915, 0.001741126042653199, -2.7333520707146306, 0.6021040388854793, -0.23065127794033388, -0.6036251322496332, -0.449235554108591, -0.16218639298760104, -1.8323783051240248, 0.3405568875723632, 0.6590280367853143, 0.06347783971210634, 1.6388865279675628, 1.6783055735393275, 0.34374010729161947, -1.288675322677095, -0.21198378808831472, -1.0000527978106628, -1.9252966916623102, 0.9705595071841768, 0.4943170243060804, 1.2949616156500414, -0.1887819079705628, 1.0877388787862146, 0.4292476686251984, 1.1143469827067622, -1.5045730332452183, 0.19685471295705015, -1.2238984972887994, 0.39299959426766207, -0.10357523040604083, -0.5039327676821528, -0.5882679043183495, 0.7780956656508049, 0.16155665658394022, 1.4963961852154024, 0.9730229950031205, -1.0324172694175542, -0.2967030677836364, 0.14204776456867396, -0.21452090658370956, 0.6401413936543014, -1.7502713268660792, 1.5311397796094708, -0.18539004000975257, 0.270033132638862, -2.001104482435888, -0.6142636184558877, 0.22246200715050662, 0.9366295345215806, -0.4748809428155534, 0.9855682820507164, 0.5683286371618567, -0.18661330484151037], [0.15678562621600906, 0.11104448783524, 0.9675301957811637, 0.13291148432225708, -2.0598168987565653, -0.5688686567195788, 0.26784007929810644, 2.224523967056027, -2.4970694200559924, -0.6770895954273143, -0.4743248048403667, 0.04487170450366798, -1.013573412527856, 0.13139260992525065, -0.07331116334898784, 0.4920960431915549, -0.17339069134314122, -0.2712564090201013, 0.17306047292057283, -0.8885804565304011, -0.26245312149786487, 1.6431632995966579, 1.5210476897659067, -1.7665694334649165, 0.19942463356281614, 1.3684162287462096, -0.479816946533748, -0.9629362480923543, 0.2858652440793756, -0.5352774150661007, 0.00041180730836547566, 1.3607701773742487, 0.723194081275315, -1.393054422965067, 1.9313618844350016, 0.9548153609376197, 0.576557742374276, 0.2282089270982988, 1.4289134107570682, 1.2198842242343053, -0.07701177627571915, 0.5240614135986268, 1.1596212274103592, 0.3148013184950424, 0.7987616291720169, -0.6464761575386481, -0.6097771069600386, 1.2317186807210703, -1.2817365539545094, -0.08662863999239853, 1.1653763885916826, -0.4642666419166376, -2.3636011996353568, 0.7806359005348741, 0.5980665340326932, -1.055417996731319, -1.0456532346166563, -0.7359480583746693, 0.16199161500738868, 0.2379985538249327], [0.040688322606943696, -1.2708169212574627, -1.9001874290401337, 0.0683209601972371, 0.2791132799211531, 0.35057921206803394, 0.7038943381673712, -1.226884593463119, -1.0731518143944188, -0.8725069836475499, -0.5211311614025338, -1.8195074719109194, -0.07049572923186123, 0.09948767224288045, -2.2627370510092333, 0.7325305073127873, -0.694012229132427, -0.8071411865428816, -0.07226836986616657, -0.9349685094922098, 0.12262602731347381, 1.332139489763471, 1.1257542351272232, 1.2119090057321775, -0.01635547808997957, 0.35868097136843957, -0.4041940054853877, -0.3862246725854658, -0.5201265135414953, 0.5448490974395797, 0.6127026139825975, 0.8205549022821791, -0.050376068308683325, 1.161759150319674, 1.3172967588184148, 0.1447139588121097, -0.7504221193885368, -0.2665674159855411, 2.3588272819064846, -1.2829944315322108, 0.8999564710601514, -0.12982053306460367, -0.8816627689573147, 1.6128234447671674, -0.5126849937703424, 0.7687577995278008, -0.9474032869435086, 0.5581518871459694, -0.35429397953738456, 1.9079605212479984, 0.15663126887553222, 0.006122357124975767, -0.7611829471373368, -1.2785186165640907, -0.8516669280936554, 0.29509891321771153, 0.9508564340640597, -1.6280907822267494, 0.763370090443264, -0.2640014931644622], [-0.5939033864162384, -0.7570557245871163, 0.1392881382992499, -0.633911526327416, 0.25337289310569583, 1.194447051864395, 1.342528749622771, -1.0957235930448916, 0.8525980478267956, 2.2281438426113183, 0.037815559598487807, 0.9942735786817181, -1.37461934583558, 0.7946932316309588, 0.5586759985028661, 0.09215383880770546, -0.20571652444997435, 0.7321852567153805, -0.30963035179161613, 1.5572689574011536, -0.4690540333165613, 0.30253376128965087, -0.664389329646819, 1.4873824172480596, 0.5477728095922181, -0.22738611935136732, 0.03409874565650649, -1.6017991473320612, -0.045784044274782734, 1.0079116557878953, -0.32304700688227744, -1.580252687310298, -0.45828507439835314, 0.2205524397024177, -0.09814378326987551, -0.26701295632218686, -2.0371491344944044, -2.619093367858799, 1.176105468553964, -1.3911556820831161, -0.5371922555329229, -1.49989511452025, 0.07802455141092067, -0.5155590215035538, -0.4603334034970444, -2.01343596544914, 0.548089264625124, 0.4439142460931135, -0.29783525558322327, 0.6890041545118845, 0.4191216286215797, 1.103414529829114, 0.003934960380520536, -0.7352815784891892, 0.31179594486645834, 0.44303577581108305, -1.1701509561178194, 1.1395282163799976, 2.3096659388958316, 0.6162631412506134], [0.18177488119207927, 0.32691329651000545, -0.429841842361186, -0.7342424004650591, -0.04552533726897634, -2.360133551901645, -1.1085689781011039, -0.3196886496464936, 0.6246346641412039, 0.7892235557700232, 1.0510965392428542, 1.2565536087980231, 1.1311744832895358, 0.4454021771153648, 2.4344520711927187, -1.3524611935444009, 0.6347881469674964, 0.849979057623657, -2.3382067417221517, 0.31167683438393784, -0.06411934099697626, -1.9658810838501246, -1.5463842603871882, 0.43165736459549636, 0.9953116545209479, -1.7583327729932805, 0.08841070823735506, 1.5039288332456564, 0.9578880072287359, 1.2068189268939773, -0.25210171173382345, -2.0240483337740987, -1.5798835670570213, 0.38777273282916025, -1.0039047440223536, 2.266258516465342, 1.3937835973617914, -1.1683788386947096, 0.08519617739073561, -0.5131146740027566, -1.4636956136374122, -0.5534307162550466, -1.1253895382417192, 0.039330120083886026, -0.022331333492685818, -0.2687408006606299, 0.03564148750555314, 1.141095521715706, 0.0324946473354683, 1.1153627917005826, -0.04368062382268076, -0.21604577637451122, 0.28751922333459, 0.9795770033417142, -0.22636983257427926, -1.1490397694080552, 0.4897232981886477, 0.43057327699360376, -0.30059904710735263, -1.1105651341519835], [-0.9729613159513713, 1.0595207510726001, 1.5459929869832143, 1.4952246016779909, 0.20093587876030541, -0.3012823371767352, 0.951136711239201, -0.031984525710476566, -0.6047807000399696, -1.0273205351344283, -0.10777758244519427, -0.302823175210397, 1.0703004490127934, -0.6613240377402338, -0.26446697872350305, 0.10888078577050013, -0.7460493514742712, 0.400944750005162, 0.9611719821125166, -0.9956216110441202, -0.06495734236605703, 0.49110187532886745, 0.6223921349811096, 1.5251979621536211, 1.8230237346619247, 0.2272421365932921, 0.2162297324248222, 0.9084047927468566, 0.15774583825678393, 0.7566136288700162, 1.1091082136189356, -1.068389907257117, -0.7315732786705788, -0.5880823921402049, 1.5870016839090235, -0.3570950227738057, -0.12386526571713238, -0.41370926310184275, 1.2477550681467606, -0.174818535435482, -1.9419066005619359, -0.6168344450759233, 0.4567566021535805, 1.6232437780805997, -0.9654457775023404, -1.236317788713852, -0.8525195963580724, -0.3952180079186723, 1.0568135587793186, 0.1490004696727738, -0.4927594345267711, -1.2632689525401417, -0.7103368855263777, 0.06684066534112036, -1.6608562157597466, -0.40927328177236166, -1.3390366538380065, 0.04473665703011491, -1.2146664299468863, -1.1063904645022469], [0.1453580413317121, -1.5134851964920564, -0.12576414176653966, -1.5372741118491728, -1.2147380587685468, 1.428945319971435, -1.1113518153151714, -0.9688767437953382, 0.04214127250818967, -0.9565904792668336, -0.5552033272610825, 1.5829291674196888, -0.11980710174555995, -0.8008805962312898, 1.480015870214156, 0.5622979632596086, -0.9696520426341492, -0.8502246305155633, 1.0379377667962104, -0.9899702161956738, -2.001333018776877, -0.7202901408825029, 0.8604179774529944, 0.2714523538687397, 0.4310426912388209, -1.1524752645717349, 1.6064353135454972, -1.0843801722069073, -0.6870549843706193, -1.1039381450247852, 0.4873155318314873, -0.18141240015086435, -0.5936488489756161, 0.6294406543875081, 0.05610883575116438, -0.42242396482365085, 0.916918323778562, -0.6276961249027851, -1.2050131332347147, -1.7029094278484744, 0.1561669141243465, -0.15702078770807093, 0.11433726086546807, 1.3183478304138554, 0.40317879119701094, -0.8148022380453753, -0.736454153438896, -0.30566520957847526, -0.930542952701687, 1.8295692825829946, -0.25556405171509944, 1.515053282474733, 0.39954230331687624, 0.15199099297735752, -0.0675239705382158, 1.0759322006484036, 1.9630021212351247, 0.730993616912319, 0.3507191021725898, -0.20346666651313997], [2.752218032177269, 2.7644069826553337, 0.4324893280968496, -1.4540922078389513, 0.727091351267354, -0.06079672566421996, -0.5251786888140069, 0.07352422962631244, -0.586106420919515, 0.33651492158428986, 0.03446472779705117, -0.3231131338291649, -0.905503616334814, 0.6004052474260163, 1.016046943742009, 0.8146005579816231, 1.3456494463314141, 0.3123777394914395, 0.952048122326029, 0.8238742383464962, 0.6723307616418007, -0.2857391019819806, -0.9636065358361218, 0.5339935613755636, -1.3031492194513088, 0.2192529435864895, -1.6124050908433567, 0.05533110802350156, -0.18105979593925284, 0.41724367886114827, 0.5223377437515191, 2.066922725920747, 0.47341687716688, -0.1294808817998343, -0.8520690795354856, 0.3475668038312923, -0.2721366100800781, 0.6881840687484747, -1.47456798222285, 1.0353569278405659, -3.956979077914599, 1.1314932716526598, -1.404320657321892, 0.3680897972293343, -0.20602283579737496, 1.3869038509899183, 1.0472626203963076, 1.1050253926354043, 0.3070646661178451, 0.376429281639625, -1.0565168713777036, 0.6380525905165937, -0.7391743652200725, 1.6997486525356331, -0.02152567349701717, -0.7309902955795581, 0.7279829362162359, -0.47665599286686566, 0.1643419606198503, 1.052733681037846], [0.9802206242109779, 1.5818144327470118, 1.253025707439936, -0.749064706168707, 0.1574058272385534, -1.4892022010935704, -0.6874040422803288, 1.7562917403321976, -0.9561418265839902, -0.15649437130758773, -2.239241427413916, 1.3506752957785229, 1.0321297836190062, -0.869208967420245, -0.17987106080019968, -0.5416037989258036, -0.3334383897841478, -0.9101126752582392, 2.413762687967081, -1.2708181584558267, -0.11897787560794967, -0.500080911779883, -1.0845022890782783, -0.4289087654037477, 0.37865388268672723, 0.8200379662696206, -0.8628196264261866, -1.5272413533928852, -0.25993149299112384, -0.0287967873462429, -0.3536136534545215, 0.9555375114417456, -0.5802798790451991, 1.5673070390116015, -1.91011827486655, -0.6849058744800741, -1.4905606877420847, 0.21736477116523512, -0.9235342718289637, 0.5977508358795276, -1.188426831143876, 1.6368110149229318, -0.17272285824974812, -2.514385740538686, -0.561759496272146, -0.04624853376857565, 1.0565496636044567, 0.21454399684137743, 1.3050515304844856, -1.2184627353930948, -0.398862262991323, 0.7525962488794682, -1.899174034296691, 1.396936454547336, -2.06408772817836, 0.29446432967355946, 0.12696671277565827, 0.1338873773937493, 0.1956031214937152, 0.6442047459023921], [1.9449062280980762, -0.9519703743076491, 1.0143096639603963, 1.0674411322738817, 0.05663719304061839, -2.159900499903815, -0.39018873402072163, 0.9761017809183115, 0.23072832434654572, -0.5812478067618637, 0.4216365262932538, 1.4128542495763687, 2.406311262319432, 0.20688101768290568, 1.4548169368099872, 1.418435664325104, -1.701172663188066, -0.3422324877149557, -0.19192172645629632, 1.842528486680884, 0.8922281365258988, -0.5271049094126636, -0.4681614305139213, 0.3367827980675052, -0.6950257113430462, 0.37529872557684335, 0.28401534236336023, 0.5542050540138693, -0.2651831589777717, 0.19564616092417228, 0.010753958641412693, -0.8331644412433948, -2.3814723286632375, -0.6074859245346036, 0.3291895014961593, -0.37663215979529635, -0.22479863286336824, 0.26009629847492344, -0.027388404969927147, -0.9644408359781614, -0.11336330119668939, -0.7689268886423141, 2.329003688686828, 1.1946890923711502, -0.7162636349196145, -0.43109990276426385, -0.21254495863202721, 0.8906380377811871, -0.4512004508692948, -0.5701037903205265, 1.0262583457183574, -0.3273551773936166, 2.4705694748813776, 1.5408696925496095, -2.1179750661756, -0.39190264664187174, -0.4724902773331058, -0.11688122592771798, 0.814634693617234, 0.6845326709559224], [1.1022312668667098, 0.22097166663493858, -1.4275512782021125, -1.087172539084863, -0.3045318643172435, 1.8333967744308435, 0.466801973240032, 1.6277634001744947, -0.8555138329770906, -1.66222521386997, -1.1775975631381053, 0.4608504080308318, -0.5406146438640543, 0.3353888553937529, 0.1620572473714317, -1.1172937598174255, -0.9321674040825679, 1.988768283398149, 0.5344404182504972, -1.4791310824771284, -0.11739123681688082, 0.42210024057569323, -0.20864541652696916, 0.24351605842003202, 0.5464219559328442, -0.18268088801922797, 0.35352569353517405, -1.8041615533631636, 1.4140617603699421, 1.6533551579224663, -0.49657929555253844, 0.7964088005677771, -0.5360271651556356, 0.7318205883261962, -0.033547850762143935, 0.46099196278655746, 1.0594008203804064, 0.3906349050340225, -0.5012749229833532, 2.397888960021727, 0.39212967140994065, 1.759834894542029, -0.09223078036770342, -0.33954269023425215, 1.314589215092677, 0.14748371867724988, 0.3136885098712103, 1.0173199766779983, 1.2765986729761971, -0.059303236970263, -0.6547314478265308, 1.4119685374758582, -0.0215338076607385, 0.9201021766812215, 0.16417233296631686, 0.16279491213299338, -0.45661834008389296, -0.5272294510749231, -1.1697463299689457, -0.8825485363046698], [-0.2746181361707758, 0.2553911656536338, 0.8036684561974294, 0.2701778671582121, -1.4410804494688445, 0.43136836141263696, 1.1166733402707059, 0.03541758446768827, 0.8897725197264751, 0.2149936042207895, -0.4716012504136527, 1.0825705895994935, -1.7669082486574603, -0.407287641070716, 0.05327219926198994, -1.3433041653115374, 0.6138942432019617, -0.45517426673824296, -0.23511094668990984, 2.2554362676653126, -1.156735945107558, 0.7717806137443078, 1.3156044821345145, -0.8465254556602205, 0.05085175703990884, -0.5227918317498352, 1.403517210598642, -0.19427792435557947, 2.8517386073925852, 0.903760168920132, -1.5776800664763995, 0.04513707472588481, -0.39410975639303314, -0.46814792034563524, 0.1431035051698251, 1.1599590729798719, 0.9587681568226343, -0.9431323591241363, 0.7436251290622069, 0.6953058796543418, 0.7878175517422316, 1.2378345386036183, 0.8946617448259948, 1.4525758081295104, -1.5273770050220947, -0.5126465881569735, -1.1133709868072357, -0.19683676751233484, 2.8994772011402765, -0.08698820014349394, 0.8505472996955988, 0.5275158456822648, 0.914189174176981, -0.6041653746698145, -1.5901525816648483, -0.48594001899008465, -1.0445455488486997, -1.3563525002455443, -0.30960335653233173, 1.8265160081184073], [-0.4751827018039241, 0.9273670646635611, -2.464048411357661, -1.4671700243751895, -0.8924085880809575, -0.20528448964673965, 1.0531223987045308, -1.0599578393289366, 0.5793550932226728, 0.5360463177858797, -0.3789994726152722, -0.1459176445638398, 1.4523461390959331, 0.8875897193654975, -0.1599234409512129, 0.8242834890321403, 1.1473186674765243, 2.3554221592850384, -0.16402169271523678, 0.27345083400077913, -1.5931329926954618, -0.36663969761592874, -0.6138128980601156, -0.8608513786033105, -0.6296785154869129, -0.0908420813289617, 0.5609286662481778, 1.1918283181282365, -0.19427644651056236, 0.36851673928528167, 0.8066809418729574, 0.721888037616182, -0.6232238891641771, 0.621709812079328, 0.3013623689725573, 0.2206745621862803, -0.4462697985436868, -0.6767890241214665, 0.9318230912874907, -0.66939842016174, 0.008108132443729743, -0.7839720146372247, 0.15339680311331721, -0.19192633050294575, 0.1441786525631438, -0.6922298564397141, 1.9099186000088686, -0.32154543638941724, -0.36116989218325446, -0.5796307790353092, 1.7597189961950102, -0.18969902676862782, 0.8684507034151615, 0.4593797677073173, -0.7681414647802519, 0.22146793016455701, 0.7901515702846981, 2.454439091336633, 0.4928661201390018, -2.4364505078832046]], [[-1.3215913375958197, -1.1896773164870709, 0.06944954192078276, 0.6470756843640665, 0.07525870797060248, -1.4175360235279484, -0.7564356337156904, 0.24773135824320716, 0.6751520226843206, -0.14192701333559798, 0.6285412780003072, -0.2644295941334317, 0.9296904658327586, 0.8295843585535319, 0.4628346363192298, 0.4439018369512412, 1.0393850716052644, 0.5840843441289882, -0.32224421894321625, 0.8817606084515041, -0.30501926367871735, 1.553099606206437, -1.471929255390723, 1.7529448378777828, 1.265470921401053, -0.46174518903811507, 0.3673245051704681, 0.8190628220248654, 1.90395737501583, -0.7645373052933305, -0.2698837095302348, 0.32095747748186243, -1.864288160813514, 0.00489663741296258, 0.32479131129413136, 1.1173078824475873, -0.6733196271235798, -0.43729537037999733, -0.35503220603825586, -0.07437475666451529], [0.6388738111948966, -0.637201083295546, -0.9645028639191321, -2.032726156441, -0.029349465041089373, 1.2463145095515025, 0.11359921580313753, 0.4741500011789183, -0.10788190594497145, 1.3531241944778716, -1.1011413883945989, -0.5091133935677089, 0.5947506443132788, -2.036486856686844, 0.18283026510172115, 0.9436850908574487, -1.2247856141158373, 1.0164036991096301, -2.0807220604224996, 0.8025897384668695, -0.6186195630236647, 0.8461431103216265, 0.518878543384641, -1.0295098221318204, 0.2590669487484878, 0.4890538182922332, -0.39624320159197923, -0.1251799433655389, 2.4466701233911476, 0.2620007492132862, 0.027309985233914664, -0.7980316395197591, 0.24081646387088626, -1.1409811750740375, -0.07133156207186687, -0.5507424139558534, 0.5619525962966626, 1.5474633088099765, -1.6576775471324738, 1.5725788612779292], [0.5265513088381655, 0.38124499669645145, 0.571027263476698, -0.7046776357775607, -0.2636360145068919, -0.7719755070049977, -1.163334983524742, 0.7791567028617693, 0.7122769775657762, -0.7444125653715322, 1.8346862215703557, -1.3044691002757247, -0.5127068815971602, 0.3437039227302091, -0.4960456136584581, -0.7280740862462897, -0.1420853217131278, -0.3679552764809511, -1.463029200406728, 0.002881716663446247, -1.6704454601673575, 0.5828399548348068, -0.11728777364854986, 0.05400245258580975, -0.09711188762591118, -0.21857762934596006, 0.8682168319240121, -0.09859399828989852, -1.218789574872339, -1.3924823149953207, -0.9343365076398743, 0.21056022808940042, 0.37124211956304626, -0.2709273103148902, -0.22557395363070334, -1.2507362626737395, -0.9812971187939176, -0.3153922099731349, -1.8280078902966979, -0.9185581866168979], [1.4974506110619112, -0.6754185706188305, 1.4374561164886497, 0.2507865624169965, -1.6159819821288226, -0.23418262179748836, -1.0464641918778843, 0.15894449491004442, -0.3248572769910335, 0.6907608191167058, -1.47192505797942, 0.013089492674831674, -0.13654295886446605, -0.07650772985776512, -1.7355901635457327, 1.329947627844706, -0.43524714313066504, -0.45921711668093446, -0.5297172736803374, 0.7653441344932762, 1.316611921300447, 0.2251513473619854, -1.0600414682350177, 0.6166328760252574, 1.1043852062544064, 0.7533438606820299, -1.67802018822764, -1.5549048234044156, -0.968714973695075, -0.8816225269340993, -1.4522081453945113, 0.07906837347017316, 0.9237440490170838, -1.5594554319412386, 0.6855041569267838, 0.29087486186167494, 0.13934079042661224, 0.282547998821622, -1.1806474435960999, -0.02869331597184184], [1.0754078348609382, -2.4492597697969956, 1.49388531818045, 1.3866331637688827, 0.5795940361281453, -1.1962058350011597, -0.6848694756936836, -0.5605988219383972, 1.052126257410927, 0.12915714641474293, -0.44922609862387913, 1.669255497057057, 0.5687712202978277, 0.5059625808929143, -0.36210336835098783, -0.3963817366180803, 1.3755283709709458, -0.6677962380291582, -0.7021048722775916, 0.2415463358034202, 0.4984722509432417, 0.9080511256067697, 0.23235457262556575, -0.16348819687069757, -0.542569021579763, -0.6731670212669796, -1.0812958992138284, -0.5583218067316529, -2.3520287064346705, 1.1863072531526495, 1.2886183380859553, 0.08419975845615278, -0.47161774383023286, -0.8386702689216534, 0.06779420410560393, -0.5578210966106002, 0.4215256245461019, 1.204436252793388, 0.5084011908737902, -0.993366620708314], [1.6139618037002508, 0.7484656117640961, -0.9615790142374643, -0.07538478997084223, 0.6752223539259584, -1.1613528999019573, -0.20452900812004043, -0.6319677249850757, -1.0736711443726437, 0.8077567255914281, 0.17379815592726217, 0.8158347187293588, 0.44595760994987893, 0.9131485813907337, -0.11258871008755761, -1.3604582995092018, 2.2839721887214504, -1.0052121216570684, 1.2250901946649186, 0.1880023935451658, -0.33331037836893507, -0.25981066676994385, 3.1711482309684937, 1.0824946815367438, -0.6751528339063414, -0.6738158322453921, 0.8567173097643241, 1.7310702431936178, 0.42482030674068694, 0.252328122648169, 0.1908295584864401, -2.28065760828342, 0.17127392283283865, -0.9659120963633354, -0.6399204912384016, 0.7980883340687845, 3.272978390702258, -0.4926949112647953, -0.2580238696071345, -0.4606216510092975], [-0.09186541144961784, -0.17269377501829553, -0.4125672446898202, -0.6505077292447491, -2.1171019060791756, 0.8081453385866497, 1.5946595497468083, -1.9886965051176286, -0.380943201770655, 1.5140296087954759, -0.41311961565343186, 0.8055629089378095, 0.8714994881186962, -1.0829466150883014, 1.2701007813331446, -0.9380902289765968, -1.243861237185749, 1.0351122487268944, 0.9703081232407826, 0.35318188311640714, 0.4096936489749727, 0.07664814920185122, -0.04022310643350731, -0.7045981554790945, -0.8298957603486818, 0.893565832761415, -0.4177106951586406, 0.44383025429993944, -0.08234390741345492, 1.4123761675556719, -0.04934296837486344, -0.7968112258744745, 0.2814748859228749, -1.5323356276378568, 1.905116388602976, -1.2072502892981134, 1.566600829263221, 0.3851287322189366, -0.12367977787657475, -0.4039973620911374], [1.3877382404820422, -0.04050365105698368, 0.749630787710535, -0.36910634880834237, -0.5588148017407851, -0.7494166359508075, -0.5385975634691497, -0.8778145138651604, -0.3676467044778293, 0.7448427723807024, 0.26568362759442576, -1.0479238641139086, -0.4307890134232893, -1.6940950455273078, 3.4848095952340645, -1.504289454517503, 1.3640246842855228, -0.9475085106713625, 1.1673699458118691, 0.7009271017438807, 0.06670411308209742, -0.6597242464825005, -0.9463121111463747, 0.8844808229798176, -0.5590038438216262, 1.963911004480608, -0.16621457664757783, -1.333172948999089, 0.831949031324079, -1.3957468886141342, 0.11207920895088114, 1.0151151427045908, 1.0391866970807402, -0.4957013148420363, -1.069381075796329, 0.4470652382304564, 0.6263165850008379, 0.09772229044097257, -0.8688393040340792, 1.2904038004300442], [-0.3755659699404406, -1.7995032109209472, 0.7172297049155684, -0.3965780392223373, -0.5597191071211622, 0.2686204974190146, 0.5497350976169042, 0.957292578445172, -1.3284875583527163, 0.5746182797063724, 0.0027095169306563995, 0.5705166439542274, 1.382532703112845, 0.5001483110933368, -0.5418691152888084, -0.421858713883607, -0.28130609362208286, 0.0006948347862127417, 2.0080960611769747, 0.6068284398572444, 0.06656891018666737, 0.6335869652813385, -1.3188868372271945, -0.09641257366547736, 0.7234999241737708, -1.4908763040985176, 1.3427974167504755, -0.6698058068550184, 2.196328796074989, -0.02066222435390007, -0.4150557605423823, 1.250511061154206, -0.6301016530385545, -1.475327695676526, -0.8261643350941689, 1.6153038691862625, 0.17380874871337237, 0.6047142642052322, -0.4792747284356366, -0.6220325388593845], [-1.5634547555212477, -1.53595387112164, 0.04532199821296917, 1.5327362332948915, 0.3727676983299828, 0.15174147418639908, 0.19944349585916882, -1.477327510188151, 0.05572283789695852, 0.5263063901899265, 0.5631837547650251, -0.16458814424869125, 0.9293266284325628, 0.623350273141817, 0.562394538681767, 0.7603635391899591, -0.04230666823498293, 0.8862738235409328, 1.1063945362116683, -1.0620579558760521, -1.196938734121695, -1.837724630397701, -0.6315664720326176, 1.547093823853986, 1.1203782509884461, 0.13008877177886682, 0.9671684549324524, -0.452372050314931, 0.8596624021240563, 1.3337963881733235, -0.39932284202663215, -0.8916326027027377, 2.3713272735228426, 0.1668329338724141, -0.758587019128231, 0.1257483803126563, 0.04327888793421519, 1.2153609716982907, -0.00680683195548174, 0.8840736576377114], [-0.9300256350442999, -0.25883742003760024, 2.374883190699605, 0.7514890002538764, 0.05689455443024063, -0.010836823238495996, 0.10180463759391008, 0.9358193592400449, 0.2546929835561063, -0.15109923316883656, -0.19654689790501617, -0.6705771585732385, 0.49319501693293727, 1.6962693559260147, -0.8006491895579043, -0.3174214840908387, -0.31568275167172727, 0.9167199544704453, -0.019562857807564848, -0.7045509639387555, 0.6939244035422941, -0.32714848229967824, 0.41073809668662487, -0.5809377111365304, 0.8860254907738206, -0.9203656882798921, -1.8240791072949523, -0.47232128781758437, -1.7547012757991824, 0.2181930409349155, -0.3107620637639485, -0.15473040749601819, -0.8959267329671231, -0.6387824756348656, 0.36282608852540155, 1.879507837870977, 0.466246439404243, -0.2337885829832863, -1.0009099362832015, -0.98855150185534], [-0.13898395971689081, 0.615659324249052, -0.6687230735997503, 1.199091393249245, -0.5820940600599248, 0.9281278714838703, 0.04295860464320625, 0.29173572984578194, 0.09858677728644744, -0.2229864807088963, 1.9603642200885232, -0.23061965102109802, 0.25920986288669645, 0.5084534470361977, -0.7422033443816166, -0.600098699693031, 1.8509555283705421, 0.09958391280073119, 0.43166503559528635, -1.0273191396166548, 1.5919903172461638, 1.0874708048457506, 1.8317802104114893, 1.217115227229983, 0.785638224169643, 0.1924858332208802, -1.0142642748531197, -1.0596210229457148, -0.9761360689483307, -0.7478456298687053, -0.07198332760655995, 0.7006414183789088, 1.3543279103028947, 0.37672616630558087, -1.257093001519508, -0.8726712598654774, -0.038734059771220616, 0.3382296708592716, 0.39105793618962187, -0.12095835894413044], [0.22992657602453104, 0.3121485504922994, 1.1767072305647435, 0.6942407073059234, 1.2950423457851932, 1.1017881578657478, 1.928942857317139, 0.702876687435428, 0.03133741851986564, 1.0973955007512604, -0.8631777371610874, 0.6296981129127569, -0.6782063439324317, 0.7228537335161244, 0.2373954950135944, -0.6332451400561195, 0.4649924966348147, -0.13772713690825375, 0.14287833718098894, 0.08124330456841695, 0.07072133583119, 1.2518333303377844, 0.2338271923267864, -1.5364826216673149, 0.23092055100505185, 0.6620795061198999, 0.030909084295056358, 0.338311441670575, -0.6568873052867393, 0.7413556216887218, -0.7075193811812317, -1.7178036461438757, -0.057260003101948745, -0.2805793151092127, 2.1331286598041843, 1.835632849433576, 1.414818191788337, -1.2055238816247347, -1.0295972427705384, -0.5326945076381097], [-0.6832101538610691, 0.38138905301669423, 0.8845657441666721, 0.14709680982711565, 0.3730911633045364, 0.09723214079496877, -1.7238648522395632, -1.0308351574572447, -2.3490067892324378, -0.5662288345422137, 2.598644996884871, -0.3320976955815243, 2.7001775563302832, 0.5236435873447748, 0.3873378271786076, 0.6451659350315594, 0.6206008531215864, 0.5806951381459391, 0.5530700340540036, -0.6864363667724714, 0.18200216668486635, -1.6767461460685205, -0.4408554359357533, -1.5536280407148657, 0.7741952087536582, 0.432969490678379, 0.5640298184096103, -1.5664847491501614, 0.6017333477608772, -0.7979795938181404, 2.381790594465142, 2.2438541772299896, 2.2893190224161417, -1.404804464938641, -1.5370952112440353, 1.0468255834131435, -0.029380991643458348, 1.2767243369149603, 0.01936660077606125, 1.1609884192169795], [1.693329307014709, -1.4000361531005763, -0.2681273220088594, -0.16286251040685162, -1.7463763452103829, -0.7119428000243682, 1.7083154506684963, 0.12585479095615443, 0.5031124499204602, -0.7833012547203341, -0.08895312374870566, -2.06711043767791, 0.7499228273781455, -0.28599001156263926, 0.1798100647513032, -1.0951130412891084, 0.664648562083559, 1.135806313300145, -0.07066641096301274, 0.7997042915395518, 1.4158612329192821, -1.3835692468055574, -0.5339164046861058, -0.14820465580940698, 0.6177944045969214, -0.8439163005971886, 1.365340385693789, -1.4573405195081517, 0.4172691645815041, 0.8060972200332608, -0.6576018935157091, -0.8409018271911913, -0.2958260880095035, 1.9085875762983984, -0.017789601796786333, -1.80870850812569, 0.7847930935830364, 0.0807337604662147, 1.6008452886758773, -0.04314692950011699], [0.5450364269205185, 1.7467211589730554, -0.2550869752072157, 0.14490163304078427, -0.11848426274981429, 1.5659475161984258, 1.2473860949860347, -0.024648909803136443, 0.7042139775555573, -1.1879135272207793, 0.03121011542478453, 1.0260068774835105, -0.5433169287142879, 0.20401227824178195, -0.6401871709384028, -2.2682980500783305, -1.1338811681925174, -0.9657166233173989, -0.1264412392164506, 0.8386363942193772, -0.5828444338373141, 1.4985400074703725, -0.8200891069780801, 0.6778273712531255, -0.3402068153652473, 0.4024801340401001, 1.4285922064434813, -0.8388935472051987, -1.7317058878288847, 0.10634083387584839, 0.4590969978885495, 1.4034394626322695, 0.7414493210866461, -0.9537999980535512, 0.31628721713230845, -0.10939449746906935, 0.7119450334852466, 0.944520443645099, -0.5493148118306558, 0.8377361065758492], [0.866389152796359, -0.17284627811387548, 1.240187930271971, -0.5971922803530383, 0.9017050133900323, 0.9244856787647996, 0.5654398264896674, -0.7014400113491667, -0.668529486027788, 1.1024053852560103, 0.9479979381738453, 0.8126950406871977, -0.3519740900428435, 0.30941752176129406, 0.526865578846187, -1.2735419623254085, 0.2888959321485268, 0.4210856475261388, -0.34322091100684937, 0.8001417368074815, -0.5701794736250911, 1.3043230464132949, 0.5744025352315701, 0.2223098167612175, -0.2841021259853751, 1.6449681775025595, -0.5469574621524373, 0.23451317904210822, 0.3689920438558845, 1.6406267991265486, -0.49282129725982515, 1.574773328507112, -0.7059144778077612, -0.6743123435324949, -0.23403734629634335, 0.5989548188981749, -1.3206876273803272, 0.7170618132650164, -0.645196967395264, -0.6829781991093707], [0.9804027244765915, 0.46458884486749247, -0.0320969676368744, 1.9733298716456662, -1.9434801120833303, 0.2760613826138569, 0.5735765510503542, -1.564282403904328, -1.090709151831196, -0.4892825188883404, 1.9969084543806899, -0.8934403889976656, 0.1016742281944252, 1.2183971586202185, 0.8705613399415368, 0.08012043252646886, -0.3603316643189759, -0.21007048072606319, -1.0383664291508505, -1.1739665910642991, -2.692224777275354, 0.458980652640769, 0.6212136382116561, 1.484003392705843, 1.0274447586528355, -0.717348958708649, -0.3166540291594909, 0.09126351241450807, 0.2692300916709702, 1.925305478988852, -0.5361291025732708, -0.20571223683657314, 0.7287426235901919, -0.5401054260551973, 0.940243259963348, -0.37284287420123946, -0.18762988681028622, -1.454367680560016, -1.2312155999299639, 0.528891163571852], [1.1399090962494303, 2.678136356293061, -0.6483260189650403, 1.1245376879922684, -0.2830290028901929, 0.7522080134701854, -1.7155273708292618, -0.6376202463890066, -0.488569633254818, -0.02025167333129151, 0.5226163049261278, -2.1368677328371253, -1.0183116978456777, 0.7971168069458774, -0.7574732557568834, -0.22870175778420634, -0.7749621584220089, -0.7563967981854027, -0.19590727020504595, 0.562553729868848, 0.1588163723778045, 0.3849181998276139, -1.1588311066517456, -1.8405451135825863, 0.7670442172124403, 1.110355513902121, -1.0338023291146015, -1.1604553743796708, 1.1624982882168398, -0.1387737314670911, -0.23156506593946266, 0.3551607891697089, 0.9215202611370753, -0.3875241904985376, 0.3146394796848755, -0.09509478799061978, -1.1602177114913614, 1.3944088980924858, 0.16467816443488084, -1.131486731159001], [1.0197630906416295, 0.2742894266961883, -0.7663988567562032, 0.017450457520744034, -0.8232483254546237, -1.6974568865882187, 0.24539444792916992, 0.34314335195216555, 1.3581464767419336, -0.30976859242304017, -0.686471545501159, 1.4970515337307524, -1.3302991727529427, 0.0837655297508877, 0.7859449084030421, 0.8334701192470261, 1.0234074681536112, -1.7215432402057738, -0.10850229033994258, -0.7719881203109134, 0.3128491998841991, -0.8273802928168013, 0.2763974007545654, 0.26971689446219016, -1.359143017467649, 0.27958524002061347, 0.754277892181742, 1.8627732696068329, 0.4200909668111035, 0.7667768682015074, 1.1713937857264407, 0.021793887972769235, -0.27853647546050003, -0.3762212026421923, -0.1749291624185958, 0.3040089024365566, 0.9628452398086766, 0.10944647181991021, -0.9029640491455908, 1.0074101038641328]], [[-0.8189765179409909, -0.5932326887199263, 0.4244182789032591, 0.9669853631114654, -0.6327597677060427, -0.4834224758220307, 0.6896714498449973, 0.100343027069505, -0.09059247894525886, -0.11951717850965171, 0.49353481929980586, -0.4321122787632278, 0.17114009033073102, 0.030217520305652303, 0.07826697758482451, 0.3751723891124751, 0.9273843280160895, -0.2632744072289658, -1.1933999293559072, -0.44962026105854697]]], "ep": 1500}