{"num_layers": 4, "sizes": [60, 40, 20, 1], "biases": [[[-0.05271303004922354], [-1.0510447847832147], [-0.7317504478324635], [-0.45523232134101405], [-1.3422250677542933], [1.0857375369778308], [1.070709247088064], [-0.5976505689892523], [0.38611887823539437], [1.837003938454216], [0.5128319725385034], [-1.6584533888074287], [1.1523332153521093], [1.9970077343418973], [-0.26849828220427224], [-0.16974895366160989], [0.4394499884799221], [0.08886923168648611], [0.01138447052851675], [-0.25995315901733357], [-1.0800817505012243], [1.049410690906007], [1.1699300598109383], [0.1715421324618002], [2.7361721508972208], [0.8257273261130131], [0.09706545504962646], [1.9543035135368885], [-1.2229600726544547], [-2.181481841368095], [-0.3196498427388282], [-0.15276291510399098], [-0.6696434902595496], [1.533238089654592], [-1.8724909817263522], [0.42477629327437344], [1.3131557099571824], [0.6737600350289877], [0.8511908976641209], [0.7977921252946172]], [[1.8960280452166205], [-0.0763006637785218], [0.2689403969806408], [-0.4788602459361285], [-0.2714575137860575], [-0.18076127080669924], [-0.21876505431403567], [-1.105980657069717], [-1.6108807617753973], [-1.284372455762744], [-1.8898026426501942], [-0.306043495493548], [-1.2092776984315312], [0.4795129324861021], [-0.8391093643500229], [0.46839902976589415], [-0.20673178207505682], [-1.1370681543876784], [0.6561122784651604], [-0.17996852573697125]], [[-1.8888075539109583]]], "weights": [[[0.7433108139707958, 1.4633929441454268, 0.814434755942659, 0.974523428203906, -0.4523585562794347, -0.12085932669379146, 0.385890094362744, -0.47060118147340235, 1.1983412026664015, 0.9706238725778784, 1.9317519974461144, -0.17715768054446074, -0.8808477377085051, -1.7843446512588912, 1.6279929000908646, 0.8332867359859488, 1.0649475933135142, 2.0594155204658557, 0.7320312324091984, 1.4413001173628417, -0.34909659127012027, -0.665986105336245, 1.0280294685059204, 0.4940342901286351, 0.7483762381277295, -1.2511959102132746, -0.3570785542785092, 1.5326794576304947, 0.7709732820315865, 0.5758031018120071, -2.227643598001247, -0.9387879139731651, -0.5233714131461517, -1.7001938472081397, 1.3471457075373914, 1.0039066902262355, -0.8172941950053588, -2.079659611038871, -1.7361748276470141, -1.5436463210946185, -1.1032539558860623, 1.8377137281737699, -1.0484425836104967, -0.24055667831381822, -0.08449118183704794, 0.47715151843781656, 0.6198142861302252, -1.824148319936845, -0.193322280549651, 0.9082710728020912, -1.7202486155987524, -0.6946602535299751, -0.9066678317039412, 1.3337173423600932, -2.1450536703208876, 0.40931838770720436, -0.4524530033121684, 1.553946718200288, 0.2617761154281285, 0.09298837164841722], [1.2711766702482512, -0.4031480703255475, 0.8558412150868249, -0.5868298492273802, 0.42671887994658025, -1.9366226438907292, 1.897339025231552, 1.808744716493935, -0.07448042309408356, 1.1614184322077319, 0.19202749461632437, -0.04015552708190873, -1.0331196524079016, -0.2549843182657691, -2.079834139996571, 0.08080642960200271, -1.6314826646803444, -0.7520070762547978, 0.3824550039826985, 0.1052752497615958, -1.5457698603970873, -0.5655634482650675, -1.5575627965258836, 0.01907639410619591, -0.37068450282953264, 0.2468158911876515, -0.46976875579548416, -0.6981546584900424, 0.910088747958302, 1.0452570549157105, -0.0809669741051261, 0.18027363951070977, -1.2494781114056865, 0.5279422378873968, -0.4104327733845569, 0.5094194939947649, -0.22912659918663544, -0.024090862606406263, -0.16888156513118224, -0.8129519628636204, -1.1893912748623368, 0.7097661934576885, -0.8921498428954989, 0.3115973044368016, 1.1492535909083699, -0.17512137865512806, -0.20958948087914103, -0.994133027145713, -1.169671750043441, 0.2687881044095922, -1.5647047231741633, 0.15545267845679045, 0.4226716824467988, -0.8548304206672325, -1.3052012100129027, -2.7487757304644522, 0.6454246214844575, -0.8864275091411391, -1.051007455913914, 0.26586432655641346], [0.17153341760720847, 1.0273389068168846, 0.8662228398584638, 0.676130711714897, -2.4760679813934776, 1.4908628767177203, -0.04571378151106993, 0.14754569528162223, -0.4509974477856655, -1.1090693688447886, -1.8545399828631544, -0.723837737616329, 0.6507540209947538, 1.0855792981414567, -0.28593711735884203, -0.6104135186351994, -0.5034388377467388, -1.2287727148876244, 1.478627089364591, -0.11466077733969714, 0.5021621250951829, -1.0499407637979488, -0.025174961833528013, -0.04930337217595558, -1.0343317817961593, -0.5539282013077469, 0.9895628465393972, 0.6440914640461565, 1.1332090126080343, 1.2900869059829414, 0.8768170322646177, -1.011050260351199, 0.6561730296888507, -0.4223948560130996, 0.16191946242876393, -0.540583746110627, -1.92164833091357, -0.6507931144806017, -0.24780711032132513, -0.7287334908130443, -0.9064804596052844, 0.44780083686496397, -1.5273894371044283, -0.0059577484080432985, 0.5491513671998108, -0.6825417873350706, 0.5147979130250245, -1.57165670457496, 1.4251533927445161, -0.585953857726351, 0.021449119394782203, 0.7846780188051315, 0.5056460708971701, -1.2717388091153872, -1.360955352036585, 0.6008846987341768, 1.4798321297355486, 0.5666845585546375, -0.5248534530070033, 1.178312052626765], [-0.011627338272081646, -0.7195411290725702, -0.09695479938563081, -1.2874276607329156, 0.08423619335544648, 0.5331092429453348, -0.1627319670860647, -0.2263265026678308, -0.3720839060164903, -1.1441020233408123, 0.6712936607242168, -0.24016031397475093, -2.0185810534122552, -1.1593756302798364, -0.41487283360857047, -0.5193430053946899, -0.15983605728921824, 0.45939374056409676, 0.5802653982817857, -0.24594455715805147, 0.07842483382590376, -0.35821293828560596, -0.36304279902656117, -1.2838360603104262, -0.2846436632654634, -0.23453641962596042, -0.7022931166347521, 0.3625769531017614, -0.3888625066352101, 0.40725361976480334, 1.989084171126293, 0.11775782280472501, -1.2875723072934129, 1.2768928822050345, -0.7369343823134191, 1.6862500037337278, -0.7626760082851922, -0.19211317954274235, 0.4250673611983283, -0.05809808222034899, -1.5540181903962282, -1.2514576906300523, 0.8096028606442064, -1.006711296128988, 1.8047222546006292, -0.3062802156898132, 0.5518245883258964, -2.4871656042037427, 0.13715356937030274, 1.334725386714613, -0.9214299599250435, -1.1521935756980353, 0.6648388166423319, 1.2353550763853955, 0.7848984561616971, 0.7372753615486978, -0.7874874695387034, -1.9103514200145768, -0.987249017964629, 0.9192237110395315], [-0.5571357370228257, -0.5769426737660724, 2.2014389427094367, 1.3660189828178648, 0.342836968831658, -0.08259537582589979, 0.1925991438356629, -1.4517951941830705, -1.082829874076092, -0.17398046455477217, -0.16466335291724296, 2.6521938278794317, -0.3824055012382065, 0.29371032829685123, -0.5340163151416065, -0.42328624507838386, -0.6692993787836468, -1.8447286618174077, -1.0551945752885243, -0.6147146163852959, -0.5444495818886222, -0.46742376801699265, 0.5280219015416336, -0.32442342854699174, -0.29188878603244417, -1.3184259550695774, 0.11059184603674038, -2.0432326896486335, -0.35796376520602496, 0.5264458793160387, 0.446917855625223, 0.08756880880847252, 0.5795392770966885, -0.08245163605088034, -0.040405261096544645, 0.09121364114648332, -0.01964036251912706, -0.951049646487684, 1.4978800710095057, 0.18862183871192967, -2.980206752706069, -1.0184308196223888, 1.1079535229237667, -0.060299538223544516, 1.7002084720702693, 1.3635466020551823, 1.054899737998571, 0.10764683209253911, -0.3955093056429241, -1.5486360591455965, 1.421318148208565, -0.5202419247448883, -0.020850492001698123, 0.7690121801057858, 0.5282152375438642, 0.11933411509366121, 0.2045017845517953, 0.4817144754497866, -2.0287920149676366, -0.9024651833789553], [1.1031481399212137, 0.60242039733834, -0.3608917747287817, 0.6002323252856228, 0.6534653057819899, 1.0960296888085481, 1.3561008388229085, 0.6468656673922697, 1.2284736854309226, 0.9180554643159357, -0.22581955255052172, 0.5706212747070182, -0.18338906433274307, 0.9473976369718903, 0.33154378736464235, 3.001366214406059, -0.9126832281020703, 1.0827278803279288, -0.1662650948770122, 0.55297334407557, 0.9126935118942267, 0.4984850896702205, 0.9577630616504951, 0.3634151494156313, 0.1609606329545597, 0.8106019278033183, 2.183913684235438, -0.06247527603184835, -0.4749754288909329, 0.864647909545672, -0.7414192239362425, -2.1703226283327828, -1.1637433012934146, -0.3467196548396293, 0.7215556327536268, -0.16121925136416732, -0.26444637053446374, -0.08349222499000243, -1.2437922939208055, 0.5581545661419005, -0.3260936354750966, -0.3771330046842195, 0.47510222262286067, -2.4782441241027544, 0.5429153651768162, 0.628318039929806, -0.13369311226767963, -1.9856890569132017, 0.7649067319691354, 0.31895591571606, 0.20704463321946096, 0.513664164587751, -0.54286060101347, -0.7984021886242615, -2.0607781474926203, 1.2732794983955853, 1.0914691093210707, 0.5601578983557279, 0.6240368271176966, 1.2047279022947734], [-0.25303490092454844, -0.07788311512308421, -0.09978538179080132, 0.6441205805066508, 2.1523664993462406, 0.18833403761822676, 0.22530155322609147, 0.26801990993827085, -0.11356317664577856, -0.4819328446128745, 0.37955043801421756, -1.081915115235612, 0.2312360326552087, -1.9707055418543757, -0.9160601385815733, 0.6159078267645626, -0.48988325881908407, 0.28687855185319244, 1.6427499266642442, -0.6699715937293088, -1.2649505247587676, -0.8418338200171224, 0.5867004096644608, -1.7289264750356235, 0.868686882834004, -0.5436091614410604, -0.16187595652102404, 0.9578140656218466, 1.5395655665629453, -0.8937538908616777, 0.4318415818190257, 0.2734945210015253, 1.5216382948786091, 0.33503529950470984, 0.46141869047235634, 0.5057023226165066, 0.21439046509378798, -1.6505853851758456, 1.3236721202744215, -0.8760052509931692, 1.5388171095971466, 0.6562695694532236, -0.5934049946789648, -1.521958827013048, 0.17804614861155177, 0.41871130675482826, 1.3733560461211365, 2.1089409203186418, 2.5629960872702746, 1.1154304221788232, -1.0792639877834755, -1.286676634980845, 0.6798609542849344, 0.23358922614819563, 0.6744761648949061, 0.02952579831080661, 3.1335817399878265, -0.2835954735081686, 0.6335217592815304, 0.9317298433520912], [-0.5715529585596525, -0.3393818785660006, 1.462785760625342, -0.9919515639215645, 0.45404727089229235, -0.5340056120439045, -0.10559628220807447, -1.44264906598345, -0.21625174570707048, 0.15256069208509468, 0.557898665294866, 0.6795503650159899, 1.7225943863778779, -0.3887140322034542, 2.497220944460638, 0.9726995430768847, 0.5669019720379418, -0.9454989264367568, 0.3210523310105923, 1.648688642025639, -0.4809875340454494, 1.0599711671166088, -0.4044201535030646, 1.2491758711155356, -0.34457156629192004, -1.785491561036346, 0.0106057188821411, 0.9943583539891706, -0.3186442878542707, 1.2511605913614572, 0.8583776554716371, 0.9885777584840251, 0.5640804251456913, -2.0826919278238734, -2.2608185154765903, -1.173178033644287, -0.25652254771695254, -1.4936787048418343, -0.5617342763313226, -2.8796117182364656, 0.9364037744139929, -0.8598770653913339, 0.03607603314036957, 2.0083527207131064, 0.8387823565227521, 0.43839649126998936, -0.483394858817532, 1.4281320085290747, -0.8781035308462323, 0.8034138630883279, 0.3312657045647612, 1.0461023254371127, 1.2635329286093602, 1.5281373559322438, 0.4948808721587973, -2.26612743881676, 0.7055848762068266, 0.2550597754596699, 1.9387113347618758, -1.4121482373848577], [0.20288430377216293, -0.529465828114302, -0.037994634950063985, 1.2871433012120432, 0.10815654878892157, -1.835103685423958, 1.0596262828873066, 0.16951191719168063, -0.34303983915733416, 0.9690572934626155, -0.5354366062103282, 0.05092966055924615, 0.7808124658628036, 0.43580324427378575, -1.0027796302778895, 0.21740394436798754, 1.3119122541272712, -0.39130887710129886, -0.29612257568973765, 1.106075508232292, 1.5579397025065942, 1.0285218574822916, -0.7366021504901014, -0.7446695701989684, 0.40141532523440693, -0.2506130575752696, 0.7587664731177176, 0.7519627521120161, -0.32867684731239666, 0.45433690305011165, 0.6274020661357655, -0.2784967932332106, 0.3741091178602501, 0.13711875114033237, 0.07328765357411533, 0.16572200982468938, -0.6116101588044899, 0.534395883055764, 0.5009951123288141, -0.4091945834070747, 0.30272697791788555, -0.9764672353970311, -1.1857316000061835, -2.5876000849503695, -0.8482436379531251, -1.3054693369412598, 0.7092188965027597, -2.868486253626109, 0.3657192811740368, 0.5006121645473195, -1.3274116906100888, 1.3655859496174676, 0.26163516904316864, 1.2897999776979223, -0.7151931974286461, -2.0806662602104544, -0.3524127528257508, -0.8534916457067421, -0.5495229111707002, -0.18368853141131758], [0.6403541817017666, -1.4725412714365613, 0.3507960564044916, 1.1705636243661997, -1.749238120939868, 0.250327159433171, -0.6175539340869453, 2.2751206816767007, -1.2612769588202213, -0.6637682335475114, 0.3033232256765501, 1.3621272312071215, 0.4578807014873413, -0.7583301839188022, -0.18280666815655616, 1.057479377765788, 1.1104094025460194, -0.35056381786044, 0.8701081414869236, 1.0764687698282223, -1.6868192641741733, -0.5339785656157907, -0.6274105849333481, -0.47587618652440905, 0.5462820987344822, 1.3360988115192587, -0.9360936251840841, 0.4872674086892893, -2.167730136450407, 0.5864770501345898, 0.10855054838316029, 0.9549989410177677, -0.7180110239437888, -1.4635692239425349, 0.27532585987982533, -0.6350987082252648, -1.5264427022897435, -1.39129426937454, 0.507102134977799, -0.6846760042118913, -0.3249334178920735, 0.07633973660297672, -0.01574500985097563, 1.435831798801195, -0.12994671656445853, 1.4389024268319808, -0.6480137054354024, 0.09762270698573511, -1.9731195432673234, 0.5637493035901204, 1.3091194300604634, 0.9262744730120258, 0.8162549352027354, 1.0854274524139436, -0.0445843420354512, -0.2602529483985623, 1.9052256799467446, 0.07986719260998994, -0.35494900528872736, 0.39109098933345315], [1.7048911093169465, -0.74585754206455, -0.05757178941586731, 2.013391915919945, -0.318158445237722, 0.691447082556015, 0.9877817058737275, 0.9267684544223815, 1.5843394406446252, 1.3627266006140795, 0.05729648525249288, -0.7302576215342728, 0.9472662792903487, -0.9036675458510893, 2.4452958755666376, 0.5144618408367437, 0.14274302371557307, 0.5929192039231791, 1.1636240462271212, -0.5208756921285725, 0.30490387869337887, 0.21160629301795855, 0.2145824770967637, 0.031907823257727695, -0.19339027330833056, -0.012352086943015352, -1.28752664863892, -2.5340266926137835, -0.8283576236575149, 1.1145492265081867, -1.2020728052627945, 0.14435636828967807, -1.9529698307227523, 0.45474244163691074, 1.5475183507053494, 1.6246663682297577, -0.9958156948458444, -0.0362457614564045, 0.09755519500485967, -1.7513395814080897, 2.4036351469920865, -0.40197535508612253, 2.3363360472932735, -0.40883179343964865, 1.5382134178395495, 0.6265170143524063, 0.3529366593867542, 1.4171945022728536, -0.4452296976810985, 0.41999664680797466, -0.4770331312632645, -0.08283311068849254, 1.1036356378233567, 0.2095532613972558, -0.11757474092189431, 1.0924412718936036, -0.5583729677034568, -0.09671490774012537, -0.14181107615012542, -1.294137035571709], [-0.7359006287118487, -0.6475581819097048, 1.0661796095795526, 0.8936569203203385, 0.6499393991912122, 1.841725059737002, -0.6039926815541856, -0.34819162453805497, 1.1992738952784647, 0.3689866634514312, -0.36918346315023803, -2.1343419001946558, 0.5317734056901511, -0.27327909393173144, 0.8651010643194587, -0.6738728212505372, -0.003346939069302158, -1.8610506007224459, -0.04482358197728951, -0.6180746621453264, 0.26928290156776413, -1.9465918107756883, -0.2661937124802991, -1.5394686376096798, -0.5443044491071563, -0.6085009605959388, 0.32115429001124407, 0.7625246045338288, 0.06630999444104779, 0.6311294371605033, -1.9820751565599413, 0.9584556611768189, -0.3554056125117055, -0.24607601252512865, 0.6915876145803334, -0.1454087011377614, 0.5644750908149887, 0.0414930060262087, -0.3443457069981285, 0.36324670117315616, -0.5438940862708999, 1.2830303990030265, -0.838698862421359, -0.3209003358243911, 2.1159115097656445, 0.515388999586546, 0.37480376281225547, 0.8330895845106957, -0.5411801636930882, -0.3927448625809634, -0.34680037646936374, -1.2405801804159728, 1.0688491028369986, -0.7991014199858383, 0.29893704447935837, -0.008255878161840813, -1.2181896021186551, -0.45804136434711124, -0.3741391484204383, 0.8161010223364717], [1.155623141369941, -1.5649640417584318, 0.20783640582432514, 1.1293773944116035, -0.6077087301990842, -0.06694884753073645, -0.5378950964392998, -0.2675539540801271, 0.07818514431208018, 1.0358167364172284, 0.435818168350205, 0.782548578561782, 0.5256182466362721, -0.006993564599847601, -1.5559783095555408, 0.18297809128827577, 0.4894027199397831, 0.11222688101387118, 0.15930503761265746, -0.0389763264656113, -0.12635515661167493, 2.3275546917589374, 0.6865433495496043, -1.5201461200028197, 0.46823489596422685, -1.129081461325139, -1.3285122719053877, -1.536458537320627, 0.37969610620108585, -1.9668043667922024, 2.1995915087033375, 0.44446907093625776, 1.0588931699039053, 0.345610588800997, -0.559990515869367, 0.388737535696082, 0.4785046691913262, 0.11772317174213326, -3.019988919106521, 0.03440786729534217, -0.2529533567165971, 0.4235514903181758, 0.7051835821696185, -0.029556089121326557, 0.3356222155970237, -0.86269331563331, 0.6703020969802854, 0.9371424193439976, -1.1116797299742658, -0.7647948845031424, 0.5247306793865034, -1.269498244253633, 0.493955923450816, 0.1836445597250115, -2.1067278217488026, 1.5066627025872945, -1.004038659490382, 0.8095997451257756, -1.8989810319411982, -0.33057024136540075], [-0.31938381455285864, 1.3620322035022496, 1.6617488886247733, 0.3931156360147235, 0.11921605086855024, 0.3512620482526512, -0.39105084109581734, 0.6822176053045417, 0.2806250744244239, -0.9376954587651032, 0.9806020149512802, -1.2489189633339206, 0.14401442141556356, 1.4900093909006158, -0.10900903985590853, 0.9865611393953154, 0.8578058393400994, 1.4049651164354227, 1.0910917216401246, -0.7724794679106488, -1.7405195631690524, 0.2113685880247999, 0.11048475186508533, 0.16234229660223604, -0.8857940630457227, -1.3479797923095107, 1.543109892630864, -1.1039002714321777, 0.3809729445875915, -1.0789588639237457, 0.015525058552301324, -0.9172943807188114, 0.2788612918527067, -0.71076032822633, 0.5265780192201012, -0.2894004142598007, 0.5676158765580369, -0.9034763933234277, -0.5682728200047358, 1.0259279906917325, -0.6578069907479694, 1.3115526547649359, 0.6814958640717913, -1.2064113685009696, 0.7952061859510977, 0.049798544523256334, 0.06012354646937751, -0.02401333298400931, -0.7818432576567059, 1.6171048574290632, 0.37169745598970955, 1.0368635564386541, 0.8115818879993004, -0.21004027593521649, -0.7997131356617824, -2.555899063244457, -0.30434683044990785, 1.3066609106915885, 2.22508677479377, 0.37813137391446155], [2.074430810712489, 0.5368534155494452, 1.1564507765898542, -0.19369594839133275, 1.5657663969763067, -0.3931189880250823, -0.7660274818690184, 1.23150159191345, 0.9879339343667811, -1.9782332973237318, 0.10591693147521684, 0.5800960438960319, 0.8860444082755098, -1.027966192432556, 1.635951945707413, -0.34071393040191794, 1.2847570507918455, 0.3167780148169324, 0.3418477266197853, 0.2999996839936199, 0.21046655935638225, -1.0905650084033982, 1.3856310971265657, -0.7280310784459073, 0.7064080425780708, 0.4581199173203541, -0.12416421028509647, -0.23944215486844525, 0.8691199986111137, 0.8494978572894439, -1.0806936522004584, -1.2617208064864032, 0.8865388396931639, 0.557481422582064, -0.3994794765995912, -0.9261074671679098, -1.1210495242308656, -1.371005889066604, 1.1392491139301217, 0.5899541104951754, 0.20760644564222705, 1.0557969866578858, 0.7158802616017896, -0.482793918581464, 1.1795627138002154, -0.005117132242695839, 0.7242348834975691, -0.5995714445650908, 1.2586161513174317, -1.0621472546800752, -1.3610163822329182, -0.8557174130106047, -0.6631195069037203, -1.3789357765476675, -1.7556217163978896, 1.4304473082570281, -0.28043859256088216, -0.8049690310600798, 0.1846139577346964, -1.1082757908182468], [-0.9351683913377254, -0.18053794626583797, -0.059004468199345995, -0.5621183300256527, 2.2514139222941236, 0.9889934642290122, -0.01171580083594671, 0.492349272341279, -0.5145853887821942, -0.46236415639519846, 0.8760593737645329, -0.6387391045705272, 0.5147972928692492, 0.9134146154971262, -0.6892315047476911, 1.572973867645409, -1.00030365773092, -0.8219702027897204, -1.8093318996184686, -0.6083968064308511, 0.4082298499108531, -0.10877360771965304, -0.09209754931503566, 1.9926620760418603, 0.46778381229556526, 0.6338380773046413, -0.9057647293003804, -0.5046013212350058, 0.7676357786782257, -2.00680929357069, 0.643190190262188, -0.7752885434987347, 0.7467567706645718, -0.45180654457565944, 1.0462813962667814, -1.8160649540086502, 0.08657702076319893, -0.9965916888341091, 0.40959062977454735, -0.48992300151157264, -0.21663699930574876, 1.651096676447841, -1.5875978097113548, -1.1568107437608097, -0.03894909596353345, -0.8459795127119988, -0.5010572043709928, 0.6586745988608642, 0.6405922494870209, 0.36771697605870374, -0.7487220459569035, 1.9214280235839922, -1.001663716973851, 0.49895688234301105, -1.0125805329506425, -0.7314880242874251, -0.4711071303573848, -0.27499460238026074, 0.48551988404270363, 0.7779249926231682], [-1.204464425006189, -0.7592585418388949, -0.17744535063785147, -0.9105681051714948, 0.40943191237426185, -0.4443054543132415, 0.7876072559611378, 0.9040796698995233, 0.7392370573940087, -1.4634360856375654, -0.3876120253222264, 0.8809331024729027, 1.3318491223275322, 0.041743561362031806, -0.43905409023229636, -0.9137738443215693, 1.7194627476541455, 1.0362371026798096, 0.9514628517586158, -1.3737437520671079, 1.0224764023478579, -2.085687553651018, -0.8373390881534705, 0.22139450227681334, -2.140470259470989, -0.1594359851967796, -1.4415060798178503, -0.44771314331917145, 0.3229833848850135, -0.433234430918725, 0.7824170920881048, 0.5425335308943936, -0.23256983225324218, -1.0649826229069408, -0.035983555991538095, -0.09049657654973138, 1.5449042123587426, 0.19030844063823885, -1.2328028433165397, -1.4891912848183912, -0.06651343023641769, -0.7276819960107622, -0.7286571966830667, 0.13639303497739017, -0.6250591103030225, 0.12212701151240438, 0.601927475696604, -0.43620807521815214, -1.0621628416303248, 0.424409909934272, -1.1347931499714121, 0.17472181063358955, -0.9729026615786297, -0.6261932929572227, -1.061201598834775, 0.3763696644198292, -1.4609738925838984, -0.6042021082602744, 1.6176493686971904, 0.36516941937727315], [-0.22055915891044403, -0.05574104912128922, -1.0729330547909453, 1.1979266489111409, 1.2601987407730355, 0.618832613259344, 1.3967492218367332, -1.6349810672223328, 0.4234364893350591, 0.7233493471090502, 2.0151720399382382, 0.5486090090539941, -0.8174403324279289, 0.9568095798538673, 1.2153037742803094, -0.5040648626292369, -0.33879330917796946, -1.4644810554436039, -0.20774031193750922, 0.9684614506547072, -0.6069287448159567, 1.380413904167535, -0.9851686143914147, 2.9471339984850857, 0.714233353364128, 0.1648441367120752, -0.9420691772508466, 0.29715218790635345, 0.6538269190222725, 0.349882756360477, 0.060445277460187415, 0.7512919422248955, -1.4259288073084042, -0.172861144571017, -0.8565289149010574, 0.2296006563843934, -0.7066716506683675, 0.9946191195517645, -0.755486210970606, 1.3064678998177481, -1.166004406711099, 1.3349504204198177, 0.33803864454691585, -1.6347240553151032, -1.8042763144348768, 0.829521976879903, -0.4952149774052631, -0.6023557773424422, -0.4818676260812222, -0.9830656674686166, 0.31234537271559254, 0.2768858361458178, -0.37276914092468016, 0.4114793952762373, -0.9174216463134992, -0.8342936736868986, 0.3894554654415413, 1.3456134501181145, 1.9525213089595441, -0.9147102101553395], [0.8175646569467047, -0.37801926700518934, 1.5493277287309204, 0.8050263000141553, 1.5549638744613232, -0.13575578938232974, -1.3808080902315172, -1.5789895704507946, -0.6305334151242397, 0.08438989861286728, 0.6806560080730959, 1.8279292097805802, -0.13294713602317257, -0.5978067391396343, 0.8970618972116128, -1.7075310050077508, -0.18975205418912472, 2.053460236439869, 0.08897310339603796, 0.04354012465017952, 0.08847766625963668, -1.1977995845996114, 0.10749184304067307, 0.41247884940109336, 0.7031239737803664, 0.6902475139134582, -2.1662343167746405, 1.1305774696783544, -1.1126186161398723, -0.7054196682745758, -1.2120016938037266, -0.3170194143284805, -0.604215267686777, 1.1997355401140075, 1.0431001585107693, -0.4991282313622762, 1.9120275101454156, -0.40592887671767364, 1.1372561955830116, -0.3827964698256087, 0.3179719790665143, 1.163990761143949, 0.19022769526089373, -2.66530928515015, 1.657091503463946, 0.5801693917372085, -0.6201574721479324, 0.34878571295201416, -1.1471567266241633, 1.387770368399333, 1.037657547241351, 0.3612577923862562, -0.2612490252681521, -0.4390458095628235, 0.7926085374821287, -0.08583146169031541, 1.4116579284989657, -0.45544601560343767, -1.1329096100586946, -1.448397653241728], [0.015354376152690965, 0.22585101178142933, -0.6026471519781383, -0.12324288940140998, 0.11120436420799945, -0.37448764727895906, 0.9853468623239674, 0.71222376642364, -1.7995775085053747, 0.7996946443708355, -0.2863706026962221, 0.5880032902117395, -1.4918282001289038, -0.3892827570277535, 0.6303600436565545, 0.12060067805306797, 1.8162517528523052, 0.28625077723903125, -1.0231780171396594, -0.014548024251018928, -0.0756571587500062, -2.2635522684336182, 1.1123813591542655, 0.35941322528839786, -1.0864786255315217, -0.48992666055385126, 0.13116569291454905, -0.7994630271667058, -1.083017646414835, -1.1104916020049251, -0.6420246540290779, 0.4649460098384327, -0.61515667849886, 0.1258808600305506, -0.7958631962148102, -0.4502631435056677, 0.59789489347862, 0.7882686544914912, -1.243823181423667, 1.0814495780168873, 0.17577129026347632, 0.7051853251855706, 1.0783498035339996, 2.0200192661146117, -0.3003540272996182, 0.9107434913068728, -0.6307119522481371, -0.9920923243538207, -0.7249639334580271, -2.131175515271984, -1.6745746653752052, -0.00481418817503088, 0.11320587044518113, -0.7733826602290231, -0.008068702737642687, 1.3003220254748054, -0.42055497894693183, 0.7159162747604783, -0.42047468123768766, 0.07509295736958162], [1.3241817562042126, 0.9161998723571486, -0.949505008765002, 0.36794079696281884, -1.363371873930633, -0.14123013446642138, -0.09703116875184835, -0.7140941575816334, 0.5719447272049322, -0.06719618235958011, -0.5536979483937272, 0.7467877898551536, -0.23111761425255686, -0.5575869670733605, 0.2800037550954599, 0.26722351402343947, 0.08314393837153153, 2.272365785297171, -0.7241701451595145, -2.0672641664367033, 0.7468437907961061, 0.32158512566665004, -0.002119831073793142, -0.6567234395065216, 0.016392964950712397, 2.224198681820876, 0.33736928401765975, -0.254778611720935, 1.115689578672012, -0.25877970082738966, -1.1500132976266777, 0.9809202497772844, -1.6320196101347617, -3.3350714120634883, 1.7264641388770552, 0.856461927869675, -1.3802127007472365, -0.09804645817261125, 0.05062385423013589, -0.00143921539781784, 0.12047713640386573, -1.4958444810276508, -1.190530391768819, 1.2817156506179381, -0.7888174988680888, 1.0116143598285057, -0.5165979509084877, 0.8100139438901797, 0.018530854825382345, 1.2522242907186183, -0.5378954710627162, -1.5003750828961542, 0.4532904003241697, -2.2215919407652414, -0.38161875669453377, 0.05706473288696128, 0.17259897972977342, 0.8996043171147602, 0.10712041922780244, 1.1156411746810124], [0.2284901517527389, 0.600767168867398, 0.9474797326049018, 0.7222911267217097, -0.1361100977163979, 0.4816756318534982, 0.34161998567058116, -1.1258089969345295, -1.3875313255566482, -0.31304736903965064, -1.2035323959781439, -1.9977190045475117, -1.1923020417115282, 1.0143237248583388, -0.62930901938167, -1.4271241587354584, -1.384824530089951, -0.08043879339312426, -1.053144224802249, -1.392562279739487, 0.708956363525109, 0.20647202067776968, 0.863828027405514, 0.07016294624880884, 1.5300181449114396, 0.18293878366216937, -2.1984499933374892, 1.0733518287051185, 0.026066746564333155, -0.25882736503577414, -0.1198109264053506, 1.1798819262673017, 0.5764891131319358, 0.036190699430811234, 0.17071940596584728, 0.658360317835262, -0.23788017132296088, -0.38834434941825785, -0.1305991281197532, -0.3761496980867328, 0.03821307116559191, 0.8091270982275263, 0.6196489200893035, 0.16480661478561026, -0.5950747470243019, 0.7224788020787537, -0.5551467509652394, -1.7572288545632526, -0.11925095095476385, -1.9991886064622435, -0.09655979769011129, -1.7382897891872486, 0.26511612763358705, -1.6205165594488138, -0.2473461277778498, -1.0737500521049927, -2.0927861655369626, 0.16277542301825, -0.7454198641331244, -1.6605617279374103], [-1.5493306137810061, -2.241421689556285, 0.5644244765188039, 0.45454428107208134, -0.0234440028135925, -0.15256252027766412, 1.4404174784295634, 0.7441838990596126, 0.967900673878451, 0.35565726460958863, 0.37763954238471076, 0.794640915686554, -0.9340186955576736, -1.2550479017092881, 0.1328584007813188, -0.1233298299852023, -0.5626936436128106, -0.2996508350857618, 0.3409117643103569, -0.9763885735997389, 1.0999413600426062, 1.1622192753329532, 0.8992924210740828, -0.06591335983698145, 1.1630999652656246, 0.4980152137731834, 1.0706118309105455, -1.4670032861613385, -0.804673134757217, 1.0474524120721722, -0.6801343196420552, -0.5040594650013659, -0.3747663217724409, -0.523916161147054, 0.3052637901892184, 0.25628557346750686, -0.13189630881043973, -1.8979462179556819, -0.1908526365333248, -0.37225470782894154, 1.195330327095796, 0.14307078444944407, -0.5056166962312832, -0.362201421990163, -1.8930437603814525, -0.012364281547182358, -0.9616174027713026, 0.7435519607270407, -0.9497164520524292, -0.5212889842884207, -0.335424220532103, 1.2543159781320967, -0.28560604568089626, 2.159887509249377, -0.4277140201955835, 1.216604490449809, -1.5227240364345853, -0.9296107991812121, -0.22479976352183811, -0.1707233768356528], [-1.059540584043169, 0.713824027621555, 1.4083671991489592, 2.4557779518962137, 0.23081545754425198, -0.23889384202697517, 1.4801842683062842, 0.6036444218338511, -0.04978351250803293, 0.30319075162949033, -1.6935878136934803, -0.06959737168216447, 0.6617292383297737, 0.5622027101378465, -0.7792452942369859, 0.47041210978103143, -1.274293613903559, 1.4729208480101297, -0.1557734937380975, 0.4950088823588645, -0.11431839852426381, -0.13496219866666043, 0.47855615812271673, -0.47725041860864736, 0.7775700949352745, -1.0603079575651322, 0.24947767744048494, 2.297630917815909, -1.500464519080548, -0.41416401626446014, -2.190948443291314, 0.4268503748120334, -0.6198154456179699, 0.2231130987363889, 2.015033198164363, -0.7684375853188251, -0.4461129017175992, 0.1446151832353415, -2.532855785738212, -1.8499422134290073, -0.7275674113809735, -0.2437285075598109, -1.6267768433449448, 0.5475624868596117, -0.5595168599190913, -0.03884270549270043, -0.6925698010810871, 1.1521869053540008, -1.3811998526660567, 0.21008988187953423, -0.9036129260907148, -0.20471696496725603, 0.2621826325494908, -0.49656843098800046, -1.0720615492478005, 0.6625883756352535, -0.08059123465805029, -0.8567588431095973, -1.3782142049694415, -1.7548438810213802], [0.3393689759996129, 1.7440970200918458, 0.5862729991592379, 0.819040391377344, 0.44556553749804517, 1.2660242918069853, -1.2341482150192724, -0.933364700539305, 0.19200658856630748, 1.458668735221395, -0.35923763673923476, -0.36624553501132806, -1.6210978961912232, -0.8045417597684319, -0.9240751921850817, -0.9617828953530642, 1.714514053865277, 0.5643032948947353, -0.4832815580765613, 0.8978218394264094, -1.4126873115724157, -0.1984108029684501, 1.371452816711075, -0.17767572164961049, 0.23411760271447846, -0.3648306928549476, -0.8141333802121821, 0.5357737309286325, -1.1935084217184162, 0.025901750818154042, -3.457649286268784, 1.1623706046533981, 0.25861206226122163, -0.08585573180635483, 1.3150200895934858, 3.536989789922885, 1.3830733476180308, 0.21617896032188333, -0.2512001665742254, -0.4523541305342234, 0.020103187718435826, 0.48814039674793164, 0.5661207719893617, 0.24846405420959325, 0.03984241842883176, 0.017787574862377902, -1.6883208050708456, -1.0650105727235475, -1.8133947897655645, -0.23012764867190252, -0.8177651353246838, -0.3649981547956149, -0.12416311583207476, -1.094180406826773, -0.0013368304607687103, -0.8979887366323274, 1.4323564009871457, -0.40416611182580914, 1.1155173519492152, -1.943346727738377], [0.39840031461612313, 1.233305933579292, 2.1913528865895033, 0.5252941758490179, 1.5664185579467311, 1.5695542223464722, 0.2946995460560096, 1.4156594943008505, -0.21479789512422298, -0.8542544620960164, -0.04558314949125407, 1.8096273236228915, -0.5306063098658657, -0.4798318413864821, 0.08482354210866407, -0.20051847561299657, 1.2820143392007946, 1.203063139646586, 0.12178162172271831, 0.8015597389871814, 0.016804142731239, 0.34938835858297784, 0.9936348014572179, 1.5165312458017455, -0.2871363397012186, 0.7918521776180419, -0.4528026399485708, -0.8764142126097533, 0.5386853029301707, -1.007481252301373, 0.02893517426737567, -0.283131256293134, -0.6184578701818396, -1.4883891484146696, 1.033052327949626, 1.7769101272500187, 1.287812882480911, -2.0624350776262625, -0.8394977346010927, 0.826853215359599, -0.8720478205445475, -0.91284890461749, 1.1794928926076291, -0.07514989585195006, 0.3053967298929557, -1.1739855117423315, -0.4642923851656454, -0.9345477549670818, 0.9404939518337774, 0.27441918790493064, 0.24942636183771855, 0.14091745518975357, -1.1083841499314908, -1.1826925319971335, -0.12349986265250458, 1.931016418325309, 0.050810492671177224, 0.13078633686453292, 0.23337801123975366, -0.04354111558486336], [-0.02075167935968997, 0.02906484088980642, 0.5056723592946721, 1.5608351829373577, -2.3945107963293415, -1.6314866117539557, 1.4472293176445716, 0.7481812209100183, 0.14612652175673144, 0.30354772669932617, -0.7891326467825234, 0.8460062893265717, 0.2673815398956237, -0.8119052626498727, -1.1436033721200571, 1.051485707514162, -0.2530684127374784, 1.206799606426982, 0.50528454217405, -1.0089994934157611, -1.122750730809659, 1.3840146018847779, -0.6513969184747548, 1.2003721757057282, 1.0274184736518583, -0.308250632906867, -1.2386113820998275, -0.07396815575552974, 0.2594890136319132, 1.2023446671155595, 1.204171825587586, 0.5958722315459705, 0.5460023086167244, 1.247756651951595, -0.7252969065171848, -0.19947167878678115, 1.195478461183408, 0.19287249147952618, 0.07592110469027408, -1.495394802834949, 0.12168718683810811, 0.8864997330607879, -2.2191641941379245, 0.4666118583767329, -0.15491865408886718, -2.641019863113669, 1.3114996571188613, -0.341512564909922, 1.9284735271794395, -0.12799443781102077, 2.2357299631708574, -1.5108178703275728, -0.8123255266456159, -0.5422912055873094, 0.644161104368034, 0.43888831773486064, -1.1178286076435566, 0.8670787361408854, -1.0325230381329094, -0.4078893168814316], [1.334704821254996, 0.005942055717724601, -0.36961992211753086, 0.45321349927348137, 1.7753229104543773, 0.7551357235410345, -1.008286495762605, -0.8154888272027714, 0.4564156068829974, 0.6495569269852153, -0.31428292161991395, 0.5068580107236726, 0.6527303310169924, -0.32857770272019693, -0.5903124174718228, 0.44007153287679607, -1.0223660088844178, -0.4679606705222847, 1.8561567627022197, -0.5039523449389807, -1.2073307552414487, 0.009172284938234031, -0.3152215524560122, -0.8542981962826874, -0.6952257597049161, 0.9785580473191218, -0.06293181313174642, -0.3643922174442235, -1.2788373656233527, -0.36767313695558723, 1.0514539333553479, -0.025966610686025498, -1.2196263323215535, -0.36444015633590715, -0.14426361778844737, -1.05081185629261, 0.954145417608754, -1.073606046335608, 0.965700548744642, -0.5335368247096759, -0.15072014663234024, -1.2607540711122465, 0.3423766559547488, 1.0078705867424482, 1.3403717787045464, -0.9472860749798928, 1.7768310752459693, 1.8944594952734992, 0.829333594693084, 0.4724448606494307, 0.11630159664629611, 0.3541490382833833, 0.43686260720551207, -0.3400194230729119, -0.22239254449958862, 0.48492631646083395, 1.0763005018132605, -0.7257284362940386, -1.357314310225244, 1.1048501138649016], [0.5562129823955617, 1.8647038643487273, 1.028223444441875, 1.0127533007887675, -2.1906443102295996, 0.3907221415401133, -0.27815047631695705, -1.8875582193496294, 0.3029833127577333, -0.16531697398512377, 0.28663238573260724, -1.124406868127714, -0.24392717205708941, 1.4511850591337665, 2.1118295840541843, -2.092493355206456, -0.13794086886508197, -0.9213117734126898, 1.7574654485722456, -1.2772801522565982, 0.5229450698377834, 0.47828152636525445, -0.6464887997329734, -0.4084905441855518, -0.6571549503223866, -0.8595996050722607, -0.5574676312137898, -0.9773030876727525, -1.2447783164471065, -0.263404472512086, -1.0075703345686342, -1.4095909930742665, 0.3928058965586957, -0.18709008529915427, -0.29674005212502863, 0.6459130417844287, 0.12681150248207945, -0.14712679168724993, 0.17136797395586986, 1.31984047095211, 1.473668423468437, 0.669568292224165, -0.5454044943122943, 0.04933771287564858, 0.6417515783128677, -0.3757419746094344, 1.7125054948706437, -0.8616687083355455, -0.23045468278093537, 1.9469012822298326, -0.07247185550000919, 0.6415077598243292, 2.3680448400774274, 0.17694385078137267, -2.948556518798238, 0.009899467633045247, 0.9158176245985993, -0.6608429882438761, -0.17572902193148116, -1.5642754909468446], [0.6403856284417765, 1.538042923890013, -0.8049132350700006, 0.8047727830190111, -0.026350570998022644, -1.0696902552447707, 0.3484069929201171, 2.430375371870945, 0.16701173520281146, 0.8808452144562364, -0.6143201729891778, -0.02626085288304425, -0.3491783150887079, 1.4690310604451942, -0.31921892446823874, 1.3425108351084676, -0.1146155825355134, -0.6752346024448876, 0.27220975435303635, 0.22825992691296407, -1.2318384351092846, 0.8052099167296224, 0.26471244501325025, -1.1271007123938201, 0.2075815061963132, -1.5252777512711595, -0.38699437730290914, -0.32365574096717037, 1.0877031451311536, 0.5395357080192235, -0.48151672550490476, -0.24334304039518093, -0.17987963676500016, 0.45115738412453527, 0.9065641649088184, -0.7885630984841518, 1.146849170133808, 1.8792358085387824, -0.23882999471282826, -1.8580653766440915, 0.5270368528261631, 1.059606238245358, 0.9809070624928038, -1.800746905859018, 1.7736766214942856, 0.6342850076396181, 0.34581126546775065, 0.1178212148862853, -0.12477284553410758, 1.3005478276761078, -0.04043382328199391, -1.091748559111024, 1.1954724537326815, -0.28912290961193005, -0.3110466853581163, 0.971488690638186, 0.5765443873015409, 1.183577141462707, 1.6200059903532529, -0.6203591067099317], [0.33638111632441664, 0.014104359113952592, 0.2949836396188102, -0.06809688390031735, 0.48147099794971154, -0.3429924273600556, -1.3893061323832188, 1.864174933747243, -0.03106011414158713, 1.480026129558599, 1.295525968948866, -2.111118278383346, 0.2593822346188744, -0.10205937707593091, -1.098127980870765, -0.24844525202599455, 0.5901812472648356, 1.8745418424999158, -0.49759368613520555, 1.2420974623986947, -0.5576554282004124, -0.13767576919777355, 1.4157566650949294, -0.5929447067756736, 1.2412904932272537, -0.5935872816332665, -1.1230548317032105, 0.08144273029102926, 0.41906762408598763, 0.4599643118165745, -0.10136208172525099, 0.8591053634237853, -0.7595423484678236, -0.6767545119729284, -1.8597693929412993, 0.9672193388094826, -0.5130483932770521, -0.9921632159392035, -1.2497178204972619, 1.9727074182757036, -0.42555685923135067, -0.3711876463887134, -1.6461513583545972, 0.28209464075064905, -0.9573011139818792, 1.207052062375707, -0.30816975623067033, 1.183143244398484, -0.7575165464718084, -0.11026770200955831, -0.9965456818249446, 1.4541146770062237, -0.5993762708616299, -0.271479083298601, -0.2708093086017052, -0.5254940394213272, 0.3874153782753148, -0.734272996744662, -0.43308869592437116, -0.8570663311685944], [-0.35557578651423755, 1.386888829045879, 0.15779544969432743, -0.46033782811727314, -0.08161268061367392, 0.20168452391569172, -1.935272725554455, -0.23464876880243069, 1.1075804948980128, 1.047232348243693, -0.6057253655222778, -0.2736795643478186, 0.19560589210379226, 0.5032427548091778, -0.20314738420122122, 0.5370459031388707, -0.41662711339748987, 1.5961193562524867, -0.8750952347592598, -1.371287212021743, -0.7077053413299533, 0.1489164356801757, -1.0895166818865336, -1.5255308792173756, 1.211491628755257, -0.6000064074582927, -0.06948067033940641, -1.2860356332723897, -1.0656577822442792, 1.0417581899814603, -0.8322598694967512, -0.13187562834579897, 0.5924790642571633, 0.7835102836712174, 0.05946139240638085, -0.7033121712495878, 1.7483948473154187, -2.701652597964439, 1.3273118699244173, -0.39148097686653294, -0.6837199708503824, 1.268824867834586, -1.1791601752315402, 0.6128667411865486, 0.9348805275839451, 0.3179950617112718, 0.9085633896011823, -1.310709707152229, 0.9358938892285252, 0.015669361703319683, -0.1703561149812557, 0.36471064593280483, 0.7418137330920112, -1.7610244502510006, -0.181387624043925, -0.21409608132937397, 0.9707910177076466, -0.4491787268716688, 2.6598971697844314, -2.1899877672120924], [0.06502105899131701, -0.651668734768614, 1.1398937083648295, 0.9335420090794667, -1.6019881336837511, 0.14698453009352017, 0.22618731358688454, -0.06516084887444255, -0.44048630664425575, -1.0317226325890216, -2.155902498105703, 0.15889956624933213, -2.079407346799144, -0.0060319520984511545, -2.1667617972322826, -0.17707544849956633, -1.4440822483258482, -0.16841231536175727, 0.6928936077922712, 0.70392023347971, -2.1054076287844, -1.806333625961525, -1.4866135821634832, 0.2188086856672515, 0.9630748310206565, 0.3802854654100463, -1.2568535659299012, -0.018823636553399286, -0.4151871980703561, 0.9281671737670061, -2.2882133760511474, 0.3157029997838768, -0.8715203229612587, 0.907411599690453, 0.003351557320127879, 0.44495130288010964, 0.9168711046506861, 0.9583100638486013, -0.809101793755598, -0.12186332240998463, -0.5652495491583613, 0.5536637752458113, -1.1731206909742573, -0.3981589562037959, -2.06668191410392, 0.49221309404561364, -0.25062680583612557, 0.9307320810805729, 1.8528243364658123, -0.43804382532746716, 0.13810946543087954, -0.1845855732432039, -0.46965214463460087, -0.07178776145147045, 2.2601761836151417, -0.15583509093218, 0.5716525734792663, -0.3407613768070448, -1.107715190159038, -0.1711715590892981], [3.0887625148581384, -2.074960289627709, 0.343868322630437, 0.8881964027185936, 0.5002275079948545, 0.4402448237162588, -0.7619194101697838, 1.1831907417079508, 0.18009243550491727, -0.9492463253423106, -1.5693228412474778, 0.8042815714810813, 1.2623550938848997, -0.05624078694473832, -0.7853215344924053, -0.23442746605911258, -0.09298784764395042, -0.22106762778243486, -0.04499669684740132, -0.238656002751936, -1.6403862402254963, -1.0583405943287907, 1.2655310681197833, 1.1574610163965144, 0.5204865713191272, 0.5254619696784981, -0.16866208833963164, 0.5990918976428198, -0.24259875368226133, -0.19347623945381145, 0.6964027889295027, 0.7148270233853296, -0.8688787042204791, -1.2405905233216012, 0.4249414826002551, -0.5558643964581192, 2.084889490624021, 1.4677368546747023, 0.7892586884281114, 1.9136968708126922, -0.7385264092432304, -0.3963508832199057, 0.8846553324076523, 1.670078464603571, -0.4085904216808012, 2.2378276542147497, 0.5466450335624009, -0.3250997500146126, -1.4740021318991896, -0.1204264937339277, 0.4700520279671473, 2.148650661804028, -0.6265146588864683, 0.6788680983562602, 0.15923057470837415, 0.7148798289619029, -1.6210646487726934, 0.7781242422531149, 0.4644565642037779, 0.8170461876965629], [0.39153663425459306, -0.7389259366003872, 0.526574896248317, -1.5041895918822863, 1.0810651455657831, -0.37424710182863796, 0.15127551233627598, -1.486844898182889, -0.2391477908355701, 0.2327751357383095, 0.37794304885126057, 1.2946234932872038, 0.37836330430827314, -0.9822422511323916, 0.7571707700425769, 0.3145189344852133, -0.5469857208538847, -0.014361015568934751, 1.4138923371089906, -0.7433527596970831, 0.5878482710959463, -0.4427289489783545, -0.25725780690548566, 0.1596994500507016, -0.5882528651477441, -0.8476119090128745, 1.5605002216664599, 0.4061711713602425, 0.8161677068457608, -0.5254324677463741, -1.0897335750896013, 0.18687497631701727, -0.21892013592946868, -0.7295210040806465, 0.3140069421516344, 0.09548450787076801, 1.0092158830613964, 0.25218059285580574, 0.48563147382140803, -0.143981615252874, -0.15620816461801615, -0.6443675278779017, -0.262493061297022, 0.14225311553414718, 0.8779152664752137, -0.47481846115451587, 0.07105074624872951, -0.6887332361241005, 0.615498868148349, 0.4847221955950938, -1.246106728429921, 0.43189784900673706, -1.8442348327028104, -0.14569872645741852, -0.11452334956621887, 1.01710055428385, 1.378242771424455, 0.5446900532648087, -1.3254930849785607, -1.1966249788441083], [0.7990224904138526, -0.08092481089098827, -0.22841959429112743, -2.314092310558074, -0.8244685783486546, -0.8589257273618397, -0.8690442083450545, -0.3319596608834751, 1.866875119288489, -0.17479302521962617, -0.5129004567400928, 0.6438080923592107, 1.2233582629794248, 0.38639453586274236, 2.573927870286833, 1.3185320613834857, -0.8019969768382699, 0.46195009034642404, 0.14424886763194894, 2.5291227906668508, 0.46749913767395873, -0.07500669649817165, -0.4466360118455993, -1.2023752725186323, 0.08960401907144074, -1.0302152892276395, -0.10930885947678388, -1.4595127567215982, 0.8677489925164361, -0.08281520034633573, -2.476132306773127, -0.4334462215129431, 0.5656733584662905, -0.5989644904959109, 2.2850883778957978, -1.409864230678167, 1.8260544637150844, -0.1394282414899102, 2.398935795913251, 0.2724665422070802, -0.5019171629554497, 0.5550241644280998, 0.21826314222956866, -0.423156493229808, 0.24679153126587483, 0.04169260906152155, -0.9269874235055704, 0.3387759768147017, -1.419763130392483, -0.5000136641348272, 0.44756809757954646, 1.6828246752756553, 0.7877388923250812, 0.4248150573063192, 1.0924893680307737, 3.3655427734133743, -0.8678232233074636, -2.828107477960698, -1.7568991455913237, 0.4600257044492588], [0.8986487954736647, -0.5574430992392597, -0.9766176262040539, -0.5860357684619963, 0.6661449428204702, 0.6466084688022465, -1.3115019111632051, -0.14291130089925186, 0.31449409974655534, -1.7417048547876506, 0.27105526773858585, -0.08060068383671488, -0.7570690390636452, 0.7526455060870689, 2.941841406073274, -0.6899721014121912, -0.8533708318854542, -0.9363008243856396, 0.9955914580190223, -2.2333459210758835, -1.2682873660830387, -0.900502371156757, -1.1533798089887095, -0.010578957176264154, 1.6141637282179004, 0.8590672866354483, 1.700117286852526, -1.495573177674566, 1.7478706441576002, 2.2628774139912147, -0.46092244634799157, -0.7064578639941012, -0.023903845995729762, -0.23133269073384066, 1.8758473590275855, 0.637278053510491, -2.39177843152756, -0.43396853263835616, -1.0555084796973875, -0.04755749481698337, 1.2002647289137534, 1.299890578516264, -0.45367732226950347, 1.0143736509435073, 0.025815243238240287, 0.2847627688209977, 1.0889324438057522, 1.1887673516513881, 0.42817539588001496, 0.08818492477947222, -1.3910072173294572, -0.5278288588102048, 0.31385048777088215, -0.875983932329096, 0.40319927587836096, -0.19576594151870694, 1.2513461765929763, -0.3728018884099059, -1.1167346763343595, 1.2344424782086496], [-0.8905894490643524, -0.3599918304534976, 0.15820238504620895, -0.8447874403988507, -0.4316350299231853, -0.8122290649343256, 0.3311946622257727, -0.2763537912323153, 0.5649552095189794, -0.4440318851563848, 0.8615857033467373, 0.39120433494290907, 1.3456318245330638, -0.11706201572798224, 0.10356708264949085, -0.9127155913627739, 0.6418279782124602, -0.6387644273566162, -0.6605171475735924, -0.2915655450698512, 0.6763782433823707, -0.09627300441707763, -0.532432136247983, 1.8845325731521216, 0.12307822920230468, 0.8196722356374712, -0.4978278266060421, 1.2028543636964468, -0.7024567349362062, 1.4174007971882214, 0.35810632342216075, -0.6133596616110394, -0.6947305001862232, 0.1770721150648075, 0.2362875110064689, -0.13257105125703328, 1.4241394135309664, 0.1853244972753366, 0.6558477396341154, -0.22321058428702542, 0.056558059937552245, 3.4222666113501248, -1.3609229674547405, 1.523346589708977, 0.21556494360837586, -0.11833701272939816, 1.5258672825373543, 0.7754066258001991, 2.8749654452160773, -0.32324322780057124, -1.996937968143532, 0.2865157054435521, -0.2865294610013632, -0.18012805206486204, -0.13409649764853582, 2.0417624151114304, -0.8497610935873852, -0.9444208414604638, 0.12049372629431016, -3.355568990415587], [-0.3822467244094629, -0.22264963059329423, -0.17409720588290745, 1.0435436864836447, 1.7180072315973354, 0.083492896132332, -1.0999704161075752, 1.0673203450371949, -0.8983788163022008, 2.6601505142978583, 2.1092791434713174, -1.4972851520151442, -1.3415339349291, -0.5619962887284615, -1.370293915906913, -0.0611168569807464, -0.7788393891375084, -0.1831591479614653, 0.4317546456942902, 1.6005632904512521, 1.6394005338431499, -0.8898575655859359, 1.2276311665327408, -1.2170314675157918, -0.1823525445792478, 0.18021516747860514, -0.8757326465254407, -0.03357552236949911, -0.4189405304473981, -0.6046359483025106, 0.8949060906643358, -1.5656331537378527, -1.8793166200019966, 0.7450760550832719, 1.63809243367698, 0.4292114483561906, -0.8336736513665761, 0.2078902460714546, -1.6193647555377029, 0.7703563965817646, -1.4780115268622136, -0.9417312898812048, -0.7398174658154677, -0.7091483390542648, -0.3752234723525305, 0.058480818040510384, 1.2574511071156387, 1.3396431534345097, -2.6219226587557483, -1.5476461552618448, 0.5820663776733488, -0.7870781072211809, -0.8179702319191289, 0.4090161241235308, -1.61218156780915, 0.2509114121278104, 0.9567507268426576, -0.3284506107055275, -1.9574630461839504, 1.120488619573527], [-0.4620564784479066, -0.6113487073651028, 0.13551856016209765, 2.3599224808593595, 0.05920672352126495, 1.0268705151645234, -0.5906464433048679, 0.534814469084732, 0.2495829912686517, -2.6367585643235754, 0.25232277659391433, 0.06845338306505971, 1.1549803951695, 0.43067247908269674, -0.5351103151663371, 1.684902953918887, -1.198533297652548, 0.4034230783826559, -0.40749762373218507, 2.827807184279753, -1.507893699062917, -0.17270600135936773, 0.6426505827826245, -2.106065866886731, -1.235986557973543, -2.0102390036359292, -0.6250067003734858, 1.3637626876552462, -0.2087304889737264, 0.31804761673229853, -1.8244500767646028, -0.33024006644684667, 1.2009924693635285, -0.6577530784714659, -0.32364022807858467, -0.5840573049129627, 0.6584104584604483, 1.0595598857402024, 0.9855610181055404, -0.4004498982268941, -1.839541357438523, 0.30305919486925564, -1.1991441602951507, -0.6462910931194901, -2.052119748450859, 1.088910681604619, 1.4312646919514806, -0.3969841499935116, -1.1931098398180853, 1.5456656416563448, -0.4239003653296783, -0.2321255992954288, 0.35832205342740564, 0.5236677567156426, -0.4191779651992068, -0.8129373482157107, 0.009862567541822707, -1.5540210898855842, -0.7240622598586128, -1.1201443950397518]], [[0.5273118232295758, 0.34040132087567343, -0.27420501311410017, -0.3241862644133992, 1.9323448822153269, -0.014326995199755152, 0.040554616673768536, 0.47000623177839773, -1.157208482335754, -1.2667717295861016, 1.9912981746739722, -1.116427751114556, 0.21001025648704716, -0.013093491809195962, -1.0999044940296023, -0.2828793953127214, -1.174110457172599, -0.3417388053538185, -0.4272979369100892, -0.07323249084964185, -0.033152835590173686, -0.2893772475646976, -1.8564529407517898, 0.055344162166690865, -0.45019574040144505, -0.29213860069700504, 1.0687154786387045, -2.0529569764727555, 1.2833378625539553, -1.552204771519934, 0.32834471263774123, -0.00605450671587241, -0.7483222865266572, 1.184783299833619, -1.2806633819864777, 0.748209064448248, -0.542650441056743, 0.3686041998581131, 1.8204296067162153, -0.24488309299903527], [1.3729700673962864, -0.010088447396222076, 0.1863384208000959, 0.8914707968654723, -0.5716589289296294, 1.514201748893382, 0.46583371147791164, 1.5332113441872839, 0.30744836687428123, -0.4990209160006722, 0.36345293796750905, -1.2470834919410525, 0.09070382316554644, 0.009453989145050575, 0.17199429708173777, -0.004522028508766658, -0.7492479962414664, -0.5992330226071169, 0.39042429438509263, 1.26147219084133, -0.1583901092515381, 1.4327254793471065, 0.5104808279993328, 0.07417765353863126, -0.21376486291437094, 1.4848931354968358, -1.4389544738258206, 0.14871869950983413, -0.30742284298583, -1.984610251235102, 0.5768481073181583, -1.4660522970336898, 0.8235875691074875, 2.2282738952040013, -0.19835622067667028, -0.037020530837804745, 1.2737258941775855, -0.6692994186850526, 1.1429363676761195, 1.3542240887663877], [-0.1681677205908374, -0.6270781465972608, 0.1303161619731312, -0.10536487233268771, 0.23068524786462394, 0.39960649117118735, 0.743424163210716, 0.5498175414952151, 0.6271663719874928, -2.1999748760942763, 0.02280289819852239, 1.4695186585454405, -0.8107793895416512, -0.17033511089584752, 0.3195410223536339, 0.3519943588188214, -0.9037347112731918, -0.5748889156116491, -1.2369033017846922, -1.326622667338647, -0.0778531660977155, -0.6057556111666731, 1.0442895935357135, -1.9236231563354402, -0.5423463178976097, 1.9266699227724855, -0.7036162807215028, 1.1781509356200035, -0.6916717827161716, 0.13185849790424461, 1.2252385863610906, 0.5269144516733867, -1.906700057476732, -1.6300824048098952, 1.035790925253722, -1.0621792579110745, 0.7387154480891769, -1.861796132888305, -0.8515462955619815, -1.2366260115348886], [0.852013277904341, -0.5933328198536518, 1.5114704458673491, 0.19354720951628618, -0.25248117693784894, 0.001307778497269655, 0.08966679371803861, 1.3263245322999433, -0.7723959241064801, 0.5076239234024252, -0.030435011167882078, -0.43981157886776023, 1.9614930105089918, -2.243606961806395, -0.719410785828362, 0.40747362002790305, 1.0128491117033394, 1.137756418721188, -1.3474813656205376, 0.448164850172935, -0.19370859266596094, -0.536059843665715, 1.4417938231179, 0.9885381817698685, 0.5930931551589684, -0.24438150756601054, 0.8623854669751355, 1.123520330082212, -1.3913080895333114, 0.49863260780937696, -0.3381481762260597, -0.9682389598639185, 1.6598359344115428, -2.1696344391563924, 1.2491461296878426, 0.7728529489795928, -0.6723377904593886, 0.5849483409056754, -0.6628522859463843, 0.44083030270619783], [0.5236240117407656, 1.064236726955116, 1.225292548946817, -1.8379881533674527, 0.4550686176723602, -0.33093097436301566, 0.4285870763383172, -0.2025349438896095, -0.7198404830145372, -0.732978506662894, -0.3538930870655478, 0.004563683300368032, -0.8506156976551765, 0.41210697885832637, 0.1390966868306161, -0.7319704190914715, -0.4399859891294136, -0.1575514114472083, -0.09588514555368582, -0.05048207723556268, 2.5107157604100827, 0.6171177204094139, -0.6212148595749799, 0.2835944056172219, 0.522289189667658, 0.09847268111712612, 0.5063951943433465, 0.10127119544280702, 0.71068274918153, -1.5345551143485994, -0.05034670580306827, -0.3007924112148529, -0.5959261741744805, -0.26152622524749, -2.072465191600352, 0.08452636503231793, -0.6297128016859733, 0.9482635212820807, -0.7576499756980946, -0.12203517318279554], [0.19663192361519016, 0.6316280005333753, -1.6843781978044978, -1.1886712701092101, 0.23250746414603757, 1.5924086230023509, -1.3978974620984683, -0.7151441521868648, 0.6736921118467847, 0.32213814438309935, -0.51675630411998, -0.9643123257386257, 0.7471749384146177, 0.3145052684249313, 1.507948431262003, -0.8342674799075926, -0.5483320274148766, -0.0102063209872581, -0.5217135841383971, -0.026559289457825496, -1.3740915579118942, 0.997604928231125, -1.5844046136729288, -0.019954332363581618, -0.6112391210860266, -0.6137398980343278, 1.101434761822491, -0.48118859426399513, 0.6368211954813455, -0.7698911681409546, -0.18565926517098955, -1.0228230339748485, 1.1469331037692079, 0.5446627996838784, -0.3445921746804461, -0.4166143720323121, 0.7252856987024783, -1.5595268572548335, 1.2285370071458506, 0.1469400085054982], [0.8247350785352968, -1.0961031883039563, -1.083284519151339, 0.3304909688637807, -0.028833032626334965, -0.33433362312578074, 2.1965932518807545, -0.017226857848069207, -0.4902391929467843, 2.3138178829196314, 1.1397312133735198, 0.8821078232604014, -0.366541028594002, 0.5913553268068072, 0.08639955112973843, -1.3148954695912325, -1.7733401288177322, 0.9300764804595595, -0.543540122627101, 1.3068682201780855, -2.277441066070258, 0.08032653452889883, -0.3597983810244528, -2.046230426227789, 0.7553843335734033, -1.378029913053378, -1.0208708782976073, 0.9715600230836441, 0.07922586452178837, -0.19154377344617038, 2.07345084525318, -1.7149361434174024, -0.17477950197550507, 1.195056025514869, 0.776149371108923, -1.1489817080555011, -0.9944433777792945, 2.278346435898015, 0.2959838635765433, 0.07544463017288587], [-1.0347321887779979, -0.5679658618490546, -1.3328107467007124, -1.0998135296758607, -0.011035928561944826, 1.9641778833763912, -0.27916707889954856, -0.8700695179501499, 0.05476528043392604, 0.17081788227396524, -1.1307982294423495, -1.4448935188853194, -0.10315227088939517, 0.17484709742407817, 0.8280845043518271, -0.4474037268284401, -0.6393849759757753, -0.7012599604217961, -0.017438667463696187, 0.2156665965806612, 1.3457574506827201, 0.9009491741555969, 1.5045093235135119, -0.5903787117411311, 0.16231663443238328, -0.1396553930210899, 0.2571953503600986, 0.7666379634635215, -0.2670178010070632, 1.10228687095249, 1.564220259053338, -1.332936428950011, 0.8259716123012594, 1.676674360723747, -0.8587453469223845, -0.5413700045363387, -0.4057271233205681, 0.35468017226838, -1.8655772650645672, -0.592708741564406], [-0.9447872332964055, 1.844816557286934, 0.07204971346277728, -1.0257011674858192, 0.9762195813528717, -0.42666781358254663, -0.993394628151858, -0.008155860546822068, -0.17443675624842442, -2.344728964052853, -0.15007532664883064, -0.6328475948195076, 0.9540137806929568, -0.9274684672819272, -0.16317079053888683, 0.34669779816457047, 1.0114427981634928, -0.8903850082155361, -1.18571008511429, -0.324752459127749, -1.0981323497973066, -1.4077568886170282, -0.4066313347013634, 0.667146007964615, -0.834188509155478, -0.8258914851339186, -1.3690118217535723, 1.0037738464895805, 0.26382127972667613, -0.43289669511250883, 0.6006614861814613, -1.452219494005482, 0.78506019257174, 0.4338866213449342, 0.014364834192447476, 0.06389111465640457, 0.8303871870852012, 1.8744521489073034, 0.4644992465994298, -0.8136918338884909], [0.6503947746099833, 0.19646814880149568, 2.1161716998039486, -0.545083532855701, -0.025787612011970686, 0.7407338588671398, 0.11423652080580707, -0.17460690572200305, -0.5095124131012085, 0.6077611432256859, -0.5679891225264281, 0.3547242578981063, -0.5317187860880249, -1.439358777664117, 1.1413299038884643, 0.45677599742419994, 0.3655092274831661, 0.9627916760654498, 0.40241297614857824, -0.11901674611186047, -0.0427151288454736, 0.7691627570985766, -0.5468848225723303, -0.19833987149001728, 0.34048860741869796, 1.104676793399462, 0.43613124194936176, 0.840824383290056, 0.13660918250369536, -0.7796174364855735, -0.5705035414180569, -0.08289208271038628, -1.2772459771295286, 0.755523587993951, 0.04415241955807364, -1.2441733668555122, -0.18394614495356545, 0.29473655882997, 1.2260971897037496, -1.2116606818970581], [3.2282971046076403, -0.3637333174135299, -1.2998022680108, -1.2317946223494889, 1.6491340060802446, -0.6009643220698182, -0.10881533447669196, -0.6523717150238659, 1.9505020238325494, -0.49027925856604415, -1.8455257346281413, -0.04010159099845039, -1.0409885463870339, -0.882568341606873, 1.0189407312833276, -0.648030845854089, -0.7936549364755214, -0.4277971663716069, -0.1551834201827089, -0.22189726045647645, 0.34006269567623915, 0.7236815665410842, 0.8035613663523155, 1.0452205402787857, -0.967559853522698, -1.2047989091986262, 1.930151043815728, -1.858378384747895, 0.4910774150966134, -1.0347666691384223, 0.12709462819369302, -0.38088476564471374, -0.16876714538964788, -0.6916853027588774, 0.039630897730059164, -1.0583380554911686, -0.4867975833011414, 0.5027838731486798, 0.13331502501053133, 0.6513377184577392], [0.5362983333495462, 2.4110925229349696, -0.23235583288518, -1.932916083129363, 1.9195982801139913, 0.35246422790976384, -1.1935963656757174, 1.3254229951849694, 0.8314609756225948, 1.5701914109200104, 1.6239933779997235, -0.31519648080554413, -0.7070758550097278, -0.18632797033646412, 0.04816911115249071, -1.1330098591997544, -0.8139804268242904, -0.2284071752737805, 0.4470853960405424, 0.1283670569591157, -2.2583727455591394, 0.7382278801905008, 0.655645995795963, 1.0188822238542894, 0.021477959062052868, 0.1877656818651587, 1.3619379078224496, -0.1146617490921147, -0.594495595735639, 1.4215223752512451, -0.6519847966902601, -1.0261216215489837, 1.7855188742115038, -0.9451913635116175, -0.16834540137144333, -0.7576622441746225, -0.4964828556715447, -0.2178228614718921, -2.853317882354556, -1.0939098320603884], [0.011465825754562842, 0.3893456130149528, 0.3723692346076106, 0.1964904894029443, 1.0998633829152955, -0.1429705194526853, 1.2881851313161694, -1.403499083241832, -0.13632786467928074, 1.4450127340550174, 0.3555407460585772, 0.4784470966233136, -0.04823129887668899, 0.5104685149960071, 0.7401098808879213, 0.3448418785565649, 1.7390345971197303, -1.9495110003009057, 0.048185459009672686, 0.13926828387827742, -0.8140607277422514, 0.10487062085785405, 0.5287019283545455, 0.22343421671880556, 0.11854871068861844, 2.2898611135016096, 1.3454634679420179, -0.914519397085412, -0.368811970817824, -0.3339261951429039, 1.0119625180616134, 0.3028040867504875, -0.6004138729975762, 0.7029573993375151, 0.8901783511335063, -0.660344180860034, 0.8378511310275665, -1.5746837017641881, -0.5808664270175888, -1.366247798785205], [-1.9884923601471531, -1.0693686150958137, -0.04819710492137714, -1.4519523270113195, -0.5542392724387156, 0.1324601089333277, 1.0822421419963388, 1.0466076657408734, -0.9521759729837047, -1.1825730399198706, 0.09402111961681639, 1.0304070069620326, 0.5321066371857276, 0.35066277080311825, -0.06967619382984158, 1.6726688139868606, 0.7868177358575916, -2.1719524540660053, 1.1191287332897826, -1.3712408134988598, -1.5975846146929857, 1.1475121564128699, 0.5114042950577906, 0.19876185410826144, -0.3206281378491959, 0.12447014068575825, -1.451746785511851, 0.06915506071105369, 0.963928917879272, -1.4210175836518812, 0.13357250291408085, 0.7174543939202872, 0.5701593340303536, -0.5399486401517878, -0.3485112636975433, -1.0601113301411322, 0.8447383217390528, 0.7476599904181978, -2.003264006855101, -1.2174772008859538], [0.2851464983079943, -0.9291733406814457, 0.27263965243050253, -1.4672823055340056, 1.7629534553114075, -0.9900110819318455, 0.7450557753559535, -0.621498329406687, -0.9664345038876434, 1.0314211124822414, -2.6787478232600446, -0.0915954648876027, 0.8016466673021572, 0.2806926400605375, 0.1054846125388172, 0.40861842186263686, 1.3355237048517998, 0.6090759046124218, -1.6723700056145583, -0.4394072494415591, 0.8951395807184456, 0.9110010536505939, 1.823498786924077, -0.5189816728977923, -0.2835379774919232, -0.4652975403960466, 1.4999392144847907, -0.6167535109396771, -1.3792346422157866, -0.7991579451946277, 0.3723261948899572, 0.4833642956112812, -0.08894826023678774, 0.05384063354616705, -0.33412759636523887, -0.1005478128484123, -1.5385675659925104, -0.017886069730371185, -2.20268060616672, 1.6010000738395418], [-1.5358522225529248, 0.5743930592007137, 1.0143639492848229, -0.8639093909690211, -1.8296783029582553, -0.6258987242078278, 1.2769853636547404, 0.09845263699936217, 0.5099355926342596, 0.8870244853709283, 0.5761848645686886, 0.0669501776249669, -0.5736143827820448, -0.11639868572223229, -0.44870793797198444, -0.7959787641455616, -0.03697218808309407, 1.3863346724411847, 0.10995561314132128, 0.757564653908777, -0.2759393459789636, 0.15675441365480938, 0.830886170918388, 1.0421131139582551, 0.5844460252319958, 0.956887569098618, 0.4369355357032356, -0.433709534698549, 0.9413305604863991, -0.8371099843208973, -0.7488852222049248, -0.8142937171051274, -0.7909090447505566, 1.9728824097994815, -0.20863929304496706, 2.131054531350868, -0.22370296436223625, 0.15413612046670064, 0.02755455549811245, 1.0703068426682645], [-1.0170601283190188, 0.8882450983259531, 0.012282501722002686, 0.44452488253538713, -0.2123598910049424, -0.04381751879155146, -1.2576778553986288, -2.6457242992582857, 1.6696358095836767, -1.2602014947253506, 1.5026178980791225, -0.39883722129107785, 0.4846236360330744, -1.254850500166536, 1.0265842571186243, -0.5324057572081787, 0.1501598231941004, 0.1761710364456215, 0.33422770988946954, 0.8081979617089534, -0.004561968842567531, -0.8196649691576822, -0.987580986526452, 0.010622156804247473, 0.3417492741455302, 0.885860845893771, -0.8853698021128875, -0.3478481868919028, -1.6979522953022304, 0.17932430824774395, -0.2819106572002441, 0.13483376679500367, 0.3036795619517675, 0.6819055946832283, -0.06183481080222496, 0.060868306694437956, 0.45589214140115436, 1.186927772724954, 2.2308536167662014, -0.0972268160747274], [0.032391371237931295, -0.4708670444921384, 1.9198579552443196, 0.48067933490218934, -1.1538352831838783, 1.1747656159710214, 1.7274830912896275, 0.5698127875243962, -0.21217957855727473, 2.0709146460794927, 2.7613998946092275, 0.4499511788040053, -0.8456865645579936, -0.28418155623580704, 0.8132150875220535, 1.5815596179951925, 0.6669418298533997, 1.0600810501278013, -0.00042516951496986784, -1.147306893640844, -1.4490823977305984, -0.8687724417445488, -1.4855358914688768, 0.2817263943688663, -0.8954933779562902, 1.0039198003941419, -0.5596661718108882, -0.8591679842414447, -1.7141710489645507, 0.9722538361129512, 0.6244696929096748, 1.2735935491974324, -0.21371671286091534, 0.9515656088764832, 2.0756795364405325, -2.013845336872117, -0.26142124685574314, -0.6608333383197567, 0.9256709782192621, 0.9529892373495266], [-0.809026191081402, -1.300535456239345, 0.9041419852298869, -0.7007960110733337, 1.2684077913894378, 0.08725464928455964, -0.3929816222351019, 0.3739365947024742, 0.433676073001503, 1.4296817867609999, 0.7592884056492955, -0.9434136198071236, 0.1997400463582567, -0.5237093576812621, -0.7912136226975425, -1.2092067513643028, 0.07433675572597681, 0.2769180562818125, -1.4147819089698344, 0.018515603657336583, -0.19087621054484769, -1.6092595480993024, 1.120786721541517, -1.1040474238517388, 2.482978672747497, -1.5017633891264408, -1.078777223962173, 1.231189367805361, -0.35653659408529714, -0.596190164625962, 0.24940528304879886, 1.5013080505836902, 0.8611544939522509, 0.04465213496563754, 0.015847530862602325, -0.6868453649661906, -0.783925662470741, -0.20388106057243277, -1.154977486024506, -0.15491652805858785], [-0.9887792276264731, -0.2694655057896908, -0.22660323864671747, 0.705409315173019, -0.49304177122639126, -1.0855057941612687, -1.2817044337570345, -1.5209404485915752, -0.08980582337504686, 0.5990290915251004, 0.9591693632508508, 0.07391414655249613, 1.058249638757742, -0.9478529064844397, 0.04137966814065445, -0.8727363714975969, -0.1911526518585107, -0.03860913124065447, -1.5316786255836676, 0.9709536572450557, 0.811695269727468, -0.3439097581967575, -0.06390039607714704, -0.633303742674871, 0.1309243829318987, 0.7038411601041176, 0.6564187008482011, 2.1356577975722026, -2.7195810741659003, -0.2321152642401318, -0.05493796032374006, 1.2512241171567662, 0.887934664797299, 0.6225601500706758, -0.23959519223096848, -0.4172772781203574, -0.08449512782009973, 0.021523640384406253, -0.7371148616192129, -0.7794720527257432]], [[2.2269101524624055, 1.5446895793575957, 1.8057104275204567, 0.8589019571207362, 0.11350538626396436, 0.21199998838395248, -0.8259833254412768, 0.3222712930769513, 2.215359380973405, -0.2358624842891326, 0.5414046772631826, -0.4220545826661704, -1.820088226001634, 1.9685277203919338, -0.3020474102212805, 0.5254075992006082, -0.028288318656227288, 0.8773389582052793, 1.3430046864360807, -0.5780752970992472]]], "ep": 0}