{"num_layers": 4, "sizes": [60, 40, 20, 1], "biases": [[[2.038417630293339], [-0.7085156054445438], [-0.5446230495374634], [-0.2168504783625712], [-0.6140453386531728], [-0.2779351432430943], [-1.1437912926099216], [0.046448449063521254], [-0.48906443511210257], [-0.5242696662549863], [-1.0718846267371034], [1.824304005582135], [0.0581941680001886], [0.055463648233228795], [1.3730204258369363], [-0.4073757062303741], [-0.2632427509138616], [-0.25361252976400195], [1.860231118226934], [1.2487575849968053], [0.332149963385402], [0.2724835854853126], [-0.44190494984294715], [0.5202350391533841], [0.9104905473876953], [-0.35883566715309034], [0.6384653442446746], [0.3899983785484034], [0.43824263920478546], [0.8247858998910641], [0.35992893975892415], [-1.185967524590857], [-0.8102644306846747], [0.36409605010806007], [0.6681328772590769], [-0.4288625334897039], [0.08201833129201791], [-0.7750967019402032], [1.1584732298381193], [-0.4452647079521485]], [[-0.8675596950944224], [0.2760006313744991], [1.0906673125247557], [0.9962337073353215], [-0.5396400874595916], [0.7000595818748758], [-0.5163544633340194], [2.212587967030867], [-0.005831211051088022], [-0.723180615670955], [-0.763785222943502], [1.7302668145911464], [-0.012988731524159879], [0.5812155488236728], [-0.9743775936403634], [0.15330601020687493], [0.4454826109833794], [-0.950595486196232], [1.880347548344419], [-1.388372831977621]], [[1.0792378404010343]]], "weights": [[[0.5045932489325968, 0.25442177303193336, 2.92147711302989, 0.48837123278205474, -1.8897507402736258, -1.3533370262279167, 1.5667913012506025, 0.5481620628828306, -0.43900865571730824, -0.4055343054841964, 0.050455246707732854, 1.0043430983435244, 0.4881612616522993, 1.1647451961108073, -2.248621519182946, -0.8788654016401226, -1.539667613494062, 0.032525086746831924, -0.5970494301225177, 1.7364875676651848, -0.6350723039912798, 0.2254072342150906, 1.3948407249427195, 0.5199336391764801, 0.13055851313407305, 0.7903262323047754, -0.3930242019863107, -0.8453313571289518, -0.47222209854930763, 0.7157442104109367, -0.8311237967777185, 0.15954452360227128, 0.7320185092525311, -0.26252079489000635, 0.3309136888860011, 1.6482987444423047, 1.20024247550957, -0.4276925798145514, -0.006130601614268816, -2.118213894667268, -1.7492753462855763, -0.07040917346920635, 0.2285526965676398, -1.2307343692466128, -0.9559780882633957, -0.5054355316188031, -0.21475564527611835, -0.3908099844120531, -0.48437678635246767, 1.751899949894848, -0.2270780617584814, -0.9199555760551892, 0.9293652273549794, -0.8087869398177993, 0.21240965019541808, 1.0353350926472686, 0.7543663600121059, -1.1339707128843137, 2.0065044289678253, 0.18927676533744117], [0.6190073520503745, -0.5454317176735738, -0.49510659518960115, -0.6068314262522649, 0.7004688033353407, -0.8725216936960782, -0.15388346624903054, 0.7116221445177533, 1.1400253653824635, 0.7073054221472145, -0.4825056244440756, -0.25293374963898246, -1.2784611819033151, -0.47405697433263977, 0.21959622355397956, -0.4648590402066747, -0.056400975156980664, -0.9405250929693568, 2.5709767914558013, 0.5807054806270705, 1.1170096828194014, -0.16482693649284016, 1.2477698451765966, 2.9761624669857287, 0.11165627854448934, 0.9455862830400296, -1.0512238422779414, -1.0234632644886028, 0.5639448544654333, -0.3329897842983101, 0.8372709694551923, 0.8778178499013793, 0.8789660751798779, 0.5414385254258683, -0.44477539548073197, -2.411788623337107, 0.11145035071910618, 2.5386335603839196, 0.9374617847496943, -0.8124796366107082, -0.38083026171799755, -0.5494082334154281, 0.7991501243363112, 1.5924708318203706, -0.35911231356913054, -1.0177753990284815, -0.6534951285549044, -0.11067531396154529, 1.3523420044140089, 1.1507320525792852, -1.9725780234403991, -0.7039893864747767, 0.4116031123125016, 0.26181972523961, 0.6394039334226563, -0.7946380510417076, 0.1874871912322699, -0.24761852282208294, -0.8935626412396818, 0.2901033923634468], [2.0292407083561406, -0.4951753198662036, 2.30050129256567, 0.9834080343067223, 1.0363556250409471, -0.5979388855247242, -1.4275389925988078, -1.1573269516169666, 1.3977864601906993, -0.4101725327760754, -0.9120744467377679, 0.9904773144208185, 0.003842530550625024, -0.10387723520844783, -0.4206600420130507, 0.05279808363212013, -1.3643237998386384, -0.7514959499738365, -0.45788143061324627, -1.9360617376487639, -0.2217991508352845, 0.4437711959250883, -0.08372207093327419, -0.8970671697106752, -2.1663061846427047, -0.021270034413810746, 1.9905298881238713, -0.2124156608222116, -0.05838719619941037, -0.5918154215144588, 0.4290846602755687, 1.5314293138352515, 1.8515446489742295, -0.11031917146869243, -1.069054695815173, 0.31258059778588265, 0.4208102594995727, 1.2198495309471327, -0.8887339576976748, 0.5716974347936674, -0.38765323650876476, -1.1416154125377025, 0.5922823219620502, -0.08704039885801268, 1.6623549987812718, -0.4107906220719319, 0.129474456651965, 0.9434181662347096, -1.6197455792053748, 2.1588650634797615, 0.46725383781941193, 0.39322048557754036, 1.222850787038019, 1.227208298290361, -0.3600058536647357, 0.22702044625220688, -1.8187833788922, -1.2331927230384416, -0.04789626256859661, 0.2744787874368293], [1.4708426690251442, 0.25632075450756003, -0.6425945826127686, -1.3029934243875463, 1.354887964184766, 0.33245074554664766, 1.0879208276355772, -0.026458617326217952, 0.38872952522984694, 0.05778975253233789, -0.3394996012620011, 1.4468260979292493, 1.1740902839266685, 0.99641491965343, -1.3413574903079108, -0.39390770941022757, -0.7020096920160237, 1.438018152594089, 0.45066386848632484, -0.3798300106321172, -1.08570780797035, -0.12357476057716543, 0.32053446643828437, -0.34429962014705695, 0.6772604386187673, 1.4460252986259445, 0.17687683097723506, 0.5433808658646487, 0.014667072364252895, 0.06692786635327243, -0.40515252245480665, 0.5917440634808409, 0.8688065476734812, -0.17577807098700493, 0.22348429581273058, 0.630294606421151, -1.3686063348802868, 0.5749237166783783, -1.6806271606177003, 0.5816836278711353, -1.5000598187679417, -0.8132740156440268, -0.9846643813131358, 0.7121286504166308, -0.6416479019387377, 1.0407026129686587, 1.2997938739091475, -0.7354780796734375, -1.03498210624089, 1.070353234992521, -0.3738494214919364, -0.41754313266729476, -1.1800183216017934, 1.2327468391913285, 0.19262228385712382, -1.9572716696772703, -0.6497815364515048, -0.2662895522576526, -2.150944099490859, 0.6164418390437673], [-0.09339270552764625, 0.588552821590201, -0.203662871875984, -1.3182166038650778, 0.7178493378515634, 0.1886244639862806, -0.46692966403195657, -1.1666621512395696, 1.3508747319747694, 1.389141281391278, -1.205324300051556, -1.0138280599421712, 0.32040434744848445, 0.4849768034279504, 0.24952339495967393, -0.2527297216166275, -0.3713743993643099, 2.1292074209248084, -0.25752710361714093, 0.5298004640994853, 0.30240852769171855, 0.3971482734898217, -0.011541716735738153, 0.9113394045142671, 0.5559206650278308, 2.182853033834124, -1.7108723831633856, 0.6779004265940541, 0.9789786633921672, -0.015455543260938448, -0.8465589176301457, -1.5735590577095884, -1.1142457457129458, -0.5912243213059357, 0.7232048623782943, 1.8269708701015142, 0.8346329723299294, 1.800785223826184, -1.5279662418412872, 0.012032347488574504, 0.32402265569746647, -0.900198411558966, -0.6387354327677487, 0.2809329913089317, -0.013410243926603619, 0.2601060732369027, 0.5726970485674154, 0.9739866395402733, 0.8103840697555647, -1.2465418167301676, -0.5569438216347783, -0.21247969318754464, 0.4723684938383085, -0.12161007214636282, 0.21903367337923055, 1.5802404325721686, -0.8891030363527843, 0.4476792356655544, -1.537096832885288, -0.2809939390204969], [1.4327931914754986, 1.1397642008223225, 0.7285237028275555, -0.6106432173926299, -0.9083200035917534, 0.023041684814836996, 1.8896654404294455, 1.3550109560645378, 0.7670297863266468, -0.4800571267763114, -1.4246474455868123, -0.5489151718422761, -1.3268947975611907, -2.382308473833071, 1.28730795754492, -0.013839476038810604, -0.1274725293626361, -1.5610448892583955, -0.6583530463123277, 0.6248849521573693, -0.467362810621006, 1.9726535005369843, 0.3707767423268929, 0.723193734716603, 0.2880974527567517, 0.7950254582486321, -0.4971222550948974, 0.07085019822335725, 0.9640866206810247, 0.7810086062317841, -0.35822561645259293, 0.29365239360504186, -0.7761334326853722, 0.9031446503661168, -2.9167473090944807, 0.6276625170190465, 0.8249766959284303, 0.2298302305550088, -1.9113985246807075, -0.9972692934304996, 0.333646115704774, -0.9840143839447371, -0.23060211881597786, 0.5030917786302532, 0.9928788489023164, 0.32566036438873663, -0.8244687227117162, -0.03498525663352423, 0.6391163662730119, -0.21674251983632428, 0.6442926522333408, 0.8646145257252716, -0.6804592490350808, 0.055670515578594745, -1.452817058338645, -0.47519183820323907, 0.0904366043033544, 0.25897308365135613, -0.7868178610193902, 0.9179598719552596], [1.063713601612427, 1.4045280592892222, -1.6296521692420227, -0.2132073502947093, 1.0368052775568852, -1.5001008409948777, -1.7267413669389817, 0.17484017390433268, 1.1068592673253688, 0.031818394565279455, -1.5966487613073588, -0.6067054473968867, -0.19667753251645193, 0.014899275282525774, -1.5314903311342498, 0.4162556278262037, -0.36758612175884753, 0.13749131846642143, -0.13520511825707596, -1.756417742139499, -0.08224811096007474, -0.4707769540009565, 0.15556324804098245, -0.319999163650506, -0.9227144932528655, 0.2508479297531478, -0.15805307668147348, -1.3474829619847284, 1.2669520595068364, -0.946664222072114, -0.3393348585712384, 0.29649746835495533, 1.3567880834645636, -1.5485721896302131, -1.1813071188536837, 1.805999839916137, 1.373164273560649, 0.6872359592235644, -0.48971547712274277, 1.489068228018659, 0.41445066771188954, -0.2751619708272519, 0.8000463227829032, -0.9130436198582524, 0.5397690912481775, 1.0554057134366746, 1.1323499378910704, -0.7597686251900436, 0.8828040685677004, -2.096127547976537, -0.38477156199759016, -0.16411545602422445, -1.1740913336027683, -0.19490810566802078, -0.7307375374593678, -1.4929371581331048, -0.27057871984668297, -0.03416643101059004, 0.9439835873004095, 0.17103543997460408], [1.4479331292278168, 0.08554871818693362, -0.5081174652753665, -0.22062907895326173, 0.36056347918064957, -0.6151910042761378, -0.9816077728246713, 1.6980754674645864, -0.24813908732189027, 1.5419304469088924, 2.2185789476061797, 1.2597954030312923, -0.9660606483150919, -0.8619557152733734, -0.8268434576773576, -0.7704302050249999, -0.8431724308418709, -0.1772993852892999, 0.7506167981822065, 0.23017059435812345, 0.8591502519128447, 0.20140458896744043, 0.8453272339063841, 0.037754575286684015, 1.736928412795753, -1.5635684048029697, 0.7606290431362424, 0.080802838197346, -0.5548317125146228, -1.1263838429866295, 2.5010963837367726, 0.37186268591565125, 0.40650719780056627, -0.27846842749741674, -0.5936923412335022, 0.22102273118025562, -0.09199230326287282, -0.8743314855873331, 1.084415049316272, 0.474369633289194, -0.6324728025223771, 2.0264065447053694, -1.1463213348153183, -0.42565202527510676, 0.46162152601794565, 1.048598538811078, 2.309209091277341, 0.8044360336332462, -1.3737349030232175, 0.1857617197205408, -1.166042327539575, 2.5708186196461384, 0.20141404385627734, -0.5421008085748604, 0.14221585662074435, -1.8190184084854941, 0.5965302588030086, 1.801105642483385, -1.3287258755906808, 0.24467551397746723], [0.401495709040838, 1.449879897466541, -1.0965734220284902, -0.8582944698395975, -1.863635108907029, 0.28443995389344023, -0.24725498361486498, -0.9751279340157287, 0.6520590985960767, -2.094558626942149, 1.8103525218454313, 1.0033817719789333, -0.28453577097288524, -0.7422111273505271, -0.238529472153159, 1.6188425897534544, 0.9709958074942973, 0.5056493873745568, 0.419556678899402, -1.5894768945806115, 0.8640520097682601, 0.7580444100173942, -0.6880852126630677, 0.44627309060486514, 1.4121709377848222, 0.11931672735230213, 1.5582712731899266, 0.4506144576720532, 0.44444170942588856, 0.03441142443171206, -0.1948597027983772, -1.41229531172075, -1.1029944896485875, -1.0452174103848306, -0.40402499787944424, 1.3503111283458051, -1.267046890417848, -0.9220794763709708, 0.43579840362333355, -1.1586980431957552, -1.0640284659144952, 0.4830994615038321, 0.06827339311061498, -1.6593710390052883, 0.34112857882778447, -1.6372525290252857, 0.04058981034606301, 0.6901738882860703, -2.164786091883282, 1.42866694085995, -1.8528299380837323, 0.9592432458461526, -0.5224136782278913, 1.1765855401660879, -0.2565013989559303, -0.3155851164803557, 0.1744446209837186, 0.13782252226959854, -0.16078930364197894, -0.386234314053928], [-0.0449552361071201, 1.107846388092923, 0.35774900829327444, -0.014384046932528295, -0.6590336965403881, 0.541724127686772, 1.0616874098367195, 0.4351363200134015, 0.13174808599075166, 0.4671146716785101, 1.1120145023058825, 0.3281239927478316, -1.8376432514451462, -0.3613348932586505, 1.1529368557293604, 1.2534076496143836, 1.3182153962112604, 0.7915647985105868, 0.834686037104626, 0.06326667612156488, 1.082386511481217, -1.567646616819491, -1.1712850386695648, -0.008894225518239885, 0.7484888562001786, 0.5266209049898252, -0.331142437368648, -0.7873645563479257, 0.1470992788806077, 0.0341712352230016, 0.21158352960593493, -0.6865156954896495, 0.029664224970030156, -0.6994107587802543, -0.8471413357424098, 1.292390110551977, 1.5600378867450861, 1.9778740928890461, 0.8646792874835283, -0.30429755189633567, 0.05010143274241936, -1.0682061103901284, 1.6995486988730362, -1.0304014081422046, -0.48680457959063417, -3.5324361400375177, 0.18759117895723224, 0.19584818359688771, -0.15712727576527347, -1.7619029108074773, 2.053689358515956, -1.19978695393985, 1.7486714972828608, 0.9019016742372543, 0.24555515812652684, 0.6735945403579526, 1.2108064602730693, 0.3731459808590907, 0.7839245994492048, 1.1308445488519645], [1.3480509821469997, 1.649124278541121, -1.269337598805328, -1.2153677207044136, 0.05429974694448411, 1.552980511529019, 1.1318326852111051, -0.19835426341232287, 0.1602184457591896, -0.9511727678503902, -0.04790027044322947, -0.3921969405657267, 0.03284352519112678, -0.31287370732655734, 1.3004099779989888, 0.1515970709895401, 0.44560062840170056, 0.6943124666466292, 1.8561171697524044, -0.5115230939397046, -0.6363619883614486, 1.102295263859105, -0.6161362452718637, -1.365027566716541, -0.21205936656206711, 0.6102211477118614, -1.2471156784090416, 0.018738862780612865, -1.2476200700657194, -0.31829127559306014, 1.486576416270317, -1.6567981318184806, 0.6776291571122811, -1.3361732071697452, -0.9038606823217917, 0.03413487062298497, -3.0799823987725614, -0.45862025749558427, 2.052007331376355, 0.24769761394552295, -1.773242454862889, 1.4197668984624474, -1.4705941273951748, -0.826877341311726, -0.35177360277402303, -0.7570680160874265, -0.5450628532285167, 1.1724911029993372, -1.0407005742695672, 1.1016774552580175, 1.5362521270018954, -1.565149814817877, -0.40838234875266033, 0.2953112834698019, -1.820303290285537, 1.3468198685613002, -0.8171971922830491, 0.10562885131762279, -0.3358404707318044, 2.100259811800577], [0.3193795658391783, -0.9684655575218718, 0.7688536908875735, -0.06579659637291056, 0.55831725625718, 2.124038256279037, -1.0598860758448938, 0.8386944570865796, -0.24558052100100064, -1.8242337659220416, -2.1747154094828285, 0.25348594504570426, -0.15789754506675624, 1.2747480699203022, 0.8062642910147654, 0.11706039788954879, 0.10403761123441162, -0.8033360801610014, 1.415153880899923, -1.0117049543901522, 0.8645761741902636, -0.014246859828254976, 0.5038939754554526, -0.7839488302367082, -0.9911476680441087, 0.9559111305703051, -0.2655935310942678, -0.20529213838755422, -0.9222866395238579, -0.9463038938675717, -0.32259941445686413, 0.47547578684646385, 2.1386113576711936, 0.19836380259020348, -0.1817560651424136, 0.8492739403547775, -0.34723325875835237, -0.4073752577842659, 1.4211694129694639, 1.5780259633869478, -0.15266901836645008, -0.3747685269550771, 0.6671734532576845, 1.2853903798191633, 1.6727651201555294, -0.97850970591527, 1.536641244281663, -0.3273630232075823, 0.8890182041188914, 0.25637489325478297, 0.6517507339942283, 1.97879677852554, -1.0720501141228727, -1.8717853830244318, 0.41371718141295416, -1.1333247977623677, -2.222602665851921, 1.1258086175291846, 0.08598992919095895, 0.8368683139149006], [-1.0112389029649178, 1.5396173096639172, 1.468612603120363, 0.9106153753605996, -0.32149784232816014, -0.9017070806184372, 0.06384717946113873, -0.11337111883969637, 0.4467513814588653, 1.6238580970421979, -2.8542087162458603, -0.2536573364035796, -0.5405797761106187, -0.17226620879478344, 0.5242213301676288, -0.2311197578888517, 0.5312816203384404, -0.3608741380617387, -0.2316762335055307, -0.14992796641362913, 0.16224805480315468, 0.6992936153780948, -0.7346837802076911, -0.4905482652657449, -1.3985761201074067, -0.2668540384605397, -0.3776576037554004, -0.7527427651134734, 0.20053431823083046, 0.09374375022286259, -0.3923943076793172, 0.8941414205258768, 1.4446469202029384, -2.14142702637241, 0.7274772219448858, 2.507110893985313, -1.5381379696913784, -1.6383045739883766, -0.06187124464724899, -0.8482034363085015, -1.4748079563133458, 1.5002843217760267, 0.9451660360399505, -0.0038987354974746578, -1.4529668226000023, 0.7688953507016842, 0.2253945153378008, -0.9192677038495498, -0.4135686413177148, 0.38676207491596293, 1.8487417315714059, 0.8204152485519048, 0.951198200765231, -1.0847736494006133, 0.5168416534202132, 0.5257320993442508, -0.5596417893678414, -0.44781894048526405, -1.5636686747015878, -1.2006631592275328], [-1.1025457057064163, 0.026039229005884044, 0.06896450235306621, -1.6880264027067564, 1.3024832358275409, -1.3786553042114114, -0.2674619288242505, 2.0584779957848958, -0.03767468600904787, 1.0244976829990662, 0.5731728451647515, 0.7581397178239316, 0.38756260784738283, 1.1287425605090156, -0.4403066787362282, 0.7279979988253152, -0.9133352032389971, -1.9267173762843561, -1.4610864916619863, -0.25158364307028536, -2.3575215638193314, 0.7971433333153777, 0.8260344551496804, 0.6362726548570526, -0.3530544733247111, -0.8495931315685878, -0.246466836291576, 0.9803415137711353, -0.4971048330059501, -0.768477594834919, -0.9115040482454703, -0.22955613614280654, 1.6870835241199578, -1.1160921609555794, -0.7205181461534925, 0.19567373152230536, -0.7781616745874712, 0.5495807535377422, -0.9799035638364062, 0.9297796795461097, 0.45746610666269494, -1.2769738936097603, -1.2958108541488544, -0.17765570586801344, 1.0282187306344126, 0.022142167766048975, -0.3116696126903088, 0.3790893202062209, -0.4746682491350329, 0.30895932543748683, 1.2959733488833005, 0.22870984433162939, 2.143993632346463, 0.8188170432252008, 0.11172246863377219, -0.561503859197532, 0.14589666735252513, -0.7582054202257918, 0.09672774914661525, 0.11152142874432146], [0.1250091370356694, 0.7047526687044027, 0.490225345010149, 0.1932472614256599, 0.06805319667022926, 0.4470799131328181, -1.1190658437084346, -1.3066772768618022, -0.15741948949311937, 0.7506590784455519, 2.3768419105323626, 0.7667090769578213, 1.4392472742446891, -0.09628809891706418, 0.3747801089024799, 2.340936599518335, -0.5088162828383155, -1.5245263803984632, 0.3059681932100702, 0.017555309376908107, 0.5902314895126166, 0.1144533780122498, -0.35945824512278507, 1.2592092180855978, 0.5656176568537049, 0.21141431239815484, -0.5630535796574365, 0.12263896170645482, 1.17280352311461, 0.2354775603162253, -0.3974544682356257, 0.8442270210408075, -0.6323764194874315, -1.310469833891901, 1.6583419248752507, -0.021544957759460085, -0.2325627825060806, 0.4107896408141601, -0.1518747533445524, -0.2791126374203338, -0.09929855083670545, -0.10277109958187906, 0.9936855515154137, -1.023508674935878, 0.02528240280124435, -0.040909171784771485, -1.4960037843430856, -0.03363272357212657, -0.8098592836146059, -1.9113414972298994, 0.9250834220302152, 1.0781399615256544, -1.2142027476023072, -0.5327882737594828, -0.5551377331650978, 1.2613639214215229, 0.2390040165565857, -1.5863713658583358, 1.8752155890383986, 1.4032572686636589], [1.3513317711831168, -0.8044368535344202, -1.1058336337217805, 0.21134949864109773, 0.17942509498942588, 1.8953384939722526, 1.5639085991471777, 1.2657383952918555, -0.7935858662048121, 0.8786620762668863, 0.24143726270301608, -0.10687171803454365, 0.07781806054436068, 0.9644719420148196, -0.4346821387489646, -0.18802892883128766, 0.13308648188357175, -0.7330254725632744, 0.980167122567703, -0.7064259098168298, 0.32845102913324065, -1.4847236704115132, 0.7085751694745017, 0.591049258525074, 1.5802969672953422, 0.6606840410398224, 0.1103117450631133, 0.24754951439303383, -0.48709417922744497, 1.0864460184886435, 1.5372226911311697, 1.4510627396671567, -2.139426761326662, 0.6738406748278599, 1.2621325727809551, -0.21491818838596347, 0.6075945273513957, -1.8600648024282649, 1.2510430055683368, 0.2601582157365238, 1.0418201766714164, -0.5329609650475263, -0.38182956413559055, -1.5846463328507459, 0.6952812514969681, -0.39376256870234083, 2.0789147867019646, -0.04374615556890035, 1.3049325034852943, 0.5869547597836511, -1.14849404001532, -1.8484802592669267, -0.727409644801297, -0.6510068022463624, -0.9863316381621502, -0.5964905477787159, 1.0288197921551758, -0.08318145705789713, -0.4922600273670509, 0.15645859112677202], [0.8843324591405404, 1.5627023323880298, -0.2902616486672247, 0.6797250906140506, -2.081783758984061, -0.6415907514439421, 0.14003637366289493, -1.5771689668968805, 0.9906610077259955, 0.3075764014700612, -1.4788782648828143, -0.839252519185791, 0.578285725923561, -0.7080191229101013, -0.64714213274312, 1.3769405220530562, 1.3197750532854085, -1.347505965286277, -1.3835658832370148, -0.8035718670580628, -0.5450267975424784, -0.26808457457662344, -0.34320558774763016, 0.6410091321003494, 1.4058232790495615, -0.27846925965841896, -1.012995181508938, 0.33500902038889313, 0.6987113957499168, -0.3072966914097644, -1.2258259411690708, -0.11898626578954265, 0.5690037464410983, 1.1583278031782913, 0.906211439806319, 2.112757436445697, -0.38790380143269143, 1.0386329650686723, -1.452958503236579, 0.8536721355929466, 0.7922992475616277, -0.9034560479428638, -1.2143481305155022, -0.35285112064884777, 1.5617107471444942, -1.1982763892856867, -0.7591496456978308, -0.07607719387330325, 0.2847918797431443, -1.0239046341426927, -0.10219335270872512, 0.5432503219920666, -0.08536721905663686, 0.4002688619867519, 0.6438468393489154, -0.24414734045643607, 1.4120230304250683, -0.19590964879580594, -1.2860485122490062, -1.4548872569675333], [0.8863392981544097, -0.6176266642149241, 0.12146086677374486, 0.3881181224546153, 0.17688073983484687, 0.6408904012808377, -2.2930192212918943, -0.2104135055811167, -0.7802227466379188, 1.6165264803910817, 1.437483119820715, -1.350036830237207, -0.872458237372766, 2.077073342082948, 3.065375778836824, -1.9972302053677846, -0.7434470870786926, -0.8363930822536516, 0.43123614065910065, 0.6210139356976354, -0.8766611022218168, -0.30528580771515024, -1.7872652408562228, 1.1520075748904286, 2.1716112305632755, 1.2138923496501994, 1.374296059598315, -0.5680405679946737, 1.5489515770970097, -0.13532892054839546, 1.3412127859839271, -0.07098651366617661, 1.0964526953845457, 0.5306822970838649, 0.07117361444734628, 1.9874909673434709, 1.572454694775158, -0.8649590042988304, -1.0953558029161536, -0.9100178072469781, 1.5471337999489425, 0.8414272317002127, 0.14629581613334483, -1.0878754196933846, -1.1169792965929266, 0.8099129463378043, 1.8997173631215785, -0.9113804511689975, -2.2853752535079566, 1.7053770331536766, -0.30285908948656687, -2.448092957183281, 0.0773080558754348, 1.5610681656493568, -1.0630670765331092, 0.4545704118174506, 2.3667035925931708, -0.8351321396273615, -0.5649495072755695, 0.36192395272478534], [-0.2986733578005294, 1.7106656148008037, 1.2776582914222356, -0.5173707012357651, -0.2681604789968069, 0.23403075054444436, 0.06010034736450193, -0.607783608329204, 0.25835703733688575, -0.29945003568494905, -1.4849191735911702, -1.2168771105030591, 1.7942095228853925, -0.8977709314054558, 1.566835855673182, 1.906322034901296, -0.38037836317305834, 0.09906742002545305, 0.8395162540510647, -1.2804280073688898, -0.43403100855178606, -0.9756554973862817, -0.5446850007943016, -0.4525158951706506, 0.3877373099039722, -1.9145632937853496, -0.5490610994419228, 0.351101027708131, 1.2076244771547908, -0.6368503683087485, 1.4832332864658901, 0.8263924616935339, 0.14218934464869804, 0.9742036242643025, 0.7533570954255957, -0.6717981898604752, 0.12595119504343946, -0.17970047032083628, 0.23245355766388864, 0.30153010852197554, -0.17365070908105504, -1.2866139263834895, -1.6667268123588574, 0.34108950945999994, -1.586294703505935, -0.784609233891835, 1.3134857581107693, 2.073604617566168, 0.27340975395844797, -0.9037973929938656, -0.6930974129701721, -0.8296409848974411, -2.9656255382665107, -0.1885650340009895, -2.311592457925766, -0.239330509659699, 0.5999897689792121, 1.623518420676744, -1.776320197426049, 0.09983547441228868], [1.9118072030195954, -0.46037763107981516, 1.0848914625679638, 0.0899822819922741, 1.4308313734953766, 1.5289035867015084, -0.32154200673809036, -0.8149413041468154, 1.2942084314394993, -1.53354599193584, 0.2939060308407726, 0.4409608105150495, -0.07288759276361484, 0.2799828248230257, 0.260738908225568, 1.2741290762009656, 1.6821103735361713, 0.8841702761321416, 0.3501553292249818, 0.13545531341436395, 0.19259013068427505, -0.1231571690541058, -1.417802507085611, -0.8301186992440104, -0.9503590319674853, 1.5250943302964086, 0.15839100387755087, 0.4126755673306731, -0.5611210450861018, 0.5874497298747118, -0.7068852124521389, -0.9890041294903917, 0.36770459561210755, 0.7159561929264527, 0.8074313850125375, 1.169772458398957, -0.08885784468013494, 1.6356845314887494, 0.5765417591190309, -0.20219325544810246, -0.3455554094675274, -1.4831292679222987, -0.493560314531549, 0.032549461987847444, -0.5210716964847023, 0.19849086759676218, 0.6589344257491693, 0.05335196644848644, -1.1714364413991065, 0.6103310935962883, 0.8540438645061879, 0.2643172021752165, -1.0050508754847352, 0.5501732124731089, 0.018122829430718967, 0.015464261791777392, -0.23160620386722, 0.2098984727999808, -1.5352346663077965, 0.16613238529564153], [-0.9256442530739237, 0.5823076480727831, 1.6261913087375588, -0.08016821698340067, 0.9285232860955657, 1.1744002662836401, -0.37179376225576527, 0.6751928647611067, 2.353632457872703, -0.6178725902361503, 1.3459356574786177, -1.9642435566061465, -0.026684260621161533, -1.4495643579799866, 0.7108889494637893, -0.6354648802326225, 0.20750695442204106, 0.022992629152436397, 1.3058130031318562, -0.7776737474413795, 1.5758960821499177, 0.3081068226144164, -0.6113653414624608, 1.202851341372161, -0.5965806547148835, 0.13134168416683573, -0.22180437346046755, 0.42126715758446054, 1.7577400258991143, 2.1948555133849923, 1.9890215866598024, 0.3605542366477313, -0.44962438913834374, 0.6382460240396942, 1.1917649853193844, 0.8138717270017612, -0.25723667748867124, 0.05935708466581427, 1.4734577536048867, 0.3503564283669292, 1.0451041093969946, -1.5822860525464084, -0.40308061409787443, 0.4006795994819088, -1.279513652866972, -0.7809738972326027, 0.3249540971063818, 0.5088878879740277, 0.3494011452001626, 0.47415731807136197, 0.8508978752030951, 0.17858307079505148, 0.9937199020899177, 1.5873920132445598, 0.11684633235520617, 0.6495940954533636, 1.2900348010643754, 0.7777962504717875, -1.038903381966068, -0.08448838169006899], [0.609052500931313, 0.2796029420603316, -0.5795207292538673, 0.534828423248557, 3.417953139003676, 2.5345248775720606, 0.0011830621831813647, -0.9504622111229658, 0.16308505277268107, -0.6444369693571075, 0.7788221074790546, 0.4941167460778092, -1.2971594288276191, -0.39418337693452477, 2.3539948181540615, 0.9406565928917167, 0.42349051249991476, -1.0319726608073316, 1.2648016646190716, -0.0756124920972183, -0.9678908486959885, -0.8487929922258985, 0.6446450805362065, -0.031644109305425105, 1.0808427769484967, -0.5529015750605072, 0.3187457418375401, -0.5239986063677017, -0.2086147247714179, 0.342236521923808, 1.3676106869478037, 1.1674848578743247, -0.521645966875245, 2.0883771441813503, 0.8604684786828635, 0.533659700175655, 0.36157876339811157, -0.0595128127467172, 0.396535222437379, 0.041039144840197696, -0.31332219436502373, -1.2532083249976356, 3.257030066999173e-05, -1.5368498944233202, 0.5167787590502207, 0.5056838872760047, -0.5708962522896183, -1.2623101779383445, 0.34359617067235293, -0.21464137964832095, -0.06327902471581072, -0.0024067238988011407, -0.9306522862782007, 0.26429461645557195, 1.4208135564707307, -0.24951808370166575, 1.4858178546724234, 0.32504442299794634, -0.8749826064453424, -0.20474542326612202], [1.7188310104586242, -1.069870121176747, -0.07416475160880749, 0.2831454017423836, -1.8131329899796702, 0.5667331736700291, -0.2202525680799837, -0.36263181075071105, -0.49714633129506386, 0.5696887478516309, -0.19056152945979898, 1.0942439241408168, -1.2022290846452723, -1.994653477088802, -0.3512385287319489, -0.05658372296162692, -0.2849671717563636, -0.6414445087075575, -1.523433852429045, -1.826237743811944, 0.17861489558389015, -0.8546897363600802, 0.5615018731525361, -1.9786796980864017, 1.1325334508559264, 0.7758182148544058, 0.7802135889119421, 0.5540824580268895, -0.8399679507444974, -0.44710460955123327, 1.8704235317385838, -2.5733569019027396, 0.715522415827575, 0.6325025648715557, 1.2009711194128017, -0.4601011411158458, 0.5010184892366, 0.5828238554134908, -0.5863193555002192, 0.7460732467645697, 0.7445329242845338, 0.5401598582058763, -0.3802186138582686, 0.7754656996481484, 0.382127595087342, -0.10412652233974866, -0.35809359163764676, -2.2757582153298404, 0.2618702129288824, 1.5686851818621728, -0.09829987932328661, -1.7037740134586843, -1.2505193812044528, -0.8377328915726459, 0.3627284119904841, 0.6288043110210517, -0.3734815064332766, -0.44526827834247895, 0.28262426343033786, -0.330186243275097], [0.46153937571231246, 2.14455649697763, -0.5494099947894806, -0.6977681214377459, 1.4508256721104418, 0.7946509630798247, 0.5380737106584245, 0.20088656066289912, -1.092778006355454, 0.5120380538847279, 0.9362628033470366, -1.5413482323032928, 1.383909738833779, 0.40851182855422846, 0.6420561371716901, 0.19119503481344982, 2.393041735243111, -0.4140859767146035, 0.5151382957720071, 0.6774068570224757, -0.4310611323140784, 0.5633473516381207, -0.5469022461731095, -0.4104644931876187, 0.6732797491924855, 0.16956447661686225, -1.0277003426755686, -0.4869311684493448, -1.3954706115639943, -1.9350905642026686, -0.14568340795001622, -0.5987666776486418, -1.1985842567500524, 0.45828304696916655, -0.11789437970133218, 0.560391590795228, -0.1476554619899932, 0.10716841869724142, 0.396546159521242, 0.5316994100490198, -0.513404547746867, -0.0976148496127266, -1.4252566131974727, -0.8374178129689924, -0.5931855751532908, -0.3498870840276177, -1.0999395785450876, -1.0165728863614414, 0.3263205080785086, -0.21679887424454702, -1.207617829273526, -1.9083070146571124, -0.8428294408565501, -0.9484366791733465, 2.6116574310268077, 1.076265533426379, 1.2000893683618457, 1.2997699216167227, -1.5011606633216625, 0.9492530151352164], [1.672950393859038, 1.3618702455165719, 0.9657007272681033, -1.0597417925330668, -0.4100816076944142, 0.05542279351907413, 1.8413938832764236, 0.8848637338625635, -0.807761326414246, -1.618861296105211, 0.051377389309937856, 0.35411545062754657, 0.09516388144733368, -0.10305837293389479, -0.45948310771464645, -0.4866957871676655, -0.6969108536197998, 0.47294315717422053, -0.9347854541181494, -0.4749644983410689, 0.9400928284768868, -0.5369147980583686, -0.24844240038074733, -1.6503721100227668, 0.16852155267610616, -0.707286470624478, -0.4597467075164409, 1.1418369981450203, 0.37583667434222956, 0.101569624173067, 0.6629860135024869, -0.30112223077250316, -0.12198410276624068, -2.024367708140696, 0.18641139873447138, 1.0782705664244077, 0.28554199301660554, 0.6386234945579753, -0.8052455647134884, -1.225556800919566, 0.851166538614036, -2.6814630305248657, -0.8038412024278452, -0.8837010451703294, -0.09850391841199534, -0.8958691020325626, 1.377468384370002, 0.7567067855531898, -0.7185278170022042, 0.09519940471203818, 2.0480953800822013, 0.8958053860649208, 0.8060243832322225, 1.1195667240645268, -0.2546785191356437, -2.712056381378306, 1.5508940691429853, -0.03136815410296187, -0.24591831161471983, -0.5290017570066637], [-0.47826168284811216, 0.38436879928434187, 0.9435378797415607, 0.5283539157987486, -0.04961238268796425, 0.12051396939876588, 0.32417890307787156, -1.4287327567457175, -0.4609264620548892, -0.3225117675587998, 0.14938987822566022, -1.1474763863933803, -1.492724211279258, -2.2120402637326992, -0.5351964711469358, -0.16799497562088844, -0.3839754328869236, 0.6117660070509189, -1.1290147300935522, 1.3998820644876226, 0.48638049106894066, 0.6068668225166358, 1.4035718786677118, 0.5320931213409509, 1.1792403485874208, 0.23421929040735942, -0.2875976266734576, -0.7732439864142668, 0.379559463255367, 0.9392934281911669, -0.44207381062669526, -0.6475341072789198, -0.3914013437315231, -0.0698748695067838, 0.2846319286803053, -0.26522649122283615, 0.3280225688963934, 0.7947976794990532, -1.627967408019622, -1.0983691898853725, -0.2353782763444843, 0.4153030614380504, 0.9756108433871589, 0.38956148567553867, 1.2203005227136625, -0.5871613765090444, 0.6691141971944241, 0.30513861932512437, -0.21061669548731435, 1.2803360857340156, 0.8585006443731008, 0.2690589847370447, -0.7992474978557812, -2.161304132386659, 1.6157345031079677, 0.31268591761194264, -0.00834016583104721, 1.6541589705350397, -1.331842315775019, 0.005173597551009747], [1.464093032562301, 1.8952542659190508, -0.04937396258353305, 0.9139660885926452, -0.45670662270152934, -0.0765865191713132, 0.330527523666603, -0.09856778792881098, -1.0624376770547752, -1.9396624259480106, -0.7817771834196501, 0.24541955378306846, 0.9698227678543744, 1.0229907152903857, 1.3263677101423192, 1.571632761841355, 0.3691948014058013, -0.17843929064697156, 0.47509587094973443, 0.771811708646448, -1.0653461344975486, -0.2958188904112449, 0.5484339702740723, -0.2816300298606768, -0.460998116419164, -0.48180282643370087, -0.12866772874363208, -0.06576565089657253, 0.3523758016547582, 1.191913282438214, -0.4901304145339966, -0.4911069455736828, -0.31049943174385436, -0.8692133884635931, 0.8580244365449249, 1.2547055435403813, -1.019543905548803, 1.3351484795789712, -0.3440925525026122, -0.5764760878923003, 0.915624610631505, -0.2575045469056378, 1.0496130650292854, 0.4460977872156931, -0.3358816815573333, 0.4826181209881219, -0.4382433418079157, -1.3377069857652597, 0.056633844505200565, -1.6779903870807724, -0.680722806919382, 0.6559786074035265, 0.36052435614100037, -0.5789342701437173, -0.7568933681268022, -0.12358211865817638, -0.811924479005292, 1.8160807240862316, 0.08952885737220126, 0.8439672018846376], [-1.1773371380545459, 0.6518788783669035, -0.8634249587660356, 1.1659562863703081, -0.23382441807734666, 0.31094627267674685, 0.020323813572355832, 0.6853640179991182, 0.8392554981675924, -1.3590952069082676, -0.8141451139765337, 0.8909935491257635, -0.8844259906570282, 0.04166677316584924, 0.8131948563112922, -0.5346807041486754, -1.3798513111232615, 1.350071209887479, -0.7776170933599763, -0.15227553040488168, -0.8766550629969663, 0.1358889172270311, 0.906171579035801, 0.548513647069969, 0.7056460467026664, 0.3379679497382324, 0.6557490938618645, 1.6244594560982366, 1.5606493696862622, 0.5119317279045968, -1.148758388258053, 0.603599626203552, -0.3326003631711035, -0.5895096857166525, -1.410782028645837, 0.17942789692033423, -1.1010060881025998, -1.5376284570289855, -0.3730146501193026, 0.2648115155342084, 0.2086538312994164, 0.20870791059002078, -0.0772636277818158, 1.1361178724846304, -0.6212638488871215, -1.617064726095591, -1.1610410845135635, 0.26832275039072573, -0.4430552269740973, -1.149141472726068, 2.6947915079348235, 0.3344629752181232, 1.0150702615603717, -0.2388891636603573, -2.8999356264806777, 0.10126016391133713, 1.4207088165369175, -1.4533413405221147, -0.052065646716739175, -0.19534517865859713], [-0.5647748223893312, 1.786837019766743, -1.1327217493712811, -0.09585752608674006, 1.4011782795724579, -1.3199001804235428, 0.20604036831820075, 1.3542021855295356, 0.7846878389362486, -1.166001455649459, 0.548673716858981, 0.5609456156375368, 0.29448967252419384, -0.40486936829286246, 1.4724135386021788, -0.9764398757065548, -0.5363107589665197, 1.2513060401005316, -0.09989309775095236, -1.2886744640973837, -0.20764160049024655, -0.7140543081046002, -0.18407242717849068, -0.12605811579827134, -0.17352875853494062, 1.9794165188137391, 1.0964781249048718, -0.29283227854088817, 0.9934116641538796, 1.3890620603105746, -0.5958515672541483, -2.0969911951286035, 1.097769771566277, -0.492760676453744, -0.663106955654986, 0.3356897892949063, -0.7257794400123582, 1.2051983438492588, -0.14209031208667244, -1.8044854468240128, -1.0682143633817678, 0.8522057489725997, 0.429354423320954, -1.0027900205961953, 0.8289359427749199, 1.3983255994509716, -0.04629267411758723, -1.8677622124927478, -1.3744644272642643, 0.24668282541944983, 0.04944353437078819, -0.4720010779435478, -0.9720939252456278, 0.48238298697126863, -0.19815400171297007, -0.5285489188898808, -0.8675698821394396, 0.25387768980045106, 0.9490104473578761, -1.043758711559748], [0.09714235404341078, 0.4688966962554475, -0.7968285188142222, -0.5130173786166439, 0.7758035792301313, -1.1888915823938562, -2.307107805188302, 0.3790418508080659, 0.34581267843649705, -0.7410123425514912, 0.5920806753892484, -0.5535039031857854, -0.06156763644395445, -1.1793835451606645, -1.7366720499810129, -1.0214093777933764, -0.21973804611500214, 0.7521965033306383, 1.3044540433053182, 1.5300948436013402, -0.6834396033948765, -0.046314075436616725, 0.022559611552254742, -0.8819524493450356, -0.5238527336752364, 0.1559666293879042, 1.124795983387535, 1.3716924172855387, -0.5962878408927891, 0.05730745288239685, 0.8219293058929237, -1.1935784015659423, 0.030774474308845404, -1.0104001635966702, -1.3274734125723504, -0.12230297550057183, -1.4905956330610255, -0.9064293192061245, 0.12252143056908806, 1.0000277009393286, 1.1554936200665649, 1.0980345877838695, 0.9067810471057757, 1.8290850976504742, -0.6792767689509606, -0.4087674780156226, 0.09321213850820746, 0.4458382250552912, 0.057377551453451706, -0.09554468607605267, 1.561085919205521, -1.4642789511118943, 0.2098041449328901, 0.8086350805476797, 0.4917252467131971, 1.8778549833064981, 0.6796257531173125, 1.4850319589046939, -0.3043561333973495, -0.5613722342658735], [-0.13795988171913087, -0.9445050331718019, 0.08106641344157518, -0.24711904360607634, -1.301728634942824, 0.43974114345066, -0.33128851093914075, 0.5328384598368324, -0.23604270775146094, 0.9806924490773558, -0.4536780609853792, 0.22105592835736018, 0.08372036981129133, -0.8425472165271768, 0.7735309734929955, -0.48555624588519447, 1.4387568431839686, -1.7872372940554142, 0.13823341777031042, -1.2183226076847098, -0.5872505367776201, 0.531695957957151, -0.4899923038734272, -0.14044864194371234, -1.11901439453371, 1.8478504560120215, 2.143917392348614, -1.243093582938429, 0.904385028629842, -0.7159751447029473, 1.3167781736697886, -0.9618710058697572, 0.1595073918929587, -0.6574227373325293, -1.30191369105895, -0.6106515144367148, 1.6164714337611152, -0.6545516978904035, -1.203398054536772, -0.9223271906340067, 0.559877178268788, 0.38036668325600886, 0.32320866905995366, -0.851843121300849, 1.0680496898037533, -0.35369053402217177, 1.6967968164304807, -0.43057872882630277, -2.19478272895636, -0.2026991292229439, -1.5583899494150704, -0.8815554541159606, 0.4538188066028545, -1.033377694309697, -0.744591370122062, -0.09857995515526351, -1.1797561375782994, -0.11462694972559574, 1.1269419385099944, -0.6562583431214288], [0.34802185704029254, -0.10588349477530212, -2.116459312770308, -0.8353851468314707, -1.7787875948214433, 0.3081221077245952, -0.18724198866697853, -0.9752367229166087, 0.3412399361159137, 1.4918727766452904, -0.3726231535806293, 1.1578172901916532, 0.6760064275227197, 0.42736293127212965, -1.3733117151260579, -1.3241723830769023, 0.010201924283800566, 2.4379655565469758, 0.5115513179892311, 1.2305521708540692, 0.2027052087008869, 2.5292325448312614, -0.5078090424957998, -0.22351592844720974, 1.8634728747471778, -0.49443481448766297, -0.3722225669949321, -0.09342650938778216, 0.13469782000182837, 0.09811327172744293, 0.5256175528031799, 0.18862353377894675, -0.16153340879509806, -1.0574437102473937, 0.17149782870194039, 1.0008031305174199, -0.09354579479659882, -0.4916225802318129, 0.367031750449553, 0.6081596847840518, -0.17848292263172058, -0.7393780879420567, 1.4471308971448722, -0.14286787098431655, -0.49463244419316704, 1.3153769959878137, 0.3825803898583595, 0.0429117319117673, -0.5971773451331633, -1.8182731819036588, -1.8212186177818404, -0.6472007347969079, -0.37227321747788295, -0.16022512615964032, -1.6756477799655518, -0.8565077705644599, -0.8258935215329889, 0.16911419637356512, 0.36102720984600084, 1.0685750868717991], [1.2795622195992296, -0.48125740014807017, 1.710537367305993, -0.33785168055998477, -2.1289641415067093, -0.3105785790293405, 0.6053077959722066, -0.6562569901098099, -0.13509738895217704, 0.011081153379644494, 1.1894002706687858, 0.021279965489766937, 1.164238278426304, 0.28344798366877505, -0.8776435988548964, 0.1095169772845349, -0.18932003644411108, -0.24843894957036836, 0.5104982471790886, 1.6571511112942117, 0.042037347607428006, -0.8524559078309178, -0.5491998027472174, -0.45567310176518644, 0.16288346657094507, 0.587119760440487, -0.1348333592342182, 0.06018552900129947, 0.22499726404882364, -0.6185995077622245, -0.8042259164278435, -0.9496851583114444, 0.3450556308979381, -2.2692393970814466, -1.4623353226245452, 1.3483895407339375, 0.021439989808616042, 0.11151394608752853, 0.588657028146616, -0.002109755288195705, -1.664439351904079, 0.6393432792363525, 0.6085019279015429, 0.7959364666029889, 2.2728201441100224, -2.1889083074267166, -2.1772998982509497, -1.38627629002271, 0.06538140198398908, -1.2874971193017168, 1.3094684837555386, -0.289687694260153, -0.3306252314664149, 0.6843218544584346, -1.284609181297337, -0.16912083068119507, 0.7862733213763646, -1.266985287946704, 0.6135871983352773, -0.5373219014765568], [-1.2632121636230547, -0.6561270617925138, -0.2952484085733592, 0.44621901876818987, -0.0963358068871429, 0.5372140678927955, 0.3669537351849749, -2.3941142952294605, -0.3786118014030519, 0.6895974178019032, 0.528412956809543, -0.17234347543236897, 0.8238149013311086, -1.61701514743572, -0.022090879041456218, 0.397640993245509, -1.2300957699754098, -0.10728629337631446, 0.77375993380201, 1.0214022468904815, 1.279211192214832, -0.7222110673795762, -1.6277349079001338, 1.2250426225572986, 1.3925540391600602, -1.3563103804699723, 0.16810959735868644, 0.5251750137537797, 1.0135563158654985, -0.8827718867359495, 0.7736612002540342, 0.2059685727357451, 0.8499776670292755, 1.389445938232811, -2.1732786797517534, 0.5315204443406019, 0.2751083855700231, 0.020144593973752983, 2.1463603162409597, 1.5259424285839651, 0.1083612502112828, -0.030757668968710863, 0.850442767344037, 1.2508602282210175, -0.11473284442100834, -0.10468108008561502, -0.689281936635372, -1.572338705407618, 0.08480724942846161, -0.11454179093278358, -0.09161569875935303, 1.228313942979579, -0.5205279001784919, -0.638047842066378, -0.19371326463815725, -0.8210787474916146, -0.10779026979053796, -1.5043964688814713, -0.15130464421852305, -1.3603945750619832], [0.1502273759651493, 1.5008305135893663, 0.3651149641074834, -0.6355104000829128, 0.68096166116878, -1.0517906970690174, -0.42147077537565175, -0.43264661757338235, -0.4582762488876077, -1.255563114015387, 0.36562358668545397, -1.1164718649279457, -0.746975560952239, 0.24315569685499372, 0.6079419889266067, -2.3921440855024443, 0.16387376248452895, -0.8732887388447188, 0.6294120763548173, 1.1044284031112992, -1.7541352961126415, 0.6381546053660694, -0.6272995218596163, 2.8393933213681173, -1.1712707616640152, -0.5239805248873327, 0.5011108795881467, -1.1338455325015402, 0.5772382469049827, -0.755086417838683, 0.28743996280654915, 0.8820354792602692, -0.14220125979720868, 1.1362816804443026, 0.6647098458164398, 1.1567673782988366, 1.024611902929239, -0.38440542849609005, 0.4916326136799228, -1.2245960375962583, -0.35487061553791155, 1.6749575244024313, 0.9920373081248427, 0.9711682111477321, 1.1858459174009568, -1.624563555891729, -0.9596617120408779, 0.028789415906571636, -0.9430009583442183, -0.38969611138521393, 1.1340429697665146, -0.7313432822178009, 0.9899777457042354, -0.8167998346750767, 1.3986754024444255, 0.2372191746727802, -0.5872447608086828, 1.2180795991691942, -0.7631884359724553, 2.2244266295532595], [-1.2703591039002748, 0.4827412166047277, 0.06383609551039075, -0.03764646307755113, 0.46206591377084566, -1.482285482483711, -0.46935195292565257, -0.24103516662961535, 0.4674918442843103, -0.9810483386370639, 0.6220220417791366, 0.7244025856190083, 0.22171305845427408, 1.120948459024175, 0.9075399318471351, -0.09107745070493944, 0.9793511143631274, 0.26609732856696633, 0.9952068779556502, -1.9679355770765747, 0.24615546351656295, 0.23934291072131703, -1.504888013526502, 0.014545258461620827, -0.11474423153610211, 0.885924562378792, 0.9549305077911218, 1.8007550778404657, 0.04087178788664504, 0.42327061222701146, 1.321771093994102, -0.11977370837109372, 0.0910026930317993, 0.4916308501784821, -0.1609336791461647, 1.065336783283391, 1.0807245328721296, 0.34159787848084544, 1.6947761556829233, -0.2772646606060257, 2.5917539037207633, -2.3198309544217457, -0.13554990829723687, -0.09226268974121893, -0.6423487681663547, -0.46623457849888983, 0.20569977981837412, 0.9724897855983522, 1.4916120752110664, 0.49875698662249823, -0.45363115129041914, -0.8390170531568918, -1.3219243861886163, 0.26511143691969785, -0.003959528910398776, 1.1701546545524208, -1.3334433777015045, -0.6039289092988122, 0.8060960103031042, -0.7859533098317665], [0.9385858625215076, -0.11479900551460055, -0.5415482757427422, -0.2769203918029513, -0.3992207429250094, 1.6189641675918198, 1.3295163420771574, -0.05474932241453107, 0.20724204546365643, -1.1675907635024951, -0.9580756568009848, -0.9717671476554854, 0.7154105593028676, 0.018799424300262813, 1.1427357200018882, 0.2765140656632776, 0.7423176628402113, -0.4043788528201864, 0.6557897634256263, -1.1953594944854562, 1.0768529900451327, 0.7971078072055815, 0.7397156482058268, -0.722217183787487, -0.42162609883518887, -0.3855496461729466, 0.36662151542998134, 0.5804916642702255, 0.5374941903746889, -2.074931793123905, -0.19816176144899186, -0.9985737114559156, 0.43536612973441063, -0.3158777030695989, -2.1268575102095135, 0.23246997555509927, -0.9221183307231002, 1.559748005275242, -0.7250343562453077, -0.5737222414773634, 1.1672077796082394, -0.018417562843375677, 0.10786821434088795, -0.2643314092094536, -1.1101541485577675, 0.5289075907920661, -0.9506136994757075, -1.478250882492603, -0.011355655702950537, -0.3697965009323449, 0.5270731247150532, -0.6039418612708161, 1.045133446169155, 0.8656823033980675, 0.6568544845048201, -0.4640087163624134, -0.2464086927783072, -0.10844589142588508, 0.22760044337103677, 2.073410380320405], [0.15521034424850724, -0.3222246949053405, 0.4055698380785168, -0.1977879350798648, -0.2015090341191196, -2.07539539673227, 2.109278426188383, -0.06848552392566642, -0.779123925024395, -1.066696162820639, 0.514254143430764, -1.810554232898794, -1.8286685662817261, -0.020921698690650813, 0.8742839624039191, -0.5172803996842888, 0.2657681500983588, -0.8800371933938409, -0.5870044203406136, -0.8956867551587674, -0.4357630387500017, -0.01600719381345543, 0.1384963196867053, 0.4662640667672749, 0.7466671313969683, -0.2669476976549469, 0.17671749983901638, -1.9790821105864873, 2.1687464232814717, 0.34260124643078854, 1.982862551202297, -0.11159766379448904, 1.5756287361499364, -0.022833972646398137, 1.8973401435031858, 1.6358772963679642, 1.0912711430375668, -0.5774547590053686, 0.16626934280664424, -0.7227246173531329, 1.6283821029026928, 1.7493615114453973, -1.042512146037716, 0.37606492475303704, -0.5976930769160139, -0.9108653823900379, 0.5121145584722973, -1.6414766402213752, -0.16333606738790696, 0.064479447070827, 0.716501964467081, 1.0571136290973724, -1.0610186331351812, -0.2759394280232938, -0.5811555118080955, 0.8856057929286022, 1.4854992663690336, -3.276660181135063, -0.27773493799340365, 0.19903165977151357], [-0.6722045776721823, -1.083940858121164, -1.8888732032777196, -0.8696830785018914, -0.23789136184325993, 2.813590122964095, -1.4810185534476485, -0.5938734169180167, -0.7823282598517262, -0.9472889486811391, 0.797395836550744, 0.2551691051846096, -0.5133477025236799, -0.8051147244676498, -0.2175934639719921, 1.4486145421933856, -0.8203740251559952, -1.2068781702643754, -0.2069760763723238, -0.9078332666990784, -1.0908630074849646, 0.4766833061875832, 0.4114215495536936, -1.0250512489684405, -0.7174549868568261, -1.0148353220509256, -1.2035474999648743, 0.32527323633224475, -0.5302039771038564, -0.21215510690628445, -1.0080488807324024, 0.6011592617976048, 0.11795332229799974, 0.7337978170084781, -0.5006947051831477, -1.0279136763825423, 1.2454257731520655, -1.0948359651037551, -0.9917654704000305, 1.2398518286648648, -0.631233880672842, 0.553499629362088, 0.21941069048594425, 0.46091460268265927, -0.7715185856859377, 0.2774595041122375, 1.3597084853329027, 1.3304224874486696, -1.435728001985876, 0.9030926502550971, -1.038355192098129, -0.1486980215773546, 0.04043916119636923, 1.2473836685758817, -2.8195617985801698, -1.097800673414861, -0.2152574644734408, -0.6403170732441222, 0.2665043459444216, -1.3167062039179882], [-0.021333215634727, 0.659987367855407, -1.510018880093498, 0.6087893100560561, -0.3172617996244571, 1.4610497793078963, 1.1341022726026386, -0.09877976057340179, -0.08640033140706635, -0.6494926501885688, 2.239471449439289, 0.9780225955400761, 1.0153651518081055, -1.3551785339129923, -0.3605857257011512, -0.940550219491991, 0.18834431734981044, -0.02023078765091758, 0.273501606781039, 1.7335021646352828, -1.173869666235505, 0.7601635867189899, -1.2976538890490037, -0.04170618763887406, -0.2906626456251062, 0.5630638738966061, 0.30246034354539225, -0.0745354434983003, 1.66657562666146, 1.6056333250011998, -0.9140070695736363, -2.150456760959738, -0.10076734947969608, -1.5202694899810494, -0.35848093727201996, 0.030755260851002844, -0.16112967726232205, 0.9724987651871132, 0.618088617183374, -0.4334835563825044, 0.08061057958972537, -2.6322071939419622, -0.441128282944123, -0.3601496834150814, 0.14252361146548193, -0.5508919590514506, -1.2471085140446359, 0.17155598663267813, 0.6271961069192674, -0.7089399206152729, -0.8903583134338265, -0.8997753088178166, -0.09321480339389003, -0.5193391053306543, 1.443191200012867, -2.105768690731197, 1.1282430393273324, 0.5503825569340034, 0.13791147163168294, -0.3959877232947902]], [[0.16247867247501332, -1.670226561067284, -0.901669091355206, -0.19759152592419565, 0.0319658523589664, -0.7210720154811644, 0.43904639070195933, -1.5321385387764246, -0.7993130174897838, 3.0641847130854236, -0.9089957858811178, -0.5675599898372603, -0.6380147911920843, -2.0888640451331963, -0.543930599144911, -1.305741147093966, -1.301036619243222, -0.8915303548054944, 0.46582376158626615, -0.8451114128006985, 1.573398948481821, 0.15478441245693833, -2.5877230854400395, -1.605899606130675, 0.06831484666347852, 0.2911009393601744, -1.1403987882755104, 1.1436100411928456, -0.18839941366551766, -0.16100140822563508, -0.11043320380011452, -1.3419495333406677, -0.09356559065484511, -0.2498991756380417, 0.29686089283040634, -0.5775360645188468, -0.677973334111885, 1.0108362835058204, 0.7940658659256156, 0.41684891832478504], [0.23167274713578867, 1.525278444385695, 0.11921117175836297, 1.146766139968084, 2.019736453132278, 0.947739618282975, -0.1930501002692993, -0.04298166253174817, -0.6632508043825387, 0.20543109042597785, -0.7857125146279887, 0.08214590572742198, 0.87627005838499, 1.3429003577668126, 1.3710706731142497, 0.28943758435170347, -0.7929754270656604, 0.6734241430482126, 0.9971278521561919, -2.4700763724728185, 1.273224023683971, 0.24410378220865908, 0.5614620600862046, 0.8109731348177622, 0.04740157854524352, -0.5217401835354808, 1.2276303534631035, 0.18972893589786216, 1.1068143943131663, 1.2140404304078392, -1.5478830571157114, -0.6101625803876342, 1.1345738403786727, -1.4247261558539557, -1.5052720438651015, -0.31443025709746475, 0.46237539414942974, -0.2892879552483771, 0.35598452646138146, -0.20371098844915497], [1.2722183887824037, -0.27274846408987796, -0.9702989500446292, 0.7769897134497717, -0.27426551551366635, 1.2813520389406599, 1.181597390822609, -1.74682554359729, 0.5706783964003781, 1.057978503605383, 1.7640867475286257, 1.0594736646626468, 0.46042379786299464, -0.05402702595257119, 1.0979186675049304, -0.4221785881783516, -0.1267333534293247, -0.12881081222711344, -1.027471861256486, -0.6346351984527507, 2.1170797786864073, 1.2965419904143762, 0.6890144860903615, 0.52904239595341, 1.2868015814825455, 0.8908639113596482, 0.3431474876289991, 0.17697314863218747, -0.3363838815988112, -0.107901383035975, 2.085401499932331, -0.754064516740773, -2.277404835242354, -0.6261748135419964, -0.008425317921624613, 0.645568637239684, -1.5175262924080535, -0.663304831132749, 0.8717186042020292, 0.5505798370425452], [0.3781045467960885, -0.6971852469622143, 1.4098498790576584, -0.28348162644739366, -0.7620129836076619, -0.5530536105210018, 0.30692435856839795, 0.6761364742585799, 0.09216989745436005, 0.20809579640840492, -0.6704841618010094, 1.0166342045968166, -0.01069989338180011, 1.276771990381573, 0.856951255607941, 0.7437717649220882, 0.07073435787645187, -0.1378776461390539, -0.4047601905649957, 0.1234217928426483, -0.617383414133314, 0.23128198230577768, 0.7553573192794091, -0.7519802229575722, -0.9871308249341054, 2.6727202022559564, 0.5004162189141145, 0.5919284501735436, 0.749377605318748, -0.5680800513362032, -0.6090299052637289, -0.2369962079356359, 1.268871541850161, -0.5008954261269686, -1.5382531373654857, 0.8211072098757091, -0.17143508553340922, -0.14351680203326575, 0.2694054970728301, 1.7781017291910686], [0.1554721093406132, 0.35357124191450684, -1.0632208239210703, -0.2515747281953059, -0.36840612043504645, -2.447277819001229, -0.9255443612834613, -0.8379917590045689, 0.327344236425908, 1.524905525924059, -0.25654045459000613, 2.0279018074739086, 0.2248540301233414, -0.28026089593991804, -0.21211978632920456, -0.4727570445494289, 1.3576917118967733, 1.930355492309501, -1.2001743356062544, 0.5700036805812541, 1.936761583826206, -1.789614687074672, 1.8409730545910805, 0.08758296070422761, 0.12748727352180822, 0.2961847061510981, -1.5856300723065588, 0.19381107559503172, -0.17671424687300213, -0.8016413053165538, 0.04294807688006103, -0.059608588039936634, -0.47984479135057295, 0.21618714267421626, 1.3939835643975471, 2.21385908560793, -0.025873643404236948, -0.65340909864878, 1.067886595910129, -0.4621360206355731], [-0.08363938790004868, -0.16591749782104823, -0.3633668881108498, -0.5753124564684224, -0.8443692184158614, 1.312871272393986, 0.20622454865914572, -1.5637231043579376, -0.791669748340056, -1.2375228434529273, 1.1952181982221857, -0.04716712984157573, 0.5252343147956656, -0.2881061153713275, 1.226194834836652, 0.6221092374146645, 1.2146426613189463, 0.8753621648708578, -0.6191133005145922, 0.5984305743965884, 0.14207563691201766, -0.6391944026310632, 0.16743931145337448, -0.6590697631118786, 0.027691479747786626, 1.1565013153244434, -0.47040095636561513, 0.902636327167097, 0.41488350373516175, -0.03901356517035142, -0.5082238087015438, 1.0812453188780509, 0.7360121828614431, 0.22198501278858584, 0.8742659080812974, 0.2861821789861521, 1.2882115294269212, 0.41423474222585766, 0.015941721903675963, 0.6585576890503658], [-0.1129232195134758, -0.7917371124510476, -2.1447954583939572, -0.0676699832916365, 1.1804468423359489, -1.5392280171577992, -1.2719560316622867, -0.06786682840227615, 1.1234301214113636, -1.6961121358105054, 0.5091728000458229, -1.1877904784798952, -0.15199688272878542, 0.6027043119024666, -0.5205008468690231, -2.391776612979781, 1.0199473229140383, -0.490537296374191, 0.19075044424944076, -0.418114475492814, 0.14880743895632045, 1.7503278028367741, 1.1691558944247082, -0.7389642385065893, 0.1741049438047361, 0.41748385051704096, -0.6878939730584273, -0.9622633759378274, -1.4787549244805946, 0.5638921556854781, -0.5884922835237404, -1.4060754664263366, 2.103542313134713, -1.2691522225312757, -0.1079199918680131, 0.1192099258502247, -0.3788178861221362, -0.008232969960741564, 0.3704977328489396, -1.8488838197443307], [0.5809097751943922, 0.7989961336230414, -0.02262350365506155, 1.1753974669337128, 0.44875113316340876, 0.4344479896654862, -0.9755097449708596, 1.4622826399454312, -1.2048671722967739, 0.1336245145459333, -0.03328197067817316, -0.5882178010579566, -0.17750994995273345, -1.1864888144965606, 0.8670047413223284, -0.17733524493172367, 0.4093088026325194, -1.0432094143496295, 0.021064098997340883, 0.40358904174413374, -0.18709487524314314, 1.2148314398415203, 0.0676410854661697, 1.5938200142120302, -0.5571807579221842, 1.5534988424403564, -0.6581342355689761, 0.035965240866804936, 1.0192945318688662, 0.20784119349554644, -0.1660565821954965, -1.0050571397653172, 0.381500822712371, 0.9013806422939676, 1.2694554516295329, -1.346815591782259, 1.4840785874026978, -0.10029865341240393, 0.31320316337547444, 0.07229234300401527], [-0.254990953400633, -0.8158080289104224, 1.4043890754731463, 1.2237386426910952, 0.01783607659769617, 0.7199790865651854, -0.3107479089837053, 0.3014973606418298, -0.16215437116919731, -0.6981659646940271, -0.5002458338435782, -0.7808360792152613, 0.2266942072085297, 0.3874283604742925, 0.12702061833067485, -1.4018558279312217, -1.173285394463145, -1.4710230378919091, 0.940410023970237, -0.1453047231810949, -1.13056995899967, -0.8922094305348858, -0.3595373815099837, 2.017809062266428, -1.3594105378226389, 2.638188775890108, -0.48873826430534417, -0.9882251947718447, 0.10943130208287867, -0.7142861657281621, -0.2686108313476882, -1.0130112163296343, -0.30705358413437706, -1.3694117101606877, 0.39763638127076173, 0.22063538251604517, -0.3913972979699002, -0.02017370297217297, 0.1799640855110028, 1.0761333403044928], [0.9735821020489653, -1.2550531560714537, 0.1715736793852524, -0.9773776604777373, -0.09967272658631429, 1.9054873042849778, 0.9236119364184042, 2.402253977253849, -0.3677005124947266, 2.2289755222025676, 2.1167389342055647, -0.21445085802989303, 1.295114621301306, 1.088563230084928, -0.46309579847300275, -0.9134833303296093, 0.7107454163623707, -0.04134164674649132, -0.5011147102052183, -0.9776746155925973, 1.400750149364117, -0.1848382819035923, 0.4292072244193447, -0.08152526514204331, -0.7048665714637536, 2.0281889868461818, -0.7102995188886881, -0.79909199396454, 0.16712070914868948, 1.1725198160574004, -2.1197677193590376, -0.25393486377646035, -1.3383232428023064, 1.9204095680816529, -2.0976791278295064, -1.2447645275769388, -0.8269108813266567, -0.005498506554455999, -1.7923979400859609, -0.6580215323932398], [-0.42055865739643317, -0.536714964208396, -0.30352594949970396, -0.762300345337361, -0.5052517508790837, -0.6138501888698017, 0.9771548082483451, -0.5382599855680879, -1.0170351576658019, -0.809032692992654, -0.04744414302359034, -1.769465729439291, -0.08805086955688476, -0.7350295607445183, -0.8304618175725597, -1.0268573423113851, -1.9193592078141213, 0.18650949761678362, 0.9850789978487215, -1.8640163312772402, 0.9201066072728807, -1.4935500917001274, -0.08597419567366056, 0.4694932758840191, 0.32116787131410096, 1.6218842583330204, -1.0651543170188529, 1.029064892974862, -0.15810980684268028, 0.15260543932618295, -1.9374386646815962, -0.3719364705667985, 1.257391765096222, 0.8073351295599762, 1.9738248744575573, 0.712312778136887, -0.1154546641657954, 0.49043409313405545, -0.35346805355200905, -1.3884468363690907], [-0.9126315954978678, 0.1453679886301141, 0.4208027661286858, -0.31795689487040835, -1.0693929805309788, -1.6238803745533301, -0.7641336427804248, 1.5982657841737924, -0.8681122787249941, -0.5414323787922686, 0.14881803439564295, 0.15253054832792776, -1.453337327570826, 0.404956506626549, 1.869156639707545, -0.5802027184125713, 1.258552908511158, -1.3150183726800209, 0.3827324792808962, 1.0390540270156952, 0.3690563314557568, 1.6858308465733782, -0.5398579128640667, 0.2159707690587053, -0.32012680362026413, -0.8946754270191533, -0.21707190422343253, 0.4135623035577854, 0.368885775638348, 0.5892485683413576, 1.779418859516249, -0.7588180623576702, 0.6340350936140132, 0.9623881466926819, 1.1924272327182979, 1.1084742579157114, -0.709994967458883, -0.7848714595108031, -1.5392182947366868, -0.05511915979933911], [-1.9451952516717304, 0.8075089241752275, 0.4947138128428912, -0.7434456860749231, 0.7036599738461005, 0.4956407767403131, 0.5288950108144044, 0.15536276769522006, -0.5928407879925519, 1.1756122788186032, 0.1704404434138072, 0.40694969678183257, 0.3696504119729095, 0.5279997380032271, 1.0244001367309334, -0.9721203900994807, -1.8147067771368661, -0.6851981823439776, -1.6734992938030187, 0.3521427303522503, -1.0626462635761664, -0.9244166676697496, -2.257759282970799, -0.8590326706591264, 0.14303012795857467, 0.03415132337731961, -0.5997199112103961, -0.18020637252551727, -0.3056240628587028, -0.31184433730956324, -1.122090902415427, 1.4495994326879709, -1.5129750626414105, 0.20655303755277557, -0.27215276551106543, -1.2756099777267722, -1.5032649736658732, 0.7650560705111028, 1.6226092548094722, 1.0269725748370224], [-2.0404258805079625, -3.0371731509347617, -0.6779250062170314, 0.631522363545723, -0.5133156453854949, 0.5279739610313865, 0.07334869440567464, 0.34919059215569065, -1.0779698249402767, -1.645386359915875, 1.4265281533197054, 0.7586602939360207, 1.650608916149629, -0.6268457110521389, 0.2933179188098848, -0.35032615534386585, -0.7848659865924772, 1.5594911044800956, -2.4711205141657993, -0.5888583817873985, -0.039471327768492485, 0.46374302101456855, -1.8968753764427577, -0.0018132398846176585, 0.2778751936340432, -1.8901942646468044, -1.3191536326632003, -0.19234891518329547, -1.7658990464021143, -1.4632534958477466, -0.6630381219805395, -1.118182591093686, 1.798504283462812, -0.4335848361362394, -1.6033108428023517, -0.6136972942167354, 1.0378122273997747, -0.9181346337447248, 0.2232819486741089, 1.2772698418637212], [-0.5349707070729339, -1.4135698897129059, -0.6077796460546306, -1.3922908043215196, -0.3551463197881144, -1.0478834448341856, -0.22723402229387415, 0.3123519060863401, 1.0741131978309466, -0.6198135387025406, -2.1392292622664515, -0.9028792809092487, 0.1457413618552973, -0.32791335139022626, 0.29286230692227294, -0.19512740239043144, 2.159628208236383, 0.7934757362370155, -0.38648055181205804, 0.5714321638796426, -0.6937418599993048, -0.07839333069620126, 0.23561965122898948, 0.4802835510649384, -0.53792492252395, 0.35263167448757854, -0.06214088866675936, -0.149536542341391, -0.3779590170808569, -0.8272764824513505, -0.033066275600132596, 0.5996881616448124, 0.20780966181272773, -0.3545709946626565, -0.2781387008825757, -0.724678584284627, -0.8960090078489878, -0.5881073817253333, 1.9692839407878822, 0.4330370597937552], [-1.5062351738886175, -0.23101856460549605, -0.2652879474481994, -0.8817337804761097, 0.2329416035075384, 0.6722079370619336, 0.20206164352691275, -0.3672904160377638, -0.5866262139700544, -0.08174868085661459, 0.9663138130439113, -0.7754880020436736, 1.1326358588273848, -0.3388002117082491, 1.0748955824688, 0.8968777200813266, -1.9420070211270801, 0.292075375257099, 1.1247507301410458, 0.7941049445278646, 0.3159484211809303, 1.1191542361992433, -0.49865879807205377, 1.2962782123805874, -0.3970562257103484, -0.34008815362518247, 0.04014035955363022, 2.1125896852692074, 0.8401348571645619, -0.45382797097484906, 0.5262257209857402, 1.063877985648316, 2.2920444865887233, 2.522940981648212, 1.443670104587333, -0.9651509903254744, -0.655100869380134, 0.6922794652365447, -0.7207878328752976, 2.1732432881385164], [-0.5765601190309836, -0.41102035150956534, -1.4576591265029075, -0.3980989679155968, -0.07630167317266914, 0.4778277281621247, 0.9920410368633099, 0.5130142296303128, -0.9504278815945824, -0.9210426629915988, -0.9176385914588304, -1.1519611880939784, 0.29047494482421077, -0.8405641367080207, -1.3773815778408405, 0.7201375818470568, -0.3689813551206513, -1.24407559776821, -1.8291294801360178, -0.5692829067583459, 0.05618314398189406, -0.19454684871209685, 0.9348991520911233, -1.1984456526600722, 0.4589236095894081, 0.5259182741773619, -1.529799280147101, 0.639106534953382, 0.8758247273160578, -0.1173563136762987, 2.0897731706080176, -0.7296565108735875, -1.5597325955617187, 0.23474137446769058, 0.7332476769664039, -0.07943117295676058, -0.2248896282625453, 0.7669807038955206, 2.0681306980176104, 0.15886070261207505], [-0.7915852526418586, 0.3733163282757249, 0.8126198169371202, 1.249369019970625, 0.3398141596279553, 0.3970305228402266, -0.5172670593188881, -0.40721119355971896, 0.4600493549539751, -1.5978023515058564, -1.4013018258691485, -0.9345110639346005, -0.9281586317698405, -0.9607804979285518, -0.6737565379223298, 0.6352849786518507, -0.7146579466694142, 0.7282815336568292, -0.7292513137482688, 0.2028577517750442, 1.1903571937619546, -0.4337379748019561, 1.0064607503859482, 1.6296298647615879, 1.2843794524769288, 0.10855121236371337, -0.20769183307897787, 0.42822792221318196, -1.4912871786689306, 0.19237832317008624, 0.2220373537946094, 0.564144066933085, -0.38745302556516437, -0.1785114360353274, 0.019700203420080033, -0.41328278088288767, 0.42372587322766125, -1.3666575758939543, 0.2654564955065324, -0.10373735705641228], [1.609145809929615, 0.3289286764977232, -0.15026629090031826, 0.36713073189051454, -0.41319517224849067, 0.03759457844037823, 1.1554191792015676, -0.08747517399353662, 0.13810664217575636, -0.1771374804122861, 0.8647705394308237, -1.5376482923969093, -0.8697872896381973, -0.5138692021356708, 0.782974391320976, -0.5493544110188003, -1.2496973638608653, -1.9658267579313422, -0.7804895914442592, -0.03233467758112039, -0.14057829700429184, 0.4562093923983421, -2.0590782039818194, 0.22475270919955218, -0.07170230293302571, 1.9802478756328636, 0.49538456189109803, 0.6668577580604246, 1.5142794383089644, -0.17896262120185194, -0.8210865721632151, -0.28850834123915176, -1.9467185245653182, 0.7221730294961769, -2.2932335885340898, -0.7005226909784038, 1.2598285111147727, 0.5108794286617517, -1.2402151046613101, -1.0228235869243139], [0.6133629494530786, 1.7627384991815087, -0.03539838428839729, 0.1591023018291453, 0.8454255998110051, -0.03977093837283429, 0.6188009751212955, 0.2783071027959494, 0.2819162812185153, 0.1632071091728742, 1.8817561579794904, -0.8071250973444593, -1.28172490095173, -0.627284187355153, -0.2443653074887857, 1.731290128114937, -0.4901947313485385, -2.3778833325014115, -0.21525549731617516, 0.1469257110005102, 0.008442540908583712, 1.087746877054758, 0.3349647617784125, 1.3085486231210386, -0.2026965927520462, -0.3517049400813729, 0.4175725966300689, 1.036866836357102, -0.06807717174559193, 1.5370908021214256, 0.7151211771572382, -0.27742192781922165, 0.67797901230229, -3.056883805597493, 1.0807688365985824, 0.6046192868318945, 0.6645067641902735, -1.0612589066888822, -0.022398578823676348, -0.9081044635619818]], [[0.6743430851651231, 0.08807458976184787, 0.8264551255102385, -0.8831672335661779, 0.18243480659225642, -0.6942776312245907, 0.7753797362455723, 1.8515089229647976, 0.362768892457332, 0.16092529394077423, -2.04627036140425, -1.5020873575459082, -0.6267541022423123, 1.8479043887977453, 0.4078381172563448, -0.9141062733174316, 0.5241066937814792, -0.3246274215357507, -0.33300460582500785, -0.004440212907539254]]], "ep": 1500}